Weight,Input Node,Hidden Node,Output Node,Layer Index
-0.2090995040415081,0,0,-1,1
0.053827767263722445,1,0,-1,1
0.0643880587656196,2,0,-1,1
0.054391519191414134,3,0,-1,1
-0.15237685582321006,4,0,-1,1
-0.06853897520513122,5,0,-1,1
-0.12297606611382844,6,0,-1,1
-0.1291544112507925,7,0,-1,1
-0.029906026454557522,8,0,-1,1
0.03305859234881488,9,0,-1,1
-0.1396993234809807,10,0,-1,1
0.06027226645129129,11,0,-1,1
0.05117146023433787,12,0,-1,1
-0.1428798482169297,13,0,-1,1
-0.10363171968857016,14,0,-1,1
-0.042443118484314285,15,0,-1,1
-0.10728837606979455,16,0,-1,1
-0.15559886463251663,17,0,-1,1
0.0793032721886203,18,0,-1,1
-0.05818702500178896,19,0,-1,1
0.04138834453991254,20,0,-1,1
0.11339046173326853,21,0,-1,1
0.21945253932821682,22,0,-1,1
-0.1451060625266579,23,0,-1,1
-0.09547379159922878,24,0,-1,1
0.2041263266655147,25,0,-1,1
0.03957757314449409,26,0,-1,1
0.018783201863428727,27,0,-1,1
0.0535812038805564,28,0,-1,1
0.04506963678928132,29,0,-1,1
-0.042014519668313405,30,0,-1,1
-0.10176348987681466,31,0,-1,1
0.07983228658466664,32,0,-1,1
-0.1990687611453664,33,0,-1,1
-0.042746209879302374,34,0,-1,1
0.07191521715372291,35,0,-1,1
0.03367059346787907,36,0,-1,1
-0.05429892024935259,37,0,-1,1
-0.04929179689737636,38,0,-1,1
0.12736150622457393,39,0,-1,1
-0.06099972150012813,40,0,-1,1
-0.053053863296661403,41,0,-1,1
0.010574715719694051,42,0,-1,1
-0.0460201802254829,43,0,-1,1
-0.29088714646755987,44,0,-1,1
0.08332180851216471,45,0,-1,1
-0.005401891654974768,46,0,-1,1
-0.01929437144215559,47,0,-1,1
-0.13471012663261048,48,0,-1,1
0.061514439705615896,49,0,-1,1
-0.03606239878040249,50,0,-1,1
0.10287248141858127,51,0,-1,1
0.1367090218910378,52,0,-1,1
-0.09403005846519022,53,0,-1,1
0.0009099298106661663,54,0,-1,1
-0.02398362032917355,55,0,-1,1
0.12330944425585377,56,0,-1,1
-0.10464990014463055,57,0,-1,1
0.15075188110876261,58,0,-1,1
-0.019069334379590856,59,0,-1,1
0.14569315556767345,60,0,-1,1
-0.05451031840852862,61,0,-1,1
0.04504773182111391,62,0,-1,1
-0.0025620195950307573,63,0,-1,1
-0.0970932292681673,64,0,-1,1
0.13486421511644686,65,0,-1,1
0.0067251885211566855,66,0,-1,1
0.15924099888406687,67,0,-1,1
-0.09989304966746317,68,0,-1,1
0.08849870004405201,69,0,-1,1
-0.056415723300283487,70,0,-1,1
0.12311274384741985,71,0,-1,1
-0.06906473372230608,72,0,-1,1
-0.30328420258019245,73,0,-1,1
-0.02546833124987805,74,0,-1,1
-0.005176799405135649,75,0,-1,1
-0.03323694640560544,76,0,-1,1
0.002049413843800408,77,0,-1,1
-0.1291629167135286,78,0,-1,1
0.15225108542439147,79,0,-1,1
-0.08374329105872552,80,0,-1,1
-0.09415302807113439,81,0,-1,1
-0.05925662572043064,82,0,-1,1
0.03529249656612268,83,0,-1,1
-0.05325044847732707,84,0,-1,1
-0.07855469602632165,85,0,-1,1
0.06470057327255949,86,0,-1,1
0.08954111869237066,87,0,-1,1
0.12267368655523496,88,0,-1,1
-0.08447901970906281,89,0,-1,1
-0.12990646683423748,90,0,-1,1
-0.05050013684674004,91,0,-1,1
-0.13624819888109008,92,0,-1,1
-0.014982007493294485,93,0,-1,1
-0.17551188053604308,94,0,-1,1
0.016366574406092158,95,0,-1,1
-0.19813346056961134,96,0,-1,1
0.07362724169136733,97,0,-1,1
-0.2887518555801163,98,0,-1,1
-0.23405355254644272,99,0,-1,1
-0.13969143563925648,100,0,-1,1
-0.01980188997094537,101,0,-1,1
0.039447144848081865,102,0,-1,1
-0.1429502480794746,103,0,-1,1
0.10065256845092578,104,0,-1,1
0.04509932708668896,105,0,-1,1
-0.031027987190753857,106,0,-1,1
-0.20519892376558777,107,0,-1,1
-0.05591019983458233,108,0,-1,1
-0.024631909901826662,109,0,-1,1
-0.05742742189322641,110,0,-1,1
-0.0006325936200852737,111,0,-1,1
0.05594613507147696,112,0,-1,1
0.06505283734257938,113,0,-1,1
-0.049349333023289504,114,0,-1,1
-0.025320658048505213,115,0,-1,1
0.0016008527166198165,116,0,-1,1
0.041602748058671056,117,0,-1,1
-0.1153466726874414,118,0,-1,1
0.09909090817905514,119,0,-1,1
-0.10514381620785034,120,0,-1,1
0.08116982111719713,121,0,-1,1
-0.18680393469750353,122,0,-1,1
-0.2956815129003628,123,0,-1,1
-0.2951994155437769,124,0,-1,1
-0.27578164077945433,125,0,-1,1
-0.13741902141549828,126,0,-1,1
0.06385258593088818,127,0,-1,1
-0.20823128104185407,128,0,-1,1
0.034284352857750326,129,0,-1,1
-0.10726585969909992,130,0,-1,1
-0.14348549724802898,131,0,-1,1
-0.18915351558438662,132,0,-1,1
-0.11478489983603071,133,0,-1,1
0.11623898833344892,134,0,-1,1
0.058364073238845564,135,0,-1,1
0.006038766623475694,136,0,-1,1
0.08318740078749806,137,0,-1,1
0.017740878472314574,138,0,-1,1
0.17625847758958593,139,0,-1,1
-0.013985474846490537,140,0,-1,1
0.05805684685423207,141,0,-1,1
-0.08354865798690936,142,0,-1,1
0.040066408022697377,143,0,-1,1
-0.08417432098824132,144,0,-1,1
0.0061376894052083885,145,0,-1,1
-0.022752333150931434,146,0,-1,1
-0.18772328656919995,147,0,-1,1
0.0016297646087263193,148,0,-1,1
-0.0022184820648410105,149,0,-1,1
-0.10189236021518772,150,0,-1,1
-0.38272618023465643,151,0,-1,1
-0.14816156282326978,152,0,-1,1
-0.08579589257926619,153,0,-1,1
0.09662865030399533,154,0,-1,1
-0.2684612569805303,155,0,-1,1
-0.400161185105081,156,0,-1,1
-0.730143507700949,157,0,-1,1
-0.6594634268086413,158,0,-1,1
-0.39414819184309996,159,0,-1,1
0.041274806432612644,160,0,-1,1
-0.05208926895622078,161,0,-1,1
0.08801678381617385,162,0,-1,1
-0.07208790707058284,163,0,-1,1
0.1769663437293855,164,0,-1,1
0.3096029105783133,165,0,-1,1
-0.044851861903525185,166,0,-1,1
0.08258523638006549,167,0,-1,1
0.08613092791380525,168,0,-1,1
-0.1879517548663707,169,0,-1,1
0.11360503935318328,170,0,-1,1
-0.08496661121911282,171,0,-1,1
-0.18743134101806544,172,0,-1,1
0.13257161250115593,173,0,-1,1
0.013769087559996283,174,0,-1,1
0.06237144196838923,175,0,-1,1
-0.0060854858961954545,176,0,-1,1
-0.00667809070577261,177,0,-1,1
0.08599879716410132,178,0,-1,1
0.33537062235885284,179,0,-1,1
-0.2345028244494748,180,0,-1,1
-0.19947341898739715,181,0,-1,1
-0.18766496642560918,182,0,-1,1
-0.2941393981291678,183,0,-1,1
-0.5175862433778644,184,0,-1,1
-0.4937197230314877,185,0,-1,1
-0.41121455388587436,186,0,-1,1
-0.15702810758692962,187,0,-1,1
-0.15161130322736957,188,0,-1,1
-0.1439446538864853,189,0,-1,1
0.11605974096158048,190,0,-1,1
-0.030284137807999115,191,0,-1,1
0.20965317771245354,192,0,-1,1
0.04344290381342057,193,0,-1,1
-0.010539310724002078,194,0,-1,1
0.036905878654765314,195,0,-1,1
0.024978868093002298,196,0,-1,1
-0.04981586924834829,197,0,-1,1
0.2453656125485912,198,0,-1,1
-0.20286501769224782,199,0,-1,1
-0.1561434214066994,200,0,-1,1
-0.028227271639845328,201,0,-1,1
-0.028260200539432748,202,0,-1,1
-0.23527472942137642,203,0,-1,1
-0.3846272768695556,204,0,-1,1
-0.17357982716052647,205,0,-1,1
0.03643037060471028,206,0,-1,1
0.1399742476323367,207,0,-1,1
0.22600846971228286,208,0,-1,1
-0.013848589667104762,209,0,-1,1
-0.2750857465019106,210,0,-1,1
-0.3339953273447044,211,0,-1,1
-0.2416522820186629,212,0,-1,1
-0.13884246088003704,213,0,-1,1
-0.08836627116608277,214,0,-1,1
0.3643238729156777,215,0,-1,1
-0.006020458300691964,216,0,-1,1
0.06954482193231837,217,0,-1,1
0.39541555844355447,218,0,-1,1
0.035308731732504324,219,0,-1,1
0.3658736136638242,220,0,-1,1
0.20946274790847177,221,0,-1,1
0.23607914797777413,222,0,-1,1
0.07301319680578265,223,0,-1,1
0.1369252954521516,224,0,-1,1
-0.06657482990120907,225,0,-1,1
0.06025774167348045,226,0,-1,1
-0.006084619185886941,227,0,-1,1
-0.09430050175353584,228,0,-1,1
0.01893142092540632,229,0,-1,1
-0.05927759305759819,230,0,-1,1
-0.14626372073177338,231,0,-1,1
-0.3051262340599334,232,0,-1,1
-0.09301637472450959,233,0,-1,1
-0.0393463220654587,234,0,-1,1
0.07351147979013278,235,0,-1,1
-0.25932971281262385,236,0,-1,1
-0.4339872927058338,237,0,-1,1
0.0877772081613096,238,0,-1,1
0.5900427910758637,239,0,-1,1
0.7444142481880738,240,0,-1,1
0.30752740924235716,241,0,-1,1
0.2026115421891462,242,0,-1,1
0.5760380299817179,243,0,-1,1
0.7991029664060862,244,0,-1,1
0.37599429015688157,245,0,-1,1
0.4087709023249284,246,0,-1,1
0.7539306040002395,247,0,-1,1
0.2075493818343649,248,0,-1,1
0.032083778866705076,249,0,-1,1
0.07626143508947589,250,0,-1,1
-0.03270813174257821,251,0,-1,1
0.052796672679423604,252,0,-1,1
-0.03276870106336234,253,0,-1,1
0.18481360476452172,254,0,-1,1
-0.009125082629290739,255,0,-1,1
0.1571014547539203,256,0,-1,1
0.031209886137009465,257,0,-1,1
0.2760022225371054,258,0,-1,1
0.3005043551601522,259,0,-1,1
-0.16342307512639043,260,0,-1,1
0.0945733549270069,261,0,-1,1
0.1764407532801335,262,0,-1,1
0.29601062368379777,263,0,-1,1
0.43948282216846635,264,0,-1,1
0.41514035082344847,265,0,-1,1
0.4665463026426727,266,0,-1,1
0.6636851133739755,267,0,-1,1
0.5111987517900307,268,0,-1,1
0.9860236872456484,269,0,-1,1
1.3429687384079927,270,0,-1,1
0.7297015034397974,271,0,-1,1
0.5009975430942473,272,0,-1,1
0.2771088083219281,273,0,-1,1
0.3870158836242282,274,0,-1,1
0.6752582055783317,275,0,-1,1
0.1482938914126978,276,0,-1,1
0.2211415080570329,277,0,-1,1
-0.07438060584662713,278,0,-1,1
0.1466955221278504,279,0,-1,1
-0.054023222147345694,280,0,-1,1
-0.17927516193224127,281,0,-1,1
0.06342150137621791,282,0,-1,1
-0.1013681327191639,283,0,-1,1
0.016462419021009905,284,0,-1,1
0.337196281993937,285,0,-1,1
0.12905370779478115,286,0,-1,1
0.14652422294499656,287,0,-1,1
0.11361379933258299,288,0,-1,1
0.18672144789568818,289,0,-1,1
0.24020369542887765,290,0,-1,1
-0.007081886595223452,291,0,-1,1
0.011328273510318277,292,0,-1,1
0.115191513231488,293,0,-1,1
0.06370930005129993,294,0,-1,1
0.006307227272865482,295,0,-1,1
0.34165977038828893,296,0,-1,1
0.4124965794591388,297,0,-1,1
0.26880777380966747,298,0,-1,1
0.4277649966954376,299,0,-1,1
0.36681463967882394,300,0,-1,1
0.07582384076608023,301,0,-1,1
0.11850008747975053,302,0,-1,1
-0.6132161710412882,303,0,-1,1
-0.21701972813734308,304,0,-1,1
0.31321585279103764,305,0,-1,1
0.08212358264058336,306,0,-1,1
0.003057885324530606,307,0,-1,1
-0.026252950830365034,308,0,-1,1
-0.04640208765070113,309,0,-1,1
0.03447164114878916,310,0,-1,1
0.06958576928381381,311,0,-1,1
-0.058779027650315875,312,0,-1,1
0.19856132254240078,313,0,-1,1
0.18621899517021234,314,0,-1,1
-0.20643406629085284,315,0,-1,1
0.07749822665913371,316,0,-1,1
0.3742565475140984,317,0,-1,1
0.208817358964127,318,0,-1,1
-0.04540092338233436,319,0,-1,1
0.2558657838538866,320,0,-1,1
-0.1469780042346591,321,0,-1,1
-0.6851336955673627,322,0,-1,1
-0.5486802158755115,323,0,-1,1
-0.5678549515556057,324,0,-1,1
-0.4688269575541592,325,0,-1,1
-0.6920988416873683,326,0,-1,1
-0.3942107374390184,327,0,-1,1
0.06080510582128985,328,0,-1,1
-0.14733238105862642,329,0,-1,1
-0.36753497988111716,330,0,-1,1
-0.4883808394100761,331,0,-1,1
-0.4182712433612522,332,0,-1,1
-0.12689904575017633,333,0,-1,1
0.04469282233655467,334,0,-1,1
0.3046699276136933,335,0,-1,1
0.04763789509092861,336,0,-1,1
0.20690257478598315,337,0,-1,1
0.05534547315321474,338,0,-1,1
0.16151684034196878,339,0,-1,1
0.17369664385870123,340,0,-1,1
0.09002331757762436,341,0,-1,1
-0.24140173326280032,342,0,-1,1
-0.050966308381208046,343,0,-1,1
0.03744625345256892,344,0,-1,1
-0.15681605844586777,345,0,-1,1
0.6661238977279509,346,0,-1,1
0.3709536547713912,347,0,-1,1
0.2563789249553474,348,0,-1,1
-0.14180401182796484,349,0,-1,1
-0.6129634505218184,350,0,-1,1
-0.6113641164295772,351,0,-1,1
-0.9714229218516963,352,0,-1,1
-1.0160760771432626,353,0,-1,1
-0.8111629238822035,354,0,-1,1
-0.5495928793973446,355,0,-1,1
-0.7389441330216635,356,0,-1,1
-0.8554949564278989,357,0,-1,1
-0.5253438445731552,358,0,-1,1
-0.5240120842599888,359,0,-1,1
-0.33321019496374316,360,0,-1,1
0.11694122377103766,361,0,-1,1
0.11500254243285549,362,0,-1,1
-0.013768823285114204,363,0,-1,1
0.07100776319224211,364,0,-1,1
-0.05093523839815067,365,0,-1,1
0.17244070150531132,366,0,-1,1
0.057784859855508346,367,0,-1,1
-0.037191780363870795,368,0,-1,1
-0.15737218812023296,369,0,-1,1
0.020338695147064198,370,0,-1,1
0.28277073914679574,371,0,-1,1
-0.09225575967460883,372,0,-1,1
-0.16662165777061477,373,0,-1,1
0.1460749786873074,374,0,-1,1
0.49732503154025665,375,0,-1,1
-0.02447407134752833,376,0,-1,1
-0.4340273137149129,377,0,-1,1
-0.3863892981938802,378,0,-1,1
-0.8457940041132388,379,0,-1,1
-0.7658182676728863,380,0,-1,1
-0.9653410763011921,381,0,-1,1
-0.7894512027801461,382,0,-1,1
-0.9092703484094878,383,0,-1,1
-1.1212534755466494,384,0,-1,1
-1.1420868225502965,385,0,-1,1
-0.9264363366100907,386,0,-1,1
-0.4495560325378154,387,0,-1,1
-0.27246806318668204,388,0,-1,1
-0.06686678110349821,389,0,-1,1
-0.03555654564395554,390,0,-1,1
-0.11597583201013799,391,0,-1,1
0.02370468272739804,392,0,-1,1
-0.012286879023051084,393,0,-1,1
-0.13795643266755123,394,0,-1,1
0.22816285772045342,395,0,-1,1
-0.09414501565329697,396,0,-1,1
-0.034120950495377916,397,0,-1,1
0.14936008575516435,398,0,-1,1
0.2033144906168831,399,0,-1,1
-0.03455777787047866,400,0,-1,1
-0.3531191534562626,401,0,-1,1
-0.07244902512360755,402,0,-1,1
0.01804076742375272,403,0,-1,1
-0.549472354581458,404,0,-1,1
-1.006506577180329,405,0,-1,1
-0.4822174166747612,406,0,-1,1
-0.4543266682516974,407,0,-1,1
-0.614427458307579,408,0,-1,1
-0.34745082534997485,409,0,-1,1
-0.39162304846324886,410,0,-1,1
-0.5232029401778489,411,0,-1,1
-1.0585081976026371,412,0,-1,1
-1.0139339531667195,413,0,-1,1
-0.7961312501788576,414,0,-1,1
-0.5127273601243726,415,0,-1,1
-0.206614997093022,416,0,-1,1
0.13571538847036818,417,0,-1,1
0.09660220421219577,418,0,-1,1
-0.037483639859952234,419,0,-1,1
-0.16553255003007586,420,0,-1,1
0.0362825774889438,421,0,-1,1
-0.2198297608433728,422,0,-1,1
-0.04592050670111158,423,0,-1,1
-0.1444089278944045,424,0,-1,1
-0.18923658753302994,425,0,-1,1
-0.19795167945677955,426,0,-1,1
0.17829027053093108,427,0,-1,1
0.24193107968800986,428,0,-1,1
0.11503811426430444,429,0,-1,1
-0.08829653153273645,430,0,-1,1
-0.3223124996803303,431,0,-1,1
-0.6917872295946547,432,0,-1,1
-0.7127070863050597,433,0,-1,1
-0.28466229859616776,434,0,-1,1
0.14087540076542857,435,0,-1,1
-0.2707582766337231,436,0,-1,1
0.11889072792365193,437,0,-1,1
0.41427128045523487,438,0,-1,1
-0.03164985334516056,439,0,-1,1
-0.3354188683898296,440,0,-1,1
-0.7453818235258333,441,0,-1,1
-0.2759983804874458,442,0,-1,1
-0.290208481695745,443,0,-1,1
-0.006067770825652696,444,0,-1,1
-0.17541517987832606,445,0,-1,1
-0.03565524661339046,446,0,-1,1
0.0056471028514628666,447,0,-1,1
-0.16989497936982537,448,0,-1,1
-0.14198402732481777,449,0,-1,1
0.08528631080524654,450,0,-1,1
-0.03561919054652701,451,0,-1,1
0.06339444871381099,452,0,-1,1
-0.44153211614249704,453,0,-1,1
-0.39933528306814087,454,0,-1,1
-0.13889810900787686,455,0,-1,1
-0.1422168282773492,456,0,-1,1
-0.10093611810449335,457,0,-1,1
-0.40566821906401435,458,0,-1,1
-0.6602292046667365,459,0,-1,1
-0.5503625210469324,460,0,-1,1
-0.2662192938955152,461,0,-1,1
0.031506468928457335,462,0,-1,1
0.17062508207378033,463,0,-1,1
-0.009867626771052065,464,0,-1,1
0.628949500525587,465,0,-1,1
0.3568704623884076,466,0,-1,1
0.11210816797065551,467,0,-1,1
-0.3460115839969603,468,0,-1,1
-0.21958459635096145,469,0,-1,1
-0.27052273826104245,470,0,-1,1
-0.06351201460753621,471,0,-1,1
0.13390704867542214,472,0,-1,1
0.057995396067275065,473,0,-1,1
0.05873180488883189,474,0,-1,1
-0.16467868832988647,475,0,-1,1
0.017605898894802106,476,0,-1,1
0.02917146264140628,477,0,-1,1
-0.16887910943955553,478,0,-1,1
0.13206623227413444,479,0,-1,1
-0.12386166619880504,480,0,-1,1
-0.37705381091686424,481,0,-1,1
-0.27973506080922383,482,0,-1,1
-0.37535725780195034,483,0,-1,1
-0.31047399759334077,484,0,-1,1
-0.3905278240055943,485,0,-1,1
-0.39467453676865877,486,0,-1,1
-0.31264300702381964,487,0,-1,1
-0.08871214267635527,488,0,-1,1
-0.43110217196108147,489,0,-1,1
-0.25094167455259275,490,0,-1,1
-0.2639086949270992,491,0,-1,1
0.24555650803830126,492,0,-1,1
0.25341957143729377,493,0,-1,1
-0.03982199373108267,494,0,-1,1
0.05761045992959731,495,0,-1,1
0.10722377570463247,496,0,-1,1
-0.23675091370421533,497,0,-1,1
-0.1954969845682505,498,0,-1,1
-0.043152239183097706,499,0,-1,1
0.026134766670019693,500,0,-1,1
-0.04288681247016459,501,0,-1,1
-0.15675579961622954,502,0,-1,1
-0.030078387467572378,503,0,-1,1
0.04433454585979757,504,0,-1,1
0.11711132110814462,505,0,-1,1
0.014371663296802365,506,0,-1,1
0.04580890043349765,507,0,-1,1
-0.035673291828996215,508,0,-1,1
-0.04930526425175106,509,0,-1,1
-0.01994339549412983,510,0,-1,1
-0.10543114476653957,511,0,-1,1
-0.4374735153804475,512,0,-1,1
-0.4045584256457074,513,0,-1,1
-0.3242112555052742,514,0,-1,1
-0.018860159019853245,515,0,-1,1
0.293148931358709,516,0,-1,1
-0.0005654810113847496,517,0,-1,1
-0.46852455446785424,518,0,-1,1
-0.0001689419331237342,519,0,-1,1
0.06716333510591851,520,0,-1,1
0.0179878988059326,521,0,-1,1
-0.26566523318562885,522,0,-1,1
0.05382752159876495,523,0,-1,1
-0.11557252620064386,524,0,-1,1
-0.40472269045313125,525,0,-1,1
-0.2222404933729955,526,0,-1,1
-0.18761203958171507,527,0,-1,1
-0.06360646520977532,528,0,-1,1
-0.11005923540902227,529,0,-1,1
0.11604283528520778,530,0,-1,1
0.12582618353728087,531,0,-1,1
0.05731126145691554,532,0,-1,1
-0.19201936597924793,533,0,-1,1
0.030148423250408604,534,0,-1,1
-0.210912179121054,535,0,-1,1
0.006363389485760413,536,0,-1,1
-0.15927832806241338,537,0,-1,1
-0.30961950952240236,538,0,-1,1
-0.04819994938561935,539,0,-1,1
-0.06590401171552857,540,0,-1,1
-0.1427872035491658,541,0,-1,1
-0.8044999048103647,542,0,-1,1
-0.6281878016459227,543,0,-1,1
0.27737469129476194,544,0,-1,1
0.1354018766596171,545,0,-1,1
-0.2838465626145491,546,0,-1,1
0.1812257629287136,547,0,-1,1
-0.16259641335198477,548,0,-1,1
-0.10729067835731146,549,0,-1,1
-0.03864766659734706,550,0,-1,1
-0.005186618542143773,551,0,-1,1
-0.21501822830676823,552,0,-1,1
-0.4566832709396422,553,0,-1,1
-0.18610658136196903,554,0,-1,1
0.05991278447133622,555,0,-1,1
-0.07197521538380723,556,0,-1,1
0.10477414794808161,557,0,-1,1
-0.015828756431724003,558,0,-1,1
-0.09740309493178777,559,0,-1,1
0.013078732090041645,560,0,-1,1
0.0733781997345411,561,0,-1,1
-0.043148026006151335,562,0,-1,1
-0.20872923212257968,563,0,-1,1
-0.3128501026959029,564,0,-1,1
-0.29724972002071154,565,0,-1,1
-0.09791146149414205,566,0,-1,1
-0.24152161482834325,567,0,-1,1
-0.13082690005061942,568,0,-1,1
-0.13214729163616415,569,0,-1,1
-0.30701336804794693,570,0,-1,1
-0.03906520543707642,571,0,-1,1
0.52159354431508,572,0,-1,1
-0.07424733393748831,573,0,-1,1
-0.14277561268695596,574,0,-1,1
-0.34015729823568014,575,0,-1,1
-0.5611558250593623,576,0,-1,1
-0.15702733479182776,577,0,-1,1
0.05700338443122973,578,0,-1,1
0.2162623935051166,579,0,-1,1
-0.16757482140698898,580,0,-1,1
-0.22358946373187608,581,0,-1,1
-0.1058790029038171,582,0,-1,1
0.09934210455924052,583,0,-1,1
-0.0197462417191084,584,0,-1,1
0.03421668318755469,585,0,-1,1
0.005015511276916693,586,0,-1,1
-0.1263288584728833,587,0,-1,1
-0.013437535451562543,588,0,-1,1
0.051112805719437986,589,0,-1,1
-0.02323244341818026,590,0,-1,1
0.13861704854984658,591,0,-1,1
-0.3418190373327039,592,0,-1,1
-0.4079252930345281,593,0,-1,1
-0.05139671881686854,594,0,-1,1
0.0793131670147504,595,0,-1,1
-0.24740956826634758,596,0,-1,1
0.023000537602591645,597,0,-1,1
0.1315436679662694,598,0,-1,1
0.14488227807699566,599,0,-1,1
0.30169788301848255,600,0,-1,1
0.35639526837134794,601,0,-1,1
0.11226917346232093,602,0,-1,1
-0.4082398723040127,603,0,-1,1
-0.12861732081868094,604,0,-1,1
-0.09901121785514896,605,0,-1,1
-0.20118430688516048,606,0,-1,1
-0.13139551276563255,607,0,-1,1
-0.10250960169903926,608,0,-1,1
-0.19431836781817302,609,0,-1,1
-0.025189984053866587,610,0,-1,1
-0.03477869143207682,611,0,-1,1
0.04362406518371282,612,0,-1,1
0.17014402027047765,613,0,-1,1
0.059501891998449394,614,0,-1,1
-0.008272213825843795,615,0,-1,1
-0.17088495833216968,616,0,-1,1
-0.033888343242376204,617,0,-1,1
0.09131375529609205,618,0,-1,1
0.015335313879461044,619,0,-1,1
-0.02333413560869865,620,0,-1,1
-0.1616812633864324,621,0,-1,1
-0.20091249651452137,622,0,-1,1
-0.03478447546087062,623,0,-1,1
0.36889467329551,624,0,-1,1
0.2566632853551944,625,0,-1,1
-0.012998735159609262,626,0,-1,1
-0.09116803703184972,627,0,-1,1
0.1642342801426203,628,0,-1,1
0.1551321386830948,629,0,-1,1
-0.2515508330923637,630,0,-1,1
-0.026489324680380785,631,0,-1,1
-0.0587211987581825,632,0,-1,1
0.23858820900206737,633,0,-1,1
-0.10009036665703172,634,0,-1,1
-0.059809947700138165,635,0,-1,1
-0.04715988459196247,636,0,-1,1
0.10895017950066309,637,0,-1,1
-0.03924636878612469,638,0,-1,1
0.019658888111004198,639,0,-1,1
0.07981100829648916,640,0,-1,1
-0.023249665806007905,641,0,-1,1
0.009803971796756903,642,0,-1,1
0.06380512713042916,643,0,-1,1
0.1203545683580711,644,0,-1,1
-0.10590955897672144,645,0,-1,1
0.14188372086301496,646,0,-1,1
-0.02366613258087354,647,0,-1,1
-0.010776323251757773,648,0,-1,1
0.06742233402930414,649,0,-1,1
0.06746835641604709,650,0,-1,1
0.10826703084980627,651,0,-1,1
-0.16133649145173248,652,0,-1,1
0.07513158365106148,653,0,-1,1
0.18524890563396412,654,0,-1,1
-0.05459524966716853,655,0,-1,1
0.3367419931129554,656,0,-1,1
0.05341939795020494,657,0,-1,1
0.08091103693395084,658,0,-1,1
-0.11787977591501506,659,0,-1,1
0.08750086224209087,660,0,-1,1
0.19385134724134687,661,0,-1,1
-0.18448596708609227,662,0,-1,1
-0.1894590132255051,663,0,-1,1
0.262754148933989,664,0,-1,1
0.2016437486327007,665,0,-1,1
-0.01942718698641924,666,0,-1,1
0.16191212670314808,667,0,-1,1
-0.006105388613781432,668,0,-1,1
0.13253176670940883,669,0,-1,1
-0.016306403291898402,670,0,-1,1
-0.018249620417015635,671,0,-1,1
-0.007610368094525371,672,0,-1,1
0.027532594387336882,673,0,-1,1
0.06407638519128879,674,0,-1,1
-0.03135363463781537,675,0,-1,1
-0.00269392437898641,676,0,-1,1
0.32394816536023,677,0,-1,1
0.11716850795089771,678,0,-1,1
0.24389562654933278,679,0,-1,1
0.28892625618993817,680,0,-1,1
0.04173767828602209,681,0,-1,1
0.053345508378939074,682,0,-1,1
0.1490773121586552,683,0,-1,1
-0.08736315465445382,684,0,-1,1
0.11188631672379716,685,0,-1,1
0.15329717049724562,686,0,-1,1
-0.15475062489032335,687,0,-1,1
-0.20686467409199646,688,0,-1,1
-0.1363140334684937,689,0,-1,1
-0.1730525342813616,690,0,-1,1
0.014273965679399888,691,0,-1,1
0.13330625518865336,692,0,-1,1
0.18388678087051,693,0,-1,1
0.14224248775826437,694,0,-1,1
-0.18535269504232224,695,0,-1,1
-0.026224011496023845,696,0,-1,1
-0.012750223283231605,697,0,-1,1
0.027203378551955548,698,0,-1,1
0.10306602307256538,699,0,-1,1
-0.022284703953208803,700,0,-1,1
-0.20884579864106353,701,0,-1,1
-0.043710153336102786,702,0,-1,1
0.05331756601109159,703,0,-1,1
0.1835911109481605,704,0,-1,1
0.21337333286332022,705,0,-1,1
-0.0767053753965796,706,0,-1,1
0.3293286652868711,707,0,-1,1
-0.05453126123480792,708,0,-1,1
0.13611435056058588,709,0,-1,1
-0.10114288016508992,710,0,-1,1
0.22689902869476297,711,0,-1,1
0.4119275645252133,712,0,-1,1
0.17562480418759024,713,0,-1,1
0.009313463677576178,714,0,-1,1
-0.14096389189420203,715,0,-1,1
0.00494561415055995,716,0,-1,1
-0.28466599289284933,717,0,-1,1
-0.1225168453391741,718,0,-1,1
-0.08239139578400315,719,0,-1,1
0.14663633083762398,720,0,-1,1
0.06670752169937165,721,0,-1,1
0.11815889263276402,722,0,-1,1
0.046114516166318634,723,0,-1,1
-0.08277822449933783,724,0,-1,1
-0.1998967030971001,725,0,-1,1
-0.04456535591348164,726,0,-1,1
0.11510202214696397,727,0,-1,1
-0.07273160626298028,728,0,-1,1
-0.05468831760403553,729,0,-1,1
0.008428354948135182,730,0,-1,1
-0.11608501164040813,731,0,-1,1
-0.039293961369457175,732,0,-1,1
-0.15805539457700898,733,0,-1,1
-0.014226618182545716,734,0,-1,1
-0.20779397259017396,735,0,-1,1
-0.2825845361235904,736,0,-1,1
-0.37499711786065026,737,0,-1,1
-0.252742680913327,738,0,-1,1
-0.11493228195387498,739,0,-1,1
-0.13344322889788382,740,0,-1,1
-0.05455979005019498,741,0,-1,1
-0.14420681544492941,742,0,-1,1
-0.19957484825524743,743,0,-1,1
-0.04839110386658426,744,0,-1,1
-0.2493352006301512,745,0,-1,1
-0.2477302600237254,746,0,-1,1
-0.007666498277639662,747,0,-1,1
0.17647889230818792,748,0,-1,1
0.24023917457824487,749,0,-1,1
0.016687953146610725,750,0,-1,1
0.20818988228082655,751,0,-1,1
-0.11732222596035877,752,0,-1,1
-0.060210862191118084,753,0,-1,1
-0.06541460620905112,754,0,-1,1
-0.10909411687286824,755,0,-1,1
-0.12376571164741271,756,0,-1,1
-0.11464241021645949,757,0,-1,1
0.11946716103026864,758,0,-1,1
-0.05714769702808149,759,0,-1,1
-0.01397518612653043,760,0,-1,1
0.04026507814449434,761,0,-1,1
0.17551299593672293,762,0,-1,1
-0.20813492961712443,763,0,-1,1
-0.054006659007171706,764,0,-1,1
0.010946195347942772,765,0,-1,1
0.05517540548862597,766,0,-1,1
0.041157699161902137,767,0,-1,1
-0.12284313009047815,768,0,-1,1
0.12267983342884334,769,0,-1,1
-0.09047287569037393,770,0,-1,1
0.030591853693839394,771,0,-1,1
-0.03969390268389914,772,0,-1,1
-0.08768791214579157,773,0,-1,1
0.29877173358533965,774,0,-1,1
-0.10427130483808837,775,0,-1,1
0.13162060807178508,776,0,-1,1
-0.0911683769002544,777,0,-1,1
0.1663410721617726,778,0,-1,1
0.08517897567550908,779,0,-1,1
-0.10277584445739807,780,0,-1,1
-0.022758928421939422,781,0,-1,1
-0.06892636693895512,782,0,-1,1
0.19755837541639423,783,0,-1,1
-0.113871057853956,0,1,-1,1
-0.0012670684470718699,1,1,-1,1
-0.04116674471615083,2,1,-1,1
0.07418425451999354,3,1,-1,1
-0.1434946283363246,4,1,-1,1
0.04964473241346804,5,1,-1,1
-0.12233059539951792,6,1,-1,1
-0.15599209151288468,7,1,-1,1
0.06682721558864414,8,1,-1,1
-0.2716974324327051,9,1,-1,1
0.05518542737955833,10,1,-1,1
0.09411541860104054,11,1,-1,1
0.24122302905372323,12,1,-1,1
0.035503253977885015,13,1,-1,1
0.015893607507140094,14,1,-1,1
-0.002634802735643194,15,1,-1,1
-0.21369348516255599,16,1,-1,1
-0.0007044825954230418,17,1,-1,1
0.10869693960815945,18,1,-1,1
-0.0028058026221179345,19,1,-1,1
0.04807404130914019,20,1,-1,1
-0.0021512301577851192,21,1,-1,1
-0.1273082249121908,22,1,-1,1
0.01804987146102448,23,1,-1,1
-0.046892927949057826,24,1,-1,1
-0.13661694992022727,25,1,-1,1
-0.10007783538901628,26,1,-1,1
-0.1351711814227452,27,1,-1,1
-0.1095035907034123,28,1,-1,1
0.20182829074325226,29,1,-1,1
0.1046766065247315,30,1,-1,1
0.09451005235427302,31,1,-1,1
-0.015845126809022052,32,1,-1,1
0.013645625488437344,33,1,-1,1
-0.11675266712644074,34,1,-1,1
-0.08191621531155215,35,1,-1,1
-0.2322458260963727,36,1,-1,1
-0.01447999389923201,37,1,-1,1
-0.06864745785113582,38,1,-1,1
-0.04379114348958674,39,1,-1,1
0.13392647362804497,40,1,-1,1
-0.08076464123227986,41,1,-1,1
0.05251769724518242,42,1,-1,1
0.036000133336974285,43,1,-1,1
-0.12140215092240737,44,1,-1,1
0.0092789106162838,45,1,-1,1
-0.006295712512586795,46,1,-1,1
-0.19964662041414044,47,1,-1,1
-0.0843406113254062,48,1,-1,1
0.04155630469955046,49,1,-1,1
-0.15785291692215847,50,1,-1,1
0.02910363851697941,51,1,-1,1
0.14225506655232156,52,1,-1,1
-0.08986285221195141,53,1,-1,1
0.1300450234960464,54,1,-1,1
-0.04503006270135813,55,1,-1,1
0.12430470156810106,56,1,-1,1
0.048887681251898484,57,1,-1,1
-0.17454737814407767,58,1,-1,1
0.04573244052219935,59,1,-1,1
0.01791460831676853,60,1,-1,1
-0.15516504080294186,61,1,-1,1
-0.07430878571701327,62,1,-1,1
0.20717529379218264,63,1,-1,1
-0.02535926779871362,64,1,-1,1
0.13125778648056172,65,1,-1,1
-0.10488260791544803,66,1,-1,1
0.012311570487938512,67,1,-1,1
-0.050200297196202726,68,1,-1,1
0.08179451596146158,69,1,-1,1
-0.060576980464377955,70,1,-1,1
-0.05593226760377152,71,1,-1,1
-0.06647198289584866,72,1,-1,1
0.07696501960654407,73,1,-1,1
-0.042904241463218244,74,1,-1,1
0.06234408246899769,75,1,-1,1
0.07165128584831638,76,1,-1,1
0.27424740196729247,77,1,-1,1
0.042819105668895296,78,1,-1,1
-0.07792889055147738,79,1,-1,1
-0.12382464623790809,80,1,-1,1
-0.0687162458031788,81,1,-1,1
-0.016541937014492802,82,1,-1,1
0.10387325310761812,83,1,-1,1
-0.0817573045505371,84,1,-1,1
0.1432132153458186,85,1,-1,1
-0.12681160787002613,86,1,-1,1
0.056998242215046256,87,1,-1,1
-0.06605636064236009,88,1,-1,1
0.1532048124086147,89,1,-1,1
-0.1143506367765488,90,1,-1,1
0.016346202964547384,91,1,-1,1
-0.16298480985686248,92,1,-1,1
0.07093090256176152,93,1,-1,1
-0.1795074797789206,94,1,-1,1
-0.11907211438465218,95,1,-1,1
-0.0668745092260098,96,1,-1,1
-0.1362515544940321,97,1,-1,1
0.09217615695319911,98,1,-1,1
-0.12065662112765636,99,1,-1,1
-0.18919457070012258,100,1,-1,1
-0.3566195637308997,101,1,-1,1
-0.2353316508681111,102,1,-1,1
-0.12473190393843296,103,1,-1,1
-0.022673105159978484,104,1,-1,1
0.3668248588872728,105,1,-1,1
0.25716025463595177,106,1,-1,1
-0.03114503085006088,107,1,-1,1
-0.16954952797972728,108,1,-1,1
0.16722096007718434,109,1,-1,1
-0.09784104519450053,110,1,-1,1
-0.11338028212580932,111,1,-1,1
0.01955168681603352,112,1,-1,1
0.05773115602893455,113,1,-1,1
0.003939828221627378,114,1,-1,1
0.005582150046572754,115,1,-1,1
0.004127969965448231,116,1,-1,1
-0.03901290459144927,117,1,-1,1
0.17475762259048042,118,1,-1,1
-0.012933608448728519,119,1,-1,1
-0.06481832813541587,120,1,-1,1
-0.15062211608459575,121,1,-1,1
0.08150070001935135,122,1,-1,1
0.07881073699108952,123,1,-1,1
-0.30479372760128354,124,1,-1,1
-0.16185032838303992,125,1,-1,1
0.09496955217553395,126,1,-1,1
-0.05451625897904183,127,1,-1,1
-0.22275045860961348,128,1,-1,1
-0.5430564591314324,129,1,-1,1
-0.15833250491545908,130,1,-1,1
-0.1957829977816617,131,1,-1,1
-0.044483331532428866,132,1,-1,1
0.28267344523588395,133,1,-1,1
-0.019410823403564918,134,1,-1,1
0.005628364856775987,135,1,-1,1
0.05504610755549788,136,1,-1,1
0.12748343709888021,137,1,-1,1
0.007233441522619325,138,1,-1,1
0.035867840807149075,139,1,-1,1
-0.036198332421312755,140,1,-1,1
-0.07552624204497609,141,1,-1,1
0.11325933993012952,142,1,-1,1
0.0872481441163402,143,1,-1,1
-0.06459299986202192,144,1,-1,1
0.22356900947686045,145,1,-1,1
0.06294927053885095,146,1,-1,1
0.08570680942806129,147,1,-1,1
0.00409498552468773,148,1,-1,1
-0.1936757713231925,149,1,-1,1
-0.09107063432701487,150,1,-1,1
0.0738639324481617,151,1,-1,1
-0.11482460911265786,152,1,-1,1
0.07911231885560532,153,1,-1,1
0.07530453071700019,154,1,-1,1
0.024943608112369568,155,1,-1,1
0.1740187954248841,156,1,-1,1
0.2643192531745827,157,1,-1,1
0.04052801225152854,158,1,-1,1
0.18934797009582086,159,1,-1,1
-0.05084780194638987,160,1,-1,1
0.15734246012600697,161,1,-1,1
-0.13004952350473795,162,1,-1,1
-0.27027367485077214,163,1,-1,1
-0.35772165849280657,164,1,-1,1
-0.24887925826146223,165,1,-1,1
0.02426633234389086,166,1,-1,1
0.026597695910524015,167,1,-1,1
0.06454941692387249,168,1,-1,1
-0.05128671737666431,169,1,-1,1
-0.038600613345453824,170,1,-1,1
-0.006768648412990521,171,1,-1,1
0.08076530616388485,172,1,-1,1
0.4604659166792157,173,1,-1,1
0.20888605446540368,174,1,-1,1
-0.04544979042523925,175,1,-1,1
-0.18697234687811157,176,1,-1,1
0.038222685083673796,177,1,-1,1
-0.005095389853648217,178,1,-1,1
0.03978685742990816,179,1,-1,1
-0.033249028963749795,180,1,-1,1
-0.0012486285685036356,181,1,-1,1
-0.4069259477337657,182,1,-1,1
-0.05545466844466193,183,1,-1,1
0.2510751982852345,184,1,-1,1
0.5155921664956317,185,1,-1,1
0.2575571647337316,186,1,-1,1
0.44778453322819106,187,1,-1,1
-0.13658012393942787,188,1,-1,1
-0.26127077823002254,189,1,-1,1
-0.6728908579019053,190,1,-1,1
-0.7883326660220756,191,1,-1,1
-0.12038687998756196,192,1,-1,1
-0.06293930296904164,193,1,-1,1
-0.18229192754556872,194,1,-1,1
0.008838967618312644,195,1,-1,1
-0.1003489028126877,196,1,-1,1
-0.0900265474219966,197,1,-1,1
0.10010252383403064,198,1,-1,1
-0.08319350156222322,199,1,-1,1
0.3062203398031733,200,1,-1,1
0.15523437426713727,201,1,-1,1
0.30122365716173666,202,1,-1,1
0.37655228315405426,203,1,-1,1
0.1337485165128667,204,1,-1,1
0.2553624540416918,205,1,-1,1
0.05455734589245315,206,1,-1,1
0.0798433070300425,207,1,-1,1
-0.20591551436486927,208,1,-1,1
-0.4625223255343602,209,1,-1,1
-0.3406567766669315,210,1,-1,1
-0.14919496652550576,211,1,-1,1
0.3060414596337005,212,1,-1,1
0.7539454309930695,213,1,-1,1
-0.011474454912412476,214,1,-1,1
0.11852112755724989,215,1,-1,1
0.12042820761747393,216,1,-1,1
-0.4257167268007569,217,1,-1,1
-0.6863253559255668,218,1,-1,1
-0.4011791671104787,219,1,-1,1
-0.1974256807365764,220,1,-1,1
-0.17510106001774564,221,1,-1,1
-0.03879414527958976,222,1,-1,1
-0.12081900458406455,223,1,-1,1
0.038080952375173595,224,1,-1,1
0.07276250689166401,225,1,-1,1
0.09279547880704687,226,1,-1,1
0.043451361875883054,227,1,-1,1
0.261403731397499,228,1,-1,1
-0.07463880365775515,229,1,-1,1
-0.023665763198549957,230,1,-1,1
-0.11410931053330589,231,1,-1,1
-0.30627473656293625,232,1,-1,1
0.21440472530553784,233,1,-1,1
-0.20784603011685898,234,1,-1,1
-0.43965887285213867,235,1,-1,1
-0.5957445889814849,236,1,-1,1
-0.4334986232291325,237,1,-1,1
-0.41648386946687693,238,1,-1,1
0.13975272365642896,239,1,-1,1
0.611936127432359,240,1,-1,1
0.30334320060940995,241,1,-1,1
0.37942907450890107,242,1,-1,1
0.32514406498442044,243,1,-1,1
-0.4444932885052884,244,1,-1,1
-0.8210277570477607,245,1,-1,1
-0.4581996225217117,246,1,-1,1
-0.5208554309152623,247,1,-1,1
-0.3697570577455369,248,1,-1,1
-0.15467303139992838,249,1,-1,1
-0.16709328838908058,250,1,-1,1
0.0201947016810015,251,1,-1,1
-0.02254882247258838,252,1,-1,1
0.05630879712213719,253,1,-1,1
0.04248273201700171,254,1,-1,1
0.07269275813749207,255,1,-1,1
0.38994752226535984,256,1,-1,1
-0.1292483766013515,257,1,-1,1
-0.08929016465781071,258,1,-1,1
-0.16743542975063924,259,1,-1,1
-0.10549323192067643,260,1,-1,1
-0.5603966600933991,261,1,-1,1
-1.070919967541041,262,1,-1,1
-1.1737375641004517,263,1,-1,1
-0.6950611733504464,264,1,-1,1
-0.527813858732189,265,1,-1,1
-0.07451690951740292,266,1,-1,1
0.6515819640488232,267,1,-1,1
0.9514243246069952,268,1,-1,1
0.23521066577065078,269,1,-1,1
-0.12079032873245195,270,1,-1,1
0.1836827063904287,271,1,-1,1
-0.34585609078629836,272,1,-1,1
-0.793668478231395,273,1,-1,1
-0.5779317081880715,274,1,-1,1
-0.4346034984372793,275,1,-1,1
-0.31607356241173035,276,1,-1,1
-0.10597992578285079,277,1,-1,1
-0.15473530257609228,278,1,-1,1
-0.16859069169361596,279,1,-1,1
-0.07899660156728827,280,1,-1,1
0.029976111006545268,281,1,-1,1
0.018340513392350467,282,1,-1,1
-0.017839431063605648,283,1,-1,1
0.06511264827913668,284,1,-1,1
-0.47635937894762514,285,1,-1,1
-0.31142495330166625,286,1,-1,1
-0.39824615889528686,287,1,-1,1
-0.7710698402547687,288,1,-1,1
-1.0876445960764596,289,1,-1,1
-0.945801810326428,290,1,-1,1
-0.42925852318776125,291,1,-1,1
-0.8293453356954704,292,1,-1,1
-0.055745199355861266,293,1,-1,1
-0.21653566726707346,294,1,-1,1
0.4891124985358405,295,1,-1,1
0.7966028049611314,296,1,-1,1
0.26136180723978625,297,1,-1,1
-0.5061624706952415,298,1,-1,1
-0.03311101828029376,299,1,-1,1
-0.637199607598209,300,1,-1,1
-0.6474468464282683,301,1,-1,1
-0.43459497528242375,302,1,-1,1
-0.27937110532431386,303,1,-1,1
-0.39338923619963373,304,1,-1,1
-0.008555205562842994,305,1,-1,1
-0.012132875422149126,306,1,-1,1
-0.18350122765655807,307,1,-1,1
-0.1209219856884678,308,1,-1,1
-0.2048585146451999,309,1,-1,1
0.08018573078370718,310,1,-1,1
-0.10888744605825167,311,1,-1,1
0.25313798024790546,312,1,-1,1
-0.2602290646480583,313,1,-1,1
-0.835980125670342,314,1,-1,1
-0.24717571668353558,315,1,-1,1
-0.48257228059771184,316,1,-1,1
-0.4842377363807048,317,1,-1,1
-0.806478709657167,318,1,-1,1
-0.018127358256096883,319,1,-1,1
-0.08120068854453857,320,1,-1,1
0.5095424738222054,321,1,-1,1
0.7284383434488876,322,1,-1,1
1.0954440997257517,323,1,-1,1
0.6836138062880593,324,1,-1,1
-0.42630083070606917,325,1,-1,1
-0.9106288500675059,326,1,-1,1
-0.37101515757016984,327,1,-1,1
-0.49935953281826384,328,1,-1,1
-0.557117926031572,329,1,-1,1
-0.2742859561103896,330,1,-1,1
-0.33179667192893514,331,1,-1,1
0.017897106713181125,332,1,-1,1
0.031133798720841228,333,1,-1,1
-0.2749361855895145,334,1,-1,1
0.029267071421240038,335,1,-1,1
-0.2671200842622889,336,1,-1,1
0.04900774511768877,337,1,-1,1
-0.2064949045411858,338,1,-1,1
-0.21012466176439099,339,1,-1,1
-0.10794414590757105,340,1,-1,1
-0.05133979779802918,341,1,-1,1
-0.3799808759702284,342,1,-1,1
-0.1086423563352619,343,1,-1,1
-0.19993230615643545,344,1,-1,1
0.06777909377384257,345,1,-1,1
-0.0031471973131735574,346,1,-1,1
0.1472084865177024,347,1,-1,1
0.35588792283348764,348,1,-1,1
0.5474934934029594,349,1,-1,1
0.773664898185277,350,1,-1,1
0.6053628246453434,351,1,-1,1
0.2989868298138068,352,1,-1,1
-0.36848086172422617,353,1,-1,1
-0.45341902461210126,354,1,-1,1
-0.3472760927836715,355,1,-1,1
0.06061640922605798,356,1,-1,1
0.06826740919710157,357,1,-1,1
0.36327134168439074,358,1,-1,1
0.01125110325439762,359,1,-1,1
0.07183434705384982,360,1,-1,1
-0.06422266310321195,361,1,-1,1
0.03597468621021127,362,1,-1,1
0.07753424621927105,363,1,-1,1
0.2539501390630379,364,1,-1,1
-0.03319299592307336,365,1,-1,1
-0.04249229392349188,366,1,-1,1
-0.1882060058067027,367,1,-1,1
-0.10452429199233262,368,1,-1,1
-0.06985419554784769,369,1,-1,1
-0.38997844899866085,370,1,-1,1
0.05828624571404742,371,1,-1,1
0.22870398529672414,372,1,-1,1
-0.11028736501391036,373,1,-1,1
-0.2633602010651177,374,1,-1,1
-0.23701128533450003,375,1,-1,1
0.027716407756118132,376,1,-1,1
0.16865038231661642,377,1,-1,1
0.7743837550980069,378,1,-1,1
0.5498530324571745,379,1,-1,1
0.3535743310861876,380,1,-1,1
-0.015535840515141711,381,1,-1,1
0.5141826733212337,382,1,-1,1
0.024958057120762833,383,1,-1,1
0.5837793930419934,384,1,-1,1
0.30107329038689584,385,1,-1,1
-0.23673890366291075,386,1,-1,1
-0.17556253998815172,387,1,-1,1
-0.0819595637572502,388,1,-1,1
-0.29894922178565597,389,1,-1,1
0.08017604341005775,390,1,-1,1
-0.020410331984159594,391,1,-1,1
0.1969464860862864,392,1,-1,1
-0.11017206069029555,393,1,-1,1
0.11519909067522342,394,1,-1,1
0.07840148495780665,395,1,-1,1
-0.05848048837138182,396,1,-1,1
0.29562449042525724,397,1,-1,1
-0.009131536469280199,398,1,-1,1
0.045974630275150453,399,1,-1,1
0.37335852658142993,400,1,-1,1
-0.5639624706888636,401,1,-1,1
-0.9938267272817631,402,1,-1,1
-0.6180235396742897,403,1,-1,1
0.38184546023512067,404,1,-1,1
0.41330144795639095,405,1,-1,1
0.3272838045227569,406,1,-1,1
0.39375340676942483,407,1,-1,1
-0.09517122410709113,408,1,-1,1
0.08615955567715926,409,1,-1,1
0.41989545216157814,410,1,-1,1
0.835647967019299,411,1,-1,1
0.4067243733607101,412,1,-1,1
0.1391620964617169,413,1,-1,1
0.1147737147983255,414,1,-1,1
-0.2965273975401037,415,1,-1,1
0.010179396858540508,416,1,-1,1
0.015884780458534448,417,1,-1,1
0.07054726497040485,418,1,-1,1
0.06587768901749463,419,1,-1,1
-0.02545448900197805,420,1,-1,1
0.006275736747511672,421,1,-1,1
-0.06364866267644781,422,1,-1,1
-0.10057110588016294,423,1,-1,1
0.09395576440774624,424,1,-1,1
0.20461017341094695,425,1,-1,1
0.03938807645271063,426,1,-1,1
0.22276123785079077,427,1,-1,1
0.012262845306425463,428,1,-1,1
-0.46966675450927753,429,1,-1,1
-0.17008124262062144,430,1,-1,1
-0.02162269457728931,431,1,-1,1
0.26839374138568517,432,1,-1,1
0.539454454139208,433,1,-1,1
0.4072542900921522,434,1,-1,1
-0.06415942378073053,435,1,-1,1
-0.24578496422837665,436,1,-1,1
-0.04190930999668555,437,1,-1,1
0.13504776983870348,438,1,-1,1
0.09002417880519849,439,1,-1,1
0.26870909217243544,440,1,-1,1
0.2866589187604091,441,1,-1,1
0.2254256646925254,442,1,-1,1
0.20109988385998404,443,1,-1,1
-0.09189414625870578,444,1,-1,1
-0.07644824608285423,445,1,-1,1
-0.09692036115224473,446,1,-1,1
0.09010723584397053,447,1,-1,1
0.1523104351861067,448,1,-1,1
0.04261902278015665,449,1,-1,1
-0.15525681122686008,450,1,-1,1
0.08525255276828358,451,1,-1,1
0.02239428343767375,452,1,-1,1
0.17586274603589666,453,1,-1,1
-0.154937012375108,454,1,-1,1
-0.06313315455192153,455,1,-1,1
-0.2543613382726122,456,1,-1,1
0.012539466231346148,457,1,-1,1
-0.19297505894151246,458,1,-1,1
-0.16390666269420076,459,1,-1,1
0.17442607627363846,460,1,-1,1
0.6931581085638949,461,1,-1,1
0.5914433813550593,462,1,-1,1
0.056402276119179494,463,1,-1,1
-0.4483195881509813,464,1,-1,1
-0.2248266479487293,465,1,-1,1
0.1397715575002546,466,1,-1,1
0.2387483823705093,467,1,-1,1
0.25282193807448405,468,1,-1,1
0.5680886174169382,469,1,-1,1
0.04255524132486984,470,1,-1,1
-0.12514804237468669,471,1,-1,1
-0.18428442620211039,472,1,-1,1
-0.10839709604526357,473,1,-1,1
-0.04611833380575357,474,1,-1,1
-0.10692111093347012,475,1,-1,1
-0.05959168883057236,476,1,-1,1
0.09690310708193986,477,1,-1,1
0.12327283709006312,478,1,-1,1
0.014631428717063653,479,1,-1,1
-0.0785520080012533,480,1,-1,1
-0.3420919892165519,481,1,-1,1
-0.2261126649548727,482,1,-1,1
-0.34674598337166224,483,1,-1,1
-0.2590784641644385,484,1,-1,1
-0.1985594262961198,485,1,-1,1
-0.4784423494088095,486,1,-1,1
-0.8778165565281631,487,1,-1,1
-0.10870226104440729,488,1,-1,1
0.013572604491651612,489,1,-1,1
0.8024789218282575,490,1,-1,1
0.24079826514481747,491,1,-1,1
-0.5577006565186576,492,1,-1,1
-0.28216758244342344,493,1,-1,1
0.24391952281690504,494,1,-1,1
-0.07806296223058022,495,1,-1,1
0.07079658131770838,496,1,-1,1
0.35337239913040586,497,1,-1,1
-0.09813731094049423,498,1,-1,1
0.1268357788474543,499,1,-1,1
0.03863232574228007,500,1,-1,1
-0.15814769166499873,501,1,-1,1
0.1524990124000055,502,1,-1,1
0.05825318339028637,503,1,-1,1
-0.31164677256398676,504,1,-1,1
0.04508582039723148,505,1,-1,1
0.0858261641644704,506,1,-1,1
-0.02648246388811607,507,1,-1,1
0.09358255919484948,508,1,-1,1
-0.02927389666229311,509,1,-1,1
-0.4583226370851786,510,1,-1,1
-0.6297482492400359,511,1,-1,1
-0.7332729103855175,512,1,-1,1
-0.8020753934215142,513,1,-1,1
-0.8571026384909374,514,1,-1,1
-0.758041714719443,515,1,-1,1
-0.4013747768637539,516,1,-1,1
-0.36552315473335,517,1,-1,1
-0.04247581648449152,518,1,-1,1
-0.03715525257869162,519,1,-1,1
-0.21765103488420967,520,1,-1,1
-0.536006300441934,521,1,-1,1
-0.18568222899106238,522,1,-1,1
-0.30464747823183563,523,1,-1,1
-0.14061949720132602,524,1,-1,1
0.10493238429961087,525,1,-1,1
0.008732676880119456,526,1,-1,1
-0.24627009728226174,527,1,-1,1
-0.18410369048907835,528,1,-1,1
0.11719107920268959,529,1,-1,1
0.004188752504266647,530,1,-1,1
-0.06317476224691654,531,1,-1,1
0.1251841078102654,532,1,-1,1
-0.03834333610186315,533,1,-1,1
0.070848019632241,534,1,-1,1
0.38591251822500605,535,1,-1,1
-0.1706623061367234,536,1,-1,1
-0.34136572896630374,537,1,-1,1
-0.3021688119305934,538,1,-1,1
-0.2391408536083044,539,1,-1,1
-0.4460126620017048,540,1,-1,1
-0.6794946531468563,541,1,-1,1
-1.2063184268554863,542,1,-1,1
-0.8380770258926254,543,1,-1,1
-1.0945128111214326,544,1,-1,1
-0.8874964714109754,545,1,-1,1
-0.21188148074258156,546,1,-1,1
0.23556368857353527,547,1,-1,1
0.2915537817304756,548,1,-1,1
-0.2159450477618542,549,1,-1,1
-0.3801039533467963,550,1,-1,1
-0.21977147454727647,551,1,-1,1
-0.34630576738942376,552,1,-1,1
0.00704035580752646,553,1,-1,1
-0.21794032047975165,554,1,-1,1
-0.28985056086443084,555,1,-1,1
-0.37316985792321045,556,1,-1,1
0.03425122081889806,557,1,-1,1
0.3685783858219251,558,1,-1,1
0.07963908788997254,559,1,-1,1
0.0014854567324190332,560,1,-1,1
0.004488617002895005,561,1,-1,1
-0.06772514662281885,562,1,-1,1
0.33375720704447626,563,1,-1,1
-0.05587726130027792,564,1,-1,1
-0.2605596752454107,565,1,-1,1
-0.07779184108676813,566,1,-1,1
0.0016419317988024139,567,1,-1,1
-0.05995606679931419,568,1,-1,1
-0.2292102507847658,569,1,-1,1
-0.47064134551099834,570,1,-1,1
-0.4106999585701505,571,1,-1,1
-0.7342124863607637,572,1,-1,1
-0.875387668723468,573,1,-1,1
0.058977428909866,574,1,-1,1
0.6037538771542328,575,1,-1,1
0.40282044589459143,576,1,-1,1
-0.22855647739023222,577,1,-1,1
0.22862432634967808,578,1,-1,1
-0.5556577602544013,579,1,-1,1
-0.24851161255184917,580,1,-1,1
0.023093323004769618,581,1,-1,1
-0.2602438568231846,582,1,-1,1
-0.36768408643496175,583,1,-1,1
-0.1657591683193152,584,1,-1,1
-0.06513801273083342,585,1,-1,1
-0.08394896559898385,586,1,-1,1
0.09326961516455878,587,1,-1,1
-0.2079021667329215,588,1,-1,1
0.10124643397762918,589,1,-1,1
0.0111431089565398,590,1,-1,1
0.3111683123942064,591,1,-1,1
0.1012644990682627,592,1,-1,1
0.03351345347143079,593,1,-1,1
-0.041775136510926104,594,1,-1,1
-0.2693676187021688,595,1,-1,1
0.38507382269935053,596,1,-1,1
0.046911231702481716,597,1,-1,1
-0.047917842990251716,598,1,-1,1
0.03462898723306043,599,1,-1,1
-0.10148690521683217,600,1,-1,1
-0.2747144938453453,601,1,-1,1
0.48600859097042726,602,1,-1,1
0.5178117045779876,603,1,-1,1
0.4268480768942817,604,1,-1,1
0.1579235009440033,605,1,-1,1
0.5675276949521253,606,1,-1,1
0.27073427443301334,607,1,-1,1
0.06595325113840339,608,1,-1,1
0.00894663683929773,609,1,-1,1
-0.19940716434396435,610,1,-1,1
-0.06476289221789287,611,1,-1,1
-0.1621728205916519,612,1,-1,1
-0.04544168129315796,613,1,-1,1
0.05450604884538561,614,1,-1,1
-0.087192472666125,615,1,-1,1
-0.009535568552386612,616,1,-1,1
0.07040138171936361,617,1,-1,1
0.055871966879142476,618,1,-1,1
0.03611906458348952,619,1,-1,1
-0.014470677536294288,620,1,-1,1
0.5033076603661853,621,1,-1,1
0.026530507597051434,622,1,-1,1
-0.14800185567892157,623,1,-1,1
-0.08451636590671918,624,1,-1,1
-0.45227542078348676,625,1,-1,1
-0.00498267076191446,626,1,-1,1
0.10481020855130455,627,1,-1,1
-0.6554846300829239,628,1,-1,1
-0.14633887611661778,629,1,-1,1
-0.1598840670316035,630,1,-1,1
0.19645394073708963,631,1,-1,1
-0.04988870037175968,632,1,-1,1
-0.09469730842897582,633,1,-1,1
0.8230802420931682,634,1,-1,1
0.38219385887249957,635,1,-1,1
0.12188820436457014,636,1,-1,1
-0.1829306295973518,637,1,-1,1
-0.02379038856005195,638,1,-1,1
0.1465940907032664,639,1,-1,1
-0.08356049323297458,640,1,-1,1
-0.00975691242199421,641,1,-1,1
-0.04378246548536049,642,1,-1,1
-0.03783837110260089,643,1,-1,1
-0.015898955421064398,644,1,-1,1
0.15211744655217807,645,1,-1,1
0.02292880001665111,646,1,-1,1
0.22544616155605476,647,1,-1,1
0.09354808856546667,648,1,-1,1
0.05659504230419396,649,1,-1,1
0.34313209349396023,650,1,-1,1
0.29998895418545174,651,1,-1,1
0.06760047548815973,652,1,-1,1
-0.2912989953868221,653,1,-1,1
-0.1915978498374935,654,1,-1,1
-0.5156199833768653,655,1,-1,1
-0.10467527140595853,656,1,-1,1
-0.1653259188392587,657,1,-1,1
-0.1659953003931811,658,1,-1,1
0.20675737171882938,659,1,-1,1
-0.24623529053256812,660,1,-1,1
-0.024820781221065142,661,1,-1,1
0.4081538087962695,662,1,-1,1
0.6256508663821939,663,1,-1,1
-0.016145588978532296,664,1,-1,1
-0.06376988489978545,665,1,-1,1
0.0614413913153633,666,1,-1,1
0.015457173884894078,667,1,-1,1
-0.09616004797292521,668,1,-1,1
-0.09354746927251863,669,1,-1,1
0.08384562604785842,670,1,-1,1
0.10877701902625327,671,1,-1,1
-0.1573694498147843,672,1,-1,1
-0.03169907972800673,673,1,-1,1
0.0507555793960084,674,1,-1,1
0.05011790857712909,675,1,-1,1
0.04267377288412556,676,1,-1,1
0.10182600073236277,677,1,-1,1
0.1401656952815647,678,1,-1,1
0.29266935590608173,679,1,-1,1
0.023486528440484662,680,1,-1,1
-0.48880955680017973,681,1,-1,1
-0.15063607788062464,682,1,-1,1
-0.09440057025361222,683,1,-1,1
-0.4893273893792315,684,1,-1,1
-0.1524229000578038,685,1,-1,1
-0.1764497690465885,686,1,-1,1
0.13201239907436063,687,1,-1,1
-0.2959267017667591,688,1,-1,1
-0.10835907852725667,689,1,-1,1
0.3257102183353194,690,1,-1,1
0.23155612678723025,691,1,-1,1
0.033710505451584175,692,1,-1,1
0.01950524741698494,693,1,-1,1
-0.08213238384717898,694,1,-1,1
-0.047283608418247663,695,1,-1,1
0.02623356639626974,696,1,-1,1
-0.0036480608252086226,697,1,-1,1
-0.03762142009955221,698,1,-1,1
-0.06086772068410735,699,1,-1,1
0.21328318815235953,700,1,-1,1
-0.03296694074006745,701,1,-1,1
-0.22225434365195731,702,1,-1,1
-0.19045722152854677,703,1,-1,1
0.05241922799576921,704,1,-1,1
-0.14395694497208222,705,1,-1,1
-0.09597818583356725,706,1,-1,1
0.08821202540197681,707,1,-1,1
0.11451362483374786,708,1,-1,1
-0.0190930828516855,709,1,-1,1
0.06065231797630441,710,1,-1,1
-0.005877091634444679,711,1,-1,1
-0.19922027021355387,712,1,-1,1
-0.3338719654981147,713,1,-1,1
-0.4059925672626586,714,1,-1,1
-0.08952521918989546,715,1,-1,1
-0.5320506560939228,716,1,-1,1
-0.4339244065881552,717,1,-1,1
-0.20072552950145034,718,1,-1,1
-0.12667729589741342,719,1,-1,1
-0.18617521411181745,720,1,-1,1
-0.17066981772838402,721,1,-1,1
-0.0739268065781949,722,1,-1,1
-0.053181359838863754,723,1,-1,1
-0.015252899901171365,724,1,-1,1
-0.059332674599831776,725,1,-1,1
-0.17424150032382407,726,1,-1,1
0.013793497528879855,727,1,-1,1
-0.0238876280753714,728,1,-1,1
0.033539226924573666,729,1,-1,1
-0.13430263605843035,730,1,-1,1
0.09223557943628612,731,1,-1,1
0.05419533922158075,732,1,-1,1
-0.012957696071634897,733,1,-1,1
-0.0943676732396208,734,1,-1,1
-0.19285012676491883,735,1,-1,1
-0.19677075342585956,736,1,-1,1
-0.21848817634596135,737,1,-1,1
-0.109063323243676,738,1,-1,1
-0.17524456149036563,739,1,-1,1
-0.40491009536836664,740,1,-1,1
-0.44322695743171675,741,1,-1,1
-0.7257095858274536,742,1,-1,1
-0.2191002131909917,743,1,-1,1
-0.10398636574686859,744,1,-1,1
-0.19741591473802295,745,1,-1,1
0.04733375967898296,746,1,-1,1
-0.13041003842859106,747,1,-1,1
-0.13070657924877613,748,1,-1,1
-0.047438107497150196,749,1,-1,1
-0.18466816450092796,750,1,-1,1
0.003752781637700171,751,1,-1,1
-0.10842330648847726,752,1,-1,1
-0.07094372984730188,753,1,-1,1
-0.09130960338777373,754,1,-1,1
-0.06676582419190404,755,1,-1,1
0.059886162783360154,756,1,-1,1
-0.032748487775601784,757,1,-1,1
-0.07804305036099073,758,1,-1,1
-0.15708812228448155,759,1,-1,1
0.04407320085698923,760,1,-1,1
-0.0702162124415007,761,1,-1,1
0.018697823102163447,762,1,-1,1
-0.00020629893375567846,763,1,-1,1
-0.12834473825649131,764,1,-1,1
-0.06802955641031921,765,1,-1,1
-0.003398898638804768,766,1,-1,1
-0.01472002672073297,767,1,-1,1
-0.11487748743349636,768,1,-1,1
-0.00722682937611476,769,1,-1,1
-0.03844909527698902,770,1,-1,1
-0.1485854632494229,771,1,-1,1
0.06532689274579521,772,1,-1,1
0.009594229783309812,773,1,-1,1
-0.054158360318898244,774,1,-1,1
-0.055827605539222676,775,1,-1,1
-0.05308196886110188,776,1,-1,1
-0.009022340089450508,777,1,-1,1
-0.07966659162948601,778,1,-1,1
-0.03612306381828854,779,1,-1,1
0.013374036481241938,780,1,-1,1
-0.08615499809110057,781,1,-1,1
-0.005276291702031459,782,1,-1,1
-0.1394850167493536,783,1,-1,1
-0.12339591943158874,0,2,-1,1
0.041118472915755516,1,2,-1,1
0.014464717349548998,2,2,-1,1
0.03978252733442987,3,2,-1,1
0.14420498926056632,4,2,-1,1
0.04880453473047455,5,2,-1,1
0.09801994182365793,6,2,-1,1
0.10198205528297434,7,2,-1,1
-0.05923416248564545,8,2,-1,1
0.016447953803157465,9,2,-1,1
0.2135890293147392,10,2,-1,1
-0.03740595542898374,11,2,-1,1
-0.04658516905983713,12,2,-1,1
-0.03520096935258936,13,2,-1,1
-0.074087255780854,14,2,-1,1
-0.07945979334900154,15,2,-1,1
0.06404227783559048,16,2,-1,1
0.01769732921597974,17,2,-1,1
-0.060877747749047396,18,2,-1,1
-0.03299394868317834,19,2,-1,1
0.1450496275625339,20,2,-1,1
0.0376326116436904,21,2,-1,1
0.13143908872490753,22,2,-1,1
0.07544603063015222,23,2,-1,1
0.023978682223582827,24,2,-1,1
0.07798076176602277,25,2,-1,1
-0.1734455161658163,26,2,-1,1
0.03648259372561202,27,2,-1,1
-0.15824613642082255,28,2,-1,1
0.007352810400858187,29,2,-1,1
-0.004806482389942231,30,2,-1,1
0.1340687741227717,31,2,-1,1
-0.02233479863747865,32,2,-1,1
-0.009462518965480051,33,2,-1,1
0.008427670501175386,34,2,-1,1
0.04460988783847986,35,2,-1,1
-0.06655486762591578,36,2,-1,1
0.18163522101543655,37,2,-1,1
0.030648556058147577,38,2,-1,1
-0.11139360975933006,39,2,-1,1
-0.16385666009138322,40,2,-1,1
0.022299829737787213,41,2,-1,1
-0.06684786422911689,42,2,-1,1
-0.19421521906095648,43,2,-1,1
0.14118112027983057,44,2,-1,1
0.1337104987452324,45,2,-1,1
0.05315375536896958,46,2,-1,1
0.21234775202099668,47,2,-1,1
0.018619672536913684,48,2,-1,1
0.11248288794266477,49,2,-1,1
-0.22128968397703483,50,2,-1,1
-0.12612761068013634,51,2,-1,1
0.08824639417755754,52,2,-1,1
-0.10539920815889635,53,2,-1,1
-0.17748035875407323,54,2,-1,1
0.20182158604268843,55,2,-1,1
0.08592037811207436,56,2,-1,1
0.14117114836378605,57,2,-1,1
-0.005691525319039309,58,2,-1,1
0.0655443611354177,59,2,-1,1
0.14331443405489544,60,2,-1,1
-0.04064424499709897,61,2,-1,1
0.07114272424581704,62,2,-1,1
-0.14219910170626543,63,2,-1,1
-0.05084085756343508,64,2,-1,1
0.09357124720984979,65,2,-1,1
0.0579807680188732,66,2,-1,1
-0.007569389427888182,67,2,-1,1
-0.08599794581096085,68,2,-1,1
-0.20779812502422465,69,2,-1,1
-0.15272680403684086,70,2,-1,1
-0.055961416670679914,71,2,-1,1
-0.07823772195544597,72,2,-1,1
0.08071899608204657,73,2,-1,1
-0.07705128047293812,74,2,-1,1
-0.20123277902051434,75,2,-1,1
-0.1415359385254236,76,2,-1,1
-0.10748230527561925,77,2,-1,1
0.1146258182063349,78,2,-1,1
0.05363571965502626,79,2,-1,1
0.0761368638013723,80,2,-1,1
-0.026694615233417176,81,2,-1,1
-0.16097249296815333,82,2,-1,1
0.19386973630889245,83,2,-1,1
0.004609979109331866,84,2,-1,1
0.10638995175854875,85,2,-1,1
-0.032147460534419754,86,2,-1,1
-0.05555791247301804,87,2,-1,1
-0.008910904510552731,88,2,-1,1
0.06186009657014615,89,2,-1,1
-0.09314053038485826,90,2,-1,1
0.03788077975654352,91,2,-1,1
0.06050929828641672,92,2,-1,1
-0.0437470979361598,93,2,-1,1
0.008743258840355652,94,2,-1,1
-0.1252428055265729,95,2,-1,1
-0.11990825763464406,96,2,-1,1
-0.19198398708030986,97,2,-1,1
-0.2825298695811927,98,2,-1,1
-0.11397967107043566,99,2,-1,1
-0.0824501864124458,100,2,-1,1
-0.14689021405635294,101,2,-1,1
-0.09570736682730206,102,2,-1,1
-0.011655956105524232,103,2,-1,1
-0.05031512013571358,104,2,-1,1
-0.024453571036542734,105,2,-1,1
0.06818391969067208,106,2,-1,1
-0.008626813954936904,107,2,-1,1
0.09074059736743705,108,2,-1,1
-0.060738034695541177,109,2,-1,1
0.02924066729279706,110,2,-1,1
0.01791777167778888,111,2,-1,1
-0.10821739159019723,112,2,-1,1
0.05543008957201198,113,2,-1,1
-0.158822630616627,114,2,-1,1
0.002495574424013123,115,2,-1,1
-0.09703830601086405,116,2,-1,1
0.03362216588862719,117,2,-1,1
0.12179262893188844,118,2,-1,1
0.08681648731578735,119,2,-1,1
0.021948085731610185,120,2,-1,1
-0.061609247617043256,121,2,-1,1
-0.03038204647313137,122,2,-1,1
-0.043223724202199124,123,2,-1,1
-0.2175271272758058,124,2,-1,1
-0.290224914824281,125,2,-1,1
-0.5870932204920276,126,2,-1,1
-0.5171277085260606,127,2,-1,1
-0.4927761683109919,128,2,-1,1
-0.19192827397094442,129,2,-1,1
-0.13614473903631275,130,2,-1,1
-0.17940014481409197,131,2,-1,1
-0.03461130796325221,132,2,-1,1
0.06188351040223444,133,2,-1,1
-0.05806074359696278,134,2,-1,1
-0.014847206473387355,135,2,-1,1
0.0063545346409149515,136,2,-1,1
-0.11656675233316455,137,2,-1,1
-0.04394364722279893,138,2,-1,1
-0.09866674499792903,139,2,-1,1
-0.09023776514300726,140,2,-1,1
0.16490929739929563,141,2,-1,1
-0.1026725267444145,142,2,-1,1
-0.011752962431728319,143,2,-1,1
0.16716205039087398,144,2,-1,1
0.1539626314492631,145,2,-1,1
0.2319452822438992,146,2,-1,1
-0.028195146759548123,147,2,-1,1
0.017585525655841924,148,2,-1,1
0.06004638609993087,149,2,-1,1
0.1730009806169953,150,2,-1,1
0.19726730959495742,151,2,-1,1
-0.15507515893222434,152,2,-1,1
-0.5197615212820814,153,2,-1,1
-0.6423237828601658,154,2,-1,1
-0.5146899907948466,155,2,-1,1
-0.4849845047576122,156,2,-1,1
-0.4109859303656901,157,2,-1,1
-0.4401354620363324,158,2,-1,1
-0.13418608954799902,159,2,-1,1
0.09665271205942082,160,2,-1,1
0.0011052039030428444,161,2,-1,1
0.1280837660059741,162,2,-1,1
0.04721291034755948,163,2,-1,1
-0.10617963099370287,164,2,-1,1
0.15492636214197572,165,2,-1,1
0.13317158438164356,166,2,-1,1
0.07249738567803447,167,2,-1,1
0.11731211172508511,168,2,-1,1
0.09733581804365525,169,2,-1,1
0.058634407029686364,170,2,-1,1
0.10993991645164157,171,2,-1,1
0.08533016501920908,172,2,-1,1
0.10067809159216652,173,2,-1,1
-0.012535192373523388,174,2,-1,1
-0.007551690684626605,175,2,-1,1
-0.10460831363540211,176,2,-1,1
0.2741946099570313,177,2,-1,1
0.328635623046015,178,2,-1,1
0.34085853342548733,179,2,-1,1
0.08335418746242322,180,2,-1,1
0.07936239084196751,181,2,-1,1
-0.17390071676940838,182,2,-1,1
-0.5263223537050319,183,2,-1,1
-0.6511562090185397,184,2,-1,1
-0.6372067485212052,185,2,-1,1
-0.50419702057216,186,2,-1,1
-0.2945580123437417,187,2,-1,1
-0.24383994675458814,188,2,-1,1
-0.14828884206519774,189,2,-1,1
-0.13602049221715032,190,2,-1,1
0.05644738115973031,191,2,-1,1
0.13255998149058312,192,2,-1,1
0.004165027788321356,193,2,-1,1
-0.013785248635507643,194,2,-1,1
0.036251153088431076,195,2,-1,1
-0.003651772473948983,196,2,-1,1
0.1598531308224319,197,2,-1,1
-0.14873327242556178,198,2,-1,1
-0.12484594414660019,199,2,-1,1
0.22452874418167015,200,2,-1,1
-0.05333204256043823,201,2,-1,1
0.05547270741690208,202,2,-1,1
0.1541696056174115,203,2,-1,1
0.28369692470268515,204,2,-1,1
0.3319451832401581,205,2,-1,1
-0.17867612913269976,206,2,-1,1
0.2882345085193404,207,2,-1,1
0.30146652145464886,208,2,-1,1
0.31003196292685103,209,2,-1,1
0.15879546280061713,210,2,-1,1
-0.14264017498632575,211,2,-1,1
-0.629709744181613,212,2,-1,1
-0.9845704425887671,213,2,-1,1
-0.6453748829019138,214,2,-1,1
-0.5260717393640844,215,2,-1,1
-0.3396415613602331,216,2,-1,1
-0.30799214490534993,217,2,-1,1
-0.3099336555209428,218,2,-1,1
-0.11401382188103992,219,2,-1,1
-0.11151917108224332,220,2,-1,1
0.004815730801855521,221,2,-1,1
0.02132256327556318,222,2,-1,1
0.21540563152151507,223,2,-1,1
0.11893135066995704,224,2,-1,1
-0.00922943425409433,225,2,-1,1
-0.007098198516422401,226,2,-1,1
-0.042492618787348516,227,2,-1,1
0.003717001170917823,228,2,-1,1
0.05979255211460873,229,2,-1,1
-0.09707666909588798,230,2,-1,1
0.0793411164633382,231,2,-1,1
0.24568157476496957,232,2,-1,1
-0.09062801703072883,233,2,-1,1
0.09456549797128115,234,2,-1,1
0.17639520694340546,235,2,-1,1
0.10660193252509957,236,2,-1,1
0.18150167411556783,237,2,-1,1
-0.046028938417793396,238,2,-1,1
-0.17988317464997583,239,2,-1,1
-0.048411571677605,240,2,-1,1
-0.6415624477027311,241,2,-1,1
-0.21220038712212852,242,2,-1,1
-0.5129666796906781,243,2,-1,1
-0.1819470098755115,244,2,-1,1
-0.1490693539621078,245,2,-1,1
-0.06537975445680834,246,2,-1,1
-0.2787468944960566,247,2,-1,1
-0.12434831492692681,248,2,-1,1
0.27421344173996953,249,2,-1,1
-0.05463428684272384,250,2,-1,1
0.013710331482509781,251,2,-1,1
0.05811122946585561,252,2,-1,1
0.12014016790165113,253,2,-1,1
-0.002312815525656285,254,2,-1,1
-0.2568538111996137,255,2,-1,1
0.04900047772370607,256,2,-1,1
0.14055670404133924,257,2,-1,1
0.10354097699206481,258,2,-1,1
0.18202185741730867,259,2,-1,1
0.014673184291249055,260,2,-1,1
0.0730043750240834,261,2,-1,1
0.3406764884203641,262,2,-1,1
0.28654736416716614,263,2,-1,1
0.25317534184985846,264,2,-1,1
0.2866259687233241,265,2,-1,1
0.35775986582633373,266,2,-1,1
0.4935038871660501,267,2,-1,1
0.11436712197780569,268,2,-1,1
-0.05605707039315293,269,2,-1,1
-0.22109530653369103,270,2,-1,1
-0.3961942135920388,271,2,-1,1
-0.27800945186143067,272,2,-1,1
-0.06871323005717454,273,2,-1,1
-0.19674361391123207,274,2,-1,1
-0.15134564541459064,275,2,-1,1
0.10383559107890848,276,2,-1,1
0.012551483691817683,277,2,-1,1
0.023174149553538942,278,2,-1,1
0.0025547320831174358,279,2,-1,1
0.14438802806359904,280,2,-1,1
-0.08701721953059315,281,2,-1,1
-0.20774643018629133,282,2,-1,1
0.03011714735221986,283,2,-1,1
-0.08235776422427445,284,2,-1,1
0.039058556119010684,285,2,-1,1
0.1551511620833406,286,2,-1,1
0.2601017021817698,287,2,-1,1
0.09808611683967733,288,2,-1,1
0.03665281170949699,289,2,-1,1
0.35192269617370625,290,2,-1,1
0.4174877322163661,291,2,-1,1
0.3026286710640793,292,2,-1,1
0.6722137304851362,293,2,-1,1
0.524057574635207,294,2,-1,1
0.28769020835239095,295,2,-1,1
-0.025617489548962428,296,2,-1,1
0.09055577007114497,297,2,-1,1
-0.12233487377841432,298,2,-1,1
-0.4344854997886977,299,2,-1,1
-0.35855245467770175,300,2,-1,1
0.020199959145924488,301,2,-1,1
-0.13641631952691735,302,2,-1,1
0.10730132498449572,303,2,-1,1
-0.14069939249903082,304,2,-1,1
0.06468250585153731,305,2,-1,1
0.1356606558349448,306,2,-1,1
0.10220084201064322,307,2,-1,1
0.010778408582481988,308,2,-1,1
0.06832160922016714,309,2,-1,1
-0.12863488261661876,310,2,-1,1
0.04421003955585698,311,2,-1,1
-0.08887776619905821,312,2,-1,1
-0.00014556951236997418,313,2,-1,1
0.08913661406900242,314,2,-1,1
0.1856452771195963,315,2,-1,1
0.20709448082515802,316,2,-1,1
0.012493941622939826,317,2,-1,1
0.0842602238078295,318,2,-1,1
0.07666485372845054,319,2,-1,1
0.44098275446636587,320,2,-1,1
0.5338037291899882,321,2,-1,1
0.2911644001329789,322,2,-1,1
0.1678337271338675,323,2,-1,1
0.12032564448626563,324,2,-1,1
0.04710286709842123,325,2,-1,1
-0.06985225553301688,326,2,-1,1
0.043431221749509134,327,2,-1,1
0.11799968643857127,328,2,-1,1
0.030640140905195505,329,2,-1,1
0.05090916936901947,330,2,-1,1
0.18493053757182246,331,2,-1,1
-0.015011637795487464,332,2,-1,1
0.2068546612913541,333,2,-1,1
0.1412198398605619,334,2,-1,1
0.03127857108306454,335,2,-1,1
0.03439493421167436,336,2,-1,1
-0.13301103131403802,337,2,-1,1
0.08731649104901752,338,2,-1,1
-0.09121636317759155,339,2,-1,1
0.28025496772976966,340,2,-1,1
0.14818488622314205,341,2,-1,1
0.14175847454469992,342,2,-1,1
-0.24267633872370523,343,2,-1,1
0.25299883577579757,344,2,-1,1
-0.14928785223052343,345,2,-1,1
0.0009278686806227437,346,2,-1,1
0.08457344492559257,347,2,-1,1
-0.0229691429460503,348,2,-1,1
0.08876719338082724,349,2,-1,1
0.39971544245170404,350,2,-1,1
-0.07294559035939695,351,2,-1,1
0.06066701200725215,352,2,-1,1
-0.144756870703091,353,2,-1,1
-0.19824800122912525,354,2,-1,1
-0.3152214947223801,355,2,-1,1
-0.2882609941688389,356,2,-1,1
-0.1876478109158636,357,2,-1,1
-0.13517342836541596,358,2,-1,1
-0.06522901525080702,359,2,-1,1
0.06161327515074411,360,2,-1,1
-0.029648277324335715,361,2,-1,1
-0.01446481765899072,362,2,-1,1
-0.08050581633624819,363,2,-1,1
-0.007790879430162537,364,2,-1,1
-0.0012286019409604115,365,2,-1,1
0.08207518517685829,366,2,-1,1
-0.008541339289285627,367,2,-1,1
-0.19074186501663876,368,2,-1,1
-0.11075509140567454,369,2,-1,1
0.08301638100653712,370,2,-1,1
-0.23287479647856354,371,2,-1,1
-0.22396575813769815,372,2,-1,1
0.05416238103958274,373,2,-1,1
-0.05244329305582509,374,2,-1,1
0.10833619236511456,375,2,-1,1
0.23722450848413318,376,2,-1,1
0.047013187682747246,377,2,-1,1
-0.15171456619842508,378,2,-1,1
-0.49920659332659123,379,2,-1,1
-0.3361549403856113,380,2,-1,1
0.004501776543640892,381,2,-1,1
-0.3073772008826623,382,2,-1,1
-0.13654401621335624,383,2,-1,1
-0.18437636296745027,384,2,-1,1
-0.36642156549517446,385,2,-1,1
-0.062418466812833445,386,2,-1,1
-0.056079696420181124,387,2,-1,1
0.015066960469724899,388,2,-1,1
-0.04465831549949703,389,2,-1,1
-0.0061584718575696225,390,2,-1,1
0.12161574021198555,391,2,-1,1
0.14548073146466847,392,2,-1,1
-0.11890797526627715,393,2,-1,1
-0.06366713139124298,394,2,-1,1
0.040347601019149575,395,2,-1,1
0.040062268073589404,396,2,-1,1
-0.0894113812760094,397,2,-1,1
0.02443655813940877,398,2,-1,1
-0.2771448854617161,399,2,-1,1
-0.08406052145195471,400,2,-1,1
-0.2137059705405235,401,2,-1,1
0.10191110272786466,402,2,-1,1
0.07660701859669783,403,2,-1,1
0.06969451816254901,404,2,-1,1
0.07396495994075387,405,2,-1,1
-0.1346645636319662,406,2,-1,1
0.14817847331076264,407,2,-1,1
-0.0841517334305402,408,2,-1,1
-0.25525339442853956,409,2,-1,1
-0.38604660700033916,410,2,-1,1
-0.05659070620464458,411,2,-1,1
0.047407877205640936,412,2,-1,1
-0.034852564401926016,413,2,-1,1
0.062276418863228766,414,2,-1,1
0.1976467013908315,415,2,-1,1
0.11110336480108043,416,2,-1,1
0.07369397417957133,417,2,-1,1
0.017602177189414262,418,2,-1,1
-0.11831049258925655,419,2,-1,1
-0.11910594230125322,420,2,-1,1
-0.046048372964552345,421,2,-1,1
0.11995450636436715,422,2,-1,1
-0.31544564856515006,423,2,-1,1
-0.1728203821276658,424,2,-1,1
0.182376224489363,425,2,-1,1
0.0678260691836207,426,2,-1,1
-0.22890159785973785,427,2,-1,1
-0.308994243254839,428,2,-1,1
-0.11988406948701497,429,2,-1,1
-0.17336788198608588,430,2,-1,1
-0.17899137249172425,431,2,-1,1
-0.05657929797971591,432,2,-1,1
-0.08695050584683933,433,2,-1,1
0.11556276707698043,434,2,-1,1
0.04417633786507893,435,2,-1,1
0.2236878802912275,436,2,-1,1
-0.23581416871682823,437,2,-1,1
-0.10942803253837419,438,2,-1,1
0.05069618455568246,439,2,-1,1
0.23430063275722116,440,2,-1,1
0.1078032916167501,441,2,-1,1
-0.041306110081991795,442,2,-1,1
0.07688685719764453,443,2,-1,1
0.1683678050693921,444,2,-1,1
0.13948577175096383,445,2,-1,1
0.032626223609593115,446,2,-1,1
0.06558724731755113,447,2,-1,1
0.004980975555177433,448,2,-1,1
0.0418997457788524,449,2,-1,1
0.13865867754749459,450,2,-1,1
-0.10120323002902977,451,2,-1,1
-0.02255434177636817,452,2,-1,1
0.08956565435150174,453,2,-1,1
-0.08636417621032981,454,2,-1,1
-0.07247908103591957,455,2,-1,1
-0.0853674948874372,456,2,-1,1
-0.1329508677976191,457,2,-1,1
0.06467778083601497,458,2,-1,1
-0.057110518634248354,459,2,-1,1
-0.10156211777093803,460,2,-1,1
-0.004531572632660212,461,2,-1,1
0.007185498459050814,462,2,-1,1
-0.08755443352809329,463,2,-1,1
-0.36655491488020125,464,2,-1,1
0.016447500780663166,465,2,-1,1
0.14477807731982412,466,2,-1,1
0.1228797699330895,467,2,-1,1
-0.09502745992650298,468,2,-1,1
0.029184073940167386,469,2,-1,1
0.27364307841062085,470,2,-1,1
0.02654681588877847,471,2,-1,1
0.06631623616749291,472,2,-1,1
0.04676965701423256,473,2,-1,1
0.23637689318118216,474,2,-1,1
0.2513508288398461,475,2,-1,1
-0.1173082868105652,476,2,-1,1
0.15165403219196602,477,2,-1,1
0.013984322169887034,478,2,-1,1
0.29730203579226205,479,2,-1,1
0.07010212652816261,480,2,-1,1
-0.10742262308344114,481,2,-1,1
-0.15338362411075465,482,2,-1,1
-0.17276453247126716,483,2,-1,1
0.14556736246672258,484,2,-1,1
0.10298563818870878,485,2,-1,1
0.01440423046528743,486,2,-1,1
-0.05891264809740219,487,2,-1,1
0.12870709258394006,488,2,-1,1
0.2626513757066708,489,2,-1,1
-0.07756175308093606,490,2,-1,1
-0.15985622688010012,491,2,-1,1
-0.28384839653131616,492,2,-1,1
-0.11136545821772281,493,2,-1,1
0.03802517460368028,494,2,-1,1
0.25209183604285895,495,2,-1,1
-0.02450672925537957,496,2,-1,1
-0.17025395832149487,497,2,-1,1
0.1324912980940795,498,2,-1,1
0.27538760810148083,499,2,-1,1
0.23072994848440542,500,2,-1,1
0.015536354729471373,501,2,-1,1
0.07889092812704147,502,2,-1,1
0.02659515937145383,503,2,-1,1
0.15046357310521324,504,2,-1,1
0.08983226658889808,505,2,-1,1
0.052735289147054255,506,2,-1,1
0.21462022704692724,507,2,-1,1
-0.0711214036263441,508,2,-1,1
-0.05522524044306973,509,2,-1,1
-0.411217610909589,510,2,-1,1
-0.002962470566297413,511,2,-1,1
0.3722138087156709,512,2,-1,1
0.14259168549899015,513,2,-1,1
-0.13418858527486027,514,2,-1,1
-0.03713288580274025,515,2,-1,1
0.04663659859691672,516,2,-1,1
-0.17386401176941008,517,2,-1,1
-0.43731577517148074,518,2,-1,1
-0.45970909063890464,519,2,-1,1
-0.13920072971945505,520,2,-1,1
0.06016301948307463,521,2,-1,1
0.16040393585364177,522,2,-1,1
0.24740294447564246,523,2,-1,1
0.1675014827239764,524,2,-1,1
0.1285988164161944,525,2,-1,1
0.08878340089568025,526,2,-1,1
0.3792024188750429,527,2,-1,1
0.07713437219643457,528,2,-1,1
-0.02762188131733016,529,2,-1,1
-0.005784348888075064,530,2,-1,1
-0.006815165192949681,531,2,-1,1
0.19451617788355935,532,2,-1,1
-0.06589947767377749,533,2,-1,1
0.03417127820979592,534,2,-1,1
-0.0767701333463746,535,2,-1,1
0.09903907489788,536,2,-1,1
-0.024383402499473676,537,2,-1,1
-0.3389042786002618,538,2,-1,1
-0.0907734668230813,539,2,-1,1
0.023878597903128587,540,2,-1,1
0.24475230014977958,541,2,-1,1
0.10911115056531512,542,2,-1,1
-0.14723527046228485,543,2,-1,1
-0.20062551159193825,544,2,-1,1
-0.4429709880356625,545,2,-1,1
-0.4409020364833411,546,2,-1,1
-0.18098337669472095,547,2,-1,1
-0.0873301212062242,548,2,-1,1
-0.12425558844586063,549,2,-1,1
0.1275737563920447,550,2,-1,1
0.1093845010832917,551,2,-1,1
0.24725028502707366,552,2,-1,1
-0.01799811749251424,553,2,-1,1
0.1607833281037002,554,2,-1,1
-0.0040669120644138464,555,2,-1,1
0.09863818357322143,556,2,-1,1
0.04380941521536972,557,2,-1,1
0.13341747535300577,558,2,-1,1
0.03914112322436007,559,2,-1,1
-0.04504693269241544,560,2,-1,1
-0.06402367033398347,561,2,-1,1
0.11393697560490815,562,2,-1,1
-0.09769618961353907,563,2,-1,1
-0.15380674597073388,564,2,-1,1
-0.17517959528052038,565,2,-1,1
-0.15514146637746645,566,2,-1,1
-0.07234909301663386,567,2,-1,1
-0.031010037732303982,568,2,-1,1
-0.1373125801523681,569,2,-1,1
-0.347507408768556,570,2,-1,1
-0.16753151932453159,571,2,-1,1
-0.23676651457651735,572,2,-1,1
-0.3191185740598684,573,2,-1,1
-0.4376075647135558,574,2,-1,1
-0.3878299372963826,575,2,-1,1
0.13320975016827136,576,2,-1,1
-0.3575406616392258,577,2,-1,1
0.15953576400882383,578,2,-1,1
-0.04883320425063642,579,2,-1,1
0.036920680053738185,580,2,-1,1
-0.15371488689328072,581,2,-1,1
-0.21282972021814311,582,2,-1,1
0.09830189917485875,583,2,-1,1
-0.11724775763453671,584,2,-1,1
-0.018932057411139746,585,2,-1,1
0.014173319588126076,586,2,-1,1
-0.07968454302962336,587,2,-1,1
-0.11244741266645199,588,2,-1,1
0.0716612232601471,589,2,-1,1
0.0049777623874783785,590,2,-1,1
-0.04212505734090883,591,2,-1,1
-0.1449950694771165,592,2,-1,1
-0.09911883259502262,593,2,-1,1
-0.31560921265528524,594,2,-1,1
-0.4028020527144322,595,2,-1,1
-0.44263330764681025,596,2,-1,1
-0.14270850910022442,597,2,-1,1
-0.06429003195199727,598,2,-1,1
-0.37866498836828266,599,2,-1,1
-0.28306073291523404,600,2,-1,1
-0.37491768193132,601,2,-1,1
-0.09823736823916435,602,2,-1,1
0.06378720651452927,603,2,-1,1
-0.05939867565810753,604,2,-1,1
-0.18363744470799878,605,2,-1,1
0.03608589251829362,606,2,-1,1
0.007789990876512103,607,2,-1,1
-0.048023415701993595,608,2,-1,1
-0.11099876013339369,609,2,-1,1
0.0866023981006551,610,2,-1,1
-0.19436214962183598,611,2,-1,1
-0.028167811013705923,612,2,-1,1
0.10009249940725674,613,2,-1,1
-0.17035607976470254,614,2,-1,1
-0.10461437056953905,615,2,-1,1
0.05719369117978776,616,2,-1,1
0.05327262462226902,617,2,-1,1
0.10090460239686366,618,2,-1,1
-0.11007752754059645,619,2,-1,1
-0.010188517750034976,620,2,-1,1
-0.17582430427767856,621,2,-1,1
-0.2776307932277141,622,2,-1,1
-0.5053967445337988,623,2,-1,1
-0.356902537644874,624,2,-1,1
-0.13776757638325093,625,2,-1,1
-0.43318997883877286,626,2,-1,1
-0.24884885893485056,627,2,-1,1
0.032489841517900075,628,2,-1,1
0.051625220774968936,629,2,-1,1
0.10558503322310099,630,2,-1,1
-0.18698256232753194,631,2,-1,1
-0.21798986739053297,632,2,-1,1
-0.21446112977026716,633,2,-1,1
0.07596168994948356,634,2,-1,1
-0.2707114722879557,635,2,-1,1
-0.2774819347028733,636,2,-1,1
-0.1467020212747831,637,2,-1,1
-0.0696977783383087,638,2,-1,1
-0.0633436507041285,639,2,-1,1
0.0325846283930973,640,2,-1,1
0.1440620245171622,641,2,-1,1
0.10006830366866089,642,2,-1,1
0.08820971399345197,643,2,-1,1
-0.07283666720846142,644,2,-1,1
0.1561919698391939,645,2,-1,1
-0.11260504930573831,646,2,-1,1
-0.1817759959208366,647,2,-1,1
0.17187470251205372,648,2,-1,1
-0.0225871769699206,649,2,-1,1
-0.06493286970265233,650,2,-1,1
-0.060536301754148814,651,2,-1,1
-0.2615226060262142,652,2,-1,1
-0.2425340532717302,653,2,-1,1
0.00790655959464055,654,2,-1,1
0.0895394479887744,655,2,-1,1
0.02809974010110771,656,2,-1,1
0.22023510197985147,657,2,-1,1
0.10549139647593384,658,2,-1,1
-0.11433078391203316,659,2,-1,1
-0.36386182181753496,660,2,-1,1
-0.19336129506596364,661,2,-1,1
0.11513111722574218,662,2,-1,1
-0.3513883268862788,663,2,-1,1
-0.19612009401363747,664,2,-1,1
-0.08847247793255895,665,2,-1,1
-0.005980612301954144,666,2,-1,1
0.13975827110213776,667,2,-1,1
0.19714997660421726,668,2,-1,1
-0.30136492259257186,669,2,-1,1
-0.027298898473588802,670,2,-1,1
0.25629625411794615,671,2,-1,1
0.12985308470025184,672,2,-1,1
0.025683070870348074,673,2,-1,1
-0.03200186568084874,674,2,-1,1
0.0754904819806184,675,2,-1,1
0.03602797024036222,676,2,-1,1
-0.10842854992673823,677,2,-1,1
0.07426536609950396,678,2,-1,1
-0.05358208634077987,679,2,-1,1
-0.03320630014275637,680,2,-1,1
-0.14366144910034273,681,2,-1,1
-0.059717843207806424,682,2,-1,1
-0.07919598224640398,683,2,-1,1
-0.19706613446119986,684,2,-1,1
0.30033276972407663,685,2,-1,1
0.23012639586829728,686,2,-1,1
-0.19016157679532694,687,2,-1,1
-0.19949226579259685,688,2,-1,1
0.08609457603734211,689,2,-1,1
-0.2705972382658087,690,2,-1,1
-0.14910259834436923,691,2,-1,1
0.010275673634011698,692,2,-1,1
0.09305266278620952,693,2,-1,1
0.017862611790988005,694,2,-1,1
-0.22429953799823946,695,2,-1,1
0.01775148133607188,696,2,-1,1
0.034220372647941935,697,2,-1,1
0.038514444750146495,698,2,-1,1
-0.02501290651513182,699,2,-1,1
-0.029104354380643363,700,2,-1,1
0.06012740661849615,701,2,-1,1
-0.03558286091728539,702,2,-1,1
0.05099775497127369,703,2,-1,1
-0.08466781159300239,704,2,-1,1
-0.05360464838316029,705,2,-1,1
-0.11582449495432781,706,2,-1,1
-0.058365754238692544,707,2,-1,1
-0.22508842996445624,708,2,-1,1
-0.027262764401215483,709,2,-1,1
-0.007352451325789854,710,2,-1,1
-0.022160678358193357,711,2,-1,1
-0.018294864279629827,712,2,-1,1
0.03967808652716109,713,2,-1,1
0.15433809246109795,714,2,-1,1
0.046751912624477414,715,2,-1,1
-0.006429548043809756,716,2,-1,1
-0.07114458410045742,717,2,-1,1
-0.018106474640525297,718,2,-1,1
-0.052896202422747986,719,2,-1,1
0.02033974883527086,720,2,-1,1
-0.0683223365647713,721,2,-1,1
-0.13378970887824668,722,2,-1,1
0.025594232130125065,723,2,-1,1
0.18897613940455038,724,2,-1,1
-0.04710794562311516,725,2,-1,1
-0.23197873031672064,726,2,-1,1
-0.009432311608530872,727,2,-1,1
-0.06650872038005264,728,2,-1,1
-0.0003766010473609405,729,2,-1,1
0.04598576673095321,730,2,-1,1
0.0023067350432676,731,2,-1,1
-0.1457508468617524,732,2,-1,1
0.21393674645342872,733,2,-1,1
0.18888165390149908,734,2,-1,1
0.22040142942296778,735,2,-1,1
-0.019126347719486778,736,2,-1,1
0.01125644573369256,737,2,-1,1
-0.093291358918488,738,2,-1,1
0.012221322287815852,739,2,-1,1
0.04768367217009684,740,2,-1,1
-0.13517819039833254,741,2,-1,1
0.28798560709903215,742,2,-1,1
0.17310957390295906,743,2,-1,1
0.020513178260689297,744,2,-1,1
0.20323685928973062,745,2,-1,1
0.055079875477345816,746,2,-1,1
-0.011773844398764045,747,2,-1,1
0.08613376948457188,748,2,-1,1
0.014007538794410024,749,2,-1,1
0.18138591020138978,750,2,-1,1
-0.07709081235293241,751,2,-1,1
-0.02614752541632697,752,2,-1,1
-0.14260307004233805,753,2,-1,1
0.07814755596485316,754,2,-1,1
-0.091763237539694,755,2,-1,1
-0.14124477946654693,756,2,-1,1
-0.16863464425264582,757,2,-1,1
-0.2092679315881746,758,2,-1,1
0.003524202560628968,759,2,-1,1
0.09946103653634952,760,2,-1,1
0.1161816057025867,761,2,-1,1
-0.06388463449196236,762,2,-1,1
-0.133980187766263,763,2,-1,1
-0.04541572386693549,764,2,-1,1
0.1188947832778802,765,2,-1,1
-0.028602223187610208,766,2,-1,1
-0.011607939851113379,767,2,-1,1
-0.008120329235015307,768,2,-1,1
0.0625380718088268,769,2,-1,1
0.014878186165976692,770,2,-1,1
0.04715589014728648,771,2,-1,1
0.04468499837188611,772,2,-1,1
0.07389258742759677,773,2,-1,1
-0.020477649050608334,774,2,-1,1
0.044934864466747645,775,2,-1,1
-0.0646595506187317,776,2,-1,1
-0.014974837790437182,777,2,-1,1
0.2551221775541869,778,2,-1,1
0.11858759198273912,779,2,-1,1
0.04087378459925432,780,2,-1,1
-0.12745431325084808,781,2,-1,1
-0.09560762916152517,782,2,-1,1
0.008773687478836356,783,2,-1,1
-0.31320496277197285,0,3,-1,1
0.0999502010050657,1,3,-1,1
0.060640324395136294,2,3,-1,1
0.08450167002729113,3,3,-1,1
-0.10549158047024919,4,3,-1,1
-0.09999832172689944,5,3,-1,1
-0.15419149644988797,6,3,-1,1
-0.17256106139772195,7,3,-1,1
0.07567535052203893,8,3,-1,1
0.07574792568420265,9,3,-1,1
0.2542054029187053,10,3,-1,1
-0.11082266478498055,11,3,-1,1
0.04122238707361765,12,3,-1,1
-0.29818036754296107,13,3,-1,1
-0.0371131794206727,14,3,-1,1
0.11082558830186,15,3,-1,1
0.05725748277844969,16,3,-1,1
-0.1719718094124235,17,3,-1,1
-0.07275477635438322,18,3,-1,1
0.060116711601145234,19,3,-1,1
-0.0028491257428201184,20,3,-1,1
0.008030453240691345,21,3,-1,1
-0.006407590440547028,22,3,-1,1
-0.016845288776316258,23,3,-1,1
0.15584892550047982,24,3,-1,1
0.06409023598828457,25,3,-1,1
0.05729783964600452,26,3,-1,1
0.01399721063013954,27,3,-1,1
0.09834789001423584,28,3,-1,1
-0.25456324511836925,29,3,-1,1
-0.0022759512132886437,30,3,-1,1
-0.04733905894449622,31,3,-1,1
-0.13316588241113583,32,3,-1,1
-0.08182888460740483,33,3,-1,1
0.1345507659037242,34,3,-1,1
0.04495361896121797,35,3,-1,1
0.14399814030102687,36,3,-1,1
0.04763019953992637,37,3,-1,1
0.0739722968151219,38,3,-1,1
0.08378225380956142,39,3,-1,1
0.022897583710131907,40,3,-1,1
-0.09795843556532141,41,3,-1,1
0.06662004602554868,42,3,-1,1
0.18779249302598866,43,3,-1,1
-0.20052512991965704,44,3,-1,1
0.07431574347628289,45,3,-1,1
-0.0598323994422172,46,3,-1,1
0.0927737465606368,47,3,-1,1
-0.13472206378024784,48,3,-1,1
-0.10774117306849144,49,3,-1,1
-0.1524858802264168,50,3,-1,1
0.06327145413339526,51,3,-1,1
-0.15411963920781438,52,3,-1,1
-0.03151366431473512,53,3,-1,1
-0.0767410796101032,54,3,-1,1
0.050052170356766415,55,3,-1,1
0.1294505129431601,56,3,-1,1
-0.24186953042978906,57,3,-1,1
0.06288265617426168,58,3,-1,1
0.08106572196241517,59,3,-1,1
0.10145809153679922,60,3,-1,1
-0.03127375444422009,61,3,-1,1
0.10575763309183052,62,3,-1,1
-0.0829843656764394,63,3,-1,1
-0.021501094840106604,64,3,-1,1
-0.0010070058041843648,65,3,-1,1
-0.0966677776951362,66,3,-1,1
-0.11924438257621442,67,3,-1,1
-0.060727079398439195,68,3,-1,1
-0.037297065756004506,69,3,-1,1
-0.18437821625950945,70,3,-1,1
-0.16672113130006816,71,3,-1,1
-0.05197421601993142,72,3,-1,1
-0.13381754498698917,73,3,-1,1
0.040394433963203163,74,3,-1,1
-0.1745111029113663,75,3,-1,1
-0.3306181862728902,76,3,-1,1
0.09216097123346619,77,3,-1,1
0.08990724789584595,78,3,-1,1
0.02646578211876583,79,3,-1,1
-0.010017878651687406,80,3,-1,1
-0.05371176867523211,81,3,-1,1
-0.02552784398655369,82,3,-1,1
-0.07112693741116712,83,3,-1,1
-0.048933886382473896,84,3,-1,1
-0.11851425956911225,85,3,-1,1
-0.04620739234891715,86,3,-1,1
-0.07932280655297928,87,3,-1,1
0.026449029750849833,88,3,-1,1
0.05877968259955512,89,3,-1,1
-0.05727719510261498,90,3,-1,1
-0.006440926351497647,91,3,-1,1
-0.06675124471196987,92,3,-1,1
-0.16630477824120926,93,3,-1,1
-0.10346623883509866,94,3,-1,1
-0.2647744784558074,95,3,-1,1
0.02889428067424083,96,3,-1,1
-0.0989140740764626,97,3,-1,1
-0.42068694661229655,98,3,-1,1
-0.5781110145371433,99,3,-1,1
-0.6485981401497223,100,3,-1,1
-0.45622829442973845,101,3,-1,1
-0.4584125884296116,102,3,-1,1
-0.5827571957963127,103,3,-1,1
-0.12292458601288776,104,3,-1,1
0.30872224196162984,105,3,-1,1
0.17263523207035802,106,3,-1,1
-0.1454884593616432,107,3,-1,1
0.06924597691581443,108,3,-1,1
0.12496321882617825,109,3,-1,1
0.01228515621582641,110,3,-1,1
-0.17014199022387413,111,3,-1,1
0.06220696811412125,112,3,-1,1
0.10136151506758147,113,3,-1,1
0.09746484860019915,114,3,-1,1
-0.09159354498812176,115,3,-1,1
-0.04884581479825992,116,3,-1,1
0.12208658757793943,117,3,-1,1
0.07032337073140192,118,3,-1,1
-0.04933890320153108,119,3,-1,1
0.00803498558256493,120,3,-1,1
0.0014954741017507637,121,3,-1,1
0.4569418847545435,122,3,-1,1
0.16991530749299627,123,3,-1,1
0.16238054467556737,124,3,-1,1
-0.0450182011898951,125,3,-1,1
0.036530742233512915,126,3,-1,1
0.368144128450765,127,3,-1,1
-0.2313623699313108,128,3,-1,1
-0.13984008353071295,129,3,-1,1
-0.18618618026944203,130,3,-1,1
-0.5547967337440306,131,3,-1,1
-0.22009486016762211,132,3,-1,1
-0.13071767094906353,133,3,-1,1
-0.14740650346734155,134,3,-1,1
0.00911216179562902,135,3,-1,1
-0.22339437265566836,136,3,-1,1
0.1341366793304186,137,3,-1,1
0.10814421656240364,138,3,-1,1
0.022031500719331087,139,3,-1,1
-0.05422859300786305,140,3,-1,1
0.010361693056538761,141,3,-1,1
-0.05255689621876194,142,3,-1,1
0.2553293845568453,143,3,-1,1
0.009537537013596161,144,3,-1,1
-0.16977129955317266,145,3,-1,1
0.16203132229926184,146,3,-1,1
-0.041918598662114614,147,3,-1,1
0.06341863803451141,148,3,-1,1
0.09559199072144572,149,3,-1,1
0.13516139318725495,150,3,-1,1
0.5914828472740602,151,3,-1,1
0.7565424995207416,152,3,-1,1
0.5978798554662932,153,3,-1,1
0.5934560819474581,154,3,-1,1
0.2712575320095058,155,3,-1,1
0.37203541869078305,156,3,-1,1
-0.20480537896495826,157,3,-1,1
-0.6757617405272741,158,3,-1,1
-0.5170026748661924,159,3,-1,1
-0.021131057153880004,160,3,-1,1
-0.13704021699840993,161,3,-1,1
-0.2063729457460605,162,3,-1,1
0.025830545413302285,163,3,-1,1
0.027226463172427794,164,3,-1,1
0.2804317092956668,165,3,-1,1
-0.04814793234929834,166,3,-1,1
-0.08480955423512276,167,3,-1,1
-0.042472473974090263,168,3,-1,1
0.10682830385421228,169,3,-1,1
-0.07372112935142108,170,3,-1,1
0.05992432275550081,171,3,-1,1
0.06001795908085775,172,3,-1,1
0.015223030655294106,173,3,-1,1
0.10132371597569789,174,3,-1,1
0.050491611641975145,175,3,-1,1
0.3720486859529825,176,3,-1,1
0.33698469418390514,177,3,-1,1
0.03685022237430951,178,3,-1,1
0.5430011014944974,179,3,-1,1
0.5389346689812776,180,3,-1,1
0.4220508436535934,181,3,-1,1
0.0023668846705284857,182,3,-1,1
0.15258400468989441,183,3,-1,1
0.565520091852583,184,3,-1,1
0.17536601950448202,185,3,-1,1
-0.296558343250185,186,3,-1,1
-0.4061511187103396,187,3,-1,1
-0.09202090659100459,188,3,-1,1
-0.318408896915115,189,3,-1,1
-0.11603915585082418,190,3,-1,1
0.22285054482980923,191,3,-1,1
0.48792513557227274,192,3,-1,1
0.4323775959184457,193,3,-1,1
0.057360265074748264,194,3,-1,1
-0.1034664551942667,195,3,-1,1
-0.004092551947567481,196,3,-1,1
0.12668685210829156,197,3,-1,1
-0.009574781114106859,198,3,-1,1
0.1322582557048594,199,3,-1,1
-0.10215625928652125,200,3,-1,1
-0.032604085501388776,201,3,-1,1
0.2944800351173639,202,3,-1,1
0.3114625837589356,203,3,-1,1
0.4470156921852167,204,3,-1,1
0.22680873262395765,205,3,-1,1
-0.07453597111853257,206,3,-1,1
0.22146677221451483,207,3,-1,1
0.06594314464220961,208,3,-1,1
-0.01706354813584711,209,3,-1,1
-0.3273915821661586,210,3,-1,1
0.23982580903913367,211,3,-1,1
0.26641146874079935,212,3,-1,1
-0.19159824719315896,213,3,-1,1
-0.39275155380294013,214,3,-1,1
-0.42304671652149345,215,3,-1,1
-0.18854556102051273,216,3,-1,1
-0.4477500803593986,217,3,-1,1
0.029864991702131104,218,3,-1,1
0.20212913194582638,219,3,-1,1
0.32922392699575737,220,3,-1,1
0.502434828238657,221,3,-1,1
-0.05680259196111237,222,3,-1,1
0.07051979450761921,223,3,-1,1
-0.031204529899159436,224,3,-1,1
0.19880071271708843,225,3,-1,1
-0.06385386347767075,226,3,-1,1
0.04341637321117709,227,3,-1,1
-0.026993931899072468,228,3,-1,1
0.22478015389499856,229,3,-1,1
0.1648071540634081,230,3,-1,1
0.08078941701307367,231,3,-1,1
0.012247864767820991,232,3,-1,1
-0.2245092947693066,233,3,-1,1
0.043409747655327915,234,3,-1,1
-0.02156576896103612,235,3,-1,1
0.1642361500942639,236,3,-1,1
0.22716965478522677,237,3,-1,1
-0.02723296238285681,238,3,-1,1
0.23605071044021722,239,3,-1,1
0.2856699501194485,240,3,-1,1
-0.10847914657372731,241,3,-1,1
-0.3940071632857746,242,3,-1,1
0.05783741710613967,243,3,-1,1
-0.44865586115077283,244,3,-1,1
-0.12938361401182694,245,3,-1,1
-0.1927716188034754,246,3,-1,1
-0.025014701026020877,247,3,-1,1
0.5489146373443927,248,3,-1,1
0.6134513977078078,249,3,-1,1
0.27397371823495786,250,3,-1,1
-0.06982258101907067,251,3,-1,1
0.04462121948243065,252,3,-1,1
0.09233392373068856,253,3,-1,1
0.07470898880046493,254,3,-1,1
0.02747575095795091,255,3,-1,1
0.2011085319961615,256,3,-1,1
-0.05713171394875656,257,3,-1,1
0.3612062273950673,258,3,-1,1
-0.43789782207386463,259,3,-1,1
-0.2595400057409034,260,3,-1,1
-0.4292680051110335,261,3,-1,1
-0.6229362424033278,262,3,-1,1
-0.24944554941299743,263,3,-1,1
-0.09752018703691773,264,3,-1,1
0.49117709344773497,265,3,-1,1
0.4091703600799963,266,3,-1,1
0.4976394575068833,267,3,-1,1
-0.162816354564026,268,3,-1,1
-0.4401618219518791,269,3,-1,1
0.2789532254478665,270,3,-1,1
-0.0752307434832282,271,3,-1,1
-0.1775981367255147,272,3,-1,1
-0.2891778594686166,273,3,-1,1
-0.08807674069203258,274,3,-1,1
0.35143509719214344,275,3,-1,1
0.4851861572471718,276,3,-1,1
0.23151017160167173,277,3,-1,1
0.20051393534862832,278,3,-1,1
-0.0880481194642467,279,3,-1,1
0.005387033235442919,280,3,-1,1
-0.002669577035600011,281,3,-1,1
0.05893687752495344,282,3,-1,1
-0.2461932756387291,283,3,-1,1
0.1649705568195623,284,3,-1,1
0.08632760779571885,285,3,-1,1
0.11875830384693714,286,3,-1,1
-0.2523311686853217,287,3,-1,1
-0.18070013743726487,288,3,-1,1
-0.1903964411998541,289,3,-1,1
-0.21455753987204906,290,3,-1,1
-0.2767345105019562,291,3,-1,1
0.3125856038414687,292,3,-1,1
1.0127664987226703,293,3,-1,1
0.9435853526482004,294,3,-1,1
0.7430535883683242,295,3,-1,1
-0.20355394986952602,296,3,-1,1
-0.6233640527159158,297,3,-1,1
-0.4138561314204748,298,3,-1,1
-0.11412713054054668,299,3,-1,1
-0.07371248273189565,300,3,-1,1
-0.15961946948824718,301,3,-1,1
-0.06879998794273244,302,3,-1,1
-0.272000045809234,303,3,-1,1
0.5566874731365294,304,3,-1,1
0.2235446272244368,305,3,-1,1
0.07190845951800441,306,3,-1,1
-0.20592781037890553,307,3,-1,1
-0.24819167074280238,308,3,-1,1
-0.056519253046085564,309,3,-1,1
-0.0593070331221413,310,3,-1,1
0.04734052647823144,311,3,-1,1
0.22835317974915825,312,3,-1,1
0.18395342185052202,313,3,-1,1
0.06339084881468883,314,3,-1,1
0.0252514340549703,315,3,-1,1
0.11690525117262915,316,3,-1,1
0.008410478273780223,317,3,-1,1
-0.06560562537799304,318,3,-1,1
0.31407812745764474,319,3,-1,1
0.8627249834051158,320,3,-1,1
0.966248071266695,321,3,-1,1
1.4859461271433487,322,3,-1,1
0.9070583185197346,323,3,-1,1
-0.132623241817899,324,3,-1,1
-0.4803859811231307,325,3,-1,1
-0.6013119974324099,326,3,-1,1
-0.168692144861103,327,3,-1,1
-0.3860770512846287,328,3,-1,1
-0.3564107465815139,329,3,-1,1
-0.41724283561693876,330,3,-1,1
-0.3116931234981996,331,3,-1,1
0.27760874043066125,332,3,-1,1
0.015011772289658158,333,3,-1,1
0.3029892545690157,334,3,-1,1
-0.05234034406431956,335,3,-1,1
-0.17867615320281355,336,3,-1,1
0.03597067865189629,337,3,-1,1
-0.06946533537860057,338,3,-1,1
0.06225884401998138,339,3,-1,1
0.1136007985996439,340,3,-1,1
0.11123116182323949,341,3,-1,1
0.13816046890914482,342,3,-1,1
0.2693998056949286,343,3,-1,1
0.8290133937139088,344,3,-1,1
0.3393081956205571,345,3,-1,1
0.4172717924785738,346,3,-1,1
0.2690443683715593,347,3,-1,1
0.17065936117738906,348,3,-1,1
0.25222414013235805,349,3,-1,1
0.4401434649924719,350,3,-1,1
0.44883872562423177,351,3,-1,1
-0.397283374543183,352,3,-1,1
-0.8695582090713603,353,3,-1,1
-0.7412715005717178,354,3,-1,1
-0.13086275333276667,355,3,-1,1
0.036605749324717,356,3,-1,1
-0.4547001296754081,357,3,-1,1
-0.5816962516526929,358,3,-1,1
-0.7681810185181455,359,3,-1,1
-0.3093519360235698,360,3,-1,1
-0.058868894623017635,361,3,-1,1
-0.05073410377646442,362,3,-1,1
0.10181769113456833,363,3,-1,1
0.12205962241727807,364,3,-1,1
-0.0774534676508138,365,3,-1,1
0.06628081130763498,366,3,-1,1
0.16218617609604888,367,3,-1,1
0.010935236738277291,368,3,-1,1
-0.08464365279596606,369,3,-1,1
-0.1483107506576634,370,3,-1,1
0.26896821110407115,371,3,-1,1
0.19401316943369293,372,3,-1,1
0.32259734897612313,373,3,-1,1
0.5344249942765247,374,3,-1,1
0.2956737059911249,375,3,-1,1
0.24745111375606613,376,3,-1,1
0.48911038055494865,377,3,-1,1
0.43500650570040433,378,3,-1,1
0.3628417814360222,379,3,-1,1
0.0017726696775121873,380,3,-1,1
-0.4732559039044038,381,3,-1,1
-0.1728898731640195,382,3,-1,1
-0.002666555360868543,383,3,-1,1
-0.01048441906892653,384,3,-1,1
-0.5884122653419307,385,3,-1,1
-0.5350368529530226,386,3,-1,1
-1.01332016404915,387,3,-1,1
-0.33023706817225973,388,3,-1,1
-0.23907726494391482,389,3,-1,1
-0.0383332443106882,390,3,-1,1
0.11857920310541366,391,3,-1,1
-0.16635368637450335,392,3,-1,1
0.1430971916860211,393,3,-1,1
0.11927675065346503,394,3,-1,1
-0.07805712598590513,395,3,-1,1
-0.18823233531466096,396,3,-1,1
-0.25535885627582433,397,3,-1,1
-0.3300143028843523,398,3,-1,1
-0.3619738051777041,399,3,-1,1
-0.4429858035687076,400,3,-1,1
-0.31546879822451296,401,3,-1,1
0.09968653342652348,402,3,-1,1
0.17022307961007294,403,3,-1,1
-0.18320944999357863,404,3,-1,1
0.03524862780537094,405,3,-1,1
0.4288945808909168,406,3,-1,1
0.32081183477960573,407,3,-1,1
-0.00940523302742694,408,3,-1,1
-0.2550167288907032,409,3,-1,1
0.291806966670748,410,3,-1,1
0.16045020330615484,411,3,-1,1
0.11715119997738067,412,3,-1,1
-0.14075175947441843,413,3,-1,1
-0.6241876584127624,414,3,-1,1
-0.7652993307557892,415,3,-1,1
-0.6129583987298352,416,3,-1,1
-0.29780194070496024,417,3,-1,1
0.12972779678616908,418,3,-1,1
-0.05694479965662472,419,3,-1,1
0.045940661191273116,420,3,-1,1
0.17631292770342097,421,3,-1,1
0.12405252409674218,422,3,-1,1
-0.09304932275720448,423,3,-1,1
0.1020206327686275,424,3,-1,1
-0.36359910851915805,425,3,-1,1
-0.4813489521319809,426,3,-1,1
-0.2546602630790207,427,3,-1,1
-0.2975595745632811,428,3,-1,1
-0.6554010385845315,429,3,-1,1
-0.7604473386782017,430,3,-1,1
-0.44258580137170256,431,3,-1,1
0.026573398823612437,432,3,-1,1
0.1950817102326511,433,3,-1,1
0.20035255359688417,434,3,-1,1
0.12859899245701914,435,3,-1,1
-0.21541587715447702,436,3,-1,1
-0.38540516110580736,437,3,-1,1
-0.06974559069345607,438,3,-1,1
-0.3310666930832051,439,3,-1,1
0.02438064080776985,440,3,-1,1
0.34213401915363834,441,3,-1,1
0.043579512955193855,442,3,-1,1
-0.5322443277539248,443,3,-1,1
-0.6799765548618083,444,3,-1,1
-0.13424495685295412,445,3,-1,1
0.12107626101063362,446,3,-1,1
-0.06368007356698918,447,3,-1,1
0.01594312737949841,448,3,-1,1
0.2820160628679286,449,3,-1,1
0.07935233419055085,450,3,-1,1
0.20392952977313922,451,3,-1,1
-0.10910888747841224,452,3,-1,1
-0.33876668860376935,453,3,-1,1
-0.25330407962800805,454,3,-1,1
-0.45645530260034783,455,3,-1,1
-0.7742795515893063,456,3,-1,1
-0.36336503481228116,457,3,-1,1
-0.44106290124187214,458,3,-1,1
-0.6767110641581896,459,3,-1,1
0.03537671706164806,460,3,-1,1
0.16673174731917972,461,3,-1,1
0.1484533035662504,462,3,-1,1
0.2302567018562181,463,3,-1,1
-0.13693484491568725,464,3,-1,1
-0.6635008482119102,465,3,-1,1
-0.0074977513135222095,466,3,-1,1
-0.037784776846430924,467,3,-1,1
-0.14646115808366017,468,3,-1,1
0.23456192803774234,469,3,-1,1
0.6281699959684806,470,3,-1,1
-0.1851980866292368,471,3,-1,1
-0.4605228867407736,472,3,-1,1
0.01951694776896648,473,3,-1,1
-0.03428253010779328,474,3,-1,1
0.15671337878361216,475,3,-1,1
-0.04362757544359323,476,3,-1,1
0.15970505481291788,477,3,-1,1
-0.010573429619555385,478,3,-1,1
-0.052764179744505896,479,3,-1,1
0.16210318455234268,480,3,-1,1
-0.05635346098451279,481,3,-1,1
-0.07874435727423436,482,3,-1,1
-0.6012079013254606,483,3,-1,1
-0.11267005384172657,484,3,-1,1
-0.10275767183136651,485,3,-1,1
-0.7776773238606609,486,3,-1,1
-0.6777565226434925,487,3,-1,1
-0.25381853542077876,488,3,-1,1
0.17410588587545756,489,3,-1,1
0.2073936646955376,490,3,-1,1
-0.24990050434678482,491,3,-1,1
-0.47870772900572744,492,3,-1,1
-0.5683386802023681,493,3,-1,1
-0.481288501645586,494,3,-1,1
0.2174161559957073,495,3,-1,1
0.05049247337363626,496,3,-1,1
0.12913838419044388,497,3,-1,1
0.14180542850571468,498,3,-1,1
-0.014740584816553997,499,3,-1,1
-0.08800758203155426,500,3,-1,1
-0.006244895616487101,501,3,-1,1
0.06211859219074211,502,3,-1,1
-0.03779174025220368,503,3,-1,1
0.05530675540471117,504,3,-1,1
0.0022351010255530486,505,3,-1,1
0.05646570012547209,506,3,-1,1
0.1538952525020955,507,3,-1,1
0.246793627761526,508,3,-1,1
-0.03300133373950197,509,3,-1,1
0.06250155416075896,510,3,-1,1
0.3351850555354591,511,3,-1,1
0.1055664790215213,512,3,-1,1
-0.3612354266136366,513,3,-1,1
-0.40813374753595366,514,3,-1,1
-0.6020865493687342,515,3,-1,1
-0.33385641136728955,516,3,-1,1
0.24864841810830168,517,3,-1,1
0.23692600588240048,518,3,-1,1
-0.6086623248392353,519,3,-1,1
-0.7398927384850129,520,3,-1,1
-0.6011481975053327,521,3,-1,1
-0.498794630327881,522,3,-1,1
-0.17238534024078211,523,3,-1,1
-0.1411225027043104,524,3,-1,1
0.08661216461583038,525,3,-1,1
-0.03391758446723591,526,3,-1,1
0.10753108956738856,527,3,-1,1
0.1317114970722242,528,3,-1,1
-0.25818911395605215,529,3,-1,1
0.013266780574974987,530,3,-1,1
0.057039724024164976,531,3,-1,1
-0.2086901305374699,532,3,-1,1
0.037252254058270075,533,3,-1,1
-0.027733764576250694,534,3,-1,1
0.23009278274843586,535,3,-1,1
0.2563699896504151,536,3,-1,1
0.2815432873831869,537,3,-1,1
0.1469395606481626,538,3,-1,1
-0.11001614526969213,539,3,-1,1
-0.17286381504317433,540,3,-1,1
-0.1991433561405527,541,3,-1,1
-0.4169062244250496,542,3,-1,1
-0.5661752809787985,543,3,-1,1
-0.38695549108951444,544,3,-1,1
0.36969453578371825,545,3,-1,1
0.13882362771472925,546,3,-1,1
-0.2181622610315604,547,3,-1,1
-0.5697840596101297,548,3,-1,1
-0.2190506986175863,549,3,-1,1
-0.42322088689560267,550,3,-1,1
-0.4953009796962282,551,3,-1,1
-0.07422769841666277,552,3,-1,1
0.05747740690882762,553,3,-1,1
0.0061830063107287375,554,3,-1,1
0.3619624299651169,555,3,-1,1
0.42229554390126717,556,3,-1,1
0.04752915710814696,557,3,-1,1
-0.1010472198491842,558,3,-1,1
-0.04741067798002669,559,3,-1,1
-0.08364652297122167,560,3,-1,1
-0.09438606948347762,561,3,-1,1
-0.22376191973683865,562,3,-1,1
-0.1977865024106649,563,3,-1,1
-0.08484960172770423,564,3,-1,1
0.08921430676513206,565,3,-1,1
0.4393011838530094,566,3,-1,1
-0.03792399856474449,567,3,-1,1
0.02812645425543225,568,3,-1,1
-0.080395417078296,569,3,-1,1
0.047353230015707924,570,3,-1,1
-0.14541585970327484,571,3,-1,1
-0.08322379023798003,572,3,-1,1
0.09335452032616957,573,3,-1,1
-0.3549438265285037,574,3,-1,1
-0.24561787453303144,575,3,-1,1
-0.03312630960522973,576,3,-1,1
-0.024098709064484716,577,3,-1,1
-0.06635921624605647,578,3,-1,1
-0.2892685058708218,579,3,-1,1
0.11019425325794484,580,3,-1,1
0.043382445215326304,581,3,-1,1
0.35036261887609665,582,3,-1,1
0.4079694485946741,583,3,-1,1
0.24381369414753787,584,3,-1,1
0.28356216375591725,585,3,-1,1
-0.06188160572334974,586,3,-1,1
-0.06635259207531445,587,3,-1,1
0.15827516520388776,588,3,-1,1
0.010929406335465262,589,3,-1,1
-0.16924969999095296,590,3,-1,1
0.20198257166161032,591,3,-1,1
0.2954671010542086,592,3,-1,1
0.03537316128537627,593,3,-1,1
-0.0028811544834945746,594,3,-1,1
0.06998099753690609,595,3,-1,1
-0.33181570695220164,596,3,-1,1
0.05477124558180234,597,3,-1,1
0.03917655663013533,598,3,-1,1
0.06232036081262747,599,3,-1,1
0.09385524552388635,600,3,-1,1
-0.4214129325755129,601,3,-1,1
-0.47080108961623696,602,3,-1,1
0.2968654942814619,603,3,-1,1
0.10686530443789054,604,3,-1,1
0.252004223537589,605,3,-1,1
-0.04041491654098785,606,3,-1,1
-0.20148456352500124,607,3,-1,1
0.10883975168199497,608,3,-1,1
0.21529588701491273,609,3,-1,1
0.5132012093485834,610,3,-1,1
0.17845303963688558,611,3,-1,1
0.40280183764024835,612,3,-1,1
0.1926592050745879,613,3,-1,1
0.20530722890536773,614,3,-1,1
0.04758426109648267,615,3,-1,1
0.022342852584994636,616,3,-1,1
0.058877802749041336,617,3,-1,1
0.027305958359134835,618,3,-1,1
-0.09318342681543604,619,3,-1,1
0.078825430470504,620,3,-1,1
-0.09934816481603626,621,3,-1,1
-0.0014726594929670423,622,3,-1,1
0.390418437637567,623,3,-1,1
0.006234764350202973,624,3,-1,1
0.09838943328109398,625,3,-1,1
0.5264856765572508,626,3,-1,1
-0.1353098713594455,627,3,-1,1
-0.41825970792964656,628,3,-1,1
0.11984414948107333,629,3,-1,1
0.003085920392920208,630,3,-1,1
-0.17449367147491746,631,3,-1,1
-0.007043985497383318,632,3,-1,1
0.019634697457086035,633,3,-1,1
-0.27915744197838693,634,3,-1,1
-0.06624705895426358,635,3,-1,1
0.4670980855849442,636,3,-1,1
0.251170054406247,637,3,-1,1
0.13345913197830978,638,3,-1,1
0.2178631535156673,639,3,-1,1
0.4499149684712342,640,3,-1,1
0.05694713862577997,641,3,-1,1
0.09342576913875046,642,3,-1,1
-0.059758739084663184,643,3,-1,1
-0.013155164292683395,644,3,-1,1
-0.0006943112581032762,645,3,-1,1
-0.06873897754104064,646,3,-1,1
0.09349241903087674,647,3,-1,1
0.21287024388210252,648,3,-1,1
-0.16356949996327744,649,3,-1,1
-0.3068092151042806,650,3,-1,1
-0.3009861926299589,651,3,-1,1
0.03590552229847182,652,3,-1,1
-0.03241395717372192,653,3,-1,1
-0.2664701653374642,654,3,-1,1
0.1909711119128695,655,3,-1,1
0.3082985591867679,656,3,-1,1
0.09686830058099329,657,3,-1,1
0.025033120251361334,658,3,-1,1
-0.3955490486897671,659,3,-1,1
-0.7063329469658931,660,3,-1,1
-0.5799352399966464,661,3,-1,1
-0.3923230395147683,662,3,-1,1
0.18473216602696294,663,3,-1,1
0.11634124640092476,664,3,-1,1
-0.07919733645030176,665,3,-1,1
0.025647451623098175,666,3,-1,1
0.2386195789358441,667,3,-1,1
0.1567492363315756,668,3,-1,1
0.17133915898839822,669,3,-1,1
0.12713321364950766,670,3,-1,1
0.1227988206743426,671,3,-1,1
0.009550566965901779,672,3,-1,1
0.13921075096703653,673,3,-1,1
0.10493451470018872,674,3,-1,1
0.12532164811368357,675,3,-1,1
-0.036844719315739925,676,3,-1,1
-0.07112613056715882,677,3,-1,1
-0.17541233227805622,678,3,-1,1
0.00402638697795379,679,3,-1,1
-0.1896199571534641,680,3,-1,1
-0.0400064759154848,681,3,-1,1
-0.6953998167558235,682,3,-1,1
-0.47186097162244006,683,3,-1,1
-0.0978689609300314,684,3,-1,1
-0.041292418816050565,685,3,-1,1
0.18545090110172344,686,3,-1,1
-0.5433493461898597,687,3,-1,1
-0.3320357629376145,688,3,-1,1
-0.38975914496886793,689,3,-1,1
0.027013125612435112,690,3,-1,1
-0.042889866763919114,691,3,-1,1
-0.09888920035361738,692,3,-1,1
-0.0021787069315440154,693,3,-1,1
-0.011556652555668975,694,3,-1,1
-0.1486203016066269,695,3,-1,1
-0.08642193581312053,696,3,-1,1
-0.11569466563064029,697,3,-1,1
0.26268481282960865,698,3,-1,1
0.0020153553765807357,699,3,-1,1
-0.12383592909418963,700,3,-1,1
-0.020319914430889038,701,3,-1,1
0.004071874258614842,702,3,-1,1
0.03549499329912213,703,3,-1,1
-0.06803313791255892,704,3,-1,1
-0.019509435610627433,705,3,-1,1
0.1464041168436428,706,3,-1,1
0.1810704575632965,707,3,-1,1
0.2355777198210357,708,3,-1,1
-0.032200467378233746,709,3,-1,1
0.2531001213434509,710,3,-1,1
0.31789673312480937,711,3,-1,1
0.07108336858375676,712,3,-1,1
0.4041865781416298,713,3,-1,1
0.22084048764223202,714,3,-1,1
0.2910033769423447,715,3,-1,1
0.06301714799403145,716,3,-1,1
0.2442261592356081,717,3,-1,1
0.14124109976356886,718,3,-1,1
0.14770252932790526,719,3,-1,1
0.29523865035471003,720,3,-1,1
0.14839692542595553,721,3,-1,1
0.15115374435389947,722,3,-1,1
0.13096998685808073,723,3,-1,1
-0.028785225129461606,724,3,-1,1
-0.03267686830876086,725,3,-1,1
0.07772964345114912,726,3,-1,1
0.04046062214998482,727,3,-1,1
-0.1507536511143163,728,3,-1,1
0.05142106830755057,729,3,-1,1
-0.060256006957154135,730,3,-1,1
0.033240641810434304,731,3,-1,1
-0.045125845763238435,732,3,-1,1
-0.047173662993492876,733,3,-1,1
-0.04026487503238117,734,3,-1,1
-0.18713980876158787,735,3,-1,1
-0.11911390791888098,736,3,-1,1
-0.20567517410770772,737,3,-1,1
-0.04627952703001863,738,3,-1,1
-0.2071372138170251,739,3,-1,1
-0.298683521973156,740,3,-1,1
-0.11246121493418462,741,3,-1,1
-0.1334353344494186,742,3,-1,1
-0.24916575304135674,743,3,-1,1
