Weight,Input Node,Hidden Node,Output Node,Layer Index
0.058204609829237856,0,0,-1,1
0.036929488217356914,1,0,-1,1
-0.2271824515442225,2,0,-1,1
0.11982048328761859,3,0,-1,1
0.1304702225202296,4,0,-1,1
-0.05196798109582331,5,0,-1,1
-0.09824027284018076,6,0,-1,1
0.03309496333724426,7,0,-1,1
-0.04240574937008696,8,0,-1,1
0.04932828783034152,9,0,-1,1
-0.008277086122347932,10,0,-1,1
0.11174474601844002,11,0,-1,1
0.09420455691880408,12,0,-1,1
-0.0070225240147126534,13,0,-1,1
-0.026814370183116852,14,0,-1,1
0.11564166325097262,15,0,-1,1
0.08853002970848868,16,0,-1,1
-0.08681831774977712,17,0,-1,1
0.12021847244671198,18,0,-1,1
0.07815311084801521,19,0,-1,1
-0.03857166355995404,20,0,-1,1
-0.08601078640549578,21,0,-1,1
-0.022156412707477834,22,0,-1,1
0.018100144606089857,23,0,-1,1
-0.10257936635917139,24,0,-1,1
-0.00485201507322763,25,0,-1,1
-0.02648409762837175,26,0,-1,1
-0.05649604184051694,27,0,-1,1
0.01095717805851488,28,0,-1,1
-0.08771896412376476,29,0,-1,1
0.03050413406156017,30,0,-1,1
0.11358333032293001,31,0,-1,1
-0.015701883698272325,32,0,-1,1
0.06959354498843849,33,0,-1,1
0.04939450083052032,34,0,-1,1
0.012126907689297433,35,0,-1,1
-0.027841743739263528,36,0,-1,1
-0.022518949676472135,37,0,-1,1
0.06901437228315128,38,0,-1,1
-0.0728988959199348,39,0,-1,1
0.08607695984010762,40,0,-1,1
0.13212745021459288,41,0,-1,1
0.16005467680685553,42,0,-1,1
-0.11996347322106118,43,0,-1,1
0.11452867212190396,44,0,-1,1
0.07390487795669971,45,0,-1,1
0.023366811729142917,46,0,-1,1
-0.15849119001670484,47,0,-1,1
-0.03698190321811735,48,0,-1,1
-0.11327574274406213,49,0,-1,1
-0.1004944957266865,50,0,-1,1
0.06724424324650168,51,0,-1,1
0.0713702927269047,52,0,-1,1
-0.022578037729588774,53,0,-1,1
0.03839336771320189,54,0,-1,1
-0.058817526531017815,55,0,-1,1
-0.12670809693608784,56,0,-1,1
0.08934246402696086,57,0,-1,1
-0.03566280642758463,58,0,-1,1
-0.014440545268897187,59,0,-1,1
-0.14294012314896565,60,0,-1,1
-0.1568336574989597,61,0,-1,1
-0.005358099139386783,62,0,-1,1
-0.26647573511300143,63,0,-1,1
-0.019901371021222514,64,0,-1,1
-0.16291511009419266,65,0,-1,1
0.24784901723869363,66,0,-1,1
-0.30010299150507175,67,0,-1,1
-0.12445908245308493,68,0,-1,1
0.11053360845911599,69,0,-1,1
-0.05160879617404216,70,0,-1,1
-0.12387019725184958,71,0,-1,1
0.09293622364421711,72,0,-1,1
-0.038527360517508366,73,0,-1,1
0.028609094826181812,74,0,-1,1
-0.03767944078191603,75,0,-1,1
-0.0009806679867408951,76,0,-1,1
-0.019276095588808426,77,0,-1,1
0.039659685149768746,78,0,-1,1
0.04040622322280633,79,0,-1,1
0.062193645905731405,80,0,-1,1
0.0694445083832112,81,0,-1,1
0.08349650716134699,82,0,-1,1
0.049803087899258684,83,0,-1,1
-0.008027967447249299,84,0,-1,1
-0.13816418200699368,85,0,-1,1
0.003958616849600679,86,0,-1,1
0.04467338202299545,87,0,-1,1
-0.00014068372143026376,88,0,-1,1
0.2516764898447596,89,0,-1,1
0.10716901952382092,90,0,-1,1
-0.017000995466214093,91,0,-1,1
-0.14126223732617404,92,0,-1,1
0.11965322237790017,93,0,-1,1
-0.10630509732053094,94,0,-1,1
-0.18111180769764015,95,0,-1,1
0.02500875922926426,96,0,-1,1
0.11112799584378928,97,0,-1,1
-0.10845670657365203,98,0,-1,1
-0.22970301674089275,99,0,-1,1
-0.15348006450107438,100,0,-1,1
-0.04959954470916257,101,0,-1,1
0.15668612325023543,102,0,-1,1
-0.1344505922822022,103,0,-1,1
0.03330642408454127,104,0,-1,1
0.010409421161768849,105,0,-1,1
-0.0894870482744104,106,0,-1,1
-0.11780604709643894,107,0,-1,1
0.08952402309137239,108,0,-1,1
-0.14467992948028796,109,0,-1,1
0.1163618841249213,110,0,-1,1
0.09219469508087132,111,0,-1,1
0.156118101076038,112,0,-1,1
0.0790605561184324,113,0,-1,1
-0.06251414312720568,114,0,-1,1
-0.009122490313861297,115,0,-1,1
-0.0003419387153852999,116,0,-1,1
0.03879434153561309,117,0,-1,1
-0.03201293384805484,118,0,-1,1
0.198635883824499,119,0,-1,1
-0.09982244261236828,120,0,-1,1
-0.07021242156724139,121,0,-1,1
-0.056019520434200436,122,0,-1,1
-0.09002263614550565,123,0,-1,1
-0.007219665210657262,124,0,-1,1
0.06114303082804176,125,0,-1,1
0.1589111659479121,126,0,-1,1
0.038286624759147375,127,0,-1,1
0.06363938764611651,128,0,-1,1
0.06272145828450627,129,0,-1,1
-0.22805456105675992,130,0,-1,1
0.030774417282194638,131,0,-1,1
0.04281593898676537,132,0,-1,1
0.005588827026716491,133,0,-1,1
-0.09966236411597876,134,0,-1,1
0.04632991694955573,135,0,-1,1
-0.02173010234508166,136,0,-1,1
0.005115571654441765,137,0,-1,1
0.057950619447953475,138,0,-1,1
-0.02818922441494421,139,0,-1,1
-0.13272699823581033,140,0,-1,1
0.1059575287020711,141,0,-1,1
-0.03245809548955926,142,0,-1,1
0.02667559708257578,143,0,-1,1
-0.011110135298367848,144,0,-1,1
0.0027202985733768698,145,0,-1,1
-0.05674492138211313,146,0,-1,1
-0.0966605452399364,147,0,-1,1
-0.17812590869818257,148,0,-1,1
-0.00011695748588240541,149,0,-1,1
-0.15823421638895957,150,0,-1,1
-0.2879778720970684,151,0,-1,1
-0.14805059433554088,152,0,-1,1
-0.1474852075105261,153,0,-1,1
-0.017141163989713677,154,0,-1,1
-0.04824450015681873,155,0,-1,1
-0.10340466757575154,156,0,-1,1
-0.1939821075580484,157,0,-1,1
-0.07815557456727425,158,0,-1,1
-0.032425627469084256,159,0,-1,1
-0.022376354989039553,160,0,-1,1
-0.10736037413578042,161,0,-1,1
-0.04827917340050275,162,0,-1,1
-0.05250016900503456,163,0,-1,1
-0.16400505500326873,164,0,-1,1
-0.10658836721428451,165,0,-1,1
0.060800335157752225,166,0,-1,1
0.19749055015718614,167,0,-1,1
0.047020500781016474,168,0,-1,1
-0.030360784498617767,169,0,-1,1
-0.027544797346591886,170,0,-1,1
-0.09762764738018398,171,0,-1,1
-0.15135088312761033,172,0,-1,1
0.12437064089330148,173,0,-1,1
-0.01195108970985833,174,0,-1,1
0.03744337256942537,175,0,-1,1
-0.0686222705915958,176,0,-1,1
0.008994348063589524,177,0,-1,1
-0.013794365915580807,178,0,-1,1
-0.14610423200022668,179,0,-1,1
-0.2057837256680475,180,0,-1,1
-0.1712396998348767,181,0,-1,1
-0.23649063474975834,182,0,-1,1
-0.02306067389235677,183,0,-1,1
0.017579660801995318,184,0,-1,1
-0.2390689724611506,185,0,-1,1
0.004843470613249787,186,0,-1,1
-0.0006578862807442181,187,0,-1,1
-0.064633771722403,188,0,-1,1
-0.029392693146602138,189,0,-1,1
0.011558780244139075,190,0,-1,1
-0.2856059082488419,191,0,-1,1
-0.11388392277575207,192,0,-1,1
0.06200896099520125,193,0,-1,1
0.013336979969172684,194,0,-1,1
-0.053333308652992684,195,0,-1,1
-0.11083085643415008,196,0,-1,1
-0.12740076624692234,197,0,-1,1
-0.07781050875095238,198,0,-1,1
-0.07696180559438313,199,0,-1,1
-0.1254386969353687,200,0,-1,1
-0.1988461816667863,201,0,-1,1
-0.15719968394405065,202,0,-1,1
-0.12934500959036965,203,0,-1,1
0.0845296539560822,204,0,-1,1
0.06202596799381603,205,0,-1,1
0.28038156341254333,206,0,-1,1
0.1512214575178108,207,0,-1,1
0.09230883612655548,208,0,-1,1
0.0298209073099527,209,0,-1,1
-0.08106263489447284,210,0,-1,1
-0.022879443496297766,211,0,-1,1
-0.16806142962914855,212,0,-1,1
-0.10416350260766773,213,0,-1,1
0.0675405516723026,214,0,-1,1
0.0832810708301285,215,0,-1,1
0.08139801029474525,216,0,-1,1
0.15852970726109603,217,0,-1,1
-0.07751242059879715,218,0,-1,1
0.020517254663425584,219,0,-1,1
-0.023639101802789417,220,0,-1,1
0.15521784167394587,221,0,-1,1
-0.1684987233864995,222,0,-1,1
-0.07841360846785339,223,0,-1,1
-0.10724768986187833,224,0,-1,1
0.0428304495952904,225,0,-1,1
0.014723430162509172,226,0,-1,1
0.09631576130356252,227,0,-1,1
0.010760297998927033,228,0,-1,1
0.07775406832083663,229,0,-1,1
-0.11300431242515334,230,0,-1,1
0.08964914593820879,231,0,-1,1
-0.06799990895367201,232,0,-1,1
0.18635933106905817,233,0,-1,1
0.16884924580722901,234,0,-1,1
0.16284588700373934,235,0,-1,1
0.03537419710778021,236,0,-1,1
0.07044234429293292,237,0,-1,1
0.08349799681960737,238,0,-1,1
0.01571612876221453,239,0,-1,1
0.20542447267178068,240,0,-1,1
0.03104694399755821,241,0,-1,1
0.1845577521364504,242,0,-1,1
0.04012729188682054,243,0,-1,1
-0.02981580226584893,244,0,-1,1
0.1273695597755285,245,0,-1,1
-0.1373741021958731,246,0,-1,1
0.12393533889729956,247,0,-1,1
-0.05821685848718994,248,0,-1,1
0.06791236888041083,249,0,-1,1
-0.08766254179928769,250,0,-1,1
-0.015795968807148526,251,0,-1,1
-0.12565813322105462,252,0,-1,1
0.20862511368246883,253,0,-1,1
-0.003485776779730537,254,0,-1,1
-0.03973572773722116,255,0,-1,1
0.05757984947245939,256,0,-1,1
0.2484238178910104,257,0,-1,1
0.034107790585436636,258,0,-1,1
0.18633466777454677,259,0,-1,1
0.021474099506522713,260,0,-1,1
0.062106451568970815,261,0,-1,1
0.0034771480706448825,262,0,-1,1
0.1477314715985273,263,0,-1,1
0.012501472831801719,264,0,-1,1
0.10807666681066128,265,0,-1,1
0.1219724872091944,266,0,-1,1
0.056777926277893555,267,0,-1,1
0.11266255049021376,268,0,-1,1
0.06117670788408754,269,0,-1,1
0.22448621288581247,270,0,-1,1
0.18160544991349284,271,0,-1,1
0.1396030537118041,272,0,-1,1
-0.018612489567518552,273,0,-1,1
-0.019038684367272886,274,0,-1,1
-0.09478742518517276,275,0,-1,1
0.09622754553049721,276,0,-1,1
-0.08088985136580629,277,0,-1,1
-0.036428276306364395,278,0,-1,1
-0.004476902950724536,279,0,-1,1
-0.06841138618148752,280,0,-1,1
0.2035563521662459,281,0,-1,1
0.14977082390701602,282,0,-1,1
0.17651068792594285,283,0,-1,1
0.07633940258327317,284,0,-1,1
-0.006400351483490566,285,0,-1,1
0.24033238294024625,286,0,-1,1
0.28874474754852947,287,0,-1,1
0.06447234489487882,288,0,-1,1
0.04709218366015184,289,0,-1,1
0.2432262517562712,290,0,-1,1
0.16698377871192102,291,0,-1,1
0.09759446447946678,292,0,-1,1
-0.059520489952536254,293,0,-1,1
0.04244802469274351,294,0,-1,1
0.14855734063507492,295,0,-1,1
-0.10859831262534353,296,0,-1,1
0.16014764910263535,297,0,-1,1
0.25605052786257737,298,0,-1,1
0.19884990460392613,299,0,-1,1
0.15159327011008103,300,0,-1,1
0.16595454932175324,301,0,-1,1
0.06412343248321425,302,0,-1,1
0.08892590116270868,303,0,-1,1
0.015964913666692757,304,0,-1,1
-0.10251997914277866,305,0,-1,1
0.14382791776414042,306,0,-1,1
0.07073855283519112,307,0,-1,1
0.020418165480331214,308,0,-1,1
0.05845953429141378,309,0,-1,1
0.20020422035041757,310,0,-1,1
-0.09948507055330605,311,0,-1,1
0.1967140927093119,312,0,-1,1
0.2087188310134291,313,0,-1,1
0.20403523086762704,314,0,-1,1
0.1525983312571739,315,0,-1,1
0.21017754708340433,316,0,-1,1
0.40650027175281783,317,0,-1,1
0.18584385368186285,318,0,-1,1
0.22912651445111257,319,0,-1,1
-0.010498511302541294,320,0,-1,1
0.024223170571606185,321,0,-1,1
-0.07617860648979607,322,0,-1,1
-0.03364159043780946,323,0,-1,1
0.04552156274555389,324,0,-1,1
7.653935139842302e-05,325,0,-1,1
0.10531547883051914,326,0,-1,1
0.2305495790639453,327,0,-1,1
0.27197497782502716,328,0,-1,1
0.028611810219297457,329,0,-1,1
0.08734495083077926,330,0,-1,1
-0.08615602655400038,331,0,-1,1
0.0807456355926665,332,0,-1,1
0.10428998230545507,333,0,-1,1
0.08585686716869287,334,0,-1,1
-0.04869422772939379,335,0,-1,1
0.022476684739706668,336,0,-1,1
-0.09797719941248145,337,0,-1,1
0.046917024737921996,338,0,-1,1
-0.17349224690230966,339,0,-1,1
-0.09898672311937821,340,0,-1,1
-0.08247344638520147,341,0,-1,1
-0.04191161285151398,342,0,-1,1
0.32951781306954064,343,0,-1,1
0.12083070958820018,344,0,-1,1
0.023704746268985083,345,0,-1,1
0.17917665748331535,346,0,-1,1
-0.11394318966981122,347,0,-1,1
-0.19234560314123192,348,0,-1,1
-0.3442715643149567,349,0,-1,1
-0.1966257909175613,350,0,-1,1
-0.14660916980420396,351,0,-1,1
-0.08676885256167367,352,0,-1,1
0.004626298087580081,353,0,-1,1
0.05497210750516836,354,0,-1,1
0.04807710900020122,355,0,-1,1
-0.011139836194800775,356,0,-1,1
0.042694014452323154,357,0,-1,1
0.172326698538584,358,0,-1,1
0.004110259579047113,359,0,-1,1
-0.0013359416289003723,360,0,-1,1
0.14087604162535997,361,0,-1,1
0.06857033047902342,362,0,-1,1
0.22976475975347577,363,0,-1,1
-0.032271501438598006,364,0,-1,1
0.009425461804469912,365,0,-1,1
-0.012417052717603603,366,0,-1,1
0.12795681948927598,367,0,-1,1
-0.11725772149164863,368,0,-1,1
0.07221087645871009,369,0,-1,1
0.28817061379679554,370,0,-1,1
0.19272553302945442,371,0,-1,1
-0.04914295058298216,372,0,-1,1
0.1257762883770125,373,0,-1,1
0.07099484523922422,374,0,-1,1
-0.2199048482538874,375,0,-1,1
-0.3974182495423807,376,0,-1,1
-0.49492097264599993,377,0,-1,1
-0.36542285496049665,378,0,-1,1
-0.09093549158821733,379,0,-1,1
-0.16525051853773928,380,0,-1,1
-0.24611921337040477,381,0,-1,1
-0.024680569658456605,382,0,-1,1
-0.2679504887822248,383,0,-1,1
-0.06782504907612537,384,0,-1,1
0.1710718581302914,385,0,-1,1
0.1168337515758616,386,0,-1,1
0.18296716460384488,387,0,-1,1
-0.08427481843217062,388,0,-1,1
0.13398332471971608,389,0,-1,1
0.09473264747537827,390,0,-1,1
0.15320886541676168,391,0,-1,1
-0.023169394484427057,392,0,-1,1
-0.053196465288542306,393,0,-1,1
0.10216308196688062,394,0,-1,1
0.0576817131161432,395,0,-1,1
0.06816599397719911,396,0,-1,1
0.12038933224205504,397,0,-1,1
0.03225189168926299,398,0,-1,1
0.026781402594982972,399,0,-1,1
-0.03693440561394089,400,0,-1,1
0.0755465434005284,401,0,-1,1
-0.1776276620396344,402,0,-1,1
-0.3096886727896308,403,0,-1,1
-0.6693836146668353,404,0,-1,1
-0.6161187496723464,405,0,-1,1
-0.33360458421380856,406,0,-1,1
-0.11572957364223255,407,0,-1,1
-0.07176951145450636,408,0,-1,1
0.10850806538469916,409,0,-1,1
-0.18324530242353912,410,0,-1,1
-0.07031345599046705,411,0,-1,1
0.03664091836704853,412,0,-1,1
-0.03021813088406743,413,0,-1,1
0.12372637971845817,414,0,-1,1
0.2081075803932242,415,0,-1,1
0.19123565518150618,416,0,-1,1
-0.03629001178700337,417,0,-1,1
-0.005254938551268928,418,0,-1,1
0.12360996099656693,419,0,-1,1
-0.04846846616619586,420,0,-1,1
-0.19662308148292576,421,0,-1,1
-0.021359321336859083,422,0,-1,1
0.1466035544253685,423,0,-1,1
0.011532903127167343,424,0,-1,1
0.049086401021641524,425,0,-1,1
-0.08806782067765402,426,0,-1,1
0.002860391324285534,427,0,-1,1
0.07543598222543886,428,0,-1,1
-0.22849117125838495,429,0,-1,1
-0.5036895637567419,430,0,-1,1
-0.29665506515603796,431,0,-1,1
-0.5565504713628494,432,0,-1,1
-0.46213568109026454,433,0,-1,1
-0.38125721026153997,434,0,-1,1
-0.3006204230928483,435,0,-1,1
-0.13889845942094506,436,0,-1,1
-0.29432333712902237,437,0,-1,1
-0.2289456797726984,438,0,-1,1
-0.33061861415995025,439,0,-1,1
0.025193206594133082,440,0,-1,1
0.055085117634994796,441,0,-1,1
0.0962479559608346,442,0,-1,1
0.12561624968800297,443,0,-1,1
0.0414122991021795,444,0,-1,1
0.15910074057817222,445,0,-1,1
0.11176175034519202,446,0,-1,1
-0.14416516739662608,447,0,-1,1
0.10807767378394884,448,0,-1,1
-0.16182512832993887,449,0,-1,1
-0.16998870455764925,450,0,-1,1
0.15417946250689962,451,0,-1,1
-0.06694655419645583,452,0,-1,1
0.18027484893115694,453,0,-1,1
-0.1201227168260892,454,0,-1,1
-0.08046130330819028,455,0,-1,1
-0.09244794801234946,456,0,-1,1
-0.02107669289240809,457,0,-1,1
-0.3655236485614707,458,0,-1,1
-0.4193011989211466,459,0,-1,1
-0.5867311793872471,460,0,-1,1
-0.5195277684978729,461,0,-1,1
0.043498342422247746,462,0,-1,1
-0.057165103322734105,463,0,-1,1
-0.2457114076192049,464,0,-1,1
0.02929217160385228,465,0,-1,1
-0.19823679656823973,466,0,-1,1
0.16934075080061406,467,0,-1,1
0.022976187918629893,468,0,-1,1
-0.0661293749309587,469,0,-1,1
0.24309210479950696,470,0,-1,1
0.11973107130777058,471,0,-1,1
0.0738774454963565,472,0,-1,1
0.06630288158134622,473,0,-1,1
-0.09044581447115889,474,0,-1,1
0.13252851363326956,475,0,-1,1
-0.11002390070809936,476,0,-1,1
-0.31060356253144455,477,0,-1,1
-0.030884736250139752,478,0,-1,1
-0.09870241165608595,479,0,-1,1
-0.042382290630605716,480,0,-1,1
-0.06619579397686412,481,0,-1,1
-0.0409054319972141,482,0,-1,1
-0.07196940488397106,483,0,-1,1
0.0021166619104387367,484,0,-1,1
-0.08613704918342158,485,0,-1,1
-0.1851573553204041,486,0,-1,1
-0.3701693944046189,487,0,-1,1
-0.34203375637748024,488,0,-1,1
-0.3209385727001829,489,0,-1,1
-0.05429661654280952,490,0,-1,1
-0.10062108843348473,491,0,-1,1
-0.35554515264956155,492,0,-1,1
-0.18522322441365144,493,0,-1,1
-0.18906797292865218,494,0,-1,1
-0.08245350070598652,495,0,-1,1
-0.025613404605734594,496,0,-1,1
0.1787917519962789,497,0,-1,1
0.03358288446714882,498,0,-1,1
0.11550607640040274,499,0,-1,1
-0.04504515877509871,500,0,-1,1
-0.028300818306623073,501,0,-1,1
0.01249446214062797,502,0,-1,1
0.1313251217321012,503,0,-1,1
-0.15042376530944762,504,0,-1,1
0.10919381191646907,505,0,-1,1
-0.05351611589586462,506,0,-1,1
0.2117800316538659,507,0,-1,1
0.05224971234544228,508,0,-1,1
-0.03868242598241559,509,0,-1,1
-0.07816663860448056,510,0,-1,1
-0.07174394566373261,511,0,-1,1
0.13625442451261224,512,0,-1,1
0.036201077760639765,513,0,-1,1
-0.23943776730410476,514,0,-1,1
-0.19698658952170092,515,0,-1,1
-0.22209182808579717,516,0,-1,1
-0.14376050600307072,517,0,-1,1
-0.10189641652319578,518,0,-1,1
-0.05654367889633473,519,0,-1,1
-0.25880109336748286,520,0,-1,1
-0.08350447049787364,521,0,-1,1
-0.14785941310828143,522,0,-1,1
-0.1820549079715114,523,0,-1,1
0.09806483374542335,524,0,-1,1
-0.04585618993874082,525,0,-1,1
-0.0749137561706461,526,0,-1,1
0.029179490241135985,527,0,-1,1
-0.02189552917408113,528,0,-1,1
-0.01580279678257376,529,0,-1,1
0.023142423621166974,530,0,-1,1
-0.034189625293655,531,0,-1,1
0.12398438592718485,532,0,-1,1
0.028203224848600387,533,0,-1,1
0.1505147538570382,534,0,-1,1
-0.13508710706128468,535,0,-1,1
-0.19101133953565186,536,0,-1,1
0.1019136137512319,537,0,-1,1
-0.11453771647778571,538,0,-1,1
-0.06926091858042151,539,0,-1,1
0.00426493455886152,540,0,-1,1
0.009651480690597446,541,0,-1,1
-0.14917282830233627,542,0,-1,1
-0.1952488219007774,543,0,-1,1
-0.14055241376055042,544,0,-1,1
-0.057694442735478774,545,0,-1,1
0.14296356191874737,546,0,-1,1
-0.05532319821491731,547,0,-1,1
-0.06947081623298433,548,0,-1,1
0.03546230687947403,549,0,-1,1
-0.08107914919818104,550,0,-1,1
-0.19215432333178345,551,0,-1,1
-0.009532784612021351,552,0,-1,1
-0.05156679979874052,553,0,-1,1
-0.1104802878347166,554,0,-1,1
-0.11073457850631138,555,0,-1,1
0.04482981590743379,556,0,-1,1
0.030320339647793883,557,0,-1,1
-0.21076974577994342,558,0,-1,1
0.05280514209197946,559,0,-1,1
-0.034169185737395226,560,0,-1,1
0.032776411813893,561,0,-1,1
-0.11787754339665985,562,0,-1,1
0.013422471181235941,563,0,-1,1
-0.17661207429528597,564,0,-1,1
-0.0712742951845143,565,0,-1,1
-0.003066266149748829,566,0,-1,1
-0.21358469684625364,567,0,-1,1
0.008299721586580855,568,0,-1,1
-0.12844951823219966,569,0,-1,1
0.036688822760781156,570,0,-1,1
-0.03582914840054982,571,0,-1,1
0.01652818449403171,572,0,-1,1
-0.06579411166575468,573,0,-1,1
-0.10101419874603385,574,0,-1,1
-0.11157166313245458,575,0,-1,1
-0.00045606973729670153,576,0,-1,1
0.08811531466960668,577,0,-1,1
0.010170264894089481,578,0,-1,1
0.11538964928838244,579,0,-1,1
-0.11670156841043595,580,0,-1,1
-0.21026855566441657,581,0,-1,1
-0.10437495639158537,582,0,-1,1
-0.3240238536967374,583,0,-1,1
0.03471796901867852,584,0,-1,1
0.028057586353256454,585,0,-1,1
0.019497890075556495,586,0,-1,1
0.10925664713985281,587,0,-1,1
-0.11839498657040994,588,0,-1,1
-0.06259516479480537,589,0,-1,1
0.08632675647952942,590,0,-1,1
0.008512502699340988,591,0,-1,1
-0.12614846303467636,592,0,-1,1
-0.21478704498677434,593,0,-1,1
-0.19796228536251634,594,0,-1,1
0.01802321562001018,595,0,-1,1
-0.0662481912762885,596,0,-1,1
-0.06889175817701641,597,0,-1,1
0.12237856787975739,598,0,-1,1
0.07094755161364945,599,0,-1,1
0.06610457856047876,600,0,-1,1
-0.05424991426400262,601,0,-1,1
-0.0017545442201814042,602,0,-1,1
-0.007104765973708161,603,0,-1,1
-0.00817067319185288,604,0,-1,1
-0.25683008126664536,605,0,-1,1
-0.1432316161045094,606,0,-1,1
-0.009221309030666994,607,0,-1,1
-0.08320809809504784,608,0,-1,1
-0.16668410209478282,609,0,-1,1
-0.09134545044443768,610,0,-1,1
0.007927755513355183,611,0,-1,1
0.07278111736196323,612,0,-1,1
-0.05229777935089085,613,0,-1,1
0.0440033683574491,614,0,-1,1
-0.1915582135468231,615,0,-1,1
0.06935723421364046,616,0,-1,1
0.1360066642726979,617,0,-1,1
0.022961351382595287,618,0,-1,1
0.0438872401000479,619,0,-1,1
0.0776720135778299,620,0,-1,1
-0.16807925237210164,621,0,-1,1
-0.10387124531554832,622,0,-1,1
-0.11766164604339358,623,0,-1,1
0.061821188755533656,624,0,-1,1
-0.25676003702752215,625,0,-1,1
0.09297019410444841,626,0,-1,1
0.1826285297955637,627,0,-1,1
-0.08182616846534035,628,0,-1,1
0.00829190299554632,629,0,-1,1
0.1280380194329167,630,0,-1,1
-0.10059146855713062,631,0,-1,1
-0.04932520925879349,632,0,-1,1
0.11435376774128314,633,0,-1,1
-0.10412251936744855,634,0,-1,1
-0.060408003457656234,635,0,-1,1
-0.05194680718834707,636,0,-1,1
-0.061354997310050854,637,0,-1,1
-0.07261110062873298,638,0,-1,1
0.050136248466568036,639,0,-1,1
0.10017372549212669,640,0,-1,1
0.12853630647284706,641,0,-1,1
-0.012904292794510061,642,0,-1,1
-0.02618107331862509,643,0,-1,1
0.012019836952732716,644,0,-1,1
-0.028090413634856835,645,0,-1,1
0.0366022089381001,646,0,-1,1
0.0728574439766127,647,0,-1,1
0.028267310975935985,648,0,-1,1
-0.1523260851534234,649,0,-1,1
-0.05301048472103864,650,0,-1,1
-0.1546417395216883,651,0,-1,1
-0.072672876904557,652,0,-1,1
0.0714360743762841,653,0,-1,1
0.0836940118509101,654,0,-1,1
0.07964818032466255,655,0,-1,1
-0.0490417546620653,656,0,-1,1
-0.06778762648424322,657,0,-1,1
0.15761842553981417,658,0,-1,1
0.13848418403796456,659,0,-1,1
-0.00576599006607303,660,0,-1,1
0.03591663313567464,661,0,-1,1
-0.025852855610604755,662,0,-1,1
0.13103636542058467,663,0,-1,1
-0.2107380293437233,664,0,-1,1
0.005779931760455724,665,0,-1,1
-0.24400497487326445,666,0,-1,1
-0.03881842222248182,667,0,-1,1
0.04613979981523969,668,0,-1,1
0.06731676475301614,669,0,-1,1
0.016952655981944086,670,0,-1,1
-0.01612268173058503,671,0,-1,1
0.1138788504048247,672,0,-1,1
0.05020699816327385,673,0,-1,1
0.03837808803599115,674,0,-1,1
0.028412764723119228,675,0,-1,1
0.12568588214318174,676,0,-1,1
-0.017807456628790883,677,0,-1,1
0.10590975700077428,678,0,-1,1
0.10114796411352346,679,0,-1,1
0.302355459309776,680,0,-1,1
-0.04919272979898324,681,0,-1,1
0.06292304798036795,682,0,-1,1
0.14655917567066243,683,0,-1,1
0.0009206363968840132,684,0,-1,1
0.04791040418691771,685,0,-1,1
-0.13875244862265246,686,0,-1,1
-0.059668937163139216,687,0,-1,1
-0.11067651942720631,688,0,-1,1
-0.050703393778761534,689,0,-1,1
0.04206180499261174,690,0,-1,1
-0.03611259397607347,691,0,-1,1
-0.07624078545846333,692,0,-1,1
-0.13444239332460875,693,0,-1,1
0.16782313091925757,694,0,-1,1
-0.16672806538057733,695,0,-1,1
-0.17330916651330447,696,0,-1,1
-0.008416124390423408,697,0,-1,1
0.0395169642544072,698,0,-1,1
0.09086342230960355,699,0,-1,1
-0.12689119741634938,700,0,-1,1
-0.18787896864460624,701,0,-1,1
0.02666465791534455,702,0,-1,1
-0.19429578705434064,703,0,-1,1
-0.07851515620771639,704,0,-1,1
0.0966324984595772,705,0,-1,1
0.032245077254603856,706,0,-1,1
-0.024667596561039704,707,0,-1,1
0.07668558867372406,708,0,-1,1
0.1336445794445522,709,0,-1,1
-0.05446418413224991,710,0,-1,1
-0.030863352362987734,711,0,-1,1
0.13145190687966843,712,0,-1,1
-0.015902619211445104,713,0,-1,1
0.044126059763206764,714,0,-1,1
0.05654616815450962,715,0,-1,1
0.10369530086519914,716,0,-1,1
0.09692053499616146,717,0,-1,1
0.11072919811056177,718,0,-1,1
-0.2117919908783627,719,0,-1,1
-0.1582765244520756,720,0,-1,1
0.017489872276146595,721,0,-1,1
0.046397230272820375,722,0,-1,1
0.04464757392731143,723,0,-1,1
0.14672842640764833,724,0,-1,1
-0.020723640174240374,725,0,-1,1
-0.01182187860848737,726,0,-1,1
0.15986442006816298,727,0,-1,1
-0.04504204176498643,728,0,-1,1
-0.061145923164716974,729,0,-1,1
-0.1176066889904445,730,0,-1,1
0.05566338377652343,731,0,-1,1
-0.08775685006069735,732,0,-1,1
-0.24471488650552722,733,0,-1,1
0.042804072561364856,734,0,-1,1
0.026576543484273397,735,0,-1,1
0.2373818756355305,736,0,-1,1
-0.05632724821170775,737,0,-1,1
-0.08404120185705385,738,0,-1,1
0.08472254684501879,739,0,-1,1
0.11587480260383451,740,0,-1,1
-0.002734522443348497,741,0,-1,1
0.11669316143992169,742,0,-1,1
-0.00550154476381106,743,0,-1,1
-0.056886383830140656,744,0,-1,1
-0.08032535482664863,745,0,-1,1
-0.14287319550930325,746,0,-1,1
0.06835849521934328,747,0,-1,1
-0.052449060931116384,748,0,-1,1
-0.04352582325361036,749,0,-1,1
0.11150216563064684,750,0,-1,1
-0.00800017685898759,751,0,-1,1
-0.11576217988529909,752,0,-1,1
-0.05058443876407257,753,0,-1,1
-0.13861535719291654,754,0,-1,1
0.06627938166377251,755,0,-1,1
-0.009952310840774166,756,0,-1,1
0.034917365739057925,757,0,-1,1
-0.07612668667391267,758,0,-1,1
-0.11312875717104458,759,0,-1,1
-0.04046804529163045,760,0,-1,1
0.17676102632785184,761,0,-1,1
-0.05567420582665073,762,0,-1,1
-0.001082669920503235,763,0,-1,1
0.0389347440271257,764,0,-1,1
-0.047936653610960306,765,0,-1,1
-0.042884178431810326,766,0,-1,1
-0.0829582769129036,767,0,-1,1
-0.07612317304851869,768,0,-1,1
0.30519814088666364,769,0,-1,1
-0.068237192828806,770,0,-1,1
0.054548088252815576,771,0,-1,1
-0.10100608653248068,772,0,-1,1
0.2143774331883622,773,0,-1,1
0.24238063685701666,774,0,-1,1
-0.0015027661060637745,775,0,-1,1
-0.0024874116291255335,776,0,-1,1
-0.059520390992945336,777,0,-1,1
-0.061729963961618194,778,0,-1,1
-0.014953189235900033,779,0,-1,1
0.0021935825314120254,780,0,-1,1
0.02738209531884299,781,0,-1,1
0.02938445235950126,782,0,-1,1
-0.11895129055837199,783,0,-1,1
-0.0694447901923259,0,1,-1,1
-0.0323028370396564,1,1,-1,1
-0.21524447760412865,2,1,-1,1
-0.08170637692012035,3,1,-1,1
-0.06758549773315665,4,1,-1,1
-0.047946615136946404,5,1,-1,1
0.1416771968274638,6,1,-1,1
-0.007752515573464924,7,1,-1,1
0.24484841541672894,8,1,-1,1
0.138926698789648,9,1,-1,1
0.05402474891414962,10,1,-1,1
0.06564450933261308,11,1,-1,1
0.003925407637614756,12,1,-1,1
0.026572932534811283,13,1,-1,1
-0.046158947483009326,14,1,-1,1
0.03219246274267435,15,1,-1,1
-0.08796655147192568,16,1,-1,1
-0.21412912668904535,17,1,-1,1
-0.3163352013392865,18,1,-1,1
-0.04504623564405615,19,1,-1,1
-0.052589151571777105,20,1,-1,1
0.2488374814302818,21,1,-1,1
0.03483522525696132,22,1,-1,1
-0.013938263842726234,23,1,-1,1
-0.124414125372195,24,1,-1,1
0.027600358531972503,25,1,-1,1
0.00037274215277241214,26,1,-1,1
-0.10424953215092704,27,1,-1,1
0.15522107475386718,28,1,-1,1
-0.04375846066302764,29,1,-1,1
-0.1849451558397112,30,1,-1,1
0.17294684950092684,31,1,-1,1
0.06386958160852908,32,1,-1,1
-0.12228241049221324,33,1,-1,1
0.0789423086634679,34,1,-1,1
-0.002475599468259055,35,1,-1,1
-0.07968330963807264,36,1,-1,1
0.15033007462685563,37,1,-1,1
0.21478392747377853,38,1,-1,1
0.05421748083454458,39,1,-1,1
-0.1865275512532543,40,1,-1,1
0.13156013240825812,41,1,-1,1
0.023551733983280313,42,1,-1,1
0.06625983874126068,43,1,-1,1
0.008015866456677945,44,1,-1,1
0.11624555730722183,45,1,-1,1
0.05243359649959036,46,1,-1,1
-0.040875571276463914,47,1,-1,1
-0.04379917023701194,48,1,-1,1
0.09194742192202753,49,1,-1,1
0.08060339289427725,50,1,-1,1
-0.03413355709720716,51,1,-1,1
-0.15458792114245226,52,1,-1,1
0.0607268108453168,53,1,-1,1
0.02543323404002013,54,1,-1,1
0.01910397354555918,55,1,-1,1
-0.20599273595910814,56,1,-1,1
0.14538971407628712,57,1,-1,1
-0.06346840773717007,58,1,-1,1
-0.03219373288218932,59,1,-1,1
0.10000936072686178,60,1,-1,1
-0.031064512063365295,61,1,-1,1
-0.14337086122052697,62,1,-1,1
0.045329531018228335,63,1,-1,1
-0.02885553449991099,64,1,-1,1
0.11184677994201708,65,1,-1,1
-0.19359994903881114,66,1,-1,1
0.13094614383699632,67,1,-1,1
0.04480256739901808,68,1,-1,1
0.18589305372082926,69,1,-1,1
0.01886310965706257,70,1,-1,1
0.005282345256652042,71,1,-1,1
-0.15367193087146924,72,1,-1,1
-0.07388090665637218,73,1,-1,1
-0.020325119548960935,74,1,-1,1
-0.12530950341655253,75,1,-1,1
-0.06196097180040274,76,1,-1,1
0.10461684118011978,77,1,-1,1
-0.106613880244552,78,1,-1,1
0.10694933603185734,79,1,-1,1
-0.09229578174385018,80,1,-1,1
-0.043972956940267226,81,1,-1,1
-0.1258980211518181,82,1,-1,1
0.0011180339393640024,83,1,-1,1
0.30264927411026743,84,1,-1,1
-0.04402812568285138,85,1,-1,1
0.10042236216804629,86,1,-1,1
-0.13589474752496636,87,1,-1,1
0.06209992564322035,88,1,-1,1
0.18333296471205437,89,1,-1,1
-0.04803136149101334,90,1,-1,1
-0.04915161835262762,91,1,-1,1
-0.24481797188116883,92,1,-1,1
-0.05118721092137423,93,1,-1,1
-0.10999111474093153,94,1,-1,1
-0.07578265124063965,95,1,-1,1
0.04140153839634254,96,1,-1,1
0.2649254392395021,97,1,-1,1
-0.16482300421022372,98,1,-1,1
0.08415515222920701,99,1,-1,1
-0.18934345550292728,100,1,-1,1
0.09625681782640348,101,1,-1,1
0.021845120461488215,102,1,-1,1
-0.13606698056028158,103,1,-1,1
0.058993603454476344,104,1,-1,1
-0.1107319421516349,105,1,-1,1
-0.2079451124885047,106,1,-1,1
-0.10062128104838149,107,1,-1,1
-0.12794719493312479,108,1,-1,1
0.0558165531102637,109,1,-1,1
0.2279150767497873,110,1,-1,1
-0.07737432369535031,111,1,-1,1
-0.21879120106677416,112,1,-1,1
-0.1268865136621544,113,1,-1,1
-0.10128605744769514,114,1,-1,1
-0.13948671885748784,115,1,-1,1
0.12542510430156137,116,1,-1,1
0.09888376701494614,117,1,-1,1
-0.006774057025875962,118,1,-1,1
0.092343137663635,119,1,-1,1
0.009558767781087213,120,1,-1,1
0.11270676964195711,121,1,-1,1
0.0363381737615557,122,1,-1,1
0.14909677114529518,123,1,-1,1
0.26418238584787096,124,1,-1,1
0.08338089815678638,125,1,-1,1
0.23583299316531214,126,1,-1,1
-0.012595568736489328,127,1,-1,1
-0.11560883560732223,128,1,-1,1
-0.15835453053109524,129,1,-1,1
-0.17230625876857938,130,1,-1,1
-0.1542013933564342,131,1,-1,1
-0.16322549162805217,132,1,-1,1
-0.24602776720896669,133,1,-1,1
-0.260931182685974,134,1,-1,1
0.17070617475611605,135,1,-1,1
-0.16082133574924698,136,1,-1,1
0.09940748120453337,137,1,-1,1
-0.06659573711363713,138,1,-1,1
-0.03158890286751818,139,1,-1,1
0.013080551169017672,140,1,-1,1
-0.029665920376703767,141,1,-1,1
-0.194917401073303,142,1,-1,1
-0.06350384535949512,143,1,-1,1
0.10782316675592453,144,1,-1,1
0.03651560845805061,145,1,-1,1
0.08534026613469832,146,1,-1,1
0.10725302841424753,147,1,-1,1
0.12576703041889695,148,1,-1,1
0.12384474938798634,149,1,-1,1
0.2873770942090082,150,1,-1,1
0.19411707912476903,151,1,-1,1
0.09088994751337624,152,1,-1,1
0.11889607917700887,153,1,-1,1
-0.06719486064258083,154,1,-1,1
-0.010477874808195651,155,1,-1,1
-0.04573694333387115,156,1,-1,1
-0.044188063715265534,157,1,-1,1
-0.1787984220200787,158,1,-1,1
-0.058568991155517405,159,1,-1,1
-0.07531986678228335,160,1,-1,1
-0.16275935325019214,161,1,-1,1
-0.15337749357725727,162,1,-1,1
-0.26158443203069826,163,1,-1,1
-0.01645036155327188,164,1,-1,1
0.047158416817275214,165,1,-1,1
-0.05315224448398564,166,1,-1,1
-0.15940286891270897,167,1,-1,1
-0.10913479466578983,168,1,-1,1
0.10472722555727963,169,1,-1,1
0.07009132384251439,170,1,-1,1
-0.049340770352009296,171,1,-1,1
-0.004307802457991267,172,1,-1,1
0.013908114190913859,173,1,-1,1
0.11085111973970399,174,1,-1,1
0.2823144640813401,175,1,-1,1
0.16210611053101492,176,1,-1,1
0.2485093524381511,177,1,-1,1
0.12466895971529418,178,1,-1,1
0.21580877243183225,179,1,-1,1
0.05143444964282175,180,1,-1,1
0.045564347848605954,181,1,-1,1
0.062163770021829275,182,1,-1,1
0.1375735862357666,183,1,-1,1
-0.10033332375984647,184,1,-1,1
-0.2145401168670981,185,1,-1,1
-0.08945316474326008,186,1,-1,1
-0.15723530627709992,187,1,-1,1
-0.013761147307150556,188,1,-1,1
-0.1429075848585768,189,1,-1,1
-0.04043776164533381,190,1,-1,1
-0.11010992814965564,191,1,-1,1
-0.14768664226280329,192,1,-1,1
-0.108647954957878,193,1,-1,1
0.08237695825846036,194,1,-1,1
-0.009446965754786265,195,1,-1,1
-0.019058913584792805,196,1,-1,1
-0.024973887949228998,197,1,-1,1
0.05628439311603738,198,1,-1,1
0.015140097162890527,199,1,-1,1
-0.024987989389772564,200,1,-1,1
0.05684893223240178,201,1,-1,1
0.2041078597587785,202,1,-1,1
0.05105176593299943,203,1,-1,1
0.0533752022365137,204,1,-1,1
0.18431570682321044,205,1,-1,1
0.13458173868637466,206,1,-1,1
0.12653463406396223,207,1,-1,1
0.1591643076671287,208,1,-1,1
0.18637559209009677,209,1,-1,1
-0.18745972945799957,210,1,-1,1
-0.09933585859848197,211,1,-1,1
-0.03379078806151895,212,1,-1,1
-0.07494768691520926,213,1,-1,1
-0.09136252950956823,214,1,-1,1
-0.03903653560590521,215,1,-1,1
0.0653303003329901,216,1,-1,1
-0.003876746012755791,217,1,-1,1
0.03642967833742131,218,1,-1,1
-0.18681541792729148,219,1,-1,1
-0.22670549515482621,220,1,-1,1
-0.018399642968602182,221,1,-1,1
0.0029027814232420986,222,1,-1,1
0.05486327942829051,223,1,-1,1
0.013175842527466354,224,1,-1,1
-0.1473459155414453,225,1,-1,1
-0.05596292434536574,226,1,-1,1
0.03905090030539565,227,1,-1,1
0.1176902825258006,228,1,-1,1
0.052551022873665004,229,1,-1,1
0.2697738612363429,230,1,-1,1
0.24011931135872627,231,1,-1,1
0.12263638572981198,232,1,-1,1
0.20578774184259277,233,1,-1,1
0.1631869288403809,234,1,-1,1
0.27453675722317517,235,1,-1,1
0.10270841708549393,236,1,-1,1
0.44350133815262094,237,1,-1,1
0.3661609545666651,238,1,-1,1
0.050076507016291946,239,1,-1,1
-0.11197738420084889,240,1,-1,1
-0.14207475192267086,241,1,-1,1
-0.10825141488417958,242,1,-1,1
0.0823333773768361,243,1,-1,1
-0.008595932669597083,244,1,-1,1
0.03356836983114952,245,1,-1,1
0.004826454778704241,246,1,-1,1
0.057725504510550064,247,1,-1,1
-0.0330447264840271,248,1,-1,1
-0.020500553143836236,249,1,-1,1
-0.05289594675240416,250,1,-1,1
0.01851586395433361,251,1,-1,1
-0.05070190175947504,252,1,-1,1
-0.0630449159548001,253,1,-1,1
0.08024904250222259,254,1,-1,1
0.10542488051915458,255,1,-1,1
0.23339753809412947,256,1,-1,1
0.23005048556893404,257,1,-1,1
0.18093773323562098,258,1,-1,1
0.13544976452274932,259,1,-1,1
0.07033959952981816,260,1,-1,1
-0.13083150893670836,261,1,-1,1
0.16480383558331202,262,1,-1,1
0.1642638952035529,263,1,-1,1
0.26069335624623763,264,1,-1,1
0.316957912190235,265,1,-1,1
0.16860112902169191,266,1,-1,1
0.41137710233089786,267,1,-1,1
0.10294459860475492,268,1,-1,1
0.10731205488205707,269,1,-1,1
-0.09607298280591346,270,1,-1,1
0.08693524681144045,271,1,-1,1
0.005670503719847879,272,1,-1,1
0.028991451933378553,273,1,-1,1
0.08660107100090467,274,1,-1,1
-0.040606961430646876,275,1,-1,1
-0.024152680284212313,276,1,-1,1
0.040301893499879185,277,1,-1,1
0.03546243917238432,278,1,-1,1
-0.031027808156886067,279,1,-1,1
-0.025940986400312168,280,1,-1,1
-0.06752091280751348,281,1,-1,1
0.07060523202030931,282,1,-1,1
-0.08237144789992991,283,1,-1,1
0.14981457436606582,284,1,-1,1
0.13073372332266545,285,1,-1,1
0.11743451214168443,286,1,-1,1
0.11719977261334692,287,1,-1,1
0.14914693404417656,288,1,-1,1
-0.0325664361071332,289,1,-1,1
0.07704118669492918,290,1,-1,1
0.1702515740146043,291,1,-1,1
0.3239549948627181,292,1,-1,1
0.31266567742278695,293,1,-1,1
0.3293474124793162,294,1,-1,1
0.2999069840680239,295,1,-1,1
0.34976385192974585,296,1,-1,1
0.3405641208350276,297,1,-1,1
-0.06183709599609373,298,1,-1,1
-0.00596318779740416,299,1,-1,1
-0.03526761539843858,300,1,-1,1
-0.060299612918288656,301,1,-1,1
0.06125390725106008,302,1,-1,1
0.014656304014373803,303,1,-1,1
-0.09843892540009173,304,1,-1,1
-0.050266006779593995,305,1,-1,1
0.034086307821383575,306,1,-1,1
0.0454573756637212,307,1,-1,1
0.05682637413846638,308,1,-1,1
0.09418508819970559,309,1,-1,1
0.1502045260152606,310,1,-1,1
0.0187529361202829,311,1,-1,1
-0.010679232541461572,312,1,-1,1
-0.05704112473398229,313,1,-1,1
0.0037806880393387574,314,1,-1,1
-0.05992470918061542,315,1,-1,1
-0.039594517192165585,316,1,-1,1
0.022727933169943124,317,1,-1,1
-0.06409127632314422,318,1,-1,1
-0.14243875380425441,319,1,-1,1
0.008581904012693545,320,1,-1,1
0.06323463358499079,321,1,-1,1
0.18997043991781046,322,1,-1,1
0.15681945601664143,323,1,-1,1
0.007563077447445069,324,1,-1,1
0.009795348818952746,325,1,-1,1
-0.004530681933421636,326,1,-1,1
-0.17729819764133614,327,1,-1,1
0.06123296298256473,328,1,-1,1
0.11910766689880076,329,1,-1,1
0.051335220275918976,330,1,-1,1
0.2060029514070067,331,1,-1,1
0.04894938510834952,332,1,-1,1
-0.22945536298818803,333,1,-1,1
0.07416370485074114,334,1,-1,1
-0.0687563122684071,335,1,-1,1
0.004998297932070346,336,1,-1,1
-0.09082506379590811,337,1,-1,1
0.029792245731032313,338,1,-1,1
0.016077273126425234,339,1,-1,1
-0.04970419202127441,340,1,-1,1
-0.19536323243999915,341,1,-1,1
-0.27111147806102254,342,1,-1,1
-0.3967831198268096,343,1,-1,1
-0.39587111524951873,344,1,-1,1
-0.37964520966555376,345,1,-1,1
-0.2544191786622682,346,1,-1,1
-0.5394814296074738,347,1,-1,1
-0.2717569936067133,348,1,-1,1
-0.178812675471523,349,1,-1,1
-0.09286624594496266,350,1,-1,1
-0.022793913374042008,351,1,-1,1
-0.18160992126885028,352,1,-1,1
-0.19171235282844573,353,1,-1,1
-0.1079608521726267,354,1,-1,1
-0.2076685564042323,355,1,-1,1
0.07599843725817043,356,1,-1,1
-0.0053746958498614794,357,1,-1,1
0.08546881492129868,358,1,-1,1
-0.10034981327597145,359,1,-1,1
-0.23145052262308394,360,1,-1,1
-0.12332739380556859,361,1,-1,1
-0.016738037153880926,362,1,-1,1
-0.05354872984804531,363,1,-1,1
-0.10997718473280639,364,1,-1,1
-0.2697854432752047,365,1,-1,1
-0.15621932157220988,366,1,-1,1
-0.09616540152038333,367,1,-1,1
-0.0237590982278185,368,1,-1,1
-0.1013874282235816,369,1,-1,1
-0.4049411828704429,370,1,-1,1
-0.4717543651423448,371,1,-1,1
-0.5392777013957999,372,1,-1,1
-0.58002908313238,373,1,-1,1
-0.41055040185631897,374,1,-1,1
-0.33404315019286673,375,1,-1,1
-0.33064293788313226,376,1,-1,1
-0.26989712111735314,377,1,-1,1
-0.4513826099839871,378,1,-1,1
-0.08725481586382934,379,1,-1,1
0.038271632959807025,380,1,-1,1
0.05979973484941455,381,1,-1,1
-0.15023290162296407,382,1,-1,1
-0.24604993142074177,383,1,-1,1
-0.10838133289310939,384,1,-1,1
0.056109887895140806,385,1,-1,1
-0.26970226073797016,386,1,-1,1
-0.10218713981806145,387,1,-1,1
-0.021548566498698442,388,1,-1,1
0.14518458408121238,389,1,-1,1
-0.06507277019232059,390,1,-1,1
0.20296373838532564,391,1,-1,1
0.08137536594551938,392,1,-1,1
0.23874678673951275,393,1,-1,1
-0.09989869931055152,394,1,-1,1
0.0060290645378952455,395,1,-1,1
-0.030184097761422543,396,1,-1,1
-0.2881917685991041,397,1,-1,1
-0.47105664351614546,398,1,-1,1
-0.38011621342153956,399,1,-1,1
-0.5920127074708791,400,1,-1,1
-0.5316981409496772,401,1,-1,1
-0.3692618537014933,402,1,-1,1
-0.30800980221847757,403,1,-1,1
-0.178866823237687,404,1,-1,1
-0.06947590736429748,405,1,-1,1
-0.1342226834708816,406,1,-1,1
-0.09763062554432196,407,1,-1,1
0.003694802500261892,408,1,-1,1
-0.06976695119308755,409,1,-1,1
0.08891350721580142,410,1,-1,1
0.030838193365460505,411,1,-1,1
0.264134820817441,412,1,-1,1
0.019561068873983685,413,1,-1,1
-0.006541597168378415,414,1,-1,1
-0.02571493374889988,415,1,-1,1
-0.15030054670415796,416,1,-1,1
0.12529443823173592,417,1,-1,1
-0.07135282861594508,418,1,-1,1
-0.11984689881176623,419,1,-1,1
0.11348314369993275,420,1,-1,1
-0.17770544953697695,421,1,-1,1
-0.10285721439405966,422,1,-1,1
-0.0724983129131686,423,1,-1,1
0.10162525706720739,424,1,-1,1
-0.23108795907285148,425,1,-1,1
-0.380004939539837,426,1,-1,1
-0.14328431216351178,427,1,-1,1
-0.34493099318811576,428,1,-1,1
-0.017034982543197415,429,1,-1,1
-0.138987845461419,430,1,-1,1
-0.1310009563655818,431,1,-1,1
-0.12852782089389128,432,1,-1,1
0.11057885230751022,433,1,-1,1
-0.03921024081425498,434,1,-1,1
-0.0016100122244435211,435,1,-1,1
-0.05315482214207787,436,1,-1,1
0.0261682215630248,437,1,-1,1
0.12842972349531942,438,1,-1,1
0.22116617943737651,439,1,-1,1
0.24233698669923395,440,1,-1,1
0.19191886174708264,441,1,-1,1
0.23201538906920327,442,1,-1,1
0.04884665797042273,443,1,-1,1
0.04704172903375812,444,1,-1,1
0.0193005455473207,445,1,-1,1
-0.12586025183214494,446,1,-1,1
-0.09021789522651531,447,1,-1,1
-0.02149906127211711,448,1,-1,1
0.04520108903797906,449,1,-1,1
-0.007294853955833932,450,1,-1,1
-0.010138695591300545,451,1,-1,1
-0.02720742185669431,452,1,-1,1
-0.1972159756435526,453,1,-1,1
-0.40868053681355915,454,1,-1,1
-0.2696259584369439,455,1,-1,1
-0.1485719624038387,456,1,-1,1
-0.008596628253399116,457,1,-1,1
0.21579950408065363,458,1,-1,1
0.022557427227351854,459,1,-1,1
0.15409946176399658,460,1,-1,1
-0.012505471545325187,461,1,-1,1
-0.08844947997679463,462,1,-1,1
0.18571793056922528,463,1,-1,1
0.04018202376027996,464,1,-1,1
0.15769391085411139,465,1,-1,1
-0.09578534889820121,466,1,-1,1
-0.002024093579194663,467,1,-1,1
0.03415643660907141,468,1,-1,1
0.18530667034568232,469,1,-1,1
0.043464454238136926,470,1,-1,1
0.101897719212861,471,1,-1,1
-0.07933517242629666,472,1,-1,1
-0.06536316688198879,473,1,-1,1
-0.01652570262484617,474,1,-1,1
0.023113421319194066,475,1,-1,1
0.11828094586234165,476,1,-1,1
0.053564114009966836,477,1,-1,1
-0.05690148370850085,478,1,-1,1
0.13137985465982344,479,1,-1,1
0.20770272697612477,480,1,-1,1
-0.043595910908045724,481,1,-1,1
-0.20701233218445,482,1,-1,1
-0.09349426909933438,483,1,-1,1
-0.20307729194231577,484,1,-1,1
0.057311938149579265,485,1,-1,1
-0.02590982569618966,486,1,-1,1
-0.03968725567251118,487,1,-1,1
0.048423778837777535,488,1,-1,1
0.09874805441992077,489,1,-1,1
0.08776443875081566,490,1,-1,1
0.09827860930555134,491,1,-1,1
-0.1306184575585064,492,1,-1,1
-0.10523099261947823,493,1,-1,1
-0.1270440431936365,494,1,-1,1
-0.09992246726744781,495,1,-1,1
-0.10364938835738849,496,1,-1,1
0.1339292140532277,497,1,-1,1
-0.05145019877446646,498,1,-1,1
-0.051095821710263604,499,1,-1,1
-0.08230347212960357,500,1,-1,1
0.06532361506743939,501,1,-1,1
0.005137582540326248,502,1,-1,1
-0.13712303844481713,503,1,-1,1
0.2427259317922664,504,1,-1,1
-0.302670236496459,505,1,-1,1
-0.028022041932000263,506,1,-1,1
0.15689551149796419,507,1,-1,1
-0.015198517302621228,508,1,-1,1
-0.06715390793749958,509,1,-1,1
-0.2734495909644332,510,1,-1,1
0.0400048004703246,511,1,-1,1
0.07054200518599517,512,1,-1,1
0.13233624032781693,513,1,-1,1
0.02363274439949082,514,1,-1,1
-0.07743131964119163,515,1,-1,1
-0.14956839949659315,516,1,-1,1
-0.06779942141893815,517,1,-1,1
0.039515569131790655,518,1,-1,1
0.04593170034048112,519,1,-1,1
-0.04666246010125129,520,1,-1,1
-0.23704559891132293,521,1,-1,1
-0.1879869291461747,522,1,-1,1
0.0101557776193726,523,1,-1,1
0.13316464838666775,524,1,-1,1
0.09036262032923319,525,1,-1,1
0.1999346388936916,526,1,-1,1
-0.026275259613550987,527,1,-1,1
0.037009189336436744,528,1,-1,1
0.14867990040510173,529,1,-1,1
-0.12925370518308463,530,1,-1,1
-0.24046695953039873,531,1,-1,1
0.03597571828593663,532,1,-1,1
-0.08728002673144479,533,1,-1,1
-0.08306086272861335,534,1,-1,1
0.11278542354801423,535,1,-1,1
0.012265984518812858,536,1,-1,1
-0.0971902871837548,537,1,-1,1
-0.14665007356277393,538,1,-1,1
0.013179372350225791,539,1,-1,1
0.04727636946226777,540,1,-1,1
0.07546601207237891,541,1,-1,1
0.22773189546420214,542,1,-1,1
0.055389429155286427,543,1,-1,1
-0.18829375065909984,544,1,-1,1
0.0937361502750391,545,1,-1,1
-0.11265410385954824,546,1,-1,1
0.03893678434871681,547,1,-1,1
0.0483654550266807,548,1,-1,1
-0.10107052259056513,549,1,-1,1
-0.30796672666102287,550,1,-1,1
-0.1561001490719709,551,1,-1,1
-0.24415296225639838,552,1,-1,1
0.05959928783075441,553,1,-1,1
-0.04827112987381647,554,1,-1,1
-0.038261368297398894,555,1,-1,1
0.10056690604786175,556,1,-1,1
0.17186641247789622,557,1,-1,1
0.012080897966871439,558,1,-1,1
-0.06672362058117003,559,1,-1,1
0.010066087917901563,560,1,-1,1
0.04025313194784564,561,1,-1,1
-0.1892281910682699,562,1,-1,1
-0.15079958628031387,563,1,-1,1
-0.06412479107676708,564,1,-1,1
0.17772220431727848,565,1,-1,1
-0.08245466433848725,566,1,-1,1
0.024178532897524724,567,1,-1,1
0.20625772995278932,568,1,-1,1
0.1707625427626869,569,1,-1,1
-0.1013810269373534,570,1,-1,1
-0.07460211072878849,571,1,-1,1
-0.0935393396270216,572,1,-1,1
-0.25106328097910924,573,1,-1,1
-0.1763113743721187,574,1,-1,1
-0.24815032524187788,575,1,-1,1
-0.28884134433047287,576,1,-1,1
-0.20748614613290958,577,1,-1,1
-0.15217860951384174,578,1,-1,1
-0.11212124648129759,579,1,-1,1
-0.10601951047136972,580,1,-1,1
-0.045438799299138626,581,1,-1,1
-0.02668597974726227,582,1,-1,1
0.09102375210646262,583,1,-1,1
0.0697564383807059,584,1,-1,1
0.030644090438852453,585,1,-1,1
-0.052013229151455585,586,1,-1,1
0.0726257365197369,587,1,-1,1
-0.010979517924014507,588,1,-1,1
0.02930753765362522,589,1,-1,1
0.04522679133939424,590,1,-1,1
-0.12143114359595039,591,1,-1,1
0.1664032122933008,592,1,-1,1
-0.1652114383139721,593,1,-1,1
-0.14227707117400115,594,1,-1,1
0.1386409159776737,595,1,-1,1
-0.10815241731307255,596,1,-1,1
-0.17799532235002682,597,1,-1,1
-0.04859781170494777,598,1,-1,1
0.021826538517016464,599,1,-1,1
-0.15781158017995325,600,1,-1,1
-0.33313612998406616,601,1,-1,1
-0.07041775796600026,602,1,-1,1
-0.06570879331842633,603,1,-1,1
-0.11866106805962394,604,1,-1,1
-0.43917526379912,605,1,-1,1
-0.11944504884284136,606,1,-1,1
-0.0010670423319432132,607,1,-1,1
0.0045804881029076795,608,1,-1,1
-0.11114263197461625,609,1,-1,1
-0.01437776391103345,610,1,-1,1
-0.1599322518191796,611,1,-1,1
-0.11442869720221803,612,1,-1,1
-0.02929134444788774,613,1,-1,1
-0.0822790553003267,614,1,-1,1
-0.17114002534044828,615,1,-1,1
-0.056189038811367546,616,1,-1,1
-0.12108804503782332,617,1,-1,1
-0.062348977487429035,618,1,-1,1
-0.0074650943911878055,619,1,-1,1
-0.09410268605360556,620,1,-1,1
-0.24078904869703555,621,1,-1,1
-0.0846061604162781,622,1,-1,1
0.06353363440813337,623,1,-1,1
0.037282037039767325,624,1,-1,1
-0.10589198217759853,625,1,-1,1
0.064302440791677,626,1,-1,1
0.11963335594171225,627,1,-1,1
-0.16289963693408907,628,1,-1,1
-0.011714284042555348,629,1,-1,1
-0.015332188818014306,630,1,-1,1
0.10929819070062276,631,1,-1,1
0.004699964491639157,632,1,-1,1
0.0024127996725706604,633,1,-1,1
-0.12935860542484418,634,1,-1,1
-0.12218500149586228,635,1,-1,1
-0.1414779873341026,636,1,-1,1
-0.19138444595176868,637,1,-1,1
-0.11548307105817275,638,1,-1,1
0.10740104696449973,639,1,-1,1
-0.06451447280782162,640,1,-1,1
0.033827609517805036,641,1,-1,1
-0.05474420566314845,642,1,-1,1
0.018116606583968724,643,1,-1,1
0.06602927957948783,644,1,-1,1
-0.0380415912869125,645,1,-1,1
-0.008780827793170168,646,1,-1,1
-0.020346629659526945,647,1,-1,1
0.12493301777033292,648,1,-1,1
0.014156924742428181,649,1,-1,1
-0.008432617668893486,650,1,-1,1
0.056076867782362316,651,1,-1,1
-0.15697264989688683,652,1,-1,1
-0.11692502441120743,653,1,-1,1
-0.1010772960399603,654,1,-1,1
-0.0917171642640723,655,1,-1,1
0.1491159707725699,656,1,-1,1
-0.08330392718013112,657,1,-1,1
0.01185255568859787,658,1,-1,1
0.03423577318933361,659,1,-1,1
0.0133959931968236,660,1,-1,1
-0.16060539374407534,661,1,-1,1
-0.06964137359106895,662,1,-1,1
-0.12287411243556354,663,1,-1,1
-0.2054555290131252,664,1,-1,1
0.09914862151982724,665,1,-1,1
-0.0038214262169300847,666,1,-1,1
-0.11038837268487232,667,1,-1,1
-0.026996530710771675,668,1,-1,1
-0.02010788614526571,669,1,-1,1
0.15143153753718827,670,1,-1,1
-0.30983720283708727,671,1,-1,1
0.14267912794677914,672,1,-1,1
0.0011247012187608199,673,1,-1,1
-0.005682211852705507,674,1,-1,1
-0.06872542563476361,675,1,-1,1
0.02584581339728009,676,1,-1,1
0.1563183196849654,677,1,-1,1
-0.09647855529279843,678,1,-1,1
0.11369928448250069,679,1,-1,1
0.0061302833023292045,680,1,-1,1
-0.11864277027383077,681,1,-1,1
0.1360880934236383,682,1,-1,1
0.12353982025508391,683,1,-1,1
0.1926505410796758,684,1,-1,1
0.2555221723071874,685,1,-1,1
0.026645622281060405,686,1,-1,1
0.21885326125496302,687,1,-1,1
0.16077677065188792,688,1,-1,1
-0.10059971536053793,689,1,-1,1
-0.11123971776533129,690,1,-1,1
-0.1458045767170981,691,1,-1,1
-0.09723095844597807,692,1,-1,1
-0.004277795412284989,693,1,-1,1
-0.04444654913558276,694,1,-1,1
-0.05873437533856509,695,1,-1,1
0.13264124113286288,696,1,-1,1
-0.0818376670304116,697,1,-1,1
0.028978197531792666,698,1,-1,1
-0.04062764714609209,699,1,-1,1
-0.03151390200457859,700,1,-1,1
-0.13506542920196582,701,1,-1,1
-0.07932276623606695,702,1,-1,1
-0.04083088049272076,703,1,-1,1
-0.05581162970959702,704,1,-1,1
0.047183429725031985,705,1,-1,1
0.003751314759918633,706,1,-1,1
-0.28551281112207283,707,1,-1,1
0.1309608202199168,708,1,-1,1
-0.029978836904180364,709,1,-1,1
0.12163144409387824,710,1,-1,1
0.12379210201692939,711,1,-1,1
0.09225904835734727,712,1,-1,1
0.10182195398284132,713,1,-1,1
0.11976955374143934,714,1,-1,1
0.19086745668264243,715,1,-1,1
-0.034179070228584796,716,1,-1,1
0.11742071831288717,717,1,-1,1
-0.04867184039234936,718,1,-1,1
-0.18423458202998436,719,1,-1,1
-0.15737774584816577,720,1,-1,1
-0.027852007478024497,721,1,-1,1
-0.029375672537482897,722,1,-1,1
0.10600891119239637,723,1,-1,1
0.05025991934134413,724,1,-1,1
-0.02476396423646739,725,1,-1,1
-0.2523117406642321,726,1,-1,1
-0.052476119183453636,727,1,-1,1
0.04841587633056473,728,1,-1,1
-0.11007017192505732,729,1,-1,1
-0.06522119570468142,730,1,-1,1
0.0639905749635812,731,1,-1,1
-0.005060284968966128,732,1,-1,1
-0.09909845316987598,733,1,-1,1
0.3460270313920924,734,1,-1,1
0.12926752611866532,735,1,-1,1
0.024919221285844936,736,1,-1,1
0.07787529294909407,737,1,-1,1
0.0599366407833839,738,1,-1,1
0.09111144989117297,739,1,-1,1
0.10415150200081434,740,1,-1,1
0.09856306251612082,741,1,-1,1
0.14038177171120617,742,1,-1,1
0.052081732326086795,743,1,-1,1
-0.0014858167390784968,744,1,-1,1
0.046527619105592714,745,1,-1,1
0.2203477325686509,746,1,-1,1
-0.02336796837059514,747,1,-1,1
-0.05308742725710457,748,1,-1,1
-0.039866858224196465,749,1,-1,1
-0.07710221268548524,750,1,-1,1
-0.06840934933369609,751,1,-1,1
-0.13968389750620427,752,1,-1,1
0.008795907770902502,753,1,-1,1
-0.005925628637401414,754,1,-1,1
0.0669090869652786,755,1,-1,1
0.050864515641174564,756,1,-1,1
0.09795090595564916,757,1,-1,1
0.2367252252512914,758,1,-1,1
-0.1341258093596002,759,1,-1,1
-0.07184501365838449,760,1,-1,1
0.04820666229047485,761,1,-1,1
-0.04819462584857931,762,1,-1,1
0.1668326323167295,763,1,-1,1
0.009907053732987194,764,1,-1,1
-0.022725289038540316,765,1,-1,1
-0.039505891768692104,766,1,-1,1
0.06390849882137128,767,1,-1,1
-0.0010090334780482723,768,1,-1,1
0.18621687331978068,769,1,-1,1
-0.015772116307221824,770,1,-1,1
0.06825344533183712,771,1,-1,1
0.1554880795840927,772,1,-1,1
0.030234036888638804,773,1,-1,1
-0.16897784245761463,774,1,-1,1
-0.013381205676420817,775,1,-1,1
-0.12695163650425997,776,1,-1,1
-0.008961108767215202,777,1,-1,1
0.21436400507498835,778,1,-1,1
-0.14365385612568746,779,1,-1,1
-0.01874603291445857,780,1,-1,1
0.05581291621637311,781,1,-1,1
0.09002664838983536,782,1,-1,1
0.009559477920603325,783,1,-1,1
0.038361803283231174,0,2,-1,1
0.01361375385492401,1,2,-1,1
-0.04939369224461962,2,2,-1,1
-0.02395980735047939,3,2,-1,1
-0.09164792430937072,4,2,-1,1
-0.05065621198465217,5,2,-1,1
-0.1192989003293509,6,2,-1,1
-0.09423791386307898,7,2,-1,1
0.04944492784328042,8,2,-1,1
-0.21645723233813002,9,2,-1,1
0.019476546113900175,10,2,-1,1
-0.05786537758267281,11,2,-1,1
0.11281891807768797,12,2,-1,1
0.03188648860482346,13,2,-1,1
-0.03433393051011542,14,2,-1,1
0.08741444268829454,15,2,-1,1
-0.02396013171220077,16,2,-1,1
-0.05263442041579777,17,2,-1,1
0.025559135084344663,18,2,-1,1
-0.03450731680627368,19,2,-1,1
0.17299666252703305,20,2,-1,1
-0.14824272838675084,21,2,-1,1
0.07431440954973953,22,2,-1,1
-0.2009772185828062,23,2,-1,1
-0.044998756341425375,24,2,-1,1
0.0027612546449250646,25,2,-1,1
-0.11115067571921478,26,2,-1,1
0.09381084886423821,27,2,-1,1
0.12438056617558081,28,2,-1,1
-0.0843052743762338,29,2,-1,1
0.20078713328170705,30,2,-1,1
-0.0013258673371870017,31,2,-1,1
-0.07724316893670372,32,2,-1,1
-0.008842683335392565,33,2,-1,1
-0.09913683909053,34,2,-1,1
-0.014109449471929839,35,2,-1,1
0.08260145653266343,36,2,-1,1
0.1347784955828652,37,2,-1,1
0.007873787828474482,38,2,-1,1
0.0002625393017497853,39,2,-1,1
-0.03459289747500821,40,2,-1,1
0.0013874350032039055,41,2,-1,1
-0.14406299101454645,42,2,-1,1
-0.052001309971203544,43,2,-1,1
-0.1940464819290509,44,2,-1,1
0.007900295335694677,45,2,-1,1
0.008012244822893899,46,2,-1,1
0.028546170157207985,47,2,-1,1
0.14532356140646688,48,2,-1,1
0.015961790847011135,49,2,-1,1
0.045731330350578685,50,2,-1,1
0.06704415241170898,51,2,-1,1
0.12948387631027447,52,2,-1,1
-0.044142223742235726,53,2,-1,1
-0.09694432626711455,54,2,-1,1
-0.1544015113132895,55,2,-1,1
0.013579739519557533,56,2,-1,1
-0.0785976723457333,57,2,-1,1
0.0372409882851977,58,2,-1,1
0.10887122163976963,59,2,-1,1
-0.01046805476162261,60,2,-1,1
-0.04869704931045191,61,2,-1,1
-0.14274767710537972,62,2,-1,1
0.07342633625431251,63,2,-1,1
0.12599119661384028,64,2,-1,1
-0.0001298625983672859,65,2,-1,1
0.12134941481243973,66,2,-1,1
-0.07968294712012633,67,2,-1,1
-0.039098996309977804,68,2,-1,1
-0.0003665609779104506,69,2,-1,1
-0.0419638364251387,70,2,-1,1
-0.04561381041992633,71,2,-1,1
0.06020782985460027,72,2,-1,1
0.0317189521686422,73,2,-1,1
-0.039418012355315286,74,2,-1,1
-0.006328639061220939,75,2,-1,1
0.18664673643547017,76,2,-1,1
0.06513272315938923,77,2,-1,1
-0.00036084390282720017,78,2,-1,1
-0.06811128830697362,79,2,-1,1
-0.023416698356606345,80,2,-1,1
-0.017510168709772064,81,2,-1,1
-0.07799680094603086,82,2,-1,1
-0.005664142272083811,83,2,-1,1
0.10216258677980151,84,2,-1,1
-0.04137797308606868,85,2,-1,1
-0.07720058851402964,86,2,-1,1
-0.11804938586624426,87,2,-1,1
0.09145983533461038,88,2,-1,1
0.04629231380301836,89,2,-1,1
-0.07845324245907641,90,2,-1,1
-0.02222017234414853,91,2,-1,1
0.14773032515204984,92,2,-1,1
0.11394661684537392,93,2,-1,1
0.0738415911917877,94,2,-1,1
-0.06012288409365738,95,2,-1,1
-0.005523616888662419,96,2,-1,1
-0.04469870740399575,97,2,-1,1
0.3012072958194653,98,2,-1,1
0.04840882004372237,99,2,-1,1
0.00476063699027576,100,2,-1,1
0.09972072614853109,101,2,-1,1
0.04168562694320879,102,2,-1,1
-0.15321794534762387,103,2,-1,1
0.03777133311429399,104,2,-1,1
0.059769922716835844,105,2,-1,1
-0.08768178062969223,106,2,-1,1
-0.05440888304579106,107,2,-1,1
0.014508592112011241,108,2,-1,1
0.11566932713991668,109,2,-1,1
0.11421884236435202,110,2,-1,1
-0.030963897019469923,111,2,-1,1
0.12132676497982002,112,2,-1,1
0.0017034169881884524,113,2,-1,1
0.13485102212780292,114,2,-1,1
-0.09537670055426803,115,2,-1,1
-0.15229193218598255,116,2,-1,1
-0.020537869126727216,117,2,-1,1
0.00491327213086123,118,2,-1,1
0.028610664890745277,119,2,-1,1
-0.024910820465053808,120,2,-1,1
-0.13261361511255063,121,2,-1,1
-0.04848999058432685,122,2,-1,1
0.1401800037439909,123,2,-1,1
-0.04221221396291219,124,2,-1,1
0.17648223362733154,125,2,-1,1
0.17551911195067887,126,2,-1,1
0.07963825545442489,127,2,-1,1
0.28310612661284884,128,2,-1,1
0.07771720431806031,129,2,-1,1
0.04027191180526516,130,2,-1,1
0.30194173858295725,131,2,-1,1
-0.10877387739058451,132,2,-1,1
-0.06028888293803553,133,2,-1,1
-0.1305517381025521,134,2,-1,1
-0.16328436997303705,135,2,-1,1
-0.19207552815165804,136,2,-1,1
-0.06835427904373731,137,2,-1,1
-0.10776754236665946,138,2,-1,1
-0.010005581307510995,139,2,-1,1
0.09186320692396295,140,2,-1,1
-0.10839128917733883,141,2,-1,1
-0.028668839053625706,142,2,-1,1
-0.08494171445303049,143,2,-1,1
0.11496471896924429,144,2,-1,1
-0.062171895655878766,145,2,-1,1
0.0012955829293289335,146,2,-1,1
0.08584302004082384,147,2,-1,1
-0.011528374693711489,148,2,-1,1
0.04362769417117393,149,2,-1,1
-0.2345900725795994,150,2,-1,1
-0.23995006282146789,151,2,-1,1
-0.0767724755434171,152,2,-1,1
0.01557056373047026,153,2,-1,1
0.1330775985830456,154,2,-1,1
0.16658935062506905,155,2,-1,1
0.15617517952867982,156,2,-1,1
0.029697910056304535,157,2,-1,1
0.03603030514203683,158,2,-1,1
0.007323068517316147,159,2,-1,1
-0.008245861724665302,160,2,-1,1
-0.2222893337566487,161,2,-1,1
0.05545249068677108,162,2,-1,1
-0.19312025715396827,163,2,-1,1
-0.06238606700881897,164,2,-1,1
-0.1011275674537358,165,2,-1,1
-0.1554448049339657,166,2,-1,1
0.023685260974333284,167,2,-1,1
0.06476084820510826,168,2,-1,1
0.1876645851829848,169,2,-1,1
-0.06701751039994144,170,2,-1,1
0.020635400630349115,171,2,-1,1
0.061372919936191976,172,2,-1,1
0.05915893446296227,173,2,-1,1
-0.07044517423874672,174,2,-1,1
-0.013957119132999624,175,2,-1,1
0.0730710867822448,176,2,-1,1
-0.020678241593486635,177,2,-1,1
0.08802984960341895,178,2,-1,1
0.10619202911915782,179,2,-1,1
0.07388907179540653,180,2,-1,1
0.2663481748330398,181,2,-1,1
0.210513444899999,182,2,-1,1
-0.049262659087164026,183,2,-1,1
0.0999927232817894,184,2,-1,1
0.10914992165896338,185,2,-1,1
-0.05787038215065984,186,2,-1,1
0.047191078006344755,187,2,-1,1
-0.13112115853909692,188,2,-1,1
-0.08069035396792885,189,2,-1,1
-0.13774783797889775,190,2,-1,1
-0.195917134054951,191,2,-1,1
-0.12923387968503022,192,2,-1,1
0.11208480910827892,193,2,-1,1
0.08374627349604176,194,2,-1,1
0.07084162497674326,195,2,-1,1
-0.17117445812546328,196,2,-1,1
-0.05562487128362757,197,2,-1,1
-0.0845077068325252,198,2,-1,1
0.21843019161101607,199,2,-1,1
0.1194673437724188,200,2,-1,1
0.014235760676335196,201,2,-1,1
0.18582871786501218,202,2,-1,1
0.15499556650444338,203,2,-1,1
-0.02278528017057738,204,2,-1,1
0.044614947886745374,205,2,-1,1
-0.005902464613819415,206,2,-1,1
0.04013708139435829,207,2,-1,1
0.06673441274250427,208,2,-1,1
0.01798669572408218,209,2,-1,1
-0.17992868531357226,210,2,-1,1
0.002421843510535255,211,2,-1,1
0.16050211065201572,212,2,-1,1
0.20012111753551193,213,2,-1,1
0.07349578856573738,214,2,-1,1
0.04875709557163929,215,2,-1,1
-0.1999457305645039,216,2,-1,1
-0.134064703862605,217,2,-1,1
-0.09268791297193534,218,2,-1,1
-0.27982253736550805,219,2,-1,1
-0.06094936125614411,220,2,-1,1
-0.16481600175782476,221,2,-1,1
0.05404258814896735,222,2,-1,1
-0.01910695945232294,223,2,-1,1
0.053606549880615105,224,2,-1,1
-0.016955242271875812,225,2,-1,1
0.10041546191309832,226,2,-1,1
-0.016572864134140355,227,2,-1,1
0.07663934138884264,228,2,-1,1
0.2233915884704753,229,2,-1,1
0.04557492417278508,230,2,-1,1
0.057289669971184926,231,2,-1,1
0.13005897407716843,232,2,-1,1
0.15879606681179667,233,2,-1,1
0.08182016700804658,234,2,-1,1
-0.32019385526480854,235,2,-1,1
-0.2627157500081378,236,2,-1,1
-0.2915604994831148,237,2,-1,1
-0.2525482050930828,238,2,-1,1
-0.06454030176350414,239,2,-1,1
0.05923595035933577,240,2,-1,1
0.11083316548782765,241,2,-1,1
0.1621248154413289,242,2,-1,1
0.09596806981448501,243,2,-1,1
-0.15606981574789952,244,2,-1,1
-0.1171747154349084,245,2,-1,1
-0.17238717141724255,246,2,-1,1
-0.184005749673268,247,2,-1,1
-0.0833240071842726,248,2,-1,1
0.10722541308167921,249,2,-1,1
0.046253678745045775,250,2,-1,1
0.06163173005010296,251,2,-1,1
0.05256852664264277,252,2,-1,1
-0.002596514296629784,253,2,-1,1
0.12690582029261033,254,2,-1,1
-0.13087606546202607,255,2,-1,1
-0.09226910531488572,256,2,-1,1
0.14137615326499894,257,2,-1,1
0.2849907325758061,258,2,-1,1
0.037124958620748404,259,2,-1,1
0.10684585373718572,260,2,-1,1
-0.14485886584918278,261,2,-1,1
-0.39444569948826314,262,2,-1,1
-0.5906281718737343,263,2,-1,1
-0.5867906940302275,264,2,-1,1
-0.25306976507566104,265,2,-1,1
-0.3276638194845028,266,2,-1,1
0.1809497096558713,267,2,-1,1
0.19029258666499083,268,2,-1,1
0.2636337064319353,269,2,-1,1
0.04270062057499831,270,2,-1,1
-0.02585055880328265,271,2,-1,1
-0.046098732968999884,272,2,-1,1
-0.11179503647723679,273,2,-1,1
-0.2451542647114686,274,2,-1,1
-0.26607870121470195,275,2,-1,1
0.07997620094994852,276,2,-1,1
-0.19033999781987665,277,2,-1,1
0.06098802703958259,278,2,-1,1
-0.09718466125518692,279,2,-1,1
0.004456138064563041,280,2,-1,1
0.08960543132071908,281,2,-1,1
0.15768742655077017,282,2,-1,1
-0.03566113467217231,283,2,-1,1
0.03774872447450344,284,2,-1,1
-0.005962770465892954,285,2,-1,1
-0.12155365380261776,286,2,-1,1
-0.21862790921325542,287,2,-1,1
-0.23349244461997773,288,2,-1,1
-0.4542437255894156,289,2,-1,1
-0.5233634836798459,290,2,-1,1
-0.38345077734164096,291,2,-1,1
-0.31935592507021543,292,2,-1,1
-0.06441463336718732,293,2,-1,1
0.2673249259565498,294,2,-1,1
0.14451734543149966,295,2,-1,1
0.46972851951110867,296,2,-1,1
0.20255849095112058,297,2,-1,1
0.11714911034921431,298,2,-1,1
-0.009335167000718535,299,2,-1,1
-0.021402366948569958,300,2,-1,1
-0.15510464410464883,301,2,-1,1
-0.28358622649571785,302,2,-1,1
-0.2632369806945177,303,2,-1,1
0.11139976695589308,304,2,-1,1
-0.0023975014127101874,305,2,-1,1
-0.16999988762699214,306,2,-1,1
-0.15558776547642764,307,2,-1,1
0.1814302789898055,308,2,-1,1
-0.09151007349870494,309,2,-1,1
0.033429926404826796,310,2,-1,1
0.1122240871386111,311,2,-1,1
0.09822429038153667,312,2,-1,1
-0.2088709123214142,313,2,-1,1
-0.1903588278226064,314,2,-1,1
-0.5699873530501032,315,2,-1,1
-0.3250841826937276,316,2,-1,1
-0.2911845681995001,317,2,-1,1
-0.3042784991354504,318,2,-1,1
-0.3392607415427373,319,2,-1,1
0.09386501718349956,320,2,-1,1
0.08134869993851383,321,2,-1,1
0.2644186595175549,322,2,-1,1
0.3185606756163307,323,2,-1,1
0.41986552536007155,324,2,-1,1
0.19551272270738349,325,2,-1,1
0.15354260465865555,326,2,-1,1
0.027679210040580788,327,2,-1,1
-0.2108211481801176,328,2,-1,1
-0.2320019640995596,329,2,-1,1
-0.30573426248154956,330,2,-1,1
-0.28412596489395564,331,2,-1,1
0.14219124470879563,332,2,-1,1
0.1722279756734794,333,2,-1,1
-0.12828417268598688,334,2,-1,1
-0.023396487426241428,335,2,-1,1
0.06246306155711725,336,2,-1,1
0.14009099818774265,337,2,-1,1
0.013231727687854468,338,2,-1,1
0.006989196128987048,339,2,-1,1
-0.08101098566121569,340,2,-1,1
-0.04671282890767013,341,2,-1,1
-0.14134813901295462,342,2,-1,1
-0.24547997225233475,343,2,-1,1
-0.1291897260445526,344,2,-1,1
-0.22188634817004563,345,2,-1,1
-0.1608186945887198,346,2,-1,1
0.07306617080708042,347,2,-1,1
0.047612962611178006,348,2,-1,1
0.16352697147603276,349,2,-1,1
0.22472950792607682,350,2,-1,1
0.3943401276782298,351,2,-1,1
0.040279213322565115,352,2,-1,1
0.06191863271133431,353,2,-1,1
0.010455467080092358,354,2,-1,1
0.024997760346172453,355,2,-1,1
-0.042764100631460564,356,2,-1,1
-0.14337442146146123,357,2,-1,1
-0.21038780508751112,358,2,-1,1
-0.17893711255307987,359,2,-1,1
0.014167567385781633,360,2,-1,1
-0.010057339266515019,361,2,-1,1
-0.04447261001875529,362,2,-1,1
0.01878904311741091,363,2,-1,1
-0.06888163752402811,364,2,-1,1
0.06237674543610476,365,2,-1,1
-0.009978006065396354,366,2,-1,1
0.09804298622900708,367,2,-1,1
-0.09777800580911551,368,2,-1,1
-0.11624471824560349,369,2,-1,1
-0.14745849189288354,370,2,-1,1
-0.05276696366365545,371,2,-1,1
-0.22483010217890226,372,2,-1,1
-0.0641208835604695,373,2,-1,1
0.10598472219548179,374,2,-1,1
0.028127376520595566,375,2,-1,1
0.24226441133778534,376,2,-1,1
0.25811130862479464,377,2,-1,1
0.34849883497077644,378,2,-1,1
0.2167357437288855,379,2,-1,1
0.32107719284255515,380,2,-1,1
0.012040497037848624,381,2,-1,1
-0.2602892225652758,382,2,-1,1
0.00048460624118934936,383,2,-1,1
-0.0326497092778929,384,2,-1,1
0.08130612200851178,385,2,-1,1
-0.12858375399859945,386,2,-1,1
-0.22202257229059913,387,2,-1,1
0.1186853613106064,388,2,-1,1
-0.030919258810822185,389,2,-1,1
0.03696586141430055,390,2,-1,1
-0.14354732482573235,391,2,-1,1
0.11596551640933196,392,2,-1,1
0.060104517338436955,393,2,-1,1
0.1741543991699796,394,2,-1,1
-0.04259277509507,395,2,-1,1
-0.06523234243185397,396,2,-1,1
-0.1648740092229792,397,2,-1,1
-0.0013459494845195021,398,2,-1,1
-0.0789552315591724,399,2,-1,1
0.037943994575627076,400,2,-1,1
0.16451187230840167,401,2,-1,1
-0.08800205667610966,402,2,-1,1
0.03595234100094581,403,2,-1,1
0.36135506895014924,404,2,-1,1
0.31878410931687545,405,2,-1,1
0.3274430821701675,406,2,-1,1
-0.005104961653396115,407,2,-1,1
0.022141311256408103,408,2,-1,1
-0.11401603255710402,409,2,-1,1
-0.20493305436200046,410,2,-1,1
-0.18582289680586855,411,2,-1,1
-0.05078987631722456,412,2,-1,1
-0.06851851958464755,413,2,-1,1
-0.02140259013257298,414,2,-1,1
-0.06620976499916284,415,2,-1,1
-0.018300856492730687,416,2,-1,1
0.04833948077484802,417,2,-1,1
0.15774882680265645,418,2,-1,1
-0.09468010513949404,419,2,-1,1
-0.05439102665858589,420,2,-1,1
0.14253907559600204,421,2,-1,1
-0.041463841720850166,422,2,-1,1
0.1138968512344586,423,2,-1,1
-0.12354848248022926,424,2,-1,1
-0.16266915736736198,425,2,-1,1
-0.003126395147796788,426,2,-1,1
0.05656282937289699,427,2,-1,1
-0.24896377676644912,428,2,-1,1
-0.11771261222835203,429,2,-1,1
-0.126422638500608,430,2,-1,1
-0.033717100767417796,431,2,-1,1
0.3411010356997516,432,2,-1,1
0.29324838657328406,433,2,-1,1
0.20877853924914197,434,2,-1,1
0.02380703288674636,435,2,-1,1
-0.04439056393235517,436,2,-1,1
-0.32247396943041307,437,2,-1,1
-0.17656374717781326,438,2,-1,1
-0.02832666445639793,439,2,-1,1
0.0900409696496023,440,2,-1,1
0.021844097859450923,441,2,-1,1
0.02688309928833843,442,2,-1,1
0.05794690567182329,443,2,-1,1
0.05085742178162701,444,2,-1,1
-0.1577130635493096,445,2,-1,1
-0.08724525490183797,446,2,-1,1
-0.06452755983967573,447,2,-1,1
0.1101178865476346,448,2,-1,1
0.0376601360518343,449,2,-1,1
-0.0029026462262272553,450,2,-1,1
0.07676629785274758,451,2,-1,1
-0.01380615735101576,452,2,-1,1
-0.06923902307910983,453,2,-1,1
-0.1925912073103956,454,2,-1,1
-0.19467670311111668,455,2,-1,1
-0.20409052551987641,456,2,-1,1
-0.32858756601398303,457,2,-1,1
-0.20261658391638082,458,2,-1,1
-0.22898718362829285,459,2,-1,1
-0.02749326830234322,460,2,-1,1
-0.07306912008114883,461,2,-1,1
-0.2015593661409361,462,2,-1,1
-0.2579783975035812,463,2,-1,1
-0.19423682143656867,464,2,-1,1
-0.3554169425402546,465,2,-1,1
0.019816647646748578,466,2,-1,1
-0.04517450076504715,467,2,-1,1
0.1250674439582834,468,2,-1,1
0.06982995438875367,469,2,-1,1
0.20472422324634687,470,2,-1,1
0.22971465930552057,471,2,-1,1
-0.021367738619211638,472,2,-1,1
-0.08333271583052103,473,2,-1,1
-0.08491353867354719,474,2,-1,1
-0.007390212377754387,475,2,-1,1
-0.040042199212479354,476,2,-1,1
-0.12314424581823159,477,2,-1,1
-0.049618950929784335,478,2,-1,1
0.13979879430371636,479,2,-1,1
0.13815097816943242,480,2,-1,1
0.030165490144023907,481,2,-1,1
-0.2098446753080762,482,2,-1,1
-0.06436611825780052,483,2,-1,1
-0.30654104846576674,484,2,-1,1
-0.29092135255957335,485,2,-1,1
-0.2501506426222227,486,2,-1,1
-0.4414570555525043,487,2,-1,1
-0.2203539675345396,488,2,-1,1
-0.15720062124536077,489,2,-1,1
-0.28875667967365504,490,2,-1,1
-0.19641557792683437,491,2,-1,1
-0.15652605105829936,492,2,-1,1
0.0005599603726740149,493,2,-1,1
0.11878955766559436,494,2,-1,1
0.05845817539150443,495,2,-1,1
-0.005156839940586282,496,2,-1,1
0.11972647980840748,497,2,-1,1
0.251126469052551,498,2,-1,1
0.09806586361942611,499,2,-1,1
-0.0566593459280783,500,2,-1,1
-0.0939494302117002,501,2,-1,1
-0.14656713988578365,502,2,-1,1
0.07259426450537358,503,2,-1,1
0.06898448078093036,504,2,-1,1
0.1258138411749538,505,2,-1,1
-0.06296724439766561,506,2,-1,1
0.2864334914077771,507,2,-1,1
-0.11389048037019814,508,2,-1,1
0.06014553409180068,509,2,-1,1
-0.13298948015633483,510,2,-1,1
-0.07336791278617477,511,2,-1,1
-0.29088502559615026,512,2,-1,1
-0.2639386440007977,513,2,-1,1
-0.39499790222492326,514,2,-1,1
-0.24532103832579635,515,2,-1,1
-0.26377503531697577,516,2,-1,1
-0.11514540118734216,517,2,-1,1
-0.0804372535832606,518,2,-1,1
-0.428513663303401,519,2,-1,1
0.01858426938118981,520,2,-1,1
0.09715055829635866,521,2,-1,1
0.06014798949412056,522,2,-1,1
0.2526640889964265,523,2,-1,1
0.06975023448948578,524,2,-1,1
0.06315654668383942,525,2,-1,1
0.07915589551478801,526,2,-1,1
0.16622171092326854,527,2,-1,1
0.010418653582081895,528,2,-1,1
-0.19326702248389113,529,2,-1,1
-0.004234244627488304,530,2,-1,1
-0.09601611970586721,531,2,-1,1
-0.04410426322973558,532,2,-1,1
-0.0026455715170939143,533,2,-1,1
-0.0799032963264937,534,2,-1,1
0.23044404081446992,535,2,-1,1
0.08107383493277064,536,2,-1,1
0.25968501022374635,537,2,-1,1
-0.05726081985528283,538,2,-1,1
-0.06516838926836678,539,2,-1,1
-0.17934716680386573,540,2,-1,1
-0.2126000708944379,541,2,-1,1
-0.2544383479770142,542,2,-1,1
-0.07120529559340212,543,2,-1,1
0.11778315361482722,544,2,-1,1
-0.0924647356542737,545,2,-1,1
-0.18093125775218308,546,2,-1,1
-0.06762276961765554,547,2,-1,1
-0.06355571357684597,548,2,-1,1
0.14203140899524513,549,2,-1,1
0.13359954868551524,550,2,-1,1
-0.08175084335223323,551,2,-1,1
0.09984751504603778,552,2,-1,1
0.16199109527181454,553,2,-1,1
0.036404325334453064,554,2,-1,1
-0.15418415784242084,555,2,-1,1
-0.09246204130932155,556,2,-1,1
0.13711913510927895,557,2,-1,1
-0.13681633585672562,558,2,-1,1
0.06049174794994255,559,2,-1,1
0.0188931872824329,560,2,-1,1
0.09447701097234372,561,2,-1,1
0.0731354007828602,562,2,-1,1
0.2687834721526526,563,2,-1,1
-0.027591882025012126,564,2,-1,1
0.07678054304737597,565,2,-1,1
0.07227367628271279,566,2,-1,1
0.036161636009229205,567,2,-1,1
0.025591673166848367,568,2,-1,1
0.03618212579051521,569,2,-1,1
0.005356467131119544,570,2,-1,1
0.06751371389438986,571,2,-1,1
-0.017694660098083678,572,2,-1,1
-0.10449708869825063,573,2,-1,1
-0.010976979984789987,574,2,-1,1
-0.033657983479728266,575,2,-1,1
-0.09164041770179591,576,2,-1,1
0.1037733724779256,577,2,-1,1
0.027415424346875692,578,2,-1,1
0.3707604158495379,579,2,-1,1
0.12340228801776174,580,2,-1,1
0.007791852087934537,581,2,-1,1
-0.13296391810265593,582,2,-1,1
-0.07052984516005696,583,2,-1,1
-0.13751214486096064,584,2,-1,1
-0.04884036944450009,585,2,-1,1
-0.07752024333205208,586,2,-1,1
0.1910556908905764,587,2,-1,1
-0.0627786041684658,588,2,-1,1
-0.09073683343672675,589,2,-1,1
-0.002635292746804109,590,2,-1,1
0.12447978061893106,591,2,-1,1
0.14746080191332356,592,2,-1,1
0.17662026651275958,593,2,-1,1
0.034808679858800706,594,2,-1,1
0.03775146073500584,595,2,-1,1
-0.09737076253061532,596,2,-1,1
0.10567455335948119,597,2,-1,1
0.07799553879030569,598,2,-1,1
-0.03683573950579447,599,2,-1,1
-0.05953985643838586,600,2,-1,1
-0.032508995412041504,601,2,-1,1
0.04684048418761348,602,2,-1,1
-0.05365364857006182,603,2,-1,1
-0.04472971122136997,604,2,-1,1
-0.07152938865080169,605,2,-1,1
0.058121415531449165,606,2,-1,1
0.08946677514713185,607,2,-1,1
0.18198766109919898,608,2,-1,1
-0.23589337016043102,609,2,-1,1
0.09427644501202977,610,2,-1,1
-0.19898203643820261,611,2,-1,1
-0.09080132065460784,612,2,-1,1
-0.04395045284790189,613,2,-1,1
-0.03460683356732859,614,2,-1,1
-0.10949313880000122,615,2,-1,1
-0.03225789657472865,616,2,-1,1
-0.07836894528698204,617,2,-1,1
0.012912538966971131,618,2,-1,1
0.09514960398409524,619,2,-1,1
-0.09658619370118525,620,2,-1,1
0.02559199274939834,621,2,-1,1
-0.1060816871184675,622,2,-1,1
0.07124028441761018,623,2,-1,1
0.018641803815722283,624,2,-1,1
-0.11687275359248413,625,2,-1,1
-0.08098990297892066,626,2,-1,1
-0.11268358846625783,627,2,-1,1
0.008287558769199234,628,2,-1,1
-0.04924074611673077,629,2,-1,1
-0.09974513193535414,630,2,-1,1
0.0828659378843608,631,2,-1,1
-0.13544206328017236,632,2,-1,1
-0.10217535284030016,633,2,-1,1
-0.22933841109822434,634,2,-1,1
-0.00570092574353336,635,2,-1,1
0.1545185889980084,636,2,-1,1
-0.061929916659976374,637,2,-1,1
0.06754789258597242,638,2,-1,1
-0.12108635907705098,639,2,-1,1
-0.052332485505774365,640,2,-1,1
-0.02442646770729482,641,2,-1,1
-0.11400647186439661,642,2,-1,1
0.01788899276557496,643,2,-1,1
-0.14264434864676628,644,2,-1,1
-0.04779629550971333,645,2,-1,1
-0.05563993994124004,646,2,-1,1
0.10109506051187431,647,2,-1,1
0.08235028118234598,648,2,-1,1
-0.0010820449769134103,649,2,-1,1
0.06802770017139871,650,2,-1,1
0.16254258293625132,651,2,-1,1
0.06161477138372448,652,2,-1,1
-0.06684601957426221,653,2,-1,1
-0.010848755731064608,654,2,-1,1
-0.028234402344990035,655,2,-1,1
-0.09280071659883556,656,2,-1,1
0.042958465768997395,657,2,-1,1
0.05861591310846037,658,2,-1,1
0.023694905068258148,659,2,-1,1
-0.023535373132987175,660,2,-1,1
-0.11717000216221155,661,2,-1,1
0.08411300214767187,662,2,-1,1
-0.13191836520319725,663,2,-1,1
-0.015166692516064083,664,2,-1,1
-0.06381397577423656,665,2,-1,1
0.1068410882607994,666,2,-1,1
-0.15503459613452206,667,2,-1,1
0.016140117215189084,668,2,-1,1
-0.11417712363548896,669,2,-1,1
0.04754792291399179,670,2,-1,1
0.019215360297489815,671,2,-1,1
-0.132122534449518,672,2,-1,1
0.02467977158442221,673,2,-1,1
-0.15326412754948315,674,2,-1,1
0.09907689710176643,675,2,-1,1
-0.11209446938682541,676,2,-1,1
0.24259388658387923,677,2,-1,1
-0.04218756332454648,678,2,-1,1
0.19214876210931528,679,2,-1,1
0.08004872316871046,680,2,-1,1
0.22376901357136048,681,2,-1,1
0.07397535877490158,682,2,-1,1
0.006756153357416143,683,2,-1,1
-0.10333822652675761,684,2,-1,1
-0.005860545361270355,685,2,-1,1
-0.05131061764591274,686,2,-1,1
-0.2598938186502482,687,2,-1,1
0.022481298730279344,688,2,-1,1
0.04415791189734636,689,2,-1,1
-0.2464962267973424,690,2,-1,1
-0.012551789939724839,691,2,-1,1
-0.10242204807670617,692,2,-1,1
-0.09443384300325922,693,2,-1,1
0.07756244392571986,694,2,-1,1
-0.009428799323406793,695,2,-1,1
-0.13151637371767974,696,2,-1,1
0.05992576312454118,697,2,-1,1
0.20052967560703194,698,2,-1,1
-0.04254488184189206,699,2,-1,1
-0.2720143989738883,700,2,-1,1
-0.13339990546874753,701,2,-1,1
0.08127977551866604,702,2,-1,1
0.128051830762496,703,2,-1,1
0.055427737523851967,704,2,-1,1
-0.017096368866261095,705,2,-1,1
-0.14231816414325724,706,2,-1,1
0.03704742804516626,707,2,-1,1
-0.1076545438851566,708,2,-1,1
0.21861445776641902,709,2,-1,1
0.11605478078085374,710,2,-1,1
-0.02224679537252627,711,2,-1,1
-0.050900845506817935,712,2,-1,1
-0.04405521849354449,713,2,-1,1
-0.2002422848838384,714,2,-1,1
0.018606084336691035,715,2,-1,1
-0.06091266484407024,716,2,-1,1
-0.09199690970199434,717,2,-1,1
-0.1397051440398043,718,2,-1,1
-0.0285969263982824,719,2,-1,1
-0.12126465874392689,720,2,-1,1
-0.12407656889830272,721,2,-1,1
-0.0006450392377293526,722,2,-1,1
-0.03456702285255862,723,2,-1,1
-0.0494205152601139,724,2,-1,1
-0.12542481701188338,725,2,-1,1
0.17315969606263532,726,2,-1,1
0.07460542669167414,727,2,-1,1
0.02133805892851962,728,2,-1,1
0.01229458172810256,729,2,-1,1
-0.07949011211129951,730,2,-1,1
0.0794567997327141,731,2,-1,1
0.13883723633429262,732,2,-1,1
0.01212070830038598,733,2,-1,1
0.2547009524455022,734,2,-1,1
-0.11531746927013423,735,2,-1,1
-0.023829982922650095,736,2,-1,1
0.1096317408947813,737,2,-1,1
-0.06616604427743829,738,2,-1,1
-0.16003310310539845,739,2,-1,1
-0.10054594932334174,740,2,-1,1
-0.15903867127907428,741,2,-1,1
-0.17391065408753817,742,2,-1,1
-0.12268859992989518,743,2,-1,1
-0.1504987381802469,744,2,-1,1
-0.09216471141872891,745,2,-1,1
0.1350246881948384,746,2,-1,1
0.022982325776874608,747,2,-1,1
0.028818626493426213,748,2,-1,1
-0.013691979819034278,749,2,-1,1
-0.04852983459756762,750,2,-1,1
-0.16735696797747251,751,2,-1,1
-0.05109746252367137,752,2,-1,1
0.13389358503206295,753,2,-1,1
-0.02464424781800049,754,2,-1,1
-0.17725922540486028,755,2,-1,1
0.09514217568630148,756,2,-1,1
-0.011948081938760818,757,2,-1,1
-0.13406364722562814,758,2,-1,1
0.18157862040671185,759,2,-1,1
0.006125309638366444,760,2,-1,1
-0.047171485413657226,761,2,-1,1
-0.1663545503103004,762,2,-1,1
0.0797708601476505,763,2,-1,1
-0.029662587690367382,764,2,-1,1
-0.16847031706306623,765,2,-1,1
0.25540234277791685,766,2,-1,1
-0.1588746649764322,767,2,-1,1
0.01507629911590134,768,2,-1,1
-0.037747676934484824,769,2,-1,1
0.03755729059754817,770,2,-1,1
0.02043453054170912,771,2,-1,1
0.059563787739184276,772,2,-1,1
0.013290940844264972,773,2,-1,1
-0.08301108582540245,774,2,-1,1
-0.10734308093110424,775,2,-1,1
0.08832852773452816,776,2,-1,1
-0.07029132234732557,777,2,-1,1
-0.0431231173465,778,2,-1,1
-0.14135858436644738,779,2,-1,1
-0.12268498752242527,780,2,-1,1
-0.2747580608148626,781,2,-1,1
-0.03838963105345394,782,2,-1,1
0.04562864362293509,783,2,-1,1
0.033760975191472434,0,3,-1,1
0.15493412433495327,1,3,-1,1
-0.022783172539582747,2,3,-1,1
0.018061767586633307,3,3,-1,1
-0.10557174485746892,4,3,-1,1
-0.005898411525033209,5,3,-1,1
0.12312464492768624,6,3,-1,1
0.03951147787183164,7,3,-1,1
0.007203427803441435,8,3,-1,1
-0.05490843314629047,9,3,-1,1
0.05164023163138025,10,3,-1,1
0.11756728596174532,11,3,-1,1
-0.06520142424493444,12,3,-1,1
-0.013435469410772357,13,3,-1,1
0.051698816810699905,14,3,-1,1
-0.087645533000453,15,3,-1,1
-0.14365045173650512,16,3,-1,1
0.08127451316143966,17,3,-1,1
0.02934295266728316,18,3,-1,1
0.11715676911221362,19,3,-1,1
0.0029664982129886954,20,3,-1,1
-0.08620633949810713,21,3,-1,1
0.028145804814627338,22,3,-1,1
0.05016330191612638,23,3,-1,1
0.035407752107612725,24,3,-1,1
0.0528582983528529,25,3,-1,1
0.03050086040613561,26,3,-1,1
-0.10144008951030156,27,3,-1,1
-0.15914787853728457,28,3,-1,1
-0.05102569848243271,29,3,-1,1
0.14559365558091386,30,3,-1,1
-0.06053605321469656,31,3,-1,1
0.08214394512854209,32,3,-1,1
0.08334577512924027,33,3,-1,1
0.04723204791083893,34,3,-1,1
-0.016918210924183403,35,3,-1,1
-0.14012004424951835,36,3,-1,1
0.049477030590737964,37,3,-1,1
-0.21565726841255847,38,3,-1,1
-0.11294741464752527,39,3,-1,1
0.06730252752158881,40,3,-1,1
-0.06307806588024747,41,3,-1,1
0.06998505513449485,42,3,-1,1
-0.10322246082061408,43,3,-1,1
0.033247655665741296,44,3,-1,1
0.08857772205425521,45,3,-1,1
0.16741238408617812,46,3,-1,1
-0.10265176201676342,47,3,-1,1
-0.04224359470096251,48,3,-1,1
-0.00801582432536184,49,3,-1,1
0.022364251474584106,50,3,-1,1
0.05901317825073532,51,3,-1,1
-0.11242834254488465,52,3,-1,1
0.08099838298293097,53,3,-1,1
0.011935895538753618,54,3,-1,1
0.05509350699583215,55,3,-1,1
0.12171176302805459,56,3,-1,1
-0.22968668719269916,57,3,-1,1
0.19679519474397564,58,3,-1,1
-0.0928171351102838,59,3,-1,1
0.028143202057777563,60,3,-1,1
0.010317006963614575,61,3,-1,1
-0.05755428459393454,62,3,-1,1
0.1238485440285785,63,3,-1,1
0.10107058857289286,64,3,-1,1
-0.09755141272059568,65,3,-1,1
-0.05535483178751291,66,3,-1,1
-0.07963407826458102,67,3,-1,1
0.049641619754061284,68,3,-1,1
-0.10606225723014873,69,3,-1,1
-0.09222177457632948,70,3,-1,1
0.15197240953845165,71,3,-1,1
0.02035595317447522,72,3,-1,1
0.014200570241631173,73,3,-1,1
0.04678865919178357,74,3,-1,1
0.10311392718252649,75,3,-1,1
0.031514068958710756,76,3,-1,1
-0.08110799914060865,77,3,-1,1
0.11239950659661858,78,3,-1,1
-0.13319087915306957,79,3,-1,1
0.11986638389118566,80,3,-1,1
0.004723796125342407,81,3,-1,1
-0.01092290643878153,82,3,-1,1
-0.09031398268415686,83,3,-1,1
0.10144835467785807,84,3,-1,1
0.13800103893569765,85,3,-1,1
-0.034421987235617,86,3,-1,1
0.07442085430283608,87,3,-1,1
-0.033570478865879216,88,3,-1,1
-0.14916869475477745,89,3,-1,1
-0.03729349597915259,90,3,-1,1
0.09188372291885541,91,3,-1,1
0.036329901088195636,92,3,-1,1
-0.1347335486690749,93,3,-1,1
-0.03492889181908785,94,3,-1,1
-0.09104405952170969,95,3,-1,1
0.010506161474736668,96,3,-1,1
-0.06908051003015038,97,3,-1,1
0.18230830161406092,98,3,-1,1
0.16072342579918467,99,3,-1,1
0.05278988154550177,100,3,-1,1
-0.026179873576879127,101,3,-1,1
0.26200712205081184,102,3,-1,1
0.08294417024184395,103,3,-1,1
0.15992526875283802,104,3,-1,1
0.08639132295417139,105,3,-1,1
-0.07886906218101654,106,3,-1,1
0.003511113191450523,107,3,-1,1
-0.05449517072886866,108,3,-1,1
0.16870280889221875,109,3,-1,1
0.1152705223464168,110,3,-1,1
0.006540865707272248,111,3,-1,1
0.01656040971839765,112,3,-1,1
0.013184331544803826,113,3,-1,1
-0.09110327491059307,114,3,-1,1
-0.054278503767071704,115,3,-1,1
0.1818187210839088,116,3,-1,1
0.06468440571224957,117,3,-1,1
0.02480797758543616,118,3,-1,1
0.0032207045332624897,119,3,-1,1
0.03816078397704431,120,3,-1,1
-0.04556143940860484,121,3,-1,1
-0.051761162584261604,122,3,-1,1
-0.2064917389307172,123,3,-1,1
0.09523481429676459,124,3,-1,1
-0.036963295990793954,125,3,-1,1
-0.01839389021787853,126,3,-1,1
0.018053200322530754,127,3,-1,1
0.004165096478825772,128,3,-1,1
0.17556626509422327,129,3,-1,1
0.008267644101213887,130,3,-1,1
0.1915297391451379,131,3,-1,1
-0.020409348296219577,132,3,-1,1
0.06820077736280424,133,3,-1,1
0.16483287529798712,134,3,-1,1
0.13602509028597512,135,3,-1,1
0.01945028768522124,136,3,-1,1
-0.05264651508573513,137,3,-1,1
0.12237504646949382,138,3,-1,1
0.06353999932153997,139,3,-1,1
0.04154512040874404,140,3,-1,1
0.011515212113260549,141,3,-1,1
0.02809097800866474,142,3,-1,1
0.13256826432102048,143,3,-1,1
-0.0015642047783124974,144,3,-1,1
-0.04929973036118667,145,3,-1,1
-0.09057132802568418,146,3,-1,1
-0.08832219736164762,147,3,-1,1
0.10989216309160123,148,3,-1,1
0.004776829705171499,149,3,-1,1
0.08685406771024314,150,3,-1,1
-0.0573990178685686,151,3,-1,1
-0.09098200958182759,152,3,-1,1
-0.2809453590452841,153,3,-1,1
-0.2478736005174496,154,3,-1,1
0.0194777844860583,155,3,-1,1
0.08641436717963413,156,3,-1,1
-0.03847815410835901,157,3,-1,1
0.022767667732811848,158,3,-1,1
0.047929652606315834,159,3,-1,1
-0.012330492632950538,160,3,-1,1
0.050803769641202756,161,3,-1,1
-0.03783795429603729,162,3,-1,1
0.24351477436864,163,3,-1,1
0.05064988015171837,164,3,-1,1
0.015618728702775227,165,3,-1,1
0.06111407571796543,166,3,-1,1
-0.02391269301876851,167,3,-1,1
0.19702741164284043,168,3,-1,1
0.3036431910652528,169,3,-1,1
0.17706471447671518,170,3,-1,1
-0.008967667610028604,171,3,-1,1
0.08956062115504006,172,3,-1,1
-0.1520132329630207,173,3,-1,1
-0.17721342417931527,174,3,-1,1
-0.14983214716121418,175,3,-1,1
0.10941311119359858,176,3,-1,1
-0.2624883397989746,177,3,-1,1
-0.11956578437100619,178,3,-1,1
-0.1699043198134855,179,3,-1,1
0.05094739934781371,180,3,-1,1
-0.08730867511990363,181,3,-1,1
-0.06975089647802679,182,3,-1,1
-0.21828213687128542,183,3,-1,1
-0.11741577679553836,184,3,-1,1
-0.09401313918276827,185,3,-1,1
0.10105234235169824,186,3,-1,1
0.08210887110824017,187,3,-1,1
0.0743016243080362,188,3,-1,1
0.1942285245211886,189,3,-1,1
0.1809965193162986,190,3,-1,1
0.10545533232924836,191,3,-1,1
0.04317626314136138,192,3,-1,1
0.017254031823870333,193,3,-1,1
0.11506867914408225,194,3,-1,1
-0.24111427319294704,195,3,-1,1
-0.027651052116416792,196,3,-1,1
-0.17789872970508464,197,3,-1,1
0.002907720063429865,198,3,-1,1
-0.07083990530032316,199,3,-1,1
-0.04242796374410786,200,3,-1,1
-0.09295187448008084,201,3,-1,1
-0.3457376862953594,202,3,-1,1
0.12440628736082092,203,3,-1,1
0.06698424941097245,204,3,-1,1
-0.10424004926400329,205,3,-1,1
-0.20983155269845444,206,3,-1,1
-0.1721398177614665,207,3,-1,1
-0.2648826463952116,208,3,-1,1
-0.1902868785619074,209,3,-1,1
-0.1819602519050061,210,3,-1,1
-0.3550923658832157,211,3,-1,1
-0.15590235261058252,212,3,-1,1
-0.14929530587092577,213,3,-1,1
0.11027912100157657,214,3,-1,1
-0.0731019000489833,215,3,-1,1
-0.2172046399580392,216,3,-1,1
-0.09326721782345423,217,3,-1,1
-0.09810100115064256,218,3,-1,1
0.20521746702949126,219,3,-1,1
0.11861726473402937,220,3,-1,1
-0.00792537713068091,221,3,-1,1
-0.10684219502992046,222,3,-1,1
-0.03324111429411063,223,3,-1,1
0.0640467157035185,224,3,-1,1
-0.007619178338548296,225,3,-1,1
0.006064238322563023,226,3,-1,1
-0.1301104419243976,227,3,-1,1
-0.019090118720672195,228,3,-1,1
-0.18619895403479692,229,3,-1,1
0.12311246769665617,230,3,-1,1
-0.154113332071267,231,3,-1,1
0.11234711156162171,232,3,-1,1
-0.05953334879781914,233,3,-1,1
0.026463683681837758,234,3,-1,1
0.04230719184423597,235,3,-1,1
-0.11233256226789042,236,3,-1,1
-0.30776632064258774,237,3,-1,1
-0.41748840019939115,238,3,-1,1
-0.46672266369483845,239,3,-1,1
-0.45111650643230417,240,3,-1,1
-0.2681562525003365,241,3,-1,1
-0.43844309386044644,242,3,-1,1
-0.5134103743864817,243,3,-1,1
-0.2863382534925898,244,3,-1,1
-0.22495455909704531,245,3,-1,1
-0.10738994674810422,246,3,-1,1
0.04993180528686824,247,3,-1,1
-0.04129049588830371,248,3,-1,1
0.07451825959018955,249,3,-1,1
-0.19202162203587997,250,3,-1,1
0.0069682389202841005,251,3,-1,1
-0.06611305818970213,252,3,-1,1
0.048680466388371105,253,3,-1,1
0.06306577370705703,254,3,-1,1
-0.04746801082635295,255,3,-1,1
0.09692541933003818,256,3,-1,1
0.025525837763813366,257,3,-1,1
-0.12713687403192325,258,3,-1,1
-0.05888038345171338,259,3,-1,1
-0.007294292419300048,260,3,-1,1
-0.24682831346473066,261,3,-1,1
0.0026902746396068804,262,3,-1,1
-0.06570176668387238,263,3,-1,1
-0.061496636087416914,264,3,-1,1
-0.21784469890626781,265,3,-1,1
-0.67630397766437,266,3,-1,1
-0.37021363565293564,267,3,-1,1
-0.47433585817604423,268,3,-1,1
-0.4260440144817283,269,3,-1,1
-0.46519663574477105,270,3,-1,1
-0.5444121634938902,271,3,-1,1
-0.2455849783244485,272,3,-1,1
-0.1695050498040845,273,3,-1,1
-0.09713463694655805,274,3,-1,1
-0.18545006384572046,275,3,-1,1
0.01424518462881815,276,3,-1,1
-0.03952864062620626,277,3,-1,1
0.07931092105565164,278,3,-1,1
-0.09943889993991444,279,3,-1,1
-0.22722817172079077,280,3,-1,1
0.07441335029154043,281,3,-1,1
0.018283254693870578,282,3,-1,1
0.13212289700416915,283,3,-1,1
-0.007586646406127173,284,3,-1,1
-0.14053472161586367,285,3,-1,1
-0.08684275256474112,286,3,-1,1
0.016216427045609813,287,3,-1,1
0.11450561331759343,288,3,-1,1
0.06834746093678154,289,3,-1,1
-0.06861140344573717,290,3,-1,1
-0.04573036056809349,291,3,-1,1
-0.011137120935241997,292,3,-1,1
-0.21571655029079878,293,3,-1,1
-0.44209635189788393,294,3,-1,1
-0.32993536282022357,295,3,-1,1
-0.28946153020578147,296,3,-1,1
-0.2697882695625036,297,3,-1,1
-0.3341133856629292,298,3,-1,1
-0.31138736071068296,299,3,-1,1
-0.5600819850131024,300,3,-1,1
-0.2777749760466625,301,3,-1,1
-0.45131611847801106,302,3,-1,1
-0.09437298617516648,303,3,-1,1
0.018992555438165224,304,3,-1,1
-0.009019389389933094,305,3,-1,1
-0.1159792611847494,306,3,-1,1
0.05038090797338736,307,3,-1,1
0.0735517197719115,308,3,-1,1
-0.13987622304494132,309,3,-1,1
-0.2881331121306098,310,3,-1,1
-0.10762400396597255,311,3,-1,1
0.17923247433218703,312,3,-1,1
0.07972715355619345,313,3,-1,1
0.06620083372077615,314,3,-1,1
0.16729687540757537,315,3,-1,1
0.13820740075376822,316,3,-1,1
0.12792628624902344,317,3,-1,1
0.23854780733461092,318,3,-1,1
0.18455481118515982,319,3,-1,1
0.24636345376027016,320,3,-1,1
0.0739584475790944,321,3,-1,1
-0.4308455574130469,322,3,-1,1
-0.1339322875399457,323,3,-1,1
0.07438695491908467,324,3,-1,1
0.14563554602753395,325,3,-1,1
-0.3025556881911188,326,3,-1,1
-0.25208300660120686,327,3,-1,1
-0.285417166473601,328,3,-1,1
-0.2832321449976634,329,3,-1,1
-0.17324339983464812,330,3,-1,1
-0.20557760285456061,331,3,-1,1
0.014472474799104441,332,3,-1,1
-0.30881837311941623,333,3,-1,1
0.004998483030437864,334,3,-1,1
-0.053502426282076965,335,3,-1,1
-0.06274701457288909,336,3,-1,1
0.06763720747733308,337,3,-1,1
-0.1473681902585267,338,3,-1,1
0.07807154467963412,339,3,-1,1
-0.06355845305121137,340,3,-1,1
0.1004207210178419,341,3,-1,1
0.11601649265352648,342,3,-1,1
0.2513551554177051,343,3,-1,1
0.0024345854516850773,344,3,-1,1
0.37656219149370124,345,3,-1,1
0.2286353471435763,346,3,-1,1
0.35917479222720033,347,3,-1,1
0.06033387623285265,348,3,-1,1
-0.1388844179223515,349,3,-1,1
-0.05443529011638303,350,3,-1,1
0.040256034995427105,351,3,-1,1
0.13180897612130715,352,3,-1,1
-0.009316763101708049,353,3,-1,1
0.04815030856338983,354,3,-1,1
0.02876848148511171,355,3,-1,1
-0.33133625576206116,356,3,-1,1
-0.04617752741684627,357,3,-1,1
0.11625249403835627,358,3,-1,1
0.1066644136902712,359,3,-1,1
-0.037834719038384715,360,3,-1,1
0.011302051566896093,361,3,-1,1
-0.1361091034499854,362,3,-1,1
-0.009672438865215809,363,3,-1,1
0.021594729560349028,364,3,-1,1
-0.020073745572716937,365,3,-1,1
0.060492946642661596,366,3,-1,1
-0.02082887931260194,367,3,-1,1
-0.20765408395311796,368,3,-1,1
0.1861693704225909,369,3,-1,1
0.045274336163894306,370,3,-1,1
0.41815619459006886,371,3,-1,1
0.114200234807083,372,3,-1,1
0.18577777277548166,373,3,-1,1
0.3376424417490473,374,3,-1,1
0.24639494733450193,375,3,-1,1
0.1121915330233384,376,3,-1,1
-0.18895414802248942,377,3,-1,1
-0.18103119318927788,378,3,-1,1
0.04881324712287526,379,3,-1,1
0.25906378949549674,380,3,-1,1
0.11475008823841154,381,3,-1,1
0.1900492286434887,382,3,-1,1
0.20452345342508527,383,3,-1,1
-0.07706301768117677,384,3,-1,1
0.17562626940952003,385,3,-1,1
0.029003013952612663,386,3,-1,1
0.32439120675787847,387,3,-1,1
0.11476309948871533,388,3,-1,1
0.05309375221373556,389,3,-1,1
-0.11812850301542237,390,3,-1,1
0.06344337933355777,391,3,-1,1
0.16281821459143908,392,3,-1,1
-0.18866450456379133,393,3,-1,1
0.05900874479668736,394,3,-1,1
0.05782705111986771,395,3,-1,1
0.03095002381811577,396,3,-1,1
-0.01393848245430288,397,3,-1,1
0.15591803736943402,398,3,-1,1
0.2608687875644268,399,3,-1,1
0.2123881169010461,400,3,-1,1
0.1590424137026256,401,3,-1,1
0.18982702594498307,402,3,-1,1
0.16423591687686404,403,3,-1,1
0.16713068339216472,404,3,-1,1
-0.10263789643376062,405,3,-1,1
-0.18512212683270624,406,3,-1,1
-0.16680943792522676,407,3,-1,1
0.09637735724243018,408,3,-1,1
0.06039159799545461,409,3,-1,1
0.18235787017976504,410,3,-1,1
0.06843493452724472,411,3,-1,1
0.3091457803800025,412,3,-1,1
-0.03634679024318674,413,3,-1,1
0.37402533144344297,414,3,-1,1
0.1363648607170035,415,3,-1,1
-0.05983605059300422,416,3,-1,1
-0.0052067161005546776,417,3,-1,1
-0.0837057473882564,418,3,-1,1
-0.13554466480371524,419,3,-1,1
0.03964423861772741,420,3,-1,1
-0.08119475658901859,421,3,-1,1
-0.11611882407959967,422,3,-1,1
-0.012770550401150719,423,3,-1,1
-0.09670774380692017,424,3,-1,1
-0.06517282671985278,425,3,-1,1
0.27925454054976784,426,3,-1,1
0.05678349726425234,427,3,-1,1
-0.012869912174194125,428,3,-1,1
0.12579405421208475,429,3,-1,1
-0.00017901701606428799,430,3,-1,1
0.11343466550113541,431,3,-1,1
0.18316804867992495,432,3,-1,1
-0.5150200207985385,433,3,-1,1
-0.08206440151063356,434,3,-1,1
-0.058484232000647875,435,3,-1,1
-0.14987181733160548,436,3,-1,1
-0.04300615711538042,437,3,-1,1
-0.061274130838909986,438,3,-1,1
0.12354008833688232,439,3,-1,1
0.0280367517913732,440,3,-1,1
0.03546800000689618,441,3,-1,1
-0.013941960421608281,442,3,-1,1
0.10039137403617097,443,3,-1,1
-0.04423363270586948,444,3,-1,1
-0.09624158600738236,445,3,-1,1
0.06735354300180799,446,3,-1,1
-0.0566720861614563,447,3,-1,1
-0.07567658472750446,448,3,-1,1
-0.11752425545654269,449,3,-1,1
0.05810856882284683,450,3,-1,1
0.05729552789938614,451,3,-1,1
-0.17537023075996952,452,3,-1,1
-0.13485158084035437,453,3,-1,1
-0.09078930415802602,454,3,-1,1
0.016009203972874603,455,3,-1,1
0.03787657444242861,456,3,-1,1
0.15075898203349727,457,3,-1,1
0.25829097565466597,458,3,-1,1
0.11168704071966841,459,3,-1,1
-0.08266206212123228,460,3,-1,1
-0.2979399663711972,461,3,-1,1
-0.11116948702869477,462,3,-1,1
-0.018104995655759435,463,3,-1,1
-0.13598078925306775,464,3,-1,1
-0.06887975067576214,465,3,-1,1
-0.16880850720968466,466,3,-1,1
0.0947655089529593,467,3,-1,1
0.04076490719046929,468,3,-1,1
0.06895791836104852,469,3,-1,1
-0.0222139038409895,470,3,-1,1
0.01728128749394282,471,3,-1,1
-0.0043612180819304945,472,3,-1,1
-0.010494244853218072,473,3,-1,1
0.06173041302955825,474,3,-1,1
0.03204028872246788,475,3,-1,1
0.04584824214101896,476,3,-1,1
0.009927168877514434,477,3,-1,1
-0.04056877234651428,478,3,-1,1
-0.06702332981039653,479,3,-1,1
-0.12689951829106763,480,3,-1,1
-0.07584059931963304,481,3,-1,1
-0.09533554008834771,482,3,-1,1
-0.11725101253902948,483,3,-1,1
-0.05369961773113227,484,3,-1,1
0.20547611589903383,485,3,-1,1
-0.0060187461647789615,486,3,-1,1
-0.021139374738018496,487,3,-1,1
0.06452952398805503,488,3,-1,1
-0.1689097807705626,489,3,-1,1
-0.0427167269476678,490,3,-1,1
-0.3287207991468797,491,3,-1,1
-0.0654088356232034,492,3,-1,1
-0.011285248007009373,493,3,-1,1
-0.08308876308764117,494,3,-1,1
-0.06895965013233864,495,3,-1,1
-0.042601984749449255,496,3,-1,1
-0.09854144540380869,497,3,-1,1
-0.024014247926698536,498,3,-1,1
-0.021152412285604858,499,3,-1,1
0.05479172571567938,500,3,-1,1
0.0027578206566113823,501,3,-1,1
0.17576466128432083,502,3,-1,1
0.032336265341214754,503,3,-1,1
-0.15748627895318568,504,3,-1,1
-0.03167083362075321,505,3,-1,1
-0.07132810862732937,506,3,-1,1
0.05578011860226469,507,3,-1,1
-0.1487899624150234,508,3,-1,1
-0.022579843735343393,509,3,-1,1
-0.07555090661740561,510,3,-1,1
0.0033558438731729834,511,3,-1,1
-0.022109193714835107,512,3,-1,1
-0.18295718347530981,513,3,-1,1
-0.045943805047171694,514,3,-1,1
0.00229788323562572,515,3,-1,1
0.05159874245946415,516,3,-1,1
-0.026274040863974828,517,3,-1,1
-0.2696678010240278,518,3,-1,1
-0.23079410364437564,519,3,-1,1
-0.07342978484453569,520,3,-1,1
-0.05587642416889479,521,3,-1,1
0.14308473965186452,522,3,-1,1
0.06856408882308528,523,3,-1,1
0.16024231356770136,524,3,-1,1
-0.02730012563953986,525,3,-1,1
-0.1113983976173283,526,3,-1,1
-0.08391969761140437,527,3,-1,1
0.008026533971674594,528,3,-1,1
0.006885138592746207,529,3,-1,1
0.22542858027597673,530,3,-1,1
0.1621342542698849,531,3,-1,1
0.017546946275570147,532,3,-1,1
0.07000032872581352,533,3,-1,1
0.17328091655785277,534,3,-1,1
-0.06244373620956333,535,3,-1,1
-0.11516443391045705,536,3,-1,1
-0.18240032882962234,537,3,-1,1
-0.0823139580108441,538,3,-1,1
0.013135349441725744,539,3,-1,1
0.11268863342667695,540,3,-1,1
0.025371097284739172,541,3,-1,1
0.11999377268200259,542,3,-1,1
0.06486233780928731,543,3,-1,1
0.07530942913031925,544,3,-1,1
-0.08245972714795871,545,3,-1,1
0.00014121830150665415,546,3,-1,1
-0.0545942702413977,547,3,-1,1
-0.09897451358678327,548,3,-1,1
0.15354173676306967,549,3,-1,1
0.2851335344371866,550,3,-1,1
0.1729507341714524,551,3,-1,1
0.07488556246874281,552,3,-1,1
0.021126796204985723,553,3,-1,1
-0.1126214776286372,554,3,-1,1
0.03199719862026262,555,3,-1,1
-0.11012812079605257,556,3,-1,1
-0.1283376122390827,557,3,-1,1
-0.029383951435937503,558,3,-1,1
0.01675352481565744,559,3,-1,1
-0.039254744587221044,560,3,-1,1
0.07609533692842566,561,3,-1,1
0.025111613629385944,562,3,-1,1
0.13515333670245547,563,3,-1,1
-0.11761281011975804,564,3,-1,1
-0.0843498494267724,565,3,-1,1
-0.2506667929503718,566,3,-1,1
-0.11126384199120895,567,3,-1,1
-0.16369262352649297,568,3,-1,1
0.15792107164091188,569,3,-1,1
-0.19595593592558908,570,3,-1,1
0.060161563407820445,571,3,-1,1
-0.08610301618087413,572,3,-1,1
-0.0004108912667886471,573,3,-1,1
-0.12543602018773428,574,3,-1,1
0.05817168773929111,575,3,-1,1
-0.07261358101288924,576,3,-1,1
0.13212740862227568,577,3,-1,1
0.02141752925343638,578,3,-1,1
0.2284189099918897,579,3,-1,1
-0.14867928907828226,580,3,-1,1
-0.04104186717867944,581,3,-1,1
-0.06711177551388553,582,3,-1,1
0.07359860971501306,583,3,-1,1
0.0018440677305814493,584,3,-1,1
-0.11050329172222821,585,3,-1,1
0.11351480546451957,586,3,-1,1
0.019111638583581034,587,3,-1,1
-0.025641977791447914,588,3,-1,1
0.10731878447371113,589,3,-1,1
-0.05689349236247034,590,3,-1,1
-0.08543579225889687,591,3,-1,1
-0.10828774490392251,592,3,-1,1
-0.028653805118216153,593,3,-1,1
-0.23176226112926865,594,3,-1,1
-0.11101482828235806,595,3,-1,1
-0.07866229234941666,596,3,-1,1
-0.32343413969015816,597,3,-1,1
-0.014535472321919844,598,3,-1,1
0.07692989209186105,599,3,-1,1
0.006872688897631762,600,3,-1,1
0.2629212686061432,601,3,-1,1
0.015782382402259668,602,3,-1,1
0.10313445392570897,603,3,-1,1
0.1177609554534534,604,3,-1,1
0.24684780974609175,605,3,-1,1
0.20079989251145,606,3,-1,1
-0.02612585099253371,607,3,-1,1
-0.06423108959863005,608,3,-1,1
-0.05607843899032223,609,3,-1,1
-0.02602604144553671,610,3,-1,1
-0.100293660417243,611,3,-1,1
-0.010574089966780291,612,3,-1,1
-0.05292739351880614,613,3,-1,1
0.028825235040604535,614,3,-1,1
-0.052953584898099995,615,3,-1,1
0.0531372804226303,616,3,-1,1
0.1515202135261614,617,3,-1,1
0.02431789354300762,618,3,-1,1
-0.14988012079460192,619,3,-1,1
0.024262328035093716,620,3,-1,1
-0.0935142290811403,621,3,-1,1
-0.07689849396083975,622,3,-1,1
-0.14623922383767743,623,3,-1,1
-0.23759639229707982,624,3,-1,1
-0.05003045201206743,625,3,-1,1
-0.12235542008024251,626,3,-1,1
0.1236365873824618,627,3,-1,1
-0.10707081190655526,628,3,-1,1
-0.05319823430556699,629,3,-1,1
0.04906731886124398,630,3,-1,1
-0.07215552345928802,631,3,-1,1
0.1930208678102109,632,3,-1,1
0.03335519810667293,633,3,-1,1
-0.04238591771697403,634,3,-1,1
0.0024298722029795147,635,3,-1,1
0.08758044649059024,636,3,-1,1
0.07998554849069703,637,3,-1,1
-0.0682415077957144,638,3,-1,1
-0.20403664677000855,639,3,-1,1
-0.23539340935069358,640,3,-1,1
-0.11782583145381047,641,3,-1,1
-0.03190885528403198,642,3,-1,1
-0.0003813714276375959,643,3,-1,1
-0.0019611943975110903,644,3,-1,1
-0.1409840917672785,645,3,-1,1
-0.00767811377635544,646,3,-1,1
-0.16875353740866317,647,3,-1,1
-0.07719007478969694,648,3,-1,1
0.11936337736678232,649,3,-1,1
-0.005477067811901775,650,3,-1,1
-0.07077526620736431,651,3,-1,1
0.06186490741355633,652,3,-1,1
-0.11343369818296402,653,3,-1,1
0.0487491419621157,654,3,-1,1
-0.048139717109619826,655,3,-1,1
0.04971578843684263,656,3,-1,1
0.005337734360944298,657,3,-1,1
-0.05376756393055792,658,3,-1,1
0.060675687945588946,659,3,-1,1
-0.24845811319358813,660,3,-1,1
0.07424607567848984,661,3,-1,1
0.09920709046585961,662,3,-1,1
0.1541601611750625,663,3,-1,1
0.09676284281979655,664,3,-1,1
0.11304729359792409,665,3,-1,1
0.23135803884768558,666,3,-1,1
-0.15258687752968372,667,3,-1,1
0.1452920154293207,668,3,-1,1
-0.06497749153774601,669,3,-1,1
0.05907114796109342,670,3,-1,1
0.003544586074360277,671,3,-1,1
-0.23393654053204235,672,3,-1,1
0.04185205463610753,673,3,-1,1
0.046740359279066335,674,3,-1,1
0.014776680995063168,675,3,-1,1
-0.05808228908621414,676,3,-1,1
0.01628662414920066,677,3,-1,1
0.10721345245409153,678,3,-1,1
0.030615445022841612,679,3,-1,1
-0.05735420867936658,680,3,-1,1
0.10110944399278189,681,3,-1,1
0.1791036271435027,682,3,-1,1
0.06000580635382029,683,3,-1,1
0.07948272643033921,684,3,-1,1
0.14115839991066134,685,3,-1,1
-0.12214775466264531,686,3,-1,1
-0.0484203151581117,687,3,-1,1
-0.10820051171077476,688,3,-1,1
0.055200343981773765,689,3,-1,1
0.005241730029933823,690,3,-1,1
0.2615762900821296,691,3,-1,1
0.05629832939683416,692,3,-1,1
-0.14714975173102232,693,3,-1,1
0.004925282683952181,694,3,-1,1
0.033323536808268495,695,3,-1,1
0.08395595061363255,696,3,-1,1
-0.03482458092099884,697,3,-1,1
-0.04695849839814657,698,3,-1,1
0.13994909357200844,699,3,-1,1
0.14199115132577808,700,3,-1,1
0.03518263552954752,701,3,-1,1
0.1714366764619353,702,3,-1,1
0.05768273832651544,703,3,-1,1
0.12203151713964185,704,3,-1,1
0.11479831653383035,705,3,-1,1
0.08605760342093924,706,3,-1,1
0.12549402919017755,707,3,-1,1
0.13452624183222392,708,3,-1,1
0.00364075526957824,709,3,-1,1
-0.11077959066411089,710,3,-1,1
-0.08913331055464023,711,3,-1,1
-0.13173173913668712,712,3,-1,1
-0.01764693398434357,713,3,-1,1
-0.268728213795565,714,3,-1,1
-0.09141919426236134,715,3,-1,1
-0.15863700648188067,716,3,-1,1
-0.025776824064048732,717,3,-1,1
-0.009999454900598797,718,3,-1,1
0.04602357488487277,719,3,-1,1
-0.027764448347080556,720,3,-1,1
-0.10667074425911714,721,3,-1,1
-0.015818798270702154,722,3,-1,1
-0.13530892531017288,723,3,-1,1
-0.04968947333806323,724,3,-1,1
-0.1938755628028722,725,3,-1,1
0.016822686788376753,726,3,-1,1
0.08363372775531241,727,3,-1,1
-0.1402656116577077,728,3,-1,1
