Weight,Input Node,Hidden Node,Output Node,Layer Index
0.09377146373688433,0,0,-1,1
-0.10387893091565734,1,0,-1,1
0.2900416784193668,2,0,-1,1
0.7909793510499659,3,0,-1,1
-0.2004525069952259,4,0,-1,1
-0.16669860364784106,5,0,-1,1
-0.0317843393751539,6,0,-1,1
-0.23343024449968264,7,0,-1,1
-0.18614313027114682,8,0,-1,1
-0.6985868697253635,9,0,-1,1
0.14614873276755952,10,0,-1,1
-1.6471369247741352,11,0,-1,1
-1.9257756732719749,12,0,-1,1
-0.8541065978820594,13,0,-1,1
0.36074581774254993,14,0,-1,1
0.36103792772408755,15,0,-1,1
0.004641582174989055,16,0,-1,1
-0.7934554046372458,17,0,-1,1
0.3294184910655273,18,0,-1,1
0.1569043188408133,19,0,-1,1
-0.5668209107153316,20,0,-1,1
-1.3009530914082577,21,0,-1,1
-0.5137846228521986,22,0,-1,1
1.2856893835065002,23,0,-1,1
0.1301111314927689,24,0,-1,1
0.5606555927596234,25,0,-1,1
-0.4562346362362101,26,0,-1,1
-1.4501464268562683,27,0,-1,1
-2.43421072127659,28,0,-1,1
-0.8220837563177747,29,0,-1,1
-0.14487207393917437,30,0,-1,1
0.3876496921482423,31,0,-1,1
-0.05795130638973939,32,0,-1,1
-0.23897642706513209,33,0,-1,1
2.92599066209154,34,0,-1,1
-0.8573144198244051,35,0,-1,1
1.1118054989379755,36,0,-1,1
2.3984405078771833,37,0,-1,1
-1.5542499540515344,38,0,-1,1
0.6546969453909449,39,0,-1,1
-0.8870067072141071,40,0,-1,1
-0.48994895592531934,41,0,-1,1
-0.31037665574019496,42,0,-1,1
0.8568681998624591,43,0,-1,1
0.8831387915759958,44,0,-1,1
-1.398736874147761,45,0,-1,1
-0.5411484639296299,46,0,-1,1
0.7257002897897196,47,0,-1,1
-0.3872294375832556,48,0,-1,1
-1.0101141033646424,49,0,-1,1
-0.752515277001621,50,0,-1,1
-1.205897589573101,51,0,-1,1
-1.6139658972448905,52,0,-1,1
-0.5433316417221548,53,0,-1,1
1.145138843251167,54,0,-1,1
-0.012712638205075073,55,0,-1,1
-0.17689950278745398,56,0,-1,1
-0.8656499490833978,57,0,-1,1
-0.08564250796294118,58,0,-1,1
0.5092171283728071,59,0,-1,1
-0.23690841191729115,60,0,-1,1
0.3170613208635058,61,0,-1,1
0.020843889880074684,62,0,-1,1
-0.0609881196321678,63,0,-1,1
0.07788677792384784,0,1,-1,1
0.07001298205146829,1,1,-1,1
0.3534945520622631,2,1,-1,1
0.27099492805194186,3,1,-1,1
-0.3005517769934825,4,1,-1,1
0.1544331556307226,5,1,-1,1
0.08339956143711301,6,1,-1,1
-0.04420569065515171,7,1,-1,1
-0.06377429089012582,8,1,-1,1
-0.22253122414475304,9,1,-1,1
0.4318322387617328,10,1,-1,1
0.5453992694093455,11,1,-1,1
1.0424881123024945,12,1,-1,1
0.8426229720772982,13,1,-1,1
-1.129879427141413,14,1,-1,1
-0.16492261944413833,15,1,-1,1
0.3774637399820349,16,1,-1,1
-1.8119091832730385,17,1,-1,1
-0.5987987895015499,18,1,-1,1
-1.3606522272934767,19,1,-1,1
-0.9837077469367339,20,1,-1,1
-0.7535220429840486,21,1,-1,1
-2.54949492064256,22,1,-1,1
-0.7742799202309292,23,1,-1,1
0.21203339008892783,24,1,-1,1
-3.8004545160201055,25,1,-1,1
-4.9113646628817555,26,1,-1,1
-3.587209765472593,27,1,-1,1
-4.59711671371691,28,1,-1,1
-1.8225932425052274,29,1,-1,1
-1.1944686613912223,30,1,-1,1
-0.15680843213261222,31,1,-1,1
-0.264660307289432,32,1,-1,1
-0.1962637026870374,33,1,-1,1
1.3690466992239927,34,1,-1,1
2.9103071989269744,35,1,-1,1
-0.8124752124462061,36,1,-1,1
-0.8670039270028872,37,1,-1,1
-0.37972251328852885,38,1,-1,1
1.3692488189007115,39,1,-1,1
-0.2883510974659608,40,1,-1,1
1.8502861255067558,41,1,-1,1
2.2452521712968996,42,1,-1,1
1.2604420386183803,43,1,-1,1
-0.367302532026567,44,1,-1,1
0.36811696042281766,45,1,-1,1
1.8613348843301731,46,1,-1,1
1.5172923822233468,47,1,-1,1
-0.07301340607305858,48,1,-1,1
0.04963626909356815,49,1,-1,1
0.7501983318420015,50,1,-1,1
-0.13778165457015867,51,1,-1,1
-1.5314806510581012,52,1,-1,1
0.18432748979926503,53,1,-1,1
1.5223848762402767,54,1,-1,1
0.24268678557568335,55,1,-1,1
0.028274398827800383,56,1,-1,1
-0.012312924678726973,57,1,-1,1
-1.078222777535455,58,1,-1,1
-2.1987914230857264,59,1,-1,1
-2.035257737400457,60,1,-1,1
-1.3235950497389914,61,1,-1,1
-0.3370507220456012,62,1,-1,1
0.042299358204722054,63,1,-1,1
-0.11139926999752105,0,2,-1,1
0.110331005662488,1,2,-1,1
-0.058497950705377895,2,2,-1,1
-0.6178227128602113,3,2,-1,1
-1.094563135202525,4,2,-1,1
-1.2968382088395807,5,2,-1,1
-0.17381282282184707,6,2,-1,1
0.13906048652863262,7,2,-1,1
0.04787880232603909,8,2,-1,1
-0.8778187363579166,9,2,-1,1
-0.6800108354826095,10,2,-1,1
-1.0850403128986599,11,2,-1,1
-0.5247346234924554,12,2,-1,1
1.2499333690884822,13,2,-1,1
2.096484662243298,14,2,-1,1
0.19153450031686534,15,2,-1,1
0.20368731378620591,16,2,-1,1
-2.4793532742774858,17,2,-1,1
1.1802536850062266,18,2,-1,1
1.0456943259595477,19,2,-1,1
0.023673361731094224,20,2,-1,1
-0.2874829214062524,21,2,-1,1
0.819730659837144,22,2,-1,1
1.2106250270026926,23,2,-1,1
-0.1734748304762046,24,2,-1,1
0.3413293717290594,25,2,-1,1
-0.5663867318232586,26,2,-1,1
-0.03478495822777492,27,2,-1,1
-0.036480940905936184,28,2,-1,1
-2.877583412339103,29,2,-1,1
1.142451670931858,30,2,-1,1
0.25832180041808006,31,2,-1,1
-0.13689159220389857,32,2,-1,1
-0.11009969432827522,33,2,-1,1
-0.9117977517527351,34,2,-1,1
1.0961924367924227,35,2,-1,1
-1.2358599483418164,36,2,-1,1
-2.5025554992659127,37,2,-1,1
-0.7440884602567464,38,2,-1,1
-0.12790851204110776,39,2,-1,1
-0.8144258269133912,40,2,-1,1
-0.2312524581691015,41,2,-1,1
2.108298440608728,42,2,-1,1
1.0588383412900184,43,2,-1,1
-3.6338164594405273,44,2,-1,1
-1.1886585764687723,45,2,-1,1
-0.1872889149178105,46,2,-1,1
-0.06927443347107629,47,2,-1,1
-0.33290353776762577,48,2,-1,1
0.05167335916803025,49,2,-1,1
1.417003165474744,50,2,-1,1
1.6597077010428607,51,2,-1,1
-0.2559635715098328,52,2,-1,1
0.02849668543677522,53,2,-1,1
0.899691285825937,54,2,-1,1
0.014248105029107287,55,2,-1,1
-0.03627082124746747,56,2,-1,1
-0.44734232323328016,57,2,-1,1
-0.19602833373760317,58,2,-1,1
0.5006270640471344,59,2,-1,1
-0.626009552073987,60,2,-1,1
-0.050820777494857354,61,2,-1,1
-0.16720720059285707,62,2,-1,1
0.122737708091016,63,2,-1,1
0.0818087230211972,0,3,-1,1
-0.010433904037218387,1,3,-1,1
-0.12579491086716849,2,3,-1,1
1.195553896974147,3,3,-1,1
2.0019715680802697,4,3,-1,1
2.337068741170848,5,3,-1,1
1.4386667162710407,6,3,-1,1
-0.19739074926842898,7,3,-1,1
0.12653798810089248,8,3,-1,1
-0.1803080346941273,9,3,-1,1
0.44093073684666817,10,3,-1,1
0.5151441882446675,11,3,-1,1
-0.04279898751730869,12,3,-1,1
0.647669799892646,13,3,-1,1
-0.27856109697908643,14,3,-1,1
-0.31775849589431954,15,3,-1,1
-0.10507814250459585,16,3,-1,1
0.48515002142085806,17,3,-1,1
1.2973738237101557,18,3,-1,1
0.4632164567010704,19,3,-1,1
2.30165319426579,20,3,-1,1
-2.3168948275769616,21,3,-1,1
-0.9842293206375963,22,3,-1,1
-0.17541947644627515,23,3,-1,1
-0.25192023280927067,24,3,-1,1
1.8339131374872508,25,3,-1,1
2.7624213464663945,26,3,-1,1
0.7577289629281261,27,3,-1,1
0.422045769705832,28,3,-1,1
0.5528945667595251,29,3,-1,1
1.5826531850248942,30,3,-1,1
0.09231259269261513,31,3,-1,1
-0.3446204332424966,32,3,-1,1
-0.9693653958538656,33,3,-1,1
-2.6139533927551986,34,3,-1,1
-2.640182658588083,35,3,-1,1
-1.4198259806783737,36,3,-1,1
0.16710941431811124,37,3,-1,1
-0.622161928577535,38,3,-1,1
-0.3655191876124066,39,3,-1,1
0.36598814528929235,40,3,-1,1
-2.0401518798543075,41,3,-1,1
-2.1814755047193053,42,3,-1,1
3.6165374281990914,43,3,-1,1
-0.7158023942804959,44,3,-1,1
1.027724074673195,45,3,-1,1
-1.2809676846886267,46,3,-1,1
-0.7198239875942799,47,3,-1,1
-0.08318092841331974,48,3,-1,1
0.32537976297739996,49,3,-1,1
0.3902625003593398,50,3,-1,1
2.476147444293114,51,3,-1,1
2.1136328637531943,52,3,-1,1
0.03180303916815128,53,3,-1,1
-1.1702749393832312,54,3,-1,1
-0.10060118636903717,55,3,-1,1
-0.13331220554743592,56,3,-1,1
0.44266143711179545,57,3,-1,1
1.6051941883592489,58,3,-1,1
1.751195291253733,59,3,-1,1
0.9740688658661527,60,3,-1,1
0.9957489074015747,61,3,-1,1
0.1172590770984907,62,3,-1,1
0.044460981904784265,63,3,-1,1
0.14273857869942497,0,4,-1,1
0.05026657634140392,1,4,-1,1
-0.4685742871197941,2,4,-1,1
0.2521905980036368,3,4,-1,1
0.45978129704161025,4,4,-1,1
-0.06820073455491767,5,4,-1,1
-0.011430042830039172,6,4,-1,1
-0.04012155495973401,7,4,-1,1
-0.010660696376112146,8,4,-1,1
0.7479816945604467,9,4,-1,1
1.4256299630504143,10,4,-1,1
1.7325869892262051,11,4,-1,1
-0.7984951598267563,12,4,-1,1
-1.5793379932563505,13,4,-1,1
-0.09538665708218412,14,4,-1,1
-0.1368005382336558,15,4,-1,1
0.6354166051733914,16,4,-1,1
0.669507221294993,17,4,-1,1
-0.7398731471380119,18,4,-1,1
-0.759626730658228,19,4,-1,1
2.488989288038783,20,4,-1,1
2.6178924918357462,21,4,-1,1
-0.3552337261478155,22,4,-1,1
-2.0657884498564134,23,4,-1,1
0.6510232438533722,24,4,-1,1
-0.25669118371662597,25,4,-1,1
-1.0178749537367109,26,4,-1,1
-1.248139954667208,27,4,-1,1
5.863704820247294,28,4,-1,1
1.8482665417012258,29,4,-1,1
0.19423807961136286,30,4,-1,1
-1.5846894832733174,31,4,-1,1
0.3224134157514416,32,4,-1,1
0.6418030037229466,33,4,-1,1
-3.8608602471421727,34,4,-1,1
-1.2369548282535965,35,4,-1,1
1.9973973961064382,36,4,-1,1
-1.0491936409978047,37,4,-1,1
-0.5484167945975713,38,4,-1,1
-0.8838129594087847,39,4,-1,1
0.446777937150024,40,4,-1,1
-0.159550353618932,41,4,-1,1
-4.8120883029397055,42,4,-1,1
-2.6755402943416176,43,4,-1,1
-2.521137620670823,44,4,-1,1
-1.503224458687643,45,4,-1,1
-1.8001173722294337,46,4,-1,1
-1.2980747486331643,47,4,-1,1
0.00018682214880175207,48,4,-1,1
2.4651125973102057,49,4,-1,1
-0.19790217440200217,50,4,-1,1
-1.7364868989452766,51,4,-1,1
1.0216310253055192,52,4,-1,1
0.41001339007473175,53,4,-1,1
-1.8148904830199595,54,4,-1,1
0.22116831413541485,55,4,-1,1
-0.11399812815460317,56,4,-1,1
0.5328012511736785,57,4,-1,1
1.8467804414120819,58,4,-1,1
1.610194967014899,59,4,-1,1
0.22373629031986209,60,4,-1,1
0.991190903031453,61,4,-1,1
0.41287157732151764,62,4,-1,1
-0.059277100977856996,63,4,-1,1
-0.08216417827926834,0,5,-1,1
0.0979447053760948,1,5,-1,1
-0.21429460608079817,2,5,-1,1
0.054781089271253657,3,5,-1,1
1.101650497629242,4,5,-1,1
0.7917355097652042,5,5,-1,1
0.41074168311762077,6,5,-1,1
-0.03988389525211082,7,5,-1,1
0.04883766299664528,8,5,-1,1
0.01746274638722605,9,5,-1,1
0.09693657080740072,10,5,-1,1
-0.7328287764600087,11,5,-1,1
-1.3037763761331316,12,5,-1,1
-0.6106485176259535,13,5,-1,1
0.36370911385368954,14,5,-1,1
0.9906645413062924,15,5,-1,1
-0.006371615414856841,16,5,-1,1
0.632507777107266,17,5,-1,1
1.2670132359981254,18,5,-1,1
1.4270886192009122,19,5,-1,1
-1.4469694363423873,20,5,-1,1
-1.3003920465559926,21,5,-1,1
0.5335985031644087,22,5,-1,1
0.39823572790825545,23,5,-1,1
-0.09396562070207429,24,5,-1,1
1.1726699622623187,25,5,-1,1
1.4648144378533676,26,5,-1,1
2.1231727865374017,27,5,-1,1
4.906146304947534,28,5,-1,1
0.772260578906794,29,5,-1,1
-0.22775235475761102,30,5,-1,1
-0.6689539355778223,31,5,-1,1
0.3791496653679907,32,5,-1,1
-0.38969468844722477,33,5,-1,1
0.6163919611383755,34,5,-1,1
1.3637415829481492,35,5,-1,1
2.950681458058531,36,5,-1,1
2.998423896739263,37,5,-1,1
2.1601881784322137,38,5,-1,1
-0.586754016166276,39,5,-1,1
0.3558729184341543,40,5,-1,1
0.49552530307424936,41,5,-1,1
-0.6673305938636573,42,5,-1,1
-0.8653780836228686,43,5,-1,1
0.08693477175058982,44,5,-1,1
-0.794832004225701,45,5,-1,1
-0.3365559749244325,46,5,-1,1
-0.5803667596408223,47,5,-1,1
-0.34709967811895803,48,5,-1,1
0.8229250699654092,49,5,-1,1
-1.2132415906717988,50,5,-1,1
-2.5540699245756047,51,5,-1,1
-1.6915350535215679,52,5,-1,1
-2.634555589844321,53,5,-1,1
-2.3069827967115626,54,5,-1,1
-0.05506562172388227,55,5,-1,1
0.19329618277278762,56,5,-1,1
0.5862954655023204,57,5,-1,1
2.0578845103070966,58,5,-1,1
2.3478156348912873,59,5,-1,1
0.6539647561123515,60,5,-1,1
0.5497183069388878,61,5,-1,1
0.32285211399065245,62,5,-1,1
0.10768466017073562,63,5,-1,1
-0.1410029021933657,0,6,-1,1
-0.20788112909895345,1,6,-1,1
-0.2590328733888706,2,6,-1,1
-0.2890186049549097,3,6,-1,1
-0.030365198435160314,4,6,-1,1
-0.42606488959064237,5,6,-1,1
-0.22217734837187525,6,6,-1,1
-0.12219667271668119,7,6,-1,1
0.05816067909039173,8,6,-1,1
-0.08062002790453345,9,6,-1,1
0.7963724741534423,10,6,-1,1
1.974140347986366,11,6,-1,1
1.128117212179853,12,6,-1,1
0.401467909249988,13,6,-1,1
-0.4943534844724993,14,6,-1,1
0.026043291621400646,15,6,-1,1
0.11588297181832471,16,6,-1,1
0.48311189427916995,17,6,-1,1
0.3945090455427099,18,6,-1,1
-1.1427105627816492,19,6,-1,1
-1.3204498077972942,20,6,-1,1
-0.959284620535178,21,6,-1,1
-0.021377944643714824,22,6,-1,1
-0.22062218175910756,23,6,-1,1
0.5554232540176712,24,6,-1,1
0.5341397161196648,25,6,-1,1
-1.2823013747109921,26,6,-1,1
0.12268233731486058,27,6,-1,1
0.4799202013348226,28,6,-1,1
-1.0693572299093006,29,6,-1,1
0.5034099936273413,30,6,-1,1
0.34294416766932945,31,6,-1,1
0.22987198075790166,32,6,-1,1
-0.34829587627076736,33,6,-1,1
-1.3091996456653239,34,6,-1,1
-0.1673428305813042,35,6,-1,1
-0.30596207652481144,36,6,-1,1
1.2075287548927696,37,6,-1,1
1.3937933516807544,38,6,-1,1
-0.2856574332537465,39,6,-1,1
0.1145007861551746,40,6,-1,1
-0.07387001956341104,41,6,-1,1
1.2504618365850717,42,6,-1,1
1.686617106145418,43,6,-1,1
0.6034081375859283,44,6,-1,1
0.9960252077713437,45,6,-1,1
0.11191223110269473,46,6,-1,1
0.012759760555568146,47,6,-1,1
0.1487132084947711,48,6,-1,1
0.3407695753551741,49,6,-1,1
-0.3680674358490449,50,6,-1,1
-0.9941288750703063,51,6,-1,1
-0.8747921657324955,52,6,-1,1
-0.9431119668748759,53,6,-1,1
-0.44449661026294895,54,6,-1,1
0.15962895466524502,55,6,-1,1
-0.02688016172507911,56,6,-1,1
0.17328339549566793,57,6,-1,1
-0.1404742407429632,58,6,-1,1
-0.9784040562653026,59,6,-1,1
0.13047069102529832,60,6,-1,1
0.19028180500694475,61,6,-1,1
-0.16942849756782824,62,6,-1,1
-0.11384017631589027,63,6,-1,1
-0.00645821950756954,0,7,-1,1
0.09916801791076794,1,7,-1,1
0.10959785527947201,2,7,-1,1
-0.46761181786412676,3,7,-1,1
1.388077120719269,4,7,-1,1
1.6605168176946707,5,7,-1,1
0.19969489260183584,6,7,-1,1
0.12437229771574751,7,7,-1,1
-0.13994486820727847,8,7,-1,1
0.5512798531256212,9,7,-1,1
1.2570343486968385,10,7,-1,1
-0.45668991123658037,11,7,-1,1
-2.951662661377958,12,7,-1,1
-1.418535981398421,13,7,-1,1
0.8671118658409501,14,7,-1,1
0.5941817438821618,15,7,-1,1
0.11634346470690529,16,7,-1,1
-0.14875384697789373,17,7,-1,1
-2.9888961316809843,18,7,-1,1
-2.6787706894359085,19,7,-1,1
-3.9610151005914904,20,7,-1,1
-3.0530713754729604,21,7,-1,1
-1.2246339845283951,22,7,-1,1
0.39215778063177054,23,7,-1,1
-0.13916107050219803,24,7,-1,1
-1.5524261784293532,25,7,-1,1
0.2240673805158397,26,7,-1,1
2.952494726644012,27,7,-1,1
-0.6525375040137104,28,7,-1,1
-0.7399345850658737,29,7,-1,1
-1.254824471360636,30,7,-1,1
-0.18833383035556986,31,7,-1,1
0.04999881146935505,32,7,-1,1
2.218905318491341,33,7,-1,1
3.6658630876216303,34,7,-1,1
2.369589165435472,35,7,-1,1
1.1325259298534986,36,7,-1,1
0.544913883568469,37,7,-1,1
3.3866911862970555,38,7,-1,1
0.009252760406232585,39,7,-1,1
0.6543709008767858,40,7,-1,1
-1.1781751387376205,41,7,-1,1
-1.2349777105814914,42,7,-1,1
-0.1743742073325352,43,7,-1,1
0.8133631587456914,44,7,-1,1
0.8162916783388611,45,7,-1,1
-0.36592809828025974,46,7,-1,1
-0.2309123714924316,47,7,-1,1
0.6858066947185638,48,7,-1,1
-0.9460490366696033,49,7,-1,1
-1.0800422530217872,50,7,-1,1
-0.47170631566327964,51,7,-1,1
-0.30612107539534317,52,7,-1,1
-0.6044699817592014,53,7,-1,1
-1.3450340439411335,54,7,-1,1
0.36554544705543685,55,7,-1,1
-0.047646609529912155,56,7,-1,1
0.06696601113247219,57,7,-1,1
-1.3920249415172776,58,7,-1,1
-1.593274040308311,59,7,-1,1
-2.2761976521027587,60,7,-1,1
-1.1714636615345018,61,7,-1,1
-0.030833711182363797,62,7,-1,1
0.00878658811928344,63,7,-1,1
-0.07009544760079803,0,8,-1,1
0.12960359910776298,1,8,-1,1
-0.5420550305388316,2,8,-1,1
-0.6862607077319663,3,8,-1,1
-1.3516062227140926,4,8,-1,1
-0.8016942126754043,5,8,-1,1
-0.11806626214245002,6,8,-1,1
-0.2966841620885291,7,8,-1,1
-0.207189126234911,8,8,-1,1
-0.7610823108029654,9,8,-1,1
-0.3463982295876252,10,8,-1,1
-2.2303833290137365,11,8,-1,1
-1.6371658729700929,12,8,-1,1
-0.22033786897291552,13,8,-1,1
1.4871368668402578,14,8,-1,1
1.0272549313476411,15,8,-1,1
-0.3516292377836781,16,8,-1,1
-0.24168883084712034,17,8,-1,1
1.458073191558838,18,8,-1,1
-0.6372364551686958,19,8,-1,1
-2.6271631401905444,20,8,-1,1
-0.5164711379716775,21,8,-1,1
2.3885094617663363,22,8,-1,1
2.4159025978824746,23,8,-1,1
0.13502031913501117,24,8,-1,1
2.048725342148666,25,8,-1,1
4.000900348955677,26,8,-1,1
3.1560854681948953,27,8,-1,1
-2.958857823730058,28,8,-1,1
-0.7785976702744541,29,8,-1,1
0.3221817894234607,30,8,-1,1
-0.9035067729741149,31,8,-1,1
0.19607067205545312,32,8,-1,1
-1.4174951046657926,33,8,-1,1
-0.7973210397032844,34,8,-1,1
1.3278200275921344,35,8,-1,1
-1.2935046577700362,36,8,-1,1
-0.7095728061505768,37,8,-1,1
-1.3284578119101562,38,8,-1,1
-1.4917392778002263,39,8,-1,1
0.20555414805338568,40,8,-1,1
-1.7980639623544579,41,8,-1,1
-0.7486276021586449,42,8,-1,1
-1.0812049850374776,43,8,-1,1
-1.5714576735038506,44,8,-1,1
-2.9500135893260695,45,8,-1,1
-0.5511166206989984,46,8,-1,1
-0.004537844562784706,47,8,-1,1
0.1427769764331942,48,8,-1,1
-1.1177825491661617,49,8,-1,1
-0.5597309905221294,50,8,-1,1
0.767858524839542,51,8,-1,1
-0.33363603778240153,52,8,-1,1
0.9402245480692967,53,8,-1,1
0.598574283118897,54,8,-1,1
-0.147839948627978,55,8,-1,1
-0.009263593809534247,56,8,-1,1
-0.28880349566273517,57,8,-1,1
-0.22419811159603154,58,8,-1,1
0.3467801343503352,59,8,-1,1
-0.04127348318471223,60,8,-1,1
0.19276200992764242,61,8,-1,1
-0.2959730988737423,62,8,-1,1
0.06764887063313894,63,8,-1,1
0.16773535365842276,0,9,-1,1
0.006270449392671084,1,9,-1,1
0.0360276247483603,2,9,-1,1
0.11315433913747985,3,9,-1,1
-0.00903170724324347,4,9,-1,1
0.01850189038872338,5,9,-1,1
-0.05417887776785602,6,9,-1,1
-0.038379571634457384,7,9,-1,1
0.13503029126921334,8,9,-1,1
0.008962671558309463,9,9,-1,1
0.17455516646027655,10,9,-1,1
-0.2524971286895408,11,9,-1,1
-0.49680794545271195,12,9,-1,1
-0.7350190912888782,13,9,-1,1
-0.12607912578137762,14,9,-1,1
0.014994978192561743,15,9,-1,1
0.04114623066559643,16,9,-1,1
-0.022816377814644347,17,9,-1,1
-0.03880801685045984,18,9,-1,1
-1.2788887410218464,19,9,-1,1
-1.4397684147359557,20,9,-1,1
-0.7065950810999939,21,9,-1,1
0.2114099808888539,22,9,-1,1
0.20040767978700294,23,9,-1,1
-0.28959976186506015,24,9,-1,1
-0.23615430569260595,25,9,-1,1
-0.40736730275902894,26,9,-1,1
-0.776535986584799,27,9,-1,1
-1.6392236209857842,28,9,-1,1
-0.3746145697924989,29,9,-1,1
-0.42237185904818875,30,9,-1,1
-0.0775910637280108,31,9,-1,1
-0.06594750931571265,32,9,-1,1
-0.42918649858858393,33,9,-1,1
-0.2609070733958136,34,9,-1,1
-1.2521577668673514,35,9,-1,1
-1.8339338099663456,36,9,-1,1
-0.5553940310968049,37,9,-1,1
-0.5355188065364501,38,9,-1,1
-0.36315808070309646,39,9,-1,1
-0.10892163627541548,40,9,-1,1
-0.1905645294686899,41,9,-1,1
-0.09295474698055774,42,9,-1,1
-1.0339166309982502,43,9,-1,1
-1.4203452010531528,44,9,-1,1
-0.5033043594021053,45,9,-1,1
-0.17096645782936296,46,9,-1,1
0.10928998689072178,47,9,-1,1
0.13534728764130863,48,9,-1,1
-0.1336866256426412,49,9,-1,1
-0.3321496581660366,50,9,-1,1
-1.1047351304718631,51,9,-1,1
-1.5842364142040337,52,9,-1,1
-0.34208071924250594,53,9,-1,1
0.15226232996435007,54,9,-1,1
-0.1966908075368739,55,9,-1,1
0.014006315852657991,56,9,-1,1
0.10499524162279249,57,9,-1,1
0.05553645552213983,58,9,-1,1
-0.05755265884662198,59,9,-1,1
0.3083884330573741,60,9,-1,1
0.21940811431186463,61,9,-1,1
0.25344327061993166,62,9,-1,1
0.07436929076531534,63,9,-1,1
0.11065482066730044,0,10,-1,1
0.21293144673339326,1,10,-1,1
-0.7039576044272859,2,10,-1,1
-0.108235522715963,3,10,-1,1
1.0793409902917792,4,10,-1,1
0.2903203481525579,5,10,-1,1
-0.3025887833581813,6,10,-1,1
0.11816384145853455,7,10,-1,1
-0.23500815169093506,8,10,-1,1
0.38782509507194357,9,10,-1,1
1.7453101582348143,10,10,-1,1
-0.13867116456780101,11,10,-1,1
-3.89699465318341,12,10,-1,1
-1.5085667800034386,13,10,-1,1
1.5143462850145768,14,10,-1,1
0.41079519731532993,15,10,-1,1
0.22151711724871923,16,10,-1,1
1.5995793881292786,17,10,-1,1
1.3571371616344927,18,10,-1,1
-0.5521353801140896,19,10,-1,1
-3.835054672287459,20,10,-1,1
1.3382774765907859,21,10,-1,1
0.16764911880745828,22,10,-1,1
-0.4669546403752958,23,10,-1,1
0.48089142988686157,24,10,-1,1
-1.0434572653308873,25,10,-1,1
-2.194111809588993,26,10,-1,1
-3.859956081368224,27,10,-1,1
1.8683416582172718,28,10,-1,1
0.1918735578936516,29,10,-1,1
-1.2530509509618868,30,10,-1,1
-0.2332207656781502,31,10,-1,1
-0.4324882866599771,32,10,-1,1
0.773842774118591,33,10,-1,1
-1.84626247124053,34,10,-1,1
-0.5091553362927695,35,10,-1,1
2.552394768495232,36,10,-1,1
0.3582528766434416,37,10,-1,1
1.8228383662503937,38,10,-1,1
-0.5073981222197159,39,10,-1,1
-0.15159716763420777,40,10,-1,1
-0.21962207168892975,41,10,-1,1
-2.4131770606970155,42,10,-1,1
2.978876140806219,43,10,-1,1
1.6355863540795912,44,10,-1,1
-1.6509927313607917,45,10,-1,1
-0.6983444488562957,46,10,-1,1
-0.2658500859524566,47,10,-1,1
-0.15565755518767163,48,10,-1,1
0.6998860667787963,49,10,-1,1
-0.01818549601331866,50,10,-1,1
-0.3205809936968536,51,10,-1,1
1.4191010188259774,52,10,-1,1
-0.8446644236163805,53,10,-1,1
0.059692761005450526,54,10,-1,1
0.03919165320146658,55,10,-1,1
0.3029827856091082,56,10,-1,1
-0.2594818603125892,57,10,-1,1
-1.091454904097528,58,10,-1,1
-0.8990058157309629,59,10,-1,1
-2.3916455418657026,60,10,-1,1
-2.5307131932135007,61,10,-1,1
-0.10539837505327919,62,10,-1,1
0.31649674057121097,63,10,-1,1
0.13289515119090228,0,11,-1,1
0.11325599163789953,1,11,-1,1
0.03184906396977602,2,11,-1,1
0.026041827915033153,3,11,-1,1
0.12665540696501096,4,11,-1,1
0.024429551675590282,5,11,-1,1
0.22584920837022693,6,11,-1,1
0.07509632784164201,7,11,-1,1
0.2719683023151918,8,11,-1,1
0.3344383545655188,9,11,-1,1
-0.778660375293731,10,11,-1,1
-1.5723458218913986,11,11,-1,1
-3.0649458956026114,12,11,-1,1
-2.937378778446128,13,11,-1,1
-0.24774936532483244,14,11,-1,1
-0.3640080841270336,15,11,-1,1
0.004677812803670661,16,11,-1,1
0.18649150544301704,17,11,-1,1
-0.4723005434215491,18,11,-1,1
-3.0074765946319832,19,11,-1,1
1.586025945490757,20,11,-1,1
0.9599854467480219,21,11,-1,1
0.6479825954911471,22,11,-1,1
0.3320481604393137,23,11,-1,1
0.0638387283781786,24,11,-1,1
-0.24944064349865705,25,11,-1,1
0.9697615165607952,26,11,-1,1
0.12861842445904462,27,11,-1,1
2.3778451356516626,28,11,-1,1
-0.9367394708096232,29,11,-1,1
0.5942165899713467,30,11,-1,1
0.3617139695198039,31,11,-1,1
0.06930868946975424,32,11,-1,1
-0.5254524008149429,33,11,-1,1
-0.5202583197919318,34,11,-1,1
-0.7421316324104301,35,11,-1,1
0.9851458334107318,36,11,-1,1
-2.513088852220159,37,11,-1,1
-0.6348244605968238,38,11,-1,1
-0.6274118893991943,39,11,-1,1
-0.1246463134188849,40,11,-1,1
-0.5814965400038096,41,11,-1,1
-2.471775154615978,42,11,-1,1
2.438706863829257,43,11,-1,1
-0.7672439505419361,44,11,-1,1
-3.3782600050218567,45,11,-1,1
-1.0689669562616695,46,11,-1,1
-0.26941119917127215,47,11,-1,1
0.08021266296302179,48,11,-1,1
0.3256106734295274,49,11,-1,1
-0.9584336422306041,50,11,-1,1
-1.5702275384604218,51,11,-1,1
-2.073394506289713,52,11,-1,1
-1.7206997177643697,53,11,-1,1
-0.17663983045166687,54,11,-1,1
0.2533194014333772,55,11,-1,1
0.20269551439297043,56,11,-1,1
0.34621553527488297,57,11,-1,1
0.5513643856065077,58,11,-1,1
-0.04660190378660341,59,11,-1,1
-0.5602829307644184,60,11,-1,1
-0.10756412924191523,61,11,-1,1
0.23446800419462752,62,11,-1,1
0.15141177156113148,63,11,-1,1
0.038634226828503815,0,12,-1,1
0.17397152640603913,1,12,-1,1
0.3929908597321067,2,12,-1,1
1.1447171207572682,3,12,-1,1
0.7332781291257121,4,12,-1,1
1.0675477761323546,5,12,-1,1
0.25479263706466704,6,12,-1,1
0.018995462085111804,7,12,-1,1
-0.030411169240539486,8,12,-1,1
0.1290171451916606,9,12,-1,1
-0.5009880600905826,10,12,-1,1
-0.39305351558846235,11,12,-1,1
1.8296029686329571,12,12,-1,1
-0.3810828295757563,13,12,-1,1
-2.2111721559345963,14,12,-1,1
0.014378445084980134,15,12,-1,1
-0.15256170020441337,16,12,-1,1
0.2713458455118526,17,12,-1,1
-1.0764581374149442,18,12,-1,1
1.362423286242564,19,12,-1,1
-0.23302208781133904,20,12,-1,1
-3.260984605135283,21,12,-1,1
-1.962639037642734,22,12,-1,1
-1.3885202474227398,23,12,-1,1
0.14293021523725544,24,12,-1,1
0.21033743222378268,25,12,-1,1
0.21508574837751968,26,12,-1,1
0.7216689004883846,27,12,-1,1
0.1580967932951912,28,12,-1,1
0.6832764959261639,29,12,-1,1
0.9291118271649711,30,12,-1,1
-1.0247945953964643,31,12,-1,1
0.11497496120321767,32,12,-1,1
-0.3902514024592785,33,12,-1,1
0.013263633139101293,34,12,-1,1
-1.9339488023987872,35,12,-1,1
1.407545935292924,36,12,-1,1
2.535348316941767,37,12,-1,1
-0.11566752661591358,38,12,-1,1
0.23215916126675187,39,12,-1,1
-0.12888200345722678,40,12,-1,1
0.18328611546202947,41,12,-1,1
-2.4211644148264413,42,12,-1,1
-2.5600129425606446,43,12,-1,1
1.959059018935176,44,12,-1,1
0.6268560516827923,45,12,-1,1
0.3559604851250455,46,12,-1,1
0.06102489386040505,47,12,-1,1
0.06275178232197638,48,12,-1,1
0.19615042711008948,49,12,-1,1
-1.3526486837646883,50,12,-1,1
-0.9533116802670936,51,12,-1,1
-1.1706531470194121,52,12,-1,1
-1.3124213687567756,53,12,-1,1
0.15097544026986873,54,12,-1,1
-0.0497797424306382,55,12,-1,1
-0.1036483368796034,56,12,-1,1
0.1516852366776545,57,12,-1,1
1.5200052480549537,58,12,-1,1
1.232099481414385,59,12,-1,1
0.6863771316051864,60,12,-1,1
1.2658817156625992,61,12,-1,1
0.31084152097337736,62,12,-1,1
-0.05928617360034312,63,12,-1,1
-0.16487189810952313,0,13,-1,1
-0.13722592418338722,1,13,-1,1
-0.13929244404017552,2,13,-1,1
-0.8195014188580838,3,13,-1,1
-1.3596571091500245,4,13,-1,1
-1.0230861979524384,5,13,-1,1
-0.14552578636727712,6,13,-1,1
-0.3040022484720948,7,13,-1,1
-0.2162458259520769,8,13,-1,1
-0.16026398155875723,9,13,-1,1
-0.21752874473179806,10,13,-1,1
2.0588022486894424,11,13,-1,1
0.8614054085048939,12,13,-1,1
0.02528440976041651,13,13,-1,1
0.6701244551653792,14,13,-1,1
0.5776403741553985,15,13,-1,1
-0.5259973805977632,16,13,-1,1
-0.8754399415554637,17,13,-1,1
-0.03010351871294634,18,13,-1,1
-1.2803930076314918,19,13,-1,1
-1.75166775930954,20,13,-1,1
-1.1323058159070118,21,13,-1,1
0.5959067857512909,22,13,-1,1
1.101961594551957,23,13,-1,1
-1.1826809310670965,24,13,-1,1
-1.96391324022944,25,13,-1,1
-0.5129711767178569,26,13,-1,1
2.7822476151341275,27,13,-1,1
3.7002361642231163,28,13,-1,1
-1.1691067979807461,29,13,-1,1
-2.4660105909012167,30,13,-1,1
-0.3214415079532732,31,13,-1,1
0.10567781660764382,32,13,-1,1
-1.5969510372609494,33,13,-1,1
-5.998684936394368,34,13,-1,1
-0.7489986341919153,35,13,-1,1
-1.4088489163853675,36,13,-1,1
-1.851601395412497,37,13,-1,1
-1.9634748817031487,38,13,-1,1
-0.9336301699270768,39,13,-1,1
-0.17280131676148008,40,13,-1,1
1.4762146784445314,41,13,-1,1
-1.0197932155233937,42,13,-1,1
-3.5835998879167277,43,13,-1,1
-1.0900339843879872,44,13,-1,1
1.2532861309791787,45,13,-1,1
0.6777244775152932,46,13,-1,1
-0.2416975451099657,47,13,-1,1
0.0325653226567349,48,13,-1,1
0.027764451478121243,49,13,-1,1
2.03679533777767,50,13,-1,1
2.374349164490685,51,13,-1,1
0.7510543097818261,52,13,-1,1
0.7880887306091492,53,13,-1,1
0.6172455304715878,54,13,-1,1
-0.3839805584371724,55,13,-1,1
-0.3808892023041757,56,13,-1,1
-0.7443799427393398,57,13,-1,1
-0.38671257412594306,58,13,-1,1
-0.7553699883145295,59,13,-1,1
-0.4567872341714804,60,13,-1,1
-0.7024050610192082,61,13,-1,1
-0.3023001304460366,62,13,-1,1
0.03427844984445194,63,13,-1,1
-0.036503047709840336,0,14,-1,1
-0.34377912435061225,1,14,-1,1
-0.025833823085197105,2,14,-1,1
-0.3837536603913417,3,14,-1,1
-1.0053030388224993,4,14,-1,1
-0.5813504996689762,5,14,-1,1
-0.20545603138181182,6,14,-1,1
-0.11315197124547414,7,14,-1,1
-0.25910578331305734,8,14,-1,1
0.357021596385872,9,14,-1,1
0.518493638580138,10,14,-1,1
3.3476728225890575,11,14,-1,1
5.911603813018598,12,14,-1,1
3.796835365390599,13,14,-1,1
0.7555371767139188,14,14,-1,1
-0.17665075673506483,15,14,-1,1
-0.5885892688801303,16,14,-1,1
-1.1657388251272667,17,14,-1,1
0.7294075304800713,18,14,-1,1
-0.9855056962115218,19,14,-1,1
0.03205619686967625,20,14,-1,1
-1.7958196138373619,21,14,-1,1
-1.6756259510138696,22,14,-1,1
-0.9949512409944641,23,14,-1,1
-1.3054864103572528,24,14,-1,1
-1.229029239842308,25,14,-1,1
-1.8865450388084688,26,14,-1,1
-1.5689110246818028,27,14,-1,1
0.8365640350053296,28,14,-1,1
-2.0584798806707285,29,14,-1,1
1.1353388442481263,30,14,-1,1
-0.7552925397278875,31,14,-1,1
-0.42503763691586505,32,14,-1,1
1.3030148986268324,33,14,-1,1
0.2814982613878432,34,14,-1,1
7.8096983741945625,35,14,-1,1
2.2245158795450575,36,14,-1,1
1.5969684690930228,37,14,-1,1
1.5799959636927317,38,14,-1,1
0.14180304459805654,39,14,-1,1
0.180848520919627,40,14,-1,1
0.16584534081621327,41,14,-1,1
2.032602318652574,42,14,-1,1
-0.6020656276643248,43,14,-1,1
1.339206832476908,44,14,-1,1
1.0127614712070911,45,14,-1,1
1.0572068236993541,46,14,-1,1
-0.4576526308256598,47,14,-1,1
0.19844593968605914,48,14,-1,1
0.5471513356883159,49,14,-1,1
-0.2573906204633089,50,14,-1,1
0.6659475997708578,51,14,-1,1
1.636558077371454,52,14,-1,1
-0.5788235511060283,53,14,-1,1
0.7611546593151152,54,14,-1,1
0.11989387833583218,55,14,-1,1
-0.08229325832489567,56,14,-1,1
0.605894855764702,57,14,-1,1
1.5314218244166242,58,14,-1,1
-0.48064459325571185,59,14,-1,1
-1.481747996464809,60,14,-1,1
-0.6861804396586412,61,14,-1,1
0.021954023506509084,62,14,-1,1
0.006341374883426271,63,14,-1,1
0.09059043429000295,0,15,-1,1
0.10337830269369665,1,15,-1,1
0.19213431993773547,2,15,-1,1
-0.541788987971252,3,15,-1,1
-0.3517512098026504,4,15,-1,1
0.5439409663024811,5,15,-1,1
0.6423463417502712,6,15,-1,1
-0.11866601763059391,7,15,-1,1
0.24771127710950216,8,15,-1,1
-0.008268178372517927,9,15,-1,1
-3.272780337950871,10,15,-1,1
-4.732179891330215,11,15,-1,1
-2.0713359914229037,12,15,-1,1
1.4666412055926508,13,15,-1,1
1.3023316074575042,14,15,-1,1
0.2234904417356038,15,15,-1,1
0.11989364681210865,16,15,-1,1
-1.3835831077956973,17,15,-1,1
-6.531430996756226,18,15,-1,1
2.868754922818736,19,15,-1,1
0.27082877158030827,20,15,-1,1
-1.0699881919735699,21,15,-1,1
1.172732570445207,22,15,-1,1
1.1298721130156073,23,15,-1,1
0.39136297038558826,24,15,-1,1
-1.6364466074985848,25,15,-1,1
-2.5111335159918635,26,15,-1,1
1.979331253358556,27,15,-1,1
1.1399184375258284,28,15,-1,1
-3.177973558019688,29,15,-1,1
-1.6951653608668378,30,15,-1,1
-0.312429586600893,31,15,-1,1
-0.12452338411726174,32,15,-1,1
-0.9677400922041759,33,15,-1,1
-0.8808924854306779,34,15,-1,1
1.2324454347759244,35,15,-1,1
-0.5331145417182774,36,15,-1,1
-0.8234781751713895,37,15,-1,1
-2.4853388256772773,38,15,-1,1
-1.7513206062617426,39,15,-1,1
-1.304667151829356,40,15,-1,1
-0.8100497367524968,41,15,-1,1
0.4461090056751142,42,15,-1,1
1.6197374313114943,43,15,-1,1
-1.4351480674102088,44,15,-1,1
0.024080654243243585,45,15,-1,1
-2.8298116029999103,46,15,-1,1
-0.5639987133253846,47,15,-1,1
-0.30949440886134144,48,15,-1,1
-0.7845614143234838,49,15,-1,1
0.45269421294642015,50,15,-1,1
-0.7105515071149148,51,15,-1,1
1.3262298296771198,52,15,-1,1
-0.9078803191306878,53,15,-1,1
-0.41958097584241644,54,15,-1,1
0.2758148223082499,55,15,-1,1
0.06062155270413203,56,15,-1,1
0.5778880900917012,57,15,-1,1
0.2079275649535154,58,15,-1,1
0.1614691372229775,59,15,-1,1
-0.41266257494075725,60,15,-1,1
0.03327610522431873,61,15,-1,1
0.31005629039231636,62,15,-1,1
0.3016003370677379,63,15,-1,1
-0.2006407496604895,0,16,-1,1
0.15755284809273593,1,16,-1,1
0.42397982271186885,2,16,-1,1
2.3017048628641983,3,16,-1,1
1.4985574869848546,4,16,-1,1
-0.10755452375445827,5,16,-1,1
0.12501266604739722,6,16,-1,1
-0.05312568640778787,7,16,-1,1
-0.21220628739324715,8,16,-1,1
-0.6739898688013971,9,16,-1,1
-0.5440543951976476,10,16,-1,1
-0.09950763353222818,11,16,-1,1
0.4056036135913798,12,16,-1,1
0.5241362193112239,13,16,-1,1
0.24759982634677175,14,16,-1,1
0.13786381793860356,15,16,-1,1
0.40136574318743373,16,16,-1,1
0.2526210081612766,17,16,-1,1
-0.6361543191979211,18,16,-1,1
-0.10936751239964251,19,16,-1,1
-0.41839779179097575,20,16,-1,1
0.9579377708982353,21,16,-1,1
0.8372192683145312,22,16,-1,1
0.7223995593705451,23,16,-1,1
-0.044017765911964664,24,16,-1,1
0.997850625473345,25,16,-1,1
2.319042191991889,26,16,-1,1
0.09158369279515556,27,16,-1,1
0.0012694128019589874,28,16,-1,1
-0.29372490910223065,29,16,-1,1
1.2255382375194799,30,16,-1,1
0.42063438300707623,31,16,-1,1
-0.07621654224030298,32,16,-1,1
0.8500646906536271,33,16,-1,1
-3.185248672135142,34,16,-1,1
-3.9617945768726575,35,16,-1,1
-1.904791463056115,36,16,-1,1
-1.3806725795003547,37,16,-1,1
1.42305706784854,38,16,-1,1
0.86026141074592,39,16,-1,1
-1.014673649824917,40,16,-1,1
4.178152206490571,41,16,-1,1
6.947628049068818,42,16,-1,1
2.169263862557765,43,16,-1,1
1.083068165148364,44,16,-1,1
0.9311479042060937,45,16,-1,1
1.0123392832236535,46,16,-1,1
0.6037278018448593,47,16,-1,1
-0.37303772664783164,48,16,-1,1
-0.8951351790958209,49,16,-1,1
-1.4240979440055688,50,16,-1,1
-0.008257047321636275,51,16,-1,1
1.581997454599891,52,16,-1,1
1.0634709700280969,53,16,-1,1
-0.04046398826404772,54,16,-1,1
-0.3511717959911565,55,16,-1,1
-0.01139936170713172,56,16,-1,1
-1.0405312433139429,57,16,-1,1
-1.7441980016591976,58,16,-1,1
-0.8911906457612306,59,16,-1,1
-0.08909170620068488,60,16,-1,1
0.5654926295416468,61,16,-1,1
-0.36185191405607037,62,16,-1,1
0.06541993505887266,63,16,-1,1
0.21432611093587423,0,17,-1,1
-0.14702168839234886,1,17,-1,1
-0.8548314263902562,2,17,-1,1
0.35681546982913526,3,17,-1,1
1.4212138133989918,4,17,-1,1
0.04491238527630495,5,17,-1,1
-0.5656393858470288,6,17,-1,1
0.16137705269823385,7,17,-1,1
-0.11677901133938702,8,17,-1,1
0.1621785870035438,9,17,-1,1
-0.434272424550674,10,17,-1,1
-0.9075625366170951,11,17,-1,1
-1.8767883992331855,12,17,-1,1
-1.149587453551259,13,17,-1,1
-0.016642407058551464,14,17,-1,1
-0.08530578430984652,15,17,-1,1
0.36876808790085575,16,17,-1,1
3.3939416811507215,17,17,-1,1
0.37512446909984754,18,17,-1,1
3.1263904540575624,19,17,-1,1
4.7432030626199175,20,17,-1,1
1.4694983766028684,21,17,-1,1
2.5748926574313464,22,17,-1,1
0.303825711861769,23,17,-1,1
0.653424818547041,24,17,-1,1
-0.44355883353410214,25,17,-1,1
-2.6860934607030647,26,17,-1,1
-1.185017137729862,27,17,-1,1
-0.38917238326655706,28,17,-1,1
-1.2301515039179207,29,17,-1,1
-0.4432285698570244,30,17,-1,1
0.09728941297744507,31,17,-1,1
0.14125140762789543,32,17,-1,1
-2.11958680674583,33,17,-1,1
-1.8672000270289482,34,17,-1,1
-4.047538374775806,35,17,-1,1
-5.177563162103656,36,17,-1,1
-0.004205904110877425,37,17,-1,1
1.90818180218314,38,17,-1,1
0.17165463762306438,39,17,-1,1
0.458277602791312,40,17,-1,1
-0.03857697052308116,41,17,-1,1
-1.1116702069547342,42,17,-1,1
1.0906657282872667,43,17,-1,1
-0.6523738240446948,44,17,-1,1
-1.0801995667184874,45,17,-1,1
-0.3049644435163768,46,17,-1,1
-0.23149705565769965,47,17,-1,1
0.23335396381651755,48,17,-1,1
0.7994979226949286,49,17,-1,1
1.733070184319549,50,17,-1,1
1.642233882889847,51,17,-1,1
1.616514653700911,52,17,-1,1
-0.6171013937291753,53,17,-1,1
-2.107354829336445,54,17,-1,1
0.0515701430749037,55,17,-1,1
-0.14652629863268538,56,17,-1,1
0.3265050324440329,57,17,-1,1
0.26575886774106433,58,17,-1,1
0.3886563465945357,59,17,-1,1
0.4939109580027177,60,17,-1,1
-0.17142141909473915,61,17,-1,1
-0.596772494904755,62,17,-1,1
0.2944463155252983,63,17,-1,1
0.11863761864615442,0,18,-1,1
0.08591937467865882,1,18,-1,1
-0.2760032390398363,2,18,-1,1
-0.37013190845346194,3,18,-1,1
-0.5151288825520085,4,18,-1,1
-0.1894537580302337,5,18,-1,1
-0.058462695165408134,6,18,-1,1
-0.08784588407109863,7,18,-1,1
-0.008349694001359226,8,18,-1,1
0.1061733566564912,9,18,-1,1
0.39168192226213877,10,18,-1,1
-0.23232375436002956,11,18,-1,1
-0.055208180144622046,12,18,-1,1
-0.7841637033840574,13,18,-1,1
-0.7793410732825813,14,18,-1,1
0.07452469927798391,15,18,-1,1
-0.11033046410233902,16,18,-1,1
-0.1793644916026702,17,18,-1,1
0.14844534189785014,18,18,-1,1
-1.5836852233317125,19,18,-1,1
-2.2406361635535452,20,18,-1,1
-0.8919963004966378,21,18,-1,1
-0.3830172342452879,22,18,-1,1
-0.11484008249658555,23,18,-1,1
-0.13699934060819616,24,18,-1,1
-0.6826116583690855,25,18,-1,1
-0.5608969326578479,26,18,-1,1
-0.17793635147148618,27,18,-1,1
-1.3049695748386196,28,18,-1,1
-0.04815612482537041,29,18,-1,1
-0.6681232733935412,30,18,-1,1
0.08740358672350866,31,18,-1,1
-0.013445243246557156,32,18,-1,1
-0.7627014828885744,33,18,-1,1
-0.9679613708257353,34,18,-1,1
0.0379085914187213,35,18,-1,1
-0.8606181074312745,36,18,-1,1
-0.440474391694911,37,18,-1,1
-1.3003981302254797,38,18,-1,1
-0.17080683382262724,39,18,-1,1
-0.11898828249247097,40,18,-1,1
-0.5249982524172474,41,18,-1,1
-1.4327777959651615,42,18,-1,1
-2.8031097950669244,43,18,-1,1
-2.2246743701228655,44,18,-1,1
-0.20971828195687373,45,18,-1,1
-0.5512218078292107,46,18,-1,1
0.06266325729651179,47,18,-1,1
-0.04768478115772235,48,18,-1,1
0.13167412851566884,49,18,-1,1
-0.826065843154142,50,18,-1,1
-0.3837625245356374,51,18,-1,1
-0.8503816750685209,52,18,-1,1
-0.07953682519450389,53,18,-1,1
0.019377242289615078,54,18,-1,1
-0.11154030570522892,55,18,-1,1
0.06379609355738872,56,18,-1,1
-0.028216627202768116,57,18,-1,1
0.20984503842093327,58,18,-1,1
0.3561107911802049,59,18,-1,1
-0.18552597627518538,60,18,-1,1
-0.23706057795068386,61,18,-1,1
0.011328714255801028,62,18,-1,1
-0.030689384813171593,63,18,-1,1
0.12218522179344599,0,19,-1,1
-0.14794035731155744,1,19,-1,1
-0.021957361577470566,2,19,-1,1
-0.12325950282417965,3,19,-1,1
0.9965693352038383,4,19,-1,1
0.6983948521984574,5,19,-1,1
-0.30643014761406057,6,19,-1,1
0.0033630369274963816,7,19,-1,1
0.2456389517642688,8,19,-1,1
0.18082573000335384,9,19,-1,1
-0.17363118178590034,10,19,-1,1
0.7386492052445176,11,19,-1,1
-0.7049844253096665,12,19,-1,1
-0.07888963086545431,13,19,-1,1
-1.5821282895069733,14,19,-1,1
-0.7745225790496953,15,19,-1,1
0.162995056738841,16,19,-1,1
0.635224118661415,17,19,-1,1
-0.3352579312801026,18,19,-1,1
-2.680399140339263,19,19,-1,1
3.5069517271774675,20,19,-1,1
1.5486077444181638,21,19,-1,1
0.39307131191589717,22,19,-1,1
-1.0845169479978405,23,19,-1,1
0.7770272045098029,24,19,-1,1
-1.590756152570947,25,19,-1,1
-1.6143620519919768,26,19,-1,1
-2.8736736382787154,27,19,-1,1
2.270343136480334,28,19,-1,1
1.9289890754451318,29,19,-1,1
-1.3741544159934187,30,19,-1,1
0.5784791528773963,31,19,-1,1
0.5571025849332834,32,19,-1,1
-0.0546982265257468,33,19,-1,1
-1.6465382081742976,34,19,-1,1
-0.6637228521727586,35,19,-1,1
0.8158446419127546,36,19,-1,1
0.6143405812201682,37,19,-1,1
-0.5361154249820387,38,19,-1,1
1.619710403403382,39,19,-1,1
0.6411448345407111,40,19,-1,1
1.1976255435904453,41,19,-1,1
-1.6627275527989376,42,19,-1,1
0.1528981650530818,43,19,-1,1
0.3410860023850086,44,19,-1,1
0.43625899231904497,45,19,-1,1
0.6961443846090337,46,19,-1,1
0.3561954556716815,47,19,-1,1
0.10673867874839345,48,19,-1,1
0.2836746877751944,49,19,-1,1
1.215294656364301,50,19,-1,1
0.43901666368642456,51,19,-1,1
-2.5118335388285558,52,19,-1,1
-0.7862407070075038,53,19,-1,1
0.27688439783147506,54,19,-1,1
0.25978337876761765,55,19,-1,1
-0.23511156398698133,56,19,-1,1
0.4293115322132577,57,19,-1,1
-0.04486593257781123,58,19,-1,1
-0.9836818082712344,59,19,-1,1
0.5249395159254061,60,19,-1,1
-0.21472071626878192,61,19,-1,1
-0.09715065290952872,62,19,-1,1
0.056216762270151405,63,19,-1,1
0.16655880119862526,0,20,-1,1
-0.042156026932051074,1,20,-1,1
-0.08757313216301113,2,20,-1,1
0.12257427760713115,3,20,-1,1
0.13172052632923867,4,20,-1,1
0.2932586278832434,5,20,-1,1
-0.13174699406465815,6,20,-1,1
0.2626849599827451,7,20,-1,1
-0.2094380435092846,8,20,-1,1
-0.23211720013030407,9,20,-1,1
-0.5056763641332864,10,20,-1,1
-1.382006361423344,11,20,-1,1
-3.19485349730715,12,20,-1,1
-2.9179650327726256,13,20,-1,1
-1.4054283482510872,14,20,-1,1
0.14483390776560967,15,20,-1,1
-0.02201545419726214,16,20,-1,1
-0.08902720700305942,17,20,-1,1
-0.33289235803963435,18,20,-1,1
-1.8531229794975463,19,20,-1,1
-0.9103436199696902,20,20,-1,1
0.30107637246452085,21,20,-1,1
2.038261723708934,22,20,-1,1
1.2280665517279,23,20,-1,1
0.1760920385245039,24,20,-1,1
-0.7427851483523483,25,20,-1,1
-0.1260946357006333,26,20,-1,1
1.5873184357109809,27,20,-1,1
-1.2085699625253246,28,20,-1,1
-1.4638344314873255,29,20,-1,1
0.11620095733209664,30,20,-1,1
0.7462539171040711,31,20,-1,1
-0.02374744362475122,32,20,-1,1
0.0020428251676969838,33,20,-1,1
0.767868852161606,34,20,-1,1
0.18372602057495935,35,20,-1,1
-0.268125363633971,36,20,-1,1
-0.6748057676724184,37,20,-1,1
-0.8114606935337042,38,20,-1,1
0.25317670251190744,39,20,-1,1
-0.17194778933592653,40,20,-1,1
1.7587965422226282,41,20,-1,1
1.725501098830852,42,20,-1,1
-0.23238601523740207,43,20,-1,1
-0.21065387828781654,44,20,-1,1
-1.086742455266633,45,20,-1,1
0.24176598397782037,46,20,-1,1
0.3960152933284508,47,20,-1,1
0.07337907831576698,48,20,-1,1
-0.7290205905053919,49,20,-1,1
-1.5932695313244147,50,20,-1,1
-2.4830083762615036,51,20,-1,1
-2.7198077688854574,52,20,-1,1
-1.0861098040052761,53,20,-1,1
-0.02494970110317362,54,20,-1,1
-0.0790927763572267,55,20,-1,1
-0.027957276161117872,56,20,-1,1
-0.3244512952611102,57,20,-1,1
-0.6660731943212512,58,20,-1,1
-0.25262540393600214,59,20,-1,1
0.1375405427488073,60,20,-1,1
-0.04426055384922574,61,20,-1,1
-0.21929062832600218,62,20,-1,1
0.1033025601469064,63,20,-1,1
-0.13521938275451167,0,21,-1,1
-0.027195565407593433,1,21,-1,1
-0.08249502025968652,2,21,-1,1
0.16365297088659994,3,21,-1,1
0.45645197443809105,4,21,-1,1
0.1946104366058744,5,21,-1,1
-0.14511780039258493,6,21,-1,1
-0.0760221114101811,7,21,-1,1
0.09605893003501245,8,21,-1,1
0.16573396190749765,9,21,-1,1
0.5641746417695568,10,21,-1,1
-0.5031915752961551,11,21,-1,1
-0.8788973292995551,12,21,-1,1
-0.6115255154185391,13,21,-1,1
-0.32107245317057476,14,21,-1,1
-0.10709972405979579,15,21,-1,1
-0.048418305394280735,16,21,-1,1
-0.20052437789691496,17,21,-1,1
-0.07582268092387555,18,21,-1,1
-1.0606366875539603,19,21,-1,1
-1.5948163869920406,20,21,-1,1
-1.0467984636004666,21,21,-1,1
-0.40759081290500027,22,21,-1,1
-0.24474145737308928,23,21,-1,1
-0.036195589027704575,24,21,-1,1
-0.5003880398325864,25,21,-1,1
-0.4898191112399149,26,21,-1,1
-0.743564062498581,27,21,-1,1
-1.7180615714313385,28,21,-1,1
-0.44116423813248273,29,21,-1,1
-0.19724710998567144,30,21,-1,1
-0.17550375335878832,31,21,-1,1
0.13358383808714028,32,21,-1,1
-0.25895655640900833,33,21,-1,1
-0.40966735349854644,34,21,-1,1
-1.371830971844129,35,21,-1,1
-1.4924994019822098,36,21,-1,1
-0.3424562282039232,37,21,-1,1
-0.10711717308041313,38,21,-1,1
-0.07724437257627155,39,21,-1,1
-0.06992990360538814,40,21,-1,1
-0.19553193367776947,41,21,-1,1
-0.7173976853667405,42,21,-1,1
-1.60305320446036,43,21,-1,1
-1.6171425098875207,44,21,-1,1
-0.459881515106403,45,21,-1,1
-0.25861470137298687,46,21,-1,1
-0.08185502242152204,47,21,-1,1
-0.09637312997231881,48,21,-1,1
-0.012136377550235822,49,21,-1,1
-0.6964551265823378,50,21,-1,1
-0.9026949097627323,51,21,-1,1
-1.1238265615452439,52,21,-1,1
-0.6546665076993452,53,21,-1,1
-0.06966891228294737,54,21,-1,1
-0.2722272816873398,55,21,-1,1
-0.009154180202257754,56,21,-1,1
0.1614732604173573,57,21,-1,1
0.23933276505066234,58,21,-1,1
0.22887465475005217,59,21,-1,1
-0.03824770141403984,60,21,-1,1
-0.0241377341921997,61,21,-1,1
-0.07981078385490069,62,21,-1,1
-0.06779411980583838,63,21,-1,1
-0.01437250511916921,0,22,-1,1
-0.11500929483599183,1,22,-1,1
0.039124940492270915,2,22,-1,1
0.2833004398272308,3,22,-1,1
0.49386243152829795,4,22,-1,1
0.27273965786037957,5,22,-1,1
0.20783691708828508,6,22,-1,1
0.19513964017526939,7,22,-1,1
0.045821678025161384,8,22,-1,1
0.07280510670044056,9,22,-1,1
-0.3630996441887426,10,22,-1,1
-0.4157685707615029,11,22,-1,1
-1.0631340923470836,12,22,-1,1
-0.6016240779859285,13,22,-1,1
-0.08363280637818232,14,22,-1,1
-0.2582200422108059,15,22,-1,1
0.34456559660596986,16,22,-1,1
-0.11519927936752036,17,22,-1,1
-1.0634159506028904,18,22,-1,1
-0.008595181793912563,19,22,-1,1
0.12646671033198437,20,22,-1,1
-0.11379453565787469,21,22,-1,1
0.19747346112944708,22,22,-1,1
-0.3685388750589311,23,22,-1,1
0.09607808753143092,24,22,-1,1
0.5663893340000924,25,22,-1,1
0.5386059321202858,26,22,-1,1
0.431139756609441,27,22,-1,1
2.5323236929029433,28,22,-1,1
-0.3474389845669005,29,22,-1,1
0.5504040896515641,30,22,-1,1
0.5495091101886062,31,22,-1,1
0.15561373563044775,32,22,-1,1
0.15948666143407866,33,22,-1,1
-0.4011260730941887,34,22,-1,1
1.856511522169973,35,22,-1,1
0.9073385749806743,36,22,-1,1
-2.3443210056460315,37,22,-1,1
0.9319078925962737,38,22,-1,1
0.2611714478393399,39,22,-1,1
0.7808277470430935,40,22,-1,1
-1.662648951855911,41,22,-1,1
-0.7843313266359794,42,22,-1,1
2.9128629830253163,43,22,-1,1
-1.3562343400314019,44,22,-1,1
-0.9874460332491434,45,22,-1,1
-0.9729932107247323,46,22,-1,1
-0.38724147152890925,47,22,-1,1
0.011329540467258384,48,22,-1,1
-0.45164270962066544,49,22,-1,1
-1.095654717006599,50,22,-1,1
-0.20431936823477823,51,22,-1,1
0.9018351950077254,52,22,-1,1
-0.7303019386310841,53,22,-1,1
-0.9929690385842204,54,22,-1,1
0.15031141816781632,55,22,-1,1
0.27476828424110705,56,22,-1,1
0.0870649385932208,57,22,-1,1
0.042947123968533674,58,22,-1,1
-0.6705800852894791,59,22,-1,1
0.16602514615441658,60,22,-1,1
0.3361855654522801,61,22,-1,1
-0.05673352724061177,62,22,-1,1
0.03679252922231546,63,22,-1,1
-0.12573712547262056,0,23,-1,1
-0.29560906035271317,1,23,-1,1
0.6913256859534318,2,23,-1,1
2.0880191641538706,3,23,-1,1
1.689074151593793,4,23,-1,1
0.8179888932273025,5,23,-1,1
0.5198368693314352,6,23,-1,1
0.04044306648411577,7,23,-1,1
-0.1562191707789062,8,23,-1,1
0.0184915582939705,9,23,-1,1
0.850494134062548,10,23,-1,1
1.1323801765693349,11,23,-1,1
1.6073226381914572,12,23,-1,1
1.9548004505851855,13,23,-1,1
-0.3315223948890856,14,23,-1,1
-0.31692270655001675,15,23,-1,1
-0.4897521569931786,16,23,-1,1
1.049120171341959,17,23,-1,1
-0.10551968744716012,18,23,-1,1
-1.4731605908775427,19,23,-1,1
-2.413087439802204,20,23,-1,1
-3.289120607923424,21,23,-1,1
-1.1570844879592166,22,23,-1,1
-0.558703641783854,23,23,-1,1
-0.2972401652876807,24,23,-1,1
-1.0021979899439935,25,23,-1,1
-1.845648082339918,26,23,-1,1
-0.318910543316712,27,23,-1,1
-1.08481753200266,28,23,-1,1
-1.221598267418234,29,23,-1,1
1.1185086781646205,30,23,-1,1
0.48854516509380513,31,23,-1,1
-0.18672011024895063,32,23,-1,1
-0.017587117154370373,33,23,-1,1
-3.599660578332708,34,23,-1,1
1.4075405916376142,35,23,-1,1
0.22784301243844676,36,23,-1,1
-1.7932099180661862,37,23,-1,1
1.5929337452022305,38,23,-1,1
1.398674019564483,39,23,-1,1
0.5509944156597592,40,23,-1,1
1.5067421647234647,41,23,-1,1
0.4133288853094763,42,23,-1,1
2.323197128306254,43,23,-1,1
0.5905748872431634,44,23,-1,1
2.4984095507168402,45,23,-1,1
3.131668951973149,46,23,-1,1
0.5901481449127796,47,23,-1,1
0.33717593359995407,48,23,-1,1
0.9113728451439745,49,23,-1,1
0.67968333852004,50,23,-1,1
1.3231681416739498,51,23,-1,1
1.2036034696315279,52,23,-1,1
1.1138661329146446,53,23,-1,1
0.23900295378079353,54,23,-1,1
-0.3503997594842016,55,23,-1,1
0.1665747291201442,56,23,-1,1
-0.68375263257115,57,23,-1,1
-1.2056341699243769,58,23,-1,1
-1.113260817396039,59,23,-1,1
-0.998866748791121,60,23,-1,1
-0.532429947413806,61,23,-1,1
-0.3225272274227808,62,23,-1,1
0.017294577883534567,63,23,-1,1
-0.17864460752694036,0,24,-1,1
-0.2815482642598662,1,24,-1,1
0.257772203330847,2,24,-1,1
0.33395890131268524,3,24,-1,1
0.17388897352468946,4,24,-1,1
-0.05596063239486112,5,24,-1,1
-0.2900245551874983,6,24,-1,1
-0.21489175993963341,7,24,-1,1
-0.17405023950697834,8,24,-1,1
0.16461865348104904,9,24,-1,1
-0.31973525524053664,10,24,-1,1
-0.1230208505347815,11,24,-1,1
1.5556872591306654,12,24,-1,1
2.023005360538113,13,24,-1,1
0.8429051299557057,14,24,-1,1
-0.007838000664719928,15,24,-1,1
-0.012898112094330064,16,24,-1,1
0.14954214464244195,17,24,-1,1
-1.838210195495527,18,24,-1,1
1.6963388257607195,19,24,-1,1
-1.687540018114909,20,24,-1,1
-1.861389084050127,21,24,-1,1
0.599562827558586,22,24,-1,1
-0.9661332892068517,23,24,-1,1
0.11335586635707251,24,24,-1,1
-0.4309535173013268,25,24,-1,1
0.06520706848885166,26,24,-1,1
2.1877561103375722,27,24,-1,1
0.09183791741735953,28,24,-1,1
-0.8379281626201509,29,24,-1,1
-0.5216589017197097,30,24,-1,1
-0.3984806921120176,31,24,-1,1
-0.16688334291287812,32,24,-1,1
0.10020727265306319,33,24,-1,1
-0.3669166189302171,34,24,-1,1
-0.11775765765914604,35,24,-1,1
-0.8047604332741657,36,24,-1,1
0.3815692944904076,37,24,-1,1
0.6134749065715651,38,24,-1,1
0.04934251641282817,39,24,-1,1
0.3871685206627827,40,24,-1,1
-0.6116051146111469,41,24,-1,1
-0.611472260656276,42,24,-1,1
-1.1718479567662652,43,24,-1,1
0.3381356935343406,44,24,-1,1
0.5327028694098347,45,24,-1,1
-0.44513244272700375,46,24,-1,1
-0.25659779179332304,47,24,-1,1
-0.06995165310343301,48,24,-1,1
0.9239052899686354,49,24,-1,1
1.44824900557345,50,24,-1,1
-0.27418162038510874,51,24,-1,1
0.22474209967554004,52,24,-1,1
-0.3672299373954586,53,24,-1,1
-0.862104693229584,54,24,-1,1
-0.1447810062569435,55,24,-1,1
-0.32470628604701757,56,24,-1,1
0.3273203805348876,57,24,-1,1
0.8044073324165086,58,24,-1,1
-0.4689390192706814,59,24,-1,1
-0.8846790210374679,60,24,-1,1
0.08584665065476958,61,24,-1,1
0.16979282686821193,62,24,-1,1
-0.06687830328927911,63,24,-1,1
-0.09923632194431194,0,25,-1,1
0.04940808983794187,1,25,-1,1
-0.14478824528989104,2,25,-1,1
-0.19447872387552864,3,25,-1,1
-0.5411555803406835,4,25,-1,1
-0.14026377923700872,5,25,-1,1
-0.1425620645574766,6,25,-1,1
0.022942230848637144,7,25,-1,1
-0.27497533751471764,8,25,-1,1
0.221764344214115,9,25,-1,1
1.1669005819270994,10,25,-1,1
1.368589075700495,11,25,-1,1
0.32025126572664697,12,25,-1,1
1.6539119334408923,13,25,-1,1
0.2986125425640588,14,25,-1,1
0.6364104256240075,15,25,-1,1
-0.36964751491347325,16,25,-1,1
0.062375439860949865,17,25,-1,1
-0.16207646052804744,18,25,-1,1
0.008597501958131587,19,25,-1,1
0.6596118318268586,20,25,-1,1
-0.8846540568185854,21,25,-1,1
-0.42611972550350785,22,25,-1,1
1.841475514260256,23,25,-1,1
-0.025810543773617047,24,25,-1,1
-0.6513673239098421,25,25,-1,1
0.657280981189201,26,25,-1,1
0.2404667651554249,27,25,-1,1
6.058220854937297,28,25,-1,1
-1.6848805987629327,29,25,-1,1
-2.6779307057686093,30,25,-1,1
-0.633049103191537,31,25,-1,1
-0.36327407571289744,32,25,-1,1
-0.6038692446337165,33,25,-1,1
-2.874542892793071,34,25,-1,1
2.2964381130417757,35,25,-1,1
1.7020566252326135,36,25,-1,1
-3.286927418267205,37,25,-1,1
-0.47212556810924206,38,25,-1,1
-1.2511760288847633,39,25,-1,1
0.16348862008694445,40,25,-1,1
1.3860830523850727,41,25,-1,1
-1.2147607208571012,42,25,-1,1
0.5776666312451624,43,25,-1,1
-0.519979936703186,44,25,-1,1
-0.4901393012100182,45,25,-1,1
-0.31179288651714715,46,25,-1,1
0.40032824701474956,47,25,-1,1
0.27276470377030554,48,25,-1,1
0.12576737927504664,49,25,-1,1
2.0053844715822486,50,25,-1,1
-0.3189342835758936,51,25,-1,1
-0.09457932890724093,52,25,-1,1
0.7265345856722887,53,25,-1,1
1.2875635279207982,54,25,-1,1
0.39675599340999945,55,25,-1,1
0.07074523673216199,56,25,-1,1
0.08102370392075958,57,25,-1,1
0.1327672203528584,58,25,-1,1
0.42226172700313946,59,25,-1,1
0.05856976244502409,60,25,-1,1
0.29158976206033055,61,25,-1,1
0.03345050840588614,62,25,-1,1
-0.01914300096419057,63,25,-1,1
-0.2172702703821199,0,26,-1,1
-0.0549821978951307,1,26,-1,1
-0.1962844411842714,2,26,-1,1
0.12349100865997538,3,26,-1,1
0.6468161525797149,4,26,-1,1
0.305911124329906,5,26,-1,1
0.1249829080146032,6,26,-1,1
0.0030128795904090476,7,26,-1,1
-0.02016479161242861,8,26,-1,1
-0.21975739683420806,9,26,-1,1
-0.08287931628371763,10,26,-1,1
-1.2966188617655996,11,26,-1,1
-1.378331844470859,12,26,-1,1
-0.3546090628568558,13,26,-1,1
0.10772840796039437,14,26,-1,1
0.11607309689014575,15,26,-1,1
0.02080066230450819,16,26,-1,1
0.03583576360668959,17,26,-1,1
-0.43106816498668216,18,26,-1,1
-1.1190705852342202,19,26,-1,1
-1.6995908440593788,20,26,-1,1
-0.627292696500128,21,26,-1,1
-0.5454364184460343,22,26,-1,1
-0.37631281922571524,23,26,-1,1
0.22276908319719566,24,26,-1,1
-0.22673057713748587,25,26,-1,1
-1.3261528513775804,26,26,-1,1
-1.4938118252209738,27,26,-1,1
-1.7988746742039252,28,26,-1,1
-0.29727247585589717,29,26,-1,1
0.2371646483172975,30,26,-1,1
0.13871910425847533,31,26,-1,1
-0.19446939597443694,32,26,-1,1
-0.42597172846766346,33,26,-1,1
-0.28161498242623745,34,26,-1,1
-2.2315285453173734,35,26,-1,1
-0.8742847053215124,36,26,-1,1
0.40649969546508824,37,26,-1,1
-0.23893947530125406,38,26,-1,1
-0.2345242052068091,39,26,-1,1
-0.04830433315908938,40,26,-1,1
-1.014772066239616,41,26,-1,1
-0.42692575125211113,42,26,-1,1
-0.2940164210487839,43,26,-1,1
-1.0903852047398181,44,26,-1,1
-0.9942206422645095,45,26,-1,1
-1.0741168954885951,46,26,-1,1
-0.13101155132262896,47,26,-1,1
-0.36156823836669627,48,26,-1,1
-0.31974693151790506,49,26,-1,1
-0.261746727108392,50,26,-1,1
-1.1265628842713717,51,26,-1,1
-0.8671211126687114,52,26,-1,1
-0.891728030843477,53,26,-1,1
-0.25754075779552815,54,26,-1,1
0.0018909892797283573,55,26,-1,1
0.11444793756404632,56,26,-1,1
-0.13700829281535998,57,26,-1,1
0.1843748207530265,58,26,-1,1
0.28004279880976324,59,26,-1,1
-0.03981186231207686,60,26,-1,1
-0.08793070847046121,61,26,-1,1
-0.21314056138227275,62,26,-1,1
0.16418021491880974,63,26,-1,1
-0.04516293451067481,0,27,-1,1
-0.22008866336750063,1,27,-1,1
0.09110851515026151,2,27,-1,1
0.47376088343957307,3,27,-1,1
0.09853972445438475,4,27,-1,1
-0.037410943015642434,5,27,-1,1
-0.0008151690750208834,6,27,-1,1
0.2514127199646977,7,27,-1,1
0.059643849942133634,8,27,-1,1
-0.18111432133879646,9,27,-1,1
-0.004231016479607564,10,27,-1,1
-0.3515503341741504,11,27,-1,1
-0.8268524183427299,12,27,-1,1
-0.5743393989661363,13,27,-1,1
-0.25690313127516085,14,27,-1,1
0.06039881759452173,15,27,-1,1
0.2764637118718874,16,27,-1,1
-0.1100580718100505,17,27,-1,1
-0.7189799641374416,18,27,-1,1
-0.880575983312664,19,27,-1,1
-1.2553838760224052,20,27,-1,1
-1.0718450849105128,21,27,-1,1
0.027998041327742522,22,27,-1,1
0.29501568447898946,23,27,-1,1
-0.01137841919270546,24,27,-1,1
-0.3322291773340131,25,27,-1,1
-0.6940235459888409,26,27,-1,1
-0.37223431416735775,27,27,-1,1
-1.3016907065050698,28,27,-1,1
-0.7793558645580524,29,27,-1,1
-0.00409333694286014,30,27,-1,1
0.0058825587719793055,31,27,-1,1
-0.00791191611243839,32,27,-1,1
-0.6496675505145335,33,27,-1,1
-0.7105817039123774,34,27,-1,1
-0.7578850526987768,35,27,-1,1
-1.736650114034734,36,27,-1,1
-1.3252548615701478,37,27,-1,1
-0.5184145164449447,38,27,-1,1
0.15811220127400044,39,27,-1,1
-0.1610510420934467,40,27,-1,1
0.26171576472459723,41,27,-1,1
0.25294412484093975,42,27,-1,1
-1.256423799683127,43,27,-1,1
-1.6198636140050158,44,27,-1,1
-0.47178391012355253,45,27,-1,1
0.04042185870964555,46,27,-1,1
0.1101187919072673,47,27,-1,1
-0.07041882598082097,48,27,-1,1
-0.12056784451111173,49,27,-1,1
-0.3840461996535012,50,27,-1,1
-1.0674571863119797,51,27,-1,1
-1.6116753425084887,52,27,-1,1
-0.7779895473071566,53,27,-1,1
0.09948827249429311,54,27,-1,1
-0.11820115734165142,55,27,-1,1
0.15406851478284572,56,27,-1,1
-0.1887328132211353,57,27,-1,1
0.09283087299677549,58,27,-1,1
0.10094287720938293,59,27,-1,1
-0.07139946404434035,60,27,-1,1
0.08987068515546856,61,27,-1,1
-0.21354782638018077,62,27,-1,1
-0.16806810831481206,63,27,-1,1
0.055043521719309735,0,28,-1,1
-0.20923175245650463,1,28,-1,1
0.059280050614349225,2,28,-1,1
0.02131760859332724,3,28,-1,1
-0.39935257197676144,4,28,-1,1
-0.3833221264841639,5,28,-1,1
0.03604378878196438,6,28,-1,1
0.20653272586486202,7,28,-1,1
-0.17403391591290304,8,28,-1,1
0.0024139700392755517,9,28,-1,1
-0.2146880638375984,10,28,-1,1
1.7922208856221913,11,28,-1,1
2.4241467636162946,12,28,-1,1
-0.025617299739362234,13,28,-1,1
1.0639047419696914,14,28,-1,1
0.2807547084960175,15,28,-1,1
-0.274169515288961,16,28,-1,1
-2.0161651067902753,17,28,-1,1
-3.290596432401756,18,28,-1,1
-4.965657228347597,19,28,-1,1
-0.7173326991883712,20,28,-1,1
-1.4831444894766497,21,28,-1,1
-0.27680914584231836,22,28,-1,1
0.6282201928442401,23,28,-1,1
-0.3402470398927058,24,28,-1,1
2.2717077649878257,25,28,-1,1
3.832483337792934,26,28,-1,1
4.251498069078692,27,28,-1,1
2.1867256943199176,28,28,-1,1
2.0025816411677546,29,28,-1,1
3.042150545891834,30,28,-1,1
0.009006282146047121,31,28,-1,1
-0.4429928472557591,32,28,-1,1
3.5188423184225748,33,28,-1,1
2.1637978910964493,34,28,-1,1
-1.2902212952149061,35,28,-1,1
-1.0145126784294025,36,28,-1,1
-0.8056074892429288,37,28,-1,1
-1.3306168633955255,38,28,-1,1
-1.00458537417529,39,28,-1,1
0.05179764669798283,40,28,-1,1
-0.5791274059641858,41,28,-1,1
-0.6010496289997982,42,28,-1,1
0.7479650263260673,43,28,-1,1
0.9312470699544144,44,28,-1,1
0.7203729644330548,45,28,-1,1
-0.7748406353200322,46,28,-1,1
-0.7400909694287202,47,28,-1,1
-0.335545951923303,48,28,-1,1
-0.9952736597281956,49,28,-1,1
0.24803613010713552,50,28,-1,1
0.5878503362178674,51,28,-1,1
1.5464149760512476,52,28,-1,1
1.2306201571581026,53,28,-1,1
0.4322267625963412,54,28,-1,1
-0.005427387091324856,55,28,-1,1
-0.22083381084483109,56,28,-1,1
-0.17950760099914306,57,28,-1,1
-0.7198924077673461,58,28,-1,1
-0.7399368338395628,59,28,-1,1
-1.050719223669362,60,28,-1,1
1.4013334408545077,61,28,-1,1
0.41011880930351713,62,28,-1,1
-0.21705156137132417,63,28,-1,1
-0.01887099666673141,0,29,-1,1
-0.07743365738070103,1,29,-1,1
-0.6176212198958991,2,29,-1,1
-1.7965447022336265,3,29,-1,1
-1.9946225357879903,4,29,-1,1
-1.5587588497647205,5,29,-1,1
-0.8427571118992926,6,29,-1,1
-0.17905139516610594,7,29,-1,1
0.18010181920313362,8,29,-1,1
-0.045901648052521636,9,29,-1,1
-0.24880407032240454,10,29,-1,1
-0.27434006233417124,11,29,-1,1
0.08404537263408167,12,29,-1,1
-0.8896240727584456,13,29,-1,1
0.4139099412602281,14,29,-1,1
0.13528003673544103,15,29,-1,1
-0.10300702603182837,16,29,-1,1
0.44195292167960143,17,29,-1,1
2.0297918920705684,18,29,-1,1
2.681181556261158,19,29,-1,1
2.7586330878864307,20,29,-1,1
4.869536023425195,21,29,-1,1
1.9815951726964247,22,29,-1,1
0.23066032209678222,23,29,-1,1
0.08738413637366498,24,29,-1,1
1.2648488290797033,25,29,-1,1
0.34308370572663704,26,29,-1,1
0.2177685702410471,27,29,-1,1
-3.2806877110207946,28,29,-1,1
1.4793842414889276,29,29,-1,1
-0.4063184588393191,30,29,-1,1
-0.10757553967927706,31,29,-1,1
-0.12058797553270484,32,29,-1,1
0.17769559148592967,33,29,-1,1
3.262262162391168,34,29,-1,1
1.6537291855236096,35,29,-1,1
1.7970236158668713,36,29,-1,1
0.23118213501700408,37,29,-1,1
-1.294773488168984,38,29,-1,1
-0.5691815734369572,39,29,-1,1
-0.4165120349272106,40,29,-1,1
-0.4351569756019967,41,29,-1,1
-3.135791353585033,42,29,-1,1
-5.670833312861167,43,29,-1,1
-1.9921108768271023,44,29,-1,1
-1.2918037285358137,45,29,-1,1
-0.662430921378529,46,29,-1,1
-0.4162550915121404,47,29,-1,1
-0.2239460212589607,48,29,-1,1
-0.17212928048513815,49,29,-1,1
-0.4878488805981745,50,29,-1,1
1.0825495420704472,51,29,-1,1
0.20881050093110426,52,29,-1,1
-0.7198147413088469,53,29,-1,1
-0.310487417509375,54,29,-1,1
-0.027537498406409643,55,29,-1,1
-0.10561043786746951,56,29,-1,1
-0.2719483064411521,57,29,-1,1
1.7098583314007756,58,29,-1,1
3.758991192137237,59,29,-1,1
2.550016218319997,60,29,-1,1
0.5817903065487806,61,29,-1,1
0.04837251913305973,62,29,-1,1
0.09240798994405758,63,29,-1,1
0.02650875927752175,0,30,-1,1
-0.11385035291086118,1,30,-1,1
-0.005775399459844108,2,30,-1,1
-0.39425418984239397,3,30,-1,1
-0.5094341673155492,4,30,-1,1
-0.28359151323136766,5,30,-1,1
0.09896473944234303,6,30,-1,1
0.06284415783196518,7,30,-1,1
0.2123567823783676,8,30,-1,1
-0.8508404939005737,9,30,-1,1
-1.2274128083398832,10,30,-1,1
0.21809194484795924,11,30,-1,1
1.5436101641817879,12,30,-1,1
1.2435173077028643,13,30,-1,1
-0.0897147243120265,14,30,-1,1
0.08667400520042992,15,30,-1,1
0.3330046457879128,16,30,-1,1
-1.4680359556849982,17,30,-1,1
2.032615396082258,18,30,-1,1
0.8215420658142927,19,30,-1,1
-4.44501119773337,20,30,-1,1
-1.5386904400834012,21,30,-1,1
-1.6441907928772355,22,30,-1,1
0.616934852829967,23,30,-1,1
0.01620185019926804,24,30,-1,1
-0.44100401754241797,25,30,-1,1
-0.019800978480122786,26,30,-1,1
1.8110375269311743,27,30,-1,1
-1.551934190067572,28,30,-1,1
1.6289991178241754,29,30,-1,1
-0.4412769919134625,30,30,-1,1
0.3134839361045204,31,30,-1,1
0.036258672004647115,32,30,-1,1
-1.433384971621844,33,30,-1,1
-0.949580370328129,34,30,-1,1
0.11365020325137054,35,30,-1,1
-2.467912439604371,36,30,-1,1
0.9989279504607983,37,30,-1,1
-0.9112085822118139,38,30,-1,1
-0.40391817067648983,39,30,-1,1
-0.13873477763663536,40,30,-1,1
-0.826215956402976,41,30,-1,1
0.6971947170174349,42,30,-1,1
-1.2386228723657975,43,30,-1,1
-1.758568328753165,44,30,-1,1
0.062446812637743446,45,30,-1,1
-1.2642623434834093,46,30,-1,1
0.0689000599613942,47,30,-1,1
-0.3758134601571463,48,30,-1,1
-0.5453893869591091,49,30,-1,1
-0.179514713639233,50,30,-1,1
0.3665003055183494,51,30,-1,1
-0.11499072205262276,52,30,-1,1
-0.9850157504917848,53,30,-1,1
-0.3743020440703985,54,30,-1,1
-0.10494288509881203,55,30,-1,1
0.2635689387213856,56,30,-1,1
-0.41152335410073015,57,30,-1,1
-0.16100707783653226,58,30,-1,1
0.17420719542432153,59,30,-1,1
0.10957249573128912,60,30,-1,1
-0.4224601183822436,61,30,-1,1
0.1474596167496066,62,30,-1,1
-0.4742988285471913,63,30,-1,1
0.09802464319688003,0,31,-1,1
-0.05886481898993926,1,31,-1,1
-0.2593924944423206,2,31,-1,1
0.26915493803564516,3,31,-1,1
0.03391675686276097,4,31,-1,1
0.10310403573756217,5,31,-1,1
-0.013995526051489026,6,31,-1,1
0.0009327961815872585,7,31,-1,1
0.15517376741353137,8,31,-1,1
-0.27193232021295183,9,31,-1,1
-0.2782294914603211,10,31,-1,1
-0.5773144247427947,11,31,-1,1
0.22326886552255307,12,31,-1,1
0.38637926985620136,13,31,-1,1
-0.13392578464520127,14,31,-1,1
-0.4459701838484117,15,31,-1,1
0.07456426689571398,16,31,-1,1
0.05781951621997711,17,31,-1,1
-0.09399775342242253,18,31,-1,1
0.3117410745882833,19,31,-1,1
0.14078500324276355,20,31,-1,1
-0.21540368214153088,21,31,-1,1
-0.14745058258202962,22,31,-1,1
-0.29840398244225674,23,31,-1,1
-0.18091935185451602,24,31,-1,1
0.23016347567798634,25,31,-1,1
-0.8218395732225581,26,31,-1,1
-0.2589401777675693,27,31,-1,1
-0.8028168113416305,28,31,-1,1
0.22699778426027778,29,31,-1,1
0.9531777510413475,30,31,-1,1
-0.10725712603193954,31,31,-1,1
-0.09890857872708,32,31,-1,1
0.11184117965147222,33,31,-1,1
-0.5407049361374763,34,31,-1,1
-0.5770298264442508,35,31,-1,1
0.024873464222677867,36,31,-1,1
-0.2514839145216099,37,31,-1,1
0.03409956262487956,38,31,-1,1
0.01696423690232457,39,31,-1,1
-0.1002277661426889,40,31,-1,1
-0.8464450865204813,41,31,-1,1
0.29051988893598024,42,31,-1,1
0.08582596050914724,43,31,-1,1
0.06577508155468037,44,31,-1,1
-0.8487341824996526,45,31,-1,1
-0.7705123137086014,46,31,-1,1
-0.12206281240136975,47,31,-1,1
-0.06559208469823136,48,31,-1,1
-0.34086706261425315,49,31,-1,1
-0.2692407905927178,50,31,-1,1
0.6762099024573214,51,31,-1,1
0.551179195021915,52,31,-1,1
-1.394595201538048,53,31,-1,1
-0.31406253012174196,54,31,-1,1
0.18982299911235656,55,31,-1,1
-0.055688130817961666,56,31,-1,1
-0.20155907718800103,57,31,-1,1
-0.14331448548876627,58,31,-1,1
0.39618022408712356,59,31,-1,1
0.41469687242977493,60,31,-1,1
0.039091380118254124,61,31,-1,1
-0.06127461877301826,62,31,-1,1
-0.1830662928070076,63,31,-1,1
0.22953777987424206,0,32,-1,1
0.015952452698901796,1,32,-1,1
-0.10846023404547801,2,32,-1,1
-0.08781782669188216,3,32,-1,1
0.03438367119035486,4,32,-1,1
0.3948092269331883,5,32,-1,1
0.02811903595742233,6,32,-1,1
-0.005751253986464668,7,32,-1,1
0.009962769912246237,8,32,-1,1
0.14186460899929695,9,32,-1,1
0.09750188718569346,10,32,-1,1
-0.0720635639342104,11,32,-1,1
0.7008196071037022,12,32,-1,1
-0.8071195390241138,13,32,-1,1
-0.4540660701140539,14,32,-1,1
0.09621416691421308,15,32,-1,1
-0.2340369271572104,16,32,-1,1
0.12022933241814225,17,32,-1,1
-0.6600601513165137,18,32,-1,1
-0.8860792827907388,19,32,-1,1
-0.10208847089218144,20,32,-1,1
-0.322479348393404,21,32,-1,1
0.42728058427850407,22,32,-1,1
-0.16002341190558902,23,32,-1,1
-0.21520224595270254,24,32,-1,1
-0.632037095096196,25,32,-1,1
-0.0441386934127383,26,32,-1,1
0.828890376544686,27,32,-1,1
0.6254717927383795,28,32,-1,1
1.8573453287309123,29,32,-1,1
-0.40227310889502066,30,32,-1,1
-0.3051239352518536,31,32,-1,1
-0.0402235859891474,32,32,-1,1
0.00138987651935306,33,32,-1,1
3.5548480510152904,34,32,-1,1
2.5142334360390097,35,32,-1,1
0.0709561742414123,36,32,-1,1
0.1758155617959535,37,32,-1,1
-0.7161062623622018,38,32,-1,1
0.17374252739406817,39,32,-1,1
-0.030363467486197098,40,32,-1,1
1.3676459947695971,41,32,-1,1
2.68559148728999,42,32,-1,1
-3.1668452739015653,43,32,-1,1
-0.6414301018491597,44,32,-1,1
-0.15128040296362988,45,32,-1,1
0.6580238835367423,46,32,-1,1
-0.21303241520617727,47,32,-1,1
-0.23728428454031075,48,32,-1,1
0.7482369476939841,49,32,-1,1
0.3050779830836101,50,32,-1,1
-1.3126990701459578,51,32,-1,1
-0.9224952964052339,52,32,-1,1
-0.14992182776313492,53,32,-1,1
0.4816704486439539,54,32,-1,1
-0.036257978501926795,55,32,-1,1
-0.19372601021858404,56,32,-1,1
-0.05317806626262795,57,32,-1,1
0.5478165160123721,58,32,-1,1
-0.259863059054011,59,32,-1,1
-0.8268418551287693,60,32,-1,1
0.04985105948592068,61,32,-1,1
0.2517532756992883,62,32,-1,1
0.24493464202955711,63,32,-1,1
0.01832839389315913,0,33,-1,1
-0.05033513414820547,1,33,-1,1
-0.14178171305681678,2,33,-1,1
1.6105984415371937,3,33,-1,1
1.390329481967952,4,33,-1,1
0.7515623948645634,5,33,-1,1
0.18150747091001157,6,33,-1,1
-0.4226035043047756,7,33,-1,1
-0.07542734678510106,8,33,-1,1
-0.44317056229733265,9,33,-1,1
1.9072911392695073,10,33,-1,1
2.2369256393853885,11,33,-1,1
-0.09337277887447004,12,33,-1,1
0.0317696664261131,13,33,-1,1
-0.9896944064677364,14,33,-1,1
0.32345709515729626,15,33,-1,1
-0.043723566599646914,16,33,-1,1
1.5725973839233192,17,33,-1,1
3.0893586869545024,18,33,-1,1
1.5996988759086748,19,33,-1,1
0.2988342358221551,20,33,-1,1
0.18929930415155302,21,33,-1,1
0.39657335361217716,22,33,-1,1
1.4597755890262158,23,33,-1,1
0.46949551727308186,24,33,-1,1
0.49861959552635743,25,33,-1,1
-1.9486378855121,26,33,-1,1
-1.5891593799282608,27,33,-1,1
-3.3638717403369327,28,33,-1,1
-0.5788352047379326,29,33,-1,1
0.8603722145143653,30,33,-1,1
0.5588923869071402,31,33,-1,1
0.2885324155373283,32,33,-1,1
-3.4443417507304552,33,33,-1,1
-1.5386162731325626,34,33,-1,1
0.8807737388386627,35,33,-1,1
-3.3165511881244454,36,33,-1,1
-0.2428261727259541,37,33,-1,1
1.3906914815080818,38,33,-1,1
-0.11782642468307927,39,33,-1,1
-0.009480634016604716,40,33,-1,1
-0.4335413514534488,41,33,-1,1
0.5625353950802862,42,33,-1,1
-1.512784612979908,43,33,-1,1
-0.7909948797393556,44,33,-1,1
3.4244519327953,45,33,-1,1
0.5736385567464052,46,33,-1,1
0.0373168883105972,47,33,-1,1
-0.19244097364279159,48,33,-1,1
0.7603063182591845,49,33,-1,1
3.4932269629771744,50,33,-1,1
3.790772459352816,51,33,-1,1
2.1800132921943574,52,33,-1,1
-0.873818620123334,53,33,-1,1
-0.08871738105776074,54,33,-1,1
-0.19536084856436514,55,33,-1,1
0.03186085834758736,56,33,-1,1
-0.7042280949363212,57,33,-1,1
-0.05017325437746881,58,33,-1,1
1.2368710724856782,59,33,-1,1
0.7191919830855625,60,33,-1,1
-0.7094350019212515,61,33,-1,1
-0.37795087549383793,62,33,-1,1
-0.14563159977294537,63,33,-1,1
0.18068317450587595,0,34,-1,1
0.10748946259954228,1,34,-1,1
-0.03179114650328071,2,34,-1,1
0.19988095260372343,3,34,-1,1
1.7684036450346765,4,34,-1,1
0.9920180989560702,5,34,-1,1
-0.36427234140664166,6,34,-1,1
0.116004896006362,7,34,-1,1
0.2723515237266001,8,34,-1,1
0.3779108918355143,9,34,-1,1
0.85998157853249,10,34,-1,1
-0.17447317688478958,11,34,-1,1
-0.3184071086126782,12,34,-1,1
1.0603116417971146,13,34,-1,1
2.43974125346381,14,34,-1,1
0.2596341641179301,15,34,-1,1
-0.4047969957538639,16,34,-1,1
-0.25123620018955917,17,34,-1,1
-1.1045822735941542,18,34,-1,1
-5.103236426500141,19,34,-1,1
-4.918545187270865,20,34,-1,1
-2.1542547402570733,21,34,-1,1
0.6238113462980396,22,34,-1,1
1.9733817388498136,23,34,-1,1
-1.2231088713026188,24,34,-1,1
-1.839814714193651,25,34,-1,1
0.6315446851703373,26,34,-1,1
3.101731366222826,27,34,-1,1
-1.6270456577632944,28,34,-1,1
-2.0376958277555115,29,34,-1,1
-0.5318342577353041,30,34,-1,1
0.8925710274036635,31,34,-1,1
-0.6071718403696523,32,34,-1,1
1.4614168048614096,33,34,-1,1
1.459246064506527,34,34,-1,1
4.041026076345396,35,34,-1,1
1.0292587883851139,36,34,-1,1
-2.6927303168845205,37,34,-1,1
1.8649154783908122,38,34,-1,1
0.41178144678465994,39,34,-1,1
-0.2022185768732093,40,34,-1,1
1.9414580671933164,41,34,-1,1
2.595054695745977,42,34,-1,1
3.4559842996902153,43,34,-1,1
3.101936144804354,44,34,-1,1
1.5765531300929005,45,34,-1,1
1.094147405951045,46,34,-1,1
0.8663100505974152,47,34,-1,1
0.092592130688541,48,34,-1,1
0.5198426546571149,49,34,-1,1
2.74624511326133,50,34,-1,1
1.59656009150063,51,34,-1,1
1.8594899466186283,52,34,-1,1
2.1635159939752584,53,34,-1,1
0.40915052844283983,54,34,-1,1
-0.19931714155471442,55,34,-1,1
0.4525417000666411,56,34,-1,1
-1.3368615317392774,57,34,-1,1
-4.648946812931374,58,34,-1,1
-5.297239789424046,59,34,-1,1
-4.161913592891566,60,34,-1,1
-3.178666293678872,61,34,-1,1
-0.7054170701469363,62,34,-1,1
0.17832736117432993,63,34,-1,1
-0.011831326865597735,0,35,-1,1
-0.1678062694621474,1,35,-1,1
-0.10700798694513851,2,35,-1,1
-0.3633071013647333,3,35,-1,1
-2.186787246596074,4,35,-1,1
-0.878176523360772,5,35,-1,1
0.07751086197372813,6,35,-1,1
-0.19645143957968306,7,35,-1,1
0.14233029905405456,8,35,-1,1
-0.609944659088404,9,35,-1,1
-1.6002306133098354,10,35,-1,1
-1.2498412605564733,11,35,-1,1
1.9370270266364478,12,35,-1,1
1.804665269714011,13,35,-1,1
0.12458051936701343,14,35,-1,1
-0.5030723629994539,15,35,-1,1
-0.30589178638069336,16,35,-1,1
-1.1416763381539543,17,35,-1,1
-0.6307561801317499,18,35,-1,1
-1.6070334199639118,19,35,-1,1
1.2870107351475066,20,35,-1,1
2.3142713957075727,21,35,-1,1
-0.20471081453530696,22,35,-1,1
-0.15615127825742037,23,35,-1,1
-0.32669893913020165,24,35,-1,1
1.5552387532161813,25,35,-1,1
-0.1713848639638291,26,35,-1,1
0.03558979332684625,27,35,-1,1
0.8581848526519507,28,35,-1,1
0.1938498295496113,29,35,-1,1
3.178262539297245,30,35,-1,1
0.027221244513356217,31,35,-1,1
-0.12778377262408194,32,35,-1,1
1.4124570682341229,33,35,-1,1
1.5880705725081896,34,35,-1,1
-0.4564144262811333,35,35,-1,1
-2.49802360476204,36,35,-1,1
-1.8427176464637014,37,35,-1,1
-0.4573323034191535,38,35,-1,1
-0.4609895149737422,39,35,-1,1
-0.1023457779195242,40,35,-1,1
-1.6210729747461396,41,35,-1,1
2.7271383421302478,42,35,-1,1
-0.7914152376791399,43,35,-1,1
-3.331548221355688,44,35,-1,1
-1.4658641657117717,45,35,-1,1
-1.1933466373441963,46,35,-1,1
-0.5397021227192623,47,35,-1,1
-0.3808874542060838,48,35,-1,1
-0.6004065764046027,49,35,-1,1
0.17958029243852908,50,35,-1,1
2.7316038048580915,51,35,-1,1
-0.8338881873632797,52,35,-1,1
-3.2394057173382604,53,35,-1,1
-0.8650424122227295,54,35,-1,1
-0.28795412693351635,55,35,-1,1
0.032201571557069195,56,35,-1,1
0.18709876621444632,57,35,-1,1
0.6761562283047322,58,35,-1,1
0.7364114846067374,59,35,-1,1
0.04270657128034801,60,35,-1,1
0.341899577140705,61,35,-1,1
0.4639461828238092,62,35,-1,1
0.07226614309438192,63,35,-1,1
-0.11630736931933149,0,36,-1,1
-0.0134380224590089,1,36,-1,1
-0.0627741061970944,2,36,-1,1
0.10110753360980591,3,36,-1,1
0.2733067758117025,4,36,-1,1
0.18159462824091382,5,36,-1,1
-0.3219576607200471,6,36,-1,1
-0.020072469560355282,7,36,-1,1
-0.13754965786929563,8,36,-1,1
0.16659130202928984,9,36,-1,1
-0.09431108551134786,10,36,-1,1
-0.5681249784910306,11,36,-1,1
-1.0938187994760922,12,36,-1,1
-0.614358181374799,13,36,-1,1
-0.2005953936368863,14,36,-1,1
0.31786152560911235,15,36,-1,1
-0.08393629290003277,16,36,-1,1
0.06074821824786374,17,36,-1,1
-0.8971489520228467,18,36,-1,1
-1.1655974856645936,19,36,-1,1
-1.6611974049641534,20,36,-1,1
-1.1783821308410258,21,36,-1,1
-0.04990234583032718,22,36,-1,1
0.32516576130787583,23,36,-1,1
-0.14176743217456217,24,36,-1,1
-0.36856852658610906,25,36,-1,1
-1.0516051134905366,26,36,-1,1
-0.8498951211517215,27,36,-1,1
-1.2139461979856636,28,36,-1,1
-0.7955518508273195,29,36,-1,1
-0.6965390795343596,30,36,-1,1
0.026294489688008914,31,36,-1,1
0.2419472554995727,32,36,-1,1
-0.42991519701928566,33,36,-1,1
-1.162246293629897,34,36,-1,1
-0.44517663633521165,35,36,-1,1
-1.3461577912319675,36,36,-1,1
-0.831504698133128,37,36,-1,1
-0.6008511093806466,38,36,-1,1
-0.272689203126618,39,36,-1,1
-0.019407718100187186,40,36,-1,1
-0.2322333049616822,41,36,-1,1
-0.6952898041496149,42,36,-1,1
-1.2402368493378633,43,36,-1,1
-1.2161784192126086,44,36,-1,1
-0.6211623637685659,45,36,-1,1
-0.24516233592923165,46,36,-1,1
0.07090066998502065,47,36,-1,1
-0.1735080683856528,48,36,-1,1
0.07750658976750155,49,36,-1,1
-0.564345538175569,50,36,-1,1
-1.3672556770838529,51,36,-1,1
-1.0342988965992634,52,36,-1,1
-0.6218576737062254,53,36,-1,1
-0.07945766701567805,54,36,-1,1
-0.35758105029058895,55,36,-1,1
-0.035485461779502,56,36,-1,1
0.13748535300117462,57,36,-1,1
0.037792573727893124,58,36,-1,1
0.0595072801642426,59,36,-1,1
-0.034933832479752056,60,36,-1,1
0.04895223265909811,61,36,-1,1
0.1569751558677472,62,36,-1,1
-0.1748849044441517,63,36,-1,1
0.3740415460865204,0,37,-1,1
0.03653157455548661,1,37,-1,1
0.04342652411188136,2,37,-1,1
0.3773245243810407,3,37,-1,1
0.5443272682382104,4,37,-1,1
0.6036720776892778,5,37,-1,1
0.44374303686861255,6,37,-1,1
0.26950165164893625,7,37,-1,1
0.015239421810367876,8,37,-1,1
0.16404585157203114,9,37,-1,1
0.24622114321260874,10,37,-1,1
-1.1222870079588636,11,37,-1,1
-0.44506982049222016,12,37,-1,1
0.25275387436911384,13,37,-1,1
1.0292645758163361,14,37,-1,1
0.4677894308608766,15,37,-1,1
0.2976156645168791,16,37,-1,1
-0.0820635092798663,17,37,-1,1
1.5373531005423464,18,37,-1,1
0.9022637551515517,19,37,-1,1
-0.8569800123135919,20,37,-1,1
-2.155799723624866,21,37,-1,1
-2.343291911473222,22,37,-1,1
-0.9944747628426248,23,37,-1,1
0.2958168082126262,24,37,-1,1
0.6935680248357595,25,37,-1,1
1.739858949183302,26,37,-1,1
-2.05675638741652,27,37,-1,1
0.5480432849593245,28,37,-1,1
1.6272056890284268,29,37,-1,1
1.8004795618953,30,37,-1,1
-0.9285001805285757,31,37,-1,1
-0.25983340336706406,32,37,-1,1
0.47713727270623035,33,37,-1,1
-1.056676547183943,34,37,-1,1
-0.7332810171121132,35,37,-1,1
1.8801401770676167,36,37,-1,1
-0.5675085211514189,37,37,-1,1
1.9066490567573178,38,37,-1,1
-1.027603281487005,39,37,-1,1
-0.20195178096805932,40,37,-1,1
-3.7814595296800557,41,37,-1,1
-0.0974606711730977,42,37,-1,1
5.940871242232505,43,37,-1,1
1.911006449762449,44,37,-1,1
0.1939105032676479,45,37,-1,1
-1.6580683436485515,46,37,-1,1
-0.5362912308131775,47,37,-1,1
-0.009707951206363046,48,37,-1,1
-0.6444706762370509,49,37,-1,1
-1.3258480059938953,50,37,-1,1
-2.091929617420399,51,37,-1,1
0.580929320772556,52,37,-1,1
0.27019753869984386,53,37,-1,1
-0.2036049438492932,54,37,-1,1
0.18892475126089842,55,37,-1,1
0.012451514657889098,56,37,-1,1
0.22240627502056587,57,37,-1,1
0.4134740244099278,58,37,-1,1
0.45567758954879717,59,37,-1,1
-0.6090990363486812,60,37,-1,1
0.2209982128289588,61,37,-1,1
0.3377328083701075,62,37,-1,1
-0.029238268470641118,63,37,-1,1
0.011789584605089424,0,38,-1,1
0.15205813365432386,1,38,-1,1
-0.3276446539237258,2,38,-1,1
-0.8683093959107632,3,38,-1,1
-0.4648326927963515,4,38,-1,1
-0.4734393010405146,5,38,-1,1
-0.14310433158403346,6,38,-1,1
0.22259062684981104,7,38,-1,1
0.1191268965747764,8,38,-1,1
-0.814411403721417,9,38,-1,1
-0.5871330369280845,10,38,-1,1
-0.14007558728544448,11,38,-1,1
0.330026361564945,12,38,-1,1
2.00003627898922,13,38,-1,1
2.739247410657372,14,38,-1,1
0.8584912482052289,15,38,-1,1
0.07833288009382858,16,38,-1,1
-1.987514146638367,17,38,-1,1
1.2454023696680134,18,38,-1,1
3.1763485751353606,19,38,-1,1
-2.547561646949741,20,38,-1,1
-0.03562700739512613,21,38,-1,1
-0.19107145775905288,22,38,-1,1
0.9712298417928589,23,38,-1,1
-0.25737516464028265,24,38,-1,1
1.7471917124987217,25,38,-1,1
1.8232905702665025,26,38,-1,1
-0.20901978838567736,27,38,-1,1
-4.81391094729981,28,38,-1,1
-3.213428882624261,29,38,-1,1
-1.6917830528623528,30,38,-1,1
0.466774058584325,31,38,-1,1
-0.02572726461843185,32,38,-1,1
-0.3448341137691394,33,38,-1,1
-1.2909931319953283,34,38,-1,1
-1.7102995882209182,35,38,-1,1
-3.370546327046482,36,38,-1,1
-0.8719703193036225,37,38,-1,1
1.8346472451362568,38,38,-1,1
0.5305527332156111,39,38,-1,1
-0.030859229379970255,40,38,-1,1
-0.7242639287633351,41,38,-1,1
-1.086484246810339,42,38,-1,1
-2.7789837234945174,43,38,-1,1
-1.048259915384399,44,38,-1,1
0.8262181805390842,45,38,-1,1
-0.1162006712192968,46,38,-1,1
0.33345592204786556,47,38,-1,1
0.020969358432571094,48,38,-1,1
-0.883153152038402,49,38,-1,1
-0.18623758161836995,50,38,-1,1
3.304500789744694,51,38,-1,1
2.2175023825871545,52,38,-1,1
0.09159673458006408,53,38,-1,1
0.4013271105139114,54,38,-1,1
-0.02532228454409113,55,38,-1,1
0.06258431152245647,56,38,-1,1
0.2687696425321416,57,38,-1,1
-0.1675075637934718,58,38,-1,1
-0.8904820493291301,59,38,-1,1
0.08229394585512187,60,38,-1,1
-0.16626298436290185,61,38,-1,1
0.04602974057521551,62,38,-1,1
0.310448364461305,63,38,-1,1
-0.06258566035203254,0,39,-1,1
-0.057075070729129,1,39,-1,1
0.07785024158895927,2,39,-1,1
0.12859711102307025,3,39,-1,1
-0.1491806103813967,4,39,-1,1
-0.016480326372665794,5,39,-1,1
0.140009818362685,6,39,-1,1
0.23378664790814113,7,39,-1,1
-0.10069101268107962,8,39,-1,1
-0.06154305309181434,9,39,-1,1
0.12416622672458202,10,39,-1,1
-0.10418487718821913,11,39,-1,1
-0.21020931429528725,12,39,-1,1
-0.7468641074163648,13,39,-1,1
-0.41683838724266986,14,39,-1,1
0.02602058025680349,15,39,-1,1
-0.27198627577637546,16,39,-1,1
-0.41805862604131167,17,39,-1,1
-0.8557449576046278,18,39,-1,1
-0.37420915998834414,19,39,-1,1
-0.3571479365884583,20,39,-1,1
-1.9383754212699473,21,39,-1,1
-0.41508821930925743,22,39,-1,1
-0.12758660439422304,23,39,-1,1
-0.2699929001783606,24,39,-1,1
-0.6275276756024758,25,39,-1,1
-0.8046189670192051,26,39,-1,1
-0.6276411269989074,27,39,-1,1
-0.8985410463481253,28,39,-1,1
-1.2040638028432378,29,39,-1,1
-0.6582338191548741,30,39,-1,1
0.15700170173966901,31,39,-1,1
0.1956615305006781,32,39,-1,1
-0.45360975105299495,33,39,-1,1
-0.32462133487866196,34,39,-1,1
0.2677038596342671,35,39,-1,1
-1.2169735191983995,36,39,-1,1
-0.9303491813554721,37,39,-1,1
-0.07155677159514164,38,39,-1,1
0.4237169205452794,39,39,-1,1
0.012045736126710128,40,39,-1,1
0.3099548274244549,41,39,-1,1
-0.229139148106006,42,39,-1,1
-2.0184188138899377,43,39,-1,1
-1.5455258151652238,44,39,-1,1
-0.5005572829414136,45,39,-1,1
0.6314845573568525,46,39,-1,1
0.5927919398872231,47,39,-1,1
-0.20325441433213368,48,39,-1,1
0.36846528273850543,49,39,-1,1
-0.6837356112372996,50,39,-1,1
-1.288567223231489,51,39,-1,1
-1.1437949074368652,52,39,-1,1
-0.5049200768499137,53,39,-1,1
0.2920224500814323,54,39,-1,1
-0.0886042475240472,55,39,-1,1
-0.0592214675773296,56,39,-1,1
-0.2591781511577928,57,39,-1,1
-0.1779861503208292,58,39,-1,1
0.07201771413762069,59,39,-1,1
0.3416335307179105,60,39,-1,1
0.18288883655398303,61,39,-1,1
0.2582559023607834,62,39,-1,1
-0.027496910963279806,63,39,-1,1
0.11005511635853939,0,40,-1,1
0.18825406491341132,1,40,-1,1
0.062403392167323886,2,40,-1,1
-1.0080959293407104,3,40,-1,1
-0.9356958230986061,4,40,-1,1
-1.305834008778408,5,40,-1,1
-0.39294800614365666,6,40,-1,1
-0.07078702498911213,7,40,-1,1
-0.08067473489508083,8,40,-1,1
-0.12893777014296026,9,40,-1,1
0.2928341297387945,10,40,-1,1
2.044145734605011,11,40,-1,1
1.717457658160676,12,40,-1,1
1.4951836120932847,13,40,-1,1
1.5314683572048688,14,40,-1,1
0.21049109666650476,15,40,-1,1
0.19912600310767642,16,40,-1,1
-0.1541849516891239,17,40,-1,1
1.0255909405760986,18,40,-1,1
-0.2684122458990889,19,40,-1,1
-1.3072806444839578,20,40,-1,1
-0.8421176755095098,21,40,-1,1
0.49624299265707594,22,40,-1,1
0.830306081491133,23,40,-1,1
-0.03927637079040993,24,40,-1,1
1.3640452150689408,25,40,-1,1
-1.2944383499366134,26,40,-1,1
-2.1109131421527914,27,40,-1,1
-1.1143884378032445,28,40,-1,1
-1.7605954795651193,29,40,-1,1
-1.4348573642631879,30,40,-1,1
-0.8041783014749196,31,40,-1,1
0.2172032219608748,32,40,-1,1
-0.32342883661456323,33,40,-1,1
-2.8101310110642395,34,40,-1,1
-1.7326946461866848,35,40,-1,1
-1.9108432699757825,36,40,-1,1
-0.3645563233295573,37,40,-1,1
-1.4703260962446847,38,40,-1,1
-0.3244929821517077,39,40,-1,1
-0.07316332152939206,40,40,-1,1
0.5717700164680414,41,40,-1,1
1.4138494220687643,42,40,-1,1
1.1887168846994742,43,40,-1,1
0.9096291800811533,44,40,-1,1
0.7917376120411026,45,40,-1,1
0.6615483179337426,46,40,-1,1
0.3960262121295233,47,40,-1,1
-0.1068909814706732,48,40,-1,1
-0.08313088569725272,49,40,-1,1
0.7841824289946857,50,40,-1,1
-1.824457863262595,51,40,-1,1
-1.1971003935563063,52,40,-1,1
0.744056789618842,53,40,-1,1
0.4311902589062294,54,40,-1,1
0.25314114967719775,55,40,-1,1
-0.09591730276500678,56,40,-1,1
0.135550489269443,57,40,-1,1
-0.8697401454016298,58,40,-1,1
-0.923220818600514,59,40,-1,1
0.14183230743137057,60,40,-1,1
0.47347566537353347,61,40,-1,1
0.15964147104860663,62,40,-1,1
-0.07270639306501984,63,40,-1,1
0.0276786061404634,0,41,-1,1
-0.29829293306708154,1,41,-1,1
-0.007976870486741306,2,41,-1,1
-0.10791231416140992,3,41,-1,1
-0.8254151523899885,4,41,-1,1
-1.0410583034530374,5,41,-1,1
-0.24299323060780628,6,41,-1,1
-0.01721337967123627,7,41,-1,1
-0.25989115192470497,8,41,-1,1
0.41551768545040607,9,41,-1,1
0.4082528555401034,10,41,-1,1
1.2716671537772328,11,41,-1,1
0.6509469808438078,12,41,-1,1
0.6575211818273065,13,41,-1,1
-1.6182158543624943,14,41,-1,1
-0.4815229951746257,15,41,-1,1
0.011560813986992779,16,41,-1,1
1.0969093236005318,17,41,-1,1
-0.3200665141667041,18,41,-1,1
1.6372813997695022,19,41,-1,1
1.513223391912437,20,41,-1,1
1.3760771677463897,21,41,-1,1
1.9254428845661058,22,41,-1,1
-0.7694659338979868,23,41,-1,1
0.5051627829391048,24,41,-1,1
-1.9934428234886485,25,41,-1,1
-3.0412830658067893,26,41,-1,1
-5.928497808227622,27,41,-1,1
-1.1577834020892623,28,41,-1,1
2.072717261429951,29,41,-1,1
0.7092836501481745,30,41,-1,1
-1.6338112275755032,31,41,-1,1
0.09779269284145366,32,41,-1,1
-1.3480070729813627,33,41,-1,1
-2.2849342970001105,34,41,-1,1
-0.36496200884571106,35,41,-1,1
2.350719439962133,36,41,-1,1
0.34506898757242366,37,41,-1,1
-3.047449658288175,38,41,-1,1
-0.7244431894686977,39,41,-1,1
0.4538870304443731,40,41,-1,1
0.8154111339170093,41,41,-1,1
-0.36606813483028716,42,41,-1,1
-0.45364952202439646,43,41,-1,1
-0.5221215286448982,44,41,-1,1
-0.9150338864773361,45,41,-1,1
0.9036008150689745,46,41,-1,1
-0.06465941569642775,47,41,-1,1
-0.1054493865632377,48,41,-1,1
0.5718529548111201,49,41,-1,1
0.17952796424561163,50,41,-1,1
-1.589845184851926,51,41,-1,1
-1.9442705151990127,52,41,-1,1
-1.3033302985428188,53,41,-1,1
-0.08606618317826917,54,41,-1,1
-0.48257753892509686,55,41,-1,1
-0.41862664917718717,56,41,-1,1
0.04922179651368231,57,41,-1,1
1.9983034775888093,58,41,-1,1
2.1820768895752627,59,41,-1,1
1.1583550649506853,60,41,-1,1
0.6809422714360416,61,41,-1,1
-0.17604911460337178,62,41,-1,1
-0.08631339560302559,63,41,-1,1
0.032525905208632536,0,42,-1,1
-0.20477912206681537,1,42,-1,1
-0.5695902452801058,2,42,-1,1
-1.6198208692605023,3,42,-1,1
-0.5331477635169783,4,42,-1,1
-0.2364778387624174,5,42,-1,1
0.1156653467357679,6,42,-1,1
0.23613399208868496,7,42,-1,1
-0.002077558807113047,8,42,-1,1
0.70440137036045,9,42,-1,1
0.4664606589268038,10,42,-1,1
1.7855558517160892,11,42,-1,1
1.4461480113363647,12,42,-1,1
-0.05724170719693073,13,42,-1,1
-0.04392659923018568,14,42,-1,1
0.044314150883776424,15,42,-1,1
-0.036055420880878944,16,42,-1,1
-0.0866864599262987,17,42,-1,1
-1.1209755699626105,18,42,-1,1
-1.9331149551797702,19,42,-1,1
-0.21374114152904386,20,42,-1,1
2.1761092401546347,21,42,-1,1
1.4472160099667226,22,42,-1,1
0.7927961963249491,23,42,-1,1
-0.3750523158110685,24,42,-1,1
-0.9100064086611502,25,42,-1,1
-0.4125621525599776,26,42,-1,1
1.5405314161621608,27,42,-1,1
-2.4832570967320633,28,42,-1,1
-0.9931556952014609,29,42,-1,1
0.4430137827852443,30,42,-1,1
0.9506736381964108,31,42,-1,1
0.02768779144044198,32,42,-1,1
2.9950756754021906,33,42,-1,1
2.841841048297083,34,42,-1,1
-4.0540092394597185,35,42,-1,1
-2.9340055958627698,36,42,-1,1
1.1708826053243362,37,42,-1,1
1.9580207984294002,38,42,-1,1
-0.5127382398802228,39,42,-1,1
-0.055514210589215206,40,42,-1,1
4.708576380348774,41,42,-1,1
0.3996245662003167,42,42,-1,1
-2.6471878829682236,43,42,-1,1
0.999948839766029,44,42,-1,1
2.558308819890625,45,42,-1,1
1.0101957371593093,46,42,-1,1
0.12956394936843046,47,42,-1,1
0.5434678646576158,48,42,-1,1
0.3119860519929006,49,42,-1,1
0.4473171019342552,50,42,-1,1
2.4795691851995776,51,42,-1,1
0.8228208683529317,52,42,-1,1
0.5165752732994757,53,42,-1,1
0.1461830656166437,54,42,-1,1
0.18616192893518022,55,42,-1,1
0.04844110140159223,56,42,-1,1
0.6835578965048631,57,42,-1,1
-0.9122389550562275,58,42,-1,1
-1.1870943872244704,59,42,-1,1
0.278800954023894,60,42,-1,1
-0.7690955056869763,61,42,-1,1
-0.3115524091964027,62,42,-1,1
0.14069982501614686,63,42,-1,1
-0.44867196989413766,0,43,-1,1
-0.18404558464558304,1,43,-1,1
-0.0701711578501047,2,43,-1,1
0.41644562697311305,3,43,-1,1
-0.29643440967708373,4,43,-1,1
0.30358577304137385,5,43,-1,1
-0.28265782383013227,6,43,-1,1
-0.2752975748320159,7,43,-1,1
-0.21877148133687843,8,43,-1,1
-0.08523507465779637,9,43,-1,1
1.7332941943780846,10,43,-1,1
1.7916774704647898,11,43,-1,1
0.25885933573706804,12,43,-1,1
1.70289437768449,13,43,-1,1
0.3370336144514504,14,43,-1,1
0.016680682884977507,15,43,-1,1
-0.21359897173172496,16,43,-1,1
-0.23856426470923117,17,43,-1,1
2.7557111106473955,18,43,-1,1
2.68705360737156,19,43,-1,1
-1.4428425690879243,20,43,-1,1
-0.7574688501416944,21,43,-1,1
-1.914204155292737,22,43,-1,1
-1.0461609809734047,23,43,-1,1
-0.31613967642700797,24,43,-1,1
-0.15682025911249353,25,43,-1,1
1.842731376124319,26,43,-1,1
1.1930224406984056,27,43,-1,1
-2.1294615822646596,28,43,-1,1
1.7663965134150557,29,43,-1,1
-1.3230434552195716,30,43,-1,1
-0.5987971249690476,31,43,-1,1
-0.13816136983861646,32,43,-1,1
-0.4600780204694569,33,43,-1,1
1.4992120594050242,34,43,-1,1
1.3037180334795786,35,43,-1,1
-0.13131429658274316,36,43,-1,1
2.585428336015446,37,43,-1,1
2.6318740374202525,38,43,-1,1
0.017884210906681956,39,43,-1,1
0.3528388234982808,40,43,-1,1
-1.3754835842368007,41,43,-1,1
-1.1411441805644464,42,43,-1,1
-1.4053136583800223,43,43,-1,1
-0.5824262497083067,44,43,-1,1
2.241701315848485,45,43,-1,1
1.7522384104434008,46,43,-1,1
0.07634596578956901,47,43,-1,1
-0.02795885071727832,48,43,-1,1
0.017254305117173425,49,43,-1,1
-0.6929106085017565,50,43,-1,1
0.532843397930948,51,43,-1,1
1.767352516746947,52,43,-1,1
2.3925414509705476,53,43,-1,1
0.45311592973446124,54,43,-1,1
-0.20214601720999723,55,43,-1,1
-0.2997224446857614,56,43,-1,1
-0.24786902279628906,57,43,-1,1
0.48705825508882633,58,43,-1,1
1.47530850921726,59,43,-1,1
0.5511736151742302,60,43,-1,1
-0.12956424880938094,61,43,-1,1
-0.42451501869301805,62,43,-1,1
-0.3137294975255591,63,43,-1,1
-0.026009491468270907,0,44,-1,1
-0.11502343182038828,1,44,-1,1
0.5088684413947852,2,44,-1,1
0.3774871064236226,3,44,-1,1
-0.18617282007628005,4,44,-1,1
-1.1535064890886955,5,44,-1,1
-0.12854011815341201,6,44,-1,1
-0.14443278760806952,7,44,-1,1
0.3511566907752615,8,44,-1,1
-0.1606647004559302,9,44,-1,1
-0.7935735186239475,10,44,-1,1
1.5419432552754497,11,44,-1,1
-0.3212799584676103,12,44,-1,1
-1.2207252152937955,13,44,-1,1
-0.11216422029235089,14,44,-1,1
-0.5266380354943831,15,44,-1,1
0.1941775952046784,16,44,-1,1
-0.8785606197082007,17,44,-1,1
0.06275134931236286,18,44,-1,1
1.4657405092656517,19,44,-1,1
1.024471347379033,20,44,-1,1
-2.289439602733334,21,44,-1,1
-1.6616462730987889,22,44,-1,1
-0.8768013955712518,23,44,-1,1
0.54142159831008,24,44,-1,1
-2.74326752837812,25,44,-1,1
-4.601538529894818,26,44,-1,1
-4.99038216578003,27,44,-1,1
3.1096678924547705,28,44,-1,1
-4.535239954730509,29,44,-1,1
-2.3884919179550614,30,44,-1,1
0.266548929395858,31,44,-1,1
0.12520649913516185,32,44,-1,1
-1.1186533515938046,33,44,-1,1
-1.7816514886447883,34,44,-1,1
2.0781302663552834,35,44,-1,1
-0.01609582491196115,36,44,-1,1
-4.997851214244632,37,44,-1,1
2.0541226048519867,38,44,-1,1
1.1787660883932662,39,44,-1,1
-0.2946908321907929,40,44,-1,1
1.029351450722564,41,44,-1,1
0.2860968169765826,42,44,-1,1
2.522087820302956,43,44,-1,1
-1.1981096442315535,44,44,-1,1
-2.284135347909646,45,44,-1,1
2.4101549271897253,46,44,-1,1
0.9659755211351723,47,44,-1,1
-0.0695690212112143,48,44,-1,1
0.8902675015485086,49,44,-1,1
-0.45014568023027246,50,44,-1,1
-2.759285539953244,51,44,-1,1
-0.3124038438213059,52,44,-1,1
1.110331481656425,53,44,-1,1
-0.1423877295426427,54,44,-1,1
-0.0023743694803065986,55,44,-1,1
0.006381741107234484,56,44,-1,1
-0.06960681502587424,57,44,-1,1
-1.1783617226615084,58,44,-1,1
-1.8564729108792892,59,44,-1,1
-1.9216952268767258,60,44,-1,1
-0.9219665997375885,61,44,-1,1
-0.13375402537472036,62,44,-1,1
-0.2274389940482225,63,44,-1,1
-0.2080223734243013,0,45,-1,1
-0.276970359661669,1,45,-1,1
-0.1344643655033054,2,45,-1,1
-0.5684072384645168,3,45,-1,1
-0.7561789389893593,4,45,-1,1
-0.21762178687619546,5,45,-1,1
-0.0888616781219579,6,45,-1,1
-0.05393460451982079,7,45,-1,1
-0.2709821343472276,8,45,-1,1
0.7622048812394016,9,45,-1,1
1.163438992561053,10,45,-1,1
-0.4481424777739646,11,45,-1,1
-0.8596800187294289,12,45,-1,1
-0.25680526946117643,13,45,-1,1
-1.7461668444617535,14,45,-1,1
-0.5965534713018166,15,45,-1,1
0.3977093996844763,16,45,-1,1
0.8082530257759133,17,45,-1,1
-1.573183483342923,18,45,-1,1
-3.1624683045590807,19,45,-1,1
-1.2945721043095242,20,45,-1,1
1.4735385480101602,21,45,-1,1
0.1922168558074822,22,45,-1,1
-1.1690587314291343,23,45,-1,1
0.10754180154474587,24,45,-1,1
-2.36562895327151,25,45,-1,1
-1.1882738401765658,26,45,-1,1
2.0398884720320942,27,45,-1,1
4.769949505530929,28,45,-1,1
-1.240950899030062,29,45,-1,1
0.8905656699951832,30,45,-1,1
0.8009209004487894,31,45,-1,1
-0.16389165781081141,32,45,-1,1
1.1084374647735673,33,45,-1,1
-0.7917150819056608,34,45,-1,1
1.4904035309081087,35,45,-1,1
1.3021322460851625,36,45,-1,1
-2.027259796827034,37,45,-1,1
-1.499055241311046,38,45,-1,1
0.9428475691439299,39,45,-1,1
-0.062385556044511736,40,45,-1,1
-0.026500267770990456,41,45,-1,1
1.1813101516218534,42,45,-1,1
1.2791774828506892,43,45,-1,1
-4.144893625239971,44,45,-1,1
-0.008881499698715493,45,45,-1,1
0.7830150070029318,46,45,-1,1
0.03637452372259225,47,45,-1,1
0.07157508902778777,48,45,-1,1
-0.3262484414100108,49,45,-1,1
0.2952432418071507,50,45,-1,1
-0.8032046211192431,51,45,-1,1
-1.4915853535320616,52,45,-1,1
-0.45231281156794534,53,45,-1,1
-1.0585011062091787,54,45,-1,1
-0.3076751288072681,55,45,-1,1
-0.16227047228522212,56,45,-1,1
-0.17322335289255786,57,45,-1,1
-0.830284422669383,58,45,-1,1
-0.16538196752389653,59,45,-1,1
-0.20620979488948332,60,45,-1,1
-0.6426576203338596,61,45,-1,1
-0.028327251299600044,62,45,-1,1
0.12302978616366012,63,45,-1,1
0.009837706234504771,0,46,-1,1
-0.1467740555299404,1,46,-1,1
-0.09884259017661833,2,46,-1,1
0.16035722264488333,3,46,-1,1
-0.27728016158671287,4,46,-1,1
-0.04557883851099474,5,46,-1,1
-0.04688554976849157,6,46,-1,1
-0.2034589531182865,7,46,-1,1
-0.2683984651130966,8,46,-1,1
0.2408608743282281,9,46,-1,1
1.15026143348153,10,46,-1,1
-0.4192920858511222,11,46,-1,1
-1.5252312764353457,12,46,-1,1
-1.4910810465365227,13,46,-1,1
-1.0132213764078462,14,46,-1,1
0.1874007265777116,15,46,-1,1
-0.06879063753188036,16,46,-1,1
0.06588203274388095,17,46,-1,1
0.2048731279173343,18,46,-1,1
-2.463498046108912,19,46,-1,1
-1.753295222628712,20,46,-1,1
-0.506207973890616,21,46,-1,1
0.007132442747472057,22,46,-1,1
0.33773926267066007,23,46,-1,1
0.023989988896845636,24,46,-1,1
-0.9869779773762107,25,46,-1,1
-0.5666224868333656,26,46,-1,1
0.0509278396493046,27,46,-1,1
-3.455759607871342,28,46,-1,1
0.34386445400760296,29,46,-1,1
-0.8008893549941282,30,46,-1,1
0.14101889255461397,31,46,-1,1
-0.007938273078017526,32,46,-1,1
-0.6599634877967129,33,46,-1,1
0.9296001565191091,34,46,-1,1
-1.9614126090816484,35,46,-1,1
-2.02792606382761,36,46,-1,1
0.5489466030855749,37,46,-1,1
-1.1484879838602242,38,46,-1,1
-0.041360667739335076,39,46,-1,1
-0.26649236159055917,40,46,-1,1
0.5790205134827462,41,46,-1,1
-0.07396398558245862,42,46,-1,1
-1.439537010348282,43,46,-1,1
-0.7413105522333578,44,46,-1,1
-0.2731908066837794,45,46,-1,1
0.2576249816673762,46,46,-1,1
0.29684444216389705,47,46,-1,1
-0.03373069570394616,48,46,-1,1
-0.7984528549827296,49,46,-1,1
-1.116719334800306,50,46,-1,1
-0.6570629485062776,51,46,-1,1
-2.85702261942879,52,46,-1,1
-0.7348845620250893,53,46,-1,1
0.779939247890438,54,46,-1,1
-0.001822914158577321,55,46,-1,1
-0.0043557238631893504,56,46,-1,1
-0.11863463841588781,57,46,-1,1
-0.3571434731115443,58,46,-1,1
0.14096465228563393,59,46,-1,1
0.06565975531393828,60,46,-1,1
-0.33008686300400913,61,46,-1,1
-0.26125777248045323,62,46,-1,1
-0.22142012490155832,63,46,-1,1
-0.1558222203934493,0,47,-1,1
-0.291414522436577,1,47,-1,1
-0.07242716254635408,2,47,-1,1
1.1729072962114324,3,47,-1,1
2.328156317342368,4,47,-1,1
1.4734108136199655,5,47,-1,1
0.20462332091271423,6,47,-1,1
0.13548713399198217,7,47,-1,1
-0.08793255684525483,8,47,-1,1
0.615015060577695,9,47,-1,1
1.8148518536847598,10,47,-1,1
2.154181754055513,11,47,-1,1
2.8260617421486027,12,47,-1,1
0.6868222485968668,13,47,-1,1
-0.2076159771864103,14,47,-1,1
-0.13421351288655933,15,47,-1,1
0.015457845668613322,16,47,-1,1
1.730718628221339,17,47,-1,1
-0.9376150395900842,18,47,-1,1
-1.462275474945151,19,47,-1,1
-2.5389653229285387,20,47,-1,1
-1.818213385173054,21,47,-1,1
0.671860978279178,22,47,-1,1
-1.4231662502179698,23,47,-1,1
0.6714794399869515,24,47,-1,1
-1.7109144711528226,25,47,-1,1
-4.332859078769028,26,47,-1,1
-1.8021543477796147,27,47,-1,1
1.368839127436375,28,47,-1,1
-2.02537736044957,29,47,-1,1
1.6392873050767476,30,47,-1,1
-0.4587714263898341,31,47,-1,1
-0.2770218995989485,32,47,-1,1
-0.4906416762534701,33,47,-1,1
0.28908354580550166,34,47,-1,1
2.9507849272459756,35,47,-1,1
1.2304943715662044,36,47,-1,1
-1.2694443638875887,37,47,-1,1
2.089609479382192,38,47,-1,1
-0.9140131215172344,39,47,-1,1
0.1825805242326901,40,47,-1,1
-0.024479910631317922,41,47,-1,1
1.9090001752486618,42,47,-1,1
2.645532620202585,43,47,-1,1
-2.1537814802927677,44,47,-1,1
0.9943120243240415,45,47,-1,1
-0.22702409924418687,46,47,-1,1
-1.161154212835989,47,47,-1,1
-0.007529845676463837,48,47,-1,1
1.0780255767650144,49,47,-1,1
0.7822077345479017,50,47,-1,1
0.6947124819107429,51,47,-1,1
3.0601163446142814,52,47,-1,1
0.487637492213338,53,47,-1,1
-1.7278557498423854,54,47,-1,1
0.03747472798150339,55,47,-1,1
-0.010641220158041734,56,47,-1,1
-0.3639997632163134,57,47,-1,1
0.3193668951344147,58,47,-1,1
0.5283870014264279,59,47,-1,1
-1.5754748057332792,60,47,-1,1
-1.6696469840010595,61,47,-1,1
-0.23631243265343596,62,47,-1,1
0.048491258787542964,63,47,-1,1
0.19620922957422315,0,48,-1,1
-0.07665030053650786,1,48,-1,1
-0.5928832241471683,2,48,-1,1
-0.8499766611183649,3,48,-1,1
-0.5012886094294615,4,48,-1,1
-0.43934288986990894,5,48,-1,1
-0.26390638054752885,6,48,-1,1
0.12487037823078381,7,48,-1,1
0.09622237636638253,8,48,-1,1
0.7781358068190114,9,48,-1,1
0.8665675757900758,10,48,-1,1
-2.706048273631971,11,48,-1,1
0.8777033087766718,12,48,-1,1
3.4495950932098256,13,48,-1,1
0.8212104963801121,14,48,-1,1
0.5587707138254951,15,48,-1,1
0.20759518513543895,16,48,-1,1
0.29657505521372685,17,48,-1,1
-0.8045386548762385,18,48,-1,1
-3.491467123154841,19,48,-1,1
2.077627471052996,20,48,-1,1
1.6179555393500977,21,48,-1,1
-1.942970367325784,22,48,-1,1
0.598376957079645,23,48,-1,1
0.13162249866241618,24,48,-1,1
-0.3021790500377512,25,48,-1,1
-1.026900280080023,26,48,-1,1
-1.9225269562435314,27,48,-1,1
1.0867309531198692,28,48,-1,1
-2.3692060196184377,29,48,-1,1
-4.5702395318924065,30,48,-1,1
-0.9366759222374722,31,48,-1,1
0.31600605328103243,32,48,-1,1
0.03755695681822277,33,48,-1,1
-2.1652375487021827,34,48,-1,1
-0.5581350292313463,35,48,-1,1
0.6965914020482317,36,48,-1,1
1.9233140048751454,37,48,-1,1
1.8183290450526457,38,48,-1,1
-1.0593185678667252,39,48,-1,1
0.5777934135674652,40,48,-1,1
-0.2708053878333842,41,48,-1,1
-0.6338493551640337,42,48,-1,1
-2.170793415949095,43,48,-1,1
-0.5597534887821465,44,48,-1,1
1.7338585144392569,45,48,-1,1
-0.6395961667773364,46,48,-1,1
-0.7526134820372553,47,48,-1,1
0.6407997762286591,48,48,-1,1
0.4091881310117488,49,48,-1,1
-0.016294009678381693,50,48,-1,1
-0.9274865418441086,51,48,-1,1
1.1934402739607932,52,48,-1,1
2.178724029390104,53,48,-1,1
-0.9299807526424895,54,48,-1,1
0.131575534792612,55,48,-1,1
-0.00895023500070051,56,48,-1,1
0.45902077810605607,57,48,-1,1
-0.35771235616127606,58,48,-1,1
-0.7797281712463049,59,48,-1,1
-1.0671109050576923,60,48,-1,1
-1.4135907739553568,61,48,-1,1
-0.24053126938702563,62,48,-1,1
0.1031077992280678,63,48,-1,1
-0.09449668866061288,0,49,-1,1
-0.11047142827375613,1,49,-1,1
0.1784929569231979,2,49,-1,1
-0.16649837025554937,3,49,-1,1
-1.5760219946840661,4,49,-1,1
-0.9707144067217843,5,49,-1,1
-0.40629823107119944,6,49,-1,1
0.05850133127420516,7,49,-1,1
-0.08784889424506488,8,49,-1,1
-0.27613973108251105,9,49,-1,1
-1.6913171352940601,10,49,-1,1
-0.5125997500034031,11,49,-1,1
0.39523076238040245,12,49,-1,1
-1.0769541988488653,13,49,-1,1
-0.9719562829238587,14,49,-1,1
-0.19410820850416513,15,49,-1,1
-0.06112499184911451,16,49,-1,1
-1.6847018234507234,17,49,-1,1
-1.313392230472754,18,49,-1,1
2.6151034581557218,19,49,-1,1
1.953770782684158,20,49,-1,1
-0.7381251127691102,21,49,-1,1
-0.13463688383977906,22,49,-1,1
0.6307717567332364,23,49,-1,1
-0.6364351448193422,24,49,-1,1
0.7398244766492614,25,49,-1,1
2.834089610991698,26,49,-1,1
-2.4289306502245935,27,49,-1,1
-1.5342290496844648,28,49,-1,1
0.3795902982141252,29,49,-1,1
-0.8310318421333889,30,49,-1,1
-0.162583052151211,31,49,-1,1
0.16967654257782344,32,49,-1,1
-1.6135034523536251,33,49,-1,1
1.6165999303348981,34,49,-1,1
3.2237399683742254,35,49,-1,1
-1.7565196886224532,36,49,-1,1
-1.8781951106387917,37,49,-1,1
-3.2751112938512925,38,49,-1,1
0.2983482393136865,39,49,-1,1
