Weight,Input Node,Hidden Node,Output Node,Layer Index
0.18038184011066052,0,0,-1,1
0.026216427880666176,1,0,-1,1
0.4085791929694642,2,0,-1,1
0.7693824648935167,3,0,-1,1
0.02827546390506784,4,0,-1,1
0.05131843916047873,5,0,-1,1
0.013972189772267355,6,0,-1,1
-0.1409478400242753,7,0,-1,1
-0.0715113591587068,8,0,-1,1
-0.49893538649400493,9,0,-1,1
-0.10995369743855764,10,0,-1,1
-0.9247660075102586,11,0,-1,1
-0.9492376638353883,12,0,-1,1
-0.07859622370784099,13,0,-1,1
0.760447477970916,14,0,-1,1
0.30509481057011084,15,0,-1,1
0.16521054903982588,16,0,-1,1
-0.7367073189995819,17,0,-1,1
0.8096962383731644,18,0,-1,1
2.9919866406661857,19,0,-1,1
-0.4324659731671932,20,0,-1,1
-0.45922084166255467,21,0,-1,1
0.9760029794154382,22,0,-1,1
0.6694865324452243,23,0,-1,1
0.1541397274597493,24,0,-1,1
0.7376251899883094,25,0,-1,1
1.5546982366531001,26,0,-1,1
-0.49533853513188136,27,0,-1,1
-3.648778239282072,28,0,-1,1
0.1702586834738666,29,0,-1,1
0.6896083853902922,30,0,-1,1
0.0604552596620527,31,0,-1,1
0.09592092908841067,32,0,-1,1
0.3725713576429147,33,0,-1,1
2.8258822156415966,34,0,-1,1
0.2816596919790306,35,0,-1,1
0.37469625328413636,36,0,-1,1
1.1086217451778815,37,0,-1,1
-0.8490817830612866,38,0,-1,1
0.4551562581256595,39,0,-1,1
-0.48874448779595603,40,0,-1,1
-0.13210099763758132,41,0,-1,1
1.7225949098865116,42,0,-1,1
2.489274850313964,43,0,-1,1
1.276127436046149,44,0,-1,1
-0.1394695781956203,45,0,-1,1
0.40539165328200716,46,0,-1,1
0.4683450384316866,47,0,-1,1
-0.2016063159184431,48,0,-1,1
-0.8598017275232587,49,0,-1,1
-0.7789274133915605,50,0,-1,1
-0.8073376196186265,51,0,-1,1
0.5606770298202166,52,0,-1,1
0.6530919510467206,53,0,-1,1
0.9031337925277386,54,0,-1,1
0.023539029832911795,55,0,-1,1
-0.10970927028503208,56,0,-1,1
-0.5048136928682568,57,0,-1,1
-0.2460370098196156,58,0,-1,1
0.6975786192693865,59,0,-1,1
0.37191989605636033,60,0,-1,1
0.1556083851583553,61,0,-1,1
0.02293111669553822,62,0,-1,1
0.04982911597350192,63,0,-1,1
0.13480679645379334,0,1,-1,1
0.10996696447328119,1,1,-1,1
0.21501941187427398,2,1,-1,1
0.4718808735212328,3,1,-1,1
0.6643380780310306,4,1,-1,1
0.6321525542404804,5,1,-1,1
0.06629251312713057,6,1,-1,1
-0.0007552116813877171,7,1,-1,1
-0.0070939921077517055,8,1,-1,1
-0.03048217927246274,9,1,-1,1
0.543787903814964,10,1,-1,1
0.4902870105924261,11,1,-1,1
0.6227359916766374,12,1,-1,1
0.7491500592893227,13,1,-1,1
-0.7913738022611857,14,1,-1,1
0.016202915460381755,15,1,-1,1
0.42353459692706086,16,1,-1,1
-0.9508290140570619,17,1,-1,1
0.056829828722548485,18,1,-1,1
-0.8712293303379898,19,1,-1,1
-2.026732429446679,20,1,-1,1
-1.6959300082668316,21,1,-1,1
-2.159608862854124,22,1,-1,1
-0.26117378024286514,23,1,-1,1
0.16220087693484952,24,1,-1,1
-2.5251715745048724,25,1,-1,1
-3.058742682626148,26,1,-1,1
-2.7067106233995735,27,1,-1,1
-2.415212400377787,28,1,-1,1
-1.5856842653685612,29,1,-1,1
-1.0011105751845413,30,1,-1,1
-0.0715259506806675,31,1,-1,1
-0.12398927799919829,32,1,-1,1
-0.5310096386312511,33,1,-1,1
0.7620297519543202,34,1,-1,1
2.2877808659296437,35,1,-1,1
-0.42629791963445246,36,1,-1,1
-0.9262348433247262,37,1,-1,1
0.09544096686071983,38,1,-1,1
0.6949547286590704,39,1,-1,1
-0.1623323342928709,40,1,-1,1
0.8117947681970533,41,1,-1,1
2.2038415684640604,42,1,-1,1
2.6092258518926656,43,1,-1,1
-0.044221911981508696,44,1,-1,1
0.7809525747259819,45,1,-1,1
1.894143944191497,46,1,-1,1
0.8831610779670227,47,1,-1,1
-0.08389140899230185,48,1,-1,1
-0.1177405588365229,49,1,-1,1
0.4581412603048767,50,1,-1,1
-0.8292091142565056,51,1,-1,1
-1.7473269150103816,52,1,-1,1
0.2792821615088986,53,1,-1,1
1.2769648637782642,54,1,-1,1
0.2410179715396956,55,1,-1,1
0.09719415515219323,56,1,-1,1
0.06440786389736372,57,1,-1,1
-0.7228335562696595,58,1,-1,1
-1.374577864620801,59,1,-1,1
-1.2297411776346894,60,1,-1,1
-0.9686837030232276,61,1,-1,1
-0.12464914776816435,62,1,-1,1
0.11833863778605301,63,1,-1,1
-0.07212185685066404,0,2,-1,1
0.16298141152415013,1,2,-1,1
0.07470841286271673,2,2,-1,1
-0.35759815689175595,3,2,-1,1
-0.7854133191098802,4,2,-1,1
-0.9147516058894928,5,2,-1,1
-0.10311082204502978,6,2,-1,1
0.1792376500128061,7,2,-1,1
0.13481047639979982,8,2,-1,1
-0.7373177473206977,9,2,-1,1
-0.5924400285306803,10,2,-1,1
-0.42930612829358095,11,2,-1,1
-0.07938914207969551,12,2,-1,1
0.7810604967201445,13,2,-1,1
1.458184842481095,14,2,-1,1
0.23810284032755782,15,2,-1,1
0.27967297281361964,16,2,-1,1
-1.4773805211718825,17,2,-1,1
1.3595915622129682,18,2,-1,1
0.4332175969587966,19,2,-1,1
0.30336507295867743,20,2,-1,1
-0.08282510440061182,21,2,-1,1
0.47945735833859204,22,2,-1,1
1.0896820874552928,23,2,-1,1
-0.13525817501761853,24,2,-1,1
0.8464248865505154,25,2,-1,1
0.893707150100313,26,2,-1,1
-0.2701965550817683,27,2,-1,1
0.11433652569933032,28,2,-1,1
-1.7421226745557081,29,2,-1,1
0.7942383686765808,30,2,-1,1
0.28290597250826227,31,2,-1,1
-0.09949963705119647,32,2,-1,1
0.4283727254097649,33,2,-1,1
-0.5213291431111807,34,2,-1,1
0.23887892607881223,35,2,-1,1
-1.0712053878332362,36,2,-1,1
-1.9322433041345735,37,2,-1,1
-0.6189015751784661,38,2,-1,1
-0.03143052975738451,39,2,-1,1
-0.5462792972955032,40,2,-1,1
-0.5962014451666898,41,2,-1,1
1.8775133413125382,42,2,-1,1
0.9769316483658138,43,2,-1,1
-1.7012580455250588,44,2,-1,1
-1.0152608895609445,45,2,-1,1
-0.5096154918928529,46,2,-1,1
-0.006724494973679311,47,2,-1,1
-0.13763366889073614,48,2,-1,1
-0.5110153007456582,49,2,-1,1
0.970896059883393,50,2,-1,1
1.4851703740383593,51,2,-1,1
0.5362658343100001,52,2,-1,1
0.4832325695692234,53,2,-1,1
0.862960674436425,54,2,-1,1
0.058437509827212054,55,2,-1,1
-0.018314693642942532,56,2,-1,1
-0.11914675522699524,57,2,-1,1
-0.3245599780178086,58,2,-1,1
0.08632142539466683,59,2,-1,1
-0.27684617481875673,60,2,-1,1
0.2568394620574655,61,2,-1,1
-0.11964636696676856,62,2,-1,1
0.17297821808273686,63,2,-1,1
0.08873964677247159,0,3,-1,1
0.01490456745229361,1,3,-1,1
0.0733386170797328,2,3,-1,1
1.1122451666190438,3,3,-1,1
1.4836973754704668,4,3,-1,1
1.6411202653084316,5,3,-1,1
0.8317578254185348,6,3,-1,1
-0.14434447693135097,7,3,-1,1
0.17221928241928802,8,3,-1,1
-0.24554183591770018,9,3,-1,1
0.538073738244834,10,3,-1,1
0.00023493448394232278,11,3,-1,1
-0.022861329089559217,12,3,-1,1
0.06068204681929924,13,3,-1,1
-0.8743750265832122,14,3,-1,1
-0.18163985846489744,15,3,-1,1
-0.06618934910085265,16,3,-1,1
0.13825818338674495,17,3,-1,1
0.11674184959153201,18,3,-1,1
0.06426396392575692,19,3,-1,1
1.6133706604638107,20,3,-1,1
-2.1790633727758273,21,3,-1,1
-1.4444092882897752,22,3,-1,1
-0.15237388060591248,23,3,-1,1
-0.13191910114046715,24,3,-1,1
1.3908778717063968,25,3,-1,1
1.6357563411860825,26,3,-1,1
0.9348962401773907,27,3,-1,1
0.5761840603358275,28,3,-1,1
1.3368290158429317,29,3,-1,1
2.1671256847697835,30,3,-1,1
0.18247442235652903,31,3,-1,1
-0.3658509710859083,32,3,-1,1
-0.2774672139117876,33,3,-1,1
0.20491946933921415,34,3,-1,1
-1.1307553892701956,35,3,-1,1
-1.62987438440968,36,3,-1,1
0.30532736973210517,37,3,-1,1
0.6875856984324638,38,3,-1,1
-0.11882356260583872,39,3,-1,1
0.08873245147842838,40,3,-1,1
-1.6865826609691734,41,3,-1,1
-1.120193081355387,42,3,-1,1
-0.10436603718582209,43,3,-1,1
-0.12715098941453734,44,3,-1,1
1.1197260424506852,45,3,-1,1
-0.9932279243634404,46,3,-1,1
-0.5928338672056709,47,3,-1,1
-0.05435251337530135,48,3,-1,1
0.0013376674199515617,49,3,-1,1
-0.9200361404388507,50,3,-1,1
2.135331198005363,51,3,-1,1
1.9488912140780659,52,3,-1,1
-0.8031845446059156,53,3,-1,1
-1.1863360607249975,54,3,-1,1
-0.027723754008112597,55,3,-1,1
-0.07830769076507345,56,3,-1,1
0.20305446437995672,57,3,-1,1
0.9879154209189585,58,3,-1,1
1.840520601968806,59,3,-1,1
0.7581660691004869,60,3,-1,1
0.375350267101112,61,3,-1,1
0.04192196747257672,62,3,-1,1
0.06254865589037832,63,3,-1,1
0.12488279082946381,0,4,-1,1
0.050966337492521024,1,4,-1,1
-0.35508643567536313,2,4,-1,1
0.13164251003454058,3,4,-1,1
0.21795425301996782,4,4,-1,1
-0.11819107219691738,5,4,-1,1
0.028054972220239907,6,4,-1,1
-0.040975559546137665,7,4,-1,1
-0.002827949216487053,8,4,-1,1
0.3958814967696848,9,4,-1,1
0.5460605313199672,10,4,-1,1
1.5419845254113214,11,4,-1,1
-0.5876435261311197,12,4,-1,1
-1.2225842605141901,13,4,-1,1
-0.18174956309401477,14,4,-1,1
-0.24368470276431425,15,4,-1,1
0.45392031751023426,16,4,-1,1
0.40344885456058455,17,4,-1,1
-1.107131239807116,18,4,-1,1
-0.6703587751461905,19,4,-1,1
1.9853678225063858,20,4,-1,1
1.2511502852407348,21,4,-1,1
-0.9171714191913803,22,4,-1,1
-1.2698307893194312,23,4,-1,1
0.48365152076334894,24,4,-1,1
0.3472418228272287,25,4,-1,1
-1.0522014861587956,26,4,-1,1
-1.3304626454106476,27,4,-1,1
5.19864196230855,28,4,-1,1
1.2638748075092507,29,4,-1,1
0.5144333725539563,30,4,-1,1
-0.9389051292152466,31,4,-1,1
0.23172761770309627,32,4,-1,1
0.4083791377288951,33,4,-1,1
-2.7288290987544013,34,4,-1,1
-0.8566706380067364,35,4,-1,1
1.5588882803638109,36,4,-1,1
0.05655852800551793,37,4,-1,1
-0.6478457759663393,38,4,-1,1
-0.3512583940130307,39,4,-1,1
0.10213627893479481,40,4,-1,1
-1.0602499047548808,41,4,-1,1
-4.074091568437527,42,4,-1,1
-2.532988207321531,43,4,-1,1
-2.134217062195776,44,4,-1,1
-1.3623380970992547,45,4,-1,1
-1.030940707884026,46,4,-1,1
-0.586279630517823,47,4,-1,1
0.004920064296599204,48,4,-1,1
1.48227590055602,49,4,-1,1
0.3923747843531562,50,4,-1,1
-1.3821878457274308,51,4,-1,1
0.28193104723243634,52,4,-1,1
-0.03166482384995139,53,4,-1,1
-0.7742243280253649,54,4,-1,1
0.25193794754093235,55,4,-1,1
-0.1090869016923696,56,4,-1,1
0.4400838458265474,57,4,-1,1
1.5016564825116172,58,4,-1,1
1.6040740766815762,59,4,-1,1
0.4258068398058739,60,4,-1,1
0.8647575856994667,61,4,-1,1
0.32150735194271046,62,4,-1,1
-0.06523987982119576,63,4,-1,1
-0.12527949054123752,0,5,-1,1
0.09653288183165946,1,5,-1,1
-0.08765390664895804,2,5,-1,1
0.07325911241334847,3,5,-1,1
0.5793226698504093,4,5,-1,1
0.35248152197155214,5,5,-1,1
0.2680353836293338,6,5,-1,1
-0.05652496859526212,7,5,-1,1
0.02621486642806459,8,5,-1,1
-0.23744038895310007,9,5,-1,1
-0.4432442723113545,10,5,-1,1
-1.080179673936616,11,5,-1,1
-1.6456820035430058,12,5,-1,1
-0.3758142731147289,13,5,-1,1
0.25849612315443504,14,5,-1,1
0.6564238285171923,15,5,-1,1
-0.10689186764364837,16,5,-1,1
0.6175347707045142,17,5,-1,1
1.0683650714126547,18,5,-1,1
1.2767940188543871,19,5,-1,1
0.10045596307972632,20,5,-1,1
-1.2580797603182896,21,5,-1,1
0.04093288136440704,22,5,-1,1
0.40502252029031566,23,5,-1,1
-0.08384512860445013,24,5,-1,1
1.5153826095494105,25,5,-1,1
1.7765383515349518,26,5,-1,1
1.4707363021562236,27,5,-1,1
4.382883721307047,28,5,-1,1
0.22313284856802976,29,5,-1,1
0.26941639018388325,30,5,-1,1
-0.44989477227997016,31,5,-1,1
0.4023829307494144,32,5,-1,1
-0.12651585912746408,33,5,-1,1
-0.5073142190306529,34,5,-1,1
0.8565843913340798,35,5,-1,1
1.4120803815549334,36,5,-1,1
1.5116101778775781,37,5,-1,1
2.206830735557904,38,5,-1,1
-0.5860137925251246,39,5,-1,1
0.34270349547139595,40,5,-1,1
-0.5346191918089813,41,5,-1,1
-0.6401067039528994,42,5,-1,1
-0.19466410518354713,43,5,-1,1
-0.013772061484000087,44,5,-1,1
0.43179439780124906,45,5,-1,1
-0.5524872926731486,46,5,-1,1
-0.5786726082162473,47,5,-1,1
-0.2752948808573654,48,5,-1,1
0.7238963371757157,49,5,-1,1
-0.5775251260453135,50,5,-1,1
-1.590555471288636,51,5,-1,1
-0.335881532795928,52,5,-1,1
-1.5328825566841735,53,5,-1,1
-1.3611062530134497,54,5,-1,1
-0.08864013916983712,55,5,-1,1
0.16538398959469253,56,5,-1,1
0.45094322123487374,57,5,-1,1
1.2251074238705002,58,5,-1,1
1.2866403329298906,59,5,-1,1
0.24348493547935465,60,5,-1,1
0.33057154877201167,61,5,-1,1
0.2066368515521161,62,5,-1,1
0.0654446857671947,63,5,-1,1
-0.13992244348734267,0,6,-1,1
-0.2109938392139448,1,6,-1,1
-0.1434124923516899,2,6,-1,1
-0.19040986594977072,3,6,-1,1
0.044637305561767496,4,6,-1,1
-0.3613681426015687,5,6,-1,1
-0.21490485915009944,6,6,-1,1
-0.13834809493127645,7,6,-1,1
0.03813244754169817,8,6,-1,1
-0.08756894819353098,9,6,-1,1
0.04910881030616153,10,6,-1,1
0.41333016288204666,11,6,-1,1
0.46715622688731734,12,6,-1,1
0.06902445841023833,13,6,-1,1
-0.3420829760652417,14,6,-1,1
0.06264266473179149,15,6,-1,1
0.040496174093118835,16,6,-1,1
0.3300045071221437,17,6,-1,1
-0.08992415854813006,18,6,-1,1
-0.5264080342549411,19,6,-1,1
-0.09644828304484633,20,6,-1,1
0.6143287795675887,21,6,-1,1
0.3837217800979432,22,6,-1,1
-0.18202988286412808,23,6,-1,1
0.3675063827574288,24,6,-1,1
0.05623661841256274,25,6,-1,1
-1.156994138291245,26,6,-1,1
-0.8859679661233303,27,6,-1,1
0.3102980377542058,28,6,-1,1
0.1529899627806049,29,6,-1,1
0.194026873559381,30,6,-1,1
0.27859838187205377,31,6,-1,1
0.12274071207915022,32,6,-1,1
-0.22290848685478934,33,6,-1,1
-0.45931206579749156,34,6,-1,1
0.5288319615001252,35,6,-1,1
0.3001358419119873,36,6,-1,1
0.4174302193027773,37,6,-1,1
0.061582224634979886,38,6,-1,1
-0.29243091567489204,39,6,-1,1
0.019141933159009417,40,6,-1,1
0.040642532516219694,41,6,-1,1
0.542227691721305,42,6,-1,1
0.911096339525692,43,6,-1,1
-0.7814726758704256,44,6,-1,1
-0.6166391521850416,45,6,-1,1
-0.2890605635614596,46,6,-1,1
0.09855252044790236,47,6,-1,1
0.18742410016015662,48,6,-1,1
0.43105039202236795,49,6,-1,1
-0.20015065413948852,50,6,-1,1
-0.7223855170623288,51,6,-1,1
-1.3364374881476946,52,6,-1,1
-0.6214461621889062,53,6,-1,1
-0.16690534277626362,54,6,-1,1
0.15902150884144542,55,6,-1,1
0.002335720734329506,56,6,-1,1
0.054479527359310276,57,6,-1,1
0.3916415691734054,58,6,-1,1
-0.0877303661352313,59,6,-1,1
0.33734894950423533,60,6,-1,1
0.28313421686158186,61,6,-1,1
-0.1828782199062468,62,6,-1,1
-0.10598971737920458,63,6,-1,1
-0.035606954525283764,0,7,-1,1
0.09455196222053112,1,7,-1,1
0.13591804518882208,2,7,-1,1
-0.2516297460542548,3,7,-1,1
1.1770147227874859,4,7,-1,1
0.97919827747177,5,7,-1,1
0.014484841233691367,6,7,-1,1
0.11628141651291235,7,7,-1,1
-0.15234856238991862,8,7,-1,1
0.2908051987098171,9,7,-1,1
0.7831273573587338,10,7,-1,1
0.14564711560979401,11,7,-1,1
-1.4104872110251698,12,7,-1,1
-0.2923076869941494,13,7,-1,1
0.7980089071279673,14,7,-1,1
0.4781339340100073,15,7,-1,1
0.020559806194926124,16,7,-1,1
-0.13991037927174732,17,7,-1,1
-2.60261575411702,18,7,-1,1
-2.5366467566086044,19,7,-1,1
-1.7825617430643597,20,7,-1,1
-2.077486997236031,21,7,-1,1
-0.4444049991359789,22,7,-1,1
0.7045134555492066,23,7,-1,1
0.024359840455577594,24,7,-1,1
-1.2960978252354936,25,7,-1,1
0.35397500253204106,26,7,-1,1
1.4909615250816262,27,7,-1,1
0.243737467100987,28,7,-1,1
-1.9858356344004624,29,7,-1,1
-1.3850954471718775,30,7,-1,1
0.013230689133164454,31,7,-1,1
0.142436831203841,32,7,-1,1
1.2183912928988445,33,7,-1,1
1.8815982086810072,34,7,-1,1
2.7396001881963095,35,7,-1,1
1.0184112171709396,36,7,-1,1
-0.06405990418070827,37,7,-1,1
2.1205296906153976,38,7,-1,1
-0.13960842846591529,39,7,-1,1
0.35460188874309,40,7,-1,1
0.5332683440945368,41,7,-1,1
-2.368079686566917,42,7,-1,1
-0.663140844453415,43,7,-1,1
1.0033995709251682,44,7,-1,1
1.3654776886009183,45,7,-1,1
0.33238018992443924,46,7,-1,1
-0.21875026284793359,47,7,-1,1
0.45483354426709044,48,7,-1,1
0.3171504541464111,49,7,-1,1
0.3647457909745713,50,7,-1,1
-0.6378981934814231,51,7,-1,1
-0.15174519768345276,52,7,-1,1
-0.045665011635080716,53,7,-1,1
-0.6749040288525461,54,7,-1,1
0.3127134697699194,55,7,-1,1
-0.10454327562573132,56,7,-1,1
0.13413254307079148,57,7,-1,1
-0.5813262299086892,58,7,-1,1
-1.0452040687929278,59,7,-1,1
-1.6072855765216827,60,7,-1,1
-0.8212457510970314,61,7,-1,1
-0.020320605964954424,62,7,-1,1
-0.01657744135188687,63,7,-1,1
-0.008309220914160599,0,8,-1,1
0.15327303138560167,1,8,-1,1
-0.3291892701725712,2,8,-1,1
-0.4023024404946829,3,8,-1,1
-0.7363363354527042,4,8,-1,1
-0.3876900056450116,5,8,-1,1
-0.08687131209180017,6,8,-1,1
-0.16225957625893112,7,8,-1,1
-0.14801120169149573,8,8,-1,1
-0.49047484059603724,9,8,-1,1
-0.5872466884477234,10,8,-1,1
-2.026161244072244,11,8,-1,1
-1.3618924842727294,12,8,-1,1
-0.29678776918232147,13,8,-1,1
1.0321031881474245,14,8,-1,1
0.5674697581400667,15,8,-1,1
-0.13687832466993602,16,8,-1,1
-0.16818508979735736,17,8,-1,1
1.6266923883353224,18,8,-1,1
2.1091762473792905,19,8,-1,1
-1.626862872608295,20,8,-1,1
-0.19812764631430274,21,8,-1,1
2.112866469790442,22,8,-1,1
1.4263418838354747,23,8,-1,1
0.25760800181610555,24,8,-1,1
0.7113814368284731,25,8,-1,1
2.9141384178301717,26,8,-1,1
2.2774715022868115,27,8,-1,1
1.0015098817008525,28,8,-1,1
0.12106715429029251,29,8,-1,1
-0.6957310573422009,30,8,-1,1
-0.3992332089494988,31,8,-1,1
0.24349924562751749,32,8,-1,1
-1.2584531253235998,33,8,-1,1
-1.1806527504451247,34,8,-1,1
1.4028404481848815,35,8,-1,1
1.6908687514700875,36,8,-1,1
-0.7365225754644367,37,8,-1,1
-1.105491145577219,38,8,-1,1
-0.6400588913933899,39,8,-1,1
0.2660019827856234,40,8,-1,1
-0.6472941582900236,41,8,-1,1
-1.6221408610371657,42,8,-1,1
-2.775509751169293,43,8,-1,1
-0.827431565325132,44,8,-1,1
-2.791894669087687,45,8,-1,1
-0.5117103304729432,46,8,-1,1
-0.024514087156568495,47,8,-1,1
0.17549136562447362,48,8,-1,1
-0.746812502509372,49,8,-1,1
-0.6930859108428157,50,8,-1,1
-0.16087017457619524,51,8,-1,1
0.04376697193678584,52,8,-1,1
0.10523352390486795,53,8,-1,1
0.19646915927335076,54,8,-1,1
-0.06528635389321363,55,8,-1,1
0.041676969650995946,56,8,-1,1
-0.1143894412227856,57,8,-1,1
0.44887142792160717,58,8,-1,1
1.8160747059498428,59,8,-1,1
1.0910458159079306,60,8,-1,1
0.40126670908537404,61,8,-1,1
-0.22189364161882286,62,8,-1,1
0.14887120828717565,63,8,-1,1
0.17690894742710753,0,9,-1,1
0.01525650590818931,1,9,-1,1
0.04674077564871701,2,9,-1,1
0.12000651289176081,3,9,-1,1
-0.010160868661045734,4,9,-1,1
0.012086170740785716,5,9,-1,1
-0.0519344213788043,6,9,-1,1
-0.028821262737877988,7,9,-1,1
0.14459088304292483,8,9,-1,1
0.021408701764221584,9,9,-1,1
0.18127235042173168,10,9,-1,1
-0.18396231096162502,11,9,-1,1
-0.32185032483200743,12,9,-1,1
-0.5766899461239714,13,9,-1,1
-0.0661067637847221,14,9,-1,1
0.022653195156105175,15,9,-1,1
0.05404335763844177,16,9,-1,1
-0.0076592771560577535,17,9,-1,1
0.0423624418109477,18,9,-1,1
-1.0530106519545577,19,9,-1,1
-1.1548367037656762,20,9,-1,1
-0.5676979128263945,21,9,-1,1
0.24365612484133428,22,9,-1,1
0.19589640500115238,23,9,-1,1
-0.2821979631141442,24,9,-1,1
-0.2117904233411227,25,9,-1,1
-0.2750278662187356,26,9,-1,1
-0.5897640463393847,27,9,-1,1
-1.364687579401162,28,9,-1,1
-0.34678777556137386,29,9,-1,1
-0.40621055765491565,30,9,-1,1
-0.06026735118405603,31,9,-1,1
-0.06096036516870031,32,9,-1,1
-0.3776415560435458,33,9,-1,1
-0.18856567023485227,34,9,-1,1
-0.998304210167817,35,9,-1,1
-1.485156025029328,36,9,-1,1
-0.3815972659977375,37,9,-1,1
-0.4276845428794247,38,9,-1,1
-0.3297339006982636,39,9,-1,1
-0.09942231887388712,40,9,-1,1
-0.1533742254506111,41,9,-1,1
-0.03020566573897075,42,9,-1,1
-0.8684356759136496,43,9,-1,1
-1.2184945346853253,44,9,-1,1
-0.3987094526525042,45,9,-1,1
-0.1371069874285119,46,9,-1,1
0.11980399288246327,47,9,-1,1
0.14282796868844247,48,9,-1,1
-0.1032681179058357,49,9,-1,1
-0.21604681259264844,50,9,-1,1
-0.8672439437767597,51,9,-1,1
-1.401878083459491,52,9,-1,1
-0.27885984115189194,53,9,-1,1
0.13788402753583276,54,9,-1,1
-0.18827026745232062,55,9,-1,1
0.024632199803416917,56,9,-1,1
0.10352461428572256,57,9,-1,1
0.06568265573812251,58,9,-1,1
-0.014541352992888622,59,9,-1,1
0.3403880675287209,60,9,-1,1
0.23182953018437813,61,9,-1,1
0.2545820590883066,62,9,-1,1
0.08493409535431239,63,9,-1,1
0.08044389694335018,0,10,-1,1
0.20902596137007004,1,10,-1,1
-0.6581110324215973,2,10,-1,1
-0.28087389772388693,3,10,-1,1
0.658648051601181,4,10,-1,1
0.255029419649372,5,10,-1,1
-0.18855404104141227,6,10,-1,1
0.1238948430675237,7,10,-1,1
-0.22732663875840045,8,10,-1,1
0.17505523092537129,9,10,-1,1
1.2290499434537892,10,10,-1,1
-0.08799443604743094,11,10,-1,1
-3.407320771707952,12,10,-1,1
-1.062929300232754,13,10,-1,1
1.02191792611855,14,10,-1,1
0.25560261858376615,15,10,-1,1
0.07795314042153645,16,10,-1,1
1.4288281991458704,17,10,-1,1
1.31068428244826,18,10,-1,1
-1.0101783886826021,19,10,-1,1
-2.8759666165571525,20,10,-1,1
1.1319842510168772,21,10,-1,1
-0.26478992389422584,22,10,-1,1
-0.16322367387286707,23,10,-1,1
0.3616894171372579,24,10,-1,1
-0.3119381882839724,25,10,-1,1
-1.47045604324215,26,10,-1,1
-2.4337593877478563,27,10,-1,1
2.0637225275008264,28,10,-1,1
0.36896126114480965,29,10,-1,1
-1.2767360040739908,30,10,-1,1
0.21730761420603767,31,10,-1,1
-0.32618506738854297,32,10,-1,1
1.1403620728119097,33,10,-1,1
-1.3601236470019118,34,10,-1,1
-0.9495983084797333,35,10,-1,1
2.808248147172319,36,10,-1,1
0.5799073245928777,37,10,-1,1
1.2909417606998452,38,10,-1,1
-0.13239179969742024,39,10,-1,1
-0.051617864722391646,40,10,-1,1
-0.31168522063990717,41,10,-1,1
-1.9263309778486009,42,10,-1,1
1.592631754445868,43,10,-1,1
1.5466111453906235,44,10,-1,1
-1.4479398426506644,45,10,-1,1
-0.2878736366054249,46,10,-1,1
-0.010023690403924021,47,10,-1,1
-0.13034938273522703,48,10,-1,1
0.12036931075871476,49,10,-1,1
0.08658265145237284,50,10,-1,1
-0.8490928194906238,51,10,-1,1
0.7812278055609541,52,10,-1,1
0.02084242397493719,53,10,-1,1
0.2307678348918931,54,10,-1,1
0.02569343071390728,55,10,-1,1
0.2721020094314152,56,10,-1,1
-0.10908169513171682,57,10,-1,1
-0.3525592952189723,58,10,-1,1
-0.4670660906369234,59,10,-1,1
-1.698453031097466,60,10,-1,1
-1.607740363663174,61,10,-1,1
-0.016549512694903065,62,10,-1,1
0.26298940783448005,63,10,-1,1
0.08384317807304495,0,11,-1,1
0.07887495420394477,1,11,-1,1
0.00832671085284838,2,11,-1,1
0.12639033188355933,3,11,-1,1
0.19976093577860105,4,11,-1,1
-0.03089881342028903,5,11,-1,1
0.12547814574446145,6,11,-1,1
0.030564708417162415,7,11,-1,1
0.2315993813772667,8,11,-1,1
0.2126856946513347,9,11,-1,1
-0.8747162601536915,10,11,-1,1
-1.50445096969575,11,11,-1,1
-2.3160930512886813,12,11,-1,1
-1.8311006976717272,13,11,-1,1
-0.08862915931025298,14,11,-1,1
-0.10585551090047791,15,11,-1,1
0.010480668230825135,16,11,-1,1
-0.11160898613007707,17,11,-1,1
-1.36013724537938,18,11,-1,1
-2.431213626981692,19,11,-1,1
1.1022886480150247,20,11,-1,1
-0.5838099565444513,21,11,-1,1
0.5634757980993464,22,11,-1,1
0.5143811342951613,23,11,-1,1
-0.023253228429897736,24,11,-1,1
-0.13163189759145794,25,11,-1,1
0.7913773728532449,26,11,-1,1
0.5230740814691057,27,11,-1,1
2.5532804239433493,28,11,-1,1
-1.0360493343181214,29,11,-1,1
0.4039822616974496,30,11,-1,1
0.168092252987052,31,11,-1,1
-0.013156600860071956,32,11,-1,1
-0.07848281187655638,33,11,-1,1
0.08323307115483672,34,11,-1,1
0.24873205638238344,35,11,-1,1
1.2186037626127781,36,11,-1,1
-1.6963566134909078,37,11,-1,1
-0.4382641678211935,38,11,-1,1
-0.4375143425751633,39,11,-1,1
0.017960841361584,40,11,-1,1
-0.25480806964862107,41,11,-1,1
-1.7099804937403653,42,11,-1,1
1.93410855479587,43,11,-1,1
0.4450758404128059,44,11,-1,1
-2.3966123598664857,45,11,-1,1
-0.9790316938229864,46,11,-1,1
-0.22119089609819065,47,11,-1,1
0.11643463430947114,48,11,-1,1
-0.014368178138098646,49,11,-1,1
-1.156874378553779,50,11,-1,1
-1.8237701134986248,51,11,-1,1
-1.0538900396625723,52,11,-1,1
-0.7539749651823731,53,11,-1,1
-0.1858493078727438,54,11,-1,1
0.1524748174658749,55,11,-1,1
0.1747174320250686,56,11,-1,1
0.06913244589429797,57,11,-1,1
-0.12432094167524319,58,11,-1,1
-0.7827661763167707,59,11,-1,1
-0.30478942279328824,60,11,-1,1
-0.06538202986722927,61,11,-1,1
0.0749087217837416,62,11,-1,1
0.1055507683853438,63,11,-1,1
0.02587691245179348,0,12,-1,1
0.1475637829834936,1,12,-1,1
0.33306888438201093,2,12,-1,1
0.7909148677207127,3,12,-1,1
0.5029317241107667,4,12,-1,1
0.7521626470582643,5,12,-1,1
0.12456370835706906,6,12,-1,1
0.016380070849723607,7,12,-1,1
-0.04880097383641695,8,12,-1,1
0.24829053818920957,9,12,-1,1
-0.5067953084187833,10,12,-1,1
-0.25347986378105647,11,12,-1,1
0.9395109435845799,12,12,-1,1
-0.4174545274480501,13,12,-1,1
-1.5145126971774379,14,12,-1,1
-0.03689538954210126,15,12,-1,1
-0.1299365930742227,16,12,-1,1
0.03737360443982457,17,12,-1,1
-0.773813350629767,18,12,-1,1
2.096234903475951,19,12,-1,1
-0.40276639810816567,20,12,-1,1
-2.7421049108063267,21,12,-1,1
-1.8811650781911806,22,12,-1,1
-0.8409129744271456,23,12,-1,1
0.0748468775898404,24,12,-1,1
0.07763261681551382,25,12,-1,1
0.37891990401063197,26,12,-1,1
-0.4552398284829455,27,12,-1,1
-0.3965209602891489,28,12,-1,1
1.2809238896678197,29,12,-1,1
0.7350850295834728,30,12,-1,1
-0.6864087411717548,31,12,-1,1
0.09142158836560746,32,12,-1,1
-0.5133471708718533,33,12,-1,1
-0.5894828610746783,34,12,-1,1
-1.4073024098612865,35,12,-1,1
0.6736359942145471,36,12,-1,1
1.947605445446838,37,12,-1,1
-0.4760068517949707,38,12,-1,1
0.1750189407390275,39,12,-1,1
-0.14216449615142665,40,12,-1,1
0.25277723695303594,41,12,-1,1
-0.8631896385645319,42,12,-1,1
-1.0540558092399341,43,12,-1,1
1.520240236411578,44,12,-1,1
0.31308491282331474,45,12,-1,1
0.32860616253552405,46,12,-1,1
0.24426838761538383,47,12,-1,1
0.04354693107802351,48,12,-1,1
0.27896528332276865,49,12,-1,1
-0.9439908054190789,50,12,-1,1
-1.9738050964768596,51,12,-1,1
-1.1714897759983596,52,12,-1,1
-0.9890397505690596,53,12,-1,1
0.45640655229125215,54,12,-1,1
-0.039094114217934586,55,12,-1,1
-0.10062292073405829,56,12,-1,1
0.09350516451949292,57,12,-1,1
0.8402194139396036,58,12,-1,1
0.799402171028958,59,12,-1,1
0.7794464539601664,60,12,-1,1
1.046322118935963,61,12,-1,1
0.17816073874917387,62,12,-1,1
-0.05394266129492851,63,12,-1,1
-0.13649346947156688,0,13,-1,1
-0.0630324007306937,1,13,-1,1
-0.10225555878294341,2,13,-1,1
-0.5846221406938775,3,13,-1,1
-1.1312305667155433,4,13,-1,1
-0.9528834640547837,5,13,-1,1
-0.17480596248742425,6,13,-1,1
-0.2492888420543672,7,13,-1,1
-0.13925827903370822,8,13,-1,1
-0.38775219780247017,9,13,-1,1
-0.006091654906184535,10,13,-1,1
2.1312295725045725,11,13,-1,1
1.3117331018783314,12,13,-1,1
-0.038379443593639165,13,13,-1,1
0.5409582170062536,14,13,-1,1
0.6369934239990961,15,13,-1,1
-0.28753899613154027,16,13,-1,1
-0.6709101584662219,17,13,-1,1
0.3097798646507481,18,13,-1,1
-1.0263412307773836,19,13,-1,1
-0.779072597602811,20,13,-1,1
-0.2993208795227333,21,13,-1,1
1.9787609031530602,22,13,-1,1
1.0880368757314633,23,13,-1,1
-0.8943175394021059,24,13,-1,1
-0.6438182155876893,25,13,-1,1
-0.37260284133022,26,13,-1,1
1.7132946883523674,27,13,-1,1
2.8095982580298173,28,13,-1,1
-1.4132652744943657,29,13,-1,1
-1.5729327045955037,30,13,-1,1
0.1183577041730693,31,13,-1,1
0.13816696802458842,32,13,-1,1
-0.8193323212739185,33,13,-1,1
-3.9130574709010957,34,13,-1,1
0.4830113925224045,35,13,-1,1
-0.9463359842387821,36,13,-1,1
-2.6938734272255456,37,13,-1,1
-1.9028460756598782,38,13,-1,1
-0.39044617057092773,39,13,-1,1
-0.20637623933490307,40,13,-1,1
1.398369911266226,41,13,-1,1
-0.1531733888111088,42,13,-1,1
-2.7577282113343977,43,13,-1,1
-1.5286841767022898,44,13,-1,1
0.07797290834040291,45,13,-1,1
1.0118081975443758,46,13,-1,1
-0.18634192242722333,47,13,-1,1
-0.05290803918733997,48,13,-1,1
0.15541211639265992,49,13,-1,1
1.7714182962306986,50,13,-1,1
1.998143817292047,51,13,-1,1
1.3380376804357963,52,13,-1,1
1.336513146605729,53,13,-1,1
0.6752687352914258,54,13,-1,1
-0.2859584457270476,55,13,-1,1
-0.35439214666590046,56,13,-1,1
-0.6804345856962327,57,13,-1,1
-0.7033643205312088,58,13,-1,1
-0.0502642627975817,59,13,-1,1
0.10098499182533324,60,13,-1,1
-0.09897941860027608,61,13,-1,1
-0.21893524650694404,62,13,-1,1
0.05781666136805201,63,13,-1,1
-0.012461391322370943,0,14,-1,1
-0.32430316110799484,1,14,-1,1
-0.012332395344281648,2,14,-1,1
-0.24477253234141091,3,14,-1,1
-0.7608168705530571,4,14,-1,1
-0.4137095405089177,5,14,-1,1
-0.09345454639862445,6,14,-1,1
-0.06302622663605179,7,14,-1,1
-0.2130591277113249,8,14,-1,1
0.3923495154746307,9,14,-1,1
0.5645877786536067,10,14,-1,1
2.7360058157020672,11,14,-1,1
5.067655349335673,12,14,-1,1
3.123938813614075,13,14,-1,1
0.2570405154023575,14,14,-1,1
-0.2743037190190891,15,14,-1,1
-0.38632125064525835,16,14,-1,1
-0.869616971599203,17,14,-1,1
-0.409099883048771,18,14,-1,1
-1.1552293891220031,19,14,-1,1
-0.5656571095946079,20,14,-1,1
-2.0798096160754573,21,14,-1,1
-1.97743138570944,22,14,-1,1
-0.9656757110497307,23,14,-1,1
-0.6396649500849781,24,14,-1,1
-1.1486982729486142,25,14,-1,1
-1.5286128254493563,26,14,-1,1
-1.2850858549326334,27,14,-1,1
0.6575642224496749,28,14,-1,1
-1.3393348576202442,29,14,-1,1
0.7548392456202893,30,14,-1,1
-0.5037340970499312,31,14,-1,1
-0.23446507595786137,32,14,-1,1
1.0325305575277954,33,14,-1,1
0.7664055915499013,34,14,-1,1
5.5385820810592685,35,14,-1,1
2.946533392717999,36,14,-1,1
1.4351074347671584,37,14,-1,1
0.854974680604745,38,14,-1,1
0.18702009152733587,39,14,-1,1
0.2585203665394029,40,14,-1,1
-0.05838217129340096,41,14,-1,1
0.9472814605758828,42,14,-1,1
-0.08325486954802845,43,14,-1,1
1.0643033543538762,44,14,-1,1
1.3589733660282624,45,14,-1,1
0.6106997440772738,46,14,-1,1
-0.34511840187243337,47,14,-1,1
0.179491207218898,48,14,-1,1
0.7215101120556625,49,14,-1,1
0.20024150325248183,50,14,-1,1
0.5441626587304711,51,14,-1,1
1.2128474983295792,52,14,-1,1
0.18165694914747907,53,14,-1,1
0.4741882467970826,54,14,-1,1
0.16127206110380743,55,14,-1,1
-0.012419850185479272,56,14,-1,1
0.2020391074632528,57,14,-1,1
0.6303373825004782,58,14,-1,1
-0.5617580308948401,59,14,-1,1
-1.8116191395714092,60,14,-1,1
-0.4949866174912234,61,14,-1,1
0.08978851938832927,62,14,-1,1
0.022037152623884074,63,14,-1,1
0.05287403488316377,0,15,-1,1
0.058212198158690096,1,15,-1,1
0.14633432760310983,2,15,-1,1
-0.1833706742433145,3,15,-1,1
-0.2562531000776134,4,15,-1,1
0.4504539879157543,5,15,-1,1
0.23653195278328998,6,15,-1,1
-0.14652292341051362,7,15,-1,1
0.2424977017326271,8,15,-1,1
-0.1348697834082322,9,15,-1,1
-2.291171679646141,10,15,-1,1
-3.489726124908873,11,15,-1,1
-1.4813143330509329,12,15,-1,1
1.4411893951310857,13,15,-1,1
1.235412746363482,14,15,-1,1
0.08718633031054017,15,15,-1,1
0.10396192371222375,16,15,-1,1
-1.0197833823597764,17,15,-1,1
-4.265374258086157,18,15,-1,1
1.0414162906968363,19,15,-1,1
1.2166595607788668,20,15,-1,1
-0.6203449574975746,21,15,-1,1
0.4304107927991715,22,15,-1,1
0.6812679919850546,23,15,-1,1
0.22942876630786793,24,15,-1,1
-0.9173956746967995,25,15,-1,1
-1.4895953047951216,26,15,-1,1
2.5898161857998656,27,15,-1,1
0.9977360525786781,28,15,-1,1
-2.618995396659477,29,15,-1,1
-1.179577858616626,30,15,-1,1
-0.16072950553524118,31,15,-1,1
-0.10854281709208874,32,15,-1,1
-0.7138396478809768,33,15,-1,1
-1.3659805035522326,34,15,-1,1
0.3815328918654011,35,15,-1,1
-0.4158310911146714,36,15,-1,1
-1.4913064657613397,37,15,-1,1
-1.6357814244005335,38,15,-1,1
-0.773379684731146,39,15,-1,1
-0.6451356630815817,40,15,-1,1
-0.33107621042294333,41,15,-1,1
-0.2863747406107899,42,15,-1,1
0.7311397855344641,43,15,-1,1
-0.3056833266000064,44,15,-1,1
-1.1336553189671486,45,15,-1,1
-2.132630919068982,46,15,-1,1
-0.3791992172167512,47,15,-1,1
-0.14024098639348737,48,15,-1,1
-0.1294371043295828,49,15,-1,1
0.7214722761312078,50,15,-1,1
-0.379321091407961,51,15,-1,1
0.3183769187956798,52,15,-1,1
-0.9335438618797944,53,15,-1,1
-0.20945881785924217,54,15,-1,1
0.17173214433907671,55,15,-1,1
0.020654785265321166,56,15,-1,1
0.38900057822010575,57,15,-1,1
-0.007227409955067851,58,15,-1,1
-0.20949776839289883,59,15,-1,1
-0.32272171710657044,60,15,-1,1
0.2635421489642354,61,15,-1,1
0.22388683269398996,62,15,-1,1
0.2766627890354101,63,15,-1,1
-0.10584144089914597,0,16,-1,1
0.26060757465292217,1,16,-1,1
0.28013094791788484,2,16,-1,1
1.7004290792119825,3,16,-1,1
1.5760786847900248,4,16,-1,1
0.3913977871727956,5,16,-1,1
0.2071055913857521,6,16,-1,1
0.04115821502873573,7,16,-1,1
-0.11510610596556083,8,16,-1,1
-0.35108969663898826,9,16,-1,1
-0.22035954233842406,10,16,-1,1
-0.21529759901601375,11,16,-1,1
0.25697664942330745,12,16,-1,1
0.5966219034348725,13,16,-1,1
0.3832545686576951,14,16,-1,1
0.12271180884909963,15,16,-1,1
0.5190458876659245,16,16,-1,1
0.5211775764863649,17,16,-1,1
0.10499626782289583,18,16,-1,1
0.314647505523175,19,16,-1,1
-0.02486904873318253,20,16,-1,1
0.06281417167939539,21,16,-1,1
1.2200650253485805,22,16,-1,1
0.44697479239063925,23,16,-1,1
-0.00019219573398672685,24,16,-1,1
0.7078586801256703,25,16,-1,1
0.366828354893352,26,16,-1,1
-0.09876741069224439,27,16,-1,1
-0.11956537693570257,28,16,-1,1
-0.3901423286816854,29,16,-1,1
1.3772385290638776,30,16,-1,1
0.04951518318634926,31,16,-1,1
0.05372260608529699,32,16,-1,1
0.3449176359851689,33,16,-1,1
-3.0305951627840315,34,16,-1,1
-3.053938462981364,35,16,-1,1
-2.5021670043838684,36,16,-1,1
-1.2925573899994875,37,16,-1,1
1.2028167401667094,38,16,-1,1
0.33912884459313875,39,16,-1,1
-0.6044420298387815,40,16,-1,1
2.6162184283485996,41,16,-1,1
5.120493354398458,42,16,-1,1
3.294450531371022,43,16,-1,1
0.9833492482528461,44,16,-1,1
0.4919899390217507,45,16,-1,1
1.1695102233118675,46,16,-1,1
0.3708644649140466,47,16,-1,1
-0.13111878038569577,48,16,-1,1
-0.2798144619998748,49,16,-1,1
-0.04319884167089039,50,16,-1,1
0.8054065936828718,51,16,-1,1
0.9922800248754321,52,16,-1,1
0.01298767377247103,53,16,-1,1
0.051396986721395706,54,16,-1,1
-0.17181216516269363,55,16,-1,1
0.045705838412259794,56,16,-1,1
-0.4364302449322921,57,16,-1,1
-1.328250510630683,58,16,-1,1
-0.1001370307866772,59,16,-1,1
0.15530511445943965,60,16,-1,1
-0.040531569674575274,61,16,-1,1
-0.2270427169732734,62,16,-1,1
0.17162569099704303,63,16,-1,1
0.26368878123108647,0,17,-1,1
-0.10046121133749962,1,17,-1,1
-0.6909239673843146,2,17,-1,1
0.16386945948208953,3,17,-1,1
1.0738317802361563,4,17,-1,1
0.16835490802670225,5,17,-1,1
-0.5115553791483478,6,17,-1,1
0.1900076249283922,7,17,-1,1
-0.10841599888341868,8,17,-1,1
0.22989660923605057,9,17,-1,1
0.1785533260543312,10,17,-1,1
-0.1211646660603178,11,17,-1,1
-1.3579100686118173,12,17,-1,1
-0.48825960856590966,13,17,-1,1
0.135122957259072,14,17,-1,1
0.020739787235085037,15,17,-1,1
0.18895383926953227,16,17,-1,1
2.474444354193253,17,17,-1,1
0.5394900405009101,18,17,-1,1
2.0650553976284223,19,17,-1,1
4.013918788792093,20,17,-1,1
1.4032049230600743,21,17,-1,1
2.0779567570271094,22,17,-1,1
0.5265215090901851,23,17,-1,1
0.4559712579284741,24,17,-1,1
-0.003659335172164047,25,17,-1,1
-2.2577552945824553,26,17,-1,1
-1.2229493042229778,27,17,-1,1
0.542472510853748,28,17,-1,1
-1.9569307637491113,29,17,-1,1
-0.4716436396713466,30,17,-1,1
0.08614421858388395,31,17,-1,1
0.19943152271534834,32,17,-1,1
-1.4819605422538353,33,17,-1,1
-2.6058708572328415,34,17,-1,1
-3.6154019946561924,35,17,-1,1
-4.36306451363808,36,17,-1,1
0.23562678575670395,37,17,-1,1
1.5670464239216129,38,17,-1,1
-0.22035063742530367,39,17,-1,1
0.2392644701273416,40,17,-1,1
0.20160928034064107,41,17,-1,1
-1.6227912477564885,42,17,-1,1
0.5753568438061338,43,17,-1,1
-0.3505519376206273,44,17,-1,1
0.0595915911925802,45,17,-1,1
-0.14885690828459575,46,17,-1,1
-0.23378469986106437,47,17,-1,1
0.14234298064876838,48,17,-1,1
1.0039348001355517,49,17,-1,1
1.8102609677395332,50,17,-1,1
1.3676070627897408,51,17,-1,1
1.4777217603805402,52,17,-1,1
-0.4969682356555692,53,17,-1,1
-1.193605061422182,54,17,-1,1
0.09639510385040137,55,17,-1,1
-0.11499994601298048,56,17,-1,1
0.462480231717261,57,17,-1,1
0.3609340017079029,58,17,-1,1
0.5931770731094773,59,17,-1,1
0.9589352227333079,60,17,-1,1
-0.21491798863391848,61,17,-1,1
-0.22261027633057698,62,17,-1,1
0.300644016902536,63,17,-1,1
0.12196561586014901,0,18,-1,1
0.08973859357096729,1,18,-1,1
-0.2631550069306649,2,18,-1,1
-0.35656022613765115,3,18,-1,1
-0.5149556166935977,4,18,-1,1
-0.19246804914770874,5,18,-1,1
-0.0588423567877259,6,18,-1,1
-0.08406664180299325,7,18,-1,1
-0.003460183583835138,8,18,-1,1
0.1101468565101286,9,18,-1,1
0.35414947295686033,10,18,-1,1
-0.28782366075223353,11,18,-1,1
-0.027606558785725537,12,18,-1,1
-0.7264428230696245,13,18,-1,1
-0.7458983490372885,14,18,-1,1
0.0788966986228932,15,18,-1,1
-0.10671463937045608,16,18,-1,1
-0.15155677170326146,17,18,-1,1
0.1679375238469467,18,18,-1,1
-1.5463385222704686,19,18,-1,1
-2.132632438735483,20,18,-1,1
-0.8455534004491109,21,18,-1,1
-0.38124968833506945,22,18,-1,1
-0.12016389196457022,23,18,-1,1
-0.1349328906193203,24,18,-1,1
-0.6134897904055511,25,18,-1,1
-0.5171551277996747,26,18,-1,1
-0.09548452739220029,27,18,-1,1
-1.133924295274145,28,18,-1,1
-0.07757571262903654,29,18,-1,1
-0.682216190031963,30,18,-1,1
0.10324728529535089,31,18,-1,1
-0.012393472010130194,32,18,-1,1
-0.738489041744819,33,18,-1,1
-0.9665373569940778,34,18,-1,1
0.18656555271843586,35,18,-1,1
-0.723512058813298,36,18,-1,1
-0.3764113135274198,37,18,-1,1
-1.2016684536205944,38,18,-1,1
-0.13650305789864164,39,18,-1,1
-0.11256588619150591,40,18,-1,1
-0.532136898206976,41,18,-1,1
-1.429326551608979,42,18,-1,1
-2.6681233842356473,43,18,-1,1
-2.1288415762005224,44,18,-1,1
-0.2251478001151966,45,18,-1,1
-0.5478483267033478,46,18,-1,1
0.07429535129459867,47,18,-1,1
-0.04635475709826979,48,18,-1,1
0.1564714084775999,49,18,-1,1
-0.7881538674081959,50,18,-1,1
-0.34673446151240095,51,18,-1,1
-0.8665757027774343,52,18,-1,1
-0.053956005025759105,53,18,-1,1
0.011329444050244674,54,18,-1,1
-0.10699055388685401,55,18,-1,1
0.06789630911028018,56,18,-1,1
-0.028586455190317238,57,18,-1,1
0.21818457629430443,58,18,-1,1
0.3446682296666546,59,18,-1,1
-0.21284354940067504,60,18,-1,1
-0.21124844934908832,61,18,-1,1
0.016836771822156413,62,18,-1,1
-0.027285188146136785,63,18,-1,1
0.1747542361939836,0,19,-1,1
-0.1474132896214248,1,19,-1,1
0.08871103907900428,2,19,-1,1
0.1365483948286942,3,19,-1,1
0.836139568403294,4,19,-1,1
0.7151504383437967,5,19,-1,1
-0.09984023938716195,6,19,-1,1
-0.01227639173117934,7,19,-1,1
0.20498558295474456,8,19,-1,1
0.5103773402373694,9,19,-1,1
0.4054195271457374,10,19,-1,1
0.4606392615507857,11,19,-1,1
-0.14353012894373224,12,19,-1,1
-0.5844196209387722,13,19,-1,1
-1.0450323822196705,14,19,-1,1
-0.4774724484157088,15,19,-1,1
0.13906751672956583,16,19,-1,1
0.5728446727515032,17,19,-1,1
-0.750596236564551,18,19,-1,1
-1.663967518896468,19,19,-1,1
4.073546918289402,20,19,-1,1
2.454538091488692,21,19,-1,1
0.0718874544483083,22,19,-1,1
-0.766906397499613,23,19,-1,1
0.6713268539578074,24,19,-1,1
-1.5559447712362042,25,19,-1,1
-1.7177811668664384,26,19,-1,1
-2.706704126937453,27,19,-1,1
1.115022827465755,28,19,-1,1
1.7098097508698133,29,19,-1,1
-0.34757121719456807,30,19,-1,1
0.35093286046402894,31,19,-1,1
0.29616040771717383,32,19,-1,1
0.3545518949189333,33,19,-1,1
-0.16663841620057787,34,19,-1,1
-1.4586174797878528,35,19,-1,1
-0.23306262267956246,36,19,-1,1
-0.31538653705696673,37,19,-1,1
-0.09195925895876846,38,19,-1,1
1.0034665658359132,39,19,-1,1
0.2735942075886044,40,19,-1,1
1.6159943096374896,41,19,-1,1
-1.176348208637959,42,19,-1,1
0.383312500842194,43,19,-1,1
0.772524638630704,44,19,-1,1
0.4349763307200086,45,19,-1,1
0.6652686733754275,46,19,-1,1
0.21156727614737544,47,19,-1,1
0.029055740591393448,48,19,-1,1
0.8569295840089852,49,19,-1,1
0.864549770312279,50,19,-1,1
0.4477071031022468,51,19,-1,1
-1.2352710961124027,52,19,-1,1
-0.880190516191833,53,19,-1,1
0.04015759021127006,54,19,-1,1
0.26616825739098693,55,19,-1,1
-0.16964212191642591,56,19,-1,1
0.25537780099643687,57,19,-1,1
0.22087244870580705,58,19,-1,1
-0.448725719274939,59,19,-1,1
0.40692831588476125,60,19,-1,1
-0.17074698189400359,61,19,-1,1
0.049535025372297696,62,19,-1,1
0.093250869677589,63,19,-1,1
0.17101331037621056,0,20,-1,1
-0.03821294882807772,1,20,-1,1
-0.09038577368303477,2,20,-1,1
0.21798114906974828,3,20,-1,1
0.06965543284159896,4,20,-1,1
0.18145700891254643,5,20,-1,1
-0.13845091336811496,6,20,-1,1
0.24555261360215594,7,20,-1,1
-0.20281250647536941,8,20,-1,1
-0.21085990011231043,9,20,-1,1
0.0719100639201425,10,20,-1,1
-0.45465080489334014,11,20,-1,1
-2.2475108696982193,12,20,-1,1
-1.7163933660040345,13,20,-1,1
-0.5015471331982194,14,20,-1,1
0.2805171963016396,15,20,-1,1
-0.033395510282074777,16,20,-1,1
0.08191861470207536,17,20,-1,1
0.13698417520722586,18,20,-1,1
-1.540038857648341,19,20,-1,1
-0.9790498236609706,20,20,-1,1
0.19393386745285315,21,20,-1,1
1.2604603804691379,22,20,-1,1
0.8520898488696291,23,20,-1,1
0.15454536146042433,24,20,-1,1
-0.30779435972336017,25,20,-1,1
-0.06818762255670656,26,20,-1,1
-0.07274566145852288,27,20,-1,1
-1.3121435943721038,28,20,-1,1
-0.6378571001684246,29,20,-1,1
-0.3770495401211462,30,20,-1,1
0.31491490004680317,31,20,-1,1
-0.03343986179120129,32,20,-1,1
0.01865218193789629,33,20,-1,1
0.9209247720770816,34,20,-1,1
0.11824369810735685,35,20,-1,1
-0.0026152083469206245,36,20,-1,1
-0.4913553999531835,37,20,-1,1
-0.5592896435490377,38,20,-1,1
0.04092018301191357,39,20,-1,1
-0.09673972815441087,40,20,-1,1
1.0068902595735083,41,20,-1,1
0.15261262156343658,42,20,-1,1
-0.4533430675992495,43,20,-1,1
-0.29302578552489733,44,20,-1,1
-0.8366381018673296,45,20,-1,1
0.5982949400965606,46,20,-1,1
0.2774800044012133,47,20,-1,1
0.03774389850891559,48,20,-1,1
-0.4113815168721002,49,20,-1,1
-0.7506025222980489,50,20,-1,1
-1.1952522115244963,51,20,-1,1
-1.791460300457948,52,20,-1,1
-0.358848725342066,53,20,-1,1
0.22178278867175794,54,20,-1,1
-0.1349466869741824,55,20,-1,1
-0.04043454197315776,56,20,-1,1
-0.20656242883288872,57,20,-1,1
-0.2650773859213666,58,20,-1,1
-0.05480793607623662,59,20,-1,1
0.12731879236947236,60,20,-1,1
-0.04212341578923579,61,20,-1,1
-0.19668662262974598,62,20,-1,1
0.10980448366597989,63,20,-1,1
-0.12254631956814722,0,21,-1,1
-0.014559174497608747,1,21,-1,1
-0.07253833367822657,2,21,-1,1
0.16925541939971644,3,21,-1,1
0.4572261199323066,4,21,-1,1
0.197447202927652,5,21,-1,1
-0.13323871831011844,6,21,-1,1
-0.0634857094551908,7,21,-1,1
0.10905762120710145,8,21,-1,1
0.17974004058037807,9,21,-1,1
0.6075139108363168,10,21,-1,1
-0.3482628713649777,11,21,-1,1
-0.6757017416851063,12,21,-1,1
-0.5077458197277291,13,21,-1,1
-0.2945281617225722,14,21,-1,1
-0.09325652330642768,15,21,-1,1
-0.03656658413735802,16,21,-1,1
-0.1727376329906967,17,21,-1,1
0.04247681777860814,18,21,-1,1
-0.8258466756999256,19,21,-1,1
-1.263166440879056,20,21,-1,1
-0.8582197066255696,21,21,-1,1
-0.3589500281057455,22,21,-1,1
-0.2305779525742695,23,21,-1,1
-0.026510994048509946,24,21,-1,1
-0.45881634730585663,25,21,-1,1
-0.3798189605401023,26,21,-1,1
-0.46879497973891526,27,21,-1,1
-1.315266380890455,28,21,-1,1
-0.2707385965823168,29,21,-1,1
-0.10001303311274967,30,21,-1,1
-0.15146578214583012,31,21,-1,1
0.1439723819946117,32,21,-1,1
-0.21322907360076862,33,21,-1,1
-0.28789274570525875,34,21,-1,1
-0.981088941694662,35,21,-1,1
-1.1148037183163162,36,21,-1,1
-0.21116031352658163,37,21,-1,1
-0.023396787794856003,38,21,-1,1
-0.05811519823316931,39,21,-1,1
-0.06174939076739381,40,21,-1,1
-0.15617542297382048,41,21,-1,1
-0.5679934128236089,42,21,-1,1
-1.2927291153211684,43,21,-1,1
-1.3629560997460903,44,21,-1,1
-0.32854992569196867,45,21,-1,1
-0.2089900456044442,46,21,-1,1
-0.06952558531717205,47,21,-1,1
-0.08459156367972326,48,21,-1,1
0.011784977178996524,49,21,-1,1
-0.5839186527589231,50,21,-1,1
-0.6386549111713047,51,21,-1,1
-0.8999725057387141,52,21,-1,1
-0.565278875083339,53,21,-1,1
-0.050698963976350334,54,21,-1,1
-0.2592195786005495,55,21,-1,1
0.0038991180709014544,56,21,-1,1
0.1717108631508078,57,21,-1,1
0.25795329581844956,58,21,-1,1
0.27553394333831877,59,21,-1,1
-0.0034342854047828848,60,21,-1,1
-0.01215703356077606,61,21,-1,1
-0.0672537580472608,62,21,-1,1
-0.05483119289662748,63,21,-1,1
-0.007209540393480907,0,22,-1,1
-0.08990187298846547,1,22,-1,1
-0.06466018973814404,2,22,-1,1
-0.04397433314469634,3,22,-1,1
0.4381422362915255,4,22,-1,1
0.15844428226189644,5,22,-1,1
0.1559615996794268,6,22,-1,1
0.19655838439251627,7,22,-1,1
0.05825856109428657,8,22,-1,1
0.01735464932365479,9,22,-1,1
-0.428119100456281,10,22,-1,1
-0.13204374393735038,11,22,-1,1
-0.23553461127144204,12,22,-1,1
-0.3276390519586089,13,22,-1,1
0.06897817692239636,14,22,-1,1
-0.09983901973862386,15,22,-1,1
0.3306353860121128,16,22,-1,1
-0.2450592801560808,17,22,-1,1
-0.6224256199850753,18,22,-1,1
0.6813197976712733,19,22,-1,1
0.8872640905910323,20,22,-1,1
0.15301273381159408,21,22,-1,1
0.09904271217701201,22,22,-1,1
-0.13087116018796524,23,22,-1,1
0.15776228774268067,24,22,-1,1
0.004807897760220565,25,22,-1,1
0.7657694907195493,26,22,-1,1
0.8646274393858583,27,22,-1,1
2.573666415142823,28,22,-1,1
-0.20126081617944924,29,22,-1,1
0.6367977511575967,30,22,-1,1
0.37410377718189386,31,22,-1,1
0.09984089388026222,32,22,-1,1
-0.07934314231586477,33,22,-1,1
0.1991571349635912,34,22,-1,1
0.9325076101486695,35,22,-1,1
-0.06528532358518621,36,22,-1,1
-2.2663058137907943,37,22,-1,1
1.273257079160496,38,22,-1,1
-0.010240435812833616,39,22,-1,1
0.40144969268737857,40,22,-1,1
-0.9303541489535675,41,22,-1,1
-0.526055056272877,42,22,-1,1
1.2708978284079302,43,22,-1,1
-0.8032390497838728,44,22,-1,1
-0.4542281845448285,45,22,-1,1
-0.369227506222446,46,22,-1,1
-0.41085479669182384,47,22,-1,1
-0.08135824484037706,48,22,-1,1
-0.09660497220415831,49,22,-1,1
0.19812638612141928,50,22,-1,1
0.5787746312464025,51,22,-1,1
1.1515329023455245,52,22,-1,1
-0.2836521477130716,53,22,-1,1
-0.7213682087564176,54,22,-1,1
0.1730236394093329,55,22,-1,1
0.29087845576177396,56,22,-1,1
0.04685339783330019,57,22,-1,1
0.22048448480368324,58,22,-1,1
-0.36388000272465576,59,22,-1,1
0.1141216166968541,60,22,-1,1
-0.050575411326396334,61,22,-1,1
-0.03894528614067843,62,22,-1,1
0.04800444559391085,63,22,-1,1
-0.09477388829817736,0,23,-1,1
-0.248241821424579,1,23,-1,1
0.4226052890399714,2,23,-1,1
1.0655069971673943,3,23,-1,1
1.0119640763674267,4,23,-1,1
0.599458876219967,5,23,-1,1
0.31016923438825617,6,23,-1,1
0.07921685607444504,7,23,-1,1
-0.12992925437796793,8,23,-1,1
0.07674810081592427,9,23,-1,1
0.8309763942194578,10,23,-1,1
1.8844543124449835,11,23,-1,1
2.0362442594363586,12,23,-1,1
1.6384130365368388,13,23,-1,1
-0.07272360660766354,14,23,-1,1
-0.23465649292285534,15,23,-1,1
-0.3318038708151826,16,23,-1,1
0.4365392064181797,17,23,-1,1
-0.07288032674153691,18,23,-1,1
-0.5181982463961196,19,23,-1,1
-1.804199564220285,20,23,-1,1
-2.121496678670881,21,23,-1,1
0.30769237632492374,22,23,-1,1
-0.35474129475631166,23,23,-1,1
-0.19143051791757143,24,23,-1,1
-0.8820142580481702,25,23,-1,1
-1.7121934707624726,26,23,-1,1
0.06168196504589733,27,23,-1,1
-0.4522114032068867,28,23,-1,1
-1.437863670228641,29,23,-1,1
1.135254945453952,30,23,-1,1
0.2979691373703967,31,23,-1,1
-0.07092604155234955,32,23,-1,1
-0.4812945104424888,33,23,-1,1
-2.695012331131829,34,23,-1,1
1.1612880538263681,35,23,-1,1
-1.1905979482765556,36,23,-1,1
-1.9384731032185127,37,23,-1,1
1.2190772439026492,38,23,-1,1
0.7217511560329432,39,23,-1,1
0.21089391730490697,40,23,-1,1
1.9220057958621133,41,23,-1,1
2.185223798835668,42,23,-1,1
1.4667471285508398,43,23,-1,1
0.060145904688557995,44,23,-1,1
2.475469448635655,45,23,-1,1
2.5344239722227146,46,23,-1,1
0.2224996343768795,47,23,-1,1
0.14410513874187464,48,23,-1,1
1.1156935294292551,49,23,-1,1
1.82220163718892,50,23,-1,1
1.3521044761369347,51,23,-1,1
0.968822452247152,52,23,-1,1
0.7031616341504975,53,23,-1,1
0.2798196977559341,54,23,-1,1
-0.2982647699830791,55,23,-1,1
0.17433664443077482,56,23,-1,1
-0.4698365787770453,57,23,-1,1
-0.9638280443729383,58,23,-1,1
-0.7553240058320072,59,23,-1,1
-0.9806962173870001,60,23,-1,1
-0.3786061537657673,61,23,-1,1
-0.08877207823253988,62,23,-1,1
0.013195602902133481,63,23,-1,1
-0.10552598983038171,0,24,-1,1
-0.25966034414299516,1,24,-1,1
0.13607876247324335,2,24,-1,1
0.20008890473197502,3,24,-1,1
0.2110400149880415,4,24,-1,1
0.12016268054390969,5,24,-1,1
-0.0017886059289873035,6,24,-1,1
-0.12819630823804723,7,24,-1,1
-0.16737942124111457,8,24,-1,1
0.4287080330236086,9,24,-1,1
0.7264216032877672,10,24,-1,1
0.5536195009253133,11,24,-1,1
1.4056753344000186,12,24,-1,1
1.0603833101747266,13,24,-1,1
0.22312786547825816,14,24,-1,1
-0.17280400492826756,15,24,-1,1
-0.02533598644770758,16,24,-1,1
0.41698934456107833,17,24,-1,1
-0.48930454820441777,18,24,-1,1
1.7872778300195444,19,24,-1,1
0.26054927713035037,20,24,-1,1
-0.822410822097307,21,24,-1,1
-0.7158696514686542,22,24,-1,1
-1.039728028924392,23,24,-1,1
-0.006880626543816214,24,24,-1,1
0.06243687442686804,25,24,-1,1
-0.3545104831785314,26,24,-1,1
-0.5922559101310398,27,24,-1,1
0.5245122053798529,28,24,-1,1
1.0566031326912828,29,24,-1,1
0.43800254618961537,30,24,-1,1
-0.20606298536519208,31,24,-1,1
-0.23896404694142812,32,24,-1,1
0.43037586514617093,33,24,-1,1
0.381106797257414,34,24,-1,1
-0.5077089808508338,35,24,-1,1
0.08827776307574642,36,24,-1,1
0.6355507191214269,37,24,-1,1
1.2596162880624961,38,24,-1,1
0.09863349289612788,39,24,-1,1
0.1582006598473954,40,24,-1,1
-0.7016208300140441,41,24,-1,1
-0.4465636380175169,42,24,-1,1
-0.3191210186413446,43,24,-1,1
0.3498159667815964,44,24,-1,1
0.6072637256664779,45,24,-1,1
0.5916101673062407,46,24,-1,1
0.060257752555633474,47,24,-1,1
-0.0359282963760589,48,24,-1,1
0.6194387374588505,49,24,-1,1
0.3775220717065,50,24,-1,1
-0.05427590525805811,51,24,-1,1
0.4636859283906296,52,24,-1,1
-0.1260310717737066,53,24,-1,1
-0.3298443890459785,54,24,-1,1
-0.0021564947082697667,55,24,-1,1
-0.23248815206991283,56,24,-1,1
0.22965746650568775,57,24,-1,1
0.9310605620565184,58,24,-1,1
0.45876046419836336,59,24,-1,1
-0.411405211206225,60,24,-1,1
0.0009105288718439887,61,24,-1,1
0.16442243555310637,62,24,-1,1
0.0012125093197296016,63,24,-1,1
-0.10058307225389211,0,25,-1,1
0.09134688665001474,1,25,-1,1
-0.17335699074259062,2,25,-1,1
-0.07493181482484107,3,25,-1,1
0.1874454137066597,4,25,-1,1
0.3892699422689255,5,25,-1,1
-0.013466098691022941,6,25,-1,1
0.046287966765322916,7,25,-1,1
-0.24681168798424785,8,25,-1,1
0.11424000370536302,9,25,-1,1
1.0189608687199088,10,25,-1,1
1.1710372975780072,11,25,-1,1
0.11808372083848019,12,25,-1,1
0.5383255789363243,13,25,-1,1
0.19494099356213537,14,25,-1,1
0.2817715066628561,15,25,-1,1
-0.24262692065824415,16,25,-1,1
0.2788864918819521,17,25,-1,1
0.5442814401411099,18,25,-1,1
0.32822519648010706,19,25,-1,1
0.1633251498226402,20,25,-1,1
-1.1177118181012375,21,25,-1,1
-0.2485345050344322,22,25,-1,1
0.9936987963433314,23,25,-1,1
0.061394538707746985,24,25,-1,1
-0.7311109083733426,25,25,-1,1
-0.60059554697707,26,25,-1,1
0.805508404783046,27,25,-1,1
4.460800714774399,28,25,-1,1
-0.30000038998828427,29,25,-1,1
-2.491259169256583,30,25,-1,1
-0.1700893308105406,31,25,-1,1
-0.10637904794742366,32,25,-1,1
-1.0755548152391305,33,25,-1,1
-2.7955644179316947,34,25,-1,1
3.1142395342261926,35,25,-1,1
3.1500253339428212,36,25,-1,1
-2.1662966333499196,37,25,-1,1
-0.6360324111215208,38,25,-1,1
-0.44799386509280725,39,25,-1,1
0.16727407450613088,40,25,-1,1
0.931115487136445,41,25,-1,1
-1.4382787183833787,42,25,-1,1
1.5404868115772365,43,25,-1,1
0.7202184305385322,44,25,-1,1
-0.3248567725603734,45,25,-1,1
0.3867875594479934,46,25,-1,1
0.13033270815468645,47,25,-1,1
0.23810035566793697,48,25,-1,1
0.015860392510587244,49,25,-1,1
0.6216227396552547,50,25,-1,1
-0.2095984899726566,51,25,-1,1
0.35739671049642874,52,25,-1,1
1.0814193524750255,53,25,-1,1
0.6281463987761571,54,25,-1,1
0.23260920518581135,55,25,-1,1
0.07302821575090046,56,25,-1,1
0.13552330124167689,57,25,-1,1
0.21971880385453488,58,25,-1,1
0.6309089065567883,59,25,-1,1
0.38651538339564967,60,25,-1,1
0.08949168739802398,61,25,-1,1
0.1467420729870988,62,25,-1,1
0.013656554222377177,63,25,-1,1
-0.18349071708686282,0,26,-1,1
-0.019029269833251976,1,26,-1,1
-0.16844095948961807,2,26,-1,1
0.1395159122537672,3,26,-1,1
0.6556792956741271,4,26,-1,1
0.2487098963052353,5,26,-1,1
0.11006339291608741,6,26,-1,1
0.03709870531903247,7,26,-1,1
0.01601659161795267,8,26,-1,1
-0.1869394317925747,9,26,-1,1
-0.10054785406591435,10,26,-1,1
-1.2759262265265083,11,26,-1,1
-1.039162697522016,12,26,-1,1
0.4937507328398547,13,26,-1,1
0.41790720396670833,14,26,-1,1
0.1203301078429793,15,26,-1,1
0.047246560456966104,16,26,-1,1
0.08856903563423403,17,26,-1,1
-0.3235402841658278,18,26,-1,1
-0.9783428939299842,19,26,-1,1
-0.993749651297516,20,26,-1,1
0.5219539241313199,21,26,-1,1
-0.20288023435879196,22,26,-1,1
-0.3663090655719752,23,26,-1,1
0.24773460017784654,24,26,-1,1
-0.08891370820491341,25,26,-1,1
-1.130264856657034,26,26,-1,1
-1.1036262498634613,27,26,-1,1
-0.3659215119562959,28,26,-1,1
0.1533812176379769,29,26,-1,1
0.4456064418390267,30,26,-1,1
0.18278003822954184,31,26,-1,1
-0.15464074434015987,32,26,-1,1
-0.1621087331149922,33,26,-1,1
0.07689302208808506,34,26,-1,1
-0.8812107337815076,35,26,-1,1
0.023172994568238913,36,26,-1,1
0.5729861438187918,37,26,-1,1
0.018806202341955975,38,26,-1,1
-0.20063621810259238,39,26,-1,1
-0.018519150884535568,40,26,-1,1
-0.7412810014582865,41,26,-1,1
0.5156605154563569,42,26,-1,1
1.0913334741216996,43,26,-1,1
-0.804484762235243,44,26,-1,1
-0.73242322260718,45,26,-1,1
-0.9538304351026624,46,26,-1,1
-0.09867025295733023,47,26,-1,1
-0.328646634648544,48,26,-1,1
-0.2352155791104123,49,26,-1,1
0.294579437931611,50,26,-1,1
-0.5393754774641105,51,26,-1,1
-0.5416678605288493,52,26,-1,1
-0.7027230098365495,53,26,-1,1
-0.19738572158616305,54,26,-1,1
0.03535867948928583,55,26,-1,1
0.1534600248481134,56,26,-1,1
-0.12592937872398388,57,26,-1,1
0.14082770624990326,58,26,-1,1
0.2831093657286985,59,26,-1,1
0.016700431049201696,60,26,-1,1
-0.03328749312795016,61,26,-1,1
-0.17732348715950175,62,26,-1,1
0.19914534405926002,63,26,-1,1
-0.0358670540513231,0,27,-1,1
-0.21106883446910166,1,27,-1,1
0.09571024442776342,2,27,-1,1
0.47511079384222715,3,27,-1,1
0.09477838281004017,4,27,-1,1
-0.040112051176260426,5,27,-1,1
0.0033061717173589727,6,27,-1,1
0.25987976376694444,7,27,-1,1
0.06880640550337193,8,27,-1,1
-0.1683775084845708,9,27,-1,1
0.03209038741337505,10,27,-1,1
-0.21110531855312095,11,27,-1,1
-0.5724825028204881,12,27,-1,1
-0.3929756564358845,13,27,-1,1
-0.19378062530971257,14,27,-1,1
0.07302611776188868,15,27,-1,1
0.2870565119070193,16,27,-1,1
-0.08024515623303477,17,27,-1,1
-0.6096726506394018,18,27,-1,1
-0.6352453748967164,19,27,-1,1
-0.8840665244701106,20,27,-1,1
-0.8893320481766389,21,27,-1,1
0.0258634309414101,22,27,-1,1
0.2797774204920986,23,27,-1,1
-0.004111566837929666,24,27,-1,1
-0.27530703174907595,25,27,-1,1
-0.608112407178831,26,27,-1,1
-0.267465255015262,27,27,-1,1
-0.9918147418125685,28,27,-1,1
-0.70016214776112,29,27,-1,1
-0.034536688861486815,30,27,-1,1
-0.012976038868716198,31,27,-1,1
0.00017796711309266594,32,27,-1,1
-0.6066933434001299,33,27,-1,1
-0.7129912224041833,34,27,-1,1
-0.543686044340146,35,27,-1,1
-1.3829378631498932,36,27,-1,1
-1.2100838321664862,37,27,-1,1
-0.4642889710377357,38,27,-1,1
0.1593969733215945,39,27,-1,1
-0.14656106680529896,40,27,-1,1
0.2580233610793221,41,27,-1,1
0.2885900775690034,42,27,-1,1
-0.9884449721869374,43,27,-1,1
-1.3733589710687417,44,27,-1,1
-0.33135875390885083,45,27,-1,1
0.091274767489276,46,27,-1,1
0.11217301307814335,47,27,-1,1
-0.0641488214622101,48,27,-1,1
-0.08150531090655429,49,27,-1,1
-0.2324263666090852,50,27,-1,1
-0.7795577475714542,51,27,-1,1
-1.3736988663959129,52,27,-1,1
-0.6658775470830087,53,27,-1,1
0.11792340416020852,54,27,-1,1
-0.11008402020063951,55,27,-1,1
0.16339120331757273,56,27,-1,1
-0.18059439490444845,57,27,-1,1
0.11299665607846221,58,27,-1,1
0.13973641368345163,59,27,-1,1
-0.03990545440793097,60,27,-1,1
0.10600189205021252,61,27,-1,1
-0.2048373867567603,62,27,-1,1
-0.15873280763601277,63,27,-1,1
0.02356071695222399,0,28,-1,1
-0.18996404946973552,1,28,-1,1
0.0986090885906806,2,28,-1,1
-0.1168617397677072,3,28,-1,1
-0.8723119444345562,4,28,-1,1
-0.7189669025603243,5,28,-1,1
0.03467153541218977,6,28,-1,1
0.19367214400846794,7,28,-1,1
-0.11028720985077092,8,28,-1,1
-0.243668478588681,9,28,-1,1
-0.7357565522406605,10,28,-1,1
0.3915264114857868,11,28,-1,1
1.3774088436765972,12,28,-1,1
0.09356410403808489,13,28,-1,1
0.6432049855066233,14,28,-1,1
0.2721043765859119,15,28,-1,1
-0.20087264500415597,16,28,-1,1
-1.6093716823727764,17,28,-1,1
-2.107784129643837,18,28,-1,1
-2.7395585801090014,19,28,-1,1
-0.8321502680153032,20,28,-1,1
-0.3435020484069768,21,28,-1,1
0.06885241270999558,22,28,-1,1
0.24326632262883408,23,28,-1,1
-0.29705475177782065,24,28,-1,1
1.5073253191571665,25,28,-1,1
2.729340246796057,26,28,-1,1
3.0674119621230984,27,28,-1,1
0.9535839684267031,28,28,-1,1
0.9647074050617145,29,28,-1,1
2.581143033452306,30,28,-1,1
0.1478804556290957,31,28,-1,1
-0.5100526476708519,32,28,-1,1
2.374423562923332,33,28,-1,1
2.5859923542015637,34,28,-1,1
1.2437667636232859,35,28,-1,1
0.0872088553276699,36,28,-1,1
-1.4615462393252272,37,28,-1,1
-0.611409447202321,38,28,-1,1
-0.46646176594657207,39,28,-1,1
0.05929980532607744,40,28,-1,1
-0.5363381520148783,41,28,-1,1
0.1169934421842092,42,28,-1,1
0.23610780654180774,43,28,-1,1
-0.41037130496115,44,28,-1,1
0.05464560325474309,45,28,-1,1
-0.9110102033293384,46,28,-1,1
-0.5515493635015845,47,28,-1,1
-0.3013508161501992,48,28,-1,1
-0.7175675250579726,49,28,-1,1
-0.2801958968493473,50,28,-1,1
0.11047874097027621,51,28,-1,1
0.9919490838458046,52,28,-1,1
0.8082031262886676,53,28,-1,1
0.15715194542412825,54,28,-1,1
-0.005233051653692547,55,28,-1,1
-0.2526385226476393,56,28,-1,1
-0.08327736219974415,57,28,-1,1
-0.7720576656478487,58,28,-1,1
-0.8957591624832298,59,28,-1,1
-0.9130700512448702,60,28,-1,1
0.847626387558726,61,28,-1,1
0.14042287110268978,62,28,-1,1
-0.20083432741355206,63,28,-1,1
0.05890176807615053,0,29,-1,1
0.022294603571827925,1,29,-1,1
-0.2223346015423686,2,29,-1,1
-1.165872433509448,3,29,-1,1
-1.032571933302365,4,29,-1,1
-0.9572218075645028,5,29,-1,1
-0.4159620386066582,6,29,-1,1
-0.08002922304805417,7,29,-1,1
0.28069328506317176,8,29,-1,1
0.12632634583260438,9,29,-1,1
0.04441831637622485,10,29,-1,1
-0.37711525409540897,11,29,-1,1
-0.14272579386893802,12,29,-1,1
-0.5281045141953076,13,29,-1,1
-0.06563400264747832,14,29,-1,1
0.03638742128807419,15,29,-1,1
-0.0020177921279862132,16,29,-1,1
0.3014389291206918,17,29,-1,1
1.347182084124359,18,29,-1,1
1.7356644562670904,19,29,-1,1
1.8435433968776813,20,29,-1,1
3.515750172844815,21,29,-1,1
1.2175192339497425,22,29,-1,1
-0.23251745150628475,23,29,-1,1
0.08905699628727853,24,29,-1,1
0.7832174899301121,25,29,-1,1
0.6546244445062757,26,29,-1,1
0.496611337811091,27,29,-1,1
-1.8662712996870765,28,29,-1,1
1.0341772289949478,29,29,-1,1
-0.24794231654274967,30,29,-1,1
-0.1337073795247921,31,29,-1,1
0.009515286015349799,32,29,-1,1
-0.11112921476579656,33,29,-1,1
1.7396924295094351,34,29,-1,1
1.0440669298661425,35,29,-1,1
0.965136218552451,36,29,-1,1
1.0111502605060423,37,29,-1,1
-1.0785123094164364,38,29,-1,1
-0.2908869607210296,39,29,-1,1
-0.13558351958432113,40,29,-1,1
-1.0220050778179417,41,29,-1,1
-2.5169311710587574,42,29,-1,1
-3.9359573364437743,43,29,-1,1
-1.6679702059229584,44,29,-1,1
-1.3005014554511487,45,29,-1,1
-0.7537640301462709,46,29,-1,1
-0.07462660845583775,47,29,-1,1
-0.05099405042466327,48,29,-1,1
-0.18909637335970367,49,29,-1,1
-0.6384579821270546,50,29,-1,1
0.8801104633809541,51,29,-1,1
0.885803646341299,52,29,-1,1
-0.4502833693309781,53,29,-1,1
-0.21689014504148257,54,29,-1,1
0.06286579898140306,55,29,-1,1
-0.04026780100984127,56,29,-1,1
-0.10106124416347677,57,29,-1,1
1.2259136077683939,58,29,-1,1
2.427636443821095,59,29,-1,1
1.5818727489976907,60,29,-1,1
0.34862498704706574,61,29,-1,1
0.10026645750876553,62,29,-1,1
0.17956907381797446,63,29,-1,1
0.03804522216923687,0,30,-1,1
-0.12439053854564613,1,30,-1,1
-0.006874013022915199,2,30,-1,1
-0.200909339827891,3,30,-1,1
-0.2863868382398662,4,30,-1,1
-0.1696200506451988,5,30,-1,1
0.02183113923417617,6,30,-1,1
0.07849152792057715,7,30,-1,1
0.18249651048689353,8,30,-1,1
-0.5609712534711145,9,30,-1,1
-0.4836208138852104,10,30,-1,1
-0.5685070826095856,11,30,-1,1
0.14990991694520878,12,30,-1,1
0.08431936881254949,13,30,-1,1
-0.18834105836566495,14,30,-1,1
0.0656532544685021,15,30,-1,1
0.20291434895699736,16,30,-1,1
-0.5590347289395424,17,30,-1,1
1.6465283041949037,18,30,-1,1
-0.13109015046392508,19,30,-1,1
-2.471662786237578,20,30,-1,1
-0.3140758825881831,21,30,-1,1
-0.561612438556394,22,30,-1,1
0.4298192928119293,23,30,-1,1
-0.049946682657805774,24,30,-1,1
0.02115705693138567,25,30,-1,1
-0.4173185478510502,26,30,-1,1
1.3742279207550594,27,30,-1,1
-1.6018779558795728,28,30,-1,1
0.5189276752768155,29,30,-1,1
-0.4224566825696955,30,30,-1,1
0.26883441094854565,31,30,-1,1
0.018978693603334974,32,30,-1,1
-1.0379852178102063,33,30,-1,1
-1.1603261058502807,34,30,-1,1
-0.5714657672789752,35,30,-1,1
-1.7500026572274254,36,30,-1,1
0.11394814321777587,37,30,-1,1
-1.3761580344561748,38,30,-1,1
-0.2430199646349264,39,30,-1,1
-0.09540255671473624,40,30,-1,1
-0.9845077357366018,41,30,-1,1
0.8576815301693584,42,30,-1,1
-1.2083140913115966,43,30,-1,1
-1.5272447662036015,44,30,-1,1
-0.503883464217627,45,30,-1,1
-1.2998667332869989,46,30,-1,1
0.10747063781967316,47,30,-1,1
-0.32027878584001535,48,30,-1,1
-0.8637742673586859,49,30,-1,1
-0.369149269553418,50,30,-1,1
0.7811230950749448,51,30,-1,1
0.06232150813175747,52,30,-1,1
-0.5904640206699527,53,30,-1,1
-0.307123240281625,54,30,-1,1
-0.14300652761790653,55,30,-1,1
0.27027081439927164,56,30,-1,1
-0.35784934252100975,57,30,-1,1
-0.2886434104904711,58,30,-1,1
0.23909864569138098,59,30,-1,1
0.20676848356291383,60,30,-1,1
-0.15906353463195858,61,30,-1,1
0.14651804548229916,62,30,-1,1
-0.461993895737196,63,30,-1,1
0.08671459384281181,0,31,-1,1
-0.06130503088968596,1,31,-1,1
-0.2561208240277902,2,31,-1,1
0.26165401531311894,3,31,-1,1
0.013204836164154115,4,31,-1,1
0.06515160399637852,5,31,-1,1
-0.03144539167027445,6,31,-1,1
-0.008392866791158379,7,31,-1,1
0.14927880205656294,8,31,-1,1
-0.32166756610924213,9,31,-1,1
-0.3415848740298602,10,31,-1,1
-0.7295110462567854,11,31,-1,1
-0.3062730980578857,12,31,-1,1
0.05897550601097921,13,31,-1,1
-0.17147154963100253,14,31,-1,1
-0.4487266873479075,15,31,-1,1
0.05478899337232559,16,31,-1,1
-0.02733090624209864,17,31,-1,1
-0.3135051662446706,18,31,-1,1
-0.26133365670761416,19,31,-1,1
-0.748412570785857,20,31,-1,1
-0.40420124551847875,21,31,-1,1
-0.003900998275523071,22,31,-1,1
-0.29594472510809106,23,31,-1,1
-0.20966754105276678,24,31,-1,1
0.32696876325117813,25,31,-1,1
-0.6765649985421588,26,31,-1,1
-0.26746833896314315,27,31,-1,1
-1.2191231263101105,28,31,-1,1
0.04305585707968848,29,31,-1,1
1.020052766889899,30,31,-1,1
-0.1099171519541274,31,31,-1,1
-0.10339093238003133,32,31,-1,1
0.05617448961647337,33,31,-1,1
-0.5421662971468577,34,31,-1,1
-0.4858318726284012,35,31,-1,1
-0.5646938232274745,36,31,-1,1
-0.5593200129259095,37,31,-1,1
-0.14145249216572423,38,31,-1,1
0.013655770896419353,39,31,-1,1
-0.08940416169774691,40,31,-1,1
-0.9495744404596969,41,31,-1,1
0.24774798198165424,42,31,-1,1
-0.4270236876192912,43,31,-1,1
-0.7950520825586657,44,31,-1,1
-0.9794909658333987,45,31,-1,1
-0.8717476239042301,46,31,-1,1
-0.12127683742517006,47,31,-1,1
-0.05286721551219248,48,31,-1,1
-0.4017230293114401,49,31,-1,1
-0.5220726930266826,50,31,-1,1
0.06310863014437082,51,31,-1,1
0.3145790794578076,52,31,-1,1
-1.2251068974156771,53,31,-1,1
-0.31127219023950986,54,31,-1,1
0.17901217461419416,55,31,-1,1
-0.06686574793126243,56,31,-1,1
-0.19823200493158033,57,31,-1,1
-0.17244310062021176,58,31,-1,1
0.31663644251436013,59,31,-1,1
0.3740516387650087,60,31,-1,1
0.05968115980447823,61,31,-1,1
-0.07230404244712708,62,31,-1,1
-0.1933838479570901,63,31,-1,1
0.2637457787494038,0,32,-1,1
0.06102264551293547,1,32,-1,1
-0.13022180836909245,2,32,-1,1
-0.2572956379121462,3,32,-1,1
-0.09946211169370826,4,32,-1,1
0.04775847050026008,5,32,-1,1
-0.015271133007082226,6,32,-1,1
0.037560420296921755,7,32,-1,1
0.037647968101092534,8,32,-1,1
0.173370991210435,9,32,-1,1
0.0835251972887277,10,32,-1,1
0.44867844900627896,11,32,-1,1
1.115909895288331,12,32,-1,1
0.19395093177593484,13,32,-1,1
-0.1905191631264839,14,32,-1,1
0.10062421942905203,15,32,-1,1
-0.10669797507849296,16,32,-1,1
-0.14817804284807043,17,32,-1,1
-0.8027497274619542,18,32,-1,1
0.009891841742867807,19,32,-1,1
0.44537128389759123,20,32,-1,1
-0.01593585105997709,21,32,-1,1
-0.0812319290093114,22,32,-1,1
-0.191445682469685,23,32,-1,1
-0.07094854904709681,24,32,-1,1
-0.5920820763145033,25,32,-1,1
0.12001342203263736,26,32,-1,1
0.4562906381681219,27,32,-1,1
0.9419938196905788,28,32,-1,1
0.4346752594477846,29,32,-1,1
-0.14163930094786775,30,32,-1,1
-0.18577136289605228,31,32,-1,1
-0.07226777887015559,32,32,-1,1
0.5010126616656623,33,32,-1,1
1.857441638249312,34,32,-1,1
1.674468251834837,35,32,-1,1
-0.026148681938674506,36,32,-1,1
-0.2824646271613228,37,32,-1,1
0.11023165236157213,38,32,-1,1
0.08150968697413179,39,32,-1,1
-0.00254354131443008,40,32,-1,1
0.8603051571555749,41,32,-1,1
1.0667259734160048,42,32,-1,1
-0.9888240367711504,43,32,-1,1
-0.6955296211762619,44,32,-1,1
0.5638432253319087,45,32,-1,1
0.7554626017989794,46,32,-1,1
-0.18978639912333556,47,32,-1,1
-0.23045523239224494,48,32,-1,1
0.6213445311197147,49,32,-1,1
0.9077024807051868,50,32,-1,1
-0.5560859360905902,51,32,-1,1
-0.5245500300390095,52,32,-1,1
0.6776357615419364,53,32,-1,1
0.41327254938261276,54,32,-1,1
-0.03708996737064503,55,32,-1,1
-0.15287289769290235,56,32,-1,1
-0.11782115385536066,57,32,-1,1
0.12588712010893352,58,32,-1,1
-0.5601893504824788,59,32,-1,1
-0.6846895726569739,60,32,-1,1
0.1435313779685841,61,32,-1,1
0.3317646959547343,62,32,-1,1
0.26688460036674094,63,32,-1,1
0.117679867702794,0,33,-1,1
0.050765555453221554,1,33,-1,1
-0.05598833896030008,2,33,-1,1
1.2912735143286551,3,33,-1,1
1.3316994063195928,4,33,-1,1
0.7428898267791938,5,33,-1,1
0.10603046437143758,6,33,-1,1
-0.3158165348129631,7,33,-1,1
0.04283744995381605,8,33,-1,1
-0.26922281850434737,9,33,-1,1
1.3873564591857077,10,33,-1,1
1.4629575529035506,11,33,-1,1
-0.10531876405540418,12,33,-1,1
0.12163021379263968,13,33,-1,1
-0.7084957747562733,14,33,-1,1
0.29175397179505025,15,33,-1,1
0.0599084678495929,16,33,-1,1
1.0650727668712037,17,33,-1,1
2.4126295757550693,18,33,-1,1
0.3993639895198752,19,33,-1,1
1.1268722485242078,20,33,-1,1
-0.4196362548329987,21,33,-1,1
0.897943164139028,22,33,-1,1
1.0995266891420516,23,33,-1,1
0.4206000024956122,24,33,-1,1
0.3314128080752136,25,33,-1,1
-1.2389352813918801,26,33,-1,1
-0.4683515988092804,27,33,-1,1
-1.1707913776166579,28,33,-1,1
-1.4693380408335315,29,33,-1,1
1.0568055262513307,30,33,-1,1
0.27552319166343925,31,33,-1,1
0.31612387294577815,32,33,-1,1
-2.1758917931318136,33,33,-1,1
-2.346998262000922,34,33,-1,1
0.03520396352535915,35,33,-1,1
-3.568005708482189,36,33,-1,1
-0.7908825762991009,37,33,-1,1
1.4699958034787612,38,33,-1,1
-0.03563448690842629,39,33,-1,1
0.09119891574569584,40,33,-1,1
0.21983327968464852,41,33,-1,1
1.3860754314615584,42,33,-1,1
1.3484365301143408,43,33,-1,1
-0.501594218174168,44,33,-1,1
2.9594749308237844,45,33,-1,1
0.7730165303759349,46,33,-1,1
0.008857967349747727,47,33,-1,1
-0.016748228515377866,48,33,-1,1
0.5291806716471349,49,33,-1,1
2.6077943378014803,50,33,-1,1
2.8760278878609618,51,33,-1,1
1.2804897635391115,52,33,-1,1
-0.5936682363434764,53,33,-1,1
-0.12277794945718704,54,33,-1,1
-0.11542153348956986,55,33,-1,1
0.09772417443262946,56,33,-1,1
-0.31139677534849736,57,33,-1,1
-0.059334180047013255,58,33,-1,1
0.7946124784310522,59,33,-1,1
0.6653707519134463,60,33,-1,1
-0.5161379625387211,61,33,-1,1
-0.1602249787279936,62,33,-1,1
-0.050744289356828266,63,33,-1,1
0.1723702595424101,0,34,-1,1
0.1262956723832868,1,34,-1,1
-0.034412072152865535,2,34,-1,1
0.1184370920799176,3,34,-1,1
1.0360730012705333,4,34,-1,1
0.5725653376628802,5,34,-1,1
-0.2786729232228965,6,34,-1,1
0.13776224368594556,7,34,-1,1
0.2933167663649284,8,34,-1,1
0.2495762956252522,9,34,-1,1
1.1501169616530507,10,34,-1,1
1.0413595406462017,11,34,-1,1
0.6350299328497817,12,34,-1,1
1.3033606553805037,13,34,-1,1
1.9153402351444049,14,34,-1,1
0.15456299179933622,15,34,-1,1
-0.2224492074044736,16,34,-1,1
-0.21090238110535664,17,34,-1,1
-0.9665500830511433,18,34,-1,1
-4.1921733623107285,19,34,-1,1
-4.279694971121302,20,34,-1,1
-1.4304467234165699,21,34,-1,1
0.696511952586803,22,34,-1,1
1.1081504377684348,23,34,-1,1
-0.5898663026230746,24,34,-1,1
-1.8481033798541904,25,34,-1,1
-0.4064821333412935,26,34,-1,1
2.291358882200811,27,34,-1,1
-0.7345651218690078,28,34,-1,1
-2.606141461134995,29,34,-1,1
-0.8437340336189254,30,34,-1,1
0.5457618632255689,31,34,-1,1
-0.26566404309643465,32,34,-1,1
1.1091338172454763,33,34,-1,1
1.601211556932785,34,34,-1,1
3.8863344708597727,35,34,-1,1
0.4323252844701791,36,34,-1,1
-2.2278567561602785,37,34,-1,1
1.7434378682114942,38,34,-1,1
0.34258065864881104,39,34,-1,1
-0.11985991253844867,40,34,-1,1
2.0391468392158134,41,34,-1,1
2.3876674816117096,42,34,-1,1
2.6237223612563563,43,34,-1,1
1.9649853069781231,44,34,-1,1
2.1637508233316103,45,34,-1,1
1.4909879377464346,46,34,-1,1
0.45783045176913834,47,34,-1,1
0.05749781603386148,48,34,-1,1
0.47380428842708827,49,34,-1,1
1.8558913700426303,50,34,-1,1
1.3219979179773917,51,34,-1,1
1.8816987371532081,52,34,-1,1
1.5013659441258238,53,34,-1,1
0.2821618609311476,54,34,-1,1
-0.20937782879923203,55,34,-1,1
0.38683739959278757,56,34,-1,1
-0.7319524012400894,57,34,-1,1
-2.9015710214457138,58,34,-1,1
-3.6810338130566995,59,34,-1,1
-2.8771572278482633,60,34,-1,1
-2.3547678441792703,61,34,-1,1
-0.3800005931372301,62,34,-1,1
0.18015990257863454,63,34,-1,1
-0.017024849418789022,0,35,-1,1
-0.1896151218936027,1,35,-1,1
-0.049433389567390754,2,35,-1,1
-0.38791315204987775,3,35,-1,1
-1.9622529910319082,4,35,-1,1
-0.8044700737627021,5,35,-1,1
-0.1033022044604891,6,35,-1,1
-0.1888601298785441,7,35,-1,1
0.11636226862627082,8,35,-1,1
-0.5519612871682288,9,35,-1,1
-1.486132387259417,10,35,-1,1
-1.061229262206619,11,35,-1,1
1.080846939015962,12,35,-1,1
0.565150594293998,13,35,-1,1
0.024099580796081453,14,35,-1,1
-0.3880194243864156,15,35,-1,1
-0.38716098296942325,16,35,-1,1
-0.5740559832903956,17,35,-1,1
-0.8087109162846717,18,35,-1,1
-0.16510848599062544,19,35,-1,1
0.49602881893851625,20,35,-1,1
1.6710320774068934,21,35,-1,1
0.6652071279988014,22,35,-1,1
-0.3523505877434589,23,35,-1,1
-0.3154036335816729,24,35,-1,1
1.5413434879349814,25,35,-1,1
-0.3564207322872654,26,35,-1,1
0.7583116145292135,27,35,-1,1
-0.35993013261682183,28,35,-1,1
0.5458414226260384,29,35,-1,1
3.129963621217814,30,35,-1,1
-0.22782518950946734,31,35,-1,1
-0.08777396798134422,32,35,-1,1
0.6665290240806707,33,35,-1,1
0.46694695404152703,34,35,-1,1
-0.49799550269776255,35,35,-1,1
-2.0818784294565416,36,35,-1,1
-1.6408021358639129,37,35,-1,1
-0.2054226606515424,38,35,-1,1
-0.36501140766293294,39,35,-1,1
-0.16067519464740002,40,35,-1,1
-1.6755685475493782,41,35,-1,1
2.1885689758972875,42,35,-1,1
-0.7293104936541511,43,35,-1,1
-2.403289091875507,44,35,-1,1
-1.6836658434109064,45,35,-1,1
-1.532596317338805,46,35,-1,1
-0.3087556222865587,47,35,-1,1
-0.25347414102511884,48,35,-1,1
-0.5882751306508475,49,35,-1,1
0.3937659076756545,50,35,-1,1
1.409195959768276,51,35,-1,1
-0.5961594757201064,52,35,-1,1
-2.3972100497621756,53,35,-1,1
-0.7855741127029747,54,35,-1,1
-0.26518933518508137,55,35,-1,1
0.04330726742905322,56,35,-1,1
0.1337403464564786,57,35,-1,1
0.3758690074308855,58,35,-1,1
0.40626683435012556,59,35,-1,1
0.1806732798566452,60,35,-1,1
0.5747128029107038,61,35,-1,1
0.3358179975440009,62,35,-1,1
0.040720593956417604,63,35,-1,1
-0.10293678635923549,0,36,-1,1
-0.0004341599712573088,1,36,-1,1
-0.054289695845891814,2,36,-1,1
0.10097914426845543,3,36,-1,1
0.2700512318842697,4,36,-1,1
0.18180781884001684,5,36,-1,1
-0.310980184963841,6,36,-1,1
-0.006211997192534034,7,36,-1,1
-0.12372921880064154,8,36,-1,1
0.18302704907982173,9,36,-1,1
-0.05201525923139237,10,36,-1,1
-0.3877059042535015,11,36,-1,1
-0.8505920748513902,12,36,-1,1
-0.4662814714224805,13,36,-1,1
-0.1645435785148162,14,36,-1,1
0.32837391843613006,15,36,-1,1
-0.0680067496054426,16,36,-1,1
0.09318845967958597,17,36,-1,1
-0.7852912056952362,18,36,-1,1
-0.8669597006262683,19,36,-1,1
-1.2309156883194659,20,36,-1,1
-0.9894217209444416,21,36,-1,1
-0.03781574887663064,22,36,-1,1
0.3325641570989816,23,36,-1,1
-0.12657320389062932,24,36,-1,1
-0.33478188262588926,25,36,-1,1
-0.9406019808629684,26,36,-1,1
-0.5510723357291393,27,36,-1,1
-0.7092320440697469,28,36,-1,1
-0.6596434917505306,29,36,-1,1
-0.6785045578793731,30,36,-1,1
0.04325858278898797,31,36,-1,1
0.2554013077763731,32,36,-1,1
-0.3886697017771853,33,36,-1,1
-1.0919069366060734,34,36,-1,1
-0.04242353530291968,35,36,-1,1
-0.8190871637623214,36,36,-1,1
-0.6846249971010429,37,36,-1,1
-0.5429734991780448,38,36,-1,1
-0.25452783760823905,39,36,-1,1
-0.00372098775592789,40,36,-1,1
-0.2023360772859486,41,36,-1,1
-0.6099880541472017,42,36,-1,1
-0.9081888986981659,43,36,-1,1
-0.8603806761056199,44,36,-1,1
-0.4847343421641719,45,36,-1,1
-0.19667160706606443,46,36,-1,1
0.08317220966633955,47,36,-1,1
-0.16031370972122164,48,36,-1,1
0.10207496072622582,49,36,-1,1
-0.4482425257930788,50,36,-1,1
-1.0794796886187565,51,36,-1,1
-0.7413854194932767,52,36,-1,1
-0.5169293689256035,53,36,-1,1
-0.06528051717024731,54,36,-1,1
-0.34385170729681946,55,36,-1,1
-0.022051259549506454,56,36,-1,1
0.15030194377307154,57,36,-1,1
0.05479148223627137,58,36,-1,1
0.11009789706128367,59,36,-1,1
0.018218560134311588,60,36,-1,1
0.06795270359003802,61,36,-1,1
0.16869729089466567,62,36,-1,1
-0.16103760435339934,63,36,-1,1
0.35354967984323216,0,37,-1,1
-0.010562172276759879,1,37,-1,1
0.04761645509276191,2,37,-1,1
0.11749651397389031,3,37,-1,1
0.2473538795324819,4,37,-1,1
0.40647759607889516,5,37,-1,1
0.40984600936252435,6,37,-1,1
0.2821312126783467,7,37,-1,1
0.020084833746683992,8,37,-1,1
0.26567772873828904,9,37,-1,1
-0.3676960227675781,10,37,-1,1
-1.6976999281137761,11,37,-1,1
-1.1568445014718807,12,37,-1,1
0.1392731937026106,13,37,-1,1
0.8201852554102325,14,37,-1,1
0.16982780803495526,15,37,-1,1
0.2400738127474598,16,37,-1,1
-0.19963770456503357,17,37,-1,1
0.1549229363367734,18,37,-1,1
0.5520052029011684,19,37,-1,1
-0.6899270712650348,20,37,-1,1
-1.7824948687152007,21,37,-1,1
-1.8220098113582228,22,37,-1,1
-0.8686826858576969,23,37,-1,1
0.23851380655223556,24,37,-1,1
0.7070773404043482,25,37,-1,1
1.3542838171932219,26,37,-1,1
-1.2040929921680112,27,37,-1,1
0.9206958324013451,28,37,-1,1
0.6284024822144786,29,37,-1,1
0.9583271879449577,30,37,-1,1
-0.5132204723652319,31,37,-1,1
-0.14634637946377532,32,37,-1,1
0.634337187851139,33,37,-1,1
-0.30370013545909863,34,37,-1,1
-0.08565990164063149,35,37,-1,1
2.0890666092516637,36,37,-1,1
0.6423382124209135,37,37,-1,1
1.3600442145477805,38,37,-1,1
-0.7065434499426844,39,37,-1,1
0.022657422048256208,40,37,-1,1
-3.184752564914375,41,37,-1,1
-1.3308269255315581,42,37,-1,1
3.6658384457188844,43,37,-1,1
1.4819773986588256,44,37,-1,1
-0.38408107671910846,45,37,-1,1
-1.8828195064008912,46,37,-1,1
-0.3374170673576744,47,37,-1,1
0.09089548358798091,48,37,-1,1
-0.8059781999545123,49,37,-1,1
-1.4130389595376092,50,37,-1,1
-1.7777795841703798,51,37,-1,1
-0.0038624845447980116,52,37,-1,1
-0.4399334192211832,53,37,-1,1
-0.31097294999048336,54,37,-1,1
0.16811968533385865,55,37,-1,1
-0.00579142707956259,56,37,-1,1
0.24778024739674592,57,37,-1,1
0.7989653671625728,58,37,-1,1
0.37614757798703097,59,37,-1,1
-0.4320219670876532,60,37,-1,1
0.3955538862098928,61,37,-1,1
0.1824468939090639,62,37,-1,1
-0.010754648560052761,63,37,-1,1
0.006544578997061102,0,38,-1,1
0.10374433920977842,1,38,-1,1
-0.3016543749232209,2,38,-1,1
-0.5638362392463584,3,38,-1,1
0.08299173325162153,4,38,-1,1
-0.2651475789027189,5,38,-1,1
-0.22460561393793757,6,38,-1,1
0.2275574475749685,7,38,-1,1
0.11184201127699257,8,38,-1,1
-0.3589140346178184,9,38,-1,1
-0.1976912006637577,10,38,-1,1
-0.06806586475494666,11,38,-1,1
-0.33290782314397693,12,38,-1,1
0.9714634267354947,13,38,-1,1
1.7389090190875947,14,38,-1,1
0.6929911099657206,15,38,-1,1
0.10948811711568178,16,38,-1,1
-0.9312685990026313,17,38,-1,1
1.1173478784188453,18,38,-1,1
2.072538642154221,19,38,-1,1
-0.6147068943221149,20,38,-1,1
0.5357312660341409,21,38,-1,1
0.44644331126554604,22,38,-1,1
0.7478920575769399,23,38,-1,1
-0.08054005561502847,24,38,-1,1
0.8525494497990911,25,38,-1,1
0.9282408222876589,26,38,-1,1
0.1999031724324323,27,38,-1,1
-3.3185102097851717,28,38,-1,1
-2.005208168279454,29,38,-1,1
-1.1429609824163884,30,38,-1,1
0.18302898267391218,31,38,-1,1
-0.018688179255726307,32,38,-1,1
-0.01796727616138423,33,38,-1,1
-0.45128845877480445,34,38,-1,1
-2.774474865951911,35,38,-1,1
-2.446645969981292,36,38,-1,1
0.23838573684548534,37,38,-1,1
1.1038433028889352,38,38,-1,1
0.27793743693868234,39,38,-1,1
-0.07895217935049402,40,38,-1,1
0.11041714163815607,41,38,-1,1
-1.0322425016360055,42,38,-1,1
-2.4956306023697796,43,38,-1,1
-0.5373843216747581,44,38,-1,1
0.2100633663298141,45,38,-1,1
-0.4587447300410093,46,38,-1,1
0.18041465116083621,47,38,-1,1
0.0066609203941573976,48,38,-1,1
-0.7189119929955605,49,38,-1,1
0.3312759292189022,50,38,-1,1
2.8194365376411947,51,38,-1,1
0.8920115339012374,52,38,-1,1
-0.1298867169266495,53,38,-1,1
-0.014701091948810299,54,38,-1,1
-0.000592540790268515,55,38,-1,1
0.0740311034135733,56,38,-1,1
0.2366184641198443,57,38,-1,1
0.20867964603029596,58,38,-1,1
-0.08610649386421133,59,38,-1,1
0.21828186138540692,60,38,-1,1
-0.23219424913416473,61,38,-1,1
0.16466165353593157,62,38,-1,1
0.3275059710551192,63,38,-1,1
-0.05931400719640159,0,39,-1,1
-0.05331000236340555,1,39,-1,1
0.06759945000549053,2,39,-1,1
0.12506145615447212,3,39,-1,1
-0.132227357136838,4,39,-1,1
-0.009320416301208322,5,39,-1,1
0.14383368708653968,6,39,-1,1
0.23643149705511235,7,39,-1,1
-0.09863956463892795,8,39,-1,1
-0.058131763775289585,9,39,-1,1
0.14396796460441905,10,39,-1,1
-0.00943603086947604,11,39,-1,1
0.09477116844266174,12,39,-1,1
-0.5995513462537705,13,39,-1,1
-0.40194933924978843,14,39,-1,1
0.030942340649963648,15,39,-1,1
-0.2633884566918894,16,39,-1,1
-0.42275632005301417,17,39,-1,1
-0.8343575609305945,18,39,-1,1
-0.40411050777120233,19,39,-1,1
-0.17949704089135354,20,39,-1,1
-1.7246553026372642,21,39,-1,1
-0.3614983611582483,22,39,-1,1
-0.12708848750359777,23,39,-1,1
-0.2604398308145859,24,39,-1,1
-0.6249720163173348,25,39,-1,1
-0.7516093113885401,26,39,-1,1
-0.7238730112205077,27,39,-1,1
-0.8134919969562565,28,39,-1,1
-0.9591893316480666,29,39,-1,1
-0.611713196882537,30,39,-1,1
0.12162109194746877,31,39,-1,1
0.20618537339504817,32,39,-1,1
-0.47482728186167056,33,39,-1,1
-0.5062309813374983,34,39,-1,1
0.1273793228360503,35,39,-1,1
-1.088201211485989,36,39,-1,1
-0.9642917582703656,37,39,-1,1
-0.28524412671844424,38,39,-1,1
0.3184524047601398,39,39,-1,1
0.011328494505011789,40,39,-1,1
0.35692800827490917,41,39,-1,1
-0.20862929632522387,42,39,-1,1
-1.7668240448406516,43,39,-1,1
-1.262022901392472,44,39,-1,1
-0.42036271521716845,45,39,-1,1
0.5532242994624101,46,39,-1,1
0.5581050282883994,47,39,-1,1
-0.20512706076228823,48,39,-1,1
0.40630775845855016,49,39,-1,1
-0.5291176166366107,50,39,-1,1
-1.0300671511634019,51,39,-1,1
-0.9679261788458599,52,39,-1,1
-0.39368644498168665,53,39,-1,1
0.3068971101022583,54,39,-1,1
-0.08260570505006079,55,39,-1,1
-0.05529897384946426,56,39,-1,1
-0.2610230450148254,57,39,-1,1
-0.17456732148331836,58,39,-1,1
0.0886960396522884,59,39,-1,1
0.3267946142698552,60,39,-1,1
0.19003631172145005,61,39,-1,1
0.26030758320732755,62,39,-1,1
-0.026020791963397686,63,39,-1,1
0.14000697304158838,0,40,-1,1
0.21720742419836037,1,40,-1,1
0.22592284064199053,2,40,-1,1
-0.6418844393879606,3,40,-1,1
-0.4119407592577985,4,40,-1,1
-0.9789908708706753,5,40,-1,1
-0.37821841484384394,6,40,-1,1
-0.04617989819306222,7,40,-1,1
-0.046187721190616836,8,40,-1,1
-0.10328033757802546,9,40,-1,1
-0.08061853403736607,10,40,-1,1
1.769593376468779,11,40,-1,1
1.7411331379327741,12,40,-1,1
0.9784702441097534,13,40,-1,1
0.7510605662661431,14,40,-1,1
0.060683372548035706,15,40,-1,1
0.29373072664520405,16,40,-1,1
-0.27397043001824845,17,40,-1,1
0.3940444407441466,18,40,-1,1
0.6123403687258138,19,40,-1,1
-0.5043668354379257,20,40,-1,1
0.2919541033187525,21,40,-1,1
1.8129366401724265,22,40,-1,1
0.6745855169560997,23,40,-1,1
0.03724051966772139,24,40,-1,1
1.0186911113490527,25,40,-1,1
0.08089181048636125,26,40,-1,1
-1.7132349375701097,27,40,-1,1
-0.5645904338520751,28,40,-1,1
-2.169454348569892,29,40,-1,1
-0.03225588788327197,30,40,-1,1
-0.3014506381463553,31,40,-1,1
0.0966005965180593,32,40,-1,1
0.5733625859446687,33,40,-1,1
-1.3558270964965706,34,40,-1,1
-1.2443342345320392,35,40,-1,1
-1.5610798327919275,36,40,-1,1
-0.6138719466587216,37,40,-1,1
-0.4091036596162394,38,40,-1,1
-0.07489279815214064,39,40,-1,1
-0.09806406408443705,40,40,-1,1
1.386422464504053,41,40,-1,1
0.5589222625608152,42,40,-1,1
0.31421405748314857,43,40,-1,1
0.16616668942335688,44,40,-1,1
-0.08086755087273251,45,40,-1,1
0.939064588484191,46,40,-1,1
0.1832447347477346,47,40,-1,1
-0.08183833936245472,48,40,-1,1
0.2765805922833394,49,40,-1,1
1.268309805344536,50,40,-1,1
-1.0350963881524082,51,40,-1,1
-0.8788213808679387,52,40,-1,1
0.2808380969252745,53,40,-1,1
0.1828697722805728,54,40,-1,1
0.26340426415586615,55,40,-1,1
-0.05867869090059133,56,40,-1,1
0.12822060007012026,57,40,-1,1
-0.22512045079490114,58,40,-1,1
0.05709969136599088,59,40,-1,1
0.40456529808799485,60,40,-1,1
0.30995347726542083,61,40,-1,1
0.08224048209822778,62,40,-1,1
-0.02227007206535025,63,40,-1,1
0.1414349558631305,0,41,-1,1
-0.1909588241452483,1,41,-1,1
-0.09214375373045772,2,41,-1,1
-0.024111854945270034,3,41,-1,1
-0.25257231701083493,4,41,-1,1
-0.4170079486848678,5,41,-1,1
-0.06532182915739244,6,41,-1,1
0.06773728281694752,7,41,-1,1
-0.17091647141984728,8,41,-1,1
0.51879028577399,9,41,-1,1
0.8638753904138953,10,41,-1,1
2.040082296542119,11,41,-1,1
1.3130715290981754,12,41,-1,1
-0.02012246271354995,13,41,-1,1
-1.0452169488036356,14,41,-1,1
-0.3141864738187599,15,41,-1,1
0.12511533222940935,16,41,-1,1
1.2641350395658801,17,41,-1,1
-0.12105366175980235,18,41,-1,1
1.1982407407405786,19,41,-1,1
2.2299000539971843,20,41,-1,1
0.661955684444567,21,41,-1,1
1.1264852678424955,22,41,-1,1
-0.81198079755771,23,41,-1,1
0.39075537160606894,24,41,-1,1
-1.0455360809957328,25,41,-1,1
-2.5253156377343595,26,41,-1,1
-3.163674127358016,27,41,-1,1
1.8381364463852083,28,41,-1,1
1.0385810085025378,29,41,-1,1
-0.19174233638107513,30,41,-1,1
-0.9460495685298739,31,41,-1,1
0.03832684702044116,32,41,-1,1
-0.9362350410364415,33,41,-1,1
-2.8744016132084256,34,41,-1,1
-0.3173141721208041,35,41,-1,1
1.7800752418537786,36,41,-1,1
-0.35730108484673,37,41,-1,1
-1.863618381804736,38,41,-1,1
-0.3280158999795445,39,41,-1,1
0.4564564250287126,40,41,-1,1
0.7072596266382029,41,41,-1,1
-0.9344049122390407,42,41,-1,1
0.2628328351019372,43,41,-1,1
-0.6239370012578588,44,41,-1,1
-0.4067272056293317,45,41,-1,1
1.2648661105816845,46,41,-1,1
-0.19236548225734545,47,41,-1,1
0.0008557914968195297,48,41,-1,1
0.7087314457133914,49,41,-1,1
0.11903059314294215,50,41,-1,1
-0.9145689449570338,51,41,-1,1
-1.028621320257173,52,41,-1,1
-0.4038449813086669,53,41,-1,1
0.02815132772297067,54,41,-1,1
-0.30228343080853975,55,41,-1,1
-0.2743994361804873,56,41,-1,1
-0.0917418436623317,57,41,-1,1
1.2618399693733175,58,41,-1,1
1.7159549070606868,59,41,-1,1
1.103794750152327,60,41,-1,1
0.4342924354718037,61,41,-1,1
-0.15139826422144798,62,41,-1,1
0.05174145912861584,63,41,-1,1
0.011929785455415924,0,42,-1,1
-0.2025562270966796,1,42,-1,1
-0.5726639700979899,2,42,-1,1
-1.1521999166938257,3,42,-1,1
0.18746681536503693,4,42,-1,1
-0.2535967283080897,5,42,-1,1
-0.12094937118773422,6,42,-1,1
0.13342176048311913,7,42,-1,1
-0.06355447982489777,8,42,-1,1
0.6154131194736335,9,42,-1,1
0.6266614934800455,10,42,-1,1
1.4565949385509518,11,42,-1,1
1.0532881593836523,12,42,-1,1
-0.14620020347539459,13,42,-1,1
0.25301803069131557,14,42,-1,1
0.2376103971626312,15,42,-1,1
-0.11426179111724918,16,42,-1,1
-0.13361065302387037,17,42,-1,1
-1.2423928458365057,18,42,-1,1
-1.5612315364503597,19,42,-1,1
-0.6582483697149453,20,42,-1,1
1.4818844178317898,21,42,-1,1
1.5763998060965019,22,42,-1,1
1.0265854665423413,23,42,-1,1
-0.19866227887180993,24,42,-1,1
-1.4628743095848606,25,42,-1,1
-0.20294981815136023,26,42,-1,1
1.8670881526316945,27,42,-1,1
-0.9578716081756228,28,42,-1,1
-0.2318276010052175,29,42,-1,1
-0.6909293321267449,30,42,-1,1
0.5321526221942171,31,42,-1,1
0.185767216163893,32,42,-1,1
1.6682628487807283,33,42,-1,1
2.979905765687576,34,42,-1,1
-1.5468118984986348,35,42,-1,1
-1.4619558582784944,36,42,-1,1
1.8310153039924726,37,42,-1,1
1.625771543743777,38,42,-1,1
-0.4664580495407909,39,42,-1,1
-0.12394707268390909,40,42,-1,1
3.396278780956283,41,42,-1,1
-0.12507244126507913,42,42,-1,1
-3.6563769133014037,43,42,-1,1
0.27739214151283054,44,42,-1,1
1.6664965959583873,45,42,-1,1
0.871169420301449,46,42,-1,1
0.029485674928505137,47,42,-1,1
0.25544220524415917,48,42,-1,1
0.5755568521850353,49,42,-1,1
1.0612060967726358,50,42,-1,1
1.1500666674314408,51,42,-1,1
-0.4885861049190963,52,42,-1,1
0.42493922928961253,53,42,-1,1
0.2104855841667323,54,42,-1,1
0.00462171794669711,55,42,-1,1
0.03754356507457098,56,42,-1,1
0.42709072542303445,57,42,-1,1
-0.059009879418916576,58,42,-1,1
-1.048830857558599,59,42,-1,1
-0.4317223120062284,60,42,-1,1
-0.772261214420119,61,42,-1,1
-0.21010742277594194,62,42,-1,1
0.10491336178112844,63,42,-1,1
-0.3779830543428193,0,43,-1,1
-0.10188504185373332,1,43,-1,1
-0.06329535222749384,2,43,-1,1
0.1302292727169642,3,43,-1,1
-0.30566333039451543,4,43,-1,1
0.25889556498065613,5,43,-1,1
-0.08421595784014639,6,43,-1,1
-0.17925320873732192,7,43,-1,1
-0.1455353148728831,8,43,-1,1
0.04369531569762131,9,43,-1,1
1.3277340402391657,10,43,-1,1
1.612620219127563,11,43,-1,1
1.1111545769058377,12,43,-1,1
1.254613432871207,13,43,-1,1
-0.3054981791220197,14,43,-1,1
-0.10459976453011009,15,43,-1,1
-0.16370420524410567,16,43,-1,1
-0.1120449226524058,17,43,-1,1
1.7997333958982358,18,43,-1,1
1.7618016379158274,19,43,-1,1
-1.1227347534765124,20,43,-1,1
-0.4727784211440141,21,43,-1,1
-2.01732723553658,22,43,-1,1
-1.3319384270627712,23,43,-1,1
-0.22615750732996,24,43,-1,1
-0.25942032113748914,25,43,-1,1
1.1119004142126612,26,43,-1,1
0.5487791982295668,27,43,-1,1
-1.68927635613347,28,43,-1,1
2.430112922859161,29,43,-1,1
-0.31254460754552593,30,43,-1,1
-0.3455471133264511,31,43,-1,1
-0.11024922385417742,32,43,-1,1
-0.15036377160366138,33,43,-1,1
1.798256493530145,34,43,-1,1
1.4570190263268097,35,43,-1,1
0.46450811286303495,36,43,-1,1
1.9479603136157588,37,43,-1,1
1.4060272537130498,38,43,-1,1
0.04138754113464003,39,43,-1,1
0.20446287194452928,40,43,-1,1
-1.0391377073264483,41,43,-1,1
-0.7626461526024834,42,43,-1,1
-1.9379408216956204,43,43,-1,1
-0.2769771006619963,44,43,-1,1
1.9116068076593178,45,43,-1,1
1.3465881427285162,46,43,-1,1
0.20874508226840244,47,43,-1,1
-0.004339565886295011,48,43,-1,1
-0.07411887858000324,49,43,-1,1
-0.265535989352084,50,43,-1,1
0.8536546432617106,51,43,-1,1
1.614808311513465,52,43,-1,1
1.3309462848690243,53,43,-1,1
0.40343921910016506,54,43,-1,1
-0.13798097317406066,55,43,-1,1
-0.23098068947445624,56,43,-1,1
-0.10567181022796758,57,43,-1,1
0.3390461510819985,58,43,-1,1
0.9917328331806038,59,43,-1,1
0.3703845048294617,60,43,-1,1
-0.02141501869350691,61,43,-1,1
-0.3465094530762364,62,43,-1,1
-0.24491565748470387,63,43,-1,1
-0.03533668470150555,0,44,-1,1
-0.1538190709904153,1,44,-1,1
0.24330592456928396,2,44,-1,1
0.10618577871854983,3,44,-1,1
-0.10447990092351263,4,44,-1,1
-0.39487215422171457,5,44,-1,1
0.05802318331517041,6,44,-1,1
-0.17500210403539582,7,44,-1,1
0.30703438851071585,8,44,-1,1
-0.01101860587190902,9,44,-1,1
-0.24154948730376322,10,44,-1,1
1.3206456241478457,11,44,-1,1
0.2313398043557134,12,44,-1,1
-0.24730039622042319,13,44,-1,1
-0.21957200541586003,14,44,-1,1
-0.3812885899779201,15,44,-1,1
0.22345760980570098,16,44,-1,1
-0.2667130447590172,17,44,-1,1
0.2556960720112557,18,44,-1,1
0.8437938030927291,19,44,-1,1
1.2415474613020092,20,44,-1,1
-1.3514906403247378,21,44,-1,1
-1.0107897520447393,22,44,-1,1
-0.5469422762542597,23,44,-1,1
0.46437079040527657,24,44,-1,1
-2.0856490783970645,25,44,-1,1
-4.269073154809497,26,44,-1,1
-4.695198178671793,27,44,-1,1
0.9697834943510151,28,44,-1,1
-3.1230069348837532,29,44,-1,1
-1.5732359991749874,30,44,-1,1
0.14298310210424373,31,44,-1,1
0.0450788179478831,32,44,-1,1
-0.56857920853985,33,44,-1,1
-1.2063886339209247,34,44,-1,1
1.9911598801795498,35,44,-1,1
0.6720261468061544,36,44,-1,1
-3.2702365000799487,37,44,-1,1
0.3526328745728814,38,44,-1,1
0.47483240331824333,39,44,-1,1
-0.34051214553355336,40,44,-1,1
1.4268786607599326,41,44,-1,1
0.868028728798304,42,44,-1,1
1.8246852647453873,43,44,-1,1
-0.41739581524652347,44,44,-1,1
-1.7055203496135953,45,44,-1,1
1.9995253943330016,46,44,-1,1
0.693882271998238,47,44,-1,1
-0.056872146582987476,48,44,-1,1
0.4140360172774097,49,44,-1,1
-0.38277931330752324,50,44,-1,1
-2.1866173663847586,51,44,-1,1
-0.5918914552915938,52,44,-1,1
0.8117739979824817,53,44,-1,1
0.4797255364293251,54,44,-1,1
0.11208786968310973,55,44,-1,1
0.030976730807644747,56,44,-1,1
-0.13621961173301125,57,44,-1,1
-1.2455890501636484,58,44,-1,1
-1.0422878008229515,59,44,-1,1
-0.6420586479788664,60,44,-1,1
-0.5677119075998429,61,44,-1,1
-0.13649527016365506,62,44,-1,1
-0.24646774994660373,63,44,-1,1
-0.14058373180326875,0,45,-1,1
-0.22504178529261895,1,45,-1,1
-0.20680737378536204,2,45,-1,1
-0.19182196977506502,3,45,-1,1
-0.8737694944058297,4,45,-1,1
-0.3910764573960973,5,45,-1,1
0.1503148819149816,6,45,-1,1
0.0005259767467919164,7,45,-1,1
-0.2291401440745391,8,45,-1,1
0.6317996377360837,9,45,-1,1
2.1232175278371734,10,45,-1,1
-0.5751691577255312,11,45,-1,1
-2.1783613892967737,12,45,-1,1
-1.2849539962826513,13,45,-1,1
-1.6772388482514442,14,45,-1,1
-0.5236848680097032,15,45,-1,1
0.3298740292616621,16,45,-1,1
1.2953144091074937,17,45,-1,1
0.12025285380677424,18,45,-1,1
-2.446664341955284,19,45,-1,1
0.6604692648990328,20,45,-1,1
3.567310639773891,21,45,-1,1
1.450888047399518,22,45,-1,1
-1.4503149059203484,23,45,-1,1
-0.08932028018400283,24,45,-1,1
-0.8133372351522219,25,45,-1,1
-0.9548926765870034,26,45,-1,1
-0.10692293392697881,27,45,-1,1
2.46550945358397,28,45,-1,1
1.9044471729302748,29,45,-1,1
3.7416615563787077,30,45,-1,1
0.45319763802161156,31,45,-1,1
-0.27007806689709474,32,45,-1,1
1.996936538825046,33,45,-1,1
0.7192517100315838,34,45,-1,1
0.20223189304721068,35,45,-1,1
1.5302160628802985,36,45,-1,1
-1.9700719273280773,37,45,-1,1
-0.3596225779176228,38,45,-1,1
0.8569877631058954,39,45,-1,1
-0.18265901262191536,40,45,-1,1
0.6247292753773203,41,45,-1,1
0.6911422399133034,42,45,-1,1
0.634229691988925,43,45,-1,1
-1.1927996985590346,44,45,-1,1
0.17535960772575698,45,45,-1,1
0.4640816817671673,46,45,-1,1
0.11980980026949109,47,45,-1,1
0.10319296916189773,48,45,-1,1
0.034526011943256045,49,45,-1,1
-0.08604947114638427,50,45,-1,1
-0.35311597682887397,51,45,-1,1
-1.1728272318769002,52,45,-1,1
-0.690178128744127,53,45,-1,1
-0.49997636820629954,54,45,-1,1
-0.19464496686529978,55,45,-1,1
-0.10655787056960626,56,45,-1,1
-0.06975777062272817,57,45,-1,1
-0.10826045079224712,58,45,-1,1
0.4576444410107256,59,45,-1,1
0.09614278964953146,60,45,-1,1
-0.04499673071942078,61,45,-1,1
0.07965464912713677,62,45,-1,1
0.17289414010396856,63,45,-1,1
0.04655663629297016,0,46,-1,1
-0.10891077194812279,1,46,-1,1
-0.06094316606238958,2,46,-1,1
0.2097974348108305,3,46,-1,1
-0.2480232349156112,4,46,-1,1
-0.02326369924884568,5,46,-1,1
-0.019260158826210582,6,46,-1,1
-0.16703086020149732,7,46,-1,1
-0.23138451615276065,8,46,-1,1
0.2922147355390553,9,46,-1,1
1.406270627237206,10,46,-1,1
0.23483604351828377,11,46,-1,1
-0.6729323448903127,12,46,-1,1
-0.8544601876528616,13,46,-1,1
-0.8329342838540329,14,46,-1,1
0.2105374346483368,15,46,-1,1
-0.03157226150200078,16,46,-1,1
0.26409759333515775,17,46,-1,1
1.1644397973697806,18,46,-1,1
-0.9977496960259128,19,46,-1,1
-0.5002198757377907,20,46,-1,1
0.6260138402750665,21,46,-1,1
0.2827369681511982,22,46,-1,1
0.29742095472122687,23,46,-1,1
0.049337228335102484,24,46,-1,1
-0.6996170001987405,25,46,-1,1
0.842404483814418,26,46,-1,1
1.0575599580608261,27,46,-1,1
-2.756516433951403,28,46,-1,1
1.6976298325848656,29,46,-1,1
-0.3371675415969927,30,46,-1,1
0.1389522817855036,31,46,-1,1
-0.019704710574057746,32,46,-1,1
-0.251708925259113,33,46,-1,1
2.2188215581606388,34,46,-1,1
-1.2994168135064943,35,46,-1,1
-0.7005633509365826,36,46,-1,1
2.2900799916998857,37,46,-1,1
-0.5760276005806914,38,46,-1,1
-0.0005447767209710314,39,46,-1,1
-0.24829444203152304,40,46,-1,1
0.8861597654583341,41,46,-1,1
0.5220330077277442,42,46,-1,1
-0.7276433026646475,43,46,-1,1
0.7296632071706065,44,46,-1,1
0.9343677151775657,45,46,-1,1
0.6296257162586322,46,46,-1,1
0.32045433095956327,47,46,-1,1
-0.003984824352377002,48,46,-1,1
-0.6750499952185619,49,46,-1,1
-0.5113239711577993,50,46,-1,1
0.5597206554242427,51,46,-1,1
-1.7483247676917166,52,46,-1,1
-0.14208591305377033,53,46,-1,1
0.8693912725606985,54,46,-1,1
0.025385638775074156,55,46,-1,1
0.03348370310473475,56,46,-1,1
-0.09232395670945158,57,46,-1,1
-0.22143801937403473,58,46,-1,1
0.37393958871439276,59,46,-1,1
0.1913999140611465,60,46,-1,1
-0.26629207138368793,61,46,-1,1
-0.22516019160532372,62,46,-1,1
-0.18308295479559167,63,46,-1,1
-0.13025896817959837,0,47,-1,1
-0.2520618249393812,1,47,-1,1
-0.10464627361563518,2,47,-1,1
0.6017842759879595,3,47,-1,1
1.5763026941961031,4,47,-1,1
0.8219318905171213,5,47,-1,1
0.1000115886162695,6,47,-1,1
0.2086776097112884,7,47,-1,1
-0.05167479492645485,8,47,-1,1
0.5260216432756186,9,47,-1,1
1.0745139563901092,10,47,-1,1
0.7037076147049631,11,47,-1,1
0.9289339575923619,12,47,-1,1
0.9002300000205371,13,47,-1,1
0.04345231184031029,14,47,-1,1
-0.23467169963680398,15,47,-1,1
-0.08964875052382942,16,47,-1,1
1.8546545365346585,17,47,-1,1
-0.47753803604561446,18,47,-1,1
-1.3018903812622524,19,47,-1,1
-2.3607166547514775,20,47,-1,1
-1.0360345615080255,21,47,-1,1
-0.06170220811919032,22,47,-1,1
-1.3214833506665253,23,47,-1,1
0.5139332486084357,24,47,-1,1
-0.2368698133739074,25,47,-1,1
-3.215583285615463,26,47,-1,1
-1.3217529716855403,27,47,-1,1
1.340002233424327,28,47,-1,1
-0.9970551006986041,29,47,-1,1
1.335509610405403,30,47,-1,1
-0.3656559100481622,31,47,-1,1
-0.09392522656911585,32,47,-1,1
-0.5424481845771061,33,47,-1,1
-0.32901857470936163,34,47,-1,1
2.2962977071379975,35,47,-1,1
0.8536883817818677,36,47,-1,1
-0.9855611900599971,37,47,-1,1
2.049783366658697,38,47,-1,1
-0.5260526336988802,39,47,-1,1
0.21453931991203343,40,47,-1,1
-1.1845612474201812,41,47,-1,1
0.7998969070971637,42,47,-1,1
2.4575892102637606,43,47,-1,1
-0.9558496145766574,44,47,-1,1
0.8269615374022011,45,47,-1,1
-0.5329164587322652,46,47,-1,1
-0.6215729992655561,47,47,-1,1
-0.028144140193822414,48,47,-1,1
0.6555243058308049,49,47,-1,1
0.8276419361393591,50,47,-1,1
0.25359437737170026,51,47,-1,1
2.7217731273868324,52,47,-1,1
0.2490619666302097,53,47,-1,1
-1.5491252361798569,54,47,-1,1
0.16314067379698508,55,47,-1,1
0.004141886687307949,56,47,-1,1
-0.10079364118740064,57,47,-1,1
0.2645159773498089,58,47,-1,1
-0.09297248900660014,59,47,-1,1
-1.1792899771852152,60,47,-1,1
-0.982420939062612,61,47,-1,1
-0.13468981744722142,62,47,-1,1
0.07430339611676542,63,47,-1,1
0.18284245365580976,0,48,-1,1
-0.07548069370673169,1,48,-1,1
-0.48457750848934716,2,48,-1,1
-0.588407848873101,3,48,-1,1
0.16505561948799607,4,48,-1,1
0.008973662473219164,5,48,-1,1
-0.2005136787239222,6,48,-1,1
0.13031517560897707,7,48,-1,1
0.09040486969376549,8,48,-1,1
0.6337967157449973,9,48,-1,1
1.0071491324177813,10,48,-1,1
-0.7755612137024074,11,48,-1,1
0.07633272103606784,12,48,-1,1
2.277967543295154,13,48,-1,1
0.71024288602657,14,48,-1,1
0.40279860532288686,15,48,-1,1
0.06842226121120763,16,48,-1,1
0.642183376983661,17,48,-1,1
-0.38069252745562127,18,48,-1,1
-2.240563565334298,19,48,-1,1
-0.18545325478252828,20,48,-1,1
0.8595308662488664,21,48,-1,1
-0.8538435329335772,22,48,-1,1
0.6601203769704778,23,48,-1,1
0.15282057235103177,24,48,-1,1
-0.13588508195602692,25,48,-1,1
-1.0728788579168298,26,48,-1,1
-0.7372435290031927,27,48,-1,1
1.1124819239640278,28,48,-1,1
-1.3926304606462432,29,48,-1,1
-3.3701732162139915,30,48,-1,1
-0.41531959169859023,31,48,-1,1
0.231885778355855,32,48,-1,1
0.014121876233083067,33,48,-1,1
-1.2806571540176839,34,48,-1,1
-1.3177998793797858,35,48,-1,1
-0.10319870457495467,36,48,-1,1
1.557565033546003,37,48,-1,1
1.468629782543028,38,48,-1,1
-0.5996222475016469,39,48,-1,1
0.32665590522476434,40,48,-1,1
-0.043682213640026314,41,48,-1,1
-1.0127675465422405,42,48,-1,1
-1.6300917761711808,43,48,-1,1
0.35411548073569127,44,48,-1,1
1.3421658410076054,45,48,-1,1
0.20079532546254714,46,48,-1,1
-0.5806497941920283,47,48,-1,1
0.5447089837670689,48,48,-1,1
0.11476074899886894,49,48,-1,1
0.3856366401849391,50,48,-1,1
-0.36227303829867685,51,48,-1,1
1.6633565453258177,52,48,-1,1
1.8583909283793445,53,48,-1,1
-0.6121539814348699,54,48,-1,1
0.14700408153595837,55,48,-1,1
0.004166215816365135,56,48,-1,1
0.1984880816878277,57,48,-1,1
-0.2180378368868073,58,48,-1,1
-0.5438963912552922,59,48,-1,1
-0.8443624535058656,60,48,-1,1
-1.1674625035383253,61,48,-1,1
-0.18512856153155274,62,48,-1,1
0.08031117532570345,63,48,-1,1
-0.048346487595488305,0,49,-1,1
-0.05705427552491975,1,49,-1,1
0.13831121312315198,2,49,-1,1
-0.025353282237063804,3,49,-1,1
-1.1562596401899603,4,49,-1,1
-0.8658983037882583,5,49,-1,1
-0.3801550827416037,6,49,-1,1
0.0922760915172583,7,49,-1,1
-0.042288576301857936,8,49,-1,1
-0.2592626610892066,9,49,-1,1
-1.2302133729127984,10,49,-1,1
-0.2932518823013593,11,49,-1,1
0.6105611430668035,12,49,-1,1
-0.7019121696069436,13,49,-1,1
-0.9258001462437111,14,49,-1,1
-0.07478997634856344,15,49,-1,1
-0.008898114883795482,16,49,-1,1
-1.328790151225913,17,49,-1,1
-0.4398990107563061,18,49,-1,1
1.6819250372507106,19,49,-1,1
2.1122275635449745,20,49,-1,1
0.3768006649403115,21,49,-1,1
0.03417590340189215,22,49,-1,1
0.5519722250669713,23,49,-1,1
-0.5288685729563962,24,49,-1,1
0.6880835278369872,25,49,-1,1
2.4629678305734957,26,49,-1,1
-1.82197923836487,27,49,-1,1
-2.170937901044774,28,49,-1,1
0.6653806780980103,29,49,-1,1
-0.5669475418990946,30,49,-1,1
-0.32484896384710266,31,49,-1,1
0.16776956310564736,32,49,-1,1
