Weight,Input Node,Hidden Node,Output Node,Layer Index
0.18914541307205673,0,0,-1,1
0.033471871412310346,1,0,-1,1
0.3840867890094323,2,0,-1,1
0.7462002973077033,3,0,-1,1
0.11387734401288756,4,0,-1,1
0.12272340885460437,5,0,-1,1
0.02547015000280272,6,0,-1,1
-0.12693127643407986,7,0,-1,1
-0.06106497606051869,8,0,-1,1
-0.42652197743370646,9,0,-1,1
-0.17899729349999824,10,0,-1,1
-0.874405223564371,11,0,-1,1
-0.934559096651979,12,0,-1,1
0.17918067900457263,13,0,-1,1
0.7723172393052351,14,0,-1,1
0.2596286553389047,15,0,-1,1
0.1661561485778447,16,0,-1,1
-0.6513197903253961,17,0,-1,1
0.8024121644214409,18,0,-1,1
2.46211382481638,19,0,-1,1
-0.41456197074224016,20,0,-1,1
-0.4675170808054718,21,0,-1,1
0.9132773669842486,22,0,-1,1
0.5004537950582985,23,0,-1,1
0.1455207534339432,24,0,-1,1
0.6279309935279945,25,0,-1,1
1.6669528717519881,26,0,-1,1
-0.4091814930802149,27,0,-1,1
-3.243848175164815,28,0,-1,1
0.06244553810511887,29,0,-1,1
0.613832624066309,30,0,-1,1
0.010987010911430294,31,0,-1,1
0.12829249989144237,32,0,-1,1
0.42771593487547277,33,0,-1,1
2.355631806833484,34,0,-1,1
0.1429785438025297,35,0,-1,1
0.3353799585653877,36,0,-1,1
0.8921125219645252,37,0,-1,1
-0.6961063189826846,38,0,-1,1
0.4123982454586227,39,0,-1,1
-0.38260539061478965,40,0,-1,1
-0.0472829253785261,41,0,-1,1
1.7270286387861427,42,0,-1,1
2.464709233551517,43,0,-1,1
1.1382825643922292,44,0,-1,1
-0.1824180534296223,45,0,-1,1
0.3838469053244013,46,0,-1,1
0.40010037584180713,47,0,-1,1
-0.16228327278957227,48,0,-1,1
-0.8021775222783879,49,0,-1,1
-0.7601262319787485,50,0,-1,1
-0.8021167190153513,51,0,-1,1
0.5623856810577181,52,0,-1,1
0.5788552620575073,53,0,-1,1
0.731892022748244,54,0,-1,1
0.02605228087468751,55,0,-1,1
-0.11283656281942424,56,0,-1,1
-0.40718106336696325,57,0,-1,1
-0.28901848380994294,58,0,-1,1
0.5360621791315888,59,0,-1,1
0.4522626104256834,60,0,-1,1
0.12379523090198508,61,0,-1,1
0.015149879448607934,62,0,-1,1
0.063317379260302,63,0,-1,1
0.14190734934580881,0,1,-1,1
0.10228799312989069,1,1,-1,1
0.1725000998523113,2,1,-1,1
0.4969076383785107,3,1,-1,1
0.7630361617103794,4,1,-1,1
0.6393240348523406,5,1,-1,1
0.04422327584586423,6,1,-1,1
0.0008726300345169897,7,1,-1,1
-0.008437062881439689,8,1,-1,1
0.0848802872306174,9,1,-1,1
0.6914939742238699,10,1,-1,1
0.5037043629652549,11,1,-1,1
0.4045525278026597,12,1,-1,1
0.7098315777443942,13,1,-1,1
-0.582086072599844,14,1,-1,1
0.04650242508671235,15,1,-1,1
0.414395426287995,16,1,-1,1
-0.6476282974602794,17,1,-1,1
0.09243100820853642,18,1,-1,1
-0.7467087044359666,19,1,-1,1
-1.9842335762885213,20,1,-1,1
-1.7692215047933186,21,1,-1,1
-1.865758603900404,22,1,-1,1
-0.16928474860328221,23,1,-1,1
0.13034852036067401,24,1,-1,1
-2.085469796935769,25,1,-1,1
-2.6382852306466535,26,1,-1,1
-2.444491139301904,27,1,-1,1
-1.9389031285288352,28,1,-1,1
-1.3844923419329396,29,1,-1,1
-1.0167595962991534,30,1,-1,1
-0.05746034784662558,31,1,-1,1
-0.11036628160215589,32,1,-1,1
-0.4878729547920511,33,1,-1,1
0.6507422382751819,34,1,-1,1
1.7913627990855063,35,1,-1,1
-0.08823041460504871,36,1,-1,1
-0.7971181188083623,37,1,-1,1
0.07904565916623536,38,1,-1,1
0.5113310671774541,39,1,-1,1
-0.12639319778281463,40,1,-1,1
0.6022832383775419,41,1,-1,1
1.9892984183489193,42,1,-1,1
2.8296372312207505,43,1,-1,1
0.2840309297930409,44,1,-1,1
0.751632450168227,45,1,-1,1
1.849574150006673,46,1,-1,1
0.6834205415900307,47,1,-1,1
-0.08980494487673502,48,1,-1,1
-0.12715691889506364,49,1,-1,1
0.23754259716190657,50,1,-1,1
-0.9977701747627906,51,1,-1,1
-1.7026430796819914,52,1,-1,1
0.34982608435323453,53,1,-1,1
1.20690311879862,54,1,-1,1
0.22752151904521783,55,1,-1,1
0.10451384308949618,56,1,-1,1
0.08772638283955232,57,1,-1,1
-0.6131178940190115,58,1,-1,1
-1.1591053190742575,59,1,-1,1
-0.9916872367666554,60,1,-1,1
-0.8687267742089677,61,1,-1,1
-0.08875783063993391,62,1,-1,1
0.1279831774083568,63,1,-1,1
-0.06896813126073781,0,2,-1,1
0.16163470794680093,1,2,-1,1
0.11235325489536142,2,2,-1,1
-0.22197753028267686,3,2,-1,1
-0.6213146062766763,4,2,-1,1
-0.792662351533678,5,2,-1,1
-0.10318909186408219,6,2,-1,1
0.18488321723458812,7,2,-1,1
0.14572385953883776,8,2,-1,1
-0.6633887221895497,9,2,-1,1
-0.6594858081569429,10,2,-1,1
-0.6503881864993788,11,2,-1,1
-0.2149824067805585,12,2,-1,1
0.8640760209221305,13,2,-1,1
1.386911455464945,14,2,-1,1
0.21724451599358685,15,2,-1,1
0.296209305486717,16,2,-1,1
-1.2050146070121126,17,2,-1,1
1.184275542941122,18,2,-1,1
0.31495459009336074,19,2,-1,1
0.142712503916146,20,2,-1,1
-0.2168679374232228,21,2,-1,1
0.6414665233431632,22,2,-1,1
0.9528470654971866,23,2,-1,1
-0.1052420918419819,24,2,-1,1
0.8452337477086209,25,2,-1,1
1.3191269783412551,26,2,-1,1
-0.016837952306400956,27,2,-1,1
-0.10251400411322437,28,2,-1,1
-1.563131244721892,29,2,-1,1
0.7330334973529864,30,2,-1,1
0.24407661620180643,31,2,-1,1
-0.08045346392928514,32,2,-1,1
0.5401967164011359,33,2,-1,1
-0.4705241118507676,34,2,-1,1
-0.08473617097472516,35,2,-1,1
-0.9812412711637374,36,2,-1,1
-1.6328938678247895,37,2,-1,1
-0.5375702138407596,38,2,-1,1
-0.00923936677394923,39,2,-1,1
-0.4827698895826896,40,2,-1,1
-0.5230461466632068,41,2,-1,1
1.7117304672598683,42,2,-1,1
0.8873107559323199,43,2,-1,1
-1.3255621389347074,44,2,-1,1
-1.0608392221968692,45,2,-1,1
-0.5996016436650214,46,2,-1,1
-0.038587131251973106,47,2,-1,1
-0.11019634134984008,48,2,-1,1
-0.5295454297461829,49,2,-1,1
0.8340480086031733,50,2,-1,1
1.1906922137867328,51,2,-1,1
0.49472112459998957,52,2,-1,1
0.5815065812051414,53,2,-1,1
0.7391980183694219,54,2,-1,1
0.05039280629078435,55,2,-1,1
-0.020182958418788245,56,2,-1,1
-0.05859474299002582,57,2,-1,1
-0.2733420649387409,58,2,-1,1
0.011659824466871893,59,2,-1,1
-0.17146498722306416,60,2,-1,1
0.320972497215337,61,2,-1,1
-0.13260494324017133,62,2,-1,1
0.18309298002387103,63,2,-1,1
0.08690476051900635,0,3,-1,1
0.027032165344811315,1,3,-1,1
0.1307248375485393,2,3,-1,1
1.0281965578799588,3,3,-1,1
1.3288182518760498,4,3,-1,1
1.4616961306572565,5,3,-1,1
0.7105985481463212,6,3,-1,1
-0.13601478465441322,7,3,-1,1
0.18299373460733712,8,3,-1,1
-0.25947156524866455,9,3,-1,1
0.29332647225721314,10,3,-1,1
-0.3510674388694403,11,3,-1,1
-0.10545425370172191,12,3,-1,1
0.02300872705692423,13,3,-1,1
-0.8567711930163371,14,3,-1,1
-0.15417358052309818,15,3,-1,1
-0.054102752306161725,16,3,-1,1
0.049434054736422595,17,3,-1,1
-0.20361406384336553,18,3,-1,1
0.03440719284004531,19,3,-1,1
1.096748155756281,20,3,-1,1
-2.3642613623665776,21,3,-1,1
-1.6252342980585528,22,3,-1,1
-0.09356481509644483,23,3,-1,1
-0.0907664443893853,24,3,-1,1
1.1694144431519502,25,3,-1,1
1.4919634723430448,26,3,-1,1
0.9644003064999797,27,3,-1,1
0.35904938671655307,28,3,-1,1
1.2809942019586875,29,3,-1,1
2.0755594690780916,30,3,-1,1
0.20257787035492486,31,3,-1,1
-0.35880873147389586,32,3,-1,1
-0.2559453457680829,33,3,-1,1
0.5399860534804409,34,3,-1,1
-1.095813809242578,35,3,-1,1
-1.8978135402192449,36,3,-1,1
0.3064489190030186,37,3,-1,1
1.0032899053562736,38,3,-1,1
-0.05024200785833004,39,3,-1,1
0.04190052760221909,40,3,-1,1
-1.6758280315022551,41,3,-1,1
-0.7040092652713554,42,3,-1,1
-0.22149898680890195,43,3,-1,1
-0.1257999360564577,44,3,-1,1
1.0751797480239373,45,3,-1,1
-0.9700993523302852,46,3,-1,1
-0.4930197451784067,47,3,-1,1
-0.05571238640378821,48,3,-1,1
-0.10076974377265914,49,3,-1,1
-1.0596871101721215,50,3,-1,1
1.7882373321822058,51,3,-1,1
1.646972677023511,52,3,-1,1
-0.9380773270549545,53,3,-1,1
-1.0984188656182698,54,3,-1,1
-0.021411243670134826,55,3,-1,1
-0.07483268771637437,56,3,-1,1
0.19996762165169474,57,3,-1,1
0.6706135428980847,58,3,-1,1
1.5125829865232927,59,3,-1,1
0.6128009731651539,60,3,-1,1
0.2589134347925125,61,3,-1,1
0.03635940883890639,62,3,-1,1
0.06461822060995213,63,3,-1,1
0.11759382520627586,0,4,-1,1
0.055957209564750546,1,4,-1,1
-0.3219798813830755,2,4,-1,1
0.10827336292591601,3,4,-1,1
0.17558171784758173,4,4,-1,1
-0.12046184710129221,5,4,-1,1
0.03268449919219393,6,4,-1,1
-0.04638314949096257,7,4,-1,1
-0.0011178130585548687,8,4,-1,1
0.29656726773887154,9,4,-1,1
0.26289114342265174,10,4,-1,1
1.2548573688159166,11,4,-1,1
-0.44202947439709706,12,4,-1,1
-1.1152348922668698,13,4,-1,1
-0.26071437304356415,14,4,-1,1
-0.24844675200978839,15,4,-1,1
0.41358759679684426,16,4,-1,1
0.3077467527659619,17,4,-1,1
-0.9056973666665419,18,4,-1,1
-0.45059733012852304,19,4,-1,1
1.942184659896346,20,4,-1,1
1.0658645432154212,21,4,-1,1
-1.056761001308163,22,4,-1,1
-1.0545723301247307,23,4,-1,1
0.4188711673147978,24,4,-1,1
0.5051297051184942,25,4,-1,1
-0.894109691889925,26,4,-1,1
-1.5833476249630174,27,4,-1,1
4.667659353222997,28,4,-1,1
1.332448743051775,29,4,-1,1
0.6627324800130956,30,4,-1,1
-0.8072802665827954,31,4,-1,1
0.18381902433631467,32,4,-1,1
0.5025620240401497,33,4,-1,1
-2.2574931507453346,34,4,-1,1
-0.8597327182312666,35,4,-1,1
1.4614116169323865,36,4,-1,1
0.259553884740971,37,4,-1,1
-0.5469710305525385,38,4,-1,1
-0.2682152916052153,39,4,-1,1
0.014241945038195793,40,4,-1,1
-1.1089476491234658,41,4,-1,1
-3.8205145290933586,42,4,-1,1
-2.312331461231505,43,4,-1,1
-1.8074095424977092,44,4,-1,1
-1.259111043670635,45,4,-1,1
-0.8650965639475576,46,4,-1,1
-0.4223008934424045,47,4,-1,1
8.916270336190176e-05,48,4,-1,1
1.2056814927757533,49,4,-1,1
0.4250247053610181,50,4,-1,1
-1.3066478073917713,51,4,-1,1
0.15718958278945236,52,4,-1,1
-0.03832784675019862,53,4,-1,1
-0.5394015644879476,54,4,-1,1
0.2497712872841923,55,4,-1,1
-0.10731378872509159,56,4,-1,1
0.3882093965619183,57,4,-1,1
1.3886578714367832,58,4,-1,1
1.5717552895380074,59,4,-1,1
0.4736434483133746,60,4,-1,1
0.7761842096183228,61,4,-1,1
0.28442955886109045,62,4,-1,1
-0.06979379760941917,63,4,-1,1
-0.1289994229704541,0,5,-1,1
0.09304404734939722,1,5,-1,1
-0.04668503137652056,2,5,-1,1
0.13191360076592926,3,5,-1,1
0.5751962884810864,4,5,-1,1
0.30938021247634734,5,5,-1,1
0.237038510162899,6,5,-1,1
-0.053924640496348354,7,5,-1,1
0.02120938438230496,8,5,-1,1
-0.24383633391590004,9,5,-1,1
-0.4408721042699491,10,5,-1,1
-0.9374032364340553,11,5,-1,1
-1.4467424647833595,12,5,-1,1
-0.1499947992486988,13,5,-1,1
0.25576073530984983,14,5,-1,1
0.5838609617067957,15,5,-1,1
-0.10813085542059112,16,5,-1,1
0.5975625273960492,17,5,-1,1
0.9989383884690923,18,5,-1,1
0.9204047113345349,19,5,-1,1
-0.02582164585736976,20,5,-1,1
-1.4324039745882764,21,5,-1,1
-0.22770650210764493,22,5,-1,1
0.4046012054871716,23,5,-1,1
-0.06110057039362554,24,5,-1,1
1.400805671415675,25,5,-1,1
1.5418770333267164,26,5,-1,1
1.127733950762903,27,5,-1,1
4.131997198894072,28,5,-1,1
0.017548686879751925,29,5,-1,1
0.054294207251452065,30,5,-1,1
-0.39783742461922483,31,5,-1,1
0.4064799647905981,32,5,-1,1
-0.15364482034480723,33,5,-1,1
-0.8774356801553761,34,5,-1,1
0.6990380071040881,35,5,-1,1
1.2741980805075737,36,5,-1,1
1.2796096173765705,37,5,-1,1
1.8848590803737897,38,5,-1,1
-0.5621960478243745,39,5,-1,1
0.3456783466975893,40,5,-1,1
-0.9166604142807272,41,5,-1,1
-0.9180309044301591,42,5,-1,1
0.09926022727997008,43,5,-1,1
-0.01760597241651491,44,5,-1,1
0.44026121776275273,45,5,-1,1
-0.6921812293669094,46,5,-1,1
-0.573390036004557,47,5,-1,1
-0.2528132532078874,48,5,-1,1
0.5503504440515099,49,5,-1,1
-0.5275792130128594,50,5,-1,1
-1.1816375033421151,51,5,-1,1
0.0700795595579898,52,5,-1,1
-1.0478373841952797,53,5,-1,1
-1.1856247930710258,54,5,-1,1
-0.11117027707096372,55,5,-1,1
0.16549949027808591,56,5,-1,1
0.4208184520236719,57,5,-1,1
0.9919151779844246,58,5,-1,1
1.0492383584677136,59,5,-1,1
0.23789993282169694,60,5,-1,1
0.30017050794464695,61,5,-1,1
0.17748970418150223,62,5,-1,1
0.06429415774502388,63,5,-1,1
-0.14931560870650845,0,6,-1,1
-0.22223315973600116,1,6,-1,1
-0.11988028237002939,2,6,-1,1
-0.15683045633010437,3,6,-1,1
-0.009769294643643399,4,6,-1,1
-0.38569138734234704,5,6,-1,1
-0.2183205214538143,6,6,-1,1
-0.1491843816819825,7,6,-1,1
0.02456041384650659,8,6,-1,1
-0.10144097699642808,9,6,-1,1
-0.06756721769374223,10,6,-1,1
-0.06906535746880987,11,6,-1,1
-0.18584968314295078,12,6,-1,1
-0.296427173116713,13,6,-1,1
-0.2951047888792155,14,6,-1,1
0.07342612768953075,15,6,-1,1
0.014144030619230844,16,6,-1,1
0.36328494380328386,17,6,-1,1
-0.16436530339640537,18,6,-1,1
-0.3388907717797701,19,6,-1,1
-0.04936564462484495,20,6,-1,1
0.47055099939520323,21,6,-1,1
0.28708064467838873,22,6,-1,1
-0.19408464641336232,23,6,-1,1
0.3045353461398802,24,6,-1,1
0.05865607651548727,25,6,-1,1
-1.047366221246308,26,6,-1,1
-0.917933427964585,27,6,-1,1
0.2354856093674738,28,6,-1,1
0.22636522533849815,29,6,-1,1
0.1035512444512388,30,6,-1,1
0.26702654177108565,31,6,-1,1
0.08881294329305281,32,6,-1,1
-0.2509290244500267,33,6,-1,1
-0.6442831841502448,34,6,-1,1
0.18939597682010592,35,6,-1,1
0.04933420677969411,36,6,-1,1
0.10872290697302248,37,6,-1,1
-0.1517158104054482,38,6,-1,1
-0.26462794158908254,39,6,-1,1
-0.0013438102055614966,40,6,-1,1
-0.13242322157700476,41,6,-1,1
-0.027158491640175777,42,6,-1,1
0.06298710532452707,43,6,-1,1
-1.2843355711301168,44,6,-1,1
-1.0313018563535263,45,6,-1,1
-0.3628936466319952,46,6,-1,1
0.11546713001601638,47,6,-1,1
0.18129057314785368,48,6,-1,1
0.35874052581552,49,6,-1,1
-0.3285773916393402,50,6,-1,1
-0.8976223904457533,51,6,-1,1
-1.2305570230054386,52,6,-1,1
-0.5799851430044948,53,6,-1,1
-0.16842853737536945,54,6,-1,1
0.14389306111281305,55,6,-1,1
-0.0032260865209767092,56,6,-1,1
0.02533976061557034,57,6,-1,1
0.473208421686243,58,6,-1,1
0.08872117771165164,59,6,-1,1
0.4282148218703966,60,6,-1,1
0.2988050568534522,61,6,-1,1
-0.20064158853388486,62,6,-1,1
-0.11311693889251619,63,6,-1,1
-0.04689424668026072,0,7,-1,1
0.08864890378606126,1,7,-1,1
0.14772089073921543,2,7,-1,1
-0.19686539566946312,3,7,-1,1
1.0618608632473052,4,7,-1,1
0.8126060028458917,5,7,-1,1
-0.00950805220148911,6,7,-1,1
0.11264150360101828,7,7,-1,1
-0.15988718009935374,8,7,-1,1
0.2174084807343193,9,7,-1,1
0.7536784272985013,10,7,-1,1
0.3458413184685536,11,7,-1,1
-1.0159417212513573,12,7,-1,1
0.11986222632983083,13,7,-1,1
0.8140713507655759,14,7,-1,1
0.41692366590081176,15,7,-1,1
-0.007268571358319645,16,7,-1,1
-0.11735879429589348,17,7,-1,1
-2.4530318160081386,18,7,-1,1
-2.4675484751556964,19,7,-1,1
-1.225202337853558,20,7,-1,1
-1.8078248818525902,21,7,-1,1
-0.36127342531879947,22,7,-1,1
0.6741231385417767,23,7,-1,1
0.0406465123782914,24,7,-1,1
-1.2014908489345886,25,7,-1,1
0.30637929638080497,26,7,-1,1
1.044066779287884,27,7,-1,1
0.5150540778091872,28,7,-1,1
-2.0369852450853307,29,7,-1,1
-1.419927965105491,30,7,-1,1
0.036495474418456283,31,7,-1,1
0.1461383952030393,32,7,-1,1
0.9259163826932885,33,7,-1,1
1.5917584393055673,34,7,-1,1
2.2045794789052,35,7,-1,1
0.9296434268231306,36,7,-1,1
0.004902352230177763,37,7,-1,1
1.742992206907333,38,7,-1,1
-0.15180615138324247,39,7,-1,1
0.26956904645421464,40,7,-1,1
0.8460759377549392,41,7,-1,1
-2.2451416901509407,42,7,-1,1
-0.5799146096059533,43,7,-1,1
1.1611772612932785,44,7,-1,1
1.4419164924124237,45,7,-1,1
0.4130755665017188,46,7,-1,1
-0.21232089046525365,47,7,-1,1
0.38105549203446115,48,7,-1,1
0.5552071250409878,49,7,-1,1
0.6730538408697759,50,7,-1,1
-0.5106063520541272,51,7,-1,1
-0.056531310612199376,52,7,-1,1
0.09708613093410078,53,7,-1,1
-0.5592084891671186,54,7,-1,1
0.2905815574606333,55,7,-1,1
-0.11973627574804509,56,7,-1,1
0.12519583706568133,57,7,-1,1
-0.39986862282292845,58,7,-1,1
-0.9616421637901602,59,7,-1,1
-1.476198238510497,60,7,-1,1
-0.7149363503906725,61,7,-1,1
-0.027612377033639324,62,7,-1,1
-0.026295994878232518,63,7,-1,1
-0.005502065161855739,0,8,-1,1
0.14041440291103252,1,8,-1,1
-0.31849373125903424,2,8,-1,1
-0.32325903979402604,3,8,-1,1
-0.540455596255818,4,8,-1,1
-0.2741674844913203,5,8,-1,1
-0.08152578079715883,6,8,-1,1
-0.14029564847525686,7,8,-1,1
-0.14437199472586265,8,8,-1,1
-0.392784888037696,9,8,-1,1
-0.4897382952023108,10,8,-1,1
-1.750240171521193,11,8,-1,1
-1.2943912193209017,12,8,-1,1
-0.18046864352050504,13,8,-1,1
1.032817919751041,14,8,-1,1
0.4421300547229089,15,8,-1,1
-0.12019335912778767,16,8,-1,1
-0.0032035526993332134,17,8,-1,1
1.5660748377128435,18,8,-1,1
1.9870754583178951,19,8,-1,1
-1.3650648824077982,20,8,-1,1
-0.19141051626378805,21,8,-1,1
2.0097890403706153,22,8,-1,1
1.1423729366026818,23,8,-1,1
0.24380761383668614,24,8,-1,1
0.5480004676959178,25,8,-1,1
2.363662001194909,26,8,-1,1
1.8198617907845658,27,8,-1,1
1.2456914370882841,28,8,-1,1
0.03356799546561904,29,8,-1,1
-0.9800558353178823,30,8,-1,1
-0.32466683020262976,31,8,-1,1
0.22134511830465203,32,8,-1,1
-1.0647433693636457,33,8,-1,1
-1.1783328913635518,34,8,-1,1
1.0648371518643347,35,8,-1,1
1.6480755483921783,36,8,-1,1
-0.3929444758164182,37,8,-1,1
-1.0678170920101229,38,8,-1,1
-0.4814339624504236,39,8,-1,1
0.3133711262546937,40,8,-1,1
-0.35964759663627965,41,8,-1,1
-1.6915545548220758,42,8,-1,1
-2.548941873715745,43,8,-1,1
-0.7982909205499742,44,8,-1,1
-2.3100879953060467,45,8,-1,1
-0.32422596038574863,46,8,-1,1
-0.057472177122551454,47,8,-1,1
0.17732543872681447,48,8,-1,1
-0.5281114337178033,49,8,-1,1
-0.498933026965424,50,8,-1,1
-0.3934724552692096,51,8,-1,1
0.08323039158551401,52,8,-1,1
0.26116196834227506,53,8,-1,1
0.1709973566772065,54,8,-1,1
-0.0683614254406292,55,8,-1,1
0.03488160952943703,56,8,-1,1
-0.07077185684336389,57,8,-1,1
0.5118311938071467,58,8,-1,1
1.681071335935141,59,8,-1,1
1.0824317289663556,60,8,-1,1
0.4176900101303105,61,8,-1,1
-0.2156095821877965,62,8,-1,1
0.15627838324711785,63,8,-1,1
0.18202704138269354,0,9,-1,1
0.020057481935417513,1,9,-1,1
0.05240666250218336,2,9,-1,1
0.12505033162845708,3,9,-1,1
-0.00683656893528584,4,9,-1,1
0.011221305789588671,5,9,-1,1
-0.049955504904086165,6,9,-1,1
-0.02343792219403803,7,9,-1,1
0.14957154987693141,8,9,-1,1
0.029592688962604627,9,9,-1,1
0.18732384381594394,10,9,-1,1
-0.14999985320311657,11,9,-1,1
-0.2339874473757731,12,9,-1,1
-0.49277150659264,13,9,-1,1
-0.03514330550296977,14,9,-1,1
0.025918731049339814,15,9,-1,1
0.060949040800780986,16,9,-1,1
0.003682186859682469,17,9,-1,1
0.09223967930586828,18,9,-1,1
-0.928796056427863,19,9,-1,1
-0.9975683465481402,20,9,-1,1
-0.46672927587384183,21,9,-1,1
0.2585372962863499,22,9,-1,1
0.19194009725545563,23,9,-1,1
-0.2771135619943711,24,9,-1,1
-0.1989592385649682,25,9,-1,1
-0.19395729014168447,26,9,-1,1
-0.49423541941361054,27,9,-1,1
-1.2022787231361531,28,9,-1,1
-0.2834312542523802,29,9,-1,1
-0.3946876693304849,30,9,-1,1
-0.051647740662571,31,9,-1,1
-0.05878360906530196,32,9,-1,1
-0.3502237528435032,33,9,-1,1
-0.1274284180359512,34,9,-1,1
-0.8562684235524021,35,9,-1,1
-1.2807941482320306,36,9,-1,1
-0.27515075624388724,37,9,-1,1
-0.37977498151662237,38,9,-1,1
-0.31412111831410117,39,9,-1,1
-0.09491405297771541,40,9,-1,1
-0.13200452159343268,41,9,-1,1
0.018097902160547668,42,9,-1,1
-0.767739132273372,43,9,-1,1
-1.1024494005881718,44,9,-1,1
-0.33500121054359655,45,9,-1,1
-0.1194596746998066,46,9,-1,1
0.12588670161401355,47,9,-1,1
0.14684792448356374,48,9,-1,1
-0.08584888882713078,49,9,-1,1
-0.15186282944932758,50,9,-1,1
-0.7398497232355737,51,9,-1,1
-1.298009776846854,52,9,-1,1
-0.24235548201400112,53,9,-1,1
0.13085284070752604,54,9,-1,1
-0.18364508069522692,55,9,-1,1
0.03036520183840895,56,9,-1,1
0.10369944438013372,57,9,-1,1
0.07150928209524794,58,9,-1,1
0.009896228844698197,59,9,-1,1
0.3596896419077396,60,9,-1,1
0.23804249422193538,61,9,-1,1
0.25559772489972765,62,9,-1,1
0.09074151884197199,63,9,-1,1
0.05985105832211579,0,10,-1,1
0.2006288172300379,1,10,-1,1
-0.6242687337793188,2,10,-1,1
-0.2742192295268133,3,10,-1,1
0.5559295345700803,4,10,-1,1
0.2219867420593428,5,10,-1,1
-0.16718085815866213,6,10,-1,1
0.1146184567808945,7,10,-1,1
-0.23329672130767964,8,10,-1,1
0.09880752403339631,9,10,-1,1
0.9502518135439881,10,10,-1,1
-0.3103448927582307,11,10,-1,1
-3.3011247693652424,12,10,-1,1
-0.9098211344306951,13,10,-1,1
0.8796642465027307,14,10,-1,1
0.19713063264418926,15,10,-1,1
0.04527879721116026,16,10,-1,1
1.2438369161328522,17,10,-1,1
1.148510133900233,18,10,-1,1
-0.8657041957380102,19,10,-1,1
-2.6298329684301383,20,10,-1,1
1.0902360955335828,21,10,-1,1
-0.15203178681665247,22,10,-1,1
-0.14240783992766934,23,10,-1,1
0.29227124778806346,24,10,-1,1
-0.16046464926909754,25,10,-1,1
-1.1771271388101578,26,10,-1,1
-2.04911154493935,27,10,-1,1
1.5864298409539885,28,10,-1,1
0.3674490832404202,29,10,-1,1
-1.165190086117891,30,10,-1,1
0.2710130375205174,31,10,-1,1
-0.3108210312324309,32,10,-1,1
1.1009089645669414,33,10,-1,1
-1.0841023013267022,34,10,-1,1
-1.0141478683427232,35,10,-1,1
2.676086159599815,36,10,-1,1
0.5840460233864374,37,10,-1,1
0.9566882353986266,38,10,-1,1
-0.05862949845459859,39,10,-1,1
-0.02610120637639838,40,10,-1,1
-0.324471992144125,41,10,-1,1
-1.8878283430304086,42,10,-1,1
1.3234979777785536,43,10,-1,1
1.537026221948787,44,10,-1,1
-1.449935075720496,45,10,-1,1
-0.2784002536362123,46,10,-1,1
0.02288149520076666,47,10,-1,1
-0.13480305081701166,48,10,-1,1
-0.04798812098913968,49,10,-1,1
-0.11668953355618061,50,10,-1,1
-0.9493183379321614,51,10,-1,1
0.4756017066489045,52,10,-1,1
-0.024923736300892948,53,10,-1,1
0.21011218989465016,54,10,-1,1
0.00047048779049122853,55,10,-1,1
0.2523078299781871,56,10,-1,1
-0.09607582359865047,57,10,-1,1
-0.09356461987716368,58,10,-1,1
-0.2989558642260528,59,10,-1,1
-1.4219187698549702,60,10,-1,1
-1.3332110340690042,61,10,-1,1
-0.005254964919952334,62,10,-1,1
0.24183849043548905,63,10,-1,1
0.06967990393454346,0,11,-1,1
0.06583012615305404,1,11,-1,1
-0.006327283034072399,2,11,-1,1
0.13240276448653365,3,11,-1,1
0.17520299347206023,4,11,-1,1
-0.06916626443197751,5,11,-1,1
0.09059344790967555,6,11,-1,1
0.01748997199557419,7,11,-1,1
0.22026606263954487,8,11,-1,1
0.18900965185823387,9,11,-1,1
-0.809563621619782,10,11,-1,1
-1.2930519849981517,11,11,-1,1
-1.930243453591274,12,11,-1,1
-1.430860112241342,13,11,-1,1
0.01371781581398953,14,11,-1,1
-0.07566704739627225,15,11,-1,1
0.0006791376742812529,16,11,-1,1
-0.11134329029327103,17,11,-1,1
-1.4051534865194926,18,11,-1,1
-2.2317859850049553,19,11,-1,1
0.7995084555812743,20,11,-1,1
-0.7331453906662779,21,11,-1,1
0.6459145552263404,22,11,-1,1
0.45940898574646427,23,11,-1,1
-0.040858591246456105,24,11,-1,1
-0.09311592519766608,25,11,-1,1
0.40647394964845124,26,11,-1,1
0.3854754930199304,27,11,-1,1
2.328982653780725,28,11,-1,1
-1.0484849774714236,29,11,-1,1
0.35747024515150144,30,11,-1,1
0.1001197358446219,31,11,-1,1
-0.029200301355901754,32,11,-1,1
-0.03375903897035227,33,11,-1,1
0.09875410843937456,34,11,-1,1
0.49189521176853673,35,11,-1,1
1.0564719883056446,36,11,-1,1
-1.6639479703604805,37,11,-1,1
-0.3631254759093265,38,11,-1,1
-0.3840672330387699,39,11,-1,1
0.03595301602225776,40,11,-1,1
-0.20842234607952106,41,11,-1,1
-1.4721796028944771,42,11,-1,1
1.8221681519728732,43,11,-1,1
0.28451033766585937,44,11,-1,1
-2.0882028261605003,45,11,-1,1
-0.8524819784216782,46,11,-1,1
-0.20738606006473123,47,11,-1,1
0.09929424741282701,48,11,-1,1
0.01311682121586504,49,11,-1,1
-0.9742186260769545,50,11,-1,1
-1.6510850829940005,51,11,-1,1
-0.9034678220436527,52,11,-1,1
-0.5096742212602695,53,11,-1,1
-0.14449720379238493,54,11,-1,1
0.12483973494400101,55,11,-1,1
0.16367429274257894,56,11,-1,1
0.020489829895700525,57,11,-1,1
-0.13536023618695806,58,11,-1,1
-0.8349316020026775,59,11,-1,1
-0.2902395912113772,60,11,-1,1
-0.06100083944071112,61,11,-1,1
0.04254827419281403,62,11,-1,1
0.09175302808506983,63,11,-1,1
0.026124611118423756,0,12,-1,1
0.14685385909370668,1,12,-1,1
0.2931054058290262,2,12,-1,1
0.7125131534523552,3,12,-1,1
0.4760890989725235,4,12,-1,1
0.66113059315023,5,12,-1,1
0.09793934025489888,6,12,-1,1
0.01787832798136177,7,12,-1,1
-0.04780204992492065,8,12,-1,1
0.2571947927080306,9,12,-1,1
-0.41980211676604845,10,12,-1,1
-0.12822429662608356,11,12,-1,1
0.7936518973836402,12,12,-1,1
-0.4858319447822771,13,12,-1,1
-1.3703343093585572,14,12,-1,1
-0.025251952924487307,15,12,-1,1
-0.13861620497451493,16,12,-1,1
-0.00855065712224958,17,12,-1,1
-0.6197579255116784,18,12,-1,1
1.9517456828834838,19,12,-1,1
-0.13581950321240566,20,12,-1,1
-2.5110802392787144,21,12,-1,1
-1.901965360504605,22,12,-1,1
-0.6873084978230063,23,12,-1,1
0.041062013590968734,24,12,-1,1
0.02703139733220168,25,12,-1,1
0.22740268013813345,26,12,-1,1
-0.8905014330477162,27,12,-1,1
-0.35068023315702207,28,12,-1,1
1.2753703542257204,29,12,-1,1
0.55066912126156,30,12,-1,1
-0.5879980416287751,31,12,-1,1
0.08960442765551146,32,12,-1,1
-0.5765036775865734,33,12,-1,1
-0.7403418900229445,34,12,-1,1
-1.1354178590088753,35,12,-1,1
0.7898811397097016,36,12,-1,1
1.4459023955451398,37,12,-1,1
-0.4923869923569893,38,12,-1,1
0.15257669932849377,39,12,-1,1
-0.1163859788960646,40,12,-1,1
0.1544557892330626,41,12,-1,1
-0.6635879001717772,42,12,-1,1
-0.310625398673563,43,12,-1,1
1.3223527408995306,44,12,-1,1
0.2513134888848358,45,12,-1,1
0.3924568511624231,46,12,-1,1
0.2377602622256524,47,12,-1,1
0.05377990592314127,48,12,-1,1
0.2502218143374805,49,12,-1,1
-0.8919301535099152,50,12,-1,1
-2.0310758129354904,51,12,-1,1
-1.2716234537474302,52,12,-1,1
-0.8205186068791099,53,12,-1,1
0.5046930612930596,54,12,-1,1
-0.03381893063113732,55,12,-1,1
-0.09861692861022171,56,12,-1,1
0.09540922507511573,57,12,-1,1
0.76228338347741,58,12,-1,1
0.7340621591125553,59,12,-1,1
0.725573760748495,60,12,-1,1
0.8874105479371863,61,12,-1,1
0.15164143860882384,62,12,-1,1
-0.0500811114404925,63,12,-1,1
-0.12711832721369676,0,13,-1,1
-0.05195655234292151,1,13,-1,1
-0.07488793041698576,2,13,-1,1
-0.524974163006795,3,13,-1,1
-1.0613036981930768,4,13,-1,1
-0.8697367191111965,5,13,-1,1
-0.15409766923810922,6,13,-1,1
-0.22989900987971193,7,13,-1,1
-0.12930894015123923,8,13,-1,1
-0.3996548446033299,9,13,-1,1
-0.02134518459917727,10,13,-1,1
1.9135017064875144,11,13,-1,1
1.3286942311532661,12,13,-1,1
0.1138026574935492,13,13,-1,1
0.5587275269842072,14,13,-1,1
0.6018598386226438,15,13,-1,1
-0.2239983936069485,16,13,-1,1
-0.6289527025161633,17,13,-1,1
0.2817844068352773,18,13,-1,1
-0.8419697908142314,19,13,-1,1
-0.4467655583741941,20,13,-1,1
-0.12529877949101645,21,13,-1,1
1.9179356693133625,22,13,-1,1
0.9373164608998339,23,13,-1,1
-0.8080759995922249,24,13,-1,1
-0.4035887340137836,25,13,-1,1
-0.21773159316117977,26,13,-1,1
1.6218730755824384,27,13,-1,1
2.372486966193018,28,13,-1,1
-1.5371280597343182,29,13,-1,1
-1.2689898729059568,30,13,-1,1
0.16703998058702033,31,13,-1,1
0.13321697404590097,32,13,-1,1
-0.6913355365003147,33,13,-1,1
-3.3776411245661366,34,13,-1,1
0.6632839280857714,35,13,-1,1
-0.9183592060179739,36,13,-1,1
-2.597701010072802,37,13,-1,1
-1.6092101218638803,38,13,-1,1
-0.3152998259092827,39,13,-1,1
-0.2003949818873577,40,13,-1,1
1.2057527102928491,41,13,-1,1
0.22885636594405273,42,13,-1,1
-2.4432836224043686,43,13,-1,1
-1.5328778372842058,44,13,-1,1
-0.005513895548908544,45,13,-1,1
1.0383633027229768,46,13,-1,1
-0.19534275906895543,47,13,-1,1
-0.06594469256594876,48,13,-1,1
0.23108033216750856,49,13,-1,1
1.6706815388362775,50,13,-1,1
1.841782705125568,51,13,-1,1
1.2877651139178765,52,13,-1,1
1.2628056645729426,53,13,-1,1
0.6397821375900493,54,13,-1,1
-0.25904648493308796,55,13,-1,1
-0.3497873528358516,56,13,-1,1
-0.6311292809955892,57,13,-1,1
-0.793036540153142,58,13,-1,1
-0.02352403318364716,59,13,-1,1
0.13852689804757667,60,13,-1,1
0.0015141891451463025,61,13,-1,1
-0.190514940857409,62,13,-1,1
0.0641572983915661,63,13,-1,1
-0.004111264977809574,0,14,-1,1
-0.3120574071716655,1,14,-1,1
-0.004326831717024353,2,14,-1,1
-0.2015931433700739,3,14,-1,1
-0.6527006920212648,4,14,-1,1
-0.32364916922229703,5,14,-1,1
-0.05669807932936826,6,14,-1,1
-0.05119905618396368,7,14,-1,1
-0.20150416670707644,8,14,-1,1
0.3798930736398624,9,14,-1,1
0.5645330996761344,10,14,-1,1
2.5302203620818178,11,14,-1,1
4.63858185924737,12,14,-1,1
2.719608321779521,13,14,-1,1
0.11097636059564168,14,14,-1,1
-0.2858040348606955,15,14,-1,1
-0.33025277354002625,16,14,-1,1
-0.8460947041913978,17,14,-1,1
-0.7992849792845156,18,14,-1,1
-1.284339771590152,19,14,-1,1
-0.7655912731932807,20,14,-1,1
-2.1092448515387554,21,14,-1,1
-1.9814145536755567,22,14,-1,1
-0.8690535341354458,23,14,-1,1
-0.4601833533348744,24,14,-1,1
-1.0008527149764137,25,14,-1,1
-1.0928946101867958,26,14,-1,1
-0.9420500756169237,27,14,-1,1
0.7049811030340292,28,14,-1,1
-1.0236100589817432,29,14,-1,1
0.7391091787918922,30,14,-1,1
-0.42241356865320717,31,14,-1,1
-0.17805801214730574,32,14,-1,1
0.9877204609851403,33,14,-1,1
0.9255696796105546,34,14,-1,1
4.897917157143041,35,14,-1,1
2.860214576020799,36,14,-1,1
1.2324221386823668,37,14,-1,1
0.8058471633419637,38,14,-1,1
0.19671897627788848,39,14,-1,1
0.2709165537552475,40,14,-1,1
-0.044811128781550115,41,14,-1,1
0.613939075459849,42,14,-1,1
-0.18243930771785424,43,14,-1,1
0.9076394897102716,44,14,-1,1
1.3796016269287716,45,14,-1,1
0.5727284529874502,46,14,-1,1
-0.30931877338420366,47,14,-1,1
0.17974928080240993,48,14,-1,1
0.71780210493404,49,14,-1,1
0.17373896090228913,50,14,-1,1
0.35220196186954855,51,14,-1,1
0.9552176924412585,52,14,-1,1
0.42344414912055744,53,14,-1,1
0.4382445879016489,54,14,-1,1
0.1734425138814218,55,14,-1,1
0.006403874564661458,56,14,-1,1
0.11271181859515643,57,14,-1,1
0.4018424948721161,58,14,-1,1
-0.578544425204935,59,14,-1,1
-1.8056692699771766,60,14,-1,1
-0.4169373053769871,61,14,-1,1
0.10563730914567779,62,14,-1,1
0.030601755150657987,63,14,-1,1
0.047237578970085646,0,15,-1,1
0.05361440659012059,1,15,-1,1
0.12421786968765387,2,15,-1,1
-0.07041822865625867,3,15,-1,1
-0.13702236628466408,4,15,-1,1
0.49400832454634125,5,15,-1,1
0.18103369468278535,6,15,-1,1
-0.15207601067060067,7,15,-1,1
0.24474115921420675,8,15,-1,1
-0.16381459496268855,9,15,-1,1
-2.0329261511093897,10,15,-1,1
-2.947133551574747,11,15,-1,1
-1.237314589188464,12,15,-1,1
1.2642336203859887,13,15,-1,1
1.1612778961567014,14,15,-1,1
0.0702320443209963,15,15,-1,1
0.10057962157945168,16,15,-1,1
-0.9346780878191279,17,15,-1,1
-3.7185684820951024,18,15,-1,1
0.5297548120610952,19,15,-1,1
1.2139573541264483,20,15,-1,1
-0.8771056186094373,21,15,-1,1
0.30004968628384293,22,15,-1,1
0.5881487050264453,23,15,-1,1
0.19377490439244785,24,15,-1,1
-0.6935798186005114,25,15,-1,1
-1.1364595758591243,26,15,-1,1
2.5737318180941315,27,15,-1,1
1.1550326264422648,28,15,-1,1
-2.4950315227974516,29,15,-1,1
-1.0440628946510027,30,15,-1,1
-0.13740193013487326,31,15,-1,1
-0.12290466637430907,32,15,-1,1
-0.5697668174287522,33,15,-1,1
-1.3125816040864557,34,15,-1,1
0.2930731542987567,35,15,-1,1
-0.27344553298191326,36,15,-1,1
-1.5179501045769948,37,15,-1,1
-1.2882561201923386,38,15,-1,1
-0.6145582709769082,39,15,-1,1
-0.5486186454628952,40,15,-1,1
-0.23496708871881586,41,15,-1,1
-0.26078195021376976,42,15,-1,1
0.757342810040635,43,15,-1,1
0.045486610231704375,44,15,-1,1
-1.297852380251119,45,15,-1,1
-1.8739060743092537,46,15,-1,1
-0.3511371086894791,47,15,-1,1
-0.11799314799279838,48,15,-1,1
-0.023520545390351755,49,15,-1,1
0.6233831395378499,50,15,-1,1
-0.35810454767247935,51,15,-1,1
0.18533833599387248,52,15,-1,1
-0.8124595638621442,53,15,-1,1
-0.153250559866898,54,15,-1,1
0.15200255410861854,55,15,-1,1
0.01727487858577872,56,15,-1,1
0.3452236377777113,57,15,-1,1
-0.16072704116129768,58,15,-1,1
-0.3873800225875806,59,15,-1,1
-0.32409863491422614,60,15,-1,1
0.31410591128530274,61,15,-1,1
0.20991574626311538,62,15,-1,1
0.27286285914004016,63,15,-1,1
-0.09937667311010157,0,16,-1,1
0.2630073871761058,1,16,-1,1
0.1988611878438991,2,16,-1,1
1.4123933084658484,3,16,-1,1
1.4229344390979857,4,16,-1,1
0.3933700771466074,5,16,-1,1
0.17806166913436017,6,16,-1,1
0.050932176628807245,7,16,-1,1
-0.1143739883299367,8,16,-1,1
-0.27506765695153046,9,16,-1,1
-0.1857644655625757,10,16,-1,1
-0.23128513498245135,11,16,-1,1
0.11745518770738889,12,16,-1,1
0.6205183032930819,13,16,-1,1
0.4681039921734748,14,16,-1,1
0.10151639995782107,15,16,-1,1
0.5083300923992773,16,16,-1,1
0.57289032310188,17,16,-1,1
0.46682470322741654,18,16,-1,1
0.8087801016308825,19,16,-1,1
0.03209307975020605,20,16,-1,1
-0.24712412884066953,21,16,-1,1
1.3654215699670085,22,16,-1,1
0.37216805834655414,23,16,-1,1
-0.02071645861242317,24,16,-1,1
0.6049565077803442,25,16,-1,1
0.06534466868585123,26,16,-1,1
-0.05540173786817801,27,16,-1,1
-0.18560625478029813,28,16,-1,1
-0.629664222050993,29,16,-1,1
1.3382826713701688,30,16,-1,1
0.0034199378456918287,31,16,-1,1
0.055196226700019564,32,16,-1,1
0.24190951383723117,33,16,-1,1
-2.9754790847004777,34,16,-1,1
-2.6009543662913766,35,16,-1,1
-2.315885816985227,36,16,-1,1
-1.3192408980558092,37,16,-1,1
1.1814485604096745,38,16,-1,1
0.2563753116702742,39,16,-1,1
-0.5196943011407754,40,16,-1,1
2.1430588290648536,41,16,-1,1
4.315021838438024,42,16,-1,1
3.2232191443144336,43,16,-1,1
0.9795872374530104,44,16,-1,1
0.45711409164461175,45,16,-1,1
1.1328294996198172,46,16,-1,1
0.29723319853237146,47,16,-1,1
-0.10062796212739643,48,16,-1,1
-0.15459569641950466,49,16,-1,1
0.2916968083094255,50,16,-1,1
0.930200523430628,51,16,-1,1
0.9634231610438788,52,16,-1,1
-0.09989609727067059,53,16,-1,1
0.02850918073063582,54,16,-1,1
-0.15485514144328685,55,16,-1,1
0.0372931988996123,56,16,-1,1
-0.2931108461706297,57,16,-1,1
-1.0891247735648502,58,16,-1,1
0.02129375071072311,59,16,-1,1
0.21691865299782565,60,16,-1,1
-0.11497517634315332,61,16,-1,1
-0.20364202456523461,62,16,-1,1
0.1800896914261424,63,16,-1,1
0.26114242931591264,0,17,-1,1
-0.09487167618024055,1,17,-1,1
-0.6261698833235091,2,17,-1,1
0.15051339952212328,3,17,-1,1
0.9123189630563887,4,17,-1,1
0.14406911100636344,5,17,-1,1
-0.5022492644679153,6,17,-1,1
0.18650058892982854,7,17,-1,1
-0.10688628165338436,8,17,-1,1
0.19687455872025791,9,17,-1,1
0.23598528023060636,10,17,-1,1
0.06594188327207538,11,17,-1,1
-1.2497961063466954,12,17,-1,1
-0.5054464549598542,13,17,-1,1
0.1638334513662322,14,17,-1,1
0.03681838728705402,15,17,-1,1
0.13647799624700266,16,17,-1,1
2.115221779769855,17,17,-1,1
0.5394040220894286,18,17,-1,1
1.6525372487073713,19,17,-1,1
3.7037429799499186,20,17,-1,1
1.3812056267866635,21,17,-1,1
1.9125567831520291,22,17,-1,1
0.5169610238967762,23,17,-1,1
0.34755319118220895,24,17,-1,1
0.06829360977075082,25,17,-1,1
-1.981161980314159,26,17,-1,1
-1.222448995710863,27,17,-1,1
0.7642619404039145,28,17,-1,1
-1.799951721928756,29,17,-1,1
-0.2945294279682248,30,17,-1,1
0.05099172787861982,31,17,-1,1
0.15351297781500028,32,17,-1,1
-1.2283960920909895,33,17,-1,1
-2.5498301474142484,34,17,-1,1
-3.3153355376700313,35,17,-1,1
-4.008938799917245,36,17,-1,1
0.1907221150535162,37,17,-1,1
1.330979566785861,38,17,-1,1
-0.2773873817141026,39,17,-1,1
0.15573753505068974,40,17,-1,1
0.298698987518689,41,17,-1,1
-1.4241625968663991,42,17,-1,1
0.39846917478677735,43,17,-1,1
-0.42720729985360983,44,17,-1,1
0.22208837651398447,45,17,-1,1
-0.1567975033375338,46,17,-1,1
-0.22199023838677073,47,17,-1,1
0.11863480287716417,48,17,-1,1
0.9458344666524292,49,17,-1,1
1.797670744936962,50,17,-1,1
1.2501099157360123,51,17,-1,1
1.387799180790782,52,17,-1,1
-0.5433914710952852,53,17,-1,1
-0.9914836837596179,54,17,-1,1
0.09868706671433325,55,17,-1,1
-0.1193489488341526,56,17,-1,1
0.4709734829425142,57,17,-1,1
0.3562461827164291,58,17,-1,1
0.5665332307762778,59,17,-1,1
0.9607774451951886,60,17,-1,1
-0.22751274119228104,61,17,-1,1
-0.15079882815269657,62,17,-1,1
0.2876020498110686,63,17,-1,1
0.12454933609187076,0,18,-1,1
0.09238030943279446,1,18,-1,1
-0.25878920531011046,2,18,-1,1
-0.35222561875553504,3,18,-1,1
-0.513878977646495,4,18,-1,1
-0.19245680955609462,5,18,-1,1
-0.05748304072372823,6,18,-1,1
-0.08132636051809629,7,18,-1,1
-0.00044758466194297277,8,18,-1,1
0.1133398109946431,9,18,-1,1
0.35482246974768666,10,18,-1,1
-0.27709180078777984,11,18,-1,1
0.005086816461109331,12,18,-1,1
-0.6977092235059669,13,18,-1,1
-0.7321500227021359,14,18,-1,1
0.08161960613064466,15,18,-1,1
-0.10334105928470222,16,18,-1,1
-0.1363582356233787,17,18,-1,1
0.2000944530484824,18,18,-1,1
-1.493419917537945,19,18,-1,1
-2.0669888896820985,20,18,-1,1
-0.8017035723242903,21,18,-1,1
-0.3737067086382992,22,18,-1,1
-0.12098828446474619,23,18,-1,1
-0.13167955309719434,24,18,-1,1
-0.5842575201233302,25,18,-1,1
-0.47338233849563915,26,18,-1,1
-0.0193772716490856,27,18,-1,1
-1.0295706428260514,28,18,-1,1
-0.04967336939794302,29,18,-1,1
-0.6792458308934585,30,18,-1,1
0.10950082148615281,31,18,-1,1
-0.010261854974028345,32,18,-1,1
-0.7253330102539195,33,18,-1,1
-0.9441395712827617,34,18,-1,1
0.2741013584506395,35,18,-1,1
-0.6241415375106555,36,18,-1,1
-0.3146178380116072,37,18,-1,1
-1.1676835364888403,38,18,-1,1
-0.12474385649896359,39,18,-1,1
-0.10954725769411089,40,18,-1,1
-0.5293000732894798,41,18,-1,1
-1.4100674774056339,42,18,-1,1
-2.605308742210712,43,18,-1,1
-2.070027210075697,44,18,-1,1
-0.1931033731268939,45,18,-1,1
-0.5377412012574234,46,18,-1,1
0.07921220081676969,47,18,-1,1
-0.04446963720944348,48,18,-1,1
0.16643133351962652,49,18,-1,1
-0.7636509006973629,50,18,-1,1
-0.30366020633652124,51,18,-1,1
-0.831057144736614,52,18,-1,1
-0.02032586737962037,53,18,-1,1
0.012728602357271256,54,18,-1,1
-0.10438242857293775,55,18,-1,1
0.07079605673534269,56,18,-1,1
-0.027525124516090533,57,18,-1,1
0.2212782434709241,58,18,-1,1
0.3491987441781227,59,18,-1,1
-0.21099851344217033,60,18,-1,1
-0.1981939495136745,61,18,-1,1
0.020204261554144353,62,18,-1,1
-0.02466657625352764,63,18,-1,1
0.17218273813835666,0,19,-1,1
-0.1522991783761965,1,19,-1,1
0.06589986358749307,2,19,-1,1
0.12511841913209037,3,19,-1,1
0.7390686800299014,4,19,-1,1
0.6366827076081133,5,19,-1,1
-0.07658518546660247,6,19,-1,1
-0.02784200586799502,7,19,-1,1
0.19153546427647752,8,19,-1,1
0.5119621984069948,9,19,-1,1
0.5815308774183849,10,19,-1,1
0.5952634207286719,11,19,-1,1
0.14950886134889768,12,19,-1,1
-0.466523255693993,13,19,-1,1
-0.9008998876625609,14,19,-1,1
-0.4001227983874037,15,19,-1,1
0.10679234370185843,16,19,-1,1
0.4856663331980281,17,19,-1,1
-0.7122833479991518,18,19,-1,1
-1.6423070061805138,19,19,-1,1
3.689446480532678,20,19,-1,1
2.617315559060876,21,19,-1,1
-0.19030575849433934,22,19,-1,1
-0.6751339631882304,23,19,-1,1
0.6100010621300005,24,19,-1,1
-1.4107606582464602,25,19,-1,1
-1.7063350755077817,26,19,-1,1
-2.7703651293677174,27,19,-1,1
0.7030410173309106,28,19,-1,1
1.401115966382064,29,19,-1,1
-0.06538841876368379,30,19,-1,1
0.26067539382232274,31,19,-1,1
0.23994800219112572,32,19,-1,1
0.3828625474134897,33,19,-1,1
0.03742659091770498,34,19,-1,1
-1.6876404522202166,35,19,-1,1
-0.6964645958464233,36,19,-1,1
-0.38966038544297416,37,19,-1,1
0.08701633709925317,38,19,-1,1
0.8336252087466913,39,19,-1,1
0.19751469352700035,40,19,-1,1
1.6146234135156377,41,19,-1,1
-0.9432619488605813,42,19,-1,1
0.39242912497095134,43,19,-1,1
0.47230359413622386,44,19,-1,1
0.661918299322868,45,19,-1,1
0.7175772836654735,46,19,-1,1
0.2051176232508943,47,19,-1,1
0.012743249950831082,48,19,-1,1
0.8827615918905144,49,19,-1,1
0.9749005543424748,50,19,-1,1
0.4738087135004372,51,19,-1,1
-1.0161599556671006,52,19,-1,1
-0.6958193650208283,53,19,-1,1
0.04311730314399957,54,19,-1,1
0.26033242341313706,55,19,-1,1
-0.16796244960333154,56,19,-1,1
0.1964045625259323,57,19,-1,1
0.20028485388267278,58,19,-1,1
-0.40257302988027005,59,19,-1,1
0.3334103056648656,60,19,-1,1
-0.16266671521074658,61,19,-1,1
0.05876001298517585,62,19,-1,1
0.08474455035029145,63,19,-1,1
0.17368284784853127,0,20,-1,1
-0.03535320583679914,1,20,-1,1
-0.08668731415005637,2,20,-1,1
0.24661641122520517,3,20,-1,1
0.05902651853023029,4,20,-1,1
0.1481679244488533,5,20,-1,1
-0.14607406873679793,6,20,-1,1
0.24747026678019346,7,20,-1,1
-0.1986872040444283,8,20,-1,1
-0.21052042339639004,9,20,-1,1
0.22022416019322572,10,20,-1,1
-0.1618313573900143,11,20,-1,1
-1.9593321858620147,12,20,-1,1
-1.391296061114256,13,20,-1,1
-0.3207497139749295,14,20,-1,1
0.2904842921223363,15,20,-1,1
-0.03730374412294978,16,20,-1,1
0.14780379527698428,17,20,-1,1
0.29187598893879735,18,20,-1,1
-1.4580035026683371,19,20,-1,1
-0.8971037780243265,20,20,-1,1
0.30681054517831385,21,20,-1,1
1.0268068645774557,22,20,-1,1
0.7202513987550069,23,20,-1,1
0.14922963597016506,24,20,-1,1
-0.16779753397192704,25,20,-1,1
-0.1735683171064389,26,20,-1,1
-0.48479105990043087,27,20,-1,1
-1.2281900209132997,28,20,-1,1
-0.5732002494389737,29,20,-1,1
-0.47021289590877346,30,20,-1,1
0.24254012247495885,31,20,-1,1
-0.028812521358133496,32,20,-1,1
0.023138881450517696,33,20,-1,1
0.7789857081467558,34,20,-1,1
-0.015697432824883104,35,20,-1,1
-0.0485539570672479,36,20,-1,1
-0.4338048787809873,37,20,-1,1
-0.4023657829414828,38,20,-1,1
0.03543096330706488,39,20,-1,1
-0.07773781002665031,40,20,-1,1
0.889718560538089,41,20,-1,1
0.005935030382187592,42,20,-1,1
-0.37597118729720624,43,20,-1,1
-0.2706476041511112,44,20,-1,1
-0.6589914039533729,45,20,-1,1
0.7150222967723399,46,20,-1,1
0.257861973455478,47,20,-1,1
0.026633183094096968,48,20,-1,1
-0.29560785201033773,49,20,-1,1
-0.4623208624668499,50,20,-1,1
-0.8672321220141,51,20,-1,1
-1.5474485122367307,52,20,-1,1
-0.18668973830394045,53,20,-1,1
0.2545153647191061,54,20,-1,1
-0.14443900592243794,55,20,-1,1
-0.040858458695506784,56,20,-1,1
-0.1863690584204083,57,20,-1,1
-0.18354363944900123,58,20,-1,1
-0.02706947059512579,59,20,-1,1
0.09368059517692506,60,20,-1,1
-0.03386025005634605,61,20,-1,1
-0.1890058751213467,62,20,-1,1
0.11325544023992884,63,20,-1,1
-0.11580945400569588,0,21,-1,1
-0.007695001768822375,1,21,-1,1
-0.06741970446650983,2,21,-1,1
0.1726250962502325,3,21,-1,1
0.45965993279354717,4,21,-1,1
0.19903746886232734,5,21,-1,1
-0.1268718438772303,6,21,-1,1
-0.056765555231969085,7,21,-1,1
0.11595881641364837,8,21,-1,1
0.18707079193681864,9,21,-1,1
0.6313769944691345,10,21,-1,1
-0.2691762368260201,11,21,-1,1
-0.5588536287650919,12,21,-1,1
-0.4378165990026541,13,21,-1,1
-0.2790862956899659,14,21,-1,1
-0.08632290810462968,15,21,-1,1
-0.03086612838759925,16,21,-1,1
-0.1562072847873351,17,21,-1,1
0.12006089330594728,18,21,-1,1
-0.6952165846960084,19,21,-1,1
-1.0761607616442224,20,21,-1,1
-0.730884568326274,21,21,-1,1
-0.3302051004410643,22,21,-1,1
-0.2229989008588882,23,21,-1,1
-0.022238417083333958,24,21,-1,1
-0.4331229268474942,25,21,-1,1
-0.3092420512311398,26,21,-1,1
-0.33616383751470574,27,21,-1,1
-1.088373864245426,28,21,-1,1
-0.1553972647713992,29,21,-1,1
-0.04953899200621766,30,21,-1,1
-0.14088808872098035,31,21,-1,1
0.14841440447850307,32,21,-1,1
-0.18421725554842427,33,21,-1,1
-0.2135872602323853,34,21,-1,1
-0.7773468206988163,35,21,-1,1
-0.9022773534219618,36,21,-1,1
-0.13023458579523367,37,21,-1,1
0.02437119603783536,38,21,-1,1
-0.048137750184282145,39,21,-1,1
-0.05794367394541845,40,21,-1,1
-0.12738300355483484,41,21,-1,1
-0.4745753673867398,42,21,-1,1
-1.1092197460549709,43,21,-1,1
-1.2107676357845862,44,21,-1,1
-0.2506346850304646,45,21,-1,1
-0.17777632407138041,46,21,-1,1
-0.06207278847596333,47,21,-1,1
-0.0782806283345933,48,21,-1,1
0.025204823535093752,49,21,-1,1
-0.5125933781103281,50,21,-1,1
-0.4809511947055213,51,21,-1,1
-0.7745746628759355,52,21,-1,1
-0.516238183069354,53,21,-1,1
-0.03942495698919468,54,21,-1,1
-0.252489384522456,55,21,-1,1
0.010834098439291735,56,21,-1,1
0.17703987438738208,57,21,-1,1
0.2677539723647161,58,21,-1,1
0.2997352044937467,59,21,-1,1
0.012077109075160571,60,21,-1,1
-0.007368753126546293,61,21,-1,1
-0.060586952495125454,62,21,-1,1
-0.04794521496980704,63,21,-1,1
-0.006470674457850605,0,22,-1,1
-0.08923866361205268,1,22,-1,1
-0.09520732489735259,2,22,-1,1
-0.1252661773128587,3,22,-1,1
0.3619827531882067,4,22,-1,1
0.1232250850227329,5,22,-1,1
0.15830778882328353,6,22,-1,1
0.19598810261932767,7,22,-1,1
0.057417152597470454,8,22,-1,1
0.0441193438616771,9,22,-1,1
-0.35628984563539134,10,22,-1,1
-0.12220967233027667,11,22,-1,1
-0.020490301038567634,12,22,-1,1
-0.24127330112835857,13,22,-1,1
0.050348967133772383,14,22,-1,1
-0.07407010415912489,15,22,-1,1
0.3230209724215262,16,22,-1,1
-0.13888195754206425,17,22,-1,1
-0.6701358200858191,18,22,-1,1
0.5532546210710928,19,22,-1,1
1.2609604839083661,20,22,-1,1
0.4158008249227271,21,22,-1,1
0.026973330860297164,22,22,-1,1
-0.11623588831514425,23,22,-1,1
0.16723143816162614,24,22,-1,1
-0.029190608794218854,25,22,-1,1
0.5920672474919028,26,22,-1,1
0.7966993116764787,27,22,-1,1
2.407975357954612,28,22,-1,1
0.0641343827418675,29,22,-1,1
0.7281590139406396,30,22,-1,1
0.29909859551297174,31,22,-1,1
0.08603206296361984,32,22,-1,1
-5.675123235858262e-05,33,22,-1,1
0.35820400582940115,34,22,-1,1
0.7551864106740447,35,22,-1,1
-0.19154930659979197,36,22,-1,1
-1.7392380167995272,37,22,-1,1
1.1795716553214104,38,22,-1,1
-0.08049328553133579,39,22,-1,1
0.33117746531667525,40,22,-1,1
-0.663835787308112,41,22,-1,1
-0.42995513066619434,42,22,-1,1
0.9138869088829247,43,22,-1,1
-0.5205767446264266,44,22,-1,1
-0.24006702136022393,45,22,-1,1
-0.3756834218405024,46,22,-1,1
-0.39425288361113764,47,22,-1,1
-0.09729560693636152,48,22,-1,1
-0.03899595947734592,49,22,-1,1
0.42001609888152874,50,22,-1,1
0.7848465647895582,51,22,-1,1
1.1785970182206102,52,22,-1,1
-0.2758073869904954,53,22,-1,1
-0.6242389702357231,54,22,-1,1
0.1788119522184294,55,22,-1,1
0.293856318916124,56,22,-1,1
0.03160777825530561,57,22,-1,1
0.20766872906011816,58,22,-1,1
-0.32535527809381165,59,22,-1,1
0.10299410016571287,60,22,-1,1
-0.09012736849269493,61,22,-1,1
-0.03544675130187892,62,22,-1,1
0.04827052351807784,63,22,-1,1
-0.08875221839203516,0,23,-1,1
-0.23439020729278387,1,23,-1,1
0.344399010451249,2,23,-1,1
0.798458766002175,3,23,-1,1
0.8457779861553553,4,23,-1,1
0.5576108545486217,5,23,-1,1
0.2796591441830939,6,23,-1,1
0.08853384662563221,7,23,-1,1
-0.12125165739976693,8,23,-1,1
0.060487989397070736,9,23,-1,1
0.828712155684999,10,23,-1,1
1.9521787680365077,11,23,-1,1
2.0210971624714973,12,23,-1,1
1.4169414983337745,13,23,-1,1
-0.05046656952913436,14,23,-1,1
-0.22728510693974185,15,23,-1,1
-0.3004706323046092,16,23,-1,1
0.3141413688560135,17,23,-1,1
-0.17077108545238165,18,23,-1,1
-0.4535384591630833,19,23,-1,1
-1.4173294855793193,20,23,-1,1
-1.7087760870314417,21,23,-1,1
0.3551491752984244,22,23,-1,1
-0.32689882360123834,23,23,-1,1
-0.159882136279413,24,23,-1,1
-0.8240571989489668,25,23,-1,1
-1.529419634505957,26,23,-1,1
0.21537998785004886,27,23,-1,1
-0.24145462356676484,28,23,-1,1
-1.3403304371767637,29,23,-1,1
0.944208109535405,30,23,-1,1
0.288818239573922,31,23,-1,1
-0.06884220240694229,32,23,-1,1
-0.49054475261752006,33,23,-1,1
-2.314675114436925,34,23,-1,1
1.0192057286593623,35,23,-1,1
-1.4343137500148209,36,23,-1,1
-1.8334673189864295,37,23,-1,1
1.070112394225607,38,23,-1,1
0.5764774346539165,39,23,-1,1
0.1695323956446086,40,23,-1,1
1.7306493695445109,41,23,-1,1
2.2526427219540217,42,23,-1,1
1.2682197983723578,43,23,-1,1
0.09288072295650236,44,23,-1,1
2.4116220540108673,45,23,-1,1
2.2266769293360085,46,23,-1,1
0.15252073970676233,47,23,-1,1
0.12622754678987208,48,23,-1,1
1.0287139148590356,49,23,-1,1
1.8509935481754805,50,23,-1,1
1.3569436177056735,51,23,-1,1
0.9275231719193149,52,23,-1,1
0.5926043888926279,53,23,-1,1
0.288108434698121,54,23,-1,1
-0.27536905597378036,55,23,-1,1
0.1736331329269087,56,23,-1,1
-0.38651566235015716,57,23,-1,1
-0.883559550740702,58,23,-1,1
-0.6444896213302879,59,23,-1,1
-0.9493495604591844,60,23,-1,1
-0.31616451707264626,61,23,-1,1
-0.03683644576857941,62,23,-1,1
0.011282420129496267,63,23,-1,1
-0.0916397766124512,0,24,-1,1
-0.24515382110722866,1,24,-1,1
0.13594741097833613,2,24,-1,1
0.16495054568383002,3,24,-1,1
0.178044300229363,4,24,-1,1
0.1065578807113084,5,24,-1,1
0.058402087955043376,6,24,-1,1
-0.10471832872491324,7,24,-1,1
-0.15419275105548969,8,24,-1,1
0.43266258507455746,9,24,-1,1
0.8038134416968722,10,24,-1,1
0.566291675939184,11,24,-1,1
1.2361924709631529,12,24,-1,1
0.725660251637015,13,24,-1,1
-0.0952805319058629,14,24,-1,1
-0.21375917521834328,15,24,-1,1
-0.021920313706466202,16,24,-1,1
0.42574443974315845,17,24,-1,1
-0.2646252925999121,18,24,-1,1
1.5272577565949865,19,24,-1,1
0.7877766510055068,20,24,-1,1
-0.3605253237301106,21,24,-1,1
-0.8335677951750801,22,24,-1,1
-0.9758189117306619,23,24,-1,1
-0.021312721854524572,24,24,-1,1
0.119250255688974,25,24,-1,1
-0.3786069150046889,26,24,-1,1
-1.0736451397064153,27,24,-1,1
0.853093376312301,28,24,-1,1
1.2472566522168813,29,24,-1,1
0.7525842284614361,30,24,-1,1
-0.09572346695670325,31,24,-1,1
-0.24779392779307927,32,24,-1,1
0.562880830146617,33,24,-1,1
0.4004462252661417,34,24,-1,1
-0.4831321724985303,35,24,-1,1
0.40409843203439033,36,24,-1,1
0.7558803671926774,37,24,-1,1
1.1796421701264093,38,24,-1,1
0.08085848888738396,39,24,-1,1
0.11180070679919407,40,24,-1,1
-0.5091942747586848,41,24,-1,1
-0.3425346077540282,42,24,-1,1
-0.06048191397616721,43,24,-1,1
0.5146417723191333,44,24,-1,1
0.7113267567147138,45,24,-1,1
0.5424052446541742,46,24,-1,1
0.08164364154585968,47,24,-1,1
-0.008993640443401197,48,24,-1,1
0.5104830761315154,49,24,-1,1
0.14707789747008596,50,24,-1,1
-0.15792213959612109,51,24,-1,1
0.4021736341963599,52,24,-1,1
-0.07637209043452188,53,24,-1,1
-0.27974579321802895,54,24,-1,1
0.02013771668176225,55,24,-1,1
-0.2141210565137769,56,24,-1,1
0.21936453844851106,57,24,-1,1
0.8473675143883863,58,24,-1,1
0.5226493791016638,59,24,-1,1
-0.3089421404110967,60,24,-1,1
0.011778200373712657,61,24,-1,1
0.18149623633274833,62,24,-1,1
0.013576306924465577,63,24,-1,1
-0.10587829809601632,0,25,-1,1
0.09359793507299778,1,25,-1,1
-0.16547755673125475,2,25,-1,1
-0.06857692255928997,3,25,-1,1
0.23798472303241477,4,25,-1,1
0.4242782196342834,5,25,-1,1
-0.008023293142079587,6,25,-1,1
0.04773921555428489,7,25,-1,1
-0.24751015451034666,8,25,-1,1
0.07789436908385267,9,25,-1,1
0.8209982516700033,10,25,-1,1
1.0261511777882228,11,25,-1,1
-0.10774688605825813,12,25,-1,1
0.21418999299864047,13,25,-1,1
0.2959346105048344,14,25,-1,1
0.2248394690618789,15,25,-1,1
-0.22101043721029606,16,25,-1,1
0.3046326742535803,17,25,-1,1
0.7270550423184372,18,25,-1,1
0.46454361841685865,19,25,-1,1
0.10952695073702902,20,25,-1,1
-1.137508929104253,21,25,-1,1
-0.21015722474349233,22,25,-1,1
0.8437697414608327,23,25,-1,1
0.06662381124936446,24,25,-1,1
-0.5797426858829353,25,25,-1,1
-0.4073665995733993,26,25,-1,1
0.9324992605575668,27,25,-1,1
3.8886406066915513,28,25,-1,1
0.0115211078190603,29,25,-1,1
-2.553399638638651,30,25,-1,1
-0.15686805783840424,31,25,-1,1
-0.08268707617327085,32,25,-1,1
-1.1721014396604956,33,25,-1,1
-2.572347725836336,34,25,-1,1
2.755678723315358,35,25,-1,1
3.247614097310506,36,25,-1,1
-1.4005385882630046,37,25,-1,1
-0.8418215529124374,38,25,-1,1
-0.3673241284255298,39,25,-1,1
0.18792913346698978,40,25,-1,1
0.6358489804138119,41,25,-1,1
-1.409849507268052,42,25,-1,1
1.5085597979952434,43,25,-1,1
1.0343333910094574,44,25,-1,1
-0.2023934877962216,45,25,-1,1
0.32334333792243686,46,25,-1,1
0.10076928708115118,47,25,-1,1
0.23609881369921418,48,25,-1,1
-0.02410699294354243,49,25,-1,1
0.19589308353114174,50,25,-1,1
-0.32310524351008435,51,25,-1,1
0.49322127035587254,52,25,-1,1
1.077246205071766,53,25,-1,1
0.4931890502843958,54,25,-1,1
0.2221345740017879,55,25,-1,1
0.06425169705268403,56,25,-1,1
0.1590801158024472,57,25,-1,1
0.18282203524042923,58,25,-1,1
0.6149379351268546,59,25,-1,1
0.49167513554258635,60,25,-1,1
0.06491560479907171,61,25,-1,1
0.14864438492868234,62,25,-1,1
0.014209213210563988,63,25,-1,1
-0.15749615859240776,0,26,-1,1
0.01691075793350263,1,26,-1,1
-0.12441612181195705,2,26,-1,1
0.14353156840139975,3,26,-1,1
0.6616501964104958,4,26,-1,1
0.18339858725287198,5,26,-1,1
0.13596599725886557,6,26,-1,1
0.0695236906516414,7,26,-1,1
0.05854562466466174,8,26,-1,1
-0.15034349456776197,9,26,-1,1
-0.3333845846087119,10,26,-1,1
-1.3542549596376534,11,26,-1,1
-0.3862176159541435,12,26,-1,1
1.2408254966897962,13,26,-1,1
0.375251972648916,14,26,-1,1
0.11487734091245465,15,26,-1,1
0.057733655874789507,16,26,-1,1
0.24358587886995295,17,26,-1,1
0.36502705580575,18,26,-1,1
-0.2815259633833164,19,26,-1,1
-0.34422981735331226,20,26,-1,1
1.1636906428194913,21,26,-1,1
0.0018097425444217673,22,26,-1,1
-0.4068716145460741,23,26,-1,1
0.20412425292667705,24,26,-1,1
0.16212081039454734,25,26,-1,1
0.3162461677031928,26,26,-1,1
-0.8541331437295818,27,26,-1,1
-0.1550309102716371,28,26,-1,1
1.0164215626572477,29,26,-1,1
0.886220850859593,30,26,-1,1
0.1626845030454111,31,26,-1,1
-0.1528950617090884,32,26,-1,1
0.15767463077099356,33,26,-1,1
0.7251868808636164,34,26,-1,1
-0.5436133847982222,35,26,-1,1
0.32625595426268494,36,26,-1,1
1.341422777913414,37,26,-1,1
0.47074811919077825,38,26,-1,1
-0.21149627304344046,39,26,-1,1
0.042072904695806816,40,26,-1,1
-0.6308880928663436,41,26,-1,1
0.9525587919599663,42,26,-1,1
2.217128630825438,43,26,-1,1
-0.02274156756317235,44,26,-1,1
-0.022980915840931548,45,26,-1,1
-0.6868040180766292,46,26,-1,1
-0.0869132168168661,47,26,-1,1
-0.26548812781069675,48,26,-1,1
-0.2192395728639363,49,26,-1,1
0.616633109040779,50,26,-1,1
0.16616374899116948,51,26,-1,1
0.056233144229955775,52,26,-1,1
-0.4090483757663323,53,26,-1,1
-0.19582656807715992,54,26,-1,1
0.059783018052419375,55,26,-1,1
0.1736385438506453,56,26,-1,1
-0.03213051464665588,57,26,-1,1
0.1732993527881773,58,26,-1,1
0.19214937996835,59,26,-1,1
0.05774681972012155,60,26,-1,1
-0.03875096101763945,61,26,-1,1
-0.13493497073915686,62,26,-1,1
0.22994699284007455,63,26,-1,1
-0.0310688654310198,0,27,-1,1
-0.20647123116882296,1,27,-1,1
0.09808503802134663,2,27,-1,1
0.4750729624722332,3,27,-1,1
0.09277441941211072,4,27,-1,1
-0.04154792093105414,5,27,-1,1
0.005606526082416014,6,27,-1,1
0.26448241505444103,7,27,-1,1
0.07355229826628663,8,27,-1,1
-0.1617686602455194,9,27,-1,1
0.049163641336041314,10,27,-1,1
-0.1435467421439157,11,27,-1,1
-0.44547569427083433,12,27,-1,1
-0.2950342060602129,13,27,-1,1
-0.16131730764957664,14,27,-1,1
0.0780778411572226,15,27,-1,1
0.2926692562997268,16,27,-1,1
-0.06662054585618421,17,27,-1,1
-0.5554351125955012,18,27,-1,1
-0.5177056539270893,19,27,-1,1
-0.7014853792429472,20,27,-1,1
-0.781340002929028,21,27,-1,1
0.019853282385612816,22,27,-1,1
0.26947575922618133,23,27,-1,1
4.5123224398997764e-05,24,27,-1,1
-0.24960232684525077,25,27,-1,1
-0.5627900004314033,26,27,-1,1
-0.2180261568572076,27,27,-1,1
-0.8226264391678733,28,27,-1,1
-0.6377919945076133,29,27,-1,1
-0.03926203344427804,30,27,-1,1
-0.018960516565234155,31,27,-1,1
0.003974700575623376,32,27,-1,1
-0.5876067540044155,33,27,-1,1
-0.7038648605348614,34,27,-1,1
-0.42439248066493485,35,27,-1,1
-1.2048368207998459,36,27,-1,1
-1.1496480531101159,37,27,-1,1
-0.43628856702544866,38,27,-1,1
0.1605091616893529,39,27,-1,1
-0.1396474879023006,40,27,-1,1
0.25665595157899374,41,27,-1,1
0.32236098638596056,42,27,-1,1
-0.8434803348410845,43,27,-1,1
-1.2614311893941141,44,27,-1,1
-0.2626110441394565,45,27,-1,1
0.11154932860324267,46,27,-1,1
0.11276031193812568,47,27,-1,1
-0.0613586879495044,48,27,-1,1
-0.059004474212587726,49,27,-1,1
-0.14539206343934422,50,27,-1,1
-0.6331845162611821,51,27,-1,1
-1.25722119148799,52,27,-1,1
-0.6105091872590772,53,27,-1,1
0.12427169706203486,54,27,-1,1
-0.10560984235209525,55,27,-1,1
0.1681652840766305,56,27,-1,1
-0.17609864438458211,57,27,-1,1
0.1230219266615487,58,27,-1,1
0.15923019000180785,59,27,-1,1
-0.025839691963496135,60,27,-1,1
0.11299003324907929,61,27,-1,1
-0.20061735688677163,62,27,-1,1
-0.1538633228068004,63,27,-1,1
0.02103052597168998,0,28,-1,1
-0.188851127497304,1,28,-1,1
0.10156183003698326,2,28,-1,1
-0.1257655220930706,3,28,-1,1
-0.8650003675415109,4,28,-1,1
-0.7184644382391289,5,28,-1,1
0.04030032436166204,6,28,-1,1
0.19482299887921734,7,28,-1,1
-0.09829969892342505,8,28,-1,1
-0.2633445943667551,9,28,-1,1
-0.8320188398294129,10,28,-1,1
0.0013282852309385517,11,28,-1,1
1.1487312311351219,12,28,-1,1
0.3122420548553875,13,28,-1,1
0.5579651420489076,14,28,-1,1
0.26725305635667196,15,28,-1,1
-0.18053510137769163,16,28,-1,1
-1.43876367924378,17,28,-1,1
-1.7885685453990263,18,28,-1,1
-2.1474869946544644,19,28,-1,1
-0.8940734761696362,20,28,-1,1
-0.2232195136630015,21,28,-1,1
0.07012422661770737,22,28,-1,1
0.16476487277155313,23,28,-1,1
-0.25197553416489,24,28,-1,1
1.2440958564138902,25,28,-1,1
2.5007645120160285,26,28,-1,1
2.583177477241061,27,28,-1,1
0.5429068946826185,28,28,-1,1
0.4778359977223329,29,28,-1,1
2.270057489879295,30,28,-1,1
0.17301432329642702,31,28,-1,1
-0.4870140622430442,32,28,-1,1
2.004453856833703,33,28,-1,1
2.571419098115919,34,28,-1,1
1.6688702480553999,35,28,-1,1
0.4115347256252054,36,28,-1,1
-1.543581907130752,37,28,-1,1
-0.423620082183321,38,28,-1,1
-0.3780716959459034,39,28,-1,1
0.06549415468313728,40,28,-1,1
-0.5729045583116394,41,28,-1,1
0.1835238827264752,42,28,-1,1
0.122572655319263,43,28,-1,1
-0.5553752952838303,44,28,-1,1
-0.1873226779426534,45,28,-1,1
-0.9462421476924012,46,28,-1,1
-0.5118926648092545,47,28,-1,1
-0.2853230119762124,48,28,-1,1
-0.6631385564349329,49,28,-1,1
-0.34758141429562844,50,28,-1,1
0.015909550094537896,51,28,-1,1
0.867400889467273,52,28,-1,1
0.7802724711107794,53,28,-1,1
0.10824003323402284,54,28,-1,1
-0.005966228816225044,55,28,-1,1
-0.25281192483006665,56,28,-1,1
-0.06558363849393536,57,28,-1,1
-0.7952124075580238,58,28,-1,1
-0.8634262065656858,59,28,-1,1
-0.8634214339687628,60,28,-1,1
0.7598947260754919,61,28,-1,1
0.10550307123550304,62,28,-1,1
-0.19443658683582749,63,28,-1,1
0.07611423977811671,0,29,-1,1
0.042256097244596016,1,29,-1,1
-0.13839371522838695,2,29,-1,1
-0.9540664523571122,3,29,-1,1
-0.7485597771785554,4,29,-1,1
-0.7994370694547492,5,29,-1,1
-0.32795605531309646,6,29,-1,1
-0.0581023575948553,7,29,-1,1
0.2992953294459322,8,29,-1,1
0.15035971185754882,9,29,-1,1
0.11257369646688133,10,29,-1,1
-0.39116205750112243,11,29,-1,1
-0.18194232296939977,12,29,-1,1
-0.484688726064411,13,29,-1,1
-0.25291852879340415,14,29,-1,1
0.028922458880341468,15,29,-1,1
0.0037270059315417958,16,29,-1,1
0.3297846105153964,17,29,-1,1
1.2113521395940385,18,29,-1,1
1.4066685651038804,19,29,-1,1
1.5443284235579975,20,29,-1,1
3.0404336869261397,21,29,-1,1
1.039380233881412,22,29,-1,1
-0.2767451048663175,23,29,-1,1
0.08727079505670776,24,29,-1,1
0.681757771201685,25,29,-1,1
0.5646724056197199,26,29,-1,1
0.39202143312815296,27,29,-1,1
-1.5822741437140626,28,29,-1,1
1.019152574671129,29,29,-1,1
-0.09139679636311926,30,29,-1,1
-0.14207107508047864,31,29,-1,1
0.03232778226448349,32,29,-1,1
-0.09184101607112938,33,29,-1,1
1.2417754486703236,34,29,-1,1
0.6936162114866504,35,29,-1,1
0.7253486854278197,36,29,-1,1
1.043463027266322,37,29,-1,1
-0.9390730244272828,38,29,-1,1
-0.2433750834337387,39,29,-1,1
-0.1109125972350962,40,29,-1,1
-0.8300580534995885,41,29,-1,1
-2.249899696476785,42,29,-1,1
-3.2980042868248622,43,29,-1,1
-1.4945599212777434,44,29,-1,1
-1.2621888767553588,45,29,-1,1
-0.6023726865841466,46,29,-1,1
-0.000808037998346546,47,29,-1,1
-0.009595431691484926,48,29,-1,1
-0.2042807081277449,49,29,-1,1
-0.6087095571054998,50,29,-1,1
0.7807384088499655,51,29,-1,1
0.7371852942602093,52,29,-1,1
-0.34253400382989063,53,29,-1,1
-0.14613602939978285,54,29,-1,1
0.07788952074114602,55,29,-1,1
-0.0239618430195002,56,29,-1,1
-0.0911013311722774,57,29,-1,1
1.036734975916044,58,29,-1,1
2.0091244288650367,59,29,-1,1
1.3214461956129724,60,29,-1,1
0.29495152798176233,61,29,-1,1
0.10065185970507666,62,29,-1,1
0.19759735846925108,63,29,-1,1
0.041924465952830656,0,30,-1,1
-0.12550471616612205,1,30,-1,1
0.0037942103979635633,2,30,-1,1
-0.154273052664249,3,30,-1,1
-0.245560944437237,4,30,-1,1
-0.1496301824049913,5,30,-1,1
0.014282537266678512,6,30,-1,1
0.08152753178359663,7,30,-1,1
0.18000838638293182,8,30,-1,1
-0.5121634641647388,9,30,-1,1
-0.43044495516434134,10,30,-1,1
-0.7321263680290804,11,30,-1,1
-0.0373239980780264,12,30,-1,1
0.04954792208237617,13,30,-1,1
-0.1290983770630649,14,30,-1,1
0.06682488804776111,15,30,-1,1
0.18968254637285556,16,30,-1,1
-0.4567357616137629,17,30,-1,1
1.4815580894510947,18,30,-1,1
-0.1453803529425384,19,30,-1,1
-2.113421855343143,20,30,-1,1
-0.3171396266999722,21,30,-1,1
-0.41304882358041306,22,30,-1,1
0.40985954264198887,23,30,-1,1
-0.05523317165333434,24,30,-1,1
0.0661804663497593,25,30,-1,1
-0.393950148035218,26,30,-1,1
1.420944179868447,27,30,-1,1
-1.6215008791649603,28,30,-1,1
0.24973297254653096,29,30,-1,1
-0.39933432540237274,30,30,-1,1
0.258639860846461,31,30,-1,1
0.020858896295248806,32,30,-1,1
-0.9999321703072532,33,30,-1,1
-1.1169864846996904,34,30,-1,1
-0.47902997642516,35,30,-1,1
-1.5282836147240775,36,30,-1,1
-0.06275615652696759,37,30,-1,1
-1.365967257918773,38,30,-1,1
-0.22010845179986033,39,30,-1,1
-0.07940418750555137,40,30,-1,1
-1.0238814962360525,41,30,-1,1
0.9284854053130034,42,30,-1,1
-0.9235849278879676,43,30,-1,1
-1.3511045051203177,44,30,-1,1
-0.6706302671331651,45,30,-1,1
-1.2485783597443596,46,30,-1,1
0.11041732262806507,47,30,-1,1
-0.310675640072006,48,30,-1,1
-0.8765792371580938,49,30,-1,1
-0.46207963242903993,50,30,-1,1
0.7667637288799966,51,30,-1,1
0.006116368353476151,52,30,-1,1
-0.5534678300041777,53,30,-1,1
-0.28522342273277207,54,30,-1,1
-0.14946854114907052,55,30,-1,1
0.2723017655798274,56,30,-1,1
-0.34261582961730974,57,30,-1,1
-0.2869182434783822,58,30,-1,1
0.20801534152659612,59,30,-1,1
0.2083204998359152,60,30,-1,1
-0.12132117509806765,61,30,-1,1
0.1430517815693863,62,30,-1,1
-0.45714387297498443,63,30,-1,1
0.09382145681712173,0,31,-1,1
-0.053105896158986414,1,31,-1,1
-0.25064099190506495,2,31,-1,1
0.25754893061342526,3,31,-1,1
0.01941194319066118,4,31,-1,1
0.06629300223842462,5,31,-1,1
-0.026256702269430797,6,31,-1,1
-0.00117533683445052,7,31,-1,1
0.15746486265829157,8,31,-1,1
-0.3157724272112111,9,31,-1,1
-0.3277102671426564,10,31,-1,1
-0.6728508663420671,11,31,-1,1
-0.28289727080595967,12,31,-1,1
0.07345627473420488,13,31,-1,1
-0.16088708574964294,14,31,-1,1
-0.4399800278224081,15,31,-1,1
0.058818648442824625,16,31,-1,1
-0.026912138053687314,17,31,-1,1
-0.22171514482969798,18,31,-1,1
-0.14419310902165722,19,31,-1,1
-0.6496503792585316,20,31,-1,1
-0.24537300305218757,21,31,-1,1
0.12102593841578158,22,31,-1,1
-0.27586293839027215,23,31,-1,1
-0.20691982832125258,24,31,-1,1
0.34740212367676593,25,31,-1,1
-0.4956920755800114,26,31,-1,1
-0.08597272787370693,27,31,-1,1
-1.019480527952921,28,31,-1,1
0.20353921870881117,29,31,-1,1
1.1160036136532265,30,31,-1,1
-0.09912457333094382,31,31,-1,1
-0.0969958958586398,32,31,-1,1
0.10122934616392447,33,31,-1,1
-0.4059180161528114,34,31,-1,1
-0.20800373914480302,35,31,-1,1
-0.3705319625342358,36,31,-1,1
-0.48194040443870817,37,31,-1,1
-0.1216258877407355,38,31,-1,1
0.016490713809424865,39,31,-1,1
-0.08267276831131348,40,31,-1,1
-0.8993191830927002,41,31,-1,1
0.38280363598367445,42,31,-1,1
-0.20176658777248774,43,31,-1,1
-0.6582491436600019,44,31,-1,1
-0.8948418900951938,45,31,-1,1
-0.8578903173462956,46,31,-1,1
-0.11193765100057089,47,31,-1,1
-0.03899185380621092,48,31,-1,1
-0.4018487393073746,49,31,-1,1
-0.49608395319467713,50,31,-1,1
0.15158892692362372,51,31,-1,1
0.423133054820045,52,31,-1,1
-1.1534869772419287,53,31,-1,1
-0.296168392736836,54,31,-1,1
0.1861804163172574,55,31,-1,1
-0.05979159682648607,56,31,-1,1
-0.18690606066137136,57,31,-1,1
-0.15957458772977737,58,31,-1,1
0.33392927906461817,59,31,-1,1
0.39131342540558095,60,31,-1,1
0.0660182912029824,61,31,-1,1
-0.06525072276502787,62,31,-1,1
-0.18609074022492664,63,31,-1,1
0.26845987701419166,0,32,-1,1
0.06728344737660436,1,32,-1,1
-0.1401761463840803,2,32,-1,1
-0.26461185596695624,3,32,-1,1
-0.0711381557846251,4,32,-1,1
0.035197827335698734,5,32,-1,1
-0.008453725873286671,6,32,-1,1
0.04372021488335452,7,32,-1,1
0.04038615868268029,8,32,-1,1
0.17538762757020654,9,32,-1,1
0.13505058359018565,10,32,-1,1
0.4967449045321157,11,32,-1,1
1.13237760904708,12,32,-1,1
0.24747027856223505,13,32,-1,1
-0.20894651406347425,14,32,-1,1
0.10214024143262995,15,32,-1,1
-0.07351787323122089,16,32,-1,1
-0.17462242216661783,17,32,-1,1
-0.832396146728752,18,32,-1,1
0.04872087287980577,19,32,-1,1
0.4743157141005031,20,32,-1,1
0.11052996162091205,21,32,-1,1
-0.26694014269862504,22,32,-1,1
-0.1960204929489034,23,32,-1,1
-0.015556867571769047,24,32,-1,1
-0.6172350384146966,25,32,-1,1
0.1755465635388764,26,32,-1,1
0.3978830026629295,27,32,-1,1
0.813422319721221,28,32,-1,1
0.3746278396897197,29,32,-1,1
-0.10567498515176685,30,32,-1,1
-0.16516952779855593,31,32,-1,1
-0.06752859519896559,32,32,-1,1
0.5133969018209377,33,32,-1,1
1.5642288760851475,34,32,-1,1
1.2699286685780027,35,32,-1,1
-0.007741001112752957,36,32,-1,1
-0.16047737772318849,37,32,-1,1
0.17756377271435933,38,32,-1,1
0.05938937552363796,39,32,-1,1
0.0021993531069325637,40,32,-1,1
0.796459598005526,41,32,-1,1
0.6660383045549406,42,32,-1,1
-0.7573190094773734,43,32,-1,1
-0.4543422579219492,44,32,-1,1
0.6049540597147844,45,32,-1,1
0.6234254576814701,46,32,-1,1
-0.18096797223843797,47,32,-1,1
-0.22834729910756135,48,32,-1,1
0.5759186630771348,49,32,-1,1
0.830952734315627,50,32,-1,1
-0.2900301939685709,51,32,-1,1
-0.316352274955941,52,32,-1,1
0.6597398791154616,53,32,-1,1
0.34369546602674955,54,32,-1,1
-0.030041825116344987,55,32,-1,1
-0.14376798791044368,56,32,-1,1
-0.15207029745105016,57,32,-1,1
0.02503282288278973,58,32,-1,1
-0.5198348694622392,59,32,-1,1
-0.6162814401285589,60,32,-1,1
0.1499688812125591,61,32,-1,1
0.33649469553968453,62,32,-1,1
0.2706364608557959,63,32,-1,1
0.12997985273937046,0,33,-1,1
0.06592625366230705,1,33,-1,1
-0.04565330064720913,2,33,-1,1
1.124088740889535,3,33,-1,1
1.206099529420531,4,33,-1,1
0.6781358823740321,5,33,-1,1
0.05931763231711692,6,33,-1,1
-0.2982618164016764,7,33,-1,1
0.0580306423028219,8,33,-1,1
-0.2298515066400878,9,33,-1,1
1.158478287242081,10,33,-1,1
1.185936163722401,11,33,-1,1
-0.09994951611412102,12,33,-1,1
0.15940850317272767,13,33,-1,1
-0.6004638170136822,14,33,-1,1
0.27366549362922754,15,33,-1,1
0.07007069795791707,16,33,-1,1
0.9151360738245379,17,33,-1,1
2.1656518530446967,18,33,-1,1
0.368112963530562,19,33,-1,1
1.0728054893387025,20,33,-1,1
-0.3867140468757681,21,33,-1,1
0.9601077447552776,22,33,-1,1
0.9454390015183072,23,33,-1,1
0.3849648165156048,24,33,-1,1
0.32738388158367243,25,33,-1,1
-1.0890345737228233,26,33,-1,1
-0.052124948396513514,27,33,-1,1
-0.672915698104355,28,33,-1,1
-1.4339841612503959,29,33,-1,1
1.0131253309218529,30,33,-1,1
0.20021519607721533,31,33,-1,1
0.2872103195443837,32,33,-1,1
-1.7970585240052916,33,33,-1,1
-2.383947014573544,34,33,-1,1
-0.36033647247250405,35,33,-1,1
-3.4853940783519617,36,33,-1,1
-0.7499281213609096,37,33,-1,1
1.462530830863398,38,33,-1,1
-0.020068239691359808,39,33,-1,1
0.10355020937230806,40,33,-1,1
0.2506147343894363,41,33,-1,1
1.4240007056410826,42,33,-1,1
1.5377939109032883,43,33,-1,1
-0.3447566102847252,44,33,-1,1
2.6027970336202273,45,33,-1,1
0.6973258330099433,46,33,-1,1
0.009165542147218366,47,33,-1,1
0.0051355641381215355,48,33,-1,1
0.49065794038834304,49,33,-1,1
2.430894355867885,50,33,-1,1
2.710750276453786,51,33,-1,1
1.1864741928125775,52,33,-1,1
-0.6686548957379047,53,33,-1,1
-0.1376538537531456,54,33,-1,1
-0.10637313859687794,55,33,-1,1
0.10131693894762915,56,33,-1,1
-0.22123603002825984,57,33,-1,1
-0.007705033576401258,58,33,-1,1
0.7260468455436638,59,33,-1,1
0.5896145409947343,60,33,-1,1
-0.48050833592842673,61,33,-1,1
-0.11204388173966702,62,33,-1,1
-0.04196931741638294,63,33,-1,1
0.1647333514089122,0,34,-1,1
0.13186242579928092,1,34,-1,1
-0.03846363373006126,2,34,-1,1
0.07338727820264493,3,34,-1,1
0.8254035236943453,4,34,-1,1
0.4343019710124744,5,34,-1,1
-0.2595662916423465,6,34,-1,1
0.1402867340934742,7,34,-1,1
0.2976104225090969,8,34,-1,1
0.17740686443577466,9,34,-1,1
1.1382248899470797,10,34,-1,1
1.2645365617282103,11,34,-1,1
0.8750253066615982,12,34,-1,1
1.444913675233619,13,34,-1,1
1.7468602415902847,14,34,-1,1
0.11263768355208723,15,34,-1,1
-0.19779878081139318,16,34,-1,1
-0.14892002623486497,17,34,-1,1
-0.7292856025903166,18,34,-1,1
-3.7668679372612877,19,34,-1,1
-3.916726009333944,20,34,-1,1
-1.1126366513085073,21,34,-1,1
0.7698951459205902,22,34,-1,1
0.863697321793086,23,34,-1,1
-0.4535995330463882,24,34,-1,1
-1.6207550882335704,25,34,-1,1
-0.5315387322838163,26,34,-1,1
2.032814259458282,27,34,-1,1
-0.4817755230710215,28,34,-1,1
-2.6297199483112577,29,34,-1,1
-0.8330984986010389,30,34,-1,1
0.43522765240287387,31,34,-1,1
-0.16814914447556611,32,34,-1,1
0.8597693298230689,33,34,-1,1
1.529070018801638,34,34,-1,1
3.6176823724789933,35,34,-1,1
0.17201539178911981,36,34,-1,1
-1.9949171148715663,37,34,-1,1
1.5932018513210582,38,34,-1,1
0.3017449967700603,39,34,-1,1
-0.10128671449428363,40,34,-1,1
1.8739647438091784,41,34,-1,1
2.3644367676486837,42,34,-1,1
2.222165763025665,43,34,-1,1
1.5513983211049533,44,34,-1,1
2.245090939557138,45,34,-1,1
1.4694447279074794,46,34,-1,1
0.35793999761633466,47,34,-1,1
0.04275297453450563,48,34,-1,1
0.40907765684904057,49,34,-1,1
1.7396032253926326,50,34,-1,1
1.3382674920427713,51,34,-1,1
1.8674162793495213,52,34,-1,1
1.406402061497064,53,34,-1,1
0.24529716974071594,54,34,-1,1
-0.21867053079339857,55,34,-1,1
0.36595909276237587,56,34,-1,1
-0.5872835499752805,57,34,-1,1
-2.4192645031746633,58,34,-1,1
-3.231703981105488,59,34,-1,1
-2.52255288210741,60,34,-1,1
-2.0303219580717005,61,34,-1,1
-0.2930948311536851,62,34,-1,1
0.17080102382786524,63,34,-1,1
-0.008792049194236321,0,35,-1,1
-0.18656593302498278,1,35,-1,1
-0.02424532876875897,2,35,-1,1
-0.34524253242473135,3,35,-1,1
-1.798129259934451,4,35,-1,1
-0.6731958121336783,5,35,-1,1
-0.1073922861011586,6,35,-1,1
-0.18139722611565554,7,35,-1,1
0.12010919842944956,8,35,-1,1
-0.5238340223062775,9,35,-1,1
-1.4198668337085718,10,35,-1,1
-0.9857446760655524,11,35,-1,1
0.9871997269244241,12,35,-1,1
0.30031308880174384,13,35,-1,1
-0.08077745538065417,14,35,-1,1
-0.3569330128442105,15,35,-1,1
-0.38112718974223014,16,35,-1,1
-0.496960832294112,17,35,-1,1
-0.8213814957408085,18,35,-1,1
-0.03693820615284555,19,35,-1,1
0.4255977001217439,20,35,-1,1
1.3208900086826272,21,35,-1,1
0.6505724775938244,22,35,-1,1
-0.34118314725744764,23,35,-1,1
-0.27296412249763957,24,35,-1,1
1.3359285125926685,25,35,-1,1
-0.23807303297896032,26,35,-1,1
0.8751069352489511,27,35,-1,1
-0.2641570858009574,28,35,-1,1
0.5673251379875578,29,35,-1,1
2.9071619880983723,30,35,-1,1
-0.2406376124678888,31,35,-1,1
-0.0572375195802544,32,35,-1,1
0.5289416109103937,33,35,-1,1
0.11657157967850734,34,35,-1,1
-0.5136952209002774,35,35,-1,1
-1.900394973879775,36,35,-1,1
-1.457306536179455,37,35,-1,1
-0.17440194156337577,38,35,-1,1
-0.35738239388376797,39,35,-1,1
-0.1359766449430732,40,35,-1,1
-1.5403624463159291,41,35,-1,1
1.8071783988908134,42,35,-1,1
-0.5351812981645954,43,35,-1,1
-2.0967102083332905,44,35,-1,1
-1.5143344232179736,45,35,-1,1
-1.6456189864168538,46,35,-1,1
-0.25877220391384165,47,35,-1,1
-0.20592517808689995,48,35,-1,1
-0.5560918454065421,49,35,-1,1
0.21818171501960482,50,35,-1,1
1.163160955795782,51,35,-1,1
-0.4716119151347497,52,35,-1,1
-2.064643481063849,53,35,-1,1
-0.7644310821624938,54,35,-1,1
-0.24607030359781806,55,35,-1,1
0.054878470195564334,56,35,-1,1
0.12132505011983698,57,35,-1,1
0.284807881753157,58,35,-1,1
0.2659649691723313,59,35,-1,1
0.20255071468124441,60,35,-1,1
0.6290839805249766,61,35,-1,1
0.324131484978138,62,35,-1,1
0.046341199617508134,63,35,-1,1
-0.09453129828619673,0,36,-1,1
0.00779539531558737,1,36,-1,1
-0.04974551607764737,2,36,-1,1
0.0999679579100109,3,36,-1,1
0.2691929183349137,4,36,-1,1
0.18054103505059477,5,36,-1,1
-0.30432556985181974,6,36,-1,1
0.0026560002683599687,7,36,-1,1
-0.11496754125066233,8,36,-1,1
0.19350526891565537,9,36,-1,1
-0.02473296358129614,10,36,-1,1
-0.2742661089451451,11,36,-1,1
-0.695686947395309,12,36,-1,1
-0.36285885542864427,13,36,-1,1
-0.14028248873239726,14,36,-1,1
0.3337704157751581,15,36,-1,1
-0.058162596835930884,16,36,-1,1
0.11458755700378363,17,36,-1,1
-0.6978981560298394,18,36,-1,1
-0.6735132568448416,19,36,-1,1
-0.9663008962308798,20,36,-1,1
-0.8444113100511903,21,36,-1,1
-0.04335088162846102,22,36,-1,1
0.3315990413919151,23,36,-1,1
-0.11709300085910566,24,36,-1,1
-0.3095150927005358,25,36,-1,1
-0.8666506041625205,26,36,-1,1
-0.3933242568527197,27,36,-1,1
-0.3875298889785211,28,36,-1,1
-0.54311910932322,29,36,-1,1
-0.6723551038366793,30,36,-1,1
0.05273509503350347,31,36,-1,1
0.2638950412158851,32,36,-1,1
-0.36512735285853076,33,36,-1,1
-1.0404709270884425,34,36,-1,1
0.21037086050578335,35,36,-1,1
-0.46698944956071214,36,36,-1,1
-0.5756443247002045,37,36,-1,1
-0.5078679544721894,38,36,-1,1
-0.2433216927949487,39,36,-1,1
0.007105676374683681,40,36,-1,1
-0.19120308900754793,41,36,-1,1
-0.5500339262889427,42,36,-1,1
-0.67976159149446,43,36,-1,1
-0.6294203730319929,44,36,-1,1
-0.3938820572061915,45,36,-1,1
-0.16976736853259258,46,36,-1,1
0.0906082707638461,47,36,-1,1
-0.1521926494720214,48,36,-1,1
0.12012083359895728,49,36,-1,1
-0.3733167799172134,50,36,-1,1
-0.8946035772880645,51,36,-1,1
-0.553991592535662,52,36,-1,1
-0.44841905000684706,53,36,-1,1
-0.059087874545827083,54,36,-1,1
-0.3351761214469232,55,36,-1,1
-0.013708876191925033,56,36,-1,1
0.15920051114093248,57,36,-1,1
0.06551017758184866,58,36,-1,1
0.14154738113962653,59,36,-1,1
0.05100922484845786,60,36,-1,1
0.07880384559790736,61,36,-1,1
0.1759364811576591,62,36,-1,1
-0.15228117415058043,63,36,-1,1
0.3436255594167695,0,37,-1,1
-0.019649686940556483,1,37,-1,1
0.05453129130420617,2,37,-1,1
0.10227624005378198,3,37,-1,1
0.23778110170307162,4,37,-1,1
0.3305314003594862,5,37,-1,1
0.3792579848817824,6,37,-1,1
0.28143353932706416,7,37,-1,1
0.022816471859099095,8,37,-1,1
0.24822735864075096,9,37,-1,1
-0.4754442460133043,10,37,-1,1
-1.5900685493491074,11,37,-1,1
-1.1071947332892438,12,37,-1,1
0.10568012169291853,13,37,-1,1
0.649176530161464,14,37,-1,1
0.11435934861099839,15,37,-1,1
0.2137733017794867,16,37,-1,1
-0.2714843262985328,17,37,-1,1
-0.06414559918956597,18,37,-1,1
0.440670966131968,19,37,-1,1
-0.766115713053454,20,37,-1,1
-1.7706037202448706,21,37,-1,1
-1.545398743437683,22,37,-1,1
-0.7448340955106391,23,37,-1,1
0.20762021659632923,24,37,-1,1
0.6875462566312852,25,37,-1,1
1.3299477362408676,26,37,-1,1
-0.9033130771283485,27,37,-1,1
0.968569279302692,28,37,-1,1
0.41739001344742294,29,37,-1,1
0.8506488522543021,30,37,-1,1
-0.387881603621765,31,37,-1,1
-0.13672563004293736,32,37,-1,1
0.7055668131258068,33,37,-1,1
-0.06500111996178858,34,37,-1,1
-0.04617457861608208,35,37,-1,1
1.9914672079521591,36,37,-1,1
0.764050986040915,37,37,-1,1
1.2781661007052576,38,37,-1,1
-0.6222429659885799,39,37,-1,1
0.027797805412123334,40,37,-1,1
-2.684064372470077,41,37,-1,1
-1.394912390059542,42,37,-1,1
2.9215614342065566,43,37,-1,1
1.267822177229512,44,37,-1,1
-0.4927815102236963,45,37,-1,1
-1.6535263226367636,46,37,-1,1
-0.28114744505557143,47,37,-1,1
0.10140716165541752,48,37,-1,1
-0.752353569735722,49,37,-1,1
-1.313132553887468,50,37,-1,1
-1.6993721151121635,51,37,-1,1
0.043042023314625574,52,37,-1,1
-0.37100502099313215,53,37,-1,1
-0.24753937456891378,54,37,-1,1
0.15502610368176034,55,37,-1,1
-0.010371569960367115,56,37,-1,1
0.20278100619237382,57,37,-1,1
0.7510173935585231,58,37,-1,1
0.2381499444223438,59,37,-1,1
-0.4229227791742978,60,37,-1,1
0.37195012568228075,61,37,-1,1
0.13476655934225215,62,37,-1,1
-0.01101605151296011,63,37,-1,1
0.005300125029537694,0,38,-1,1
0.09361084015515744,1,38,-1,1
-0.2714190286805231,2,38,-1,1
-0.42046471670716523,3,38,-1,1
0.21422648714022238,4,38,-1,1
-0.2036832436014626,5,38,-1,1
-0.21451597649881932,6,38,-1,1
0.23116138203515996,7,38,-1,1
0.10979126418739996,8,38,-1,1
-0.2573933138373944,9,38,-1,1
-0.19331264453749453,10,38,-1,1
-0.12315726343347679,11,38,-1,1
-0.6136505521755168,12,38,-1,1
0.5233858458754601,13,38,-1,1
1.4079607919485333,14,38,-1,1
0.6465967321579809,15,38,-1,1
0.10904271543704913,16,38,-1,1
-0.7275158413675308,17,38,-1,1
1.0735580874754174,18,38,-1,1
1.7867076028786266,19,38,-1,1
-0.11941085484546425,20,38,-1,1
0.5523525685301479,21,38,-1,1
0.4226971812715166,22,38,-1,1
0.6519903002980721,23,38,-1,1
-0.05534264086495959,24,38,-1,1
0.6526236261715831,25,38,-1,1
1.15993075301482,26,38,-1,1
0.5391611061685343,27,38,-1,1
-2.7342162594689596,28,38,-1,1
-1.6880271006111462,29,38,-1,1
-0.987164417431971,30,38,-1,1
0.12739498520148052,31,38,-1,1
-0.03091356659313708,32,38,-1,1
0.020812105752246114,33,38,-1,1
-0.012957762458103485,34,38,-1,1
-2.9627828231989404,35,38,-1,1
-1.9651266231441182,36,38,-1,1
0.7078817546731478,37,38,-1,1
0.9923364090866809,38,38,-1,1
0.2520901033838045,39,38,-1,1
-0.09227104358554554,40,38,-1,1
0.17387837872654457,41,38,-1,1
-1.1366396616574137,42,38,-1,1
-2.2992444001396732,43,38,-1,1
-0.4153913664940137,44,38,-1,1
-0.13636996571299295,45,38,-1,1
-0.4231118910954608,46,38,-1,1
0.16863412600986782,47,38,-1,1
0.015290696308930981,48,38,-1,1
-0.7443653300520586,49,38,-1,1
0.16992117397439763,50,38,-1,1
2.3834785213168153,51,38,-1,1
0.6123664986539139,52,38,-1,1
-0.20085713487504445,53,38,-1,1
-0.13279798774262017,54,38,-1,1
0.001664533206954993,55,38,-1,1
0.07306886199430836,56,38,-1,1
0.25579046011209694,57,38,-1,1
0.3291634167016919,58,38,-1,1
0.14039497350951913,59,38,-1,1
0.3283152497113522,60,38,-1,1
-0.2640234079626589,61,38,-1,1
0.1764461566956375,62,38,-1,1
0.33258836839570954,63,38,-1,1
-0.05656322436274852,0,39,-1,1
-0.05030756522999402,1,39,-1,1
0.06474912320966159,2,39,-1,1
0.1201688761753069,3,39,-1,1
-0.13175489615227887,4,39,-1,1
-0.007404411330646225,5,39,-1,1
0.14662188812959714,6,39,-1,1
0.23900350542890117,7,39,-1,1
-0.09626095680541992,8,39,-1,1
-0.05571595797627121,9,39,-1,1
0.15153434676686306,10,39,-1,1
0.02936468901551142,11,39,-1,1
0.22142254516440893,12,39,-1,1
-0.541583390620284,13,39,-1,1
-0.395878313427809,14,39,-1,1
0.03469807081200666,15,39,-1,1
-0.2590256438362883,16,39,-1,1
-0.42083289157122983,17,39,-1,1
-0.8070568900970347,18,39,-1,1
-0.3693831745156419,19,39,-1,1
-0.0556984360913423,20,39,-1,1
-1.6259100829157709,21,39,-1,1
-0.34509486885709256,22,39,-1,1
-0.12619836208414117,23,39,-1,1
-0.2559193430307427,24,39,-1,1
-0.612978150996081,25,39,-1,1
-0.7118481676946211,26,39,-1,1
-0.7121055682698184,27,39,-1,1
-0.7327548106938191,28,39,-1,1
-0.862802768577557,29,39,-1,1
-0.5865374725741402,30,39,-1,1
0.11525300011212182,31,39,-1,1
0.20973033999098376,32,39,-1,1
-0.4696469150062338,33,39,-1,1
-0.5305198125060041,34,39,-1,1
0.14927821492846413,35,39,-1,1
-0.9726679212840925,36,39,-1,1
-0.9418966817252024,37,39,-1,1
-0.32497340572381006,38,39,-1,1
0.2932214469076235,39,39,-1,1
0.012950375348759634,40,39,-1,1
0.373614194053221,41,39,-1,1
-0.19718941886657687,42,39,-1,1
-1.6586288652013996,43,39,-1,1
-1.1323026722832366,44,39,-1,1
-0.3816008726045816,45,39,-1,1
0.5310788148523572,46,39,-1,1
0.5480707746091394,47,39,-1,1
-0.20416670793438707,48,39,-1,1
0.42265361616499536,49,39,-1,1
-0.4687550131801214,50,39,-1,1
-0.9190023601270784,51,39,-1,1
-0.882842641034702,52,39,-1,1
-0.34942818344661886,53,39,-1,1
0.3120793864557273,54,39,-1,1
-0.07860001022860838,55,39,-1,1
-0.05237763087712893,56,39,-1,1
-0.25940229294242734,57,39,-1,1
-0.1691275184469829,58,39,-1,1
0.10373588706315379,59,39,-1,1
0.3268140316157856,60,39,-1,1
0.19343522032304414,61,39,-1,1
0.26272208957730636,62,39,-1,1
-0.0237570590929769,63,39,-1,1
0.1517905643287662,0,40,-1,1
0.22641435618479186,1,40,-1,1
0.2749207313715165,2,40,-1,1
-0.5400672345908303,3,40,-1,1
-0.30880938554140835,4,40,-1,1
-0.8827478292115842,5,40,-1,1
-0.3444434308695158,6,40,-1,1
-0.029579026151153324,7,40,-1,1
-0.03572958596803386,8,40,-1,1
-0.07301065065082987,9,40,-1,1
-0.13131893748659773,10,40,-1,1
1.4616234431223156,11,40,-1,1
1.422084122514199,12,40,-1,1
0.8491065273956006,13,40,-1,1
0.7770313422520077,14,40,-1,1
0.06171869049401721,15,40,-1,1
0.3207502560733615,16,40,-1,1
-0.19169097963301782,17,40,-1,1
0.41547245765672614,18,40,-1,1
1.062822844002041,19,40,-1,1
0.2170331589047546,20,40,-1,1
1.3321863509848766,21,40,-1,1
2.004898254969634,22,40,-1,1
0.5135718775899977,23,40,-1,1
0.0646099172906897,24,40,-1,1
0.8826951158483141,25,40,-1,1
0.26485223469387636,26,40,-1,1
-1.6212181746514713,27,40,-1,1
0.18173621656751765,28,40,-1,1
-1.5496314533576578,29,40,-1,1
0.011375063236063337,30,40,-1,1
-0.2419096040313444,31,40,-1,1
0.10529887986964533,32,40,-1,1
0.5420481178422836,33,40,-1,1
-1.2891570857103256,34,40,-1,1
-0.8020148460134433,35,40,-1,1
-0.657598777239751,36,40,-1,1
-1.0223413524610079,37,40,-1,1
-0.41251507862077685,38,40,-1,1
0.018499790944621817,39,40,-1,1
-0.06341762610140603,40,40,-1,1
1.4068584427992588,41,40,-1,1
0.40264254183026366,42,40,-1,1
0.31432932125927965,43,40,-1,1
0.07522852834474124,44,40,-1,1
-0.6331774262904365,45,40,-1,1
0.8956437815337872,46,40,-1,1
0.147001923446802,47,40,-1,1
-0.058764982366590765,48,40,-1,1
0.3684088720183501,49,40,-1,1
1.5109737134909582,50,40,-1,1
-0.537538014981328,51,40,-1,1
-0.6826673696014257,52,40,-1,1
0.30425668481128965,53,40,-1,1
0.1061404802505218,54,40,-1,1
0.2659124501849607,55,40,-1,1
-0.044032685837262296,56,40,-1,1
0.12261071386571193,57,40,-1,1
0.002645297437528685,58,40,-1,1
0.5510280658735426,59,40,-1,1
0.6744593478646264,60,40,-1,1
0.2801624633644788,61,40,-1,1
0.05655674246140668,62,40,-1,1
-0.0035312595227847484,63,40,-1,1
0.1601008067199324,0,41,-1,1
-0.1672027466630847,1,41,-1,1
-0.08792106431941844,2,41,-1,1
-0.027701640288717726,3,41,-1,1
-0.14794243966024334,4,41,-1,1
-0.3085687770408883,5,41,-1,1
-0.016366909934330588,6,41,-1,1
0.08332440046564092,7,41,-1,1
-0.15348541008720343,8,41,-1,1
0.4521312206771967,9,41,-1,1
0.6931601407894636,10,41,-1,1
1.8009078340605273,11,41,-1,1
1.2437626952370646,12,41,-1,1
-0.2733223436804561,13,41,-1,1
-0.9087242619101255,14,41,-1,1
-0.2751667753942438,15,41,-1,1
0.13820005564368412,16,41,-1,1
1.2049839228144823,17,41,-1,1
-0.2304446648466904,18,41,-1,1
0.9733205808359244,19,41,-1,1
1.9662007496109162,20,41,-1,1
0.5035616142318406,21,41,-1,1
0.7688322104319852,22,41,-1,1
-0.7255376071036682,23,41,-1,1
0.35314011205259277,24,41,-1,1
-0.7827547026682763,25,41,-1,1
-2.4030612090135195,26,41,-1,1
-2.6066932373589182,27,41,-1,1
1.930283585995984,28,41,-1,1
1.0882964431098554,29,41,-1,1
-0.1608969799704148,30,41,-1,1
-0.7446326139750583,31,41,-1,1
0.003226711335576651,32,41,-1,1
-0.7920633914390762,33,41,-1,1
-2.6785280270721845,34,41,-1,1
-0.2543699099991182,35,41,-1,1
1.6346159693704527,36,41,-1,1
-0.361853748382286,37,41,-1,1
-1.4698469237241607,38,41,-1,1
-0.24201211018139965,39,41,-1,1
0.42368110608548376,40,41,-1,1
0.6042611029357524,41,41,-1,1
-0.9673607662333754,42,41,-1,1
0.20912473740156265,43,41,-1,1
-0.49484101798140906,44,41,-1,1
-0.48390739867204585,45,41,-1,1
1.1661721383548544,46,41,-1,1
-0.19350162271363633,47,41,-1,1
0.025223865206844186,48,41,-1,1
0.6540023298811474,49,41,-1,1
0.027393595757444572,50,41,-1,1
-0.944564068877791,51,41,-1,1
-0.8984410034842812,52,41,-1,1
-0.3671352875257346,53,41,-1,1
0.07221024220081466,54,41,-1,1
-0.26484979537035935,55,41,-1,1
-0.24959626376643915,56,41,-1,1
-0.12161834189092717,57,41,-1,1
1.0305497798162597,58,41,-1,1
1.4849631045141023,59,41,-1,1
1.012779257916481,60,41,-1,1
0.3553425770925503,61,41,-1,1
-0.15389945046133469,62,41,-1,1
0.07390138223773764,63,41,-1,1
0.00821719691403738,0,42,-1,1
-0.203640154530568,1,42,-1,1
-0.5099806894912986,2,42,-1,1
-0.939397850127001,3,42,-1,1
0.2583179793841684,4,42,-1,1
-0.2761148530454059,5,42,-1,1
-0.1379769118096696,6,42,-1,1
0.11784763134954418,7,42,-1,1
-0.07681492859663257,8,42,-1,1
0.5747928714409136,9,42,-1,1
0.7153202701805784,10,42,-1,1
1.219662155937592,11,42,-1,1
0.6778322563021971,12,42,-1,1
-0.11887161633707814,13,42,-1,1
0.33513462842806174,14,42,-1,1
0.2527991067610423,15,42,-1,1
-0.11270366793827595,16,42,-1,1
-0.0742563147554977,17,42,-1,1
-1.1569216799751632,18,42,-1,1
-1.4824454851699174,19,42,-1,1
-0.3002566296751731,20,42,-1,1
1.5247890566436941,21,42,-1,1
1.4739457903108173,22,42,-1,1
0.9445102915314557,23,42,-1,1
-0.17974233837158657,24,42,-1,1
-1.4016261579524867,25,42,-1,1
0.0932518789645863,26,42,-1,1
1.6027061999728065,27,42,-1,1
-0.7438313135944703,28,42,-1,1
0.0073671726858854075,29,42,-1,1
-0.8878188430977707,30,42,-1,1
0.43038076110917667,31,42,-1,1
0.21600323674736147,32,42,-1,1
1.3291439204684066,33,42,-1,1
2.666526796475385,34,42,-1,1
-1.3439681604490439,35,42,-1,1
-1.3155965099495328,36,42,-1,1
2.207520922501055,37,42,-1,1
1.2771166107305423,38,42,-1,1
-0.4123274759693008,39,42,-1,1
-0.09416710235846203,40,42,-1,1
2.9040075394999483,41,42,-1,1
-0.628183898889029,42,42,-1,1
-3.5109137994003308,43,42,-1,1
0.24520008360115958,44,42,-1,1
1.4472495899542526,45,42,-1,1
0.7058751333159338,46,42,-1,1
0.03374522401545236,47,42,-1,1
0.19949404364291043,48,42,-1,1
0.6118832469420024,49,42,-1,1
1.06898121393292,50,42,-1,1
0.9219256496928934,51,42,-1,1
-0.5317833514806335,52,42,-1,1
0.42296552801304993,53,42,-1,1
0.15813946293154438,54,42,-1,1
-0.039007397152259725,55,42,-1,1
0.036252253462016895,56,42,-1,1
0.36333357467736244,57,42,-1,1
0.1213712218131944,58,42,-1,1
-0.7809643119826383,59,42,-1,1
-0.38750870027898715,60,42,-1,1
-0.6677947615158073,61,42,-1,1
-0.20728267241152054,62,42,-1,1
0.09799867152793967,63,42,-1,1
-0.3596363207343549,0,43,-1,1
-0.08080091119887922,1,43,-1,1
-0.05572838999195002,2,43,-1,1
0.08263307027409715,3,43,-1,1
-0.28829023624671035,4,43,-1,1
0.25202982050000955,5,43,-1,1
-0.019439445840144103,6,43,-1,1
-0.15767730815147288,7,43,-1,1
-0.12715381559775588,8,43,-1,1
0.07045571289185318,9,43,-1,1
1.19200408828312,10,43,-1,1
1.3626700266436866,11,43,-1,1
1.1882663085318257,12,43,-1,1
1.044275503151174,13,43,-1,1
-0.5788283927475996,14,43,-1,1
-0.11516612228124751,15,43,-1,1
-0.14736481283960173,16,43,-1,1
-0.09928564142696722,17,43,-1,1
1.564660816389795,18,43,-1,1
1.3933191449376876,19,43,-1,1
-0.8217153132133543,20,43,-1,1
-0.41199139402218327,21,43,-1,1
-2.0720415355804334,22,43,-1,1
-1.2663546713789202,23,43,-1,1
-0.20084764429391358,24,43,-1,1
-0.28555448164078234,25,43,-1,1
1.0265411277769614,26,43,-1,1
0.14599487158227253,27,43,-1,1
-1.589369367446198,28,43,-1,1
2.4719900305733624,29,43,-1,1
-0.0030835987703746416,30,43,-1,1
-0.2543464458602809,31,43,-1,1
-0.0919603498090344,32,43,-1,1
-0.0667441403552368,33,43,-1,1
1.799816952551574,34,43,-1,1
1.165835898096283,35,43,-1,1
0.446882438419504,36,43,-1,1
1.882809873792863,37,43,-1,1
1.1794404564510965,38,43,-1,1
0.025298072984291757,39,43,-1,1
0.16644506259659464,40,43,-1,1
-0.8254626276628939,41,43,-1,1
-0.6384532425428004,42,43,-1,1
-1.6440467879927256,43,43,-1,1
-0.25244625715424995,44,43,-1,1
1.8450744163118142,45,43,-1,1
1.212023906612967,46,43,-1,1
0.22340170108278523,47,43,-1,1
0.013367155066550632,48,43,-1,1
-0.1166754056446483,49,43,-1,1
-0.38243198374893267,50,43,-1,1
0.8020477603375976,51,43,-1,1
1.3079787687648323,52,43,-1,1
1.0945457561895062,53,43,-1,1
0.3668917904797332,54,43,-1,1
-0.12172038218700793,55,43,-1,1
-0.21304906504591795,56,43,-1,1
-0.07199413582233215,57,43,-1,1
0.25618900168698905,58,43,-1,1
0.8486087584329675,59,43,-1,1
0.3378143114714681,60,43,-1,1
0.01126198051459467,61,43,-1,1
-0.322827121425,62,43,-1,1
-0.22676761826165762,63,43,-1,1
-0.042646065536927374,0,44,-1,1
-0.16895273482743423,1,44,-1,1
0.17444080770503118,2,44,-1,1
0.048378745208451285,3,44,-1,1
-0.10341229880741513,4,44,-1,1
-0.2444614467665876,5,44,-1,1
0.09110813242786618,6,44,-1,1
-0.1859622456632318,7,44,-1,1
0.29310417445043774,8,44,-1,1
0.01054964955138659,9,44,-1,1
-0.10985273869901004,10,44,-1,1
1.4730819346366408,11,44,-1,1
0.5059003360000258,12,44,-1,1
-0.12508510885631913,13,44,-1,1
-0.20723724045465158,14,44,-1,1
-0.34283978429891965,15,44,-1,1
0.21224112576564086,16,44,-1,1
-0.1324594954408421,17,44,-1,1
0.06482850403632337,18,44,-1,1
0.7238228749633097,19,44,-1,1
0.9150360158569624,20,44,-1,1
-1.1818407120156742,21,44,-1,1
-0.7450906658300711,22,44,-1,1
-0.510987688372049,23,44,-1,1
0.42278999357653174,24,44,-1,1
-1.7676044807528914,25,44,-1,1
-3.9271622229593963,26,44,-1,1
-4.226324602166162,27,44,-1,1
0.46905704406229587,28,44,-1,1
-2.6543675994722866,29,44,-1,1
-1.274722667024084,30,44,-1,1
0.08587952215220199,31,44,-1,1
0.015513927333288055,32,44,-1,1
-0.3864871438803517,33,44,-1,1
-1.0621399674725376,34,44,-1,1
1.9179063297901122,35,44,-1,1
0.9111576741643048,36,44,-1,1
-2.83718524921191,37,44,-1,1
0.04644366411370098,38,44,-1,1
0.3468912214618268,39,44,-1,1
-0.33571115098709364,40,44,-1,1
1.361837083801494,41,44,-1,1
0.8335077279942141,42,44,-1,1
1.6927772220873722,43,44,-1,1
-0.08773924878460466,44,44,-1,1
-1.39938869146906,45,44,-1,1
1.9762943646965763,46,44,-1,1
0.589672368705617,47,44,-1,1
-0.06418301385824683,48,44,-1,1
0.3467519426244358,49,44,-1,1
-0.28422220865798886,50,44,-1,1
-2.093059029160324,51,44,-1,1
-0.5711045134906306,52,44,-1,1
0.7721050242272407,53,44,-1,1
0.5692632753563388,54,44,-1,1
0.1217066150990575,55,44,-1,1
0.025719856639397905,56,44,-1,1
-0.13124671009875663,57,44,-1,1
-1.1717625164612175,58,44,-1,1
-0.9481225965652227,59,44,-1,1
-0.48088333558468305,60,44,-1,1
-0.4765937165794224,61,44,-1,1
-0.12762056069396588,62,44,-1,1
-0.256094502350443,63,44,-1,1
-0.13601376833504814,0,45,-1,1
-0.20263542890194727,1,45,-1,1
-0.22440319081778576,2,45,-1,1
-0.13968499236577878,3,45,-1,1
-0.79607348846417,4,45,-1,1
-0.4376926024699572,5,45,-1,1
0.16145099768417387,6,45,-1,1
0.0012536658373579848,7,45,-1,1
-0.21910553216405596,8,45,-1,1
0.4792861099941439,9,45,-1,1
1.9300104648819696,10,45,-1,1
-0.5102703804641197,11,45,-1,1
-1.8792249553338154,12,45,-1,1
-1.2785376046699355,13,45,-1,1
-1.4401875202398207,14,45,-1,1
-0.4709619267094459,15,45,-1,1
0.3254639126775029,16,45,-1,1
1.1080678904119599,17,45,-1,1
0.21344933535274374,18,45,-1,1
-1.9917866656288805,19,45,-1,1
0.9441693357688397,20,45,-1,1
3.4869238577776724,21,45,-1,1
1.0956502811899418,22,45,-1,1
-1.4440605081589288,23,45,-1,1
-0.1271503896445651,24,45,-1,1
-0.528627949318305,25,45,-1,1
-1.0259345217007452,26,45,-1,1
-0.6889304262461824,27,45,-1,1
2.3270519967447636,28,45,-1,1
2.430987472397564,29,45,-1,1
3.559451086903233,30,45,-1,1
0.2694432927774819,31,45,-1,1
-0.24453392550891923,32,45,-1,1
1.8632665633268517,33,45,-1,1
0.9603081447569177,34,45,-1,1
0.0488645061817012,35,45,-1,1
1.5730466631521127,36,45,-1,1
-1.747962231980982,37,45,-1,1
0.0054228787883846994,38,45,-1,1
0.6238327172980515,39,45,-1,1
-0.1617830574809183,40,45,-1,1
0.5625159202529677,41,45,-1,1
0.5487978812925283,42,45,-1,1
0.3332673343471642,43,45,-1,1
-0.7784432266499611,44,45,-1,1
-0.016326727646228008,45,45,-1,1
0.3904549902106169,46,45,-1,1
0.13442549357074837,47,45,-1,1
0.10038459197426754,48,45,-1,1
0.13683411490480984,49,45,-1,1
-0.14537248379450085,50,45,-1,1
-0.38119874093027944,51,45,-1,1
-0.935984054204675,52,45,-1,1
-0.7320230212227563,53,45,-1,1
-0.38873483789536933,54,45,-1,1
-0.16265505150155557,55,45,-1,1
-0.10744724048320538,56,45,-1,1
-0.048381396465788755,57,45,-1,1
-0.0030204375131343214,58,45,-1,1
0.485449811824804,59,45,-1,1
0.12515254324149777,60,45,-1,1
0.0054195538371513835,61,45,-1,1
0.08057446986099034,62,45,-1,1
0.16881390868811816,63,45,-1,1
0.0699434251590229,0,46,-1,1
-0.08020162979478797,1,46,-1,1
-0.04131948252102088,2,46,-1,1
0.18940054792809527,3,46,-1,1
-0.19810151045385058,4,46,-1,1
-0.06996329575821232,5,46,-1,1
-0.027868591620669493,6,46,-1,1
-0.14661699204581793,7,46,-1,1
-0.2005084292532289,8,46,-1,1
0.31012202918689624,9,46,-1,1
1.3476391756733848,10,46,-1,1
0.5990821215732511,11,46,-1,1
-0.07953969420143511,12,46,-1,1
-0.4726240747035357,13,46,-1,1
-0.719235211939762,14,46,-1,1
0.21832192404151873,15,46,-1,1
0.015221727333866803,16,46,-1,1
0.21315930465809524,17,46,-1,1
1.5431558014867988,18,46,-1,1
0.12916253727655128,19,46,-1,1
-0.11925035276057877,20,46,-1,1
1.1480608524916889,21,46,-1,1
0.3333148614558653,22,46,-1,1
0.2186560453108932,23,46,-1,1
0.07425036524096595,24,46,-1,1
-0.5945480952341478,25,46,-1,1
1.5035041482334068,26,46,-1,1
1.2775222295773276,27,46,-1,1
-2.2750891657970618,28,46,-1,1
2.286362337968107,29,46,-1,1
-0.19284838789002623,30,46,-1,1
0.1278519046659323,31,46,-1,1
0.0061597217302028166,32,46,-1,1
-0.16818420500336345,33,46,-1,1
2.707301795122353,34,46,-1,1
-0.7192827278313404,35,46,-1,1
-0.07894530293603681,36,46,-1,1
2.619802793818335,37,46,-1,1
-0.26105817731980757,38,46,-1,1
0.017472164599752916,39,46,-1,1
-0.2254519043237483,40,46,-1,1
0.865109251923528,41,46,-1,1
0.7244470114681705,42,46,-1,1
-0.7561769388510622,43,46,-1,1
1.2146201567063228,44,46,-1,1
1.5129380128388166,45,46,-1,1
0.6947659192979756,46,46,-1,1
0.30742211461961955,47,46,-1,1
-0.0052291361412173986,48,46,-1,1
-0.4665037530505128,49,46,-1,1
-0.22512831939421948,50,46,-1,1
0.9458550353902883,51,46,-1,1
-0.8571860541128605,52,46,-1,1
0.3017799469565921,53,46,-1,1
0.7571396463678728,54,46,-1,1
0.04556719374672702,55,46,-1,1
0.060168133106717106,56,46,-1,1
-0.08754475015117857,57,46,-1,1
-0.1689472556506895,58,46,-1,1
0.5448831284244157,59,46,-1,1
0.2126864044470268,60,46,-1,1
-0.2562878047221377,61,46,-1,1
-0.1922884580669965,62,46,-1,1
-0.15699446361786232,63,46,-1,1
-0.12641819402750715,0,47,-1,1
-0.2363900884555473,1,47,-1,1
-0.09146027016880473,2,47,-1,1
0.44138521541311015,3,47,-1,1
1.312236190164876,4,47,-1,1
0.6254942035042818,5,47,-1,1
0.08791711976778968,6,47,-1,1
0.22500193091594803,7,47,-1,1
-0.0383099133863149,8,47,-1,1
0.456458487115318,9,47,-1,1
0.8641477579020851,10,47,-1,1
0.37960009556181146,11,47,-1,1
0.3246493611348946,12,47,-1,1
0.6743924520504642,13,47,-1,1
-0.011829949087082669,14,47,-1,1
-0.24968484897354531,15,47,-1,1
-0.11203448177467791,16,47,-1,1
1.7787786236012297,17,47,-1,1
-0.022306534795290822,18,47,-1,1
-1.0705061037999937,19,47,-1,1
-2.171475622739011,20,47,-1,1
-0.6155355633612023,21,47,-1,1
-0.16462941641326267,22,47,-1,1
-1.2560107311231943,23,47,-1,1
0.4367249803196659,24,47,-1,1
0.15258602383726333,25,47,-1,1
-2.7438184732386377,26,47,-1,1
-1.3192186035844764,27,47,-1,1
1.4639232673998093,28,47,-1,1
-0.5585466258975508,29,47,-1,1
1.2527287316896527,30,47,-1,1
-0.31272865705220393,31,47,-1,1
-0.07932460141905302,32,47,-1,1
-0.43985641530510017,33,47,-1,1
-0.8577880370159479,34,47,-1,1
1.7987517134746107,35,47,-1,1
0.751905208239813,36,47,-1,1
-1.0904223726702302,37,47,-1,1
1.7295325365349679,38,47,-1,1
-0.40565923813721944,39,47,-1,1
0.23564596003213642,40,47,-1,1
-1.4906882971064297,41,47,-1,1
0.10315205158063621,42,47,-1,1
2.1342297916536332,43,47,-1,1
-0.6117042553325699,44,47,-1,1
0.6662489652853769,45,47,-1,1
-0.6546263538208147,46,47,-1,1
-0.48630770770184606,47,47,-1,1
-0.00847492721982978,48,47,-1,1
0.45355990819444036,49,47,-1,1
0.7402531603009604,50,47,-1,1
0.38865992510536196,51,47,-1,1
2.618972725005277,52,47,-1,1
0.0661098510814427,53,47,-1,1
-1.396339104819402,54,47,-1,1
0.19028897286133017,55,47,-1,1
0.00665402958605285,56,47,-1,1
-0.04680125915963977,57,47,-1,1
0.3746661266732431,58,47,-1,1
0.03228707871568934,59,47,-1,1
-0.9445978290752072,60,47,-1,1
-0.8213800386478335,61,47,-1,1
-0.11980292779061646,62,47,-1,1
0.0783340305062291,63,47,-1,1
0.17777436473039163,0,48,-1,1
-0.07107794903209873,1,48,-1,1
-0.41987167499834127,2,48,-1,1
-0.5225540010403928,3,48,-1,1
0.25907615265148215,4,48,-1,1
0.07723590761720625,5,48,-1,1
-0.20508855028320944,6,48,-1,1
0.13549512053599674,7,48,-1,1
0.0911046081718291,8,48,-1,1
0.573311774251326,9,48,-1,1
0.9421553864113138,10,48,-1,1
-0.3830009207411301,11,48,-1,1
-0.32165430211942064,12,48,-1,1
1.606942833927559,13,48,-1,1
0.7318446943773664,14,48,-1,1
0.34594911069625334,15,48,-1,1
0.058555763222466035,16,48,-1,1
0.6257996635569087,17,48,-1,1
-0.02361138611271063,18,48,-1,1
-2.045120633530117,19,48,-1,1
-0.9349022816620923,20,48,-1,1
0.7558952529039069,21,48,-1,1
-0.22595301911751983,22,48,-1,1
0.634228030513938,23,48,-1,1
0.14193183881304214,24,48,-1,1
-0.06825328605065442,25,48,-1,1
-0.7935189896985128,26,48,-1,1
-0.35751564039704775,27,48,-1,1
1.1629448907921467,28,48,-1,1
-1.144807455324297,29,48,-1,1
-2.881034161163755,30,48,-1,1
-0.261398151961858,31,48,-1,1
0.20024255562056087,32,48,-1,1
0.06273794187848998,33,48,-1,1
-0.9576619482588672,34,48,-1,1
-1.418276048146377,35,48,-1,1
-0.18684031722253613,36,48,-1,1
1.548406195188601,37,48,-1,1
1.1365599068378238,38,48,-1,1
-0.47233893177533554,39,48,-1,1
0.25702521310978554,40,48,-1,1
0.05197246674635838,41,48,-1,1
-1.2112050672234693,42,48,-1,1
-1.6739787741896965,43,48,-1,1
0.35322341218092884,44,48,-1,1
1.1182538262439226,45,48,-1,1
0.21554959184899541,46,48,-1,1
-0.557455185251949,47,48,-1,1
0.515199551098695,48,48,-1,1
0.04635455415484278,49,48,-1,1
0.3657164347757325,50,48,-1,1
-0.04338751247686796,51,48,-1,1
1.6076492672451268,52,48,-1,1
1.5780773331519025,53,48,-1,1
-0.5718937964970254,54,48,-1,1
0.1480190526860296,55,48,-1,1
0.0088197639961659,56,48,-1,1
0.133833949903002,57,48,-1,1
-0.14937854235500156,58,48,-1,1
-0.41303840614284854,59,48,-1,1
-0.713548073097295,60,48,-1,1
-1.0460965380564982,61,48,-1,1
-0.16487905884741164,62,48,-1,1
0.07510032373274622,63,48,-1,1
-0.02936656533142538,0,49,-1,1
-0.04042280829897248,1,49,-1,1
0.12303216600204166,2,49,-1,1
0.005399955780754626,3,49,-1,1
-1.0365931066817664,4,49,-1,1
-0.8196242616945353,5,49,-1,1
-0.370562994790679,6,49,-1,1
0.10878737825239312,7,49,-1,1
-0.027987915085506392,8,49,-1,1
-0.23496147068309778,9,49,-1,1
-1.0400004754249605,10,49,-1,1
-0.09869997819001372,11,49,-1,1
0.8479003555788863,12,49,-1,1
-0.5592714699692007,13,49,-1,1
-0.9027815763775096,14,49,-1,1
-0.045821158872644645,15,49,-1,1
0.023805488644374824,16,49,-1,1
-1.136016316545379,17,49,-1,1
-0.07417197422391296,18,49,-1,1
1.8620526116861718,19,49,-1,1
2.3218809010017347,20,49,-1,1
0.9080678698770682,21,49,-1,1
0.2487690957763831,22,49,-1,1
0.523794077952887,23,49,-1,1
-0.4751484639163357,24,49,-1,1
0.6502241118367874,25,49,-1,1
2.296894920413469,26,49,-1,1
-1.392614776870381,27,49,-1,1
-2.3755184233239053,28,49,-1,1
0.7862389023957775,29,49,-1,1
-0.23809676792405013,30,49,-1,1
-0.3122896679266677,31,49,-1,1
