Weight,Input Node,Hidden Node,Output Node,Layer Index
-0.12687798055179425,0,0,-1,1
0.11664124323134527,1,0,-1,1
-0.14785036493718678,2,0,-1,1
-0.4889805457341916,3,0,-1,1
1.4176235259561127,4,0,-1,1
0.845778345998687,5,0,-1,1
0.33019248859163275,6,0,-1,1
0.17370522517854103,7,0,-1,1
0.19495353089692025,8,0,-1,1
-0.816522752791327,9,0,-1,1
-1.11069988002622,10,0,-1,1
-2.695200754674799,11,0,-1,1
-3.1186581924568246,12,0,-1,1
0.5870285438252669,13,0,-1,1
2.2192071006754426,14,0,-1,1
0.5383880469702601,15,0,-1,1
0.5808798768941644,16,0,-1,1
0.13449568584147056,17,0,-1,1
-0.9444199089134533,18,0,-1,1
1.3475267594304992,19,0,-1,1
-2.7676962015524555,20,0,-1,1
0.3729632517141616,21,0,-1,1
-0.5792833861100628,22,0,-1,1
1.4118421272280335,23,0,-1,1
0.6676144838429409,24,0,-1,1
-0.33779628334464573,25,0,-1,1
0.4336999668121958,26,0,-1,1
3.506629850666003,27,0,-1,1
-3.217685916336032,28,0,-1,1
-1.2676031942965391,29,0,-1,1
-1.7726361531609112,30,0,-1,1
1.5254882101956766,31,0,-1,1
-0.17765912670991676,32,0,-1,1
0.3944943133186051,33,0,-1,1
3.4562962509551944,34,0,-1,1
-2.6610632151635376,35,0,-1,1
-1.5304495059143024,36,0,-1,1
-0.09221750666992726,37,0,-1,1
2.315314287759755,38,0,-1,1
-0.2308396901069564,39,0,-1,1
-0.3212819739579445,40,0,-1,1
-0.6933886956748783,41,0,-1,1
-0.1931667136338649,42,0,-1,1
-1.0745509807073934,43,0,-1,1
-0.5617629661978527,44,0,-1,1
1.0161580663680099,45,0,-1,1
-1.5771290463567342,46,0,-1,1
-0.30966314798034233,47,0,-1,1
0.07581266497561728,48,0,-1,1
-1.6168071447560415,49,0,-1,1
0.9469543150427113,50,0,-1,1
1.9972723579029397,51,0,-1,1
2.067394316080234,52,0,-1,1
1.452921286357442,53,0,-1,1
-0.5515779730982806,54,0,-1,1
0.2890372728407651,55,0,-1,1
0.14559567854578015,56,0,-1,1
0.05626789712735351,57,0,-1,1
-1.0736095030854358,58,0,-1,1
-2.610340588310619,59,0,-1,1
-1.8581294315207537,60,0,-1,1
-0.5830138730253533,61,0,-1,1
-0.38119591768523853,62,0,-1,1
0.13635085035285724,63,0,-1,1
0.10629119058444063,0,1,-1,1
-0.28513990017169555,1,1,-1,1
-0.13733531883026343,2,1,-1,1
-0.02371663236828761,3,1,-1,1
-0.3080473465009331,4,1,-1,1
-0.3869368526341655,5,1,-1,1
-0.308655215523279,6,1,-1,1
-0.2858880104760102,7,1,-1,1
0.27431912490579297,8,1,-1,1
0.07550435301367399,9,1,-1,1
0.23447653288633497,10,1,-1,1
-0.43399991647653985,11,1,-1,1
-0.8893935414137681,12,1,-1,1
-1.0295371879201094,13,1,-1,1
0.0028536562279983793,14,1,-1,1
-0.009132434611013627,15,1,-1,1
-0.07594088612541969,16,1,-1,1
-0.10402521005873736,17,1,-1,1
-0.028160796675183113,18,1,-1,1
-1.2802132082985862,19,1,-1,1
-1.5189743329923233,20,1,-1,1
-0.3180919454019382,21,1,-1,1
0.4921422404350914,22,1,-1,1
0.4272124134685164,23,1,-1,1
-0.21793741331034822,24,1,-1,1
-0.4393670836635793,25,1,-1,1
-0.25666766069024016,26,1,-1,1
-0.26506876088942055,27,1,-1,1
-1.5992423809421759,28,1,-1,1
0.026693216526061755,29,1,-1,1
-0.6455036391631648,30,1,-1,1
-0.06219261349200065,31,1,-1,1
0.16550698739973313,32,1,-1,1
-0.46374557396218,33,1,-1,1
-0.3781142985515053,34,1,-1,1
-0.9650428255281294,35,1,-1,1
-1.3228190629050571,36,1,-1,1
-0.4747493535703027,37,1,-1,1
-1.1080573020436426,38,1,-1,1
-0.0003343193975338232,39,1,-1,1
-0.17805458523917464,40,1,-1,1
0.2419940793146798,41,1,-1,1
-0.6582348943544798,42,1,-1,1
-1.8648171710445463,43,1,-1,1
-1.4785430759724283,44,1,-1,1
-0.682418426568407,45,1,-1,1
-0.0740494019400208,46,1,-1,1
-0.03276367664948401,47,1,-1,1
-0.22510795962496763,48,1,-1,1
-0.0678241654524805,49,1,-1,1
-0.4760002256798996,50,1,-1,1
-1.6357967080411826,51,1,-1,1
-1.7815087204631763,52,1,-1,1
-0.0912889664513579,53,1,-1,1
0.5409841473669045,54,1,-1,1
-0.24801474268803145,55,1,-1,1
0.10421307858545267,56,1,-1,1
0.2039524804360608,57,1,-1,1
0.17260913663052027,58,1,-1,1
0.1511337644335977,59,1,-1,1
0.20424286449820916,60,1,-1,1
-0.0523469398969623,61,1,-1,1
-0.014698699086406418,62,1,-1,1
-0.10406486448173626,63,1,-1,1
-0.01495521171869934,0,2,-1,1
0.08763798321216458,1,2,-1,1
-0.3015735749596184,2,2,-1,1
-0.36571518028579375,3,2,-1,1
-1.5118140496421235,4,2,-1,1
-1.0061577144890046,5,2,-1,1
-0.17064249663704917,6,2,-1,1
-0.037987547586360346,7,2,-1,1
0.14176250151107458,8,2,-1,1
-0.1846759664497984,9,2,-1,1
-0.5753600125363839,10,2,-1,1
-1.2861385202604916,11,2,-1,1
-0.7828733306360567,12,2,-1,1
-0.3895130857437318,13,2,-1,1
-0.05594292898868875,14,2,-1,1
0.2079283376917814,15,2,-1,1
-0.6221939395542074,16,2,-1,1
0.20821913914261722,17,2,-1,1
0.7212078797044152,18,2,-1,1
0.9962555971004711,19,2,-1,1
0.026553541729407444,20,2,-1,1
0.22260782159279008,21,2,-1,1
1.2673447939121663,22,2,-1,1
0.16079180291286418,23,2,-1,1
-0.1643381945294456,24,2,-1,1
1.437408778052474,25,2,-1,1
-0.6768742782936948,26,2,-1,1
-1.9867987003893903,27,2,-1,1
-3.5466227020508065,28,2,-1,1
-0.7714413733748,29,2,-1,1
1.3388558222816902,30,2,-1,1
-1.2765638062615328,31,2,-1,1
0.3331046049054242,32,2,-1,1
-0.29120547566912314,33,2,-1,1
-0.7956486725241922,34,2,-1,1
-0.8693186109599271,35,2,-1,1
-2.672889718258922,36,2,-1,1
1.8794189304785953,37,2,-1,1
-1.6478289062674074,38,2,-1,1
-0.8957165040050878,39,2,-1,1
-0.03967687774243656,40,2,-1,1
-0.5324275809091454,41,2,-1,1
1.2517655890217316,42,2,-1,1
-0.22038899920859842,43,2,-1,1
-0.49288615263965463,44,2,-1,1
-0.3284254875886981,45,2,-1,1
-0.3987344375417802,46,2,-1,1
-0.20456731427822367,47,2,-1,1
-0.4956454788176668,48,2,-1,1
0.16368533076446712,49,2,-1,1
-1.6583241783861482,50,2,-1,1
-2.4123978378705764,51,2,-1,1
-1.6756764603509868,52,2,-1,1
-0.4957885255518668,53,2,-1,1
0.7922847315528441,54,2,-1,1
0.0894241423673179,55,2,-1,1
-0.008637977474102786,56,2,-1,1
-0.27649534325450054,57,2,-1,1
0.1337499746377154,58,2,-1,1
1.1645169155454758,59,2,-1,1
0.38962531809001105,60,2,-1,1
0.571640757062799,61,2,-1,1
-0.028721306116345418,62,2,-1,1
-0.2207544806239461,63,2,-1,1
-0.19945930738418627,0,3,-1,1
-0.2207644844686614,1,3,-1,1
-0.1881909168927808,2,3,-1,1
0.05029029780213246,3,3,-1,1
-0.07876011200035168,4,3,-1,1
0.06158049840099818,5,3,-1,1
0.0802730693749203,6,3,-1,1
-0.09732275255850494,7,3,-1,1
0.0804612888046316,8,3,-1,1
0.2727057483280043,9,3,-1,1
0.8685303339280517,10,3,-1,1
-0.09144379317018071,11,3,-1,1
-1.2174054064975728,12,3,-1,1
-0.5751709398732237,13,3,-1,1
-0.12180808065162231,14,3,-1,1
-0.015161637890075024,15,3,-1,1
-0.1669531569925014,16,3,-1,1
0.41332123163181156,17,3,-1,1
-0.2696318893270338,18,3,-1,1
-0.7601892569559828,19,3,-1,1
-1.2140566645436839,20,3,-1,1
-1.1068143771827708,21,3,-1,1
0.43944932470220704,22,3,-1,1
0.05099600196702945,23,3,-1,1
-0.058514890568751796,24,3,-1,1
-0.22586659510973084,25,3,-1,1
-0.5421744902257176,26,3,-1,1
-0.004051395740225513,27,3,-1,1
-0.2736189104798416,28,3,-1,1
-0.37898789251069886,29,3,-1,1
-0.7140282473464191,30,3,-1,1
-0.40924579391346927,31,3,-1,1
0.0853196301562248,32,3,-1,1
-0.27865337664487533,33,3,-1,1
-0.6709378689039969,34,3,-1,1
-1.336641536405339,35,3,-1,1
-1.4642343210315338,36,3,-1,1
0.0634263315276334,37,3,-1,1
-0.10425189562466317,38,3,-1,1
-0.1145381299878281,39,3,-1,1
0.046055314086539005,40,3,-1,1
-0.16786899140545722,41,3,-1,1
-1.3625112736313443,42,3,-1,1
-1.40630669570908,43,3,-1,1
-1.0726315253860568,44,3,-1,1
-0.21014371367291879,45,3,-1,1
0.05170247679465898,46,3,-1,1
-0.13108236716452618,47,3,-1,1
-0.05188471102053693,48,3,-1,1
-0.3460441288860303,49,3,-1,1
-1.156601277601362,50,3,-1,1
-1.3283888405219368,51,3,-1,1
-0.6497181577435254,52,3,-1,1
0.33728908230082544,53,3,-1,1
-0.2570086749070605,54,3,-1,1
0.04456409753708769,55,3,-1,1
-0.10690801487551424,56,3,-1,1
0.14732890060375106,57,3,-1,1
0.3121462934081095,58,3,-1,1
0.34642795091697987,59,3,-1,1
0.262141558171886,60,3,-1,1
-0.05721435798333417,61,3,-1,1
0.17697645582023164,62,3,-1,1
0.0681195994354666,63,3,-1,1
-0.030471038637504833,0,4,-1,1
-0.22882506267393515,1,4,-1,1
-0.09777479343777068,2,4,-1,1
1.1075181029165106,3,4,-1,1
0.8267689739519144,4,4,-1,1
0.5891464118069469,5,4,-1,1
0.05152461319075565,6,4,-1,1
0.17110156357000134,7,4,-1,1
-0.10989011910927199,8,4,-1,1
-0.23989968182055266,9,4,-1,1
0.6468274487989184,10,4,-1,1
-0.3732499268603976,11,4,-1,1
1.534011055460859,12,4,-1,1
0.0842961414487855,13,4,-1,1
0.8598257404328504,14,4,-1,1
0.4668991460293116,15,4,-1,1
-0.3452356903889764,16,4,-1,1
-0.7880165656021496,17,4,-1,1
0.9106599301092199,18,4,-1,1
5.1747583030184625,19,4,-1,1
0.30224807520049524,20,4,-1,1
-2.558745066769896,21,4,-1,1
-0.600461241053809,22,4,-1,1
0.005215925372702308,23,4,-1,1
-0.31723527932701134,24,4,-1,1
1.8235434091950284,25,4,-1,1
2.7985023905544866,26,4,-1,1
-1.9987141382134554,27,4,-1,1
-2.8494056345746555,28,4,-1,1
0.6803188512754866,29,4,-1,1
-0.41258324084452175,30,4,-1,1
-0.27047637306060124,31,4,-1,1
0.3264114438600487,32,4,-1,1
-0.37901184388096903,33,4,-1,1
0.4034878567182156,34,4,-1,1
-3.4084686875023036,35,4,-1,1
-1.6337030570699558,36,4,-1,1
0.7055518437857347,37,4,-1,1
0.127231381806456,38,4,-1,1
-0.29476425068522133,39,4,-1,1
-0.024808665141334823,40,4,-1,1
-0.9880082647649021,41,4,-1,1
0.19691058124779223,42,4,-1,1
-0.4637643927018971,43,4,-1,1
3.5233214987769435,44,4,-1,1
0.3140053946494229,45,4,-1,1
0.012157650995713294,46,4,-1,1
-0.4654984967135798,47,4,-1,1
-0.01953418865737924,48,4,-1,1
-0.41799005627105706,49,4,-1,1
-2.0327687782510533,50,4,-1,1
0.5591542518187907,51,4,-1,1
0.6004410347992916,52,4,-1,1
-0.33605459111639446,53,4,-1,1
0.5948988486183016,54,4,-1,1
0.4634164564250751,55,4,-1,1
0.07805486476438595,56,4,-1,1
0.323709330256073,57,4,-1,1
1.9379267400554105,58,4,-1,1
2.0729482562288863,59,4,-1,1
0.9934590674093677,60,4,-1,1
1.9416186749235682,61,4,-1,1
0.3274151864774213,62,4,-1,1
-0.006036911821280848,63,4,-1,1
-0.1754999781659975,0,5,-1,1
-0.34636372377851715,1,5,-1,1
-0.30749957685964796,2,5,-1,1
0.3622726166288555,3,5,-1,1
0.6996036892257566,4,5,-1,1
-0.4709860991132739,5,5,-1,1
-0.1641355984289716,6,5,-1,1
-0.23964978421824545,7,5,-1,1
-0.2811396142871119,8,5,-1,1
-0.000720415855866943,9,5,-1,1
0.8679084246649941,10,5,-1,1
2.079188400617975,11,5,-1,1
2.283571861974851,12,5,-1,1
-0.5696016516396691,13,5,-1,1
-0.5111523119643333,14,5,-1,1
0.06862303735647723,15,5,-1,1
-0.18618066583449752,16,5,-1,1
1.0508740290110359,17,5,-1,1
-1.0083245625386645,18,5,-1,1
-0.2119323950885204,19,5,-1,1
-0.48399647451386296,20,5,-1,1
-0.353061202682032,21,5,-1,1
1.101086682886998,22,5,-1,1
-0.26402577499776825,23,5,-1,1
0.6303557586570253,24,5,-1,1
-1.7740784383893078,25,5,-1,1
-4.274543381362333,26,5,-1,1
-2.544391179511033,27,5,-1,1
-1.8373732905219853,28,5,-1,1
-2.439487937617887,29,5,-1,1
0.8458125947316376,30,5,-1,1
-0.7637617065803913,31,5,-1,1
0.0653551893874302,32,5,-1,1
-1.1789283084629434,33,5,-1,1
-2.05791725129165,34,5,-1,1
-0.9434845697727186,35,5,-1,1
-1.8041653511999358,36,5,-1,1
-2.6300746904672665,37,5,-1,1
-0.007512259476846948,38,5,-1,1
-0.4812095777796033,39,5,-1,1
-0.46921797913879754,40,5,-1,1
0.8126235750180816,41,5,-1,1
2.578670798875433,42,5,-1,1
0.8125254313700553,43,5,-1,1
-0.7554818336461069,44,5,-1,1
-0.05922710026069913,45,5,-1,1
1.0376843282842485,46,5,-1,1
-0.15714770236028414,47,5,-1,1
-0.23932635531313678,48,5,-1,1
0.3863878402825183,49,5,-1,1
0.28348084214593866,50,5,-1,1
-0.848821040456723,51,5,-1,1
-0.8046183677467363,52,5,-1,1
-0.5431125235970284,53,5,-1,1
-0.3009364791525289,54,5,-1,1
-0.13510872513559902,55,5,-1,1
0.03321602007645201,56,5,-1,1
-0.5274326179135533,57,5,-1,1
-0.7891846808706077,58,5,-1,1
0.04158674169200481,59,5,-1,1
-0.17357683579235691,60,5,-1,1
-0.5506411755031747,61,5,-1,1
-0.33250734826833417,62,5,-1,1
-0.42796950698787883,63,5,-1,1
0.005960734276199985,0,6,-1,1
0.11400451604353229,1,6,-1,1
0.260722133924058,2,6,-1,1
-0.7163781766939318,3,6,-1,1
-1.8449156655198515,4,6,-1,1
-1.120011550708498,5,6,-1,1
-0.38979669549686957,6,6,-1,1
-0.005046387769588317,7,6,-1,1
-0.06333631106170934,8,6,-1,1
-0.2701020404224036,9,6,-1,1
-1.579606568945135,10,6,-1,1
-2.0321109652869596,11,6,-1,1
0.545895392743995,12,6,-1,1
0.02054620456773142,13,6,-1,1
-0.3995103554459253,14,6,-1,1
-0.10536220155793548,15,6,-1,1
-0.42370817508929376,16,6,-1,1
-2.7247570607480496,17,6,-1,1
-2.344170661915041,18,6,-1,1
-3.1897473754244743,19,6,-1,1
-0.061418290904335746,20,6,-1,1
0.7339561511511066,21,6,-1,1
-0.10402157589339663,22,6,-1,1
0.8571617122572801,23,6,-1,1
-0.9484266506397541,24,6,-1,1
0.4432830037216162,25,6,-1,1
3.422689116658196,26,6,-1,1
-1.5509398783294224,27,6,-1,1
-1.0969648437234334,28,6,-1,1
-0.09224532629322287,29,6,-1,1
-1.4344472819262755,30,6,-1,1
0.2998967032388418,31,6,-1,1
-0.2447341859890661,32,6,-1,1
1.553102414136082,33,6,-1,1
4.383613875798873,34,6,-1,1
2.776685019783593,35,6,-1,1
3.1140728513877005,36,6,-1,1
0.2723631566620105,37,6,-1,1
-3.3275706349313983,38,6,-1,1
0.010217054226292996,39,6,-1,1
-0.19402164751440218,40,6,-1,1
0.5988893217723159,41,6,-1,1
-0.9549922113778395,42,6,-1,1
-2.8286620210462647,43,6,-1,1
0.32332491501378313,44,6,-1,1
-1.8828002278553826,45,6,-1,1
-0.6987197990477455,46,6,-1,1
0.19503117330378578,47,6,-1,1
0.11544778627611497,48,6,-1,1
-1.0934517272462334,49,6,-1,1
-3.2501092726698486,50,6,-1,1
-3.005053444161806,51,6,-1,1
-2.109443916178221,52,6,-1,1
-0.11415615831883391,53,6,-1,1
0.9672414990577476,54,6,-1,1
-0.0381153225172361,55,6,-1,1
-0.06321425431254189,56,6,-1,1
-0.19145063453277245,57,6,-1,1
-0.018011276199011182,58,6,-1,1
0.4958698824137774,59,6,-1,1
0.37130444258553297,60,6,-1,1
0.8865987726679645,61,6,-1,1
0.5317841829306599,62,6,-1,1
0.06919864024554646,63,6,-1,1
-0.08358561362058722,0,7,-1,1
0.13907370709158687,1,7,-1,1
0.24371094900003168,2,7,-1,1
0.2745405697745328,3,7,-1,1
-0.016018475251012868,4,7,-1,1
-0.02868320196428572,5,7,-1,1
-0.03618014781963654,6,7,-1,1
-0.46864998748219994,7,7,-1,1
-0.35291555770880945,8,7,-1,1
0.136435082908528,9,7,-1,1
-0.011844211101974813,10,7,-1,1
-0.3626550715045147,11,7,-1,1
-1.3737063155761298,12,7,-1,1
-0.7241245873313035,13,7,-1,1
-0.12117353837140238,14,7,-1,1
0.045374372356513766,15,7,-1,1
-0.1037009808133968,16,7,-1,1
-0.1541533885589741,17,7,-1,1
-0.6068767070348176,18,7,-1,1
-1.0671732556043756,19,7,-1,1
-1.352182204770986,20,7,-1,1
-0.9323384710800786,21,7,-1,1
-0.04885078141228556,22,7,-1,1
0.17720709799015985,23,7,-1,1
-0.09644712098917779,24,7,-1,1
-0.5825434298305725,25,7,-1,1
-0.4289823927527957,26,7,-1,1
-0.2883188516703719,27,7,-1,1
-1.1246407892668415,28,7,-1,1
-0.843060754438403,29,7,-1,1
-0.7353616435762124,30,7,-1,1
0.15906155625847357,31,7,-1,1
-0.011992840079011293,32,7,-1,1
-0.5511821144302724,33,7,-1,1
-0.36884916842484944,34,7,-1,1
-0.41063015703960937,35,7,-1,1
-1.3137235051390352,36,7,-1,1
-1.1483992812310166,37,7,-1,1
-0.7628864242931888,38,7,-1,1
-0.023590906738731238,39,7,-1,1
-0.021013030695828567,40,7,-1,1
-0.10812282167600665,41,7,-1,1
-0.6121895221012588,42,7,-1,1
-1.5308757709105716,43,7,-1,1
-0.9912765129995331,44,7,-1,1
-0.5020974362512047,45,7,-1,1
0.10257519802597162,46,7,-1,1
0.09048244353016618,47,7,-1,1
0.06850674268144613,48,7,-1,1
-0.11603324160554147,49,7,-1,1
-0.6944273712887171,50,7,-1,1
-1.3227106864369569,51,7,-1,1
-1.3423311195323184,52,7,-1,1
-0.604077622645943,53,7,-1,1
0.0893453588098256,54,7,-1,1
-0.1976777919311748,55,7,-1,1
-0.09210557518209468,56,7,-1,1
-0.011331212571903086,57,7,-1,1
-0.04520317092096347,58,7,-1,1
0.2237910028934772,59,7,-1,1
0.007180989897121234,60,7,-1,1
0.2658571110533276,61,7,-1,1
-0.09175809994456229,62,7,-1,1
-0.13782871557023524,63,7,-1,1
0.07991553886747672,0,8,-1,1
-0.01972971732988964,1,8,-1,1
0.22251426080910477,2,8,-1,1
-0.19434735473597514,3,8,-1,1
0.44354025046004375,4,8,-1,1
-0.36234889580480917,5,8,-1,1
-0.25250302774178957,6,8,-1,1
-0.062346917873216945,7,8,-1,1
-0.03324219319430492,8,8,-1,1
0.27742402904671853,9,8,-1,1
-0.752676862859178,10,8,-1,1
-0.398628354604327,11,8,-1,1
-1.004993241638536,12,8,-1,1
0.74735131297314,13,8,-1,1
-0.05989824661780972,14,8,-1,1
-0.01990068261819357,15,8,-1,1
0.3416074490319294,16,8,-1,1
0.18950911755244093,17,8,-1,1
-1.0469319973114926,18,8,-1,1
-0.8038538251762173,19,8,-1,1
0.2971178430510014,20,8,-1,1
1.4647394254694086,21,8,-1,1
0.3570155339406201,22,8,-1,1
-0.6588465329305021,23,8,-1,1
0.3546229104367176,24,8,-1,1
-1.8358678979974445,25,8,-1,1
-1.9312725323706483,26,8,-1,1
-0.9720088529962604,27,8,-1,1
0.8140087722261169,28,8,-1,1
-1.6308593902085156,29,8,-1,1
-1.285128289774571,30,8,-1,1
-0.1249029997411616,31,8,-1,1
0.09706041851525472,32,8,-1,1
-0.6662409896276175,33,8,-1,1
0.018494482794765094,34,8,-1,1
0.3402803061489391,35,8,-1,1
0.7001031508611314,36,8,-1,1
-1.2375729644937394,37,8,-1,1
0.5506169163549975,38,8,-1,1
1.2790297099578116,39,8,-1,1
0.21044361544518755,40,8,-1,1
0.38982216875876086,41,8,-1,1
0.6759425100142672,42,8,-1,1
1.560422949222311,43,8,-1,1
-0.4369377457532503,44,8,-1,1
-1.4874911649182803,45,8,-1,1
0.9785455023554755,46,8,-1,1
0.8749494502872209,47,8,-1,1
0.14607043303822825,48,8,-1,1
-0.26014932495187715,49,8,-1,1
1.6654898875273603,50,8,-1,1
-0.264996078532523,51,8,-1,1
-3.400742867099322,52,8,-1,1
0.15213256107176423,53,8,-1,1
0.48629126689242685,54,8,-1,1
0.09144735819070386,55,8,-1,1
-0.00372723003845689,56,8,-1,1
-0.06850840587388203,57,8,-1,1
-0.32149322921151824,58,8,-1,1
-1.6453707708584493,59,8,-1,1
-0.784136377832475,60,8,-1,1
-0.7203798582018122,61,8,-1,1
-0.2621508573382934,62,8,-1,1
0.05272013209495803,63,8,-1,1
-0.12987680219238407,0,9,-1,1
-0.104422971566362,1,9,-1,1
0.09275373506728003,2,9,-1,1
0.030519990347061914,3,9,-1,1
-0.3131950542944288,4,9,-1,1
0.0328821713419718,5,9,-1,1
-0.2532863688016868,6,9,-1,1
0.27203452614099644,7,9,-1,1
-0.03551892368078126,8,9,-1,1
-0.10673142790113133,9,9,-1,1
0.3062326608313924,10,9,-1,1
-0.17194659251484568,11,9,-1,1
-0.674235900397826,12,9,-1,1
-0.584581011576418,13,9,-1,1
-0.19483722838259407,14,9,-1,1
0.09922450855925433,15,9,-1,1
-0.013244469897828237,16,9,-1,1
-0.254897863840276,17,9,-1,1
-0.9688476450043563,18,9,-1,1
-0.6090738155920865,19,9,-1,1
-0.9993573614302418,20,9,-1,1
-0.6545552628109814,21,9,-1,1
0.15858318948025565,22,9,-1,1
-0.5679692920685047,23,9,-1,1
0.020733407461943704,24,9,-1,1
-0.2759067003488223,25,9,-1,1
-0.8451702087308861,26,9,-1,1
-0.9265945621505345,27,9,-1,1
-0.8122701945125347,28,9,-1,1
-1.3173438557461807,29,9,-1,1
-0.2651174814222219,30,9,-1,1
-0.036934679202980505,31,9,-1,1
-0.2806615310120868,32,9,-1,1
-0.05266418607727633,33,9,-1,1
-0.8200377800749822,34,9,-1,1
-1.1103203724420876,35,9,-1,1
-0.7299155627459566,36,9,-1,1
-1.5776997150207195,37,9,-1,1
-0.3571008872528737,38,9,-1,1
0.01914302075179898,39,9,-1,1
0.1351340786683081,40,9,-1,1
-0.23618830261521787,41,9,-1,1
-0.6840226629506145,42,9,-1,1
-1.577489646033089,43,9,-1,1
-1.5132469360807093,44,9,-1,1
-1.0153770589008864,45,9,-1,1
0.022411838733080378,46,9,-1,1
0.09469878304333863,47,9,-1,1
-0.1005961186118209,48,9,-1,1
0.08661402426608057,49,9,-1,1
-0.20638596122272518,50,9,-1,1
-0.8720105242894426,51,9,-1,1
-0.6798372014370934,52,9,-1,1
-0.41789065891590665,53,9,-1,1
0.054804228929530095,54,9,-1,1
-0.10855379720784901,55,9,-1,1
-0.11586984600157063,56,9,-1,1
-0.09339644177085638,57,9,-1,1
-0.02248910370840479,58,9,-1,1
-0.012620108070243085,59,9,-1,1
0.2066143813125015,60,9,-1,1
0.05748895482703993,61,9,-1,1
-0.08136159306466421,62,9,-1,1
-0.10355875737794347,63,9,-1,1
-0.05555878521224256,0,10,-1,1
0.022951468919819133,1,10,-1,1
0.40291629106237153,2,10,-1,1
1.3360468454451055,3,10,-1,1
1.29672046885277,4,10,-1,1
1.3521672876335031,5,10,-1,1
0.2773980241463402,6,10,-1,1
-0.11414842589472093,7,10,-1,1
-0.13483893765954266,8,10,-1,1
0.21233472504737536,9,10,-1,1
-1.0203443364873992,10,10,-1,1
-0.026299109202347678,11,10,-1,1
1.6133724390902744,12,10,-1,1
0.11002570881007057,13,10,-1,1
-0.8403679280238475,14,10,-1,1
-0.52749823979981,15,10,-1,1
0.6011255354886601,16,10,-1,1
-0.2943575408173461,17,10,-1,1
-1.7798129603715536,18,10,-1,1
3.2115571242158674,19,10,-1,1
1.0204179086810434,20,10,-1,1
-0.723112227368332,21,10,-1,1
0.5365146669584352,22,10,-1,1
-1.417002435733074,23,10,-1,1
0.4350455811197412,24,10,-1,1
0.3050341264898379,25,10,-1,1
-0.7755541060700054,26,10,-1,1
-0.014538526445751257,27,10,-1,1
1.8991329980518854,28,10,-1,1
1.7896700769809188,29,10,-1,1
0.5811644948589315,30,10,-1,1
-0.44885927252440205,31,10,-1,1
0.20391438088790226,32,10,-1,1
-1.0677440849896795,33,10,-1,1
-2.1516561607568887,34,10,-1,1
-2.257827759750807,35,10,-1,1
-0.9665622775197533,36,10,-1,1
0.5463707723266672,37,10,-1,1
-1.7814266893556192,38,10,-1,1
0.649541786696609,39,10,-1,1
0.3958250593237196,40,10,-1,1
-0.08296869813725506,41,10,-1,1
2.2300843731395528,42,10,-1,1
-0.9439207723435187,43,10,-1,1
0.3270586294028203,44,10,-1,1
1.7476006170671157,45,10,-1,1
-0.6101646777773875,46,10,-1,1
-0.30264298559475017,47,10,-1,1
-0.02299607489350124,48,10,-1,1
1.2793463166433574,49,10,-1,1
0.7735476613592616,50,10,-1,1
-0.4137022064099966,51,10,-1,1
-1.3760669753429093,52,10,-1,1
-2.186712879894881,53,10,-1,1
-0.3106990422520256,54,10,-1,1
-0.27947974624779826,55,10,-1,1
-0.019554025293016645,56,10,-1,1
0.14058180198306755,57,10,-1,1
2.254525065004012,58,10,-1,1
1.9921098987089798,59,10,-1,1
1.2300215837264665,60,10,-1,1
2.6335098820629455,61,10,-1,1
0.4136006984798396,62,10,-1,1
-0.14124618159662006,63,10,-1,1
-0.13423671011577826,0,11,-1,1
0.17799708587683974,1,11,-1,1
-0.06485203999098584,2,11,-1,1
-0.700320308904448,3,11,-1,1
-0.4572418929122614,4,11,-1,1
-0.930011895747611,5,11,-1,1
-0.469711463435686,6,11,-1,1
0.006834108120724676,7,11,-1,1
-0.10009109944601541,8,11,-1,1
-0.6867883044488386,9,11,-1,1
-0.8326697606519602,10,11,-1,1
-1.1989745614916638,11,11,-1,1
-2.0116650886205183,12,11,-1,1
-2.0266903513091816,13,11,-1,1
0.4198397332677573,14,11,-1,1
-0.01214772213087203,15,11,-1,1
0.09659671334568744,16,11,-1,1
-1.0089966822163106,17,11,-1,1
0.6129709389100744,18,11,-1,1
1.3593995837287376,19,11,-1,1
0.40353902235557304,20,11,-1,1
-0.7116206234397481,21,11,-1,1
1.0717251269797368,22,11,-1,1
1.8547243775043942,23,11,-1,1
0.0690856405491422,24,11,-1,1
-0.2518793573255458,25,11,-1,1
-1.318765821986566,26,11,-1,1
-0.17840541970697957,27,11,-1,1
1.6326728585424544,28,11,-1,1
-1.8549607779375263,29,11,-1,1
0.37612187321733237,30,11,-1,1
1.0891655147410275,31,11,-1,1
0.12352199621079159,32,11,-1,1
-0.8521541302163116,33,11,-1,1
-2.4549227087458045,34,11,-1,1
-0.04771726555651304,35,11,-1,1
-0.010716543947391083,36,11,-1,1
-2.4973865942256706,37,11,-1,1
-0.42335680755929944,38,11,-1,1
0.03268832265834949,39,11,-1,1
-0.6759208643419017,40,11,-1,1
-1.0770988745743204,41,11,-1,1
0.5468976292712568,42,11,-1,1
3.511777818841081,43,11,-1,1
-3.009362836820694,44,11,-1,1
-2.329803405900258,45,11,-1,1
-0.7056541715009796,46,11,-1,1
0.704572758940446,47,11,-1,1
-0.1931077131528877,48,11,-1,1
-1.313431919202608,49,11,-1,1
0.4622470513355815,50,11,-1,1
1.149353065724494,51,11,-1,1
-0.37676284014718575,52,11,-1,1
-1.4458836198174425,53,11,-1,1
0.20121142823138569,54,11,-1,1
-0.08133759670010185,55,11,-1,1
0.1906862707658105,56,11,-1,1
-0.701400617360666,57,11,-1,1
-1.7109406979526494,58,11,-1,1
-0.5194319165742006,59,11,-1,1
-0.24234396188560461,60,11,-1,1
-0.7875898968791493,61,11,-1,1
-0.17648634633972107,62,11,-1,1
0.1701261838914458,63,11,-1,1
0.03248542211993766,0,12,-1,1
-0.30542663819310917,1,12,-1,1
-0.12555227972201788,2,12,-1,1
1.5187936024148878,3,12,-1,1
1.6918299572473958,4,12,-1,1
1.33005570710922,5,12,-1,1
0.5608547579260735,6,12,-1,1
-0.3444966353548377,7,12,-1,1
-0.39062380248952683,8,12,-1,1
-0.29868840022888327,9,12,-1,1
1.2150642428297675,10,12,-1,1
-0.5484760972812132,11,12,-1,1
-2.026035893886384,12,12,-1,1
-1.6147578445679474,13,12,-1,1
-1.3844895084861013,14,12,-1,1
-0.2978138677660604,15,12,-1,1
0.12642801401131154,16,12,-1,1
0.07222637164113552,17,12,-1,1
3.1300200741434048,18,12,-1,1
0.5474520217351087,19,12,-1,1
-2.290971093041305,20,12,-1,1
-3.4455828007179012,21,12,-1,1
-2.5762230078604462,22,12,-1,1
0.5423119168912164,23,12,-1,1
-0.0319575198958061,24,12,-1,1
-0.3533378757246845,25,12,-1,1
-2.0836436011851123,26,12,-1,1
-2.9803910094150403,27,12,-1,1
0.1918787340672644,28,12,-1,1
0.7927966797514917,29,12,-1,1
0.22569924314211112,30,12,-1,1
0.8014244153694656,31,12,-1,1
0.04780715867071552,32,12,-1,1
-2.343758515747225,33,12,-1,1
-2.045962288687624,34,12,-1,1
-0.4998415647124975,35,12,-1,1
0.5769628015610236,36,12,-1,1
1.75849770875315,37,12,-1,1
1.4151716435386343,38,12,-1,1
0.15223156120824852,39,12,-1,1
-0.1261667048226945,40,12,-1,1
-2.1289232555537905,41,12,-1,1
-0.43461449868782615,42,12,-1,1
1.9128301608525644,43,12,-1,1
0.6251287867684817,44,12,-1,1
-1.3759378829551692,45,12,-1,1
-1.0880023604554416,46,12,-1,1
0.13537186098310733,47,12,-1,1
-0.35574101433755345,48,12,-1,1
-0.5229308605484915,49,12,-1,1
-1.1991755161981335,50,12,-1,1
-0.2161357783689813,51,12,-1,1
-0.933906114871243,52,12,-1,1
-4.284461526813384,53,12,-1,1
-1.2909165588398608,54,12,-1,1
0.14217513579814295,55,12,-1,1
-0.05665286891159672,56,12,-1,1
-0.28355080666095683,57,12,-1,1
0.38004288988582935,58,12,-1,1
0.38143910414030424,59,12,-1,1
0.40418340665916674,60,12,-1,1
-0.19620823001580953,61,12,-1,1
-0.3191885355233695,62,12,-1,1
-0.030247725152257626,63,12,-1,1
-0.013779457576868525,0,13,-1,1
0.19125037698565492,1,13,-1,1
0.4168040580275787,2,13,-1,1
1.7003228752126698,3,13,-1,1
2.0698572268544497,4,13,-1,1
1.819305607639923,5,13,-1,1
0.9694897886373708,6,13,-1,1
-0.26187068443199124,7,13,-1,1
-0.15710857899142913,8,13,-1,1
0.2846519457567665,9,13,-1,1
2.241300434653354,10,13,-1,1
1.563504567123017,11,13,-1,1
2.162675845487208,12,13,-1,1
2.0390701416516324,13,13,-1,1
0.533375394805476,14,13,-1,1
0.2694122399513047,15,13,-1,1
0.3169840946030264,16,13,-1,1
1.604673880555853,17,13,-1,1
0.4150818710540697,18,13,-1,1
-0.3774219280725074,19,13,-1,1
-1.1759075812280657,20,13,-1,1
-2.4565880714108537,21,13,-1,1
-1.5399155745535111,22,13,-1,1
-1.057705622276388,23,13,-1,1
0.7349885241959552,24,13,-1,1
-1.070727426905559,25,13,-1,1
-1.939097112895232,26,13,-1,1
-3.072911914356047,27,13,-1,1
2.609778728151003,28,13,-1,1
-0.7438456025516079,29,13,-1,1
-0.3373249256439739,30,13,-1,1
-1.081033543058901,31,13,-1,1
-0.06113683220349103,32,13,-1,1
-1.414030206221919,33,13,-1,1
-1.7701725566287807,34,13,-1,1
-0.43448619411596606,35,13,-1,1
1.4358807187935567,36,13,-1,1
-2.1117404631164938,37,13,-1,1
0.2985236586501912,38,13,-1,1
-0.33875317843843455,39,13,-1,1
0.1014287569140573,40,13,-1,1
-0.4672913352371469,41,13,-1,1
1.1007095591100782,42,13,-1,1
1.9713668554544528,43,13,-1,1
0.3864156672140908,44,13,-1,1
1.5127780718256907,45,13,-1,1
0.44075747142441424,46,13,-1,1
-0.4029819376459665,47,13,-1,1
-0.10642035103533197,48,13,-1,1
1.4217866783195794,49,13,-1,1
2.2204750934894206,50,13,-1,1
0.7060391157129394,51,13,-1,1
1.9966691197475983,52,13,-1,1
1.7073900015494161,53,13,-1,1
0.1275779755533685,54,13,-1,1
-0.25329476503259474,55,13,-1,1
0.018695560019866667,56,13,-1,1
0.19464855606661954,57,13,-1,1
0.4180901537932243,58,13,-1,1
-0.1919224709067143,59,13,-1,1
-1.7308304476754248,60,13,-1,1
0.025088494952507093,61,13,-1,1
-0.2834824440790426,62,13,-1,1
0.09903073117980807,63,13,-1,1
-0.3917489184555433,0,14,-1,1
-0.07170670250545104,1,14,-1,1
0.1453903177548373,2,14,-1,1
-0.07067173113012384,3,14,-1,1
-0.2694752831616954,4,14,-1,1
-0.04347306023244769,5,14,-1,1
-0.11621773839156205,6,14,-1,1
-0.1449851673275032,7,14,-1,1
-0.06886527695726966,8,14,-1,1
-0.31571776630461884,9,14,-1,1
-0.2402229402205352,10,14,-1,1
-1.0447618227897884,11,14,-1,1
-1.2442422893909757,12,14,-1,1
-0.9169478647912812,13,14,-1,1
-0.047858238671238916,14,14,-1,1
0.1408999912240181,15,14,-1,1
-0.146384152473137,16,14,-1,1
-0.336590172985592,17,14,-1,1
-0.8935980567902626,18,14,-1,1
-0.92229197445766,19,14,-1,1
-1.2961148487080123,20,14,-1,1
-0.9587546455479751,21,14,-1,1
-0.18499804649758417,22,14,-1,1
0.06996205124129375,23,14,-1,1
0.13574387902752452,24,14,-1,1
-0.21362743429117267,25,14,-1,1
-0.1229733745529481,26,14,-1,1
-0.762611150909451,27,14,-1,1
-1.0130832062374424,28,14,-1,1
-0.6136096089561791,29,14,-1,1
-0.8544916884347303,30,14,-1,1
0.27049900460385873,31,14,-1,1
0.02897530642675613,32,14,-1,1
-0.23770567892549563,33,14,-1,1
-0.9330499129764471,34,14,-1,1
-1.1100102628581239,35,14,-1,1
-0.857019388732827,36,14,-1,1
-1.0113556698603976,37,14,-1,1
-0.9413275631068216,38,14,-1,1
0.1732533442265566,39,14,-1,1
-0.009404839902897302,40,14,-1,1
-0.10872768108583318,41,14,-1,1
-0.7244663768880306,42,14,-1,1
-1.457914163692427,43,14,-1,1
-1.129541022721604,44,14,-1,1
-1.5387492291505136,45,14,-1,1
-0.3851361186474061,46,14,-1,1
0.28115594086772466,47,14,-1,1
-0.1035329416342788,48,14,-1,1
-0.19899316381922724,49,14,-1,1
-0.748344938847146,50,14,-1,1
-1.210430867088871,51,14,-1,1
-1.1133836702521636,52,14,-1,1
-0.7604958787784833,53,14,-1,1
0.13643919917078962,54,14,-1,1
0.01453552452152199,55,14,-1,1
0.11415074576789774,56,14,-1,1
-0.2228818029574622,57,14,-1,1
0.12017561878029889,58,14,-1,1
0.201396648938582,59,14,-1,1
0.02881903751050647,60,14,-1,1
0.20763847003172725,61,14,-1,1
-0.19087960450748967,62,14,-1,1
-0.12268243786789816,63,14,-1,1
-0.2882635857586902,0,15,-1,1
-0.26710533277149157,1,15,-1,1
0.28355135181313623,2,15,-1,1
-0.4236317490979435,3,15,-1,1
-0.607507912590685,4,15,-1,1
-0.6930552632617258,5,15,-1,1
-0.2826224844971161,6,15,-1,1
-0.15587285557733202,7,15,-1,1
-0.2021288360775544,8,15,-1,1
-0.6947878069474379,9,15,-1,1
-0.9148748448260431,10,15,-1,1
2.1607130016037415,11,15,-1,1
2.1562780347665496,12,15,-1,1
0.8887676555791479,13,15,-1,1
-0.797668858978099,14,15,-1,1
-0.6696732519633007,15,15,-1,1
-0.2525873273371717,16,15,-1,1
-0.4091458009009478,17,15,-1,1
1.1598697661371007,18,15,-1,1
-1.4685058048246031,19,15,-1,1
-0.028657763926483778,20,15,-1,1
1.1438145650028197,21,15,-1,1
3.199506203958133,22,15,-1,1
2.721819818573023,23,15,-1,1
-0.5806406775175132,24,15,-1,1
-0.9359846000188277,25,15,-1,1
-0.924274105888294,26,15,-1,1
-0.8080971805838943,27,15,-1,1
-1.0621767958969952,28,15,-1,1
-3.0820864346947374,29,15,-1,1
0.9183934467286465,30,15,-1,1
2.422242826627391,31,15,-1,1
0.004536115829289987,32,15,-1,1
-1.958394483148228,33,15,-1,1
-1.8652456556450396,34,15,-1,1
1.0201948950513167,35,15,-1,1
-3.362928802874829,36,15,-1,1
-4.01821078678775,37,15,-1,1
-2.6217081898969554,38,15,-1,1
0.6918626204687182,39,15,-1,1
-0.0809379752429195,40,15,-1,1
3.7629867603969878,41,15,-1,1
3.830816167482005,42,15,-1,1
-1.0806219935934092,43,15,-1,1
-1.2861060123844332,44,15,-1,1
2.8617615494988273,45,15,-1,1
2.825636187012654,46,15,-1,1
0.7588794072083793,47,15,-1,1
-0.12591974252327776,48,15,-1,1
1.3225377740186195,49,15,-1,1
4.068969306373652,50,15,-1,1
4.114109344529389,51,15,-1,1
2.723654614012596,52,15,-1,1
2.4802817456483197,53,15,-1,1
1.017463705459925,54,15,-1,1
-0.2688390097075432,55,15,-1,1
0.11756451314152219,56,15,-1,1
-1.5657015911584282,57,15,-1,1
-2.9830736561928126,58,15,-1,1
-1.427264260245834,59,15,-1,1
0.07145870949907818,60,15,-1,1
-1.0903390228099397,61,15,-1,1
-0.7944212260566168,62,15,-1,1
-0.12554409656144117,63,15,-1,1
-0.09164108617669076,0,16,-1,1
0.1021410967067862,1,16,-1,1
-0.2630571782373149,2,16,-1,1
-1.1388242552143737,3,16,-1,1
-1.6655990385049173,4,16,-1,1
-1.5681890758763326,5,16,-1,1
-0.7516795440738996,6,16,-1,1
-0.10608688425354293,7,16,-1,1
0.1153460308850173,8,16,-1,1
-1.1272130486391432,9,16,-1,1
-0.634320749362107,10,16,-1,1
-0.9746127581148823,11,16,-1,1
-1.1573635375524833,12,16,-1,1
-0.028692082043596828,13,16,-1,1
1.1491484231376121,14,16,-1,1
0.8200577055012739,15,16,-1,1
-0.6276685667081832,16,16,-1,1
-1.1292189816964127,17,16,-1,1
0.39867349355165305,18,16,-1,1
0.4824025909559965,19,16,-1,1
-2.762008431109823,20,16,-1,1
0.47542443756712494,21,16,-1,1
1.7382952796351037,22,16,-1,1
2.6073100776506464,23,16,-1,1
-0.48720675795508794,24,16,-1,1
-0.29407140139945176,25,16,-1,1
-0.6294022333414346,26,16,-1,1
2.907911414255222,27,16,-1,1
-3.1738942850776213,28,16,-1,1
-2.5966576740957197,29,16,-1,1
-4.091262820206411,30,16,-1,1
-0.25651589871267944,31,16,-1,1
-0.5505048203651851,32,16,-1,1
0.03008233885805663,33,16,-1,1
-0.9931245820516702,34,16,-1,1
0.2273318806233637,35,16,-1,1
0.1916887622770097,36,16,-1,1
-0.7540979078923832,37,16,-1,1
-2.2784000756669793,38,16,-1,1
-0.6208638341308765,39,16,-1,1
-0.6636496435156997,40,16,-1,1
0.408542149080264,41,16,-1,1
-0.7570454258572474,42,16,-1,1
0.8014243037283768,43,16,-1,1
0.6665832568035771,44,16,-1,1
1.2457581519370553,45,16,-1,1
1.7396967449024865,46,16,-1,1
0.9187252811142452,47,16,-1,1
0.1467978081661494,48,16,-1,1
-1.136438641535349,49,16,-1,1
0.4065255582861629,50,16,-1,1
0.11542559733394252,51,16,-1,1
0.5813391561836211,52,16,-1,1
2.632043227354429,53,16,-1,1
1.7612227118711525,54,16,-1,1
0.016463841825359246,55,16,-1,1
0.068645154676497,56,16,-1,1
-0.9015849286681816,57,16,-1,1
-1.632886721279903,58,16,-1,1
-1.3665002105173019,59,16,-1,1
-1.9465529840806512,60,16,-1,1
-2.474320634231403,61,16,-1,1
-0.39145926350201343,62,16,-1,1
-0.2466108664301616,63,16,-1,1
-0.01445332171112681,0,17,-1,1
-0.16737129400836304,1,17,-1,1
0.48984833432401537,2,17,-1,1
1.0669402147283185,3,17,-1,1
0.11635063648957684,4,17,-1,1
-0.09077003177845883,5,17,-1,1
0.23849002884290565,6,17,-1,1
-0.08907963666570407,7,17,-1,1
-0.035192622991127145,8,17,-1,1
-0.15450579350940677,9,17,-1,1
-0.2574374059941901,10,17,-1,1
0.5232953398663635,11,17,-1,1
0.13052642848998644,12,17,-1,1
-1.2213541936592875,13,17,-1,1
-1.307035116999022,14,17,-1,1
-0.16272450874812205,15,17,-1,1
-0.025458984743715263,16,17,-1,1
-0.708690688736175,17,17,-1,1
-0.9330717657359426,18,17,-1,1
-0.38442312958567665,19,17,-1,1
-0.5722536538040512,20,17,-1,1
-2.255768307990559,21,17,-1,1
-0.5840745604419388,22,17,-1,1
0.19373412272157284,23,17,-1,1
-0.09669323764216488,24,17,-1,1
0.7700312205576476,25,17,-1,1
0.0877953019109284,26,17,-1,1
-2.1181051465106813,27,17,-1,1
-1.2141060092141474,28,17,-1,1
-0.5793802653558686,29,17,-1,1
0.44163529358197634,30,17,-1,1
-0.025486023674666045,31,17,-1,1
-0.014792807440458465,32,17,-1,1
-1.5333800907460289,33,17,-1,1
-1.7904470717867673,34,17,-1,1
-1.0603905418466353,35,17,-1,1
-2.2510719266737107,36,17,-1,1
-2.3974096017997106,37,17,-1,1
-1.0649766967582301,38,17,-1,1
0.23211937581446782,39,17,-1,1
-0.09285201099496884,40,17,-1,1
-0.0324368114597583,41,17,-1,1
0.11518170155241578,42,17,-1,1
-1.0748422011380436,43,17,-1,1
-1.7436200615886541,44,17,-1,1
-0.5880930833732574,45,17,-1,1
0.5844128479014303,46,17,-1,1
0.18893848340214334,47,17,-1,1
-0.14930900051192234,48,17,-1,1
0.013359696121598673,49,17,-1,1
-0.5189314213858941,50,17,-1,1
-1.4327765949146762,51,17,-1,1
-1.2724429234899017,52,17,-1,1
-0.8410703445485271,53,17,-1,1
-0.05356877156385311,54,17,-1,1
-0.18789538782936357,55,17,-1,1
-0.2421650964573428,56,17,-1,1
-0.30680103839970196,57,17,-1,1
0.1501900502518894,58,17,-1,1
0.5629139145778571,59,17,-1,1
0.8389457889869855,60,17,-1,1
1.2259866174652803,61,17,-1,1
0.05486658657165525,62,17,-1,1
-0.08075787699738178,63,17,-1,1
0.005829811555769928,0,18,-1,1
-0.06203943304526992,1,18,-1,1
0.15974603735444853,2,18,-1,1
0.41230402151587187,3,18,-1,1
-0.3196301687904608,4,18,-1,1
-0.2996097966651892,5,18,-1,1
-0.23340888662652862,6,18,-1,1
0.22503219895903429,7,18,-1,1
0.07523287750864348,8,18,-1,1
0.0924366471148759,9,18,-1,1
-1.087218839745541,10,18,-1,1
-0.8188388654453456,11,18,-1,1
-1.8922527755499483,12,18,-1,1
-3.612592927348074,13,18,-1,1
-1.4310866993944844,14,18,-1,1
-0.2137744571722697,15,18,-1,1
-0.04935553736487301,16,18,-1,1
-1.1520258163358996,17,18,-1,1
-0.4992022466247345,18,18,-1,1
0.20849330023825907,19,18,-1,1
0.4790542752415484,20,18,-1,1
-0.8034594503813546,21,18,-1,1
-0.012338127317902448,22,18,-1,1
0.4937303758162905,23,18,-1,1
0.12807509140354756,24,18,-1,1
-0.34576741115430976,25,18,-1,1
0.5721286229550464,26,18,-1,1
1.6955434401459926,27,18,-1,1
2.6875403640191426,28,18,-1,1
-2.2532261599844743,29,18,-1,1
-0.4699829641651505,30,18,-1,1
0.920996770093372,31,18,-1,1
0.40145885405768617,32,18,-1,1
-0.0894308173733423,33,18,-1,1
-0.6124811500055803,34,18,-1,1
0.8187246355989328,35,18,-1,1
-0.22464365824725477,36,18,-1,1
-2.35544384183868,37,18,-1,1
1.2433466183718833,38,18,-1,1
1.0064732634159619,39,18,-1,1
-0.15502958554816712,40,18,-1,1
1.1256985073444223,41,18,-1,1
0.020731691490485923,42,18,-1,1
0.020876769844892996,43,18,-1,1
-1.0389496284050521,44,18,-1,1
-0.793759200184847,45,18,-1,1
1.6636800516994843,46,18,-1,1
0.5380969640820613,47,18,-1,1
0.1932744821927052,48,18,-1,1
0.14330346275803624,49,18,-1,1
-2.2020288574837084,50,18,-1,1
-3.400225741835308,51,18,-1,1
-3.1269102498396544,52,18,-1,1
-1.8210418368288883,53,18,-1,1
0.04293118168977813,54,18,-1,1
0.04663889984942978,55,18,-1,1
0.013574789219105878,56,18,-1,1
0.2433810525674789,57,18,-1,1
-0.04121253393349813,58,18,-1,1
-0.3247395945509199,59,18,-1,1
0.8103707964762199,60,18,-1,1
0.49671791759456135,61,18,-1,1
0.46744298394047024,62,18,-1,1
0.17111405772369104,63,18,-1,1
0.04262658539588517,0,19,-1,1
0.328748151807682,1,19,-1,1
-0.06347591520812416,2,19,-1,1
-0.04590397676214832,3,19,-1,1
1.194335632335054,4,19,-1,1
0.42458221890828135,5,19,-1,1
-0.0032165581067985383,6,19,-1,1
9.646802014515846e-05,7,19,-1,1
0.16914253265666415,8,19,-1,1
-1.4368085558712056,9,19,-1,1
-1.6486139261416912,10,19,-1,1
-3.094579072893922,11,19,-1,1
-3.700333470684426,12,19,-1,1
1.095326095844593,13,19,-1,1
2.449868443104135,14,19,-1,1
0.6794812731159585,15,19,-1,1
0.1453839003011184,16,19,-1,1
-0.5688433409582498,17,19,-1,1
0.4484892521015292,18,19,-1,1
1.9675759015138674,19,19,-1,1
-0.7742833700444245,20,19,-1,1
0.8057363510041768,21,19,-1,1
0.006194335441571787,22,19,-1,1
1.51358162651435,23,19,-1,1
0.2847702267657186,24,19,-1,1
2.294076261638743,25,19,-1,1
2.0813945038476414,26,19,-1,1
1.94873674436759,27,19,-1,1
-1.91953181609628,28,19,-1,1
0.42024757449372224,29,19,-1,1
-3.7657762584535566,30,19,-1,1
-0.42467303612617907,31,19,-1,1
0.5220567623091642,32,19,-1,1
-1.5568351348480451,33,19,-1,1
-1.9746323593602557,34,19,-1,1
-5.603318071308138,35,19,-1,1
-2.893456299648954,36,19,-1,1
-0.41999124608489313,37,19,-1,1
-0.9742347509183712,38,19,-1,1
-0.5879576500188981,39,19,-1,1
0.3047253680207294,40,19,-1,1
-1.2545120447355977,41,19,-1,1
-3.166468134694903,42,19,-1,1
-0.6563309826392995,43,19,-1,1
-0.6590971749357224,44,19,-1,1
-0.23952236010655018,45,19,-1,1
-1.4837722343325745,46,19,-1,1
0.42125558962015053,47,19,-1,1
-0.09164645073058944,48,19,-1,1
-0.275056455183036,49,19,-1,1
0.24847342512389334,50,19,-1,1
0.21387668070359747,51,19,-1,1
0.03333886305526998,52,19,-1,1
0.34396238616711383,53,19,-1,1
-0.40156616010134855,54,19,-1,1
0.45956400992057483,55,19,-1,1
-0.1308956964119872,56,19,-1,1
0.26736543261529133,57,19,-1,1
0.37556926903092447,58,19,-1,1
0.6745511811137405,59,19,-1,1
0.5434779817061751,60,19,-1,1
0.0763840089441005,61,19,-1,1
0.16579032831628232,62,19,-1,1
-0.15696514902487327,63,19,-1,1
0.20378778970007838,0,20,-1,1
-0.1131482952062453,1,20,-1,1
-0.0881262143054635,2,20,-1,1
0.20771587059212857,3,20,-1,1
0.2713415431466578,4,20,-1,1
0.15644460998616683,5,20,-1,1
-0.24309195069903541,6,20,-1,1
0.12030726225633186,7,20,-1,1
-0.020594283945109305,8,20,-1,1
-0.013784365611362141,9,20,-1,1
0.16706297138062348,10,20,-1,1
-0.6408356318630181,11,20,-1,1
-1.6048481754010038,12,20,-1,1
-1.2791528729905481,13,20,-1,1
-0.16570514950535092,14,20,-1,1
0.0838623625708324,15,20,-1,1
0.2717743818894399,16,20,-1,1
0.04327558899421473,17,20,-1,1
-0.2690856789753234,18,20,-1,1
-0.4417316882920736,19,20,-1,1
-0.9510520553887861,20,20,-1,1
-0.5862715955908293,21,20,-1,1
0.11087008145690304,22,20,-1,1
-0.4672858245279742,23,20,-1,1
0.23314232470440566,24,20,-1,1
0.23933970673810157,25,20,-1,1
-0.20589111527362128,26,20,-1,1
-0.03212631022621723,27,20,-1,1
-0.24998346432164997,28,20,-1,1
-0.46466253896374216,29,20,-1,1
0.4004751796198114,30,20,-1,1
0.10436151319518525,31,20,-1,1
-0.16980339675383935,32,20,-1,1
0.270435863326207,33,20,-1,1
-0.6359863839691904,34,20,-1,1
-1.7255353269466,35,20,-1,1
-1.3918805601042656,36,20,-1,1
-0.05107249423264963,37,20,-1,1
0.21009677670657118,38,20,-1,1
0.43229901807042886,39,20,-1,1
0.12009076765793332,40,20,-1,1
-0.1515702300667644,41,20,-1,1
-1.1679076007389428,42,20,-1,1
-2.128920955226243,43,20,-1,1
-1.725380394955022,44,20,-1,1
-0.6644971838693117,45,20,-1,1
0.26539515561558663,46,20,-1,1
0.18004862030662522,47,20,-1,1
-0.10966374521859035,48,20,-1,1
0.2015443854987606,49,20,-1,1
-0.3944825519868626,50,20,-1,1
-1.8431551765103447,51,20,-1,1
-1.2635553748951822,52,20,-1,1
-0.17509304829557673,53,20,-1,1
-0.026839665140985146,54,20,-1,1
-0.19322273961162698,55,20,-1,1
-0.3694531941137313,56,20,-1,1
0.1051269961882632,57,20,-1,1
0.3060068031828151,58,20,-1,1
0.4404461027092089,59,20,-1,1
0.5323643848035065,60,20,-1,1
0.6160419561698328,61,20,-1,1
-0.06362119091279035,62,20,-1,1
0.007014450420139278,63,20,-1,1
-0.2371676092891295,0,21,-1,1
-0.1528227132467977,1,21,-1,1
-0.11587994962495478,2,21,-1,1
-0.29155592265104324,3,21,-1,1
-0.5298302152642606,4,21,-1,1
-0.7981074730806964,5,21,-1,1
-0.672731718613724,6,21,-1,1
-0.04996630697735613,7,21,-1,1
-0.14219747556562903,8,21,-1,1
-0.06778439760656638,9,21,-1,1
-0.5088082422429048,10,21,-1,1
2.003809496024644,11,21,-1,1
2.4595545478301584,12,21,-1,1
1.9403308866544104,13,21,-1,1
2.131407290256737,14,21,-1,1
0.05647954515568609,15,21,-1,1
-0.7590360066043708,16,21,-1,1
-0.24167894765030204,17,21,-1,1
-2.2564005273805994,18,21,-1,1
2.105570783240569,19,21,-1,1
-2.121297518115554,20,21,-1,1
-3.6266830131361,21,21,-1,1
-1.4301836995374124,22,21,-1,1
-1.0613087282467741,23,21,-1,1
-1.1853186887402762,24,21,-1,1
-0.15646397582510105,25,21,-1,1
0.2598555801232709,26,21,-1,1
4.352875761912107,27,21,-1,1
-2.3775344421683395,28,21,-1,1
0.406200911311091,29,21,-1,1
-0.25492785265474677,30,21,-1,1
-0.7937359369298006,31,21,-1,1
-0.4732457810628542,32,21,-1,1
0.13908330835054536,33,21,-1,1
1.0361994794808644,34,21,-1,1
2.9737558765784984,35,21,-1,1
0.6768144635791337,36,21,-1,1
0.3224458736172432,37,21,-1,1
1.2328587874860966,38,21,-1,1
0.09035359089155788,39,21,-1,1
0.14744836293784863,40,21,-1,1
-0.8431030265324708,41,21,-1,1
1.0868175129777549,42,21,-1,1
-1.3885226523761875,43,21,-1,1
0.4681524435023976,44,21,-1,1
1.3194453118570204,45,21,-1,1
1.2880884421918222,46,21,-1,1
-0.2283104690864632,47,21,-1,1
-0.14883326617643933,48,21,-1,1
-0.3071699592756014,49,21,-1,1
0.22430747522780622,50,21,-1,1
0.16468890406706474,51,21,-1,1
0.9862486252197864,52,21,-1,1
2.486035997900884,53,21,-1,1
0.6473793809721737,54,21,-1,1
-0.3209910699893033,55,21,-1,1
-0.022973894443793243,56,21,-1,1
-0.13398624401596737,57,21,-1,1
0.654532470638881,58,21,-1,1
-0.13937318955822336,59,21,-1,1
-1.1543130514348565,60,21,-1,1
0.24001346667342036,61,21,-1,1
0.049262989203751446,62,21,-1,1
-0.3137473572210037,63,21,-1,1
0.12386266063965569,0,22,-1,1
-0.19912871957692563,1,22,-1,1
-0.288377197147241,2,22,-1,1
0.06855043129535958,3,22,-1,1
-0.05281380327564951,4,22,-1,1
0.17361289822592152,5,22,-1,1
-0.18598766019226495,6,22,-1,1
0.04866919705606078,7,22,-1,1
-0.2848535562280858,8,22,-1,1
-0.20591202759101834,9,22,-1,1
0.621682716474332,10,22,-1,1
-0.5719278738231565,11,22,-1,1
-0.5721182875563509,12,22,-1,1
-0.7193057083435136,13,22,-1,1
-0.43860434299027407,14,22,-1,1
-0.16524709611146568,15,22,-1,1
-0.104079681192288,16,22,-1,1
-0.2765194643024623,17,22,-1,1
-0.3468958961634633,18,22,-1,1
-1.5897589709983166,19,22,-1,1
-1.6028561597603737,20,22,-1,1
-0.944556422302531,21,22,-1,1
-0.8427254768779019,22,22,-1,1
-0.1822431371895039,23,22,-1,1
-0.07210742849998486,24,22,-1,1
-0.5154168506252768,25,22,-1,1
-0.534435228995542,26,22,-1,1
-0.29017643951539657,27,22,-1,1
-2.2877704214824934,28,22,-1,1
0.45995095897102933,29,22,-1,1
-0.9873030151909116,30,22,-1,1
-0.2620246823651981,31,22,-1,1
-0.12592483258950962,32,22,-1,1
-0.8212452603980637,33,22,-1,1
-0.06084887714958056,34,22,-1,1
-0.8255189469458282,35,22,-1,1
-1.2474607623838911,36,22,-1,1
1.019184238641456,37,22,-1,1
-1.0857853585422717,38,22,-1,1
-0.3753340106346265,39,22,-1,1
0.25825365419948787,40,22,-1,1
-0.9881930640021249,41,22,-1,1
-0.99494158220856,42,22,-1,1
-2.2033991522955216,43,22,-1,1
-1.6410751301578408,44,22,-1,1
-0.35723070539677004,45,22,-1,1
-0.5976982841825927,46,22,-1,1
-0.3014734154593614,47,22,-1,1
0.028417848516352266,48,22,-1,1
-0.3830051589218249,49,22,-1,1
-1.430595904335706,50,22,-1,1
-0.823063864294724,51,22,-1,1
-1.476726425228803,52,22,-1,1
-0.8222178001026987,53,22,-1,1
0.1494830668208898,54,22,-1,1
-0.21917596112490978,55,22,-1,1
-0.08232885827710881,56,22,-1,1
-0.1840019553805768,57,22,-1,1
0.7301265626618603,58,22,-1,1
0.3419833879488151,59,22,-1,1
0.35357966783399636,60,22,-1,1
-0.12347914872535412,61,22,-1,1
0.09357313052535474,62,22,-1,1
-0.17860050074750805,63,22,-1,1
-0.09131600327570623,0,23,-1,1
-0.0567250398532365,1,23,-1,1
-0.1714459433878559,2,23,-1,1
0.09502574112922604,3,23,-1,1
-0.13493307696506368,4,23,-1,1
-0.00224601891781412,5,23,-1,1
-0.057657831142287966,6,23,-1,1
0.02759741888565832,7,23,-1,1
0.004464472112788935,8,23,-1,1
-0.1996069867461993,9,23,-1,1
0.1086610635064479,10,23,-1,1
-0.9393906411111017,11,23,-1,1
-1.033047176433123,12,23,-1,1
-0.8600450994933,13,23,-1,1
-0.18881297614957399,14,23,-1,1
-0.01828323621567362,15,23,-1,1
-0.04100801053586493,16,23,-1,1
-0.38848279620252235,17,23,-1,1
-0.5911218307093767,18,23,-1,1
-1.3550809022348322,19,23,-1,1
-1.2440299033344557,20,23,-1,1
-0.47196487975216483,21,23,-1,1
-0.16156754032265297,22,23,-1,1
-0.10543920277102369,23,23,-1,1
0.15925229355558604,24,23,-1,1
-0.11056427215932425,25,23,-1,1
-0.6085426884044774,26,23,-1,1
-1.1480192510295595,27,23,-1,1
-0.9119588615502588,28,23,-1,1
-0.5238770469312897,29,23,-1,1
-0.2806691154719989,30,23,-1,1
-0.24269615403511152,31,23,-1,1
0.09969308050470627,32,23,-1,1
-0.41825757741259234,33,23,-1,1
-1.0383887865459205,34,23,-1,1
-1.377653121685813,35,23,-1,1
-1.563043415137123,36,23,-1,1
-1.1376246776037502,37,23,-1,1
-0.5887771794716364,38,23,-1,1
-0.12365758460428641,39,23,-1,1
-0.25331298879144487,40,23,-1,1
-0.21285047900664558,41,23,-1,1
-0.7579649643324733,42,23,-1,1
-1.253527531579029,43,23,-1,1
-1.4355925628860438,44,23,-1,1
-0.7487738681636659,45,23,-1,1
-0.16961615943229844,46,23,-1,1
0.032366290876181876,47,23,-1,1
-0.25425461447101233,48,23,-1,1
0.02909979095541548,49,23,-1,1
-0.45271226191933583,50,23,-1,1
-1.4741148923011262,51,23,-1,1
-1.382293443657787,52,23,-1,1
-0.12987244962218567,53,23,-1,1
0.3141687186565338,54,23,-1,1
0.07182263759886547,55,23,-1,1
-0.005203705595104139,56,23,-1,1
0.1766194564142926,57,23,-1,1
0.03586605989428224,58,23,-1,1
0.004330766398199485,59,23,-1,1
-0.0004927241283833202,60,23,-1,1
0.2731149287517534,61,23,-1,1
0.2721724850094877,62,23,-1,1
0.06625979423623356,63,23,-1,1
0.014517444709656876,0,24,-1,1
-0.32740304535127435,1,24,-1,1
-0.7276575118908485,2,24,-1,1
-1.4402592968321248,3,24,-1,1
-0.7702683648108545,4,24,-1,1
-0.39172837312760406,5,24,-1,1
-0.14845682771138158,6,24,-1,1
-0.5395263163555291,7,24,-1,1
-0.17523510186042446,8,24,-1,1
0.7220665882610646,9,24,-1,1
2.8705111795834273,10,24,-1,1
1.425911597855651,11,24,-1,1
-0.20503128817095354,12,24,-1,1
1.1770813565465763,13,24,-1,1
2.2822305665168,14,24,-1,1
1.2026484812382212,15,24,-1,1
-0.5156839156308587,16,24,-1,1
0.48303506799354884,17,24,-1,1
-0.8962905910663951,18,24,-1,1
-0.09777943028848768,19,24,-1,1
0.6540517621364205,20,24,-1,1
-1.4679432195941868,21,24,-1,1
0.3858622081821328,22,24,-1,1
0.9698990837949997,23,24,-1,1
-0.3178787387379799,24,24,-1,1
0.2705576520812721,25,24,-1,1
-0.7394511622931741,26,24,-1,1
0.026631675490123935,27,24,-1,1
-1.6063926435161078,28,24,-1,1
-1.9689699179571374,29,24,-1,1
-6.408347081012863,30,24,-1,1
-1.9166828838432863,31,24,-1,1
0.8954170505296126,32,24,-1,1
-4.510437371148437,33,24,-1,1
-3.725500845737561,34,24,-1,1
0.6737182645728546,35,24,-1,1
-1.732185260058287,36,24,-1,1
1.460181004090329,37,24,-1,1
1.645929596462047,38,24,-1,1
-0.46870521616902483,39,24,-1,1
1.4165665335312603,40,24,-1,1
-2.2692661261180933,41,24,-1,1
-6.44072305804571,42,24,-1,1
-7.003609458735745,43,24,-1,1
-0.31574231625709365,44,24,-1,1
1.1452993361673676,45,24,-1,1
2.133604820090123,46,24,-1,1
0.45543825177093467,47,24,-1,1
0.45558597251376043,48,24,-1,1
1.6022628664270486,49,24,-1,1
4.078706355081832,50,24,-1,1
4.814376699136374,51,24,-1,1
1.895144897852448,52,24,-1,1
0.967369319805041,53,24,-1,1
-0.020231168056457735,54,24,-1,1
-0.49068205686595234,55,24,-1,1
-0.08782387887649556,56,24,-1,1
0.3737709805322575,57,24,-1,1
-0.7773667518708305,58,24,-1,1
-2.5262088979055726,59,24,-1,1
0.11949502768624637,60,24,-1,1
-1.43661385532589,61,24,-1,1
-0.5415110110484348,62,24,-1,1
-0.09550685555852213,63,24,-1,1
0.11677939179798374,0,25,-1,1
-0.0400886215875798,1,25,-1,1
0.041957997121513435,2,25,-1,1
0.9098699491483624,3,25,-1,1
1.3558969380381554,4,25,-1,1
1.471469164418355,5,25,-1,1
1.0752433958818168,6,25,-1,1
-0.15158159960890702,7,25,-1,1
0.01672802861566112,8,25,-1,1
0.09156313536314856,9,25,-1,1
-0.2821899262978967,10,25,-1,1
-3.095544781197925,11,25,-1,1
-2.1698952840593746,12,25,-1,1
-0.36390123176199884,13,25,-1,1
0.2558840193300643,14,25,-1,1
0.7489384967025923,15,25,-1,1
-0.1492924830816775,16,25,-1,1
1.214266130407056,17,25,-1,1
0.9526874436613312,18,25,-1,1
0.9348917514429578,19,25,-1,1
-3.1194832468099185,20,25,-1,1
-2.8100257232758254,21,25,-1,1
-0.04404228063150702,22,25,-1,1
0.5052025233640435,23,25,-1,1
-0.28243592774522086,24,25,-1,1
1.8991372631791288,25,25,-1,1
4.029339121901765,26,25,-1,1
2.7586899526174027,27,25,-1,1
1.8963215426332725,28,25,-1,1
0.8228883364933495,29,25,-1,1
0.4674822907305875,30,25,-1,1
-0.8470190694662612,31,25,-1,1
-0.15979598123600333,32,25,-1,1
-0.6725281467756906,33,25,-1,1
1.0192752979947144,34,25,-1,1
2.8813761756912575,35,25,-1,1
2.803758054065892,36,25,-1,1
-0.672595026116324,37,25,-1,1
1.9056988644537332,38,25,-1,1
-1.379413094434884,39,25,-1,1
-0.11064691105522047,40,25,-1,1
-2.557378146136471,41,25,-1,1
-1.5283066114627026,42,25,-1,1
0.6643591547552853,43,25,-1,1
-0.11731515461030126,44,25,-1,1
-2.168870792578602,45,25,-1,1
0.43165906197954157,46,25,-1,1
-1.0970195577752393,47,25,-1,1
0.10535873462292002,48,25,-1,1
-0.335751596103269,49,25,-1,1
-1.0220994072653073,50,25,-1,1
-0.8496860476149424,51,25,-1,1
0.39381070592707773,52,25,-1,1
-0.40524701730717005,53,25,-1,1
-1.4030964921800662,54,25,-1,1
-0.20116219189222156,55,25,-1,1
0.178432392892375,56,25,-1,1
0.10006271318880396,57,25,-1,1
2.039672741469857,58,25,-1,1
2.3517214581160077,59,25,-1,1
0.5608018438686816,60,25,-1,1
1.1388166693411201,61,25,-1,1
-0.03280735227595353,62,25,-1,1
0.11268222840941225,63,25,-1,1
-0.34291594044099943,0,26,-1,1
-0.41371125738680387,1,26,-1,1
-0.013668447442141518,2,26,-1,1
0.2901787398080789,3,26,-1,1
-0.09913979938240218,4,26,-1,1
0.258969693308681,5,26,-1,1
-0.601787813088817,6,26,-1,1
0.002227181985628032,7,26,-1,1
-0.38265338190131276,8,26,-1,1
-0.1552286243811293,9,26,-1,1
0.5150817435165204,10,26,-1,1
0.6397410814028558,11,26,-1,1
-0.3683509895857445,12,26,-1,1
0.5949490876365539,13,26,-1,1
0.46531055813446576,14,26,-1,1
-0.06389431649461018,15,26,-1,1
-0.42282117934584135,16,26,-1,1
0.6764279621450696,17,26,-1,1
1.6009153603082042,18,26,-1,1
2.7073201752124616,19,26,-1,1
-0.397031095137769,20,26,-1,1
-1.5141606502762757,21,26,-1,1
-0.3950225252019884,22,26,-1,1
-0.9065482886696705,23,26,-1,1
-0.3771948084770295,24,26,-1,1
1.3267885090740887,25,26,-1,1
1.3897018003074393,26,26,-1,1
-0.16749736473351678,27,26,-1,1
0.22955778530179224,28,26,-1,1
1.450251274161358,29,26,-1,1
1.1660760476604082,30,26,-1,1
-0.902255208242543,31,26,-1,1
-0.4915948769839754,32,26,-1,1
1.6305061935477,33,26,-1,1
0.8905270804487665,34,26,-1,1
0.10830397475487911,35,26,-1,1
-0.2801631292577715,36,26,-1,1
-0.7269271550969353,37,26,-1,1
3.6756411833201983,38,26,-1,1
0.45860675199236717,39,26,-1,1
0.1195861322313216,40,26,-1,1
-1.4315786097558294,41,26,-1,1
-0.7954798959487004,42,26,-1,1
-2.2952978428548034,43,26,-1,1
-0.9596899026275261,44,26,-1,1
0.695487055387414,45,26,-1,1
2.468495741760899,46,26,-1,1
-0.22505526369818332,47,26,-1,1
-0.14653521296339914,48,26,-1,1
0.7790257864311986,49,26,-1,1
0.048122488998346744,50,26,-1,1
-0.042457799153726966,51,26,-1,1
2.6103738769144798,52,26,-1,1
2.463741570139044,53,26,-1,1
-0.006730399472433124,54,26,-1,1
-0.37504133954539426,55,26,-1,1
0.14348261436970045,56,26,-1,1
-0.9169906888709842,57,26,-1,1
-0.0667988697650551,58,26,-1,1
0.11682800491976592,59,26,-1,1
-0.618092498973097,60,26,-1,1
-0.547651572355039,61,26,-1,1
-0.29179216146685494,62,26,-1,1
-0.22346318685557487,63,26,-1,1
0.04964359937800001,0,27,-1,1
0.2311291124402748,1,27,-1,1
-0.08753760991522617,2,27,-1,1
0.6076405329170101,3,27,-1,1
0.5814058911729841,4,27,-1,1
1.3214222569532057,5,27,-1,1
0.7330387759973725,6,27,-1,1
-0.05166192466489861,7,27,-1,1
-0.254765589623596,8,27,-1,1
0.03882842753469836,9,27,-1,1
0.9894536372993733,10,27,-1,1
-0.018138055445863152,11,27,-1,1
-1.079716161052126,12,27,-1,1
0.3876202948088052,13,27,-1,1
1.5545082593907344,14,27,-1,1
0.40804270995288533,15,27,-1,1
-0.11251259105126227,16,27,-1,1
-0.9213559340400715,17,27,-1,1
-0.24875884977165472,18,27,-1,1
-0.9624944592161385,19,27,-1,1
-2.1412727105247193,20,27,-1,1
-2.4045753318775756,21,27,-1,1
-1.1692069937087994,22,27,-1,1
-0.6257544828558992,23,27,-1,1
-0.18687377427882207,24,27,-1,1
1.4209448548126893,25,27,-1,1
0.07232922630334002,26,27,-1,1
-0.5536371693545475,27,27,-1,1
-2.8090487143433736,28,27,-1,1
-2.0412709848593162,29,27,-1,1
1.7696510406403418,30,27,-1,1
-0.6106958556578759,31,27,-1,1
-0.4867806531312599,32,27,-1,1
0.7027537779490508,33,27,-1,1
0.015195381733290011,34,27,-1,1
1.1509557868365654,35,27,-1,1
-0.1039901546141614,36,27,-1,1
-0.7864991837730219,37,27,-1,1
0.3991995502253204,38,27,-1,1
-1.3348131801188847,39,27,-1,1
-0.35380076792942006,40,27,-1,1
-4.1820399219772675,41,27,-1,1
1.1967256384667222,42,27,-1,1
4.223715337400626,43,27,-1,1
-0.06035810754333277,44,27,-1,1
0.8066794813396031,45,27,-1,1
-1.3623338449252747,46,27,-1,1
-1.2596346750141667,47,27,-1,1
-0.07098350707630076,48,27,-1,1
-0.42046904113979433,49,27,-1,1
0.26201554068019656,50,27,-1,1
-0.32171072151125646,51,27,-1,1
0.2283748420068345,52,27,-1,1
-0.4726417392652985,53,27,-1,1
-0.1885063111607494,54,27,-1,1
0.057093598544721694,55,27,-1,1
-0.2099004116426983,56,27,-1,1
0.6508189287786097,57,27,-1,1
2.090524866057477,58,27,-1,1
0.9605461520245886,59,27,-1,1
-0.9330603771334945,60,27,-1,1
0.6793990845638577,61,27,-1,1
0.38629050140872206,62,27,-1,1
-0.05909532796713713,63,27,-1,1
-0.04049973279679786,0,28,-1,1
0.17741959570848453,1,28,-1,1
-0.19208496931792787,2,28,-1,1
-0.48943673025112017,3,28,-1,1
1.4186568498322392,4,28,-1,1
1.8639085828967528,5,28,-1,1
0.07275915471756626,6,28,-1,1
-0.1417979529828186,7,28,-1,1
-0.05418218277641493,8,28,-1,1
-0.33527703107988605,9,28,-1,1
-0.2163510629892178,10,28,-1,1
-1.2633698174206796,11,28,-1,1
-2.1008490143286283,12,28,-1,1
-1.822469096137317,13,28,-1,1
1.69906226909588,14,28,-1,1
0.5626245292406784,15,28,-1,1
0.43141746727974145,16,28,-1,1
-0.9513077102893989,17,28,-1,1
-2.5458446545892075,18,28,-1,1
-7.067193848140894,19,28,-1,1
-6.842883248871582,20,28,-1,1
-2.606790757051799,21,28,-1,1
-1.4207657503863214,22,28,-1,1
0.9309595698369308,23,28,-1,1
-0.22235301915003225,24,28,-1,1
-0.7786846628724493,25,28,-1,1
1.5530838763225123,26,28,-1,1
3.365929768606338,27,28,-1,1
1.5560535445596217,28,28,-1,1
-1.8323280359248135,29,28,-1,1
-1.4769203023111988,30,28,-1,1
0.46327693217493615,31,28,-1,1
-0.38982891807270065,32,28,-1,1
2.986257481185924,33,28,-1,1
1.8844875988006031,34,28,-1,1
2.577442816873056,35,28,-1,1
3.8320816008047784,36,28,-1,1
1.6517933498074282,37,28,-1,1
4.6828703129981495,38,28,-1,1
-0.3003272858250804,39,28,-1,1
-0.0032021123782112956,40,28,-1,1
0.7244603424294052,41,28,-1,1
-0.5545240233607059,42,28,-1,1
2.663502442772205,43,28,-1,1
4.737030452668386,44,28,-1,1
-0.09108192498263454,45,28,-1,1
-2.356265021176025,46,28,-1,1
-0.0021295008436171166,47,28,-1,1
0.43245445242873665,48,28,-1,1
-1.983780168236998,49,28,-1,1
-3.07738889836481,50,28,-1,1
-3.2541716045738736,51,28,-1,1
-2.588126145423827,52,28,-1,1
-1.042030374378881,53,28,-1,1
-1.7485141005594762,54,28,-1,1
0.3235414007514274,55,28,-1,1
-0.04350589010244249,56,28,-1,1
-0.35317859961481063,57,28,-1,1
-3.3480641643519813,58,28,-1,1
-5.322427692447193,59,28,-1,1
-4.2266588407956,60,28,-1,1
-3.2583366615256604,61,28,-1,1
-0.04697746289280882,62,28,-1,1
-0.0028558589496357205,63,28,-1,1
0.023779799190281954,0,29,-1,1
0.18021385348454558,1,29,-1,1
0.2565777466385678,2,29,-1,1
0.3382176119559563,3,29,-1,1
0.644302451376464,4,29,-1,1
-0.7852637217266922,5,29,-1,1
0.05128534418444227,6,29,-1,1
0.1984771062292433,7,29,-1,1
0.305974398607344,8,29,-1,1
0.21301311089045102,9,29,-1,1
-1.7037909909234419,10,29,-1,1
2.2694423239604995,11,29,-1,1
0.7033535922462021,12,29,-1,1
-0.5578850731899654,13,29,-1,1
2.0436104930205428,14,29,-1,1
-0.36242332056325166,15,29,-1,1
0.07510636693195778,16,29,-1,1
-0.5046653810837711,17,29,-1,1
-2.224977255886479,18,29,-1,1
-1.7186401228622188,19,29,-1,1
-0.4885537367595904,20,29,-1,1
-2.561912524834062,21,29,-1,1
-1.1436984098724938,22,29,-1,1
-0.6621141045747216,23,29,-1,1
0.06274649083948591,24,29,-1,1
0.19243665929902454,25,29,-1,1
-2.415987805061271,26,29,-1,1
-3.6705199186445796,27,29,-1,1
5.547530903400931,28,29,-1,1
-5.159002634958022,29,29,-1,1
0.07679617995160411,30,29,-1,1
-0.23373745534910662,31,29,-1,1
0.02129098796348219,32,29,-1,1
0.2897376652632514,33,29,-1,1
-4.702011340532726,34,29,-1,1
-0.0254028767224092,35,29,-1,1
0.6208117768094272,36,29,-1,1
-6.785465954843594,37,29,-1,1
1.4792335630376643,38,29,-1,1
-0.2980183104946942,39,29,-1,1
0.2730543756902479,40,29,-1,1
-0.29128772057226066,41,29,-1,1
-1.7657670986140777,42,29,-1,1
3.0026688545138374,43,29,-1,1
-1.3934107129355198,44,29,-1,1
-3.2294252449823007,45,29,-1,1
0.18183649874709576,46,29,-1,1
-0.24319085503260338,47,29,-1,1
-0.18920910435054716,48,29,-1,1
2.433008455791316,49,29,-1,1
0.41654533673581323,50,29,-1,1
-3.798811477455318,51,29,-1,1
2.676036541137895,52,29,-1,1
3.6247979823562853,53,29,-1,1
-0.882602354785606,54,29,-1,1
-0.08375477205095641,55,29,-1,1
0.08213387264626372,56,29,-1,1
0.024118383346287332,57,29,-1,1
-0.7620468594784434,58,29,-1,1
-3.333346316543947,59,29,-1,1
-3.3291450637351665,60,29,-1,1
-0.1192623269906285,61,29,-1,1
0.17914380856314518,62,29,-1,1
0.11031157054304357,63,29,-1,1
0.07946833536395768,0,30,-1,1
0.15678775993462968,1,30,-1,1
-0.23443505803867068,2,30,-1,1
-0.29607104098889375,3,30,-1,1
-0.3092087874886129,4,30,-1,1
0.08972670144581377,5,30,-1,1
0.29450923197463375,6,30,-1,1
-0.309534935977641,7,30,-1,1
0.19393308070028767,8,30,-1,1
-0.8660005421204843,9,30,-1,1
0.26231256798024327,10,30,-1,1
0.5143679113287513,11,30,-1,1
0.23863450837195113,12,30,-1,1
-0.6125360591859674,13,30,-1,1
-1.0457404330164415,14,30,-1,1
0.47275538299790937,15,30,-1,1
-0.18089576765830584,16,30,-1,1
-0.3365044616028226,17,30,-1,1
3.281206334138844,18,30,-1,1
-3.2753800859665216,19,30,-1,1
-2.8959468463849314,20,30,-1,1
-1.309202128314333,21,30,-1,1
-0.07854616043301592,22,30,-1,1
1.3520876577778538,23,30,-1,1
-0.3323611794446,24,30,-1,1
1.5296339985295855,25,30,-1,1
2.781040821540563,26,30,-1,1
-0.6133079876545195,27,30,-1,1
-0.7997281944785091,28,30,-1,1
1.7934650526573879,29,30,-1,1
1.4148792549745794,30,30,-1,1
0.7244930012547092,31,30,-1,1
0.29207392538579374,32,30,-1,1
0.5174312848039014,33,30,-1,1
0.2859276764479692,34,30,-1,1
0.1338972544347188,35,30,-1,1
-2.9169331375190954,36,30,-1,1
-1.991769943494813,37,30,-1,1
0.6222053048991856,38,30,-1,1
-0.2244523536077294,39,30,-1,1
-0.18594582320482786,40,30,-1,1
0.2058278291384792,41,30,-1,1
0.8807855870244359,42,30,-1,1
0.9803305804510115,43,30,-1,1
-2.002788801571601,44,30,-1,1
0.3655962590228139,45,30,-1,1
1.9541308314638146,46,30,-1,1
-0.19299264484888026,47,30,-1,1
-0.28166778262135583,48,30,-1,1
-0.49749637614444436,49,30,-1,1
-1.188884754197569,50,30,-1,1
-0.7930820702394457,51,30,-1,1
-0.8032363703576179,52,30,-1,1
1.100107703086841,53,30,-1,1
1.1655277713968548,54,30,-1,1
0.2306033477830351,55,30,-1,1
-0.0750893110255036,56,30,-1,1
0.05808566357218899,57,30,-1,1
-0.5702180424903376,58,30,-1,1
-0.832222726177708,59,30,-1,1
0.20337002684582997,60,30,-1,1
-0.2527761976793195,61,30,-1,1
-0.011967497167761946,62,30,-1,1
0.12561691756488153,63,30,-1,1
-0.0031547523766884376,0,31,-1,1
0.05857486497173518,1,31,-1,1
0.20622233971077958,2,31,-1,1
-0.7260068669371361,3,31,-1,1
-2.313081920910302,4,31,-1,1
-1.4930526142751228,5,31,-1,1
-0.13016693866373424,6,31,-1,1
-0.14093369506165127,7,31,-1,1
0.09163180999549901,8,31,-1,1
-1.5543370597632848,9,31,-1,1
-0.5888672978923639,10,31,-1,1
1.1111085960977487,11,31,-1,1
1.4369528604626605,12,31,-1,1
2.1437061799625643,13,31,-1,1
0.3645380013040468,14,31,-1,1
0.0810074884457579,15,31,-1,1
-0.6062020308316718,16,31,-1,1
-3.179451163618445,17,31,-1,1
2.4826490314039535,18,31,-1,1
-0.02872385401493931,19,31,-1,1
-3.6823083982155804,20,31,-1,1
-3.826647189134876,21,31,-1,1
-3.2367580660110473,22,31,-1,1
1.2115473118041025,23,31,-1,1
-0.6902164779382908,24,31,-1,1
0.7411689306755102,25,31,-1,1
0.6559234261042196,26,31,-1,1
-0.6785811930213532,27,31,-1,1
-1.8323858032965827,28,31,-1,1
-1.0513562983300777,29,31,-1,1
-0.421798803281022,30,31,-1,1
0.6935499247721953,31,31,-1,1
-0.3350122644971753,32,31,-1,1
-1.8275162523644914,33,31,-1,1
-0.9075088262190235,34,31,-1,1
1.5603494931525168,35,31,-1,1
-2.8568204343663663,36,31,-1,1
1.176569436300176,37,31,-1,1
-0.43349405369019367,38,31,-1,1
0.9490334091057802,39,31,-1,1
-0.6176589501777062,40,31,-1,1
-0.21983296053698131,41,31,-1,1
1.6130221844856512,42,31,-1,1
-2.5358064853021256,43,31,-1,1
-1.1965911330439714,44,31,-1,1
-0.2674843607046106,45,31,-1,1
0.46834066983335343,46,31,-1,1
1.2057597386734085,47,31,-1,1
-0.09498560148771368,48,31,-1,1
-0.04700217419546884,49,31,-1,1
1.8635456182770918,50,31,-1,1
1.1257018828609004,51,31,-1,1
-1.1147394126315555,52,31,-1,1
-1.708252045015512,53,31,-1,1
1.437963313860571,54,31,-1,1
-0.10379420709704122,55,31,-1,1
0.0067553728744525025,56,31,-1,1
-1.0332372653953605,57,31,-1,1
-1.109596288788947,58,31,-1,1
-0.10834783586240362,59,31,-1,1
0.12078543859101668,60,31,-1,1
-0.43899055674438064,61,31,-1,1
-0.1733737256448209,62,31,-1,1
0.0018531250619385903,63,31,-1,1
-0.1024236137983687,0,32,-1,1
-0.4638889156922759,1,32,-1,1
0.23673431186111676,2,32,-1,1
1.405153471591397,3,32,-1,1
2.092045054650423,4,32,-1,1
1.724848128476151,5,32,-1,1
0.48357477556047335,6,32,-1,1
-0.2396448182577731,7,32,-1,1
-0.4203572280849039,8,32,-1,1
0.6611898334131115,9,32,-1,1
0.6086630708652183,10,32,-1,1
-0.09977060324553234,11,32,-1,1
-1.2669242682659223,12,32,-1,1
-0.2411121291808583,13,32,-1,1
-1.1533704535471516,14,32,-1,1
-1.2008677029393642,15,32,-1,1
-0.11310278993509504,16,32,-1,1
1.307199262331679,17,32,-1,1
-2.203166822613495,18,32,-1,1
-2.5634181894297257,19,32,-1,1
0.58885399788222,20,32,-1,1
-1.1580375568253125,21,32,-1,1
-2.045843851176642,22,32,-1,1
-2.562424256002319,23,32,-1,1
-0.28164592099655256,24,32,-1,1
-2.380193036653138,25,32,-1,1
-2.9804358834446467,26,32,-1,1
-0.5760508634226721,27,32,-1,1
-2.5862247014589044,28,32,-1,1
-0.496719043611174,29,32,-1,1
0.6846346404325891,30,32,-1,1
0.5750917591741376,31,32,-1,1
-0.1360221229558056,32,32,-1,1
1.0512998965407652,33,32,-1,1
0.12966219175294258,34,32,-1,1
-0.8430637503917834,35,32,-1,1
-3.166676471957331,36,32,-1,1
0.48453861680456745,37,32,-1,1
1.4091959820476214,38,32,-1,1
1.7702802669678848,39,32,-1,1
0.9377348509483822,40,32,-1,1
1.1507627385129984,41,32,-1,1
1.9329272775841424,42,32,-1,1
4.034205308405611,43,32,-1,1
1.4263849545330396,44,32,-1,1
2.6335686852166065,45,32,-1,1
2.284675542872903,46,32,-1,1
0.18639538700209557,47,32,-1,1
0.17739204301152514,48,32,-1,1
0.4001490622192819,49,32,-1,1
0.2126416455319169,50,32,-1,1
1.4479970999137908,51,32,-1,1
0.743164958850281,52,32,-1,1
-1.4890762399478448,53,32,-1,1
-0.3665402363492844,54,32,-1,1
-0.1896128881583411,55,32,-1,1
0.2257381745443273,56,32,-1,1
-0.4975513070543976,57,32,-1,1
-1.511214340619708,58,32,-1,1
-3.203375788418364,59,32,-1,1
-1.8172724308403077,60,32,-1,1
-0.7143548313062721,61,32,-1,1
-0.3493304366188548,62,32,-1,1
-0.13242890633937066,63,32,-1,1
-0.19064015393723144,0,33,-1,1
0.1036654732882511,1,33,-1,1
0.3798805633470317,2,33,-1,1
-0.015863645449756544,3,33,-1,1
-0.5781715200064043,4,33,-1,1
-0.9079564015244669,5,33,-1,1
-0.37666936691290365,6,33,-1,1
-0.1358610306718283,7,33,-1,1
0.021418701540907855,8,33,-1,1
-0.7684475781604346,9,33,-1,1
0.11654082986245269,10,33,-1,1
0.3392106094667743,11,33,-1,1
0.6120122051558996,12,33,-1,1
1.9482925049834716,13,33,-1,1
0.5027748968484876,14,33,-1,1
0.3848800271145496,15,33,-1,1
-0.14354015368974835,16,33,-1,1
-0.37748798879227546,17,33,-1,1
2.034203224036827,18,33,-1,1
0.0018706293756676775,19,33,-1,1
-1.2353434461570247,20,33,-1,1
-2.1050000881856463,21,33,-1,1
-2.254066426079064,22,33,-1,1
0.44607585780866854,23,33,-1,1
0.01909049144596261,24,33,-1,1
-2.133709472413031,25,33,-1,1
-3.1843714000656678,26,33,-1,1
-2.7634526270682174,27,33,-1,1
-1.1566244490659667,28,33,-1,1
0.14548563653151753,29,33,-1,1
-2.785304503612625,30,33,-1,1
-0.8656340669258065,31,33,-1,1
0.17310285346134943,32,33,-1,1
-2.1701599800088665,33,33,-1,1
-3.8863677339933584,34,33,-1,1
-1.9504320051002397,35,33,-1,1
-1.0951250253403524,36,33,-1,1
0.8706179502822148,37,33,-1,1
-0.5255809277623881,38,33,-1,1
0.3348535279310876,39,33,-1,1
0.02528730223155921,40,33,-1,1
3.248614220701713,41,33,-1,1
4.215567634935475,42,33,-1,1
1.0912926190821337,43,33,-1,1
1.1222809160606202,44,33,-1,1
0.8662980728743278,45,33,-1,1
0.41665440748060906,46,33,-1,1
0.6898804130364371,47,33,-1,1
0.09124789787174595,48,33,-1,1
-0.08341842329276768,49,33,-1,1
-0.48913541916366826,50,33,-1,1
-1.413370894131705,51,33,-1,1
-1.853961336573474,52,33,-1,1
0.4196963201075625,53,33,-1,1
1.0127713663673898,54,33,-1,1
0.06737989976156329,55,33,-1,1
-0.016887585317819535,56,33,-1,1
-0.28970265824051467,57,33,-1,1
-1.2196437933248923,58,33,-1,1
-1.8441096152975207,59,33,-1,1
-0.7481253261913603,60,33,-1,1
-0.1316388262436799,61,33,-1,1
-0.12863880591340235,62,33,-1,1
-0.23022249288574478,63,33,-1,1
-0.27193048654558843,0,34,-1,1
0.1596567224763132,1,34,-1,1
0.12745872608263922,2,34,-1,1
1.4286461671504163,3,34,-1,1
1.987218437123742,4,34,-1,1
1.676288657756167,5,34,-1,1
0.3216114051811393,6,34,-1,1
0.176761124367662,7,34,-1,1
0.14370634948794153,8,34,-1,1
-0.3299152066602394,9,34,-1,1
1.168047926822608,10,34,-1,1
-1.1432497592552862,11,34,-1,1
-1.6718260224460975,12,34,-1,1
-0.511490886850084,13,34,-1,1
-0.6194758136406112,14,34,-1,1
-0.09798872469273275,15,34,-1,1
0.4648745994303744,16,34,-1,1
0.9737216956093449,17,34,-1,1
0.05795204671011009,18,34,-1,1
0.5741858967597397,19,34,-1,1
2.171985576201188,20,34,-1,1
0.5377862766534437,21,34,-1,1
-1.8535296107633887,22,34,-1,1
-0.9358715307546945,23,34,-1,1
0.5458137392034924,24,34,-1,1
1.9546467611027427,25,34,-1,1
1.8453453863001574,26,34,-1,1
-2.985463072332071,27,34,-1,1
-4.5612426480702615,28,34,-1,1
0.6918744452740346,29,34,-1,1
1.0093156501977614,30,34,-1,1
0.49473176056238094,31,34,-1,1
0.08073060814090648,32,34,-1,1
0.3316056475776458,33,34,-1,1
6.845858309991498,34,34,-1,1
1.0545683609821292,35,34,-1,1
1.0055164481654155,36,34,-1,1
2.3303598666333643,37,34,-1,1
-0.8575693582477647,38,34,-1,1
1.341550678065577,39,34,-1,1
0.16227630937616974,40,34,-1,1
-2.9301143389259376,41,34,-1,1
-1.5556288361867523,42,34,-1,1
2.6040931633811377,43,34,-1,1
0.6736534990565999,44,34,-1,1
-0.8026002195015675,45,34,-1,1
0.4174806576482875,46,34,-1,1
0.9704496077416073,47,34,-1,1
-0.38185829285800094,48,34,-1,1
0.5456248651307017,49,34,-1,1
-1.3693131928627862,50,34,-1,1
-2.1224296850942865,51,34,-1,1
0.6361967413373792,52,34,-1,1
-0.011105628607769346,53,34,-1,1
1.696281674020257,54,34,-1,1
0.26814725643571097,55,34,-1,1
-0.06494074345052672,56,34,-1,1
0.13729355357502962,57,34,-1,1
0.5282928808639743,58,34,-1,1
1.5135250551542008,59,34,-1,1
0.38857094801466774,60,34,-1,1
0.9876836760228223,61,34,-1,1
-0.04740939682751925,62,34,-1,1
-0.02522236228912613,63,34,-1,1
-0.2202838948553308,0,35,-1,1
-0.46367995530401424,1,35,-1,1
0.36106411427501106,2,35,-1,1
1.444794462893028,3,35,-1,1
1.492269336890102,4,35,-1,1
1.4286810255030151,5,35,-1,1
0.26191769561859235,6,35,-1,1
-0.1087970808249034,7,35,-1,1
-0.16816370994588486,8,35,-1,1
0.23332147059860864,9,35,-1,1
1.9766434664869104,10,35,-1,1
0.7626644537211632,11,35,-1,1
0.8729214020856734,12,35,-1,1
0.7438171746813591,13,35,-1,1
-1.8893888914898511,14,35,-1,1
-0.13882580798876618,15,35,-1,1
0.024440523893296113,16,35,-1,1
1.5759607315280557,17,35,-1,1
-2.9021201641289593,18,35,-1,1
-0.3143807888173103,19,35,-1,1
-0.5945653847646059,20,35,-1,1
-2.2615565914239677,21,35,-1,1
-1.3819100414515453,22,35,-1,1
-1.4003994380197158,23,35,-1,1
0.00042503440017652627,24,35,-1,1
-3.5829377913688085,25,35,-1,1
-4.256026369485874,26,35,-1,1
-1.3837257566662324,27,35,-1,1
1.3177392036720026,28,35,-1,1
-0.7832232157889749,29,35,-1,1
-0.915491682738994,30,35,-1,1
-0.5561456713711466,31,35,-1,1
0.0063247249648769035,32,35,-1,1
-0.3841105094811409,33,35,-1,1
-0.15181796602736178,34,35,-1,1
1.772633376468842,35,35,-1,1
0.15218899098581465,36,35,-1,1
1.1195846809481431,37,35,-1,1
1.4551384391185442,38,35,-1,1
0.6870498282733373,39,35,-1,1
0.6585566829477455,40,35,-1,1
2.779550776218044,41,35,-1,1
0.4865915396146707,42,35,-1,1
-2.5363517254975783,43,35,-1,1
-0.0738160311582601,44,35,-1,1
2.381225596812688,45,35,-1,1
2.5311355050746416,46,35,-1,1
0.20684108073428112,47,35,-1,1
0.43009772589841677,48,35,-1,1
1.803148028995603,49,35,-1,1
1.18796061259451,50,35,-1,1
-0.43285650002483195,51,35,-1,1
-0.2587372381377297,52,35,-1,1
-0.09813709402517913,53,35,-1,1
-0.07412944590821482,54,35,-1,1
-0.1693824724846112,55,35,-1,1
-0.1789317983815873,56,35,-1,1
-0.07541085336433764,57,35,-1,1
-0.0494973332042158,58,35,-1,1
-1.2279362756047782,59,35,-1,1
-2.6013349880778835,60,35,-1,1
-1.7642625755296502,61,35,-1,1
-0.48759368408141524,62,35,-1,1
-0.28132900746734596,63,35,-1,1
0.03349764599383279,0,36,-1,1
-0.23875293960094135,1,36,-1,1
0.1979395903274344,2,36,-1,1
0.40842894381655204,3,36,-1,1
0.7538204476192599,4,36,-1,1
1.0915266336669145,5,36,-1,1
0.2919505396949215,6,36,-1,1
-0.32010790358411934,7,36,-1,1
-0.18676057101097807,8,36,-1,1
-0.02184109575224816,9,36,-1,1
0.23368406231809086,10,36,-1,1
-2.115091676899721,11,36,-1,1
-4.32676272712464,12,36,-1,1
-3.977600974588735,13,36,-1,1
-1.413042286442717,14,36,-1,1
-0.03949790347875111,15,36,-1,1
-0.08229449864329944,16,36,-1,1
-0.056218757186054714,17,36,-1,1
-0.7419081213595804,18,36,-1,1
-1.0869679115591915,19,36,-1,1
1.023310084826401,20,36,-1,1
1.3029156718184243,21,36,-1,1
1.938087078699714,22,36,-1,1
1.6839557211564462,23,36,-1,1
0.11358431316328986,24,36,-1,1
-0.1976960395249061,25,36,-1,1
0.7237852499879467,26,36,-1,1
1.274093435527082,27,36,-1,1
-1.1193178456933983,28,36,-1,1
0.31715040496650404,29,36,-1,1
-0.18933088068271767,30,36,-1,1
0.9750739748456502,31,36,-1,1
-0.1275942902799835,32,36,-1,1
-1.1630152498885902,33,36,-1,1
-0.8671378119522907,34,36,-1,1
-2.9202149321592312,35,36,-1,1
-2.1151887055508074,36,36,-1,1
-3.3089281689455485,37,36,-1,1
-1.7571005078954929,38,36,-1,1
0.056831094689362684,39,36,-1,1
-0.5048920093404441,40,36,-1,1
0.7887095416289569,41,36,-1,1
-0.3275528735378295,42,36,-1,1
-0.2657622127264113,43,36,-1,1
0.8270211053242112,44,36,-1,1
-1.076499477879688,45,36,-1,1
-0.4761141922392547,46,36,-1,1
0.059639806469362434,47,36,-1,1
0.01848064105918192,48,36,-1,1
-0.5116546534421897,49,36,-1,1
0.025216687778006137,50,36,-1,1
0.009871293853213043,51,36,-1,1
-1.4318302319102476,52,36,-1,1
-1.1694623942733713,53,36,-1,1
-0.05693810353545243,54,36,-1,1
-0.1368930897504691,55,36,-1,1
-0.064793975510196,56,36,-1,1
-0.28245383138830243,57,36,-1,1
0.11317692469360498,58,36,-1,1
0.30765841300147445,59,36,-1,1
-0.1142036017451534,60,36,-1,1
-0.6177076924632225,61,36,-1,1
-0.12204347245210288,62,36,-1,1
-0.21866834536032886,63,36,-1,1
0.05649778500977706,0,37,-1,1
-0.012821572097891658,1,37,-1,1
0.333179624198091,2,37,-1,1
-0.14901580545267304,3,37,-1,1
-0.28606366820948936,4,37,-1,1
-0.32228593773414604,5,37,-1,1
-0.17160662389343986,6,37,-1,1
-0.12390067866488585,7,37,-1,1
-0.14807696064528642,8,37,-1,1
0.17093721376144203,9,37,-1,1
-0.3301149026803208,10,37,-1,1
-0.44896181042197836,11,37,-1,1
-1.1420324960222157,12,37,-1,1
-0.5606911149995056,13,37,-1,1
0.31671200837814134,14,37,-1,1
-0.048196491915309586,15,37,-1,1
-0.22489772222215748,16,37,-1,1
-0.2111018036852337,17,37,-1,1
-0.7775105981038795,18,37,-1,1
-1.886218002894298,19,37,-1,1
-1.2436974994097003,20,37,-1,1
-0.7225812259423963,21,37,-1,1
0.9259790783559292,22,37,-1,1
0.7577222354076425,23,37,-1,1
-0.11487284567757323,24,37,-1,1
-0.25119146638140694,25,37,-1,1
-0.39033014520559584,26,37,-1,1
-0.6193714768849401,27,37,-1,1
-0.31187576314826204,28,37,-1,1
-1.533334014659165,29,37,-1,1
-1.1374497913927255,30,37,-1,1
0.17389544275890215,31,37,-1,1
-0.16074806309028783,32,37,-1,1
-0.33844937679514786,33,37,-1,1
-0.4242570272361907,34,37,-1,1
0.7880138160231587,35,37,-1,1
-1.2515743415848288,36,37,-1,1
-2.6520750944024063,37,37,-1,1
-1.1098056464043653,38,37,-1,1
-0.06681389797236974,39,37,-1,1
0.03580072797858664,40,37,-1,1
0.43621597551785274,41,37,-1,1
-0.772801223934316,42,37,-1,1
-0.8154979341722262,43,37,-1,1
-0.30291811650139283,44,37,-1,1
-0.710102549148569,45,37,-1,1
0.5891955946442864,46,37,-1,1
0.23265351985894497,47,37,-1,1
0.18910842505235165,48,37,-1,1
-0.0767850521735346,49,37,-1,1
-0.5419646883972722,50,37,-1,1
-0.6929374014861082,51,37,-1,1
-0.14097518601237477,52,37,-1,1
0.7200878479270971,53,37,-1,1
0.29324251066726764,54,37,-1,1
-0.017732135620456314,55,37,-1,1
0.04373753225659749,56,37,-1,1
-0.4846948884667772,57,37,-1,1
-0.9189003323551697,58,37,-1,1
-0.6344836922656188,59,37,-1,1
-0.6385656987155647,60,37,-1,1
-0.520509253783959,61,37,-1,1
-0.1479954881736201,62,37,-1,1
-0.14131715731501066,63,37,-1,1
0.11714212822413715,0,38,-1,1
0.21379650533333056,1,38,-1,1
0.04237391905049144,2,38,-1,1
-0.020190707051111874,3,38,-1,1
0.3917969404363386,4,38,-1,1
0.3271686666753407,5,38,-1,1
0.2406673792610869,6,38,-1,1
-0.17271574699540096,7,38,-1,1
-0.11872950851435166,8,38,-1,1
-0.0165850105079197,9,38,-1,1
0.20105706310027513,10,38,-1,1
-0.1584870217281903,11,38,-1,1
-0.5542960121328945,12,38,-1,1
-0.9959244096783948,13,38,-1,1
0.809007462965355,14,38,-1,1
0.6647064423075664,15,38,-1,1
0.14067023703660914,16,38,-1,1
0.20964719203978485,17,38,-1,1
-0.5606699920821705,18,38,-1,1
0.5553263830300237,19,38,-1,1
-0.256644890974457,20,38,-1,1
-0.8369489573146491,21,38,-1,1
0.6499769861727676,22,38,-1,1
0.43497442961386035,23,38,-1,1
-0.2688348715211005,24,38,-1,1
0.97086806541812,25,38,-1,1
2.7551096432759157,26,38,-1,1
4.9848548346492025,27,38,-1,1
3.6504191058733824,28,38,-1,1
2.222694125803082,29,38,-1,1
-0.10057378187913997,30,38,-1,1
-0.17703788019996672,31,38,-1,1
-0.17483332190735887,32,38,-1,1
0.16368422926744872,33,38,-1,1
1.429189375915924,34,38,-1,1
0.47841985232932,35,38,-1,1
2.9706257609533453,36,38,-1,1
4.662772686286127,37,38,-1,1
1.4380248168966696,38,38,-1,1
-1.0914544103934545,39,38,-1,1
-0.0009534763118643411,40,38,-1,1
-0.4788345401595504,41,38,-1,1
-1.3463118407076606,42,38,-1,1
-3.3535445782690436,43,38,-1,1
1.1761132065031983,44,38,-1,1
-0.7412385419841081,45,38,-1,1
-1.3186266493085688,46,38,-1,1
-1.039110715416536,47,38,-1,1
-0.12164090812146487,48,38,-1,1
-0.42443097858937723,49,38,-1,1
-0.7937221735085603,50,38,-1,1
-1.0334672068354362,51,38,-1,1
-1.0589760810710436,52,38,-1,1
-2.544619142020768,53,38,-1,1
-1.4267980965922522,54,38,-1,1
-0.08147993204856836,55,38,-1,1
-0.06360739196320052,56,38,-1,1
0.5740239509386986,57,38,-1,1
1.975382241441121,58,38,-1,1
2.1321097217842437,59,38,-1,1
1.0255850221790732,60,38,-1,1
0.7480336964566995,61,38,-1,1
0.42849826585973994,62,38,-1,1
-0.2682841104250376,63,38,-1,1
-0.2458110676790938,0,39,-1,1
-0.08841968403256244,1,39,-1,1
-0.3594034297421483,2,39,-1,1
-0.31724051758853644,3,39,-1,1
0.32158947068822963,4,39,-1,1
0.17364903096630005,5,39,-1,1
-0.23769781467967468,6,39,-1,1
-0.060538455198403084,7,39,-1,1
-0.05243292627618209,8,39,-1,1
0.5783091527723764,9,39,-1,1
-0.47872268772037957,10,39,-1,1
-0.42503214739090084,11,39,-1,1
-0.5980778342233279,12,39,-1,1
-1.059374818173487,13,39,-1,1
-0.974991194694533,14,39,-1,1
-0.2597779073018507,15,39,-1,1
-0.11908014860352786,16,39,-1,1
0.5487124548157543,17,39,-1,1
-0.0578507033827805,18,39,-1,1
0.25495297819543045,19,39,-1,1
0.16232879091701566,20,39,-1,1
0.0731272039213049,21,39,-1,1
0.9668604845913212,22,39,-1,1
-0.435849084438363,23,39,-1,1
0.4592290048504214,24,39,-1,1
-0.9188842224609296,25,39,-1,1
-1.622869482654706,26,39,-1,1
-1.5146340419545599,27,39,-1,1
-0.836413144546663,28,39,-1,1
-1.4568074718229236,29,39,-1,1
-1.3253772816690619,30,39,-1,1
0.4983108829132768,31,39,-1,1
0.47105404476966595,32,39,-1,1
0.23808408803546938,33,39,-1,1
1.2864620652499816,34,39,-1,1
2.7799604727447926,35,39,-1,1
1.12663206745427,36,39,-1,1
-0.3578202306147061,37,39,-1,1
0.04194652057791891,38,39,-1,1
0.3793148912434799,39,39,-1,1
0.8054162637834632,40,39,-1,1
0.2059313390415389,41,39,-1,1
-1.5308660509521677,42,39,-1,1
-2.0850759656648505,43,39,-1,1
-1.1737184446333004,44,39,-1,1
-1.5079896879900343,45,39,-1,1
-0.7352242149414052,46,39,-1,1
0.1388241993832215,47,39,-1,1
0.06655138208473181,48,39,-1,1
0.338472089635439,49,39,-1,1
-1.8568833783760723,50,39,-1,1
-3.651380125142583,51,39,-1,1
-2.6061163251298693,52,39,-1,1
-1.3771197013976122,53,39,-1,1
-1.043775149443308,54,39,-1,1
0.3313791046610777,55,39,-1,1
0.05486730672739703,56,39,-1,1
0.38500034456568616,57,39,-1,1
0.4515083982930171,58,39,-1,1
0.19001387289440977,59,39,-1,1
1.376981701529148,60,39,-1,1
0.3749974658755649,61,39,-1,1
0.19324926326647235,62,39,-1,1
-0.16890859477018488,63,39,-1,1
0.12859969494736812,0,40,-1,1
-0.04251651754768759,1,40,-1,1
0.25393432805551913,2,40,-1,1
-0.45707325246638514,3,40,-1,1
0.05202975902836372,4,40,-1,1
0.8807714063572138,5,40,-1,1
0.649435457841614,6,40,-1,1
0.2799183231188123,7,40,-1,1
0.09134207021882151,8,40,-1,1
0.2841824773975465,9,40,-1,1
-2.53299093893018,10,40,-1,1
-4.794532714505787,11,40,-1,1
-3.062840820783972,12,40,-1,1
0.4479038037806183,13,40,-1,1
1.2327518298308828,14,40,-1,1
0.2597531774544799,15,40,-1,1
0.20886357213538345,16,40,-1,1
-0.08771109982991167,17,40,-1,1
-5.577246271662545,18,40,-1,1
-1.6656072359953307,19,40,-1,1
2.368861037331427,20,40,-1,1
-2.546462497384068,21,40,-1,1
0.7976843431215088,22,40,-1,1
0.9429380215633721,23,40,-1,1
0.28664538272538,24,40,-1,1
-0.08960204169805472,25,40,-1,1
-3.229636263270561,26,40,-1,1
1.7850195466620793,27,40,-1,1
2.235872820879341,28,40,-1,1
-2.5697794223035295,29,40,-1,1
0.1984602011538576,30,40,-1,1
0.14313005988204056,31,40,-1,1
0.1006023548413061,32,40,-1,1
-0.2288382679684893,33,40,-1,1
-1.220235973466376,34,40,-1,1
0.34026293661451285,35,40,-1,1
-0.998517688258148,36,40,-1,1
-0.6276757777321973,37,40,-1,1
-1.7718190887677812,38,40,-1,1
-1.0905674419701654,39,40,-1,1
-0.7152016492927197,40,40,-1,1
-0.16463477833973647,41,40,-1,1
0.21559474471579074,42,40,-1,1
2.008042383471874,43,40,-1,1
0.5523605573673821,44,40,-1,1
-0.7123507971827862,45,40,-1,1
-2.6830476937367163,46,40,-1,1
-0.14300514371110837,47,40,-1,1
-0.2891110553070298,48,40,-1,1
-0.18357913872761053,49,40,-1,1
0.588412682395407,50,40,-1,1
-0.8490883646652482,51,40,-1,1
0.15952892874148025,52,40,-1,1
-1.4107025895025103,53,40,-1,1
-0.7666511953381727,54,40,-1,1
-0.041885726765308065,55,40,-1,1
0.288195686087848,56,40,-1,1
0.3339662256695775,57,40,-1,1
-0.0773365646293097,58,40,-1,1
-1.8644548373563152,59,40,-1,1
-1.900990836506517,60,40,-1,1
-0.037102631832343594,61,40,-1,1
0.295756955120272,62,40,-1,1
-0.14097951198320965,63,40,-1,1
-0.07101785601946894,0,41,-1,1
0.011676995520423474,1,41,-1,1
-1.148401038262897,2,41,-1,1
-1.8102536173335737,3,41,-1,1
-1.9479795007361005,4,41,-1,1
-1.4636775256342387,5,41,-1,1
-0.667791704004846,6,41,-1,1
0.08785958996510657,7,41,-1,1
-0.2333949655156004,8,41,-1,1
0.6470111919493563,9,41,-1,1
0.8235755820430335,10,41,-1,1
0.38315350937663595,11,41,-1,1
0.4979090554492548,12,41,-1,1
0.9024696830521821,13,41,-1,1
1.4787928229841905,14,41,-1,1
0.2840808314461633,15,41,-1,1
-0.00900619041221316,16,41,-1,1
0.4696195787714715,17,41,-1,1
0.74815567833407,18,41,-1,1
1.0465677219745957,19,41,-1,1
2.9789437691167096,20,41,-1,1
5.0306738930725174,21,41,-1,1
2.97622851970737,22,41,-1,1
0.7471760744878492,23,41,-1,1
-0.09982523437970305,24,41,-1,1
1.4874747485604451,25,41,-1,1
0.9031490611472506,26,41,-1,1
-0.9319512589957623,27,41,-1,1
-0.36305013252975515,28,41,-1,1
0.9373550800857037,29,41,-1,1
-0.8274534740534261,30,41,-1,1
0.08071511546849798,31,41,-1,1
-0.2580291846218298,32,41,-1,1
-0.5652745791357338,33,41,-1,1
1.61265077264622,34,41,-1,1
0.016620192301075455,35,41,-1,1
-0.5786310180473702,36,41,-1,1
-0.03128738145299466,37,41,-1,1
-1.5158278473875717,38,41,-1,1
-1.2633028022314983,39,41,-1,1
-0.18705753969479688,40,41,-1,1
-1.5960000420686373,41,41,-1,1
-2.1839607922226807,42,41,-1,1
-1.809927220262482,43,41,-1,1
-2.1861756848825733,44,41,-1,1
-1.370955622558956,45,41,-1,1
-1.8863761202417981,46,41,-1,1
-1.4878442010931427,47,41,-1,1
-0.17275234256854757,48,41,-1,1
0.7571081659901546,49,41,-1,1
0.7432432774888106,50,41,-1,1
0.06396446342184181,51,41,-1,1
2.256802439963044,52,41,-1,1
0.9623966700442931,53,41,-1,1
-0.6539765829870132,54,41,-1,1
0.09314387975829479,55,41,-1,1
-0.25501655081513663,56,41,-1,1
-0.08366960939985693,57,41,-1,1
1.3580397845000234,58,41,-1,1
3.598124174824792,59,41,-1,1
2.678236491763743,60,41,-1,1
1.0203166633183876,61,41,-1,1
0.09187144850449618,62,41,-1,1
-0.27395097900440263,63,41,-1,1
-0.10911302032340303,0,42,-1,1
0.037900855895759554,1,42,-1,1
0.3614506077480891,2,42,-1,1
0.035594741129877226,3,42,-1,1
-1.4037157985409405,4,42,-1,1
-0.6518132612415267,5,42,-1,1
0.32794685347381586,6,42,-1,1
0.21592436471909382,7,42,-1,1
-0.19542041230243284,8,42,-1,1
-0.4486556394652867,9,42,-1,1
-2.0163042721636826,10,42,-1,1
-3.645513699472049,11,42,-1,1
0.4761707642827343,12,42,-1,1
1.75241089718797,13,42,-1,1
0.27674204299989663,14,42,-1,1
-0.5896097058821587,15,42,-1,1
0.10690659344688441,16,42,-1,1
-1.4625845403513726,17,42,-1,1
-1.833586389298037,18,42,-1,1
-0.4714082185391003,19,42,-1,1
1.1266730094512851,20,42,-1,1
0.8860591109217283,21,42,-1,1
0.02767253531310778,22,42,-1,1
-0.8552865934310517,23,42,-1,1
-0.5991786276160627,24,42,-1,1
1.6325089751308093,25,42,-1,1
-0.772366742834779,26,42,-1,1
-0.32538734232672517,27,42,-1,1
-1.7086699226397521,28,42,-1,1
-1.2008134700537625,29,42,-1,1
5.173649668867942,30,42,-1,1
-0.3568116454896638,31,42,-1,1
-0.34354530553942936,32,42,-1,1
1.615727712140337,33,42,-1,1
0.9514929369313243,34,42,-1,1
0.7095533547284585,35,42,-1,1
-1.6197283513145588,36,42,-1,1
-2.317134968263454,37,42,-1,1
1.069169296803831,38,42,-1,1
0.08305351840694426,39,42,-1,1
-0.3271081960850612,40,42,-1,1
-1.9084973740751319,41,42,-1,1
3.327543876587057,42,42,-1,1
-0.2286928323878114,43,42,-1,1
-3.4768038963998977,44,42,-1,1
-2.5552735838528386,45,42,-1,1
-0.6085074413873877,46,42,-1,1
-0.6401302621974272,47,42,-1,1
-0.18482556860028337,48,42,-1,1
-0.1386245740007818,49,42,-1,1
1.1054469360607353,50,42,-1,1
2.4909858491913077,51,42,-1,1
-0.7879621805253354,52,42,-1,1
-3.618346255345542,53,42,-1,1
-1.3767142296518948,54,42,-1,1
-0.29910749852024165,55,42,-1,1
-0.13275647759232073,56,42,-1,1
-0.586981584208984,57,42,-1,1
0.029123099429717855,58,42,-1,1
1.0969071482671597,59,42,-1,1
0.018762582216034236,60,42,-1,1
0.2623205827683112,61,42,-1,1
-0.23864970418950346,62,42,-1,1
-0.16500242947581722,63,42,-1,1
-0.10159788925393154,0,43,-1,1
0.14370896742553796,1,43,-1,1
-0.16163521742547138,2,43,-1,1
0.21316999155034574,3,43,-1,1
0.24529428308598197,4,43,-1,1
-0.16968697823352463,5,43,-1,1
-0.08595732887212416,6,43,-1,1
-0.1361291367576951,7,43,-1,1
-0.06817936980985848,8,43,-1,1
-0.06762033481167942,9,43,-1,1
0.28366689519102883,10,43,-1,1
-0.9408171610469886,11,43,-1,1
-1.7781360759155889,12,43,-1,1
-1.2251235613852047,13,43,-1,1
-0.08050976478986227,14,43,-1,1
-0.019105750638148834,15,43,-1,1
-0.02428945077539885,16,43,-1,1
0.17624686501244363,17,43,-1,1
-0.2674229427748394,18,43,-1,1
-0.9511352437712199,19,43,-1,1
-1.5658061000319548,20,43,-1,1
-0.845548582477533,21,43,-1,1
0.0482085913920494,22,43,-1,1
-0.25590948413650194,23,43,-1,1
-0.06227379462703562,24,43,-1,1
0.2941238614117902,25,43,-1,1
-0.5746967456564911,26,43,-1,1
-0.9367781738382679,27,43,-1,1
-1.4883309328520224,28,43,-1,1
-0.6371766580190543,29,43,-1,1
-0.2768732542340047,30,43,-1,1
-0.2555060508095728,31,43,-1,1
-0.3139319946005138,32,43,-1,1
-0.11655069837004275,33,43,-1,1
-0.48703606333962135,34,43,-1,1
-2.3315797968226906,35,43,-1,1
-1.4142252283422745,36,43,-1,1
-0.4117732252307809,37,43,-1,1
-0.24109947568679568,38,43,-1,1
0.2567980222453569,39,43,-1,1
0.021795726682593965,40,43,-1,1
-0.34503169021007984,41,43,-1,1
-0.5530387490841151,42,43,-1,1
-1.4820691170979126,43,43,-1,1
-1.508043715151336,44,43,-1,1
-1.1036048472025999,45,43,-1,1
-0.052605204386264655,46,43,-1,1
0.15057343739263296,47,43,-1,1
0.02365632611110816,48,43,-1,1
-0.11758569449176337,49,43,-1,1
-0.8140920145632744,50,43,-1,1
-1.0189687870145574,51,43,-1,1
-0.5550042051812657,52,43,-1,1
-0.15349719393252736,53,43,-1,1
-0.2791711616033324,54,43,-1,1
-0.012823887826924613,55,43,-1,1
-0.17633167678683379,56,43,-1,1
-0.1976427700058466,57,43,-1,1
0.011596697033705,58,43,-1,1
0.23203590909017804,59,43,-1,1
0.0024284534612173435,60,43,-1,1
0.07109823220744141,61,43,-1,1
-0.178309297956741,62,43,-1,1
-0.15765394088058907,63,43,-1,1
0.14824807899845927,0,44,-1,1
0.003362614408923803,1,44,-1,1
0.5482140846225351,2,44,-1,1
0.24981408227002208,3,44,-1,1
-1.4859554278478302,4,44,-1,1
-0.7067165463910654,5,44,-1,1
-0.11422169500825641,6,44,-1,1
0.08342789291112152,7,44,-1,1
-0.007292144155249434,8,44,-1,1
-0.40638503107436263,9,44,-1,1
0.6623030529623808,10,44,-1,1
1.228464393076065,11,44,-1,1
0.54759934104102,12,44,-1,1
-1.625099135453237,13,44,-1,1
-0.08049873513729756,14,44,-1,1
-0.12104671379607702,15,44,-1,1
-0.456723533597583,16,44,-1,1
-1.5829210298848986,17,44,-1,1
0.6051998913982174,18,44,-1,1
-3.0718254323620617,19,44,-1,1
-3.2382803475620143,20,44,-1,1
-1.7919978618107468,21,44,-1,1
-3.3305281365574806,22,44,-1,1
-1.6054701020378859,23,44,-1,1
-0.8659515604812008,24,44,-1,1
-1.1045996913962584,25,44,-1,1
0.7525759541982291,26,44,-1,1
-0.2119074994891568,27,44,-1,1
-0.7049357491469013,28,44,-1,1
2.396046240327513,29,44,-1,1
1.3849829332824692,30,44,-1,1
-0.7062890578019958,31,44,-1,1
-0.7295063862206583,32,44,-1,1
2.112614268510679,33,44,-1,1
0.5121885546774325,34,44,-1,1
0.5457557537445348,35,44,-1,1
2.8030224084166067,36,44,-1,1
-1.4711628406801913,37,44,-1,1
-0.08750613804519826,38,44,-1,1
0.6956974377023287,39,44,-1,1
-0.511498943998459,40,44,-1,1
-0.6167413848606096,41,44,-1,1
-0.10009420009358728,42,44,-1,1
0.446987221837604,43,44,-1,1
1.3164569453496924,44,44,-1,1
-0.04978829742156352,45,44,-1,1
1.0874967023509667,46,44,-1,1
0.530116932238651,47,44,-1,1
0.336226878270862,48,44,-1,1
-1.4684305471100458,49,44,-1,1
-1.4249765553320413,50,44,-1,1
-0.5505364196778677,51,44,-1,1
-1.9348913955762306,52,44,-1,1
0.5328174889066531,53,44,-1,1
2.12368214752299,54,44,-1,1
0.2613753746175748,55,44,-1,1
-0.07379955977581165,56,44,-1,1
-0.1543428335442851,57,44,-1,1
-0.9174242002309955,58,44,-1,1
-0.9845827324848822,59,44,-1,1
-0.7844441706537725,60,44,-1,1
0.13760367120285905,61,44,-1,1
0.39490327399379654,62,44,-1,1
-0.15189648611161927,63,44,-1,1
-0.12749443406752278,0,45,-1,1
-0.0065343348631827685,1,45,-1,1
-0.0478907169942333,2,45,-1,1
-0.1829190125034617,3,45,-1,1
-0.22790425688898433,4,45,-1,1
0.9422064547126004,5,45,-1,1
-0.02441550793991218,6,45,-1,1
0.19142199260075246,7,45,-1,1
0.20286038855640087,8,45,-1,1
-0.07012919138457022,9,45,-1,1
0.1418235877795621,10,45,-1,1
0.862418930695896,11,45,-1,1
1.4428050965722237,12,45,-1,1
0.35879723589686613,13,45,-1,1
0.2183922310860308,14,45,-1,1
0.0322345079606781,15,45,-1,1
-0.22136707748551354,16,45,-1,1
-1.5820351370738177,17,45,-1,1
-2.502498319082204,18,45,-1,1
-3.983991148009273,19,45,-1,1
-0.9877087772594678,20,45,-1,1
0.6632615205194606,21,45,-1,1
-1.1009991476203924,22,45,-1,1
0.4273793257971723,23,45,-1,1
-0.2799826954525407,24,45,-1,1
1.6934690493257987,25,45,-1,1
3.8043289750070612,26,45,-1,1
5.278234640473047,27,45,-1,1
0.44004647383943307,28,45,-1,1
1.1777805273669055,29,45,-1,1
-0.5896453188520718,30,45,-1,1
0.17571008444902617,31,45,-1,1
-0.4241677796721829,32,45,-1,1
3.6779613857723192,33,45,-1,1
5.074909359033219,34,45,-1,1
-0.9725426497841094,35,45,-1,1
0.02787633147776582,36,45,-1,1
1.0748263358984025,37,45,-1,1
-0.2375833991629675,38,45,-1,1
-0.4452083986226925,39,45,-1,1
-0.12648805279549416,40,45,-1,1
1.1267198061135446,41,45,-1,1
-1.6188010486923758,42,45,-1,1
-2.428812958256126,43,45,-1,1
-0.43591502628922646,44,45,-1,1
2.661065989204043,45,45,-1,1
0.7373576802058636,46,45,-1,1
-1.1445226805940665,47,45,-1,1
0.331843972339029,48,45,-1,1
-0.914217898047614,49,45,-1,1
-0.3717585349407306,50,45,-1,1
-0.6523334962974242,51,45,-1,1
-0.6576436173957411,52,45,-1,1
0.9006261745679431,53,45,-1,1
0.9428080344733439,54,45,-1,1
0.08232885553915328,55,45,-1,1
-0.13149199493809266,56,45,-1,1
0.5519600060275046,57,45,-1,1
0.8538465646602625,58,45,-1,1
-0.24364955971651625,59,45,-1,1
0.0924376464195464,60,45,-1,1
0.6434662231119557,61,45,-1,1
0.3644247247326247,62,45,-1,1
-0.19419744306290299,63,45,-1,1
0.506313814943397,0,46,-1,1
0.0799524524572719,1,46,-1,1
0.038076767237476675,2,46,-1,1
0.9184346461584625,3,46,-1,1
1.5832632048353996,4,46,-1,1
1.704597099259208,5,46,-1,1
0.7463972952488872,6,46,-1,1
0.06002616001340505,7,46,-1,1
0.1341507012488634,8,46,-1,1
0.10846513596854686,9,46,-1,1
-0.766542222290081,10,46,-1,1
1.963031502309673,11,46,-1,1
2.5062366230087414,12,46,-1,1
0.6945546153342218,13,46,-1,1
-1.5053726490127632,14,46,-1,1
-0.23287662940399326,15,46,-1,1
0.0002871529886568473,16,46,-1,1
-0.845082279325045,17,46,-1,1
-0.5599866755676666,18,46,-1,1
0.07777639723291602,19,46,-1,1
-1.9143952162810791,20,46,-1,1
-4.402670137106297,21,46,-1,1
-2.1865686103963204,22,46,-1,1
-0.6057006776770707,23,46,-1,1
-0.052002635653756395,24,46,-1,1
1.2238387216874147,25,46,-1,1
1.6912724216154247,26,46,-1,1
1.9921713003521975,27,46,-1,1
0.5038434566915628,28,46,-1,1
-0.9790354295923649,29,46,-1,1
1.863034628899818,30,46,-1,1
-0.0680261770159216,31,46,-1,1
-0.16399695761900104,32,46,-1,1
0.5803864867745356,33,46,-1,1
-1.148940101377527,34,46,-1,1
-0.8565339892925473,35,46,-1,1
-3.4024723527563667,36,46,-1,1
-0.33681270020752424,37,46,-1,1
1.481190272890271,38,46,-1,1
-0.2523954289652605,39,46,-1,1
0.235081146558678,40,46,-1,1
-0.12389391951536409,41,46,-1,1
0.34779001327889986,42,46,-1,1
1.090585146499202,43,46,-1,1
-0.07773752980355929,44,46,-1,1
1.4789582988315941,45,46,-1,1
0.2538774056702167,46,46,-1,1
-0.6205655596632162,47,46,-1,1
0.296044994287311,48,46,-1,1
-0.4026649416454505,49,46,-1,1
-1.2887685426789186,50,46,-1,1
0.3710936090756043,51,46,-1,1
2.1287827300812103,52,46,-1,1
0.35728222278221083,53,46,-1,1
-0.6805621411892029,54,46,-1,1
0.09682880828364165,55,46,-1,1
-0.05574758908598031,56,46,-1,1
0.16099403078962496,57,46,-1,1
-0.27414003302611856,58,46,-1,1
-1.3733152023922506,59,46,-1,1
-0.31390869828998175,60,46,-1,1
0.8517840924815347,61,46,-1,1
-0.07786298152109819,62,46,-1,1
-0.032703640743141985,63,46,-1,1
-0.16924564209545953,0,47,-1,1
-0.2646770033933783,1,47,-1,1
-0.07631463721264425,2,47,-1,1
0.11586280189930286,3,47,-1,1
-0.11461618555855811,4,47,-1,1
-0.15596081067161907,5,47,-1,1
-0.19849041245927712,6,47,-1,1
0.05411062569756019,7,47,-1,1
-0.07712044179715759,8,47,-1,1
-0.1806737404360038,9,47,-1,1
-0.4308474367246299,10,47,-1,1
-0.8996631449711415,11,47,-1,1
-0.7991044449237806,12,47,-1,1
-0.43181165326077925,13,47,-1,1
0.10625007212683334,14,47,-1,1
-0.16703941547924972,15,47,-1,1
-0.19552832639902712,16,47,-1,1
-0.13814964397848384,17,47,-1,1
-0.2806406477980905,18,47,-1,1
-0.9099509947940976,19,47,-1,1
-1.348111809517127,20,47,-1,1
-1.02314558459743,21,47,-1,1
-0.2690518619759325,22,47,-1,1
0.01891886655162991,23,47,-1,1
-0.2766352481021306,24,47,-1,1
0.041609740859463853,25,47,-1,1
-0.2843721451575494,26,47,-1,1
-0.8202806552527258,27,47,-1,1
-1.4240812675562964,28,47,-1,1
-0.6553401499687879,29,47,-1,1
0.1108068030727373,30,47,-1,1
-0.17521100950746782,31,47,-1,1
0.014150384094452895,32,47,-1,1
-0.2663157972944855,33,47,-1,1
-0.7855659240862046,34,47,-1,1
-1.0906738902274524,35,47,-1,1
-1.419607567386624,36,47,-1,1
-1.2393549995782145,37,47,-1,1
-0.6299210972129148,38,47,-1,1
-0.13525686341598886,39,47,-1,1
-0.03193947290916597,40,47,-1,1
-0.41989480603036894,41,47,-1,1
-0.634160875221181,42,47,-1,1
-0.7562801304128361,43,47,-1,1
-1.2222414240238966,44,47,-1,1
-1.2133061194069616,45,47,-1,1
-0.19427042344226939,46,47,-1,1
-0.014785162782671968,47,47,-1,1
-0.13464273339089988,48,47,-1,1
-0.3710631450243097,49,47,-1,1
-0.2543895711419127,50,47,-1,1
-0.9344858305984752,51,47,-1,1
-0.7900098930511663,52,47,-1,1
-0.38478153510044283,53,47,-1,1
-0.08460776615792612,54,47,-1,1
-0.0038986037154667896,55,47,-1,1
-0.06998669011214463,56,47,-1,1
-0.07624779870994573,57,47,-1,1
0.15990533632865486,58,47,-1,1
-0.08634842082361334,59,47,-1,1
0.032362478775109275,60,47,-1,1
0.189936311117757,61,47,-1,1
0.025166634436583415,62,47,-1,1
-0.08641365121535416,63,47,-1,1
-0.12139999164824221,0,48,-1,1
0.09115465131557887,1,48,-1,1
-0.5852405098489559,2,48,-1,1
-1.3154545624533849,3,48,-1,1
-0.584749736541566,4,48,-1,1
0.10283155212648414,5,48,-1,1
-0.10442044056280392,6,48,-1,1
-0.006692631333371664,7,48,-1,1
-0.20746081737372346,8,48,-1,1
1.2525522279773142,9,48,-1,1
-0.09359480959133602,10,48,-1,1
0.3967448005361123,11,48,-1,1
-1.1452671446218652,12,48,-1,1
-1.1969454648261257,13,48,-1,1
-0.14105637286258654,14,48,-1,1
-0.20306718082824582,15,48,-1,1
0.08710561150702391,16,48,-1,1
1.1660948755378127,17,48,-1,1
-0.49973801346295094,18,48,-1,1
-1.527117075338244,19,48,-1,1
0.8956956381079726,20,48,-1,1
0.5646230164334508,21,48,-1,1
-0.5864427409025583,22,48,-1,1
-0.5219443609863305,23,48,-1,1
0.30142837155334523,24,48,-1,1
-1.7939903847288985,25,48,-1,1
-2.041228545407495,26,48,-1,1
-0.7972490482363465,27,48,-1,1
3.043175774192585,28,48,-1,1
0.7688639826327157,29,48,-1,1
-1.063344019509055,30,48,-1,1
-0.7012998106164484,31,48,-1,1
0.16997813530245434,32,48,-1,1
-0.4495945122370746,33,48,-1,1
0.10481524178565357,34,48,-1,1
3.498774078165721,35,48,-1,1
2.781399358330529,36,48,-1,1
0.07529082931403172,37,48,-1,1
-0.10786742347900415,38,48,-1,1
-0.8627212489667451,39,48,-1,1
0.7780126658856011,40,48,-1,1
-0.5735373099610117,41,48,-1,1
-7.460103592804923,42,48,-1,1
-3.0840215910846447,43,48,-1,1
-2.3009840503294337,44,48,-1,1
-1.6032112705653554,45,48,-1,1
-0.17952835431593075,46,48,-1,1
-1.073907498169062,47,48,-1,1
0.34484785694481884,48,48,-1,1
1.9241663368880844,49,48,-1,1
1.8844767470026278,50,48,-1,1
-0.6117956811189259,51,48,-1,1
-1.0317257206358998,52,48,-1,1
-0.19886381725378602,53,48,-1,1
-0.4992439594876145,54,48,-1,1
0.04265381356445906,55,48,-1,1
0.039630379299457175,56,48,-1,1
0.7296202054123815,57,48,-1,1
0.5964263126378959,58,48,-1,1
-0.34688042935539065,59,48,-1,1
-1.2881902717478517,60,48,-1,1
-1.681843543506026,61,48,-1,1
-0.1443709223872998,62,48,-1,1
0.34261714053667836,63,48,-1,1
0.0760689619957597,0,49,-1,1
-0.0037550460994917284,1,49,-1,1
-0.7098375917436929,2,49,-1,1
0.35061785521239597,3,49,-1,1
0.9499193721883693,4,49,-1,1
0.6365567645176791,5,49,-1,1
-0.528259508412825,6,49,-1,1
-0.1501301501317586,7,49,-1,1
-0.31753504829228146,8,49,-1,1
0.7169817746391183,9,49,-1,1
5.342220221343817,10,49,-1,1
2.885857494809767,11,49,-1,1
0.37267361770219887,12,49,-1,1
-1.5713533032521696,13,49,-1,1
-1.0316039076677175,14,49,-1,1
-0.46953929571749725,15,49,-1,1
-0.34703707960289787,16,49,-1,1
4.44799290339865,17,49,-1,1
3.82532268881956,18,49,-1,1
-4.5278842473257015,19,49,-1,1
-0.14435859778994675,20,49,-1,1
1.775853778747473,21,49,-1,1
0.3923765127553716,22,49,-1,1
-1.1835497256611835,23,49,-1,1
0.1984307742238315,24,49,-1,1
1.8034559044122442,25,49,-1,1
-1.1114483253831848,26,49,-1,1
-0.4438083201924226,27,49,-1,1
-1.3066198920188816,28,49,-1,1
1.1836383062407383,29,49,-1,1
1.1155689134921887,30,49,-1,1
0.13067176469939193,31,49,-1,1
0.04270807799408035,32,49,-1,1
1.0297626249574352,33,49,-1,1
-0.2928644026500337,34,49,-1,1
-2.8443960313549383,35,49,-1,1
0.1378470377668001,36,49,-1,1
0.03415909667160788,37,49,-1,1
1.440468160023739,38,49,-1,1
1.3017580186589608,39,49,-1,1
