Weight,Input Node,Hidden Node,Output Node,Layer Index
-0.1351045565302842,0,0,-1,1
0.08387445055001921,1,0,-1,1
0.07087327549258679,2,0,-1,1
0.15700266303232815,3,0,-1,1
1.7283706279953674,4,0,-1,1
0.7928001841975216,5,0,-1,1
0.20410939620699944,6,0,-1,1
0.16278649808735404,7,0,-1,1
0.17903986026459678,8,0,-1,1
-0.41928892100166326,9,0,-1,1
-0.7343195746628126,10,0,-1,1
-2.4137201055003588,11,0,-1,1
-2.6760063751218612,12,0,-1,1
0.9608154462491878,13,0,-1,1
1.620279383632786,14,0,-1,1
0.4201564368014892,15,0,-1,1
0.36128931610743625,16,0,-1,1
0.30718031472408247,17,0,-1,1
0.11132899693976792,18,0,-1,1
0.10132199395475615,19,0,-1,1
-2.5018389632564517,20,0,-1,1
0.5587649598199245,21,0,-1,1
-0.5208260183270308,22,0,-1,1
0.8316844457954079,23,0,-1,1
0.5306764647898797,24,0,-1,1
-0.008922659107138756,25,0,-1,1
1.0941769150982423,26,0,-1,1
2.425048205933404,27,0,-1,1
-2.0659560004389546,28,0,-1,1
-1.0442488078568362,29,0,-1,1
-0.6553635250811225,30,0,-1,1
1.0089117812752664,31,0,-1,1
-0.24434697683368994,32,0,-1,1
0.33426329137866445,33,0,-1,1
2.728331518050396,34,0,-1,1
-2.8242703419807973,35,0,-1,1
-1.3561504255067989,36,0,-1,1
-0.04030827571353745,37,0,-1,1
2.5326642736078795,38,0,-1,1
0.11897813288137214,39,0,-1,1
-0.15250886674175107,40,0,-1,1
-0.6643795767444166,41,0,-1,1
-0.28184830495637514,42,0,-1,1
-0.26691251208201816,43,0,-1,1
0.0016520031943635164,44,0,-1,1
0.9965684498413513,45,0,-1,1
-1.519817511859015,46,0,-1,1
-0.35277947503220897,47,0,-1,1
0.08851086240752806,48,0,-1,1
-1.3030155375715737,49,0,-1,1
0.5697042602601949,50,0,-1,1
1.541655289790731,51,0,-1,1
1.9891457277002613,52,0,-1,1
0.864799239121993,53,0,-1,1
-0.7663488382724236,54,0,-1,1
0.21549729085838956,55,0,-1,1
0.08752215636679751,56,0,-1,1
0.3251438832489751,57,0,-1,1
-0.01903428240482617,58,0,-1,1
-1.3654024408802183,59,0,-1,1
-1.1247676621948708,60,0,-1,1
-0.9736060981998154,61,0,-1,1
-0.2995078150955985,62,0,-1,1
0.1817729983322566,63,0,-1,1
0.11400460459370149,0,1,-1,1
-0.27870392686721784,1,1,-1,1
-0.13018074539802066,2,1,-1,1
-0.008750228214689751,3,1,-1,1
-0.2928592858127616,4,1,-1,1
-0.3910648028838351,5,1,-1,1
-0.31386710227297365,6,1,-1,1
-0.27832954519976477,7,1,-1,1
0.2808513454380655,8,1,-1,1
0.09126647205137188,9,1,-1,1
0.2737225510487093,10,1,-1,1
-0.30731986730165456,11,1,-1,1
-0.7603932448859093,12,1,-1,1
-0.9023944843270871,13,1,-1,1
0.11437969569086567,14,1,-1,1
-0.0009681697843210638,15,1,-1,1
-0.06568882486855293,16,1,-1,1
-0.06872890775892036,17,1,-1,1
0.09871265743790174,18,1,-1,1
-0.9901430919205361,19,1,-1,1
-1.320968627690044,20,1,-1,1
-0.14419591316521468,21,1,-1,1
0.5361031488475304,22,1,-1,1
0.4108784617222431,23,1,-1,1
-0.21630580128244495,24,1,-1,1
-0.40419925019679426,25,1,-1,1
-0.18230497865960468,26,1,-1,1
-0.17975149047315783,27,1,-1,1
-1.3956900539091575,28,1,-1,1
0.09130374107030761,29,1,-1,1
-0.7189435604136842,30,1,-1,1
-0.06158069313984966,31,1,-1,1
0.16787651732578315,32,1,-1,1
-0.4213861360341947,33,1,-1,1
-0.3681163251735151,34,1,-1,1
-0.7502006896177174,35,1,-1,1
-0.9256146361471714,36,1,-1,1
-0.26041278598911266,37,1,-1,1
-1.0125499199561385,38,1,-1,1
0.041167741724134004,39,1,-1,1
-0.1664895999043542,40,1,-1,1
0.2755800833764318,41,1,-1,1
-0.5764056279175075,42,1,-1,1
-1.7130027288541858,43,1,-1,1
-1.2475848854994556,44,1,-1,1
-0.5823416788803596,45,1,-1,1
-0.0057074410947456095,46,1,-1,1
-0.02108618473693939,47,1,-1,1
-0.22295768443829103,48,1,-1,1
-0.0016533875479410511,49,1,-1,1
-0.35878231889234097,50,1,-1,1
-1.4400238493278843,51,1,-1,1
-1.5840818116602486,52,1,-1,1
-0.003916957164673246,53,1,-1,1
0.5351680906693,54,1,-1,1
-0.24277186092436154,55,1,-1,1
0.11384967879668142,56,1,-1,1
0.1941566264288877,57,1,-1,1
0.18443029889105983,58,1,-1,1
0.19739504764044313,59,1,-1,1
0.22967099904601082,60,1,-1,1
-0.03653210780962189,61,1,-1,1
-0.01733583832241987,62,1,-1,1
-0.09453305681915722,63,1,-1,1
0.004676687019957043,0,2,-1,1
0.11065034098152995,1,2,-1,1
-0.27064155477576474,2,2,-1,1
-0.2612601897653618,3,2,-1,1
-1.2955136577067319,4,2,-1,1
-0.9691264786474477,5,2,-1,1
-0.19416726531458134,6,2,-1,1
-0.007709213522114082,7,2,-1,1
0.15044496768238974,8,2,-1,1
-0.17067837938471836,9,2,-1,1
-0.6700404412706658,10,2,-1,1
-1.192427753307268,11,2,-1,1
-0.686127543410152,12,2,-1,1
-0.2768853535068693,13,2,-1,1
0.15270397350356713,14,2,-1,1
0.15680771195747029,15,2,-1,1
-0.5322405691605104,16,2,-1,1
0.25025510379867033,17,2,-1,1
0.961254839895366,18,2,-1,1
1.4188180107561361,19,2,-1,1
-0.5473955963648743,20,2,-1,1
-0.08875925316760387,21,2,-1,1
1.6663479806334773,22,2,-1,1
0.2508163161627569,23,2,-1,1
-0.06245071024425134,24,2,-1,1
0.9255482838318251,25,2,-1,1
-0.41308860441903233,26,2,-1,1
-1.4147488777638488,27,2,-1,1
-2.365942762366138,28,2,-1,1
-0.5940346376586554,29,2,-1,1
0.4066602965621187,30,2,-1,1
-0.8294221239396786,31,2,-1,1
0.3115276387361098,32,2,-1,1
-0.7218632697375512,33,2,-1,1
-1.1147147930560568,34,2,-1,1
-0.46465503536294595,35,2,-1,1
-1.131388871668114,36,2,-1,1
0.776909320593873,37,2,-1,1
-1.9444042719284735,38,2,-1,1
-0.5181796880011689,39,2,-1,1
-0.03526438857650996,40,2,-1,1
-0.602172348958037,41,2,-1,1
0.5777594709785724,42,2,-1,1
-0.7095230582540092,43,2,-1,1
-1.1181734886730836,44,2,-1,1
-1.395579633684981,45,2,-1,1
-0.2074899024314584,46,2,-1,1
-0.13374950199914973,47,2,-1,1
-0.46929953199820007,48,2,-1,1
-0.06366114625552026,49,2,-1,1
-1.228092553551296,50,2,-1,1
-2.2547847417372773,51,2,-1,1
-1.9615535460062978,52,2,-1,1
-0.7436887701647622,53,2,-1,1
0.5899678095313101,54,2,-1,1
0.09458229536272085,55,2,-1,1
0.012515462635280005,56,2,-1,1
-0.3038343048724629,57,2,-1,1
0.41091922193972596,58,2,-1,1
1.4499889229845695,59,2,-1,1
0.8120676006234578,60,2,-1,1
0.8122329853924123,61,2,-1,1
-0.14896104083157674,62,2,-1,1
-0.18863602816886282,63,2,-1,1
-0.19704707689532786,0,3,-1,1
-0.2116873032241433,1,3,-1,1
-0.16446194566829272,2,3,-1,1
0.07369441673700365,3,3,-1,1
-0.0767572714324922,4,3,-1,1
0.049746046379466134,5,3,-1,1
0.0762236020671559,6,3,-1,1
-0.09257271421614047,7,3,-1,1
0.08608014530964016,8,3,-1,1
0.23758237372797894,9,3,-1,1
0.7302039679958239,10,3,-1,1
-0.11367045683803353,11,3,-1,1
-1.0195539626747974,12,3,-1,1
-0.4439320650072951,13,3,-1,1
-0.0839145213026827,14,3,-1,1
-0.022125324401857927,15,3,-1,1
-0.16558186843842296,16,3,-1,1
0.3556089699851621,17,3,-1,1
-0.28057969122008236,18,3,-1,1
-0.8528575972028885,19,3,-1,1
-1.1151956865646928,20,3,-1,1
-0.99675104568679,21,3,-1,1
0.47137255243664783,22,3,-1,1
0.06536036566842579,23,3,-1,1
-0.07205437524012437,24,3,-1,1
-0.27850527556539845,25,3,-1,1
-0.6718760549525422,26,3,-1,1
-0.3156252966795785,27,3,-1,1
-0.14700224817981902,28,3,-1,1
-0.3565176753728883,29,3,-1,1
-0.7422546475292552,30,3,-1,1
-0.37905456014886013,31,3,-1,1
0.08502980435816578,32,3,-1,1
-0.314202720742057,33,3,-1,1
-0.7313244702207959,34,3,-1,1
-1.107723520859291,35,3,-1,1
-1.098261593689421,36,3,-1,1
-0.06417281621854981,37,3,-1,1
-0.15137819312700798,38,3,-1,1
-0.07076597310693668,39,3,-1,1
0.043355979972851205,40,3,-1,1
-0.10582215287010564,41,3,-1,1
-1.301591249852531,42,3,-1,1
-1.1930319599093389,43,3,-1,1
-0.7150410674279445,44,3,-1,1
-0.4205673051075977,45,3,-1,1
-0.09954442213776178,46,3,-1,1
-0.0993441433834322,47,3,-1,1
-0.056134188279774316,48,3,-1,1
-0.29554103943074483,49,3,-1,1
-1.0450586279266354,50,3,-1,1
-1.2260677410253717,51,3,-1,1
-0.6966690078384828,52,3,-1,1
0.12480174128183723,53,3,-1,1
-0.28824489899528344,54,3,-1,1
0.05508588096693961,55,3,-1,1
-0.10319689732063439,56,3,-1,1
0.1418151017475324,57,3,-1,1
0.32349471117106365,58,3,-1,1
0.3488837040466344,59,3,-1,1
0.20428790938026362,60,3,-1,1
-0.06197709122779267,61,3,-1,1
0.19004879675553119,62,3,-1,1
0.0692065123874092,63,3,-1,1
-0.02725218446027567,0,4,-1,1
-0.17107177908494633,1,4,-1,1
-0.030126816759531397,2,4,-1,1
0.5795762345403208,3,4,-1,1
0.7059825629266551,4,4,-1,1
0.6542402689884926,5,4,-1,1
0.010377928925132214,6,4,-1,1
0.17279672644005453,7,4,-1,1
-0.044534166346481344,8,4,-1,1
-0.2657013181571023,9,4,-1,1
-0.37321612248913183,10,4,-1,1
0.20584857354684127,11,4,-1,1
2.0076194833067507,12,4,-1,1
0.22646045848616272,13,4,-1,1
0.018623064321200988,14,4,-1,1
0.23647275612718024,15,4,-1,1
-0.15577114922651036,16,4,-1,1
-1.0325196930528782,17,4,-1,1
-0.1289216424578583,18,4,-1,1
4.313999961826273,19,4,-1,1
0.7414470737417312,20,4,-1,1
-2.50139302349556,21,4,-1,1
-1.1860109574116677,22,4,-1,1
0.1645740861983311,23,4,-1,1
-0.16852507687899823,24,4,-1,1
1.1401160115231836,25,4,-1,1
2.0269898397287385,26,4,-1,1
-0.7299557703854176,27,4,-1,1
-1.8190742752192832,28,4,-1,1
0.6440776879358237,29,4,-1,1
-1.1837486871293594,30,4,-1,1
-0.24035803776169867,31,4,-1,1
0.30228032058376,32,4,-1,1
-0.7551171459513749,33,4,-1,1
-0.16394949433774625,34,4,-1,1
-2.5248528008850304,35,4,-1,1
-1.1535252762350912,36,4,-1,1
1.348048338341333,37,4,-1,1
-0.3514491761602038,38,4,-1,1
-0.3077154478656872,39,4,-1,1
0.07130759990995325,40,4,-1,1
-1.0320159982976467,41,4,-1,1
-0.596352047213419,42,4,-1,1
-1.6986961264976195,43,4,-1,1
0.9524609239675722,44,4,-1,1
-0.03186095114339975,45,4,-1,1
-0.20360965847838866,46,4,-1,1
-0.3196064435831713,47,4,-1,1
0.1305195351537326,48,4,-1,1
-0.48373523663518614,49,4,-1,1
-1.5749879154078987,50,4,-1,1
0.5348887507269955,51,4,-1,1
-0.32340165136010657,52,4,-1,1
-0.7787769172087219,53,4,-1,1
0.08638197585660944,54,4,-1,1
0.44684791255284584,55,4,-1,1
0.09337968212816299,56,4,-1,1
0.3290035703905029,57,4,-1,1
1.619874199126523,58,4,-1,1
1.993283438351257,59,4,-1,1
1.033618492842186,60,4,-1,1
1.3677231973607755,61,4,-1,1
0.15922539926034357,62,4,-1,1
0.006880068156485273,63,4,-1,1
-0.10781835165036997,0,5,-1,1
-0.2618148187159121,1,5,-1,1
-0.2691299098644744,2,5,-1,1
-0.04731225279822454,3,5,-1,1
0.3138153353964453,4,5,-1,1
-0.535615407285061,5,5,-1,1
-0.210165848496155,6,5,-1,1
-0.16274328912450942,7,5,-1,1
-0.18330312072277488,8,5,-1,1
-0.080969819256024,9,5,-1,1
0.6521684616362994,10,5,-1,1
1.9934485136747317,11,5,-1,1
1.7695919781565441,12,5,-1,1
0.11302197270533926,13,5,-1,1
-0.18465971986156163,14,5,-1,1
-0.00933829713656667,15,5,-1,1
-0.16279390892107684,16,5,-1,1
1.6136419982543944,17,5,-1,1
1.272862966616633,18,5,-1,1
1.1763925871897722,19,5,-1,1
0.5317691365573107,20,5,-1,1
1.6561756969412698,21,5,-1,1
1.5986837443384954,22,5,-1,1
-0.3290601035598563,23,5,-1,1
0.5789995684571294,24,5,-1,1
-0.5853377173499354,25,5,-1,1
-3.0145847601598783,26,5,-1,1
-2.3116762866682627,27,5,-1,1
-0.2031916907955603,28,5,-1,1
-1.462736180738065,29,5,-1,1
0.6696300700683498,30,5,-1,1
-0.47580214471726223,31,5,-1,1
0.11571661282671158,32,5,-1,1
-0.42645576098090593,33,5,-1,1
-3.7311213725221926,34,5,-1,1
-1.0116877818299417,35,5,-1,1
-0.6022442594118658,36,5,-1,1
-1.7322159457995077,37,5,-1,1
0.08663871536129099,38,5,-1,1
-0.12332168079731494,39,5,-1,1
-0.3265307538049604,40,5,-1,1
1.1261248937099118,41,5,-1,1
1.132416522170731,42,5,-1,1
0.4765429652415308,43,5,-1,1
-0.8142190236558021,44,5,-1,1
0.1964246495010298,45,5,-1,1
0.7866186341536064,46,5,-1,1
-0.10405984268516526,47,5,-1,1
-0.12386194964176253,48,5,-1,1
0.6691120536183328,49,5,-1,1
1.748656011498903,50,5,-1,1
0.6281651912352418,51,5,-1,1
1.1142729795027528,52,5,-1,1
0.7420369112226674,53,5,-1,1
0.11689173886430337,54,5,-1,1
-0.055735546326177166,55,5,-1,1
0.10049312880826927,56,5,-1,1
-0.436815715698161,57,5,-1,1
-0.5422834556453678,58,5,-1,1
0.5716074734094945,59,5,-1,1
0.4369556672074025,60,5,-1,1
-0.3358792153948371,61,5,-1,1
-0.205116916969414,62,5,-1,1
-0.34967793341015285,63,5,-1,1
0.020095087883776067,0,6,-1,1
0.1268139078202905,1,6,-1,1
0.07986734704690814,2,6,-1,1
-0.7751856429108372,3,6,-1,1
-1.642149498391768,4,6,-1,1
-0.7641618152650482,5,6,-1,1
-0.14786001779464641,6,6,-1,1
-0.02666750961451777,7,6,-1,1
-0.046824291951346145,8,6,-1,1
-0.2697869437533788,9,6,-1,1
-0.7626064295862657,10,6,-1,1
-0.6468363644973255,11,6,-1,1
0.13549320436348056,12,6,-1,1
0.6972491844275885,13,6,-1,1
0.6877677248247344,14,6,-1,1
0.007520401271137633,15,6,-1,1
-0.2923803910677818,16,6,-1,1
-1.75406882929903,17,6,-1,1
-0.9319962439136033,18,6,-1,1
-1.1762392060347528,19,6,-1,1
0.14291171827007776,20,6,-1,1
0.4039192040348977,21,6,-1,1
0.3424602710666457,22,6,-1,1
0.6705790127344511,23,6,-1,1
-0.6443500076318269,24,6,-1,1
0.32022633770404824,25,6,-1,1
1.6005322335642815,26,6,-1,1
-0.5753477380571318,27,6,-1,1
-0.19277997041764355,28,6,-1,1
-0.005882194899638647,29,6,-1,1
-1.2093232505609717,30,6,-1,1
-0.03500069668309393,31,6,-1,1
-0.12746577249828306,32,6,-1,1
0.8388913226556685,33,6,-1,1
1.6694443341638123,34,6,-1,1
0.9267700663871735,35,6,-1,1
0.9085997346098086,36,6,-1,1
-0.5629623841178448,37,6,-1,1
-2.1522203980420036,38,6,-1,1
-0.07640542971393632,39,6,-1,1
-0.21890080160078557,40,6,-1,1
1.4071458954264504,41,6,-1,1
0.6579752409968652,42,6,-1,1
-2.043811276328756,43,6,-1,1
0.08013788068342094,44,6,-1,1
-1.3531937657581217,45,6,-1,1
0.31275152364348807,46,6,-1,1
0.14844752427317248,47,6,-1,1
-0.015049266573384623,48,6,-1,1
-0.2697027725013803,49,6,-1,1
-0.6424026571580052,50,6,-1,1
-1.8482127458804132,51,6,-1,1
-1.3953364894299034,52,6,-1,1
0.8911637654387472,53,6,-1,1
1.184110009321593,54,6,-1,1
-0.11788302158417911,55,6,-1,1
-0.044242223759936895,56,6,-1,1
-0.1873271255345542,57,6,-1,1
-0.7380374901127902,58,6,-1,1
-0.5626982656273425,59,6,-1,1
-0.08120366198214204,60,6,-1,1
0.36856484152389485,61,6,-1,1
0.32297320695331994,62,6,-1,1
0.1167062603247278,63,6,-1,1
-0.06984376500570828,0,7,-1,1
0.1521100591854559,1,7,-1,1
0.2445601951906199,2,7,-1,1
0.27770862831837423,3,7,-1,1
-0.006870014986932221,4,7,-1,1
-0.02723248468790951,5,7,-1,1
-0.026455248433362544,6,7,-1,1
-0.454756886619014,7,7,-1,1
-0.33947389543261025,8,7,-1,1
0.15505209992226515,9,7,-1,1
0.04748443772082567,10,7,-1,1
-0.13244929808227685,11,7,-1,1
-1.0856525686275773,12,7,-1,1
-0.5377930615616557,13,7,-1,1
-0.054120332008953415,14,7,-1,1
0.05563703118854937,15,7,-1,1
-0.085791314640171,16,7,-1,1
-0.12206656530946965,17,7,-1,1
-0.4587078323306943,18,7,-1,1
-0.7481932375655452,19,7,-1,1
-0.9423082706217136,20,7,-1,1
-0.6696689111834866,21,7,-1,1
-0.01730918918276063,22,7,-1,1
0.17158794506293515,23,7,-1,1
-0.08149711597629797,24,7,-1,1
-0.5450032554935855,25,7,-1,1
-0.30613723469062426,26,7,-1,1
-0.06561722054508129,27,7,-1,1
-0.6730681877390678,28,7,-1,1
-0.6089229573304017,29,7,-1,1
-0.7259251127394265,30,7,-1,1
0.15423381654551446,31,7,-1,1
-0.0009687954151815016,32,7,-1,1
-0.5076790166219174,33,7,-1,1
-0.32906177538672315,34,7,-1,1
-0.08512652931511064,35,7,-1,1
-0.7471932338736055,36,7,-1,1
-0.9700977270403824,37,7,-1,1
-0.7572467051534121,38,7,-1,1
-0.03132186980655201,39,7,-1,1
-0.005510909193004445,40,7,-1,1
-0.07490481178628255,41,7,-1,1
-0.5279842743678294,42,7,-1,1
-1.1621299169661303,43,7,-1,1
-0.5391854617750175,44,7,-1,1
-0.30686073010426307,45,7,-1,1
0.12102496089083978,46,7,-1,1
0.08954136678218211,47,7,-1,1
0.0783017474722547,48,7,-1,1
-0.06281583163749736,49,7,-1,1
-0.5334572378390461,50,7,-1,1
-1.0176605110393404,51,7,-1,1
-0.9949720002281311,52,7,-1,1
-0.4407731263137515,53,7,-1,1
0.10293794104060047,54,7,-1,1
-0.184023600570168,55,7,-1,1
-0.07845824443840747,56,7,-1,1
0.002405646248285799,57,7,-1,1
-0.0274031728533713,58,7,-1,1
0.264637277150434,59,7,-1,1
0.04503891423178748,60,7,-1,1
0.28918430931694933,61,7,-1,1
-0.08018585652331353,62,7,-1,1
-0.12409991229076724,63,7,-1,1
0.1470843426551475,0,8,-1,1
0.01749426088685363,1,8,-1,1
0.1420105004156142,2,8,-1,1
-0.26211674782367006,3,8,-1,1
0.2681185025216951,4,8,-1,1
-0.18874261004273887,5,8,-1,1
0.000873890323539902,6,8,-1,1
-0.02682518471477973,7,8,-1,1
-0.03252720068726199,8,8,-1,1
0.5386811829406377,9,8,-1,1
-0.12127211170746452,10,8,-1,1
-0.9515691635462623,11,8,-1,1
-1.4533807447387581,12,8,-1,1
0.6922880130917475,13,8,-1,1
0.41050562714186856,14,8,-1,1
-0.0053150165435538604,15,8,-1,1
0.3284745559364947,16,8,-1,1
0.38813816104613624,17,8,-1,1
-0.7819896227928107,18,8,-1,1
0.0825836904500109,19,8,-1,1
2.1142987741364303,20,8,-1,1
2.388171832163242,21,8,-1,1
0.6827291677477112,22,8,-1,1
-0.4364692043348358,23,8,-1,1
0.34012921513671684,24,8,-1,1
-1.0621435859706365,25,8,-1,1
-1.7246080131844321,26,8,-1,1
-0.06836697371690163,27,8,-1,1
1.9601502590867166,28,8,-1,1
-0.12994799637096713,29,8,-1,1
-1.1975459719566028,30,8,-1,1
-0.014502601399564191,31,8,-1,1
0.1497635714624861,32,8,-1,1
-0.16637397759582195,33,8,-1,1
-0.17369840374046222,34,8,-1,1
-0.44795355505951984,35,8,-1,1
1.3049874215330874,36,8,-1,1
0.6067964160949532,37,8,-1,1
-0.5140671337866587,38,8,-1,1
0.2655574391821257,39,8,-1,1
0.1253707444340747,40,8,-1,1
0.9654265715386816,41,8,-1,1
-0.5366237285459995,42,8,-1,1
-0.8931523456461201,43,8,-1,1
1.0637577157043638,44,8,-1,1
-1.006049315851367,45,8,-1,1
-0.24551085851469392,46,8,-1,1
0.4434904449521224,47,8,-1,1
0.12378747929757657,48,8,-1,1
0.25780506745048004,49,8,-1,1
1.350807113662972,50,8,-1,1
0.16434412674287527,51,8,-1,1
-1.1642814791944478,52,8,-1,1
-0.49714032758688903,53,8,-1,1
0.15342945538785827,54,8,-1,1
0.14717663144134505,55,8,-1,1
0.07327618435629853,56,8,-1,1
0.01584781554475115,57,8,-1,1
0.21960838749403144,58,8,-1,1
-0.1430744982327299,59,8,-1,1
-0.21256356141521157,60,8,-1,1
-0.3594770239133349,61,8,-1,1
-0.012640958688575999,62,8,-1,1
0.08979783005110711,63,8,-1,1
-0.11808503343362484,0,9,-1,1
-0.09230378150685992,1,9,-1,1
0.09306517712953359,2,9,-1,1
0.023526046193829996,3,9,-1,1
-0.31500411585349997,4,9,-1,1
0.03818677288290806,5,9,-1,1
-0.2388869069877067,6,9,-1,1
0.28395877576927564,7,9,-1,1
-0.022733509168018154,8,9,-1,1
-0.09695739891323739,9,9,-1,1
0.3618823253973021,10,9,-1,1
-0.038633631414820555,11,9,-1,1
-0.48980505281246206,12,9,-1,1
-0.4662835312537166,13,9,-1,1
-0.18957654611419855,14,9,-1,1
0.11057136446416736,15,9,-1,1
-0.0018536708417663016,16,9,-1,1
-0.2239327794978393,17,9,-1,1
-0.7761691417808951,18,9,-1,1
-0.40290252408282734,19,9,-1,1
-0.6273144334200292,20,9,-1,1
-0.3073103739294909,21,9,-1,1
0.26373270351453926,22,9,-1,1
-0.545819374492015,23,9,-1,1
0.031228762637829376,24,9,-1,1
-0.24260339007958867,25,9,-1,1
-0.6918780048342299,26,9,-1,1
-0.7090472495697161,27,9,-1,1
-0.4701388628550224,28,9,-1,1
-1.0038666934632463,29,9,-1,1
-0.12656328856544963,30,9,-1,1
-0.014903951740355486,31,9,-1,1
-0.27125154595823325,32,9,-1,1
-0.009399106421611582,33,9,-1,1
-0.662965369160594,34,9,-1,1
-0.7373054168053538,35,9,-1,1
-0.32046762965866304,36,9,-1,1
-1.4211451799565689,37,9,-1,1
-0.3642595490288138,38,9,-1,1
0.020298978690234098,39,9,-1,1
0.1404959940436749,40,9,-1,1
-0.17626650383486572,41,9,-1,1
-0.5122871553694113,42,9,-1,1
-1.2798745758923362,43,9,-1,1
-1.243955465232481,44,9,-1,1
-0.8360305595333857,45,9,-1,1
0.029283427544235383,46,9,-1,1
0.1020479328274705,47,9,-1,1
-0.08818896872466954,48,9,-1,1
0.10228904652409586,49,9,-1,1
-0.043706767137577894,50,9,-1,1
-0.5823011367084646,51,9,-1,1
-0.45702854908789153,52,9,-1,1
-0.34997609089390896,53,9,-1,1
0.07446938584542664,54,9,-1,1
-0.09642338044170362,55,9,-1,1
-0.10427514541471584,56,9,-1,1
-0.07704217789516338,57,9,-1,1
0.013330363659471125,58,9,-1,1
0.07814580304593449,59,9,-1,1
0.2756142512488389,60,9,-1,1
0.06914761185074728,61,9,-1,1
-0.06953629919585694,62,9,-1,1
-0.09193550493999542,63,9,-1,1
0.04381340546853037,0,10,-1,1
0.10351744431743845,1,10,-1,1
0.14664184894135282,2,10,-1,1
0.9059442210856805,3,10,-1,1
0.8715563271101066,4,10,-1,1
0.8612321076651832,5,10,-1,1
0.1012777431252955,6,10,-1,1
-0.021175084963651374,7,10,-1,1
-0.058263303184047155,8,10,-1,1
0.43499609995790517,9,10,-1,1
0.09080546501392736,10,10,-1,1
0.7109576960844523,11,10,-1,1
1.3360143796408757,12,10,-1,1
0.43041034652511706,13,10,-1,1
-0.3856429329898921,14,10,-1,1
-0.3874311879239044,15,10,-1,1
0.483854048604938,16,10,-1,1
0.28859970244440053,17,10,-1,1
-0.6863940899082184,18,10,-1,1
3.2892912519806816,19,10,-1,1
2.460925197260749,20,10,-1,1
-0.8257009720290355,21,10,-1,1
-0.23678096076563704,22,10,-1,1
-1.1014355100998834,23,10,-1,1
0.3965331522367885,24,10,-1,1
-0.1607285278523453,25,10,-1,1
-1.309279773478575,26,10,-1,1
-0.21018513663210484,27,10,-1,1
2.110702027725069,28,10,-1,1
1.4985388091162517,29,10,-1,1
1.5784485413667986,30,10,-1,1
-0.11345259141686519,31,10,-1,1
0.13215772713534388,32,10,-1,1
-0.8883603454311967,33,10,-1,1
-2.0691317578567783,34,10,-1,1
-2.346191468794362,35,10,-1,1
-1.1674717006806918,36,10,-1,1
0.03718662852334845,37,10,-1,1
0.4465842953999054,38,10,-1,1
0.2902325909224114,39,10,-1,1
0.2847575391479891,40,10,-1,1
-0.45271834636261976,41,10,-1,1
1.098776404655626,42,10,-1,1
0.7890166358885303,43,10,-1,1
0.7334147641419925,44,10,-1,1
1.534325605056644,45,10,-1,1
-0.3287421790865346,46,10,-1,1
-0.17137295779545103,47,10,-1,1
0.08615430503627572,48,10,-1,1
1.2266002691584472,49,10,-1,1
1.7949884634777966,50,10,-1,1
0.5505099747551415,51,10,-1,1
-0.4191701569935441,52,10,-1,1
-1.5831052108577957,53,10,-1,1
-0.4377623933678446,54,10,-1,1
-0.005930705136386921,55,10,-1,1
0.07832081919559739,56,10,-1,1
0.23263419530025198,57,10,-1,1
1.669811471595982,58,10,-1,1
1.6608461741264784,59,10,-1,1
1.1394808547617576,60,10,-1,1
1.4893031619525812,61,10,-1,1
0.14821734858023275,62,10,-1,1
-0.016106827067705044,63,10,-1,1
-0.03757309561459214,0,11,-1,1
0.28157351203150954,1,11,-1,1
0.111665790859015,2,11,-1,1
-0.3934147387577238,3,11,-1,1
0.002407973150049088,4,11,-1,1
-0.4690475263633498,5,11,-1,1
-0.3401253853679989,6,11,-1,1
0.11028079101565202,7,11,-1,1
0.056144249498054126,8,11,-1,1
-0.591580899522533,9,11,-1,1
-0.9847798332075379,10,11,-1,1
-0.771304315504862,11,11,-1,1
-1.1848392889221429,12,11,-1,1
-0.3299893953354523,13,11,-1,1
1.276971822411029,14,11,-1,1
0.0023578205300265084,15,11,-1,1
0.28977503498570384,16,11,-1,1
-0.6295693052756328,17,11,-1,1
0.7029860453284816,18,11,-1,1
1.4814586458881622,19,11,-1,1
0.7887398183149192,20,11,-1,1
-0.22876428293294282,21,11,-1,1
1.6669329647237425,22,11,-1,1
1.4393825931831064,23,11,-1,1
0.15792602759856084,24,11,-1,1
0.06054644713739232,25,11,-1,1
-0.21672736544162713,26,11,-1,1
0.2162570333385904,27,11,-1,1
0.05340837340482467,28,11,-1,1
-1.298639014329496,29,11,-1,1
-0.40757729976104445,30,11,-1,1
0.8755172948487266,31,11,-1,1
0.3141239239481551,32,11,-1,1
-0.5983966551181893,33,11,-1,1
-1.3644399744784121,34,11,-1,1
-0.10582083016081545,35,11,-1,1
-0.7737113819831495,36,11,-1,1
-2.3940886850996854,37,11,-1,1
-0.7571293988787786,38,11,-1,1
-0.10021063273063854,39,11,-1,1
-0.4132298574659461,40,11,-1,1
-0.13092829699192632,41,11,-1,1
0.22996514976990368,42,11,-1,1
2.027453941565014,43,11,-1,1
-1.1519415014623429,44,11,-1,1
-2.2377294502622425,45,11,-1,1
-0.2458918667025694,46,11,-1,1
0.48987925090516743,47,11,-1,1
-0.08908323641568051,48,11,-1,1
-0.5509438772023094,49,11,-1,1
0.949863680488936,50,11,-1,1
1.4945137426883086,51,11,-1,1
0.5141150926345879,52,11,-1,1
-0.4125116138029481,53,11,-1,1
0.5143185140536111,54,11,-1,1
-0.020126018563882145,55,11,-1,1
0.2705241522586638,56,11,-1,1
-0.3880867947921073,57,11,-1,1
-1.2068271337885657,58,11,-1,1
-0.414309862614717,59,11,-1,1
0.07334300559316469,60,11,-1,1
-0.43692957138146965,61,11,-1,1
-0.08232286043051686,62,11,-1,1
0.27382740095861774,63,11,-1,1
0.10307620146392607,0,12,-1,1
-0.15959941217550214,1,12,-1,1
0.0497054599767002,2,12,-1,1
1.2350216414807902,3,12,-1,1
1.1664697142260352,4,12,-1,1
0.9745079557377486,5,12,-1,1
0.49301961605535305,6,12,-1,1
-0.2668852410650485,7,12,-1,1
-0.2741967965554558,8,12,-1,1
-0.41748255606776896,9,12,-1,1
0.1676125787613518,10,12,-1,1
-0.9421767013941055,11,12,-1,1
-1.4215841694927722,12,12,-1,1
-0.8047551851366234,13,12,-1,1
-0.5733461071125348,14,12,-1,1
-0.18678366898026788,15,12,-1,1
0.16072359716424928,16,12,-1,1
0.0867742881446353,17,12,-1,1
2.035695650936421,18,12,-1,1
0.9815675699054505,19,12,-1,1
-0.6810268106772203,20,12,-1,1
-2.535564153253499,21,12,-1,1
-1.2265494904745922,22,12,-1,1
0.6130084723487178,23,12,-1,1
-0.01126059265235421,24,12,-1,1
0.5180003169709728,25,12,-1,1
-1.1112056570099247,26,12,-1,1
-0.5001422876704607,27,12,-1,1
-0.44133184920806795,28,12,-1,1
0.5360775624981962,29,12,-1,1
0.47839434773661915,30,12,-1,1
0.5790260804553373,31,12,-1,1
0.14222686454029593,32,12,-1,1
-2.0543622530158894,33,12,-1,1
-2.3136543040177626,34,12,-1,1
-0.2311169227304092,35,12,-1,1
-0.6698418214631273,36,12,-1,1
0.05525557723495289,37,12,-1,1
0.3307005878086907,38,12,-1,1
0.0596000834033563,39,12,-1,1
-0.07208478770230535,40,12,-1,1
-2.0580301036811575,41,12,-1,1
1.0517727743549212,42,12,-1,1
2.549121012273574,43,12,-1,1
0.345164366542835,44,12,-1,1
-0.3019196138796075,45,12,-1,1
-1.065551968577629,46,12,-1,1
0.003030979450564496,47,12,-1,1
-0.2516243246886571,48,12,-1,1
-0.4200817769643249,49,12,-1,1
-0.5305416769089062,50,12,-1,1
0.45756902961123574,51,12,-1,1
-0.010217961734479475,52,12,-1,1
-2.9162854256602824,53,12,-1,1
-0.7304860505518244,54,12,-1,1
0.13665791221099807,55,12,-1,1
0.03652835741759464,56,12,-1,1
-0.20496172782160368,57,12,-1,1
0.24303464111498002,58,12,-1,1
0.6001598838867445,59,12,-1,1
0.5871039057351161,60,12,-1,1
-0.08548220588643259,61,12,-1,1
-0.21086271125935482,62,12,-1,1
0.05547140747142147,63,12,-1,1
-0.004435892989046239,0,13,-1,1
0.21334203106145194,1,13,-1,1
0.39903931230769607,2,13,-1,1
0.8917080853450128,3,13,-1,1
1.4814317501769925,4,13,-1,1
1.2296447741512417,5,13,-1,1
0.4790795499634419,6,13,-1,1
-0.1941285598542119,7,13,-1,1
-0.14402313230217428,8,13,-1,1
0.3429425264340746,9,13,-1,1
1.4615253386923108,10,13,-1,1
1.0137207505679755,11,13,-1,1
1.0899826481346782,12,13,-1,1
1.2986663479243181,13,13,-1,1
0.2944581157266,14,13,-1,1
-0.050971100033597665,15,13,-1,1
0.23694167428468843,16,13,-1,1
0.9075866235733745,17,13,-1,1
-0.17543118713296654,18,13,-1,1
0.21512141652063435,19,13,-1,1
-0.2379039242822854,20,13,-1,1
-2.0349485672280068,21,13,-1,1
-2.0025910201815753,22,13,-1,1
-0.881051758106684,23,13,-1,1
0.5290230571341987,24,13,-1,1
-0.5069845456650517,25,13,-1,1
-2.0927893304410223,26,13,-1,1
-2.44482344365237,27,13,-1,1
2.5675574794885114,28,13,-1,1
-0.66486050021683,29,13,-1,1
-0.07698224714063244,30,13,-1,1
-0.6460421355276679,31,13,-1,1
0.05789462857614791,32,13,-1,1
-0.9167996047782181,33,13,-1,1
-1.2068757370594898,34,13,-1,1
0.023654370981775863,35,13,-1,1
1.3123142772926584,36,13,-1,1
-0.6404999383141384,37,13,-1,1
1.2669017249856358,38,13,-1,1
-0.0466842811638037,39,13,-1,1
0.1673274064294295,40,13,-1,1
-0.7423601848415818,41,13,-1,1
0.5625694327781433,42,13,-1,1
1.5014177216919593,43,13,-1,1
0.24159734707525504,44,13,-1,1
1.9595656596848954,45,13,-1,1
-0.024680892194668305,46,13,-1,1
-0.26540520557124625,47,13,-1,1
-0.14321415997109005,48,13,-1,1
1.1633441633503687,49,13,-1,1
1.8357277004611505,50,13,-1,1
-0.3916545614476681,51,13,-1,1
1.3910204891236886,52,13,-1,1
0.7089925452598874,53,13,-1,1
-0.36596544075252574,54,13,-1,1
-0.13771109442227247,55,13,-1,1
0.026197180864455258,56,13,-1,1
0.23953259832591417,57,13,-1,1
0.5752733119075746,58,13,-1,1
0.17086099969347598,59,13,-1,1
-0.9014129149570952,60,13,-1,1
-0.0445690239931359,61,13,-1,1
-0.17020974314411996,62,13,-1,1
0.11008029359932205,63,13,-1,1
-0.37039214735671705,0,14,-1,1
-0.05008345994174698,1,14,-1,1
0.15284554490414912,2,14,-1,1
-0.07466917589077725,3,14,-1,1
-0.2621415405421412,4,14,-1,1
-0.03520580294788213,5,14,-1,1
-0.09735012843357668,6,14,-1,1
-0.12345491155946547,7,14,-1,1
-0.046640055443878434,8,14,-1,1
-0.29150548430774814,9,14,-1,1
-0.16559395300320126,10,14,-1,1
-0.7557001857538164,11,14,-1,1
-0.8756766198666545,12,14,-1,1
-0.6706205817695269,13,14,-1,1
0.029165049993303868,14,14,-1,1
0.15818067239922182,15,14,-1,1
-0.12003298183076576,16,14,-1,1
-0.29180688987097164,17,14,-1,1
-0.6845942650216678,18,14,-1,1
-0.4789057726137883,19,14,-1,1
-0.6358027992252643,20,14,-1,1
-0.5111111473810294,21,14,-1,1
-0.06683842544854518,22,14,-1,1
0.08433986730861093,23,14,-1,1
0.15821627128454518,24,14,-1,1
-0.15881046030210821,25,14,-1,1
0.03178986658923409,26,14,-1,1
-0.42619688805800154,27,14,-1,1
-0.3043448465445515,28,14,-1,1
-0.2421405346588552,29,14,-1,1
-0.7655552905668443,30,14,-1,1
0.2870714991763478,31,14,-1,1
0.047304777477339285,32,14,-1,1
-0.1522335667175047,33,14,-1,1
-0.8193230108617119,34,14,-1,1
-0.5092411906315961,35,14,-1,1
-0.04473599772330777,36,14,-1,1
-0.81922588428113,37,14,-1,1
-0.9253166895806886,38,14,-1,1
0.18006040971677587,39,14,-1,1
0.014342243721855595,40,14,-1,1
-0.02758339913015876,41,14,-1,1
-0.5153959461124215,42,14,-1,1
-0.7910135355637998,43,14,-1,1
-0.5374157496821821,44,14,-1,1
-1.3299876906769663,45,14,-1,1
-0.34096736384350357,46,14,-1,1
0.29432267506836024,47,14,-1,1
-0.08330106710478927,48,14,-1,1
-0.14399723476209067,49,14,-1,1
-0.48957562405662924,50,14,-1,1
-0.7161067032467927,51,14,-1,1
-0.6987892068078085,52,14,-1,1
-0.6214733218476627,53,14,-1,1
0.1605330335841632,54,14,-1,1
0.03538259808653705,55,14,-1,1
0.1354024895468376,56,14,-1,1
-0.19799529828203588,57,14,-1,1
0.16046287293071967,58,14,-1,1
0.2985355309278239,59,14,-1,1
0.09478444217160249,60,14,-1,1
0.22898113318779184,61,14,-1,1
-0.1709248108132815,62,14,-1,1
-0.10099003219814394,63,14,-1,1
-0.13528192205553655,0,15,-1,1
-0.14943621942590213,1,15,-1,1
0.18710934781496774,2,15,-1,1
0.09785591335970595,3,15,-1,1
-0.3073225843942917,4,15,-1,1
-0.23046120336241877,5,15,-1,1
-0.041283433892789184,6,15,-1,1
-0.03920316713505178,7,15,-1,1
-0.09615211109401216,8,15,-1,1
-0.23300282841644476,9,15,-1,1
0.15245308075760858,10,15,-1,1
1.5749973510939639,11,15,-1,1
1.9265665603990654,12,15,-1,1
1.2447931136285981,13,15,-1,1
-0.37556154952395987,14,15,-1,1
-0.39023880887096823,15,15,-1,1
-0.08287038171397962,16,15,-1,1
-0.09010301112382871,17,15,-1,1
1.3363750777636694,18,15,-1,1
-1.3383303976652692,19,15,-1,1
0.10539914241742837,20,15,-1,1
0.7328511209307512,21,15,-1,1
2.3116839294923057,22,15,-1,1
1.527846365357296,23,15,-1,1
-0.43994326670181244,24,15,-1,1
-0.7498053828110836,25,15,-1,1
-0.44106664576011223,26,15,-1,1
0.6067890474471486,27,15,-1,1
-0.8145367062949098,28,15,-1,1
-3.0867371410842153,29,15,-1,1
0.5052520442893583,30,15,-1,1
0.9746319604992839,31,15,-1,1
0.1277224071795746,32,15,-1,1
-1.426598718688256,33,15,-1,1
-1.312789557069694,34,15,-1,1
1.6165184496928293,35,15,-1,1
-3.2829955147323995,36,15,-1,1
-3.7110010106290043,37,15,-1,1
-0.48863342834556245,38,15,-1,1
0.27398824860079457,39,15,-1,1
-0.1660165196172745,40,15,-1,1
2.3716689709198433,41,15,-1,1
3.9251954708562056,42,15,-1,1
-0.2389254269390273,43,15,-1,1
-0.8544814360037083,44,15,-1,1
2.7068256860628397,45,15,-1,1
2.3032456200776004,46,15,-1,1
0.3809058008205753,47,15,-1,1
-0.1607985202302777,48,15,-1,1
0.6685391014885453,49,15,-1,1
2.918643130628563,50,15,-1,1
2.9694073635459493,51,15,-1,1
1.8913823540852097,52,15,-1,1
0.8934908764493464,53,15,-1,1
0.5646465294185674,54,15,-1,1
-0.12027708535417223,55,15,-1,1
0.14089581322235897,56,15,-1,1
-0.6243733741184317,57,15,-1,1
-1.8028447252224502,58,15,-1,1
-1.2735555690427203,59,15,-1,1
-0.09316393276975922,60,15,-1,1
-0.8247948109943848,61,15,-1,1
-0.1799065677594335,62,15,-1,1
-0.03220165848191637,63,15,-1,1
0.008322822555059681,0,16,-1,1
0.13336043761872707,1,16,-1,1
-0.10678098629715346,2,16,-1,1
-0.446107349508049,3,16,-1,1
-0.5663595800689725,4,16,-1,1
-0.5643125242836906,5,16,-1,1
-0.3126236449784661,6,16,-1,1
-0.0005771576471630158,7,16,-1,1
0.1468515156921391,8,16,-1,1
-0.40921679864253163,9,16,-1,1
-0.25768796399126315,10,16,-1,1
-0.5703703020438509,11,16,-1,1
-0.4029958476544127,12,16,-1,1
0.45559556842783255,13,16,-1,1
1.3861524570823565,14,16,-1,1
0.5612614471765808,15,16,-1,1
-0.32964154210775254,16,16,-1,1
-0.34517889654294076,17,16,-1,1
-0.016159674257303108,18,16,-1,1
-0.584751104575079,19,16,-1,1
-2.6226972166555247,20,16,-1,1
-1.4364095613399916,21,16,-1,1
0.8153253012174386,22,16,-1,1
1.877580663349545,23,16,-1,1
-0.3038053450512374,24,16,-1,1
-0.3024736427551114,25,16,-1,1
-0.13729070064189483,26,16,-1,1
1.6365126515933504,27,16,-1,1
-1.269606735300242,28,16,-1,1
-2.3802576079069406,29,16,-1,1
-2.7336382185295225,30,16,-1,1
0.10335264469580308,31,16,-1,1
-0.2957563559044793,32,16,-1,1
0.1263854817503155,33,16,-1,1
0.28032084377412875,34,16,-1,1
2.24855142992714,35,16,-1,1
1.237580308460329,36,16,-1,1
-0.4165512508482364,37,16,-1,1
-0.6014688133789631,38,16,-1,1
-0.24292648585759996,39,16,-1,1
-0.1543073275550288,40,16,-1,1
0.46165906847787797,41,16,-1,1
0.6143115105353698,42,16,-1,1
2.0348548026073954,43,16,-1,1
0.9205325130336375,44,16,-1,1
0.24954546292649984,45,16,-1,1
1.173904963120852,46,16,-1,1
0.6313503405396402,47,16,-1,1
0.12245607988465192,48,16,-1,1
-0.747655467719503,49,16,-1,1
-0.0792217706908489,50,16,-1,1
-0.579510490887164,51,16,-1,1
0.4545480336290389,52,16,-1,1
1.8717944897804544,53,16,-1,1
1.107329581885024,54,16,-1,1
0.08007115577054118,55,16,-1,1
0.14334281948207708,56,16,-1,1
-0.5542383342798519,57,16,-1,1
-1.293037794036729,58,16,-1,1
-1.501800633525493,59,16,-1,1
-1.6149252357773212,60,16,-1,1
-1.2674582824019838,61,16,-1,1
-0.08221056841746362,62,16,-1,1
-0.14511235933723246,63,16,-1,1
0.009173488917195313,0,17,-1,1
-0.14387022726274712,1,17,-1,1
0.5013908285529282,2,17,-1,1
1.0685272941253299,3,17,-1,1
0.10174649313316153,4,17,-1,1
-0.08751646006848682,5,17,-1,1
0.25954354564600796,6,17,-1,1
-0.0662435397023373,7,17,-1,1
-0.011220762693308264,8,17,-1,1
-0.12619171554932662,9,17,-1,1
-0.18814251666139103,10,17,-1,1
0.7435792522239747,11,17,-1,1
0.6734627889682487,12,17,-1,1
-0.9974364765182715,13,17,-1,1
-1.2681135915044672,14,17,-1,1
-0.13299384002042947,15,17,-1,1
-0.0018373027329621169,16,17,-1,1
-0.6381278972677192,17,17,-1,1
-0.693713823416688,18,17,-1,1
0.0758762064304612,19,17,-1,1
0.41386148912553855,20,17,-1,1
-1.906721758870195,21,17,-1,1
-0.46206712007678175,22,17,-1,1
0.21222027583704867,23,17,-1,1
-0.0741348084885266,24,17,-1,1
0.8682763746421523,25,17,-1,1
0.2616332290659221,26,17,-1,1
-1.5889238823065464,27,17,-1,1
-0.43436696534471836,28,17,-1,1
-0.373474673380083,29,17,-1,1
0.6073112355269548,30,17,-1,1
-0.0058452384248851305,31,17,-1,1
5.697294598572517e-05,32,17,-1,1
-1.4403295521965436,33,17,-1,1
-1.737034825400869,34,17,-1,1
-0.4559552552015682,35,17,-1,1
-1.5352366853312611,36,17,-1,1
-2.2719895917671513,37,17,-1,1
-0.9499992819567934,38,17,-1,1
0.2634693180145811,39,17,-1,1
-0.0734524748100152,40,17,-1,1
0.03210048109308197,41,17,-1,1
0.3316680576723874,42,17,-1,1
-0.4212656077144357,43,17,-1,1
-1.2381317420310403,44,17,-1,1
-0.3534668370315208,45,17,-1,1
0.6741693801784784,46,17,-1,1
0.20428953329964428,47,17,-1,1
-0.12574966009921554,48,17,-1,1
0.05592798271461264,49,17,-1,1
-0.26825418941717033,50,17,-1,1
-0.7309149425363426,51,17,-1,1
-0.7944589748508122,52,17,-1,1
-0.6730575091043132,53,17,-1,1
-0.03540510591200433,54,17,-1,1
-0.16699917205019893,55,17,-1,1
-0.21782932811455055,56,17,-1,1
-0.2835279467240342,57,17,-1,1
0.1947974422631304,58,17,-1,1
0.6906304516353352,59,17,-1,1
0.9125789174487763,60,17,-1,1
1.2507556855177497,61,17,-1,1
0.07522941071814886,62,17,-1,1
-0.056713679743712074,63,17,-1,1
-0.025229839768702828,0,18,-1,1
-0.09750247750458012,1,18,-1,1
-0.007542201758872297,2,18,-1,1
0.3915686213851225,3,18,-1,1
-0.24700525825828412,4,18,-1,1
-0.06847899959561851,5,18,-1,1
-0.14406114687345295,6,18,-1,1
0.14074084591813157,7,18,-1,1
0.02763032667996477,8,18,-1,1
0.06146063221404298,9,18,-1,1
-0.6907850101672534,10,18,-1,1
-0.37985402210492303,11,18,-1,1
-1.14234260312338,12,18,-1,1
-1.6634973195466851,13,18,-1,1
-0.5668201192139453,14,18,-1,1
0.09193564093301242,15,18,-1,1
-0.07768735828908595,16,18,-1,1
-0.7815206928668772,17,18,-1,1
-0.7721882711619623,18,18,-1,1
-0.4120437852277243,19,18,-1,1
0.49666313458139555,20,18,-1,1
-0.32942411945332556,21,18,-1,1
0.13710584914765236,22,18,-1,1
0.4412557474851849,23,18,-1,1
0.06464912973018487,24,18,-1,1
-0.4163347466021947,25,18,-1,1
0.45377691730717173,26,18,-1,1
0.033423511086290776,27,18,-1,1
1.5445694892568722,28,18,-1,1
-1.2237578066489658,29,18,-1,1
-0.595918144747932,30,18,-1,1
0.4435021392897306,31,18,-1,1
0.31704093147423745,32,18,-1,1
-0.21474046118688342,33,18,-1,1
0.055034226113260094,34,18,-1,1
0.8177039006563128,35,18,-1,1
0.30710670970104503,36,18,-1,1
-1.95630311652062,37,18,-1,1
0.17634270407217736,38,18,-1,1
0.4936647322177392,39,18,-1,1
-0.18353341965434436,40,18,-1,1
0.9188076578068014,41,18,-1,1
-0.017609668704073964,42,18,-1,1
0.8006156526630309,43,18,-1,1
-0.5922724030494578,44,18,-1,1
-0.8320268475244474,45,18,-1,1
1.2386767611286038,46,18,-1,1
0.39666756003466175,47,18,-1,1
0.13397689541130092,48,18,-1,1
0.1393461453928605,49,18,-1,1
-0.9752725558841963,50,18,-1,1
-2.1950188471960006,51,18,-1,1
-2.266168982139225,52,18,-1,1
-0.5197397588432645,53,18,-1,1
0.11843720829633202,54,18,-1,1
-0.04084046639669881,55,18,-1,1
-0.002865632660821157,56,18,-1,1
0.0688449909030802,57,18,-1,1
-0.058826169272072557,58,18,-1,1
-0.3031842018807004,59,18,-1,1
0.24621338252804578,60,18,-1,1
0.15268035049871606,61,18,-1,1
0.268461931159153,62,18,-1,1
0.11857935068815875,63,18,-1,1
0.07012859242639093,0,19,-1,1
0.28276631191843754,1,19,-1,1
-0.031761514462101154,2,19,-1,1
0.016706576770878275,3,19,-1,1
1.058238103838747,4,19,-1,1
0.33814016828697635,5,19,-1,1
-0.013823066073573035,6,19,-1,1
0.03700543327536106,7,19,-1,1
0.13761340909280587,8,19,-1,1
-0.9276324567068921,9,19,-1,1
-0.8390718742450016,10,19,-1,1
-1.7875045814664343,11,19,-1,1
-2.1009665680641887,12,19,-1,1
1.1739870545996334,13,19,-1,1
1.9260046785823564,14,19,-1,1
0.506273188582828,15,19,-1,1
0.049728571098794444,16,19,-1,1
-0.3479986487370655,17,19,-1,1
0.8399009014218239,18,19,-1,1
1.3152135563346592,19,19,-1,1
-2.1090414087612053,20,19,-1,1
0.13358732483520244,21,19,-1,1
0.30601291662896335,22,19,-1,1
1.571661379671234,23,19,-1,1
0.09521162205828479,24,19,-1,1
1.3981200628374013,25,19,-1,1
2.1563368907556333,26,19,-1,1
1.803372408379589,27,19,-1,1
-1.4787464126816887,28,19,-1,1
-0.3878791729350436,29,19,-1,1
-3.480421249984741,30,19,-1,1
-0.14610943426898562,31,19,-1,1
0.369521052073811,32,19,-1,1
-1.2705454315013018,33,19,-1,1
-1.5854917849736583,34,19,-1,1
-3.0846189753307,35,19,-1,1
-2.0963192055587654,36,19,-1,1
0.24679142017438382,37,19,-1,1
-0.6731500380972323,38,19,-1,1
-0.4336007090726119,39,19,-1,1
0.1754482684747543,40,19,-1,1
-0.7612927607677342,41,19,-1,1
-1.7527894935915764,42,19,-1,1
-0.6751699453906514,43,19,-1,1
-0.5589968416370211,44,19,-1,1
-0.5475354431953591,45,19,-1,1
-0.28007199327612203,46,19,-1,1
0.22168770170248184,47,19,-1,1
-0.041819678385507014,48,19,-1,1
-0.4817453057108942,49,19,-1,1
0.181251344684666,50,19,-1,1
0.8772296728819313,51,19,-1,1
0.7654121304314876,52,19,-1,1
0.5955207480828425,53,19,-1,1
-0.07516950411773791,54,19,-1,1
0.43916398751255925,55,19,-1,1
-0.10368692619537781,56,19,-1,1
0.2818906419096913,57,19,-1,1
0.21523709634439508,58,19,-1,1
0.3680154984220693,59,19,-1,1
0.40557769455190174,60,19,-1,1
-0.27592889450138036,61,19,-1,1
0.06112508986094593,62,19,-1,1
-0.08959060376760779,63,19,-1,1
0.2203685402490036,0,20,-1,1
-0.10279866980185724,1,20,-1,1
-0.1116018100778602,2,20,-1,1
0.17997875758285153,3,20,-1,1
0.24414302920810335,4,20,-1,1
0.13557912651571355,5,20,-1,1
-0.23120400395791846,6,20,-1,1
0.13531538562994383,7,20,-1,1
-0.013298592553621374,8,20,-1,1
0.02942733317610971,9,20,-1,1
0.41085042269531535,10,20,-1,1
-0.2105658614403239,11,20,-1,1
-1.1214967072770075,12,20,-1,1
-1.0042277112610236,13,20,-1,1
-0.11803049661076497,14,20,-1,1
0.09882851289918308,15,20,-1,1
0.24645001192721963,16,20,-1,1
0.12327679874240853,17,20,-1,1
0.0320276175515818,18,20,-1,1
-0.35781084736761826,19,20,-1,1
-0.5022785732132269,20,20,-1,1
-0.13967216756746628,21,20,-1,1
0.24510840639801545,22,20,-1,1
-0.4138074911770523,23,20,-1,1
0.1751596275659141,24,20,-1,1
0.0025288715801291546,25,20,-1,1
-0.6164507015883626,26,20,-1,1
-0.3576513609954407,27,20,-1,1
0.02780298036393685,28,20,-1,1
-0.20973561687159845,29,20,-1,1
0.44784760741828616,30,20,-1,1
0.15158884780884016,31,20,-1,1
-0.16889913660205033,32,20,-1,1
0.14983150080317836,33,20,-1,1
-0.4740461706016089,34,20,-1,1
-0.8240963232017288,35,20,-1,1
-0.5130768444632239,36,20,-1,1
-0.2231157976850047,37,20,-1,1
0.0033931190349854095,38,20,-1,1
0.4440950266506068,39,20,-1,1
0.11562176828227406,40,20,-1,1
-0.09751582259300155,41,20,-1,1
-0.7334560652300067,42,20,-1,1
-1.3798937777935973,43,20,-1,1
-1.2776239023453357,44,20,-1,1
-0.845083527194118,45,20,-1,1
0.3146779281152766,46,20,-1,1
0.20137710918704632,47,20,-1,1
-0.09021238540551373,48,20,-1,1
0.19009886361238706,49,20,-1,1
-0.17881400561948055,50,20,-1,1
-1.3031463823083391,51,20,-1,1
-0.9401638446372323,52,20,-1,1
-0.2716650081152364,53,20,-1,1
0.06702192759030699,54,20,-1,1
-0.17274799091020213,55,20,-1,1
-0.3527681091337137,56,20,-1,1
0.10497931443549668,57,20,-1,1
0.3497091877930299,58,20,-1,1
0.6129852582067932,59,20,-1,1
0.6633306635194063,60,20,-1,1
0.5109729974375407,61,20,-1,1
-0.07791698425405458,62,20,-1,1
0.02766823671767468,63,20,-1,1
-0.17057885289464195,0,21,-1,1
-0.1039120384643004,1,21,-1,1
-0.10088442903629262,2,21,-1,1
-0.14767462265535167,3,21,-1,1
-0.4174367556805832,4,21,-1,1
-0.5161440762406392,5,21,-1,1
-0.31272093188420735,6,21,-1,1
0.03365179179300757,7,21,-1,1
-0.09944150087964977,8,21,-1,1
0.09966239531199284,9,21,-1,1
0.27573945437802766,10,21,-1,1
1.9494803552400148,11,21,-1,1
3.3143043542052015,12,21,-1,1
2.4418805763021556,13,21,-1,1
0.7662667427850257,14,21,-1,1
-0.12380100260025077,15,21,-1,1
-0.4687246941228741,16,21,-1,1
-0.3309660851809477,17,21,-1,1
-1.390313253262441,18,21,-1,1
0.17110129636144003,19,21,-1,1
-1.3792162925253943,20,21,-1,1
-2.1025863247222767,21,21,-1,1
-1.6398160357777798,22,21,-1,1
-0.9049398495733895,23,21,-1,1
-0.8014014379283199,24,21,-1,1
-0.6793712787213193,25,21,-1,1
-0.2339302081359618,26,21,-1,1
1.4151395304203067,27,21,-1,1
-0.8664261766495283,28,21,-1,1
0.09911450913796252,29,21,-1,1
0.5433779772833517,30,21,-1,1
-0.2223251267186848,31,21,-1,1
-0.46020036825102234,32,21,-1,1
0.33159732439616996,33,21,-1,1
1.3027262604141205,34,21,-1,1
2.988747994640515,35,21,-1,1
0.9814890917584961,36,21,-1,1
0.09180890135904822,37,21,-1,1
0.7393739131470354,38,21,-1,1
0.08031189959304505,39,21,-1,1
0.14641261916862755,40,21,-1,1
-0.3931683550785672,41,21,-1,1
0.9466188070382597,42,21,-1,1
-0.8116387750565396,43,21,-1,1
0.33552888656041674,44,21,-1,1
1.8450227249361555,45,21,-1,1
0.7623110653855125,46,21,-1,1
-0.2923331559618892,47,21,-1,1
-0.19040020129972815,48,21,-1,1
0.2806888025728248,49,21,-1,1
0.5016317830771108,50,21,-1,1
0.9911798147862152,51,21,-1,1
1.5649861064528687,52,21,-1,1
1.2194710013976198,53,21,-1,1
0.046531750249881376,54,21,-1,1
-0.1528896047251101,55,21,-1,1
0.023385813934010128,56,21,-1,1
0.0350568150469602,57,21,-1,1
-0.13105249587025633,58,21,-1,1
-0.2685444340745957,59,21,-1,1
-1.010739542287084,60,21,-1,1
-0.20533692284337354,61,21,-1,1
0.07712307328784335,62,21,-1,1
-0.2573372910148197,63,21,-1,1
0.1334496332652131,0,22,-1,1
-0.190210464459134,1,22,-1,1
-0.27412324160837015,2,22,-1,1
0.08388686507889746,3,22,-1,1
-0.049026955687341243,4,22,-1,1
0.1753764876340243,5,22,-1,1
-0.17963696303246324,6,22,-1,1
0.05826240137713441,7,22,-1,1
-0.27580162738199115,8,22,-1,1
-0.19369325028913825,9,22,-1,1
0.643492390124423,10,22,-1,1
-0.5050637176031116,11,22,-1,1
-0.4257660402669655,12,22,-1,1
-0.6404639252234204,13,22,-1,1
-0.40635783729306807,14,22,-1,1
-0.15545055944225605,15,22,-1,1
-0.09485421173170985,16,22,-1,1
-0.24027983696321792,17,22,-1,1
-0.2750984521941951,18,22,-1,1
-1.4095751504682674,19,22,-1,1
-1.3227617083159766,20,22,-1,1
-0.7753596393008794,21,22,-1,1
-0.794554386887582,22,22,-1,1
-0.17658137232219265,23,22,-1,1
-0.06521010727166843,24,22,-1,1
-0.4770686568440781,25,22,-1,1
-0.4336714596377641,26,22,-1,1
-0.08632233450424512,27,22,-1,1
-2.017808852648598,28,22,-1,1
0.5811317794544052,29,22,-1,1
-0.9452847248277279,30,22,-1,1
-0.24316323351243233,31,22,-1,1
-0.1183739435865343,32,22,-1,1
-0.7906480830350937,33,22,-1,1
0.07124576626040054,34,22,-1,1
-0.4809954060956212,35,22,-1,1
-0.8839982597410938,36,22,-1,1
1.1734745094145513,37,22,-1,1
-0.9825989522084431,38,22,-1,1
-0.3403979347115503,39,22,-1,1
0.2674513289491695,40,22,-1,1
-0.9606268638436194,41,22,-1,1
-0.8917331227557903,42,22,-1,1
-1.946921088883239,43,22,-1,1
-1.441409146804176,44,22,-1,1
-0.29615841235126206,45,22,-1,1
-0.5555866593967326,46,22,-1,1
-0.2865950203315977,47,22,-1,1
0.03680829318697839,48,22,-1,1
-0.3573761021673354,49,22,-1,1
-1.3586828473646606,50,22,-1,1
-0.6031839864280741,51,22,-1,1
-1.3390911377654464,52,22,-1,1
-0.7737876059267037,53,22,-1,1
0.15163871731444958,54,22,-1,1
-0.20981837032272121,55,22,-1,1
-0.0717930004286598,56,22,-1,1
-0.1817168578513041,57,22,-1,1
0.7417980410864686,58,22,-1,1
0.38162088984200826,59,22,-1,1
0.3733877168025836,60,22,-1,1
-0.10248019876528719,61,22,-1,1
0.10170838841904506,62,22,-1,1
-0.16860679875343343,63,22,-1,1
-0.04010817976233755,0,23,-1,1
-0.00585945610008929,1,23,-1,1
-0.13242617200416104,2,23,-1,1
0.09808881268649507,3,23,-1,1
-0.11124571496472245,4,23,-1,1
0.03590579941478269,5,23,-1,1
-0.013702223306795037,6,23,-1,1
0.07957864458567558,7,23,-1,1
0.061692290922851105,8,23,-1,1
-0.12462729282886999,9,23,-1,1
0.1752966289130594,10,23,-1,1
-0.4967834487896858,11,23,-1,1
-0.21973741065349223,12,23,-1,1
-0.047667230455108296,13,23,-1,1
0.04229906322215487,14,23,-1,1
-0.0002402988118555278,15,23,-1,1
0.009674790169111516,16,23,-1,1
-0.2120459168066771,17,23,-1,1
0.03583581840369085,18,23,-1,1
-0.2664389942054091,19,23,-1,1
0.23978963672155035,20,23,-1,1
0.47295149503921763,21,23,-1,1
0.010129482553469245,22,23,-1,1
-0.0980241155161198,23,23,-1,1
0.1819366750871508,24,23,-1,1
0.09017010581234028,25,23,-1,1
-0.05249597122652678,26,23,-1,1
-0.334774852911827,27,23,-1,1
0.6261865575430068,28,23,-1,1
0.12418445481809183,29,23,-1,1
-0.05201319046318907,30,23,-1,1
-0.16429768127087072,31,23,-1,1
0.12499962862014523,32,23,-1,1
-0.16056439392824615,33,23,-1,1
-0.47488370699056576,34,23,-1,1
-0.02132477982983469,35,23,-1,1
0.16505252605133838,36,23,-1,1
-0.4110466451242743,37,23,-1,1
-0.21961687378170222,38,23,-1,1
-0.04228596789588702,39,23,-1,1
-0.20126115499913297,40,23,-1,1
-0.12251931289571567,41,23,-1,1
-0.2964876924125992,42,23,-1,1
0.025302055284260546,43,23,-1,1
-0.07605330268456321,44,23,-1,1
-0.0802211630403263,45,23,-1,1
0.025698390576131484,46,23,-1,1
0.05594584413975885,47,23,-1,1
-0.18675599363472545,48,23,-1,1
0.07431946717671929,49,23,-1,1
0.0671505147511801,50,23,-1,1
-0.18710351282122062,51,23,-1,1
-0.2604864142517784,52,23,-1,1
0.24918407123800845,53,23,-1,1
0.28317320979619764,54,23,-1,1
0.1110185852118255,55,23,-1,1
0.047426333649494265,56,23,-1,1
0.22702189560279837,57,23,-1,1
0.12417878106218985,58,23,-1,1
0.21132082198636215,59,23,-1,1
0.1850971762302158,60,23,-1,1
0.27110302591184,61,23,-1,1
0.29904454526083063,62,23,-1,1
0.12519339247378722,63,23,-1,1
0.1030048441598408,0,24,-1,1
-0.17976050259749093,1,24,-1,1
-0.41967106850878716,2,24,-1,1
-0.5487011695202509,3,24,-1,1
-0.20322998308365142,4,24,-1,1
-0.36573772958309186,5,24,-1,1
-0.07835945993545555,6,24,-1,1
-0.3834598444126084,7,24,-1,1
-0.0893399649075337,8,24,-1,1
0.5065785437646657,9,24,-1,1
2.086351301369761,10,24,-1,1
1.7285400812224838,11,24,-1,1
0.4345101190614274,12,24,-1,1
1.3683257190384395,13,24,-1,1
1.9016387048514307,14,24,-1,1
0.7125235428316491,15,24,-1,1
-0.31650251759931247,16,24,-1,1
0.17285622598394798,17,24,-1,1
-0.3277883990048989,18,24,-1,1
0.080770658030745,19,24,-1,1
0.5469563409258301,20,24,-1,1
-1.4458188330927568,21,24,-1,1
-0.0274779701460793,22,24,-1,1
0.7593459506933141,23,24,-1,1
-0.012920032421912557,24,24,-1,1
-0.2815571793916469,25,24,-1,1
-0.7405926554322632,26,24,-1,1
-0.3747728777695526,27,24,-1,1
-1.2698283035902218,28,24,-1,1
-2.113732908036074,29,24,-1,1
-5.262398999400158,30,24,-1,1
-0.8912795384613361,31,24,-1,1
0.6904374301351477,32,24,-1,1
-2.8391967994148506,33,24,-1,1
-3.1337656712206736,34,24,-1,1
0.3228816665603569,35,24,-1,1
-1.3255671212132283,36,24,-1,1
1.0293854457564107,37,24,-1,1
0.5125085560592165,38,24,-1,1
-0.38790622214814646,39,24,-1,1
0.938982349527259,40,24,-1,1
-0.852564910720869,41,24,-1,1
-4.580423254955575,42,24,-1,1
-5.21119384710515,43,24,-1,1
0.008377413779452367,44,24,-1,1
1.1525389612798322,45,24,-1,1
1.7567628412841771,46,24,-1,1
0.26003819310457765,47,24,-1,1
0.35588466375813976,48,24,-1,1
0.9804027485269998,49,24,-1,1
3.033111519130315,50,24,-1,1
3.288460804323791,51,24,-1,1
1.3121250702654783,52,24,-1,1
0.9194181663948499,53,24,-1,1
-0.07213591556187034,54,24,-1,1
-0.3032439353190679,55,24,-1,1
0.06097600503627801,56,24,-1,1
0.19912341999231634,57,24,-1,1
-0.15537288245704425,58,24,-1,1
-1.0436439211474053,59,24,-1,1
-0.0645704724739178,60,24,-1,1
-0.923629076128388,61,24,-1,1
-0.33329138211623116,62,24,-1,1
-0.01933295640990753,63,24,-1,1
0.058204601035852066,0,25,-1,1
-0.11015708299595882,1,25,-1,1
-0.008141188869857706,2,25,-1,1
0.3853251000359387,3,25,-1,1
0.5934707985289618,4,25,-1,1
0.8403729855224642,5,25,-1,1
0.5326115698922333,6,25,-1,1
-0.13827927735957576,7,25,-1,1
-0.02047169590558426,8,25,-1,1
0.0953387091288871,9,25,-1,1
-0.597147791774887,10,25,-1,1
-2.053713777635539,11,25,-1,1
-1.3174711882713253,12,25,-1,1
0.10487556304702451,13,25,-1,1
0.6928200966801112,14,25,-1,1
0.3381641370898854,15,25,-1,1
-0.1114638572593116,16,25,-1,1
0.7985087717290265,17,25,-1,1
0.062061318228031744,18,25,-1,1
0.026743040173714,19,25,-1,1
-2.1870389495913733,20,25,-1,1
-2.660548163303896,21,25,-1,1
0.19174520618974503,22,25,-1,1
0.1911185917304466,23,25,-1,1
-0.3248688676285498,24,25,-1,1
1.2814087088977872,25,25,-1,1
2.681849517713102,26,25,-1,1
3.113749164242904,27,25,-1,1
3.148487112995345,28,25,-1,1
-0.18463246539696912,29,25,-1,1
0.06163462728585389,30,25,-1,1
-0.43321944871752666,31,25,-1,1
-0.15726240698821792,32,25,-1,1
-0.6472917752165422,33,25,-1,1
-0.7323492328705982,34,25,-1,1
1.6546233613729757,35,25,-1,1
2.0964566431492906,36,25,-1,1
-0.6065890812366039,37,25,-1,1
1.2912201509396348,38,25,-1,1
-0.6087160716589864,39,25,-1,1
0.052194180564292474,40,25,-1,1
-1.652261148392627,41,25,-1,1
-1.5903922827449664,42,25,-1,1
-0.2796765585509971,43,25,-1,1
0.12297348161042122,44,25,-1,1
-0.2647725459858331,45,25,-1,1
-0.5085781097069684,46,25,-1,1
-0.9961261607937502,47,25,-1,1
0.007485731901211498,48,25,-1,1
0.13733873281170017,49,25,-1,1
0.03536944188691058,50,25,-1,1
-0.17550514817880922,51,25,-1,1
1.2711812537112717,52,25,-1,1
-0.035752844021690086,53,25,-1,1
-1.4377047014262607,54,25,-1,1
-0.28208278538878784,55,25,-1,1
0.11155831029607981,56,25,-1,1
-0.012941048124056814,57,25,-1,1
1.0382560033827437,58,25,-1,1
1.0000256963849052,59,25,-1,1
-0.24436068533710897,60,25,-1,1
0.3862994597180723,61,25,-1,1
-0.1480561390243916,62,25,-1,1
0.06567710930535506,63,25,-1,1
-0.25876852182248383,0,26,-1,1
-0.3202107903172685,1,26,-1,1
-0.11353036380830629,2,26,-1,1
0.18073039556915943,3,26,-1,1
-0.023627521158393564,4,26,-1,1
0.2709123211102022,5,26,-1,1
-0.261200517792961,6,26,-1,1
0.14175606314397532,7,26,-1,1
-0.3054536948272703,8,26,-1,1
0.03974099836662274,9,26,-1,1
0.9220040279596474,10,26,-1,1
1.4950868022984776,11,26,-1,1
1.0983235802291966,12,26,-1,1
1.148494649751065,13,26,-1,1
0.3896092797892679,14,26,-1,1
-0.131862774479881,15,26,-1,1
-0.3612143476128632,16,26,-1,1
0.6958834972252389,17,26,-1,1
1.8669342319460434,18,26,-1,1
1.5702838982879572,19,26,-1,1
-1.3162773426529888,20,26,-1,1
-1.0796962843373425,21,26,-1,1
-1.2951163395525738,22,26,-1,1
-1.0154745269688643,23,26,-1,1
-0.18933263606571143,24,26,-1,1
0.6157928728935051,25,26,-1,1
0.5013432808629159,26,26,-1,1
-1.492017896727934,27,26,-1,1
0.18277519436093043,28,26,-1,1
2.099975018641974,29,26,-1,1
0.945489316383203,30,26,-1,1
-0.43213210953787984,31,26,-1,1
-0.28136836537780263,32,26,-1,1
1.1941773625188632,33,26,-1,1
0.9565809868974992,34,26,-1,1
-0.3081190703066554,35,26,-1,1
-0.3589211798954481,36,26,-1,1
1.161517081581241,37,26,-1,1
2.3221890125814677,38,26,-1,1
0.2355390078665949,39,26,-1,1
-0.011856963248594636,40,26,-1,1
-0.8153471769445384,41,26,-1,1
0.7426277244806355,42,26,-1,1
-0.17959650727107387,43,26,-1,1
0.4606442052101451,44,26,-1,1
1.4457732073673375,45,26,-1,1
1.4970353808959607,46,26,-1,1
-0.12821628560645285,47,26,-1,1
-0.20059808297845083,48,26,-1,1
0.5350351643555817,49,26,-1,1
0.27883978858692543,50,26,-1,1
0.5900246836235745,51,26,-1,1
2.3349463472098466,52,26,-1,1
1.1525327180207956,53,26,-1,1
0.0004946550791158574,54,26,-1,1
-0.2241738503238638,55,26,-1,1
0.18912468496416704,56,26,-1,1
-0.4674996334612923,57,26,-1,1
-0.003831923441155945,58,26,-1,1
0.2004221965855929,59,26,-1,1
-0.49706071340030933,60,26,-1,1
-0.3534664562309184,61,26,-1,1
-0.13186267988504455,62,26,-1,1
-0.14484401658494692,63,26,-1,1
0.03767087959797847,0,27,-1,1
0.2247379526642594,1,27,-1,1
0.0032345621406531322,2,27,-1,1
0.16700926837065844,3,27,-1,1
0.09103440562944101,4,27,-1,1
1.0242042979982986,5,27,-1,1
0.30838665386371467,6,27,-1,1
-0.036700476686672805,7,27,-1,1
-0.19895866504968818,8,27,-1,1
-0.18240726306369542,9,27,-1,1
0.05779517735960574,10,27,-1,1
-1.1140927440238637,11,27,-1,1
-0.8276379266922014,12,27,-1,1
0.5980013411420764,13,27,-1,1
0.6781908064800346,14,27,-1,1
0.15367679339664272,15,27,-1,1
-0.10532181594622074,16,27,-1,1
-0.5463703165455149,17,27,-1,1
0.09708909939288933,18,27,-1,1
-0.5682021089595725,19,27,-1,1
-2.0394963766601033,20,27,-1,1
-1.880218469356598,21,27,-1,1
-0.8480335725759407,22,27,-1,1
-0.7361568970878462,23,27,-1,1
-0.23141125828451928,24,27,-1,1
1.5244274319311044,25,27,-1,1
1.1703669740065152,26,27,-1,1
0.2529903044706128,27,27,-1,1
-0.7662674559858058,28,27,-1,1
-0.6369891738261115,29,27,-1,1
2.047002561129597,30,27,-1,1
-0.3388234075589706,31,27,-1,1
-0.327523097307283,32,27,-1,1
0.07730967739491705,33,27,-1,1
-0.11350312982241914,34,27,-1,1
1.3496413690043962,35,27,-1,1
0.4857996809173242,36,27,-1,1
-0.041037992121533445,37,27,-1,1
0.4089300555544552,38,27,-1,1
-0.6248929983025651,39,27,-1,1
-0.07066421602615532,40,27,-1,1
-3.652963162369374,41,27,-1,1
0.15273422970549008,42,27,-1,1
2.9147960400885276,43,27,-1,1
-0.49728527356360225,44,27,-1,1
-0.33538820709641526,45,27,-1,1
-1.8651854600713171,46,27,-1,1
-0.907325113604197,47,27,-1,1
0.015489714549182878,48,27,-1,1
-0.42757426111896396,49,27,-1,1
-0.482518766242906,50,27,-1,1
-0.23368251264827614,51,27,-1,1
-0.07001958738427752,52,27,-1,1
-0.9035677529236571,53,27,-1,1
-0.358784666792313,54,27,-1,1
0.008383203782669293,55,27,-1,1
-0.17134513045638483,56,27,-1,1
0.25800418374398365,57,27,-1,1
1.380061416264127,58,27,-1,1
0.9522019861706656,59,27,-1,1
-0.3061710926221453,60,27,-1,1
0.5431096039561305,61,27,-1,1
0.22609318064186854,62,27,-1,1
-0.04952279018374115,63,27,-1,1
-0.08491063581825917,0,28,-1,1
0.13462755077046976,1,28,-1,1
-0.22109636547377243,2,28,-1,1
-0.18886607886335066,3,28,-1,1
1.121823691142149,4,28,-1,1
1.163111047099749,5,28,-1,1
0.10225948034958236,6,28,-1,1
-0.17776368198048856,7,28,-1,1
-0.08381355247668822,8,28,-1,1
-0.23904391592102853,9,28,-1,1
0.07008749918636326,10,28,-1,1
-1.171736214836664,11,28,-1,1
-1.6370203121988778,12,28,-1,1
-0.6754082365507645,13,28,-1,1
1.0757708548739089,14,28,-1,1
0.4982892002112944,15,28,-1,1
0.38659198701389136,16,28,-1,1
-0.618171637272266,17,28,-1,1
-1.973053436980269,18,28,-1,1
-5.602322144141299,19,28,-1,1
-5.548334807381343,20,28,-1,1
-2.6267168290743417,21,28,-1,1
-1.0070421896792683,22,28,-1,1
0.8999741568716575,23,28,-1,1
0.13100921552606368,24,28,-1,1
-0.5000478844825569,25,28,-1,1
0.4289036923833449,26,28,-1,1
2.4104647209904244,27,28,-1,1
1.6003167291860436,28,28,-1,1
-1.7098033102354195,29,28,-1,1
-1.267678246560038,30,28,-1,1
0.3142668690286763,31,28,-1,1
-0.20012567503481374,32,28,-1,1
1.7637268026590827,33,28,-1,1
2.39527196191401,34,28,-1,1
2.3066380483864792,35,28,-1,1
2.6483259884336685,36,28,-1,1
1.7893611275816816,37,28,-1,1
2.950172138763148,38,28,-1,1
-0.3071040098729059,39,28,-1,1
-0.07707190720282919,40,28,-1,1
-0.009452378174770883,41,28,-1,1
-0.08970849672365712,42,28,-1,1
2.6250113436257783,43,28,-1,1
2.8016800431620346,44,28,-1,1
0.09871163026165795,45,28,-1,1
-1.246193713571116,46,28,-1,1
-0.17357147881033685,47,28,-1,1
0.21893844162661874,48,28,-1,1
-0.9933228396207495,49,28,-1,1
-2.0591354162226168,50,28,-1,1
-2.718371922331958,51,28,-1,1
-1.2998266401255416,52,28,-1,1
-0.897714682297005,53,28,-1,1
-0.8294063442116107,54,28,-1,1
0.23323097343081953,55,28,-1,1
-0.11092210872843966,56,28,-1,1
-0.03354461654953555,57,28,-1,1
-1.2184932134291981,58,28,-1,1
-2.9593917964779592,59,28,-1,1
-2.991859685754822,60,28,-1,1
-1.976240982716575,61,28,-1,1
0.08117024909194594,62,28,-1,1
0.003756841106328905,63,28,-1,1
0.013421018112208265,0,29,-1,1
0.16897393783766765,1,29,-1,1
0.2463410950068175,2,29,-1,1
0.10885408109192282,3,29,-1,1
0.4454681743087864,4,29,-1,1
-0.39425894102147946,5,29,-1,1
0.10352247344890599,6,29,-1,1
0.17100111310300042,7,29,-1,1
0.256351615630401,8,29,-1,1
0.19361085320349186,9,29,-1,1
-1.5451654289865864,10,29,-1,1
0.8225697271301537,11,29,-1,1
-0.37222185435253974,12,29,-1,1
-0.3796334990863659,13,29,-1,1
1.3729066782261141,14,29,-1,1
-0.047809327583711154,15,29,-1,1
0.027492580194417807,16,29,-1,1
-0.2729182242516845,17,29,-1,1
-1.9157546179191751,18,29,-1,1
-1.4050119651503619,19,29,-1,1
-0.23541065117500595,20,29,-1,1
-2.1989475157283214,21,29,-1,1
-0.6481707904633743,22,29,-1,1
-0.2515893241789033,23,29,-1,1
0.04811029012119522,24,29,-1,1
0.24082063068880513,25,29,-1,1
-2.5094776121430358,26,29,-1,1
-3.0328186224331493,27,29,-1,1
4.409983580082853,28,29,-1,1
-4.122905431926014,29,29,-1,1
0.26912920079785857,30,29,-1,1
-0.15655970277927014,31,29,-1,1
-0.026104379943091748,32,29,-1,1
0.40532494823188964,33,29,-1,1
-3.9074780996510268,34,29,-1,1
0.8156530354297572,35,29,-1,1
0.6129431935819439,36,29,-1,1
-5.14381736242415,37,29,-1,1
0.7715035898977812,38,29,-1,1
-0.2859796085071728,39,29,-1,1
0.2800847365631568,40,29,-1,1
-0.3710851092250174,41,29,-1,1
-1.5277690016163394,42,29,-1,1
2.2169863160418277,43,29,-1,1
-1.1630698306149796,44,29,-1,1
-3.091914794623063,45,29,-1,1
-0.42821730334205993,46,29,-1,1
-0.1526010998648975,47,29,-1,1
-0.10312749045934112,48,29,-1,1
1.1550754761098707,49,29,-1,1
0.10182136100620211,50,29,-1,1
-2.9989236078302404,51,29,-1,1
1.2508055137445213,52,29,-1,1
0.6962333703609082,53,29,-1,1
-0.814671543162005,54,29,-1,1
-0.08133466405679887,55,29,-1,1
0.06988257111219465,56,29,-1,1
0.05914580217062261,57,29,-1,1
-0.4494762247426792,58,29,-1,1
-1.9645360754083452,59,29,-1,1
-1.3966155101519815,60,29,-1,1
0.12471522463945675,61,29,-1,1
0.1708188597681445,62,29,-1,1
0.0897290910170996,63,29,-1,1
0.07729904067967666,0,30,-1,1
0.1665725784333425,1,30,-1,1
-0.14314784571733546,2,30,-1,1
-0.326463610154543,3,30,-1,1
-0.03836216907506048,4,30,-1,1
0.1295178322130455,5,30,-1,1
0.1255431344683139,6,30,-1,1
-0.3146940810274204,7,30,-1,1
0.17969826334277988,8,30,-1,1
-0.6327089088431751,9,30,-1,1
-0.010067064344843163,10,30,-1,1
0.0803622282296611,11,30,-1,1
-0.17211756996941985,12,30,-1,1
-0.4760670053611404,13,30,-1,1
-0.3147758169052297,14,30,-1,1
0.534889282028954,15,30,-1,1
-0.12511034535873516,16,30,-1,1
-0.1741817321931503,17,30,-1,1
1.6124600647295058,18,30,-1,1
-2.2445767751608656,19,30,-1,1
-3.02750335370288,20,30,-1,1
-0.9906001493474029,21,30,-1,1
0.4860077645890456,22,30,-1,1
1.132388326557416,23,30,-1,1
-0.2420338596092686,24,30,-1,1
0.6717209781384366,25,30,-1,1
1.5985950603650425,26,30,-1,1
0.9177051928151899,27,30,-1,1
-1.2627815951411945,28,30,-1,1
0.29641571297236646,29,30,-1,1
-0.14851117589237908,30,30,-1,1
0.3259414800166257,31,30,-1,1
0.367334664748538,32,30,-1,1
-0.3651520323711998,33,30,-1,1
-0.42170643967773414,34,30,-1,1
-0.21292393953269678,35,30,-1,1
-2.597396355334915,36,30,-1,1
-0.9439515614121547,37,30,-1,1
0.15865105821377412,38,30,-1,1
-0.013676370732462624,39,30,-1,1
-0.09543189355200866,40,30,-1,1
-0.37265870482583313,41,30,-1,1
0.6672772377331935,42,30,-1,1
-0.07596196515164157,43,30,-1,1
-1.8075759519042105,44,30,-1,1
-0.3219355584520142,45,30,-1,1
0.6968525871570102,46,30,-1,1
-0.06409100931837698,47,30,-1,1
-0.27614498511734803,48,30,-1,1
-0.392862646486699,49,30,-1,1
-0.7314119419982469,50,30,-1,1
0.23121384617203852,51,30,-1,1
-0.12434284366606313,52,30,-1,1
0.6569150690334614,53,30,-1,1
0.528948383250933,54,30,-1,1
0.04970323896674245,55,30,-1,1
-0.06655975435777765,56,30,-1,1
0.04034710038450166,57,30,-1,1
-0.5936430690459824,58,30,-1,1
-0.8249538859769991,59,30,-1,1
0.12294377674226248,60,30,-1,1
-0.26731250481303187,61,30,-1,1
-0.0984090435817355,62,30,-1,1
0.14031339317755875,63,30,-1,1
0.05068417903177277,0,31,-1,1
0.08317693053112109,1,31,-1,1
0.2742873551357459,2,31,-1,1
-0.12500966317778392,3,31,-1,1
-1.0787864317116542,4,31,-1,1
-0.5400035392957617,5,31,-1,1
0.05489989926792056,6,31,-1,1
-0.1259311187730047,7,31,-1,1
0.11018097354323633,8,31,-1,1
-0.9205678534181599,9,31,-1,1
-1.1826391279702968,10,31,-1,1
-0.6818125526239512,11,31,-1,1
0.9885890322014473,12,31,-1,1
0.893860880585942,13,31,-1,1
0.24776024649263664,14,31,-1,1
0.1359698669556243,15,31,-1,1
-0.4553078505147341,16,31,-1,1
-2.1819781322196787,17,31,-1,1
1.0250916027401584,18,31,-1,1
0.8971628397728494,19,31,-1,1
-2.0622421617592908,20,31,-1,1
-1.9571156231304105,21,31,-1,1
-0.7091598500877481,22,31,-1,1
0.8466274795047752,23,31,-1,1
-0.4714092988520073,24,31,-1,1
-0.09483856884743525,25,31,-1,1
2.5147870720054644,26,31,-1,1
0.5863387548163913,27,31,-1,1
-4.191031046235214,28,31,-1,1
-0.4558909306403658,29,31,-1,1
0.30454248892344066,30,31,-1,1
0.2655055591726168,31,31,-1,1
-0.4271721515856149,32,31,-1,1
-0.4792957227136711,33,31,-1,1
3.0089067254436235,34,31,-1,1
2.318731449146872,35,31,-1,1
-0.5578646979538553,36,31,-1,1
0.9325509706620557,37,31,-1,1
-0.6696236692925385,38,31,-1,1
0.5336052226634146,39,31,-1,1
-0.6629341834872879,40,31,-1,1
-0.07618008271635866,41,31,-1,1
3.4923881617480843,42,31,-1,1
0.3900819248103992,43,31,-1,1
0.40827536609493287,44,31,-1,1
0.4759040609782315,45,31,-1,1
0.6052676088089932,46,31,-1,1
0.7853070894140965,47,31,-1,1
0.01811367256175022,48,31,-1,1
-1.1556276185685177,49,31,-1,1
0.25871811143139056,50,31,-1,1
0.6596763462107919,51,31,-1,1
-0.8855129027635672,52,31,-1,1
-0.7902233757612672,53,31,-1,1
1.276136929910094,54,31,-1,1
-0.17480799662315372,55,31,-1,1
0.06899218539013166,56,31,-1,1
-0.729369884073057,57,31,-1,1
-1.326116519632068,58,31,-1,1
-0.6751740508922545,59,31,-1,1
-0.3949799676813643,60,31,-1,1
-0.2654761235428233,61,31,-1,1
-0.0971230462742791,62,31,-1,1
0.051352679635845874,63,31,-1,1
-0.0026813326177429677,0,32,-1,1
-0.34058641271482937,1,32,-1,1
-0.07912412351428798,2,32,-1,1
1.0325718001987567,3,32,-1,1
1.4809840043836084,4,32,-1,1
1.0674698641169686,5,32,-1,1
0.40161905035315915,6,32,-1,1
-0.20466784785965703,7,32,-1,1
-0.35267776685069024,8,32,-1,1
0.5740647406205437,9,32,-1,1
1.4153476610337232,10,32,-1,1
1.6951575034255042,11,32,-1,1
1.3024220352604132,12,32,-1,1
0.5128038017797094,13,32,-1,1
-1.1355120550714624,14,32,-1,1
-0.6002650524631046,15,32,-1,1
-0.064782390837581,16,32,-1,1
0.9003265788870284,17,32,-1,1
-1.5492263265473318,18,32,-1,1
-2.081311891516622,19,32,-1,1
0.9132040268447791,20,32,-1,1
-1.2345150392119224,21,32,-1,1
-1.6245389646041197,22,32,-1,1
-1.5599377077177958,23,32,-1,1
-0.020215777160272976,24,32,-1,1
-2.1095171702761286,25,32,-1,1
-3.7012133463976693,26,32,-1,1
-0.8389639653721354,27,32,-1,1
-1.2014074094107983,28,32,-1,1
-0.47081021986068766,29,32,-1,1
1.1352679745395216,30,32,-1,1
0.47049124127639963,31,32,-1,1
-0.03603535419645647,32,32,-1,1
0.6772104886124942,33,32,-1,1
0.18474640942185352,34,32,-1,1
-0.9608963900361278,35,32,-1,1
-2.374812566951929,36,32,-1,1
0.12355545435033055,37,32,-1,1
1.5350657334300406,38,32,-1,1
0.6879516882036736,39,32,-1,1
0.40150537638962297,40,32,-1,1
1.6019204832798726,41,32,-1,1
1.1368183626812225,42,32,-1,1
2.0307117913074113,43,32,-1,1
1.5898174507582374,44,32,-1,1
3.2489720866917886,45,32,-1,1
1.7985774392093483,46,32,-1,1
0.0005826142691609654,47,32,-1,1
0.01911220529577392,48,32,-1,1
1.2614436417115173,49,32,-1,1
1.2085762497670158,50,32,-1,1
1.34097717493093,51,32,-1,1
0.09254139655472114,52,32,-1,1
-0.8760843869987278,53,32,-1,1
-0.18158698273446108,54,32,-1,1
-0.052006041995356266,55,32,-1,1
0.3084500859332101,56,32,-1,1
-0.26463161955976844,57,32,-1,1
-0.5706409091671859,58,32,-1,1
-1.7296054517675834,59,32,-1,1
-1.3037023193841073,60,32,-1,1
-0.5873340996434169,61,32,-1,1
-0.14015698936733645,62,32,-1,1
-0.0886366773848676,63,32,-1,1
-0.11488711360723088,0,33,-1,1
0.16297173324897085,1,33,-1,1
0.37929820066264713,2,33,-1,1
0.46176544021516686,3,33,-1,1
0.6717307645810057,4,33,-1,1
-0.043142584875664164,5,33,-1,1
0.014281336311751637,6,33,-1,1
-0.05676786349508799,7,33,-1,1
0.0291442016644642,8,33,-1,1
-0.40027273481234876,9,33,-1,1
-0.06053322829591695,10,33,-1,1
0.8385842087718157,11,33,-1,1
0.5749558797054886,12,33,-1,1
1.1543785587028386,13,33,-1,1
0.20863108388065152,14,33,-1,1
0.321059078538959,15,33,-1,1
-0.009614167337799627,16,33,-1,1
-0.12925489118175143,17,33,-1,1
1.1200146392328563,18,33,-1,1
0.4915302715889289,19,33,-1,1
-1.795410925555235,20,33,-1,1
-2.048099581298224,21,33,-1,1
-1.2142720450448485,22,33,-1,1
0.5397516286024175,23,33,-1,1
0.0028188743489388625,24,33,-1,1
-1.1729727310904607,25,33,-1,1
-1.6524435354341478,26,33,-1,1
-1.8962023701363793,27,33,-1,1
-0.6157783472745547,28,33,-1,1
-0.5364851906949623,29,33,-1,1
-2.1723703699701815,30,33,-1,1
-0.5375257282752518,31,33,-1,1
0.20866975026573895,32,33,-1,1
-1.5301553347602144,33,33,-1,1
-2.5465773930097915,34,33,-1,1
-0.4831601613104619,35,33,-1,1
-0.1642131880386159,36,33,-1,1
1.0024803588133249,37,33,-1,1
-0.06723575197581276,38,33,-1,1
0.26084490787757775,39,33,-1,1
0.17419131778527747,40,33,-1,1
2.218476012820218,41,33,-1,1
2.0233112948557026,42,33,-1,1
0.7224788846932271,43,33,-1,1
0.5856360454884958,44,33,-1,1
1.0045629321878047,45,33,-1,1
1.3084486711043506,46,33,-1,1
0.4365552721588315,47,33,-1,1
0.07703358789640673,48,33,-1,1
0.42378791165040003,49,33,-1,1
0.5507894294537389,50,33,-1,1
-1.4498015416288497,51,33,-1,1
-1.6724339261778272,52,33,-1,1
0.17504704629130396,53,33,-1,1
0.695031193530084,54,33,-1,1
0.05673313569797476,55,33,-1,1
0.06275013407068038,56,33,-1,1
-0.1581270353081339,57,33,-1,1
-0.7027877317121797,58,33,-1,1
-0.9097324253650227,59,33,-1,1
-0.2561527144316279,60,33,-1,1
-0.11685852879267995,61,33,-1,1
-0.06777565811669402,62,33,-1,1
-0.14293500987087296,63,33,-1,1
-0.19226955944680396,0,34,-1,1
0.22994265247437648,1,34,-1,1
0.20333134820589985,2,34,-1,1
1.233160798713043,3,34,-1,1
1.621823597648371,4,34,-1,1
1.0852325106627134,5,34,-1,1
0.33157068821520136,6,34,-1,1
0.216286102695146,7,34,-1,1
0.18622026131496103,8,34,-1,1
-0.027841703340958198,9,34,-1,1
0.5280793044391525,10,34,-1,1
-1.1884617175602081,11,34,-1,1
-1.4774800843165379,12,34,-1,1
-0.15721810775846193,13,34,-1,1
-0.6430769054755797,14,34,-1,1
0.11100435817298147,15,34,-1,1
0.42631360339106095,16,34,-1,1
0.2579549698949256,17,34,-1,1
-0.17611405256641044,18,34,-1,1
0.8514133058736286,19,34,-1,1
1.8499338232781397,20,34,-1,1
0.475283969505707,21,34,-1,1
-1.4690257275014162,22,34,-1,1
-0.6088420384113273,23,34,-1,1
0.4618299292674893,24,34,-1,1
0.9741670514408134,25,34,-1,1
1.9879956664809255,26,34,-1,1
-3.254822231694704,27,34,-1,1
-3.3120731267794516,28,34,-1,1
0.8343206224396218,29,34,-1,1
1.541381614008439,30,34,-1,1
0.33524502605032463,31,34,-1,1
0.05393755278562195,32,34,-1,1
0.8327545549151907,33,34,-1,1
5.26214563296732,34,34,-1,1
0.44051285745558577,35,34,-1,1
0.4111302239083515,36,34,-1,1
1.0095019869499369,37,34,-1,1
0.37809981265750336,38,34,-1,1
0.8154692846685317,39,34,-1,1
-0.0031675007945777354,40,34,-1,1
-1.7024486094964564,41,34,-1,1
-0.6301171455348935,42,34,-1,1
3.1505980308100128,43,34,-1,1
1.3749865054615045,44,34,-1,1
-0.16034067629688753,45,34,-1,1
0.10335900324002241,46,34,-1,1
0.741547956020712,47,34,-1,1
-0.18465543173168872,48,34,-1,1
-0.31247026132401473,49,34,-1,1
-1.25949964118898,50,34,-1,1
-1.9455729685299692,51,34,-1,1
0.21788539743658616,52,34,-1,1
-0.04133384589719706,53,34,-1,1
0.7243452205330381,54,34,-1,1
0.2665439484148001,55,34,-1,1
0.0326262592408089,56,34,-1,1
0.16660930562652182,57,34,-1,1
0.6188144703178854,58,34,-1,1
0.6772260486665115,59,34,-1,1
0.24956406383395194,60,34,-1,1
0.5449169540964915,61,34,-1,1
0.055399873293267225,62,34,-1,1
0.051055669808378085,63,34,-1,1
-0.11519866368844152,0,35,-1,1
-0.3868529527087415,1,35,-1,1
0.1946028517500108,2,35,-1,1
1.085964491129713,3,35,-1,1
1.386692294781846,4,35,-1,1
1.0847541569427195,5,35,-1,1
0.1399285263506349,6,35,-1,1
-0.014408477419293199,7,35,-1,1
-0.12947674719082933,8,35,-1,1
0.44847793345332515,9,35,-1,1
1.4900909266801117,10,35,-1,1
0.4508139149620384,11,35,-1,1
0.6755751961648317,12,35,-1,1
0.31616220224213415,13,35,-1,1
-1.0076151718697661,14,35,-1,1
0.0022403383150468186,15,35,-1,1
0.03486541690159126,16,35,-1,1
1.4408029506251505,17,35,-1,1
-1.5102411006184255,18,35,-1,1
-0.3869412775566375,19,35,-1,1
-0.6181256595947635,20,35,-1,1
-2.1782642066179756,21,35,-1,1
-0.7687414622714416,22,35,-1,1
-0.5434157632984159,23,35,-1,1
0.1399852565508997,24,35,-1,1
-2.5807189054399795,25,35,-1,1
-2.745494018386894,26,35,-1,1
-1.5415820338076696,27,35,-1,1
0.8332209875241496,28,35,-1,1
-1.0740768860622794,29,35,-1,1
-0.5339581927115601,30,35,-1,1
-0.0825003822639009,31,35,-1,1
0.13825960071349414,32,35,-1,1
-0.869621311332135,33,35,-1,1
-0.5325638821103019,34,35,-1,1
2.6001098669348433,35,35,-1,1
1.4386029089505554,36,35,-1,1
-0.4816417110645187,37,35,-1,1
1.104583790624671,38,35,-1,1
0.3765609354070259,39,35,-1,1
0.30426848187671146,40,35,-1,1
1.2259331047046957,41,35,-1,1
0.11112428446220218,42,35,-1,1
0.6457494394873444,43,35,-1,1
0.5828351651906962,44,35,-1,1
2.0975003730244075,45,35,-1,1
1.5962099346699123,46,35,-1,1
-0.012901366278448366,47,35,-1,1
0.23587419649519917,48,35,-1,1
1.3819702869740762,49,35,-1,1
1.2328367457321607,50,35,-1,1
-0.5219790812530973,51,35,-1,1
0.23958945678712226,52,35,-1,1
0.2980959044745965,53,35,-1,1
-0.05383473564439446,54,35,-1,1
-0.05807333442742915,55,35,-1,1
-0.07972228614777349,56,35,-1,1
0.10859706767789144,57,35,-1,1
-0.043216660151914006,58,35,-1,1
-0.8167804958629262,59,35,-1,1
-1.3354624737845522,60,35,-1,1
-1.1000410141576191,61,35,-1,1
-0.16904518290298942,62,35,-1,1
-0.2020397167502,63,35,-1,1
0.055421570085923,0,36,-1,1
-0.2017768367531778,1,36,-1,1
0.20121299540939497,2,36,-1,1
0.4420586015519806,3,36,-1,1
0.6479123011849339,4,36,-1,1
0.7976458595745576,5,36,-1,1
0.17076734150391928,6,36,-1,1
-0.3213731624422731,7,36,-1,1
-0.15355724023755107,8,36,-1,1
-0.03278334120638241,9,36,-1,1
0.11014461008211529,10,36,-1,1
-1.629535404879624,11,36,-1,1
-2.676107947666426,12,36,-1,1
-1.566650047139832,13,36,-1,1
-0.22243528688467754,14,36,-1,1
0.11766407965380596,15,36,-1,1
-0.0391725241797426,16,36,-1,1
-0.0002682800843372886,17,36,-1,1
-0.019320011099426115,18,36,-1,1
-0.7730538661256601,19,36,-1,1
0.2900983484042548,20,36,-1,1
0.4272634351065056,21,36,-1,1
1.1401629111370843,22,36,-1,1
1.3768029596421791,23,36,-1,1
0.08198793032588292,24,36,-1,1
0.0885567155410528,25,36,-1,1
0.19267166162078272,26,36,-1,1
0.5038438810539476,27,36,-1,1
-0.8129251558530747,28,36,-1,1
-0.040569398636501615,29,36,-1,1
-0.49840494661449636,30,36,-1,1
0.49511059363472626,31,36,-1,1
-0.10507538133921458,32,36,-1,1
-1.1486786943251843,33,36,-1,1
-1.3518421475958988,34,36,-1,1
-1.7087865427062474,35,36,-1,1
-1.5304651251900878,36,36,-1,1
-2.0169268770841935,37,36,-1,1
-0.5586204616723011,38,36,-1,1
0.06260006248783714,39,36,-1,1
-0.3754141559766997,40,36,-1,1
0.4868523533680906,41,36,-1,1
0.1011258672283549,42,36,-1,1
0.035630077201173095,43,36,-1,1
0.4404340651744467,44,36,-1,1
-0.4566619354623935,45,36,-1,1
-0.09222111623103613,46,36,-1,1
0.019058332872362402,47,36,-1,1
0.014357399835528525,48,36,-1,1
-0.124041916161151,49,36,-1,1
0.5917720431657643,50,36,-1,1
0.6365265388678328,51,36,-1,1
-0.5976020123998088,52,36,-1,1
-0.954668778007057,53,36,-1,1
-0.01741127847078849,54,36,-1,1
-0.11696796580151882,55,36,-1,1
-0.04248046825716771,56,36,-1,1
-0.1790058375908721,57,36,-1,1
0.25602159076042036,58,36,-1,1
0.36999945270978757,59,36,-1,1
-0.09690254961161525,60,36,-1,1
-0.6734854030129728,61,36,-1,1
-0.09134555254701464,62,36,-1,1
-0.19489129441506867,63,36,-1,1
0.05702311795871732,0,37,-1,1
-0.013281052287227734,1,37,-1,1
0.3239283796886133,2,37,-1,1
-0.15595305011115995,3,37,-1,1
-0.26416532713512964,4,37,-1,1
-0.2863161248776669,5,37,-1,1
-0.1658431001443277,6,37,-1,1
-0.12288373065592698,7,37,-1,1
-0.14888157802055257,8,37,-1,1
0.17250604821334983,9,37,-1,1
-0.22324615579025,10,37,-1,1
-0.14677343585174532,11,37,-1,1
-0.8951208562545929,12,37,-1,1
-0.2926400019710341,13,37,-1,1
0.3942655102904031,14,37,-1,1
-0.059619359301034354,15,37,-1,1
-0.22128828086936903,16,37,-1,1
-0.21628512841010375,17,37,-1,1
-0.4945338593557997,18,37,-1,1
-1.60503019056039,19,37,-1,1
-1.2767601275068252,20,37,-1,1
-0.7327166734610143,21,37,-1,1
0.7713797673974832,22,37,-1,1
0.7027894425313572,23,37,-1,1
-0.11871657629723706,24,37,-1,1
-0.18076910348111383,25,37,-1,1
-0.18655367494264838,26,37,-1,1
-0.3310054390564723,27,37,-1,1
-0.17065363763106564,28,37,-1,1
-1.5073683651921375,29,37,-1,1
-1.278126129886284,30,37,-1,1
0.1803858452511634,31,37,-1,1
-0.16356352946712624,32,37,-1,1
-0.31001092889955084,33,37,-1,1
-0.6296937518780265,34,37,-1,1
1.0126323898918999,35,37,-1,1
-0.8859391954814022,36,37,-1,1
-2.2689712956075505,37,37,-1,1
-1.0240501896972924,38,37,-1,1
-0.02142826058494731,39,37,-1,1
0.040108363980029926,40,37,-1,1
0.4446891094428515,41,37,-1,1
-0.6089452420464656,42,37,-1,1
-0.8145317839302915,43,37,-1,1
-0.20894922249814865,44,37,-1,1
-0.39022907664810974,45,37,-1,1
0.7115295078291834,46,37,-1,1
0.21961983119093556,47,37,-1,1
0.1761532452121054,48,37,-1,1
-0.001548434919255201,49,37,-1,1
-0.29011035597191775,50,37,-1,1
-0.7094458092692955,51,37,-1,1
0.09999233443448899,52,37,-1,1
0.8764831760122664,53,37,-1,1
0.3050397415290071,54,37,-1,1
-0.012764913046806776,55,37,-1,1
0.04244028956382495,56,37,-1,1
-0.465458996828326,57,37,-1,1
-0.9527077762308339,58,37,-1,1
-0.6349235815689319,59,37,-1,1
-0.575310696726492,60,37,-1,1
-0.5182870698747324,61,37,-1,1
-0.1504240981879458,62,37,-1,1
-0.14123872926689976,63,37,-1,1
0.09804439431038335,0,38,-1,1
0.23463203587805523,1,38,-1,1
0.1195657576957109,2,38,-1,1
-0.233658148424997,3,38,-1,1
0.12456531021460004,4,38,-1,1
0.11960395709817663,5,38,-1,1
0.09867928857504778,6,38,-1,1
-0.1574647145854888,7,38,-1,1
-0.10970153036621869,8,38,-1,1
-0.08985410767112913,9,38,-1,1
-0.21704093986854894,10,38,-1,1
-0.6258197019213005,11,38,-1,1
-0.8445002172943309,12,38,-1,1
-0.4339418557741311,13,38,-1,1
0.6788690362915302,14,38,-1,1
0.23956913430298674,15,38,-1,1
0.1547628919459939,16,38,-1,1
0.2498986275798346,17,38,-1,1
-0.2514204573911371,18,38,-1,1
0.0532470736476624,19,38,-1,1
-0.6823934337973325,20,38,-1,1
-0.9387551241630159,21,38,-1,1
0.8298127496053526,22,38,-1,1
0.16560645058460283,23,38,-1,1
-0.15108198337706932,24,38,-1,1
0.8973630754070093,25,38,-1,1
1.8074156281814924,26,38,-1,1
3.6040743178750323,27,38,-1,1
3.5990971402566476,28,38,-1,1
1.97976797923309,29,38,-1,1
-0.3397252871764502,30,38,-1,1
-0.21652231969634486,31,38,-1,1
-0.043023178553314965,32,38,-1,1
-0.4247996009987215,33,38,-1,1
0.4488926710385738,34,38,-1,1
0.80469211196215,35,38,-1,1
2.4721680579567216,36,38,-1,1
2.8785152330851345,37,38,-1,1
0.4054657709559309,38,38,-1,1
-0.8296845516315682,39,38,-1,1
0.08941216954181352,40,38,-1,1
-0.3640426642720709,41,38,-1,1
-1.105276533599445,42,38,-1,1
-1.8640222337818255,43,38,-1,1
0.6995771632810717,44,38,-1,1
-0.7105523748425614,45,38,-1,1
-0.9927851675169932,46,38,-1,1
-0.7992614985550546,47,38,-1,1
-0.0072941592375419485,48,38,-1,1
0.25011675790032706,49,38,-1,1
-1.0369112219285346,50,38,-1,1
-1.450205828446773,51,38,-1,1
-0.27359066358998585,52,38,-1,1
-1.5428363973318242,53,38,-1,1
-0.9824891123503272,54,38,-1,1
-0.10175468191355329,55,38,-1,1
-0.062419608722400724,56,38,-1,1
0.2557121425164804,57,38,-1,1
1.368015256309202,58,38,-1,1
1.60510795567204,59,38,-1,1
0.705211380573263,60,38,-1,1
0.5493748124394945,61,38,-1,1
0.28741069187402485,62,38,-1,1
-0.2519866897596909,63,38,-1,1
-0.14321428492519092,0,39,-1,1
0.018891005626314707,1,39,-1,1
-0.21642346396918108,2,39,-1,1
0.2605543914819102,3,39,-1,1
0.5662822491394054,4,39,-1,1
-0.04583083856238748,5,39,-1,1
-0.13652916449092015,6,39,-1,1
0.034373244189528515,7,39,-1,1
0.01314235830130242,8,39,-1,1
0.6906256532903908,9,39,-1,1
0.48852380630500336,10,39,-1,1
0.005494617150290018,11,39,-1,1
-0.024398375070939185,12,39,-1,1
-0.46188521691531564,13,39,-1,1
-0.44128398305847844,14,39,-1,1
-0.10768498136606795,15,39,-1,1
-0.1464694082773059,16,39,-1,1
1.0568448307218392,17,39,-1,1
-1.5431405057438479,18,39,-1,1
-1.524620347252952,19,39,-1,1
2.5666970613288584,20,39,-1,1
1.7682926179913967,21,39,-1,1
1.4853160830174625,22,39,-1,1
-0.28346614500650646,23,39,-1,1
0.4427766388748278,24,39,-1,1
-0.1759713409805182,25,39,-1,1
-1.2469392609218568,26,39,-1,1
-0.824250753291702,27,39,-1,1
1.6620829199927836,28,39,-1,1
-0.20736577844003623,29,39,-1,1
-0.608235685686181,30,39,-1,1
0.46983642414121757,31,39,-1,1
0.3584060076139934,32,39,-1,1
0.7112813263204707,33,39,-1,1
1.898656649822216,34,39,-1,1
1.158710101944196,35,39,-1,1
0.3617451830362406,36,39,-1,1
1.1681576631025603,37,39,-1,1
0.623886655487976,38,39,-1,1
0.17565811992054198,39,39,-1,1
0.518713473544294,40,39,-1,1
1.2067143332189922,41,39,-1,1
-0.44152911689347174,42,39,-1,1
-1.6201472089858513,43,39,-1,1
-0.22341183344490012,44,39,-1,1
-0.3026919550672607,45,39,-1,1
0.18246291168565032,46,39,-1,1
0.23878201169499028,47,39,-1,1
0.0820594462333412,48,39,-1,1
0.9964520587606359,49,39,-1,1
-0.08575809837438425,50,39,-1,1
-1.5741631234647253,51,39,-1,1
-1.7418683979470848,52,39,-1,1
-1.0379336739909515,53,39,-1,1
-0.635353700274512,54,39,-1,1
0.3665662612085832,55,39,-1,1
0.16437418496014056,56,39,-1,1
0.3101503029056444,57,39,-1,1
0.30029016621280846,58,39,-1,1
-0.45601505876212145,59,39,-1,1
0.8044403849394081,60,39,-1,1
0.29290065108542973,61,39,-1,1
0.17673646593677864,62,39,-1,1
-0.06523956777386733,63,39,-1,1
0.09615130381875829,0,40,-1,1
-0.08465422428614339,1,40,-1,1
0.25247767315509484,2,40,-1,1
-0.027085577342151407,3,40,-1,1
0.09744626242380734,4,40,-1,1
0.563355229338918,5,40,-1,1
0.27317628178717046,6,40,-1,1
0.24444096779679267,7,40,-1,1
0.08148970074035047,8,40,-1,1
0.07084857793456657,9,40,-1,1
-1.8551585475480834,10,40,-1,1
-2.6531947289405817,11,40,-1,1
-1.9570589910849359,12,40,-1,1
0.3229331573164595,13,40,-1,1
1.0177178155914997,14,40,-1,1
0.1506707063277068,15,40,-1,1
0.2225596666844963,16,40,-1,1
-0.17677179705542248,17,40,-1,1
-3.422027256691902,18,40,-1,1
-1.2979173790918404,19,40,-1,1
1.7419880441957691,20,40,-1,1
-1.5337956113070017,21,40,-1,1
1.3373889641340233,22,40,-1,1
0.6342115921578637,23,40,-1,1
0.1978515552699911,24,40,-1,1
0.21463912523191328,25,40,-1,1
-2.135533712353869,26,40,-1,1
1.024209158807697,27,40,-1,1
1.7117031717659827,28,40,-1,1
-2.439767947776603,29,40,-1,1
0.15135605341624545,30,40,-1,1
0.06162023128961487,31,40,-1,1
0.18506809407677702,32,40,-1,1
-0.11126644574175869,33,40,-1,1
-1.6740335788379532,34,40,-1,1
-0.41062633279328387,35,40,-1,1
-0.4162106526372607,36,40,-1,1
-1.06306150583358,37,40,-1,1
-1.0449318966269714,38,40,-1,1
-0.5611553547094805,39,40,-1,1
-0.26508147974634044,40,40,-1,1
0.17718236263413945,41,40,-1,1
-0.014365696189473077,42,40,-1,1
2.089688012609364,43,40,-1,1
1.0136496952493286,44,40,-1,1
-1.4353581058694025,45,40,-1,1
-2.004557958554514,46,40,-1,1
-0.11899282703329404,47,40,-1,1
-0.20947180617604594,48,40,-1,1
0.17792057829170724,49,40,-1,1
0.44560119170880697,50,40,-1,1
-1.136175842956123,51,40,-1,1
-0.13863723259062735,52,40,-1,1
-1.0665070408267132,53,40,-1,1
-0.587732962746566,54,40,-1,1
-0.08514573345303621,55,40,-1,1
0.268324510806719,56,40,-1,1
0.1263357194489451,57,40,-1,1
-0.16223312826427919,58,40,-1,1
-1.306356396370962,59,40,-1,1
-1.1417480517851306,60,40,-1,1
0.018289132090598896,61,40,-1,1
0.22017842687950803,62,40,-1,1
-0.16618817044542833,63,40,-1,1
-0.031859074778380445,0,41,-1,1
0.12855053531845223,1,41,-1,1
-0.5607079443947398,2,41,-1,1
-1.0181843734586746,3,41,-1,1
-1.2082475053472845,4,41,-1,1
-1.0409887255407908,5,41,-1,1
-0.35885120884009364,6,41,-1,1
0.1900336713399125,7,41,-1,1
-0.06380458102501609,8,41,-1,1
0.24678640341762273,9,41,-1,1
-0.13289753752393238,10,41,-1,1
0.03809724562959127,11,41,-1,1
0.053923618100436076,12,41,-1,1
0.20696956583181864,13,41,-1,1
0.7160784052033513,14,41,-1,1
0.11931849675180901,15,41,-1,1
0.15675938680249082,16,41,-1,1
0.16342391715876725,17,41,-1,1
1.1093805076756953,18,41,-1,1
1.5511828457425594,19,41,-1,1
1.9692941904193966,20,41,-1,1
3.53882176272654,21,41,-1,1
1.6325496567631346,22,41,-1,1
0.17444801943102592,23,41,-1,1
-0.1283979629862702,24,41,-1,1
1.3273730065472078,25,41,-1,1
1.825886738621129,26,41,-1,1
-0.00120207102170945,27,41,-1,1
-0.13730152977542773,28,41,-1,1
1.0274205445687647,29,41,-1,1
0.2645870375888508,30,41,-1,1
0.008697673806111214,31,41,-1,1
-0.28629155531490696,32,41,-1,1
-0.21787463154257627,33,41,-1,1
0.80551435389749,34,41,-1,1
-0.7127196403580178,35,41,-1,1
-0.29280573640862045,36,41,-1,1
0.6290735744373711,37,41,-1,1
-0.9817047980125575,38,41,-1,1
-0.6024808867456638,39,41,-1,1
0.04302623759256598,40,41,-1,1
-1.7426538321908427,41,41,-1,1
-2.60458019385086,42,41,-1,1
-2.5094593830205425,43,41,-1,1
-1.8115209633046274,44,41,-1,1
-1.4561701418747512,45,41,-1,1
-1.9464291649703165,46,41,-1,1
-0.8501018076400471,47,41,-1,1
0.04206832352055941,48,41,-1,1
0.23921851978966743,49,41,-1,1
0.20739450328719183,50,41,-1,1
0.8431965825855039,51,41,-1,1
1.7006822066630478,52,41,-1,1
0.527417593664417,53,41,-1,1
-0.48754201273592546,54,41,-1,1
0.1602983396419214,55,41,-1,1
-0.21770805170891722,56,41,-1,1
0.03423814407256129,57,41,-1,1
0.9923198437753383,58,41,-1,1
2.195293887415946,59,41,-1,1
1.6281451350871112,60,41,-1,1
0.6888144679700191,61,41,-1,1
0.06782559289239534,62,41,-1,1
-0.21867410242509513,63,41,-1,1
-0.11779827380336112,0,42,-1,1
0.02649750047207493,1,42,-1,1
0.3892270990724401,2,42,-1,1
-0.06710295386088999,3,42,-1,1
-1.3122390279848966,4,42,-1,1
-0.3684311499045202,5,42,-1,1
0.1657650045916401,6,42,-1,1
0.21156479365435463,7,42,-1,1
-0.19755102683299108,8,42,-1,1
-0.42595812420432017,9,42,-1,1
-2.117000513367535,10,42,-1,1
-2.6662860641136565,11,42,-1,1
0.6024759219887896,12,42,-1,1
1.5209661601249622,13,42,-1,1
0.18987995034142655,14,42,-1,1
-0.42971924431869485,15,42,-1,1
0.053948166822031594,16,42,-1,1
-1.1022766260176713,17,42,-1,1
-1.5655296474256697,18,42,-1,1
0.5111749106382207,19,42,-1,1
0.1425599979905874,20,42,-1,1
0.12066643301570709,21,42,-1,1
0.029749557017806422,22,42,-1,1
-0.8148032874848001,23,42,-1,1
-0.46909520569358953,24,42,-1,1
1.092181680384367,25,42,-1,1
-0.8268865367156442,26,42,-1,1
0.6785054379568943,27,42,-1,1
-0.6417901768609439,28,42,-1,1
-0.8927333138868947,29,42,-1,1
4.3609258899473,30,42,-1,1
-0.4039275806658791,31,42,-1,1
-0.22774155249601194,32,42,-1,1
1.1783240689874432,33,42,-1,1
0.1844845096317677,34,42,-1,1
0.8325104247961377,35,42,-1,1
-1.609346726716984,36,42,-1,1
-2.35408011307074,37,42,-1,1
0.48090644681143585,38,42,-1,1
-0.1754027647149979,39,42,-1,1
-0.2526939978033198,40,42,-1,1
-1.6598456793977892,41,42,-1,1
2.8452470963536847,42,42,-1,1
-0.007448318508430366,43,42,-1,1
-2.8881725219631385,44,42,-1,1
-1.889779085157739,45,42,-1,1
-1.7883157050614453,46,42,-1,1
-0.4830108824224281,47,42,-1,1
-0.05017774462081174,48,42,-1,1
-0.5075724240335139,49,42,-1,1
0.8113958895830334,50,42,-1,1
1.604894593064666,51,42,-1,1
0.22118666145899457,52,42,-1,1
-2.6987179941604236,53,42,-1,1
-1.2736444435883507,54,42,-1,1
-0.2133919745893184,55,42,-1,1
-0.17334203229963463,56,42,-1,1
-0.28161401116253126,57,42,-1,1
-0.02834524717946487,58,42,-1,1
0.5697249320014306,59,42,-1,1
0.1340166630627538,60,42,-1,1
0.3972327124328531,61,42,-1,1
-0.2450138411856448,62,42,-1,1
-0.1910098653190163,63,42,-1,1
-0.070429699744174,0,43,-1,1
0.17003040278193537,1,43,-1,1
-0.16209091722112715,2,43,-1,1
0.19538117462544516,3,43,-1,1
0.24335679864488666,4,43,-1,1
-0.1583071911900329,5,43,-1,1
-0.057657048843493396,6,43,-1,1
-0.1048893168371765,7,43,-1,1
-0.038683749339392476,8,43,-1,1
0.0005806528652020271,9,43,-1,1
0.580949228196858,10,43,-1,1
-0.31788928688916623,11,43,-1,1
-1.2463277944404691,12,43,-1,1
-0.9881736368418069,13,43,-1,1
0.0013060496384067622,14,43,-1,1
0.00924306183561511,15,43,-1,1
-0.014030964584087317,16,43,-1,1
0.3324812546008017,17,43,-1,1
0.25956112568659,18,43,-1,1
-0.18944925254514594,19,43,-1,1
-0.8678605376975238,20,43,-1,1
-0.3705036684085099,21,43,-1,1
0.2605952715218596,22,43,-1,1
-0.22603476379204937,23,43,-1,1
-0.061287307947434776,24,43,-1,1
0.48195099087745635,25,43,-1,1
-0.25287515836405394,26,43,-1,1
-0.29846775595231206,27,43,-1,1
-0.5594413853752652,28,43,-1,1
-0.1241192187905305,29,43,-1,1
0.019022437084538973,30,43,-1,1
-0.20467920408314172,31,43,-1,1
-0.3020528256607965,32,43,-1,1
0.1361833100814429,33,43,-1,1
-0.0043285750855614185,34,43,-1,1
-1.3967710706852177,35,43,-1,1
-0.38957379462305225,36,43,-1,1
-0.03148408440104672,37,43,-1,1
0.06151166832875579,38,43,-1,1
0.2998168787588116,39,43,-1,1
0.039083373267391114,40,43,-1,1
-0.20664759479925374,41,43,-1,1
0.03294606746667646,42,43,-1,1
-0.6279633746351682,43,43,-1,1
-0.8732790136355514,44,43,-1,1
-0.6077529891879605,45,43,-1,1
0.35699742620459846,46,43,-1,1
0.1568603710834767,47,43,-1,1
0.05591806346517708,48,43,-1,1
-0.07718333839050712,49,43,-1,1
-0.5452369022984791,50,43,-1,1
-0.4135150841332736,51,43,-1,1
0.1320532517550972,52,43,-1,1
0.2634226643944159,53,43,-1,1
-0.12178480531057645,54,43,-1,1
0.007805958190608798,55,43,-1,1
-0.146569805952002,56,43,-1,1
-0.1559759270464998,57,43,-1,1
0.04313732124235674,58,43,-1,1
0.33307627916233384,59,43,-1,1
0.10314783775738794,60,43,-1,1
0.056328573153493336,61,43,-1,1
-0.14785761133397762,62,43,-1,1
-0.12354360557108775,63,43,-1,1
0.15843788944952994,0,44,-1,1
-0.05129723774924799,1,44,-1,1
0.3867850011067808,2,44,-1,1
0.06057155920023426,3,44,-1,1
-0.830380984566598,4,44,-1,1
-6.244815339146707e-05,5,44,-1,1
0.10379079435682591,6,44,-1,1
0.07227843889472818,7,44,-1,1
-0.026490456838041927,8,44,-1,1
0.08440847931684443,9,44,-1,1
0.34092352978974744,10,44,-1,1
1.1022273090735322,11,44,-1,1
0.6440538205915919,12,44,-1,1
-0.46139525296792816,13,44,-1,1
-0.16245839710052853,14,44,-1,1
-0.14402496311276355,15,44,-1,1
-0.07068670129371186,16,44,-1,1
-1.068046963474101,17,44,-1,1
-0.30693297049558427,18,44,-1,1
-1.2416069903094784,19,44,-1,1
-2.666756008141282,20,44,-1,1
-1.805627224566496,21,44,-1,1
-2.529089413580086,22,44,-1,1
-1.0401708641698464,23,44,-1,1
-0.4553605776453976,24,44,-1,1
-0.7679160953679433,25,44,-1,1
0.2907688244681908,26,44,-1,1
-0.850048989588481,27,44,-1,1
-0.026505879922305485,28,44,-1,1
1.8660033136279988,29,44,-1,1
0.9457534365256618,30,44,-1,1
-0.33300307943020174,31,44,-1,1
-0.4145968939974982,32,44,-1,1
1.6033085796598106,33,44,-1,1
1.0845265786986946,34,44,-1,1
3.1777725396376977,35,44,-1,1
4.08903704381481,36,44,-1,1
-0.9146300116731156,37,44,-1,1
-0.3862878369777709,38,44,-1,1
0.48234464628115,39,44,-1,1
-0.13287441815456136,40,44,-1,1
-1.2577391776771105,41,44,-1,1
-0.6830572789199849,42,44,-1,1
1.6839858339035016,43,44,-1,1
1.7011431901713552,44,44,-1,1
-0.9491435415059376,45,44,-1,1
0.7637752489556542,46,44,-1,1
0.3639213209201069,47,44,-1,1
0.21421636067914776,48,44,-1,1
-1.0507820684819893,49,44,-1,1
-1.2841012662058149,50,44,-1,1
-1.6366436609139825,51,44,-1,1
-0.6782234748582505,52,44,-1,1
0.6626630643471549,53,44,-1,1
1.4013242173060085,54,44,-1,1
0.22327723767830046,55,44,-1,1
-0.08588662559503264,56,44,-1,1
0.14392619594323128,57,44,-1,1
-0.5162769120358779,58,44,-1,1
-0.9489251821813123,59,44,-1,1
-0.6576861427241714,60,44,-1,1
0.23990861412652018,61,44,-1,1
0.21776388037743227,62,44,-1,1
-0.15094905503483622,63,44,-1,1
-0.15723695709219526,0,45,-1,1
-0.026279721952252505,1,45,-1,1
-0.09953802926355146,2,45,-1,1
-0.19235573527257344,3,45,-1,1
-0.18399988741230394,4,45,-1,1
0.4774178247271596,5,45,-1,1
-0.1925851988222663,6,45,-1,1
0.17799798062651784,7,45,-1,1
0.19926050451793728,8,45,-1,1
-0.052395960709078704,9,45,-1,1
0.0996959269832024,10,45,-1,1
0.03505813818103804,11,45,-1,1
0.6929837164260719,12,45,-1,1
0.47662346027670993,13,45,-1,1
0.19033127287756027,14,45,-1,1
-0.01922220657856803,15,45,-1,1
-0.13132602926846615,16,45,-1,1
-0.7914454461428757,17,45,-1,1
-1.7358861579900464,18,45,-1,1
-2.862425588887212,19,45,-1,1
-1.0244549365961897,20,45,-1,1
0.5446551259428057,21,45,-1,1
-0.5216596848880771,22,45,-1,1
-0.019701869076815513,23,45,-1,1
-0.19449356450722682,24,45,-1,1
1.127594577134882,25,45,-1,1
2.7088783895502853,26,45,-1,1
4.275081502720393,27,45,-1,1
0.8936176241041993,28,45,-1,1
1.5621059183305093,29,45,-1,1
0.01274516798284708,30,45,-1,1
0.017004216083822063,31,45,-1,1
-0.4508213274135772,32,45,-1,1
1.9406055834896427,33,45,-1,1
3.3795564802475884,34,45,-1,1
-0.7104925660961098,35,45,-1,1
-0.234380359499965,36,45,-1,1
1.6826831659449626,37,45,-1,1
0.16698573470560354,38,45,-1,1
-0.2022620712398883,39,45,-1,1
-0.17051198521073285,40,45,-1,1
0.3722400081691396,41,45,-1,1
-0.9146538356803672,42,45,-1,1
-2.085824643513541,43,45,-1,1
-0.23225947948785003,44,45,-1,1
2.2639283232498415,45,45,-1,1
-0.24602371437029874,46,45,-1,1
-0.9209351586664571,47,45,-1,1
0.1956135189448264,48,45,-1,1
-0.16726304450587628,49,45,-1,1
0.03566623119231414,50,45,-1,1
0.1039538311989401,51,45,-1,1
0.2740111549826074,52,45,-1,1
1.0614275348354445,53,45,-1,1
0.2658374013063594,54,45,-1,1
-0.02394777100388759,55,45,-1,1
-0.12761987085559465,56,45,-1,1
0.3077216938447234,57,45,-1,1
0.40562758305554136,58,45,-1,1
-0.7975122297186081,59,45,-1,1
-0.44908603360340077,60,45,-1,1
0.3373933781125272,61,45,-1,1
0.22602568393913688,62,45,-1,1
-0.22260824508236743,63,45,-1,1
0.500626896712133,0,46,-1,1
0.08155399532318879,1,46,-1,1
0.032343873494817904,2,46,-1,1
0.6765258831869974,3,46,-1,1
1.0038223685070453,4,46,-1,1
0.8794316310368588,5,46,-1,1
0.3426941372954361,6,46,-1,1
0.09123306269543856,7,46,-1,1
0.09875426461858758,8,46,-1,1
0.09977976444748954,9,46,-1,1
-0.6955983204039822,10,46,-1,1
0.7114018724059773,11,46,-1,1
1.6905906667966581,12,46,-1,1
0.5146684636722652,13,46,-1,1
-0.6919030549358691,14,46,-1,1
-0.06619429426750605,15,46,-1,1
-0.1232559769380447,16,46,-1,1
-0.7544346162979232,17,46,-1,1
-0.9299012047616779,18,46,-1,1
-0.24230169295958215,19,46,-1,1
-0.34229740843334244,20,46,-1,1
-2.7062134288785433,21,46,-1,1
-1.0438590359452777,22,46,-1,1
-0.4646340092804003,23,46,-1,1
-0.09161973616965312,24,46,-1,1
0.7988382223052687,25,46,-1,1
0.9427310775573581,26,46,-1,1
0.635406029204603,27,46,-1,1
0.608180105352873,28,46,-1,1
-0.37693487542432585,29,46,-1,1
1.7523577420400462,30,46,-1,1
-0.18549168637206462,31,46,-1,1
-0.2434405830659702,32,46,-1,1
0.20367830511637752,33,46,-1,1
-0.34359457571460006,34,46,-1,1
-0.487044393999832,35,46,-1,1
-1.9091328501905367,36,46,-1,1
-0.4476914400144824,37,46,-1,1
1.1479111438958907,38,46,-1,1
-0.12383749992227366,39,46,-1,1
0.18100938507836833,40,46,-1,1
-0.7487741494224833,41,46,-1,1
0.3042378394609664,42,46,-1,1
1.286623730566179,43,46,-1,1
0.023222652009736104,44,46,-1,1
1.0897636024119761,45,46,-1,1
-0.5958933268780551,46,46,-1,1
-0.5391264464432407,47,46,-1,1
0.2735860369806299,48,46,-1,1
0.04426193120108476,49,46,-1,1
-0.8943629388759133,50,46,-1,1
0.031603473524974196,51,46,-1,1
1.0182592826685573,52,46,-1,1
-0.709306812753892,53,46,-1,1
-0.6309900148927535,54,46,-1,1
0.091345874703105,55,46,-1,1
-0.06117194689492171,56,46,-1,1
0.14740263760881453,57,46,-1,1
0.3031071214881203,58,46,-1,1
-0.5160202798968692,59,46,-1,1
0.0717835170059464,60,46,-1,1
0.5576303941717724,61,46,-1,1
-0.13293719947644483,62,46,-1,1
-0.05240100696167142,63,46,-1,1
-0.15933258099897843,0,47,-1,1
-0.255295490807849,1,47,-1,1
-0.07026628596965764,2,47,-1,1
0.11775118068072588,3,47,-1,1
-0.11157304689557633,4,47,-1,1
-0.15337711254689834,5,47,-1,1
-0.19196368527483468,6,47,-1,1
0.06423414103209377,7,47,-1,1
-0.06703243030189861,8,47,-1,1
-0.16576602541940458,9,47,-1,1
-0.3910528151752966,10,47,-1,1
-0.7815402844101296,11,47,-1,1
-0.6412966256224736,12,47,-1,1
-0.3389237378809482,13,47,-1,1
0.13765019849720644,14,47,-1,1
-0.1581747586692004,15,47,-1,1
-0.18551699535018878,16,47,-1,1
-0.10044863230711416,17,47,-1,1
-0.1493395851519708,18,47,-1,1
-0.6670944593720387,19,47,-1,1
-1.0667000373515358,20,47,-1,1
-0.8749771038611261,21,47,-1,1
-0.21542139094553356,22,47,-1,1
0.026015338306287137,23,47,-1,1
-0.269406888995698,24,47,-1,1
0.07490741595399879,25,47,-1,1
-0.16083800488476255,26,47,-1,1
-0.5831225102801928,27,47,-1,1
-1.1232062541946013,28,47,-1,1
-0.5198523138237809,29,47,-1,1
0.15921514382107693,30,47,-1,1
-0.16042585412806779,31,47,-1,1
0.021369716859947825,32,47,-1,1
-0.22638611933254665,33,47,-1,1
-0.6683344765081132,34,47,-1,1
-0.779380987738053,35,47,-1,1
-1.0615543463316455,36,47,-1,1
-1.0717352925258392,37,47,-1,1
-0.5626769135883299,38,47,-1,1
-0.11645560866024114,39,47,-1,1
-0.022222846758760635,40,47,-1,1
-0.3870545578692842,41,47,-1,1
-0.5202367297529444,42,47,-1,1
-0.5230775932027018,43,47,-1,1
-0.9804221369116126,44,47,-1,1
-1.083985878309358,45,47,-1,1
-0.1417268232692999,46,47,-1,1
-0.007100860143048916,47,47,-1,1
-0.12387177013450497,48,47,-1,1
-0.3556296040594421,49,47,-1,1
-0.1836966080513163,50,47,-1,1
-0.7301467759598406,51,47,-1,1
-0.5701918015447378,52,47,-1,1
-0.29931754705236885,53,47,-1,1
-0.07168747094545044,54,47,-1,1
0.005174221646680022,55,47,-1,1
-0.05964213047180935,56,47,-1,1
-0.06809223029726501,57,47,-1,1
0.17374482141970846,58,47,-1,1
-0.036648966674778696,59,47,-1,1
0.08043801170533076,60,47,-1,1
0.2028372742756672,61,47,-1,1
0.03215184599980184,62,47,-1,1
-0.07567253109510355,63,47,-1,1
-0.1500140962141505,0,48,-1,1
0.13263954716985105,1,48,-1,1
-0.4179074888730341,2,48,-1,1
-0.6529228974585192,3,48,-1,1
-0.32532497832283896,4,48,-1,1
-0.16367916442714261,5,48,-1,1
-0.18766199911241727,6,48,-1,1
-0.028988160349024118,7,48,-1,1
-0.20417785629128707,8,48,-1,1
0.6134971909979972,9,48,-1,1
0.4830096150089544,10,48,-1,1
0.29551611027089814,11,48,-1,1
-0.6179920126907417,12,48,-1,1
-0.3865813267171837,13,48,-1,1
0.11583617463610157,14,48,-1,1
-0.10322400471622922,15,48,-1,1
-0.06435406505107277,16,48,-1,1
0.5057651541004438,17,48,-1,1
-0.5265085035084304,18,48,-1,1
-2.346991722152543,19,48,-1,1
-0.11937802013326888,20,48,-1,1
0.5912083158243244,21,48,-1,1
-0.3277700382217816,22,48,-1,1
-0.10613887913213786,23,48,-1,1
0.1338265628075865,24,48,-1,1
-1.0185690148698638,25,48,-1,1
-1.0700106617438703,26,48,-1,1
-0.18774184855049575,27,48,-1,1
2.616175120643652,28,48,-1,1
-0.2591769088732978,29,48,-1,1
-1.1176147488765662,30,48,-1,1
-0.12425145794394742,31,48,-1,1
0.012445539895670725,32,48,-1,1
-0.013119506305702003,33,48,-1,1
-0.18479364966338577,34,48,-1,1
1.8962411520785245,35,48,-1,1
2.6831569139503757,36,48,-1,1
-0.12803911067759804,37,48,-1,1
0.33116993149429325,38,48,-1,1
-0.3966621895233935,39,48,-1,1
0.3155878570874871,40,48,-1,1
-0.4049629730811279,41,48,-1,1
-5.10165921141235,42,48,-1,1
-2.602660087439539,43,48,-1,1
-1.2799076152415363,44,48,-1,1
-1.2458958932372632,45,48,-1,1
-0.37193151446817924,46,48,-1,1
-0.48396555313490514,47,48,-1,1
0.16838526850233915,48,48,-1,1
0.9989490347518919,49,48,-1,1
1.106320174339226,50,48,-1,1
0.07213467894897373,51,48,-1,1
-0.5519043640319472,52,48,-1,1
0.07900857970888665,53,48,-1,1
-0.2947501365201273,54,48,-1,1
0.09548008698615695,55,48,-1,1
0.05667373490427744,56,48,-1,1
0.3938627274199131,57,48,-1,1
0.6699552378327176,58,48,-1,1
-0.0006335568791342253,59,48,-1,1
-0.8025083620576254,60,48,-1,1
-0.804744386831884,61,48,-1,1
-0.12817999587199447,62,48,-1,1
0.29162561771193973,63,48,-1,1
0.13518904603155685,0,49,-1,1
0.13157267157411917,1,49,-1,1
-0.5235972816735894,2,49,-1,1
0.28002679473478365,3,49,-1,1
0.7865384896572454,4,49,-1,1
0.30003184872443583,5,49,-1,1
-0.19437523447296667,6,49,-1,1
-0.047991365898160755,7,49,-1,1
-0.22684307246929689,8,49,-1,1
0.4893852984300872,9,49,-1,1
3.415393066211224,10,49,-1,1
2.511179461667729,11,49,-1,1
0.0719761229578874,12,49,-1,1
-1.7644084724225393,13,49,-1,1
-1.1323710708621604,14,49,-1,1
-0.3449126726903368,15,49,-1,1
-0.11042229219150328,16,49,-1,1
2.3583167146393595,17,49,-1,1
3.553819492294129,18,49,-1,1
-2.034694722376272,19,49,-1,1
-1.296820340309966,20,49,-1,1
1.151004397461986,21,49,-1,1
0.46429802457312364,22,49,-1,1
-0.7596505259271598,23,49,-1,1
0.230438055375334,24,49,-1,1
1.0288790142621,25,49,-1,1
-0.3718403108417588,26,49,-1,1
-1.3663685976809912,27,49,-1,1
-1.2911034633801808,28,49,-1,1
2.1059753745241947,29,49,-1,1
