Weight,Input Node,Hidden Node,Output Node,Layer Index
-0.1346888593316479,0,0,-1,1
0.10824245650522418,1,0,-1,1
-0.05390434920682556,2,0,-1,1
-0.29005322342091827,3,0,-1,1
1.5251477782071674,4,0,-1,1
0.8851308085856393,5,0,-1,1
0.2982014864158995,6,0,-1,1
0.16093645188125155,7,0,-1,1
0.18400323675048047,8,0,-1,1
-0.7206080035977112,9,0,-1,1
-1.0778489147719594,10,0,-1,1
-2.801359834153039,11,0,-1,1
-3.097547894993966,12,0,-1,1
0.6827258736682914,13,0,-1,1
2.063170101326998,14,0,-1,1
0.5116679761736637,15,0,-1,1
0.51157988394252,16,0,-1,1
0.018342763050314966,17,0,-1,1
-0.8066287858833292,18,0,-1,1
0.9114626594745922,19,0,-1,1
-2.840139618061457,20,0,-1,1
0.43142176123903464,21,0,-1,1
-0.6087060324506126,22,0,-1,1
1.2629306297689187,23,0,-1,1
0.6151944539627523,24,0,-1,1
-0.24216271911459536,25,0,-1,1
0.742812140106005,26,0,-1,1
3.392484082051152,27,0,-1,1
-2.894983219479891,28,0,-1,1
-1.242218488806646,29,0,-1,1
-1.4525263449941193,30,0,-1,1
1.3872042687741426,31,0,-1,1
-0.2254425537756852,32,0,-1,1
0.4067439378719613,33,0,-1,1
3.403401094926546,34,0,-1,1
-2.5465256305043895,35,0,-1,1
-1.36027967755044,36,0,-1,1
-0.27387744244436346,37,0,-1,1
2.2813836563601173,38,0,-1,1
-0.13374878196231302,39,0,-1,1
-0.27397374155636317,40,0,-1,1
-0.8532742929612329,41,0,-1,1
-0.2935865369260046,42,0,-1,1
-0.8847262694354748,43,0,-1,1
-0.5104463157404646,44,0,-1,1
1.1449563464237655,45,0,-1,1
-1.7755109904166375,46,0,-1,1
-0.3472619218649993,47,0,-1,1
0.0831338054081913,48,0,-1,1
-1.5907731240209755,49,0,-1,1
0.799100792127168,50,0,-1,1
1.728764203760098,51,0,-1,1
2.078044971700205,52,0,-1,1
1.311281209237045,53,0,-1,1
-0.6499747172216953,54,0,-1,1
0.2631338869438084,55,0,-1,1
0.11708078660256842,56,0,-1,1
0.15810700227826402,57,0,-1,1
-0.819491892976942,58,0,-1,1
-2.446562745711524,59,0,-1,1
-1.673388147861216,60,0,-1,1
-0.7319845442118528,61,0,-1,1
-0.35719597254767665,62,0,-1,1
0.1446852782885473,63,0,-1,1
0.10775024991676513,0,1,-1,1
-0.283874335116358,1,1,-1,1
-0.1358064847631346,2,1,-1,1
-0.02083701196806075,3,1,-1,1
-0.30535611420454467,4,1,-1,1
-0.388056636419327,5,1,-1,1
-0.3101654011936014,6,1,-1,1
-0.2845481576895034,7,1,-1,1
0.27544262128198893,8,1,-1,1
0.07843799493700651,9,1,-1,1
0.241149655557434,10,1,-1,1
-0.41142589729165274,11,1,-1,1
-0.8649216199652263,12,1,-1,1
-1.0035203055233322,13,1,-1,1
0.02776553076519691,14,1,-1,1
-0.007014304141397203,15,1,-1,1
-0.07384476429296906,16,1,-1,1
-0.09819968708383996,17,1,-1,1
-0.00024777798431705524,18,1,-1,1
-1.2173304000649552,19,1,-1,1
-1.4821223932530014,20,1,-1,1
-0.2846634827307978,21,1,-1,1
0.5017111730958658,22,1,-1,1
0.42373577661079703,23,1,-1,1
-0.21794922351869647,24,1,-1,1
-0.4314531083298082,25,1,-1,1
-0.24172796087541618,26,1,-1,1
-0.25602060515716185,27,1,-1,1
-1.569483838351968,28,1,-1,1
0.03629128323099436,29,1,-1,1
-0.6662590150118927,30,1,-1,1
-0.0634646865964339,31,1,-1,1
0.1658173033567938,32,1,-1,1
-0.4549254880110442,33,1,-1,1
-0.37874350260206024,34,1,-1,1
-0.9229024023722713,35,1,-1,1
-1.2417329661499583,36,1,-1,1
-0.4235244004999819,37,1,-1,1
-1.087252841792767,38,1,-1,1
0.008815609543306041,39,1,-1,1
-0.1755506041101949,40,1,-1,1
0.2497049957422195,41,1,-1,1
-0.6432686711142978,42,1,-1,1
-1.8370911515467474,43,1,-1,1
-1.432057824825322,44,1,-1,1
-0.6601282804085051,45,1,-1,1
-0.06230445252797206,46,1,-1,1
-0.030367499770253808,47,1,-1,1
-0.2249112179393596,48,1,-1,1
-0.05307229016406019,49,1,-1,1
-0.45411789707665745,50,1,-1,1
-1.6009229933153426,51,1,-1,1
-1.746035429845827,52,1,-1,1
-0.07347876986327048,53,1,-1,1
0.5393128984398924,54,1,-1,1
-0.2469928833198228,55,1,-1,1
0.10616241918397604,56,1,-1,1
0.2009867537564958,57,1,-1,1
0.17410754610638743,58,1,-1,1
0.1598510835858464,59,1,-1,1
0.20955394518128587,60,1,-1,1
-0.04812061630906857,61,1,-1,1
-0.015571972228980905,62,1,-1,1
-0.10223003575798548,63,1,-1,1
-0.007742582242220971,0,2,-1,1
0.0994301167297273,1,2,-1,1
-0.286100594027873,2,2,-1,1
-0.33186549052559583,3,2,-1,1
-1.4390965837478684,4,2,-1,1
-0.9973259660388604,5,2,-1,1
-0.18043079140655593,6,2,-1,1
-0.027123965737554722,7,2,-1,1
0.14458528816882496,8,2,-1,1
-0.17855679691840207,9,2,-1,1
-0.6170602790812151,10,2,-1,1
-1.2176640730249495,11,2,-1,1
-0.7168150657884828,12,2,-1,1
-0.3784270247965979,13,2,-1,1
0.026333118303668655,14,2,-1,1
0.193353038048915,15,2,-1,1
-0.588694120492435,16,2,-1,1
0.230718459572249,17,2,-1,1
0.9082628615656472,18,2,-1,1
1.2285792913058151,19,2,-1,1
-0.2414960062595982,20,2,-1,1
0.07938135752305647,21,2,-1,1
1.4773681463220463,22,2,-1,1
0.21207141706326002,23,2,-1,1
-0.12776746598826993,24,2,-1,1
1.3571129233032457,25,2,-1,1
-0.5264785339644801,26,2,-1,1
-1.8198212386203523,27,2,-1,1
-3.23363411711254,28,2,-1,1
-0.701607157428554,29,2,-1,1
1.0796853608657797,30,2,-1,1
-1.111912639209517,31,2,-1,1
0.32081328936094683,32,2,-1,1
-0.3330716258760923,33,2,-1,1
-0.8475216812618085,34,2,-1,1
-0.8039461778101316,35,2,-1,1
-2.312355423160073,36,2,-1,1
1.5390005813491454,37,2,-1,1
-1.6426738402551069,38,2,-1,1
-0.7470185924957731,39,2,-1,1
-0.0520107565932695,40,2,-1,1
-0.5634755684466733,41,2,-1,1
1.120841161368885,42,2,-1,1
-0.367808279393519,43,2,-1,1
-0.7554377907859495,44,2,-1,1
-0.6041606171154142,45,2,-1,1
-0.26877747715351297,46,2,-1,1
-0.1741321272767172,47,2,-1,1
-0.4858589805023693,48,2,-1,1
0.07552861745441442,49,2,-1,1
-1.4761732705735877,50,2,-1,1
-2.4351338375731184,51,2,-1,1
-1.9011430419150148,52,2,-1,1
-0.6014578918415397,53,2,-1,1
0.7312691416105497,54,2,-1,1
0.09460950860226985,55,2,-1,1
-0.0015577827271910755,56,2,-1,1
-0.2790897505544965,57,2,-1,1
0.2429461441776339,58,2,-1,1
1.2275949232126253,59,2,-1,1
0.5237743892958234,60,2,-1,1
0.6785729111902543,61,2,-1,1
-0.06569426606074122,62,2,-1,1
-0.20942435752494631,63,2,-1,1
-0.20074876323590224,0,3,-1,1
-0.2197106901839842,1,3,-1,1
-0.18118269554673455,2,3,-1,1
0.05774871698999531,3,3,-1,1
-0.07898722843609236,4,3,-1,1
0.055950554727316415,5,3,-1,1
0.07678816140260274,6,3,-1,1
-0.09792958957073067,7,3,-1,1
0.08023399777581242,8,3,-1,1
0.25892051824451423,9,3,-1,1
0.8079558096090278,10,3,-1,1
-0.1358375320511068,11,3,-1,1
-1.183768382475058,12,3,-1,1
-0.5434509268562624,13,3,-1,1
-0.1120922893186231,14,3,-1,1
-0.01892000235488062,15,3,-1,1
-0.16865813481843425,16,3,-1,1
0.3832961128578609,17,3,-1,1
-0.3131738796945059,18,3,-1,1
-0.8559248668284323,19,3,-1,1
-1.240619503922718,20,3,-1,1
-1.0985310793608964,21,3,-1,1
0.4427440330854323,22,3,-1,1
0.05472972288186862,23,3,-1,1
-0.06526234584822765,24,3,-1,1
-0.26195714778091667,25,3,-1,1
-0.6314577653431515,26,3,-1,1
-0.17468102422679352,27,3,-1,1
-0.3183830745350083,28,3,-1,1
-0.4142366867531551,29,3,-1,1
-0.7336840984782138,30,3,-1,1
-0.4026124557717825,31,3,-1,1
0.0834909119850055,32,3,-1,1
-0.30362207059902663,33,3,-1,1
-0.7078279084753933,34,3,-1,1
-1.3049948815580312,35,3,-1,1
-1.422320419268288,36,3,-1,1
-0.031102659797558,37,3,-1,1
-0.13367125878923283,38,3,-1,1
-0.10307285047059217,39,3,-1,1
0.042999932948957,40,3,-1,1
-0.1520150696690982,41,3,-1,1
-1.3546122338144941,42,3,-1,1
-1.3783340135179176,43,3,-1,1
-1.0090283667886324,44,3,-1,1
-0.32515185196707685,45,3,-1,1
-0.012923385837025006,46,3,-1,1
-0.12161618777005469,47,3,-1,1
-0.055563694505703344,48,3,-1,1
-0.33107708500829136,49,3,-1,1
-1.1311782894918747,50,3,-1,1
-1.3402749369837188,51,3,-1,1
-0.7287536985187679,52,3,-1,1
0.22943526706699194,53,3,-1,1
-0.270416829254685,54,3,-1,1
0.04621368332873019,55,3,-1,1
-0.10778755420025252,56,3,-1,1
0.14357893758973855,57,3,-1,1
0.3144982842046111,58,3,-1,1
0.33845696915580614,59,3,-1,1
0.22800007408160913,60,3,-1,1
-0.06513370955756402,61,3,-1,1
0.1797424484697653,62,3,-1,1
0.06624113508554762,63,3,-1,1
-0.029097421458709864,0,4,-1,1
-0.20825020340768008,1,4,-1,1
-0.07871260038939663,2,4,-1,1
0.927808129040087,3,4,-1,1
0.8184373618837576,4,4,-1,1
0.6924655435487359,5,4,-1,1
0.05377265433211263,6,4,-1,1
0.16746133979396982,7,4,-1,1
-0.08634010384914892,8,4,-1,1
-0.28129128525898084,9,4,-1,1
0.2644598175187177,10,4,-1,1
-0.25178994938096594,11,4,-1,1
1.747156630817536,12,4,-1,1
0.3164617988082071,13,4,-1,1
0.656622498401389,14,4,-1,1
0.3940523627408772,15,4,-1,1
-0.2920837053069306,16,4,-1,1
-0.8783225858751438,17,4,-1,1
0.5767530802617655,18,4,-1,1
5.162519494624375,19,4,-1,1
0.4059325642021214,20,4,-1,1
-2.6114336010558383,21,4,-1,1
-0.7189495721872315,22,4,-1,1
0.03858115039486822,23,4,-1,1
-0.2887385152078413,24,4,-1,1
1.8032562798435952,25,4,-1,1
2.629348495269901,26,4,-1,1
-1.7879908805392812,27,4,-1,1
-2.6398385104724413,28,4,-1,1
0.6879450689906209,29,4,-1,1
-0.6011122472687745,30,4,-1,1
-0.2631905600537309,31,4,-1,1
0.3359226129171512,32,4,-1,1
-0.4864300299796433,33,4,-1,1
0.33027177555169906,34,4,-1,1
-3.2027632385592244,35,4,-1,1
-1.72402586009606,36,4,-1,1
0.9175005229142261,37,4,-1,1
-0.08969668121675306,38,4,-1,1
-0.31758183803885803,39,4,-1,1
0.026180990543540398,40,4,-1,1
-1.0473110886998074,41,4,-1,1
0.16536688520328396,42,4,-1,1
-0.5177521780007289,43,4,-1,1
2.950801325032677,44,4,-1,1
0.32005339611725436,45,4,-1,1
-0.1107209073200183,46,4,-1,1
-0.4110588232588004,47,4,-1,1
0.03079573270538269,48,4,-1,1
-0.48750368870785454,49,4,-1,1
-1.8769880910425167,50,4,-1,1
0.43009776213673456,51,4,-1,1
0.40803978421778786,52,4,-1,1
-0.3551891476579454,53,4,-1,1
0.48319459010914584,54,4,-1,1
0.4652920496190979,55,4,-1,1
0.08332437957252453,56,4,-1,1
0.33501801995439767,57,4,-1,1
1.8302581986279762,58,4,-1,1
1.9726984056507695,59,4,-1,1
1.0302728472551026,60,4,-1,1
1.8213557783319492,61,4,-1,1
0.276189961011334,62,4,-1,1
-0.004045246609253639,63,4,-1,1
-0.16151785539836375,0,5,-1,1
-0.32313910285232694,1,5,-1,1
-0.3134342592617436,2,5,-1,1
0.2225183877256822,3,5,-1,1
0.5588098595546495,4,5,-1,1
-0.5057680992191136,5,5,-1,1
-0.1721709355265947,6,5,-1,1
-0.22418373080826975,7,5,-1,1
-0.252420327631135,8,5,-1,1
-0.04953309531587876,9,5,-1,1
0.7176999690940631,10,5,-1,1
2.0994027105221575,11,5,-1,1
2.3963777616499757,12,5,-1,1
-0.26673943260067734,13,5,-1,1
-0.3913127633270661,14,5,-1,1
0.053249928552769145,15,5,-1,1
-0.17429334783797498,16,5,-1,1
1.1028378693381449,17,5,-1,1
-0.631760367496939,18,5,-1,1
0.12461787201098949,19,5,-1,1
-0.43969664755597504,20,5,-1,1
0.05515705664385494,21,5,-1,1
1.1989357050691656,22,5,-1,1
-0.2605931189462262,23,5,-1,1
0.6403955327148648,24,5,-1,1
-1.5920868125820913,25,5,-1,1
-4.260740777445017,26,5,-1,1
-2.489578296695365,27,5,-1,1
-1.299114187742623,28,5,-1,1
-2.0737011818427287,29,5,-1,1
0.716974502954909,30,5,-1,1
-0.7165105097105424,31,5,-1,1
0.1129776907434168,32,5,-1,1
-1.1104318013494148,33,5,-1,1
-2.766879048307957,34,5,-1,1
-0.7280781676165995,35,5,-1,1
-1.4428914948617295,36,5,-1,1
-2.580947020322748,37,5,-1,1
-0.2253548401584265,38,5,-1,1
-0.4560731475382989,39,5,-1,1
-0.4410830474494848,40,5,-1,1
0.9456864529034351,41,5,-1,1
2.340361158827566,42,5,-1,1
0.8201349589735677,43,5,-1,1
-0.9073421055224595,44,5,-1,1
-0.26681809187968986,45,5,-1,1
0.7269662879810687,46,5,-1,1
-0.14536557950431894,47,5,-1,1
-0.2179330620775748,48,5,-1,1
0.48010409776691837,49,5,-1,1
0.6247988099032796,50,5,-1,1
-0.47859610754869425,51,5,-1,1
-0.26940946364309226,52,5,-1,1
-0.21934059227397354,53,5,-1,1
-0.16907007164322638,54,5,-1,1
-0.10242236626593838,55,5,-1,1
0.05359897974038942,56,5,-1,1
-0.5425536930727416,57,5,-1,1
-0.8382978892425945,58,5,-1,1
0.15176470763849356,59,5,-1,1
-0.04952466080139514,60,5,-1,1
-0.5103760509725094,61,5,-1,1
-0.30948203486597614,62,5,-1,1
-0.4133350172952491,63,5,-1,1
0.008823259797885546,0,6,-1,1
0.11685759902631024,1,6,-1,1
0.21414906653538146,2,6,-1,1
-0.735757717467165,3,6,-1,1
-1.8130213998330664,4,6,-1,1
-1.0145076761654939,5,6,-1,1
-0.3149070656191026,6,6,-1,1
-0.011542993801736515,7,6,-1,1
-0.058180583376321614,8,6,-1,1
-0.2745189658120772,9,6,-1,1
-1.3733180015435031,10,6,-1,1
-1.74454761803049,11,6,-1,1
0.1146175375098766,12,6,-1,1
-0.11651111748624313,13,6,-1,1
-0.2076202543256842,14,6,-1,1
-0.06266862963142354,15,6,-1,1
-0.3760124728151987,16,6,-1,1
-2.466530987942225,17,6,-1,1
-1.9967783400352184,18,6,-1,1
-2.464964288506421,19,6,-1,1
-0.04065306937924515,20,6,-1,1
0.6394903677459349,21,6,-1,1
0.06606179463677854,22,6,-1,1
0.8167833693900992,23,6,-1,1
-0.8589992311838539,24,6,-1,1
0.36639270287908465,25,6,-1,1
3.1830739027053285,26,6,-1,1
-1.2677362277153286,27,6,-1,1
-1.03368494778131,28,6,-1,1
0.1826152450532741,29,6,-1,1
-1.4654535995237032,30,6,-1,1
0.17896923416621205,31,6,-1,1
-0.19281357673951208,32,6,-1,1
1.2582796558876204,33,6,-1,1
3.7183959126527335,34,6,-1,1
2.3404189110434874,35,6,-1,1
2.6697633567166608,36,6,-1,1
0.030022903734793875,37,6,-1,1
-3.1384223845120567,38,6,-1,1
-0.0005457947731701616,39,6,-1,1
-0.19426682950439703,40,6,-1,1
0.7930491629274915,41,6,-1,1
-0.5826918068772465,42,6,-1,1
-2.512544745686841,43,6,-1,1
0.345631255289382,44,6,-1,1
-1.8003641676859086,45,6,-1,1
-0.4230110528484236,46,6,-1,1
0.18213153862713882,47,6,-1,1
0.08962372128996328,48,6,-1,1
-0.9847750387945432,49,6,-1,1
-2.9487910507944703,50,6,-1,1
-2.881283509951608,51,6,-1,1
-2.017232587394349,52,6,-1,1
0.12333985241589131,53,6,-1,1
1.0588549394189586,54,6,-1,1
-0.05863200419160707,55,6,-1,1
-0.053414370765218336,56,6,-1,1
-0.21924851477418567,57,6,-1,1
-0.23836943608132385,58,6,-1,1
0.3424859258992371,59,6,-1,1
0.3103647585556117,60,6,-1,1
0.691289660925173,61,6,-1,1
0.4631983502835651,62,6,-1,1
0.08378679691660013,63,6,-1,1
-0.08065647043742272,0,7,-1,1
0.1418787696483128,1,7,-1,1
0.2444517727846265,2,7,-1,1
0.2758801119755939,3,7,-1,1
-0.0138953462717378,4,7,-1,1
-0.02834925780367487,5,7,-1,1
-0.03443198804811381,6,7,-1,1
-0.46579244931812946,7,7,-1,1
-0.35005420409965027,8,7,-1,1
0.14033877904255387,9,7,-1,1
-1.4942966014788332e-05,10,7,-1,1
-0.31674890751063384,11,7,-1,1
-1.3171668786479378,12,7,-1,1
-0.6890394396428344,13,7,-1,1
-0.10676923275662487,14,7,-1,1
0.048257715328810596,15,7,-1,1
-0.0998853902289822,16,7,-1,1
-0.1469714793718128,17,7,-1,1
-0.5758047846403027,18,7,-1,1
-0.9975378065241446,19,7,-1,1
-1.2658263751702428,20,7,-1,1
-0.8752943562168125,21,7,-1,1
-0.03513556188323253,22,7,-1,1
0.17785793678450743,23,7,-1,1
-0.09347902575424093,24,7,-1,1
-0.5737644941624089,25,7,-1,1
-0.39788050110686984,26,7,-1,1
-0.2358243599406771,27,7,-1,1
-1.0295422306443847,28,7,-1,1
-0.7936915861336848,29,7,-1,1
-0.7341234465162989,30,7,-1,1
0.1579349744461191,31,7,-1,1
-0.009630020257204762,32,7,-1,1
-0.5409988420529338,33,7,-1,1
-0.35685071831901743,34,7,-1,1
-0.3381872665316238,35,7,-1,1
-1.1942987475351905,36,7,-1,1
-1.1102502462761685,37,7,-1,1
-0.7610078987393755,38,7,-1,1
-0.02391908049815918,39,7,-1,1
-0.018002149713239057,40,7,-1,1
-0.09830203028460295,41,7,-1,1
-0.5893003615070482,42,7,-1,1
-1.4521799355499607,43,7,-1,1
-0.8972799138660911,44,7,-1,1
-0.4595833782635435,45,7,-1,1
0.10945197714252212,46,7,-1,1
0.09155899389099291,47,7,-1,1
0.07058015741016414,48,7,-1,1
-0.1048726021801266,49,7,-1,1
-0.6604924978460265,50,7,-1,1
-1.2622505389830494,51,7,-1,1
-1.2740708288936005,52,7,-1,1
-0.5698651447847883,53,7,-1,1
0.09281922122141376,54,7,-1,1
-0.1947849375974121,55,7,-1,1
-0.08914469831206023,56,7,-1,1
-0.00863522774914068,57,7,-1,1
-0.041463873538877455,58,7,-1,1
0.23262895963264127,59,7,-1,1
0.016604279742443728,60,7,-1,1
0.2718693606861226,61,7,-1,1
-0.08923933344032647,62,7,-1,1
-0.13490270019013748,63,7,-1,1
0.1117689893519699,0,8,-1,1
0.003193352261012262,1,8,-1,1
0.178097416363813,2,8,-1,1
-0.21165452316443242,3,8,-1,1
0.38268389504195127,4,8,-1,1
-0.3396545354719109,5,8,-1,1
-0.16143290163343266,6,8,-1,1
-0.03694305163880546,7,8,-1,1
-0.02512140207753089,8,8,-1,1
0.40168741205933517,9,8,-1,1
-0.32676351389727726,10,8,-1,1
-0.4522687862628482,11,8,-1,1
-1.4630940160780919,12,8,-1,1
0.8934674197743441,13,8,-1,1
0.2268813946968054,14,8,-1,1
-0.02263807092540892,15,8,-1,1
0.35541048007069326,16,8,-1,1
0.39548489217659943,17,8,-1,1
-1.056762774608067,18,8,-1,1
-0.8743974817675556,19,8,-1,1
0.8541665654542722,20,8,-1,1
1.7935996254706768,21,8,-1,1
0.4199523472463673,22,8,-1,1
-0.601290820477424,23,8,-1,1
0.35957684464734424,24,8,-1,1
-1.5095924866119843,25,8,-1,1
-2.3427290217425174,26,8,-1,1
-0.9532960769566907,27,8,-1,1
1.5859176929035261,28,8,-1,1
-1.2395940141737418,29,8,-1,1
-1.2815085438073988,30,8,-1,1
-0.1104598480618282,31,8,-1,1
0.13287398488628302,32,8,-1,1
-0.5636972347352006,33,8,-1,1
-0.37283958468954176,34,8,-1,1
-0.5046081855448505,35,8,-1,1
0.6858896711382898,36,8,-1,1
-0.5587525788880975,37,8,-1,1
0.09188872103667142,38,8,-1,1
0.9742953689617005,39,8,-1,1
0.21287383395576734,40,8,-1,1
0.48808180730161105,41,8,-1,1
0.3304529215197765,42,8,-1,1
0.6990923959483225,43,8,-1,1
0.01783627466826589,44,8,-1,1
-1.3264447032042714,45,8,-1,1
0.6987371230850863,46,8,-1,1
0.8173477257829821,47,8,-1,1
0.13795815357510177,48,8,-1,1
0.06491043782493576,49,8,-1,1
1.9099675546814625,50,8,-1,1
0.05802841824233153,51,8,-1,1
-2.8740532192615555,52,8,-1,1
-0.2562838889767335,53,8,-1,1
0.4669317396567353,54,8,-1,1
0.14305427743794785,55,8,-1,1
0.0321057380890938,56,8,-1,1
-0.011191889876907628,57,8,-1,1
-0.06298909312197033,58,8,-1,1
-1.1112209835423288,59,8,-1,1
-0.6498775328280721,60,8,-1,1
-0.6179965601142349,61,8,-1,1
-0.1875130526229575,62,8,-1,1
0.07448042526425872,63,8,-1,1
-0.1272308463487731,0,9,-1,1
-0.10170861327639041,1,9,-1,1
0.09308937431158466,2,9,-1,1
0.02979258828095037,3,9,-1,1
-0.31302066170730675,4,9,-1,1
0.0340712270097351,5,9,-1,1
-0.2503290873877981,6,9,-1,1
0.2746865270564107,7,9,-1,1
-0.03267837464277578,8,9,-1,1
-0.10437575193976144,9,9,-1,1
0.3190934257402483,10,9,-1,1
-0.14073506754615475,11,9,-1,1
-0.6339626380484685,12,9,-1,1
-0.5609210533418306,13,9,-1,1
-0.19257001475716684,14,9,-1,1
0.10193767468667586,15,9,-1,1
-0.010462667933239191,16,9,-1,1
-0.24756689136111992,17,9,-1,1
-0.9292708104803722,18,9,-1,1
-0.5597447364714684,19,9,-1,1
-0.9186952318628568,20,9,-1,1
-0.586954091737091,21,9,-1,1
0.1796159010108832,22,9,-1,1
-0.5636579948956639,23,9,-1,1
0.023350858224037138,24,9,-1,1
-0.269346892577459,25,9,-1,1
-0.8109442251851043,26,9,-1,1
-0.8672878914021473,27,9,-1,1
-0.7311715727085348,28,9,-1,1
-1.2516663314863372,29,9,-1,1
-0.2360510157251829,30,9,-1,1
-0.03194189528125061,31,9,-1,1
-0.27830501911869676,32,9,-1,1
-0.04429972774189802,33,9,-1,1
-0.784990153803646,34,9,-1,1
-1.02620528049499,35,9,-1,1
-0.6382751155673229,36,9,-1,1
-1.5378511238526336,37,9,-1,1
-0.3591587321717148,38,9,-1,1
0.019674341256058107,39,9,-1,1
0.13642994733796573,40,9,-1,1
-0.22405100199040515,41,9,-1,1
-0.6431769297147331,42,9,-1,1
-1.5136661029913805,43,9,-1,1
-1.4572310463362033,44,9,-1,1
-0.972030925473945,45,9,-1,1
0.0242597051275843,46,9,-1,1
0.09650555166555645,47,9,-1,1
-0.0979748250467128,48,9,-1,1
0.0902915141676115,49,9,-1,1
-0.17205124541045608,50,9,-1,1
-0.813664481792551,51,9,-1,1
-0.6318441821622394,52,9,-1,1
-0.40130727193380217,53,9,-1,1
0.05932212490068018,54,9,-1,1
-0.10580530945384374,55,9,-1,1
-0.11322805303193209,56,9,-1,1
-0.08996829454147805,57,9,-1,1
-0.014636297079444308,58,9,-1,1
0.0070547937070522555,59,9,-1,1
0.2220608632014078,60,9,-1,1
0.06103674109743173,61,9,-1,1
-0.07874528483478493,62,9,-1,1
-0.10096535447597593,63,9,-1,1
-0.008278637473338197,0,10,-1,1
0.06520498766329967,1,10,-1,1
0.38342058175477534,2,10,-1,1
1.3291258803651207,3,10,-1,1
1.1575597560226676,4,10,-1,1
1.18446565109904,5,10,-1,1
0.2520548304481186,6,10,-1,1
-0.06317178620594391,7,10,-1,1
-0.08744790827212783,8,10,-1,1
0.26208736671304966,9,10,-1,1
-0.6639205366214077,10,10,-1,1
0.18109693845731664,11,10,-1,1
1.6555948097766846,12,10,-1,1
0.17724303968423163,13,10,-1,1
-0.6898187802201435,14,10,-1,1
-0.4600193379648982,15,10,-1,1
0.5915458071576324,16,10,-1,1
-0.2149141211447189,17,10,-1,1
-1.460613261326641,18,10,-1,1
3.6858221854073534,19,10,-1,1
1.5843545629503026,20,10,-1,1
-0.8881965437596946,21,10,-1,1
0.28445021481177396,22,10,-1,1
-1.3915911735135924,23,10,-1,1
0.4395641964050778,24,10,-1,1
0.13650184918940594,25,10,-1,1
-1.0278413016192238,26,10,-1,1
0.00915173585450514,27,10,-1,1
2.0116544074471316,28,10,-1,1
1.9507004860275259,29,10,-1,1
1.1893574891165495,30,10,-1,1
-0.31171025759611887,31,10,-1,1
0.21893686058489487,32,10,-1,1
-1.219232737529732,33,10,-1,1
-2.2699659558709313,34,10,-1,1
-2.4391985594205843,35,10,-1,1
-1.1545933427486532,36,10,-1,1
0.2542222733189562,37,10,-1,1
-0.9919862622354325,38,10,-1,1
0.6232600843604865,39,10,-1,1
0.349542968298821,40,10,-1,1
-0.2333158989568953,41,10,-1,1
2.3074096942360685,42,10,-1,1
-0.2292050409261848,43,10,-1,1
0.5472764507409297,44,10,-1,1
1.9735422163732053,45,10,-1,1
-0.5710964557322535,46,10,-1,1
-0.2419590421579308,47,10,-1,1
0.02415822567022434,48,10,-1,1
1.3092944999790184,49,10,-1,1
1.485127865619578,50,10,-1,1
-0.09300830458538524,51,10,-1,1
-1.1864071166699415,52,10,-1,1
-2.2967968472797575,53,10,-1,1
-0.47736018226481436,54,10,-1,1
-0.1630691368362137,55,10,-1,1
0.03201449515336251,56,10,-1,1
0.17135154321922136,57,10,-1,1
2.1215954736712845,58,10,-1,1
2.036434359001908,59,10,-1,1
1.2014817070040282,60,10,-1,1
2.2917714631669868,61,10,-1,1
0.34344266230762316,62,10,-1,1
-0.08379271968489942,63,10,-1,1
-0.10389681424418445,0,11,-1,1
0.21354379514820993,1,11,-1,1
-0.0014335323203190687,2,11,-1,1
-0.5859294020381725,3,11,-1,1
-0.3168897308740505,4,11,-1,1
-0.8084069287981482,5,11,-1,1
-0.4312447062099597,6,11,-1,1
0.03781479084238197,7,11,-1,1
-0.05231866764714129,8,11,-1,1
-0.6791331777955081,9,11,-1,1
-0.9153537788602059,10,11,-1,1
-1.2869246546268238,11,11,-1,1
-2.1212397705213704,12,11,-1,1
-1.6517851438110396,13,11,-1,1
0.6887413777170047,14,11,-1,1
-0.007073687727241414,15,11,-1,1
0.1591953516818098,16,11,-1,1
-0.9502514786171088,17,11,-1,1
0.5284601080546153,18,11,-1,1
1.431582230606893,19,11,-1,1
0.5703514695546916,20,11,-1,1
-0.6145960321196468,21,11,-1,1
1.348555168161443,22,11,-1,1
1.7877939474421203,23,11,-1,1
0.09316981148028797,24,11,-1,1
-0.13844519870787494,25,11,-1,1
-0.9729434354052521,26,11,-1,1
0.2106265629238412,27,11,-1,1
1.208050057152776,28,11,-1,1
-1.6005869027617465,29,11,-1,1
0.15689850320617468,30,11,-1,1
1.0402153839670767,31,11,-1,1
0.18831999784281497,32,11,-1,1
-0.7476974815863845,33,11,-1,1
-2.2534296779895393,34,11,-1,1
-0.015010294130421192,35,11,-1,1
-0.17863937008568598,36,11,-1,1
-2.49835688527784,37,11,-1,1
-0.6773250338757868,38,11,-1,1
-0.00956746759510299,39,11,-1,1
-0.6030717373058834,40,11,-1,1
-0.8025974475822979,41,11,-1,1
0.4243835525747435,42,11,-1,1
3.0838945350081453,43,11,-1,1
-2.597666929831801,44,11,-1,1
-2.313866673881756,45,11,-1,1
-0.668662038603959,46,11,-1,1
0.6584790932925767,47,11,-1,1
-0.1609706601400452,48,11,-1,1
-1.1226392889375072,49,11,-1,1
0.5729101045485064,50,11,-1,1
1.1223418634120081,51,11,-1,1
-0.3747211572644531,52,11,-1,1
-1.120098020083009,53,11,-1,1
0.3531425900695781,54,11,-1,1
-0.05311105790265691,55,11,-1,1
0.21789731501070037,56,11,-1,1
-0.6083444149837195,57,11,-1,1
-1.5874159478367889,58,11,-1,1
-0.4720749233304789,59,11,-1,1
-0.1197650897662941,60,11,-1,1
-0.6719760201093524,61,11,-1,1
-0.14901494485211472,62,11,-1,1
0.20044148655174648,63,11,-1,1
0.049546967017399385,0,12,-1,1
-0.2615991615692519,1,12,-1,1
-0.06763037544201195,2,12,-1,1
1.446466765091658,3,12,-1,1
1.5974206056793694,4,12,-1,1
1.3014530559839748,5,12,-1,1
0.5598892849466216,6,12,-1,1
-0.3258498827872807,7,12,-1,1
-0.361367215379424,8,12,-1,1
-0.3835389041334103,9,12,-1,1
0.9086867836341823,10,12,-1,1
-0.5969203172545454,11,12,-1,1
-1.8742922672933082,12,12,-1,1
-1.41406829396183,13,12,-1,1
-1.2218405441681532,14,12,-1,1
-0.27914422607823014,15,12,-1,1
0.12874683850866236,16,12,-1,1
0.046596341691882724,17,12,-1,1
2.8202334092234946,18,12,-1,1
0.643079222040258,19,12,-1,1
-1.9858733104206834,20,12,-1,1
-3.357054669431624,21,12,-1,1
-2.281719002730587,22,12,-1,1
0.5792962777837188,23,12,-1,1
-0.03051671942446121,24,12,-1,1
-0.10012765701115409,25,12,-1,1
-1.887301772900991,26,12,-1,1
-2.4058468644798396,27,12,-1,1
-0.04699162283330558,28,12,-1,1
0.792320823253372,29,12,-1,1
0.22244694005435037,30,12,-1,1
0.7491795195225217,31,12,-1,1
0.07090671110381035,32,12,-1,1
-2.2963154485402653,33,12,-1,1
-2.14450772390058,34,12,-1,1
-0.2620732660664176,35,12,-1,1
0.3044791168671267,36,12,-1,1
1.4135154352157853,37,12,-1,1
1.0460776250724737,38,12,-1,1
0.10117593027103677,39,12,-1,1
-0.10311161882132859,40,12,-1,1
-2.1912982704448147,41,12,-1,1
-0.12639220414489344,42,12,-1,1
2.167878209283204,43,12,-1,1
0.4455535285909229,44,12,-1,1
-1.0591638202517082,45,12,-1,1
-1.1176713165995817,46,12,-1,1
0.10108634759042101,47,12,-1,1
-0.3311041180917974,48,12,-1,1
-0.5090102087074007,49,12,-1,1
-1.1937811518080939,50,12,-1,1
-0.17128547538712674,51,12,-1,1
-0.6185368886040143,52,12,-1,1
-3.9659553200156785,53,12,-1,1
-1.1239479565289545,54,12,-1,1
0.1406793725126224,55,12,-1,1
-0.032917580690681236,56,12,-1,1
-0.2675204813746722,57,12,-1,1
0.31871618389728484,58,12,-1,1
0.5001243116285289,59,12,-1,1
0.49628288046844576,60,12,-1,1
-0.17734197870650198,61,12,-1,1
-0.29661777941795864,62,12,-1,1
-0.008815034300642061,63,12,-1,1
-0.00855498781090914,0,13,-1,1
0.20234721285384982,1,13,-1,1
0.4091916855848154,2,13,-1,1
1.3881036844997527,3,13,-1,1
1.8667888627639702,4,13,-1,1
1.6238489666640818,5,13,-1,1
0.7917415360087549,6,13,-1,1
-0.23401617995212387,7,13,-1,1
-0.1475928275061545,8,13,-1,1
0.2996094526641934,9,13,-1,1
2.0043880229103515,10,13,-1,1
1.4831402083505378,11,13,-1,1
1.95852944106957,12,13,-1,1
1.841816675361361,13,13,-1,1
0.4895533854405807,14,13,-1,1
0.16919838285443128,15,13,-1,1
0.27491579260111054,16,13,-1,1
1.4271990249227695,17,13,-1,1
0.4407826299393306,18,13,-1,1
0.01746249944543692,19,13,-1,1
-0.7882752303418762,20,13,-1,1
-2.1926504418510064,21,13,-1,1
-1.7108515735263359,22,13,-1,1
-1.043810973234174,23,13,-1,1
0.6619927746293855,24,13,-1,1
-0.7937445547110535,25,13,-1,1
-2.032676828990273,26,13,-1,1
-3.042796996454956,27,13,-1,1
2.552621368687028,28,13,-1,1
-0.5541726694588077,29,13,-1,1
-0.2676131635460365,30,13,-1,1
-0.9919044038369675,31,13,-1,1
-0.020435582854319397,32,13,-1,1
-1.2369502748726942,33,13,-1,1
-1.6268330686051329,34,13,-1,1
-0.5488492641344654,35,13,-1,1
1.1296618874319455,36,13,-1,1
-1.6201917828582286,37,13,-1,1
0.6453260373020355,38,13,-1,1
-0.3048751331046368,39,13,-1,1
0.10829151553958374,40,13,-1,1
-0.5736792293086329,41,13,-1,1
0.9836522803864123,42,13,-1,1
1.7026161351888032,43,13,-1,1
0.13331838901616982,44,13,-1,1
1.7650209732449567,45,13,-1,1
0.27356338572115474,46,13,-1,1
-0.34532178382664147,47,13,-1,1
-0.13307720417969734,48,13,-1,1
1.395878801326406,49,13,-1,1
2.241205832505968,50,13,-1,1
0.5519549265193092,51,13,-1,1
2.036059101186614,52,13,-1,1
1.5052434076996473,53,13,-1,1
-0.044799411021575544,54,13,-1,1
-0.21114637356879354,55,13,-1,1
0.024132805776829497,56,13,-1,1
0.20778011821097403,57,13,-1,1
0.5286824231828965,58,13,-1,1
-0.0204567950529223,59,13,-1,1
-1.4902957084615278,60,13,-1,1
0.015995400839217043,61,13,-1,1
-0.2380904005776418,62,13,-1,1
0.10414818948414176,63,13,-1,1
-0.3879915310795973,0,14,-1,1
-0.06792002866000507,1,14,-1,1
0.1472402167780736,2,14,-1,1
-0.07019493731198163,3,14,-1,1
-0.26799859490557715,4,14,-1,1
-0.0421545441120191,5,14,-1,1
-0.1132814986438753,6,14,-1,1
-0.14130485722569325,7,14,-1,1
-0.06504695914122881,8,14,-1,1
-0.31152226769904884,9,14,-1,1
-0.22766295766019054,10,14,-1,1
-0.9986527068608426,11,14,-1,1
-1.1874622090290476,12,14,-1,1
-0.8830327775619589,13,14,-1,1
-0.034904548548826346,14,14,-1,1
0.144754165507668,15,14,-1,1
-0.14161478377374073,16,14,-1,1
-0.3275960100411784,17,14,-1,1
-0.8581866441584265,18,14,-1,1
-0.8453791263800863,19,14,-1,1
-1.1827190437441624,20,14,-1,1
-0.8862279937084065,21,14,-1,1
-0.16016204220730937,22,14,-1,1
0.07409136345204682,23,14,-1,1
0.1396528780040943,24,14,-1,1
-0.2029188977432163,25,14,-1,1
-0.08835776945134644,26,14,-1,1
-0.6910035343507672,27,14,-1,1
-0.8861081881851193,28,14,-1,1
-0.5475870856520834,29,14,-1,1
-0.8379847017297509,30,14,-1,1
0.27396321568466087,31,14,-1,1
0.03199009735813555,32,14,-1,1
-0.22171757662061273,33,14,-1,1
-0.909716459246942,34,14,-1,1
-1.0080381832083511,35,14,-1,1
-0.7182587049194129,36,14,-1,1
-0.9738931557872328,37,14,-1,1
-0.9377828713418047,38,14,-1,1
0.1754696481911621,39,14,-1,1
-0.005970189683312276,40,14,-1,1
-0.0920740182987092,41,14,-1,1
-0.6848670314751345,42,14,-1,1
-1.346938208901694,43,14,-1,1
-1.032562575889563,44,14,-1,1
-1.5018188757008315,45,14,-1,1
-0.3748881145634725,46,14,-1,1
0.2842112801513138,47,14,-1,1
-0.10011614051517365,48,14,-1,1
-0.19004781329632056,49,14,-1,1
-0.7087499878397849,50,14,-1,1
-1.1313127642701324,51,14,-1,1
-1.0460583008259183,52,14,-1,1
-0.7337863336977376,53,14,-1,1
0.14118564580609003,54,14,-1,1
0.018154132248084556,55,14,-1,1
0.11800292395855025,56,14,-1,1
-0.21924527872784869,57,14,-1,1
0.12624862606949544,58,14,-1,1
0.21883350010441122,59,14,-1,1
0.04236522941393521,60,14,-1,1
0.21337023524654042,61,14,-1,1
-0.1874310315378232,62,14,-1,1
-0.11886182904380697,63,14,-1,1
-0.23534480360570362,0,15,-1,1
-0.2330557389115492,1,15,-1,1
0.25327847612832605,2,15,-1,1
-0.26035816551595903,3,15,-1,1
-0.48892159017702647,4,15,-1,1
-0.48716449176766474,5,15,-1,1
-0.16265093206079034,6,15,-1,1
-0.11822590674638465,7,15,-1,1
-0.1680352811439357,8,15,-1,1
-0.527050786643276,9,15,-1,1
-0.6417051085303249,10,15,-1,1
1.9421515226520678,11,15,-1,1
2.0649494257820025,12,15,-1,1
1.1287132607533334,13,15,-1,1
-0.7702826831587153,14,15,-1,1
-0.6035413738260912,15,15,-1,1
-0.19457968393173167,16,15,-1,1
-0.2631819000885936,17,15,-1,1
1.262804685063868,18,15,-1,1
-1.3806168588191727,19,15,-1,1
0.04015437268778794,20,15,-1,1
1.0673151319548653,21,15,-1,1
3.0066629887682947,22,15,-1,1
2.407768856184721,23,15,-1,1
-0.5433578198510826,24,15,-1,1
-0.8807672842103454,25,15,-1,1
-0.6523188250284778,26,15,-1,1
-0.4196360083864542,27,15,-1,1
-1.0908920965110434,28,15,-1,1
-3.0623403123784207,29,15,-1,1
0.8520351072713144,30,15,-1,1
1.972772255179723,31,15,-1,1
0.05029983704221684,32,15,-1,1
-1.8638076641227324,33,15,-1,1
-1.8633006720540526,34,15,-1,1
1.3362997921648356,35,15,-1,1
-3.4837766928571545,36,15,-1,1
-4.211961734837749,37,15,-1,1
-2.107036915089168,38,15,-1,1
0.5630688453163102,39,15,-1,1
-0.10360620466887675,40,15,-1,1
3.2692673409630344,41,15,-1,1
3.9264247544300845,42,15,-1,1
-0.6535105961949135,43,15,-1,1
-1.2738410611224793,44,15,-1,1
2.9020781763296624,45,15,-1,1
2.519242232995062,46,15,-1,1
0.6447977207205524,47,15,-1,1
-0.1318922288088961,48,15,-1,1
1.0367466431035397,49,15,-1,1
3.7097386264723657,50,15,-1,1
3.928218650451655,51,15,-1,1
2.68513385838971,52,15,-1,1
2.011106386626028,53,15,-1,1
0.8418874603163541,54,15,-1,1
-0.19530346492716766,55,15,-1,1
0.12643675600079213,56,15,-1,1
-1.2648220775307308,57,15,-1,1
-2.6527940631351377,58,15,-1,1
-1.3686121386841337,59,15,-1,1
0.10668661232300339,60,15,-1,1
-1.0149141908305581,61,15,-1,1
-0.5668587221895175,62,15,-1,1
-0.09451461901494351,63,15,-1,1
-0.04590463199221472,0,16,-1,1
0.11847804595605758,1,16,-1,1
-0.20593648790629407,2,16,-1,1
-0.8907311926903823,3,16,-1,1
-1.2198963869954804,4,16,-1,1
-1.1430776372403677,5,16,-1,1
-0.6001464313132744,6,16,-1,1
-0.06393177777344337,7,16,-1,1
0.12489620731914354,8,16,-1,1
-0.821005989919786,9,16,-1,1
-0.530817509982379,10,16,-1,1
-1.0864363365476408,11,16,-1,1
-0.8247202941721224,12,16,-1,1
0.06944031498615078,13,16,-1,1
1.1898862194009796,14,16,-1,1
0.7700075818633,15,16,-1,1
-0.5158309591357386,16,16,-1,1
-0.8650994999570184,17,16,-1,1
-0.03580841683505281,18,16,-1,1
0.2340444730512404,19,16,-1,1
-2.787192680335346,20,16,-1,1
-0.39501387050616654,21,16,-1,1
1.6548203985021717,22,16,-1,1
2.524760689295231,23,16,-1,1
-0.39885338548783406,24,16,-1,1
-0.44608486464977654,25,16,-1,1
-0.4126398084540112,26,16,-1,1
2.8210440634967435,27,16,-1,1
-2.9869058396952384,28,16,-1,1
-2.9182005155289565,29,16,-1,1
-3.7453105891858676,30,16,-1,1
-0.02515648908361571,31,16,-1,1
-0.48258034259818094,32,16,-1,1
0.23487652490033864,33,16,-1,1
-0.5245309998136481,34,16,-1,1
0.99457213293567,35,16,-1,1
0.847071739879756,36,16,-1,1
-0.5584648669313014,37,16,-1,1
-1.6015917581686994,38,16,-1,1
-0.4986696182927376,39,16,-1,1
-0.49975165014652,40,16,-1,1
0.6049208499561213,41,16,-1,1
-0.5123672243900965,42,16,-1,1
1.6525016433808746,43,16,-1,1
1.1736528716884687,44,16,-1,1
1.0198976326870726,45,16,-1,1
1.635682142022718,46,16,-1,1
0.8756607034419336,47,16,-1,1
0.16060509395852673,48,16,-1,1
-1.065106050205756,49,16,-1,1
-0.08457609296379719,50,16,-1,1
-0.11148485070986777,51,16,-1,1
0.6922231201208906,52,16,-1,1
2.508695699919369,53,16,-1,1
1.6137495611977257,54,16,-1,1
0.05907866495486535,55,16,-1,1
0.10863646258323721,56,16,-1,1
-0.8192157248596622,57,16,-1,1
-1.6299535002498478,58,16,-1,1
-1.4599211550917994,59,16,-1,1
-2.020757783822652,60,16,-1,1
-2.219827059482122,61,16,-1,1
-0.2796779374452008,62,16,-1,1
-0.20365057801482106,63,16,-1,1
-0.010755914269476094,0,17,-1,1
-0.16365198573159492,1,17,-1,1
0.49185048755315264,2,17,-1,1
1.06780671697537,3,17,-1,1
0.11492257052531024,4,17,-1,1
-0.08987493244988627,5,17,-1,1
0.24166639713988933,6,17,-1,1
-0.08551679859833584,7,17,-1,1
-0.031464051873885485,8,17,-1,1
-0.15037668564535442,9,17,-1,1
-0.24490022680868176,10,17,-1,1
0.5619967023262126,11,17,-1,1
0.20472452402408917,12,17,-1,1
-1.1910040993544366,13,17,-1,1
-1.2999370040009164,14,17,-1,1
-0.15806687288137328,15,17,-1,1
-0.021628398927028607,16,17,-1,1
-0.6966322898373614,17,17,-1,1
-0.8917995384878827,18,17,-1,1
-0.31066359329042137,19,17,-1,1
-0.4369629696896129,20,17,-1,1
-2.207370839731917,21,17,-1,1
-0.5626181303832423,22,17,-1,1
0.19703635033598685,23,17,-1,1
-0.0934106190648895,24,17,-1,1
0.7879437682229419,25,17,-1,1
0.12296519002429845,26,17,-1,1
-2.0375190498586684,27,17,-1,1
-1.0939685303700968,28,17,-1,1
-0.5417080032252026,29,17,-1,1
0.4670902290888702,30,17,-1,1
-0.02208077651927754,31,17,-1,1
-0.012456372408773043,32,17,-1,1
-1.5182357329949772,33,17,-1,1
-1.7755650655759398,34,17,-1,1
-0.9689075165716793,35,17,-1,1
-2.13979564591153,36,17,-1,1
-2.3680034285493066,37,17,-1,1
-1.048144237818273,38,17,-1,1
0.2365004167229701,39,17,-1,1
-0.089889461202243,40,17,-1,1
-0.021398484752048082,41,17,-1,1
0.14953481652137643,42,17,-1,1
-0.9818565307476161,43,17,-1,1
-1.6661273119765085,44,17,-1,1
-0.5451818853037992,45,17,-1,1
0.5996499309312072,46,17,-1,1
0.19112022192535597,47,17,-1,1
-0.1458445570930511,48,17,-1,1
0.020899978724782595,49,17,-1,1
-0.48381014362329416,50,17,-1,1
-1.3407701645759325,51,17,-1,1
-1.200746792669314,52,17,-1,1
-0.8093782569920814,53,17,-1,1
-0.04947646987635562,54,17,-1,1
-0.18449295434127255,55,17,-1,1
-0.23828829535220392,56,17,-1,1
-0.30368620510553307,57,17,-1,1
0.1563315603067984,58,17,-1,1
0.5820116798620005,59,17,-1,1
0.8534612433875255,60,17,-1,1
1.2334005347788912,61,17,-1,1
0.05796536339090723,62,17,-1,1
-0.07704907906976632,63,17,-1,1
-0.000411632417376368,0,18,-1,1
-0.06923013809845303,1,18,-1,1
0.10809963323795335,2,18,-1,1
0.4103370923657463,3,18,-1,1
-0.28331613125335287,4,18,-1,1
-0.2546853240683276,5,18,-1,1
-0.20991213130528902,6,18,-1,1
0.20147983744906867,7,18,-1,1
0.06486866098375717,8,18,-1,1
0.08063040036138797,9,18,-1,1
-1.0219137214492322,10,18,-1,1
-0.8375572230024599,11,18,-1,1
-1.642560101546726,12,18,-1,1
-2.9830320773157957,13,18,-1,1
-1.237641304425532,14,18,-1,1
-0.11258444455458448,15,18,-1,1
-0.047661363993515365,16,18,-1,1
-1.074167271351897,17,18,-1,1
-0.5528852093689249,18,18,-1,1
-0.023160150394527346,19,18,-1,1
0.5474150871550313,20,18,-1,1
-0.6277185989026283,21,18,-1,1
-0.035347136675092164,22,18,-1,1
0.4866376034255234,23,18,-1,1
0.1192716305046905,24,18,-1,1
-0.43645281018962223,25,18,-1,1
0.622897507318649,26,18,-1,1
1.053740681528339,27,18,-1,1
2.337252416874932,28,18,-1,1
-1.9925824411538084,29,18,-1,1
-0.5573118688892927,30,18,-1,1
0.7937012920932836,31,18,-1,1
0.3824572502529018,32,18,-1,1
-0.14079966969435428,33,18,-1,1
-0.24197698570735482,34,18,-1,1
0.9646234303220574,35,18,-1,1
-0.06920408282512819,36,18,-1,1
-2.2863050419349085,37,18,-1,1
0.9074247878356926,38,18,-1,1
0.8719052842918138,39,18,-1,1
-0.16123484166631297,40,18,-1,1
1.100516168451957,41,18,-1,1
0.1365942821255074,42,18,-1,1
0.29020551207091977,43,18,-1,1
-1.2051885562097255,44,18,-1,1
-0.6551468153075879,45,18,-1,1
1.5683748598043503,46,18,-1,1
0.5097401360342836,47,18,-1,1
0.18686103850693633,48,18,-1,1
0.10819546489068305,49,18,-1,1
-1.8756512391486344,50,18,-1,1
-3.265063067388871,51,18,-1,1
-3.044312595496643,52,18,-1,1
-1.3210455717164915,53,18,-1,1
0.017760845412986063,54,18,-1,1
0.030240203137316422,55,18,-1,1
0.01165811335514875,56,18,-1,1
0.191039039556221,57,18,-1,1
-0.07792059577140116,58,18,-1,1
-0.3315009956128565,59,18,-1,1
0.6856214599846999,60,18,-1,1
0.4254011287983475,61,18,-1,1
0.40107021345816246,62,18,-1,1
0.1565130838367838,63,18,-1,1
0.047692994422531554,0,19,-1,1
0.3232271324620199,1,19,-1,1
-0.043414682337335864,2,19,-1,1
-0.0413703774394553,3,19,-1,1
1.143177338545286,4,19,-1,1
0.37459531964285436,5,19,-1,1
-0.01766595947831156,6,19,-1,1
0.004942283754340835,7,19,-1,1
0.1600229556160631,8,19,-1,1
-1.3506668476833126,9,19,-1,1
-1.537323233133595,10,19,-1,1
-2.7173598667744208,11,19,-1,1
-3.148605208169543,12,19,-1,1
1.2924155679936709,13,19,-1,1
2.3882318462798557,14,19,-1,1
0.6477096731979411,15,19,-1,1
0.11525696196890894,16,19,-1,1
-0.6694860871297611,17,19,-1,1
0.5162737798651099,18,19,-1,1
1.843108570605941,19,19,-1,1
-1.311271867282234,20,19,-1,1
0.6715176449416054,21,19,-1,1
-0.004462749598084549,22,19,-1,1
1.569736244988034,23,19,-1,1
0.22197729070431615,24,19,-1,1
2.0524745007014547,25,19,-1,1
2.0822012660687457,26,19,-1,1
2.0328329817263184,27,19,-1,1
-1.8654643887705127,28,19,-1,1
0.1507543836957145,29,19,-1,1
-3.8460933408644316,30,19,-1,1
-0.3750633590485694,31,19,-1,1
0.48127942840126126,32,19,-1,1
-1.5333566764327353,33,19,-1,1
-1.926847831829444,34,19,-1,1
-4.836151206861356,35,19,-1,1
-2.819016894696452,36,19,-1,1
-0.20000741428696905,37,19,-1,1
-0.993059715976918,38,19,-1,1
-0.5657871817850743,39,19,-1,1
0.2614349614789924,40,19,-1,1
-1.117187851988725,41,19,-1,1
-2.5791532154030654,42,19,-1,1
-0.8286467696265176,43,19,-1,1
-0.6075541043758081,44,19,-1,1
-0.20659835240747318,45,19,-1,1
-1.3010737220903938,46,19,-1,1
0.38293152175674805,47,19,-1,1
-0.07740618150754934,48,19,-1,1
-0.35150501600864215,49,19,-1,1
0.2337467907582863,50,19,-1,1
0.42154149135240704,51,19,-1,1
0.37439334650991446,52,19,-1,1
0.436017213633145,53,19,-1,1
-0.3363164779911938,54,19,-1,1
0.46343447462173426,55,19,-1,1
-0.12300332448768504,56,19,-1,1
0.2563927552287819,57,19,-1,1
0.23912726556112346,58,19,-1,1
0.46476889393016163,59,19,-1,1
0.4857758817286316,60,19,-1,1
-0.001766915496408478,61,19,-1,1
0.1184760609838109,62,19,-1,1
-0.1384201197975354,63,19,-1,1
0.20661348136706664,0,20,-1,1
-0.11192018529258026,1,20,-1,1
-0.09489779418027323,2,20,-1,1
0.1992613979578807,3,20,-1,1
0.26272136843899446,4,20,-1,1
0.15015146989128328,5,20,-1,1
-0.2420381659638869,6,20,-1,1
0.12266008163165873,7,20,-1,1
-0.0206280038131944,8,20,-1,1
-0.004776772534118204,9,20,-1,1
0.2255220111406706,10,20,-1,1
-0.5364297325445291,11,20,-1,1
-1.492918867810406,12,20,-1,1
-1.221300346645926,13,20,-1,1
-0.1549769622707199,14,20,-1,1
0.08642064638721685,15,20,-1,1
0.26469753527236034,16,20,-1,1
0.0574348227859697,17,20,-1,1
-0.21425015871008488,18,20,-1,1
-0.422293551253765,19,20,-1,1
-0.8748730802382971,20,20,-1,1
-0.528674152022183,21,20,-1,1
0.1271539152378091,22,20,-1,1
-0.4583480415860671,23,20,-1,1
0.2116812935107483,24,20,-1,1
0.14019008330869384,25,20,-1,1
-0.35261939292855937,26,20,-1,1
-0.1459619090971662,27,20,-1,1
-0.24396328190766736,28,20,-1,1
-0.4510244705419218,29,20,-1,1
0.3840009702219172,30,20,-1,1
0.11505230767327988,31,20,-1,1
-0.17129337671288236,32,20,-1,1
0.1995785485690774,33,20,-1,1
-0.6097399885135885,34,20,-1,1
-1.5136040145424927,35,20,-1,1
-1.1864129215741894,36,20,-1,1
-0.09990886697382205,37,20,-1,1
0.13411548421932584,38,20,-1,1
0.44089138407991846,39,20,-1,1
0.11811874814279029,40,20,-1,1
-0.1566327605955265,41,20,-1,1
-1.0710169274436567,42,20,-1,1
-1.9828457970719815,43,20,-1,1
-1.641586641956553,44,20,-1,1
-0.7558943837171525,45,20,-1,1
0.25849411687778046,46,20,-1,1
0.18792319706838576,47,20,-1,1
-0.10713563620143148,48,20,-1,1
0.20128017330992873,49,20,-1,1
-0.3526786113378825,50,20,-1,1
-1.7331683234030744,51,20,-1,1
-1.205175410738513,52,20,-1,1
-0.24139989441099524,53,20,-1,1
-0.01040271609179418,54,20,-1,1
-0.1883192429127789,55,20,-1,1
-0.3667415616396034,56,20,-1,1
0.10421933680538105,57,20,-1,1
0.3167879439074812,58,20,-1,1
0.4814608290623648,59,20,-1,1
0.5641838672199073,60,20,-1,1
0.5902457391077791,61,20,-1,1
-0.07137178391640255,62,20,-1,1
0.0109666286036348,63,20,-1,1
-0.2131080579038919,0,21,-1,1
-0.14869664361886303,1,21,-1,1
-0.11061306406249274,2,21,-1,1
-0.23036560737538656,3,21,-1,1
-0.53339318785704,4,21,-1,1
-0.709724181770134,5,21,-1,1
-0.5516283345268097,6,21,-1,1
-0.026476408316292027,7,21,-1,1
-0.1420718791248719,8,21,-1,1
0.05599114008185699,9,21,-1,1
-0.1167919486726425,10,21,-1,1
2.060845847011653,11,21,-1,1
2.9603185641439116,12,21,-1,1
2.254944077298985,13,21,-1,1
1.6934875957946987,14,21,-1,1
0.008992430098480149,15,21,-1,1
-0.6361214178383999,16,21,-1,1
-0.2658912708489455,17,21,-1,1
-2.021877203133627,18,21,-1,1
1.3023056191235598,19,21,-1,1
-1.9172361473456607,20,21,-1,1
-3.335911326398728,21,21,-1,1
-1.4907913664867585,22,21,-1,1
-1.070837786098015,23,21,-1,1
-1.041575781502512,24,21,-1,1
-0.3685100051092724,25,21,-1,1
0.045168436506511846,26,21,-1,1
3.4922842397266622,27,21,-1,1
-1.9539786325161628,28,21,-1,1
0.34404875788458794,29,21,-1,1
0.060033900712178394,30,21,-1,1
-0.64502041125068,31,21,-1,1
-0.4802969461583777,32,21,-1,1
0.3049150257168359,33,21,-1,1
1.3086249794061777,34,21,-1,1
3.00778492892169,35,21,-1,1
0.8414164503193513,36,21,-1,1
0.5851097424175333,37,21,-1,1
1.0723799514617518,38,21,-1,1
0.11028851747342756,39,21,-1,1
0.15250419113842828,40,21,-1,1
-0.5463171018335982,41,21,-1,1
1.2173923472648152,42,21,-1,1
-1.5314745510432142,43,21,-1,1
0.7600718752801034,44,21,-1,1
1.8678266008669129,45,21,-1,1
1.144828116808601,46,21,-1,1
-0.2721671460107975,47,21,-1,1
-0.1630712490903594,48,21,-1,1
0.01837221702045598,49,21,-1,1
0.33715026308064433,50,21,-1,1
0.3206902728033393,51,21,-1,1
1.222260323616311,52,21,-1,1
2.0591517856253416,53,21,-1,1
0.43622249068944297,54,21,-1,1
-0.2722359505180702,55,21,-1,1
-0.00746061353914724,56,21,-1,1
-0.09335595858147,57,21,-1,1
0.3827268570632622,58,21,-1,1
-0.2340910652404179,59,21,-1,1
-1.1871185229227006,60,21,-1,1
0.0522849027668544,61,21,-1,1
0.05573250732886919,62,21,-1,1
-0.29790509749282795,63,21,-1,1
0.1257066303242093,0,22,-1,1
-0.1974296310202988,1,22,-1,1
-0.2852532826621815,2,22,-1,1
0.07178367466737767,3,22,-1,1
-0.052537193437922874,4,22,-1,1
0.17375868716124104,5,22,-1,1
-0.18489375656847995,6,22,-1,1
0.0505094531263734,7,22,-1,1
-0.2832445776359558,8,22,-1,1
-0.20362839850451997,9,22,-1,1
0.6246546635505232,10,22,-1,1
-0.563773292471038,11,22,-1,1
-0.5464565797002405,12,22,-1,1
-0.7046547416164074,13,22,-1,1
-0.4316971109265142,14,22,-1,1
-0.16334930683532214,15,22,-1,1
-0.10240020383603719,16,22,-1,1
-0.26969409179481624,17,22,-1,1
-0.33514133400890345,18,22,-1,1
-1.556935257635405,19,22,-1,1
-1.5484014384863152,20,22,-1,1
-0.9123528052728522,21,22,-1,1
-0.833740089056442,22,22,-1,1
-0.1813975750022105,23,22,-1,1
-0.07059381528195881,24,22,-1,1
-0.5086723454433419,25,22,-1,1
-0.5175340924426023,26,22,-1,1
-0.25240163045783576,27,22,-1,1
-2.2376114276308496,28,22,-1,1
0.47813855339038397,29,22,-1,1
-0.9798846436665845,30,22,-1,1
-0.25799240840816867,31,22,-1,1
-0.12440271304321932,32,22,-1,1
-0.8166656613754042,33,22,-1,1
-0.03831355592929715,34,22,-1,1
-0.758212303162085,35,22,-1,1
-1.1817534758998467,36,22,-1,1
1.0437773016204652,37,22,-1,1
-1.0635496099159842,38,22,-1,1
-0.367955185110927,39,22,-1,1
0.26008828009724694,40,22,-1,1
-0.9831227157679612,41,22,-1,1
-0.975431349959654,42,22,-1,1
-2.1517123999226615,43,22,-1,1
-1.611177996549543,44,22,-1,1
-0.3504762938972061,45,22,-1,1
-0.5895275532479655,46,22,-1,1
-0.2988561253180148,47,22,-1,1
0.029929143327605188,48,22,-1,1
-0.37736562881752017,49,22,-1,1
-1.4167648029582658,50,22,-1,1
-0.7808810125321111,51,22,-1,1
-1.4570095053626935,52,22,-1,1
-0.8138689627846059,53,22,-1,1
0.14981924485041678,54,22,-1,1
-0.2175038031783478,55,22,-1,1
-0.08027474529661431,56,22,-1,1
-0.1839025927869771,57,22,-1,1
0.732237945852278,58,22,-1,1
0.35001909001438136,59,22,-1,1
0.3572988086381827,60,22,-1,1
-0.11859195936032875,61,22,-1,1
0.09505613677888065,62,22,-1,1
-0.17670257437311604,63,22,-1,1
-0.08674982419272931,0,23,-1,1
-0.052252377100147254,1,23,-1,1
-0.16882220530559516,2,23,-1,1
0.09681034829471465,3,23,-1,1
-0.13454483520759375,4,23,-1,1
-0.002105356745468079,5,23,-1,1
-0.054480058864790855,6,23,-1,1
0.03216343580936302,7,23,-1,1
0.008961295010788307,8,23,-1,1
-0.19382319069461643,9,23,-1,1
0.12626695686118616,10,23,-1,1
-0.8895437972075306,11,23,-1,1
-0.960492748578723,12,23,-1,1
-0.8098593607305007,13,23,-1,1
-0.17012006815713732,14,23,-1,1
-0.013882379789578691,15,23,-1,1
-0.03616610993537571,16,23,-1,1
-0.37292341111898475,17,23,-1,1
-0.5382786741541786,18,23,-1,1
-1.2690714962471195,19,23,-1,1
-1.108046080031314,20,23,-1,1
-0.38963119693544573,21,23,-1,1
-0.14252302331293756,22,23,-1,1
-0.10168394785972071,23,23,-1,1
0.1622703426476819,24,23,-1,1
-0.09724994612301611,25,23,-1,1
-0.5720604644052416,26,23,-1,1
-1.0695521441900004,27,23,-1,1
-0.7532264909821189,28,23,-1,1
-0.46412435237002886,29,23,-1,1
-0.2679290928515133,30,23,-1,1
-0.23677646988267984,31,23,-1,1
0.10357422603561364,32,23,-1,1
-0.4022747348546058,33,23,-1,1
-1.0080996468411336,34,23,-1,1
-1.2427088274071336,35,23,-1,1
-1.390637106681218,36,23,-1,1
-1.0791779720675216,37,23,-1,1
-0.5702577425727371,38,23,-1,1
-0.11645415111415422,39,23,-1,1
-0.2486158187500245,40,23,-1,1
-0.1962712894172293,41,23,-1,1
-0.7067912077657356,42,23,-1,1
-1.1302697951567011,43,23,-1,1
-1.3282319098225346,44,23,-1,1
-0.6988496155864994,45,23,-1,1
-0.1529546711184267,46,23,-1,1
0.036396268281124626,47,23,-1,1
-0.24999267641500802,48,23,-1,1
0.03985172550262173,49,23,-1,1
-0.408043722137975,50,23,-1,1
-1.3802403093659896,51,23,-1,1
-1.298672728671087,52,23,-1,1
-0.09397736950532189,53,23,-1,1
0.31913839454599363,54,23,-1,1
0.07631006738574951,55,23,-1,1
-0.00042063747641472355,56,23,-1,1
0.17941740002124484,57,23,-1,1
0.042127545520962,58,23,-1,1
0.02273658639721251,59,23,-1,1
0.019210597851026096,60,23,-1,1
0.28126346182703665,61,23,-1,1
0.27503370267230165,62,23,-1,1
0.07114971118930287,63,23,-1,1
0.04255305898946199,0,24,-1,1
-0.2791561464088821,1,24,-1,1
-0.6315385154899654,2,24,-1,1
-1.2050679837769502,3,24,-1,1
-0.622468679409562,4,24,-1,1
-0.4065950561968051,5,24,-1,1
-0.14465948404664097,6,24,-1,1
-0.4901891121531046,7,24,-1,1
-0.14578996954680407,8,24,-1,1
0.6689781837810035,9,24,-1,1
2.5968576641089487,10,24,-1,1
1.4381700747596446,11,24,-1,1
-0.25844968420830733,12,24,-1,1
1.122890889793898,13,24,-1,1
2.2951216724691292,14,24,-1,1
1.0654215311262631,15,24,-1,1
-0.4588374955335442,16,24,-1,1
0.38606903061629655,17,24,-1,1
-0.8468572214668949,18,24,-1,1
0.08050340894884085,19,24,-1,1
0.6162200227789393,20,24,-1,1
-1.4783086675356834,21,24,-1,1
0.3575648577174499,22,24,-1,1
0.9468823796794307,23,24,-1,1
-0.21979942338110245,24,24,-1,1
0.09757733892820171,25,24,-1,1
-0.5552072074949113,26,24,-1,1
0.02447534908311236,27,24,-1,1
-1.467599845457638,28,24,-1,1
-1.893120744061247,29,24,-1,1
-6.175105994230326,30,24,-1,1
-1.5759395707000583,31,24,-1,1
0.8515484802337567,32,24,-1,1
-4.085608596941067,33,24,-1,1
-3.5076480283494007,34,24,-1,1
0.7320465202278005,35,24,-1,1
-1.5103334002127211,36,24,-1,1
1.3903707069743059,37,24,-1,1
1.2857574744091833,38,24,-1,1
-0.4499045288694408,39,24,-1,1
1.27778415364307,40,24,-1,1
-1.8774798546598679,41,24,-1,1
-6.173538822143737,42,24,-1,1
-6.7171092630817535,43,24,-1,1
-0.177382788361394,44,24,-1,1
1.1688877400652067,45,24,-1,1
1.9951947741379232,46,24,-1,1
0.38313096563773846,47,24,-1,1
0.43014989089332945,48,24,-1,1
1.4237178210482293,49,24,-1,1
3.8593772706774474,50,24,-1,1
4.304291783382446,51,24,-1,1
1.7807587418182973,52,24,-1,1
1.0230179569461482,53,24,-1,1
-0.027773296405193226,54,24,-1,1
-0.42938373924745743,55,24,-1,1
-0.040874387883569833,56,24,-1,1
0.32750378983931905,57,24,-1,1
-0.5820856923384925,58,24,-1,1
-2.166812032994917,59,24,-1,1
0.08561493921685938,60,24,-1,1
-1.221772535010451,61,24,-1,1
-0.47023329353299875,62,24,-1,1
-0.07098425240324754,63,24,-1,1
0.09019273165975342,0,25,-1,1
-0.07559040731239187,1,25,-1,1
0.024976720817682978,2,25,-1,1
0.7471049324798625,3,25,-1,1
1.1792121664483701,4,25,-1,1
1.3471386752142993,5,25,-1,1
0.8966263743721211,6,25,-1,1
-0.1609577554214936,7,25,-1,1
-0.0039832015350950946,8,25,-1,1
0.12851833375584928,9,25,-1,1
-0.3398690131897358,10,25,-1,1
-2.7664318894923783,11,25,-1,1
-1.9743371401556793,12,25,-1,1
-0.3162990326359087,13,25,-1,1
0.2743896679684601,14,25,-1,1
0.6220283997120166,15,25,-1,1
-0.14839769678582423,16,25,-1,1
1.0601421896898937,17,25,-1,1
0.694048133978335,18,25,-1,1
0.727725629320629,19,25,-1,1
-3.016679242045333,20,25,-1,1
-3.057859475132527,21,25,-1,1
0.06150643225359969,22,25,-1,1
0.4656687316557963,23,25,-1,1
-0.311233645362325,24,25,-1,1
1.6438421866452977,25,25,-1,1
3.8241494449672873,26,25,-1,1
2.71065170403071,27,25,-1,1
2.233894069916838,28,25,-1,1
0.5160755230873195,29,25,-1,1
0.41921787056529636,30,25,-1,1
-0.7275317640031117,31,25,-1,1
-0.15984830370044864,32,25,-1,1
-0.7610089427129598,33,25,-1,1
0.7351276092642812,34,25,-1,1
2.824166777158218,35,25,-1,1
2.72761259659589,36,25,-1,1
-0.994510678920285,37,25,-1,1
1.8310107826614006,38,25,-1,1
-1.1534550645515944,39,25,-1,1
-0.055890268178544936,40,25,-1,1
-2.283295220870766,41,25,-1,1
-1.6191270251272392,42,25,-1,1
0.6786356250137491,43,25,-1,1
-0.02338091457816582,44,25,-1,1
-1.8951391169029475,45,25,-1,1
0.3935932569493128,46,25,-1,1
-1.0860761914077084,47,25,-1,1
0.0717640149176327,48,25,-1,1
-0.15883848797177202,49,25,-1,1
-0.7672211604169464,50,25,-1,1
-0.6587052440410934,51,25,-1,1
0.3805013703487435,52,25,-1,1
-0.3636489776586518,53,25,-1,1
-1.3145336953863094,54,25,-1,1
-0.25502106699405275,55,25,-1,1
0.15105530299932524,56,25,-1,1
0.04471437161253336,57,25,-1,1
1.74989409968368,58,25,-1,1
1.906199544227099,59,25,-1,1
0.23715739320805515,60,25,-1,1
0.8585413130516105,61,25,-1,1
-0.08601710983518612,62,25,-1,1
0.09151333544257054,63,25,-1,1
-0.31234495823785546,0,26,-1,1
-0.37774240795630537,1,26,-1,1
-0.0593330458816182,2,26,-1,1
0.30954119949479497,3,26,-1,1
0.07198928991229725,4,26,-1,1
0.30171789762290524,5,26,-1,1
-0.4861902573744951,6,26,-1,1
0.05293241745170977,7,26,-1,1
-0.355386003427038,8,26,-1,1
-0.07670990233881693,9,26,-1,1
0.6942609262008511,10,26,-1,1
1.1211282976071557,11,26,-1,1
0.14032506022555594,12,26,-1,1
0.9020512962877876,13,26,-1,1
0.5405375142683111,14,26,-1,1
-0.08578464846511277,15,26,-1,1
-0.39992172675733917,16,26,-1,1
0.6857912769863118,17,26,-1,1
1.7495837361099393,18,26,-1,1
2.537684929036418,19,26,-1,1
-0.9253883114901431,20,26,-1,1
-1.7650009781741551,21,26,-1,1
-0.8711099422178472,22,26,-1,1
-0.9615118679732338,23,26,-1,1
-0.32275429633363706,24,26,-1,1
1.1253536331533027,25,26,-1,1
1.2257677451052287,26,26,-1,1
-0.6659791166430264,27,26,-1,1
0.3625068199475904,28,26,-1,1
1.7063997315755328,29,26,-1,1
0.9593033011906491,30,26,-1,1
-0.7621565675806521,31,26,-1,1
-0.4211029265000677,32,26,-1,1
1.558796991457685,33,26,-1,1
0.8686731260151705,34,26,-1,1
-0.2973880626976463,35,26,-1,1
-0.6592215262405448,36,26,-1,1
-0.013093946136392825,37,26,-1,1
3.3400995087767757,38,26,-1,1
0.3353861015472621,39,26,-1,1
0.09240612323558148,40,26,-1,1
-1.2209347939450514,41,26,-1,1
0.09300074653628118,42,26,-1,1
-1.629090083241573,43,26,-1,1
-0.6259932511075351,44,26,-1,1
1.3111900868461523,45,26,-1,1
2.125228569348574,46,26,-1,1
-0.1684783407822944,47,26,-1,1
-0.18980007484277803,48,26,-1,1
0.7618064167412237,49,26,-1,1
-0.01668719194522019,50,26,-1,1
0.040662041498421335,51,26,-1,1
2.812041719649059,52,26,-1,1
2.0735336204255304,53,26,-1,1
-0.0363772434515856,54,26,-1,1
-0.31083627920531415,55,26,-1,1
0.1601968798400274,56,26,-1,1
-0.7779931549396616,57,26,-1,1
-0.11554193662267177,58,26,-1,1
0.1537021248940812,59,26,-1,1
-0.6551925317479125,60,26,-1,1
-0.5002370322631384,61,26,-1,1
-0.2370237639366284,62,26,-1,1
-0.19826340764182385,63,26,-1,1
0.04545466211085157,0,27,-1,1
0.23006868396828672,1,27,-1,1
-0.061753631740735476,2,27,-1,1
0.4501578654927563,3,27,-1,1
0.47509228531077613,4,27,-1,1
1.3048392258585297,5,27,-1,1
0.6017736484936509,6,27,-1,1
-0.05710067836648084,7,27,-1,1
-0.23591345711555486,8,27,-1,1
-0.022964859654910883,9,27,-1,1
0.6601313859188807,10,27,-1,1
-0.2557558591553921,11,27,-1,1
-0.7517386274158407,12,27,-1,1
0.5821593018954759,13,27,-1,1
1.335605089812174,14,27,-1,1
0.34964295299917186,15,27,-1,1
-0.10739431297718581,16,27,-1,1
-0.8583446844910693,17,27,-1,1
-0.17877441127154511,18,27,-1,1
-0.953554172826428,19,27,-1,1
-2.2450697236341774,20,27,-1,1
-2.389570355837357,21,27,-1,1
-1.0498273328358565,22,27,-1,1
-0.6521616735550715,23,27,-1,1
-0.20291902862508784,24,27,-1,1
1.4982883267514322,25,27,-1,1
0.40982177747940374,26,27,-1,1
-0.5667217285819275,27,27,-1,1
-2.3205633370509156,28,27,-1,1
-1.9761065978274506,29,27,-1,1
1.916704617415449,30,27,-1,1
-0.567854065608059,31,27,-1,1
-0.439347602813681,32,27,-1,1
0.5340556503047059,33,27,-1,1
0.0925386204380463,34,27,-1,1
1.1095601229719494,35,27,-1,1
-0.09258502617305932,36,27,-1,1
-0.5706812115525056,37,27,-1,1
0.5823040742593111,38,27,-1,1
-1.2333212763395207,39,27,-1,1
-0.25711044651580384,40,27,-1,1
-4.129229520859784,41,27,-1,1
1.0453109236457885,42,27,-1,1
4.168983083855242,43,27,-1,1
-0.308602029138963,44,27,-1,1
0.49792924354405543,45,27,-1,1
-1.4257226740819087,46,27,-1,1
-1.2297471656295473,47,27,-1,1
-0.05160261910882046,48,27,-1,1
-0.3854235669910858,49,27,-1,1
-0.0024603755209134763,50,27,-1,1
-0.24998844312048588,51,27,-1,1
0.017914412065803072,52,27,-1,1
-0.6780902999927957,53,27,-1,1
-0.18118089061043194,54,27,-1,1
0.03237369457793804,55,27,-1,1
-0.2009709718511921,56,27,-1,1
0.5448319669879863,57,27,-1,1
1.9627211862300873,58,27,-1,1
0.9807132244228178,59,27,-1,1
-0.8369721741211351,60,27,-1,1
0.5927192985888913,61,27,-1,1
0.3427148262670448,62,27,-1,1
-0.056723838158091885,63,27,-1,1
-0.05665375974203066,0,28,-1,1
0.16301251318856638,1,28,-1,1
-0.1846297545100207,2,28,-1,1
-0.3963401946779561,3,28,-1,1
1.313008919902458,4,28,-1,1
1.6645964516162581,5,28,-1,1
0.07983429986790644,6,28,-1,1
-0.15517236608681306,7,28,-1,1
-0.06694114747418212,8,28,-1,1
-0.3140747244902579,9,28,-1,1
-0.17433408044180257,10,28,-1,1
-1.3581599161223699,11,28,-1,1
-2.1134982010807746,12,28,-1,1
-1.565293542608223,13,28,-1,1
1.5079125373245963,14,28,-1,1
0.5557146184306768,15,28,-1,1
0.42118353374758605,16,28,-1,1
-0.9614366987884011,17,28,-1,1
-2.4596419465949384,18,28,-1,1
-6.843441281123658,19,28,-1,1
-6.342834623686341,20,28,-1,1
-2.7233442320940333,21,28,-1,1
-1.3217201441035469,22,28,-1,1
0.9618217909877715,23,28,-1,1
-0.10897643075309059,24,28,-1,1
-0.7608276260097862,25,28,-1,1
1.3284691944168832,26,28,-1,1
3.041530487197785,27,28,-1,1
1.5846181423397452,28,28,-1,1
-1.7485165784724404,29,28,-1,1
-1.3624884074072072,30,28,-1,1
0.42581197298818163,31,28,-1,1
-0.3548725914967802,32,28,-1,1
2.7567459258515967,33,28,-1,1
2.092146688120241,34,28,-1,1
2.5392342164835604,35,28,-1,1
3.5045163696001023,36,28,-1,1
1.725215417982315,37,28,-1,1
4.226882196382388,38,28,-1,1
-0.306685247970721,39,28,-1,1
-0.029690847078658305,40,28,-1,1
0.42265861079208056,41,28,-1,1
-0.5013523107516359,42,28,-1,1
2.7888425397583605,43,28,-1,1
4.198209808682753,44,28,-1,1
-0.1450012367124136,45,28,-1,1
-2.1363562308666117,46,28,-1,1
-0.049697423754083835,47,28,-1,1
0.3596765709179755,48,28,-1,1
-1.6776503695563607,49,28,-1,1
-2.8132994241173273,50,28,-1,1
-3.1765618198852303,51,28,-1,1
-2.3197188674963427,52,28,-1,1
-1.141888883407196,53,28,-1,1
-1.5589105981749194,54,28,-1,1
0.30622819655783806,55,28,-1,1
-0.07204983990013486,56,28,-1,1
-0.21010396141129828,57,28,-1,1
-2.7054657902899484,58,28,-1,1
-4.59732483050429,59,28,-1,1
-3.9177971705468875,60,28,-1,1
-2.9027500696322086,61,28,-1,1
-0.005114108294815928,62,28,-1,1
0.0012174476648217393,63,28,-1,1
0.028243035870606333,0,29,-1,1
0.18603561342097463,1,29,-1,1
0.2396389801109526,2,29,-1,1
0.23772584079186815,3,29,-1,1
0.617387608677436,4,29,-1,1
-0.6531326484125226,5,29,-1,1
0.07876550093453759,6,29,-1,1
0.19735231581647342,7,29,-1,1
0.29905087989374646,8,29,-1,1
0.20578187441269039,9,29,-1,1
-1.6152899516879822,10,29,-1,1
2.002817001607413,11,29,-1,1
0.41997545360050903,12,29,-1,1
-0.4841615270578527,13,29,-1,1
1.9003769841883191,14,29,-1,1
-0.264383140197875,15,29,-1,1
0.06547447507744494,16,29,-1,1
-0.4054282939736898,17,29,-1,1
-1.932676795432605,18,29,-1,1
-1.5725396163461802,19,29,-1,1
-0.4271150571114727,20,29,-1,1
-2.4468140906413907,21,29,-1,1
-0.9658920392685639,22,29,-1,1
-0.5286112975794196,23,29,-1,1
0.06197787812711803,24,29,-1,1
0.244929430071628,25,29,-1,1
-2.4959061996004577,26,29,-1,1
-3.6879227208201373,27,29,-1,1
5.3773464208597055,28,29,-1,1
-4.9221998215369975,29,29,-1,1
0.16205210909460996,30,29,-1,1
-0.20229186778688646,31,29,-1,1
0.011200279754592143,32,29,-1,1
0.35596702235398653,33,29,-1,1
-4.5692712024668065,34,29,-1,1
0.2394958423886313,35,29,-1,1
0.6421530411273149,36,29,-1,1
-6.428836778584109,37,29,-1,1
1.2980735104543588,38,29,-1,1
-0.28490898819776855,39,29,-1,1
0.2747641742020862,40,29,-1,1
-0.2701195938359557,41,29,-1,1
-1.6665257931176403,42,29,-1,1
2.6781689822506496,43,29,-1,1
-1.2387905594658146,44,29,-1,1
-3.2050772649639225,45,29,-1,1
-0.017616107659029486,46,29,-1,1
-0.20239192173763113,47,29,-1,1
-0.17028310570664004,48,29,-1,1
2.119010476119693,49,29,-1,1
0.4662379835583862,50,29,-1,1
-3.6286199244410713,51,29,-1,1
2.45779968728335,52,29,-1,1
2.8916501482555628,53,29,-1,1
-0.8902491551983156,54,29,-1,1
-0.07857169766926081,55,29,-1,1
0.08619008137468172,56,29,-1,1
0.04255822514968476,57,29,-1,1
-0.674937677224353,58,29,-1,1
-2.9578041563075974,59,29,-1,1
-2.751976970203129,60,29,-1,1
-0.016829421629064735,61,29,-1,1
0.18294964074505315,62,29,-1,1
0.11253525477883668,63,29,-1,1
0.07763107474392075,0,30,-1,1
0.162278220991687,1,30,-1,1
-0.21574830641828247,2,30,-1,1
-0.3592333934252435,3,30,-1,1
-0.22849021054258817,4,30,-1,1
0.11846299613781411,5,30,-1,1
0.24134279051160779,6,30,-1,1
-0.3114304778913443,7,30,-1,1
0.18867289513599256,8,30,-1,1
-0.7827600578985093,9,30,-1,1
0.11568916398597677,10,30,-1,1
0.30789182093860684,11,30,-1,1
0.16155123477288327,12,30,-1,1
-0.47280435514704594,13,30,-1,1
-0.8073565264276277,14,30,-1,1
0.48774578907375665,15,30,-1,1
-0.19484738769728746,16,30,-1,1
-0.14949587404676648,17,30,-1,1
2.840468597246258,18,30,-1,1
-2.9787015485874564,19,30,-1,1
-3.0626817487649554,20,30,-1,1
-1.3323710122925143,21,30,-1,1
0.07396392713395585,22,30,-1,1
1.3034536755605048,23,30,-1,1
-0.3378640618524691,24,30,-1,1
1.477487697984408,25,30,-1,1
2.442919329755769,26,30,-1,1
-0.12294190812150517,27,30,-1,1
-0.9351307005128867,28,30,-1,1
1.3576485067761475,29,30,-1,1
1.0653693735707797,30,30,-1,1
0.5926860787951536,31,30,-1,1
0.31074981671011015,32,30,-1,1
0.2769404231150285,33,30,-1,1
0.04913655197487825,34,30,-1,1
0.10986941238600613,35,30,-1,1
-2.971629254898773,36,30,-1,1
-1.9108486246596679,37,30,-1,1
0.7209480671478681,38,30,-1,1
-0.10331480048547054,39,30,-1,1
-0.14534125465858094,40,30,-1,1
-0.03834409242173236,41,30,-1,1
0.8253705740898969,42,30,-1,1
0.8927034506656506,43,30,-1,1
-2.044583378959159,44,30,-1,1
-0.057924752607673685,45,30,-1,1
1.808705271723357,46,30,-1,1
-0.10827302435118584,47,30,-1,1
-0.2773851081933007,48,30,-1,1
-0.4842202233164706,49,30,-1,1
-1.040451645039492,50,30,-1,1
-0.4071444637658234,51,30,-1,1
-0.6301530988414628,52,30,-1,1
0.9608414805135235,53,30,-1,1
1.0884905231525688,54,30,-1,1
0.15606607169905445,55,30,-1,1
-0.07293135404703446,56,30,-1,1
0.05072347357172639,57,30,-1,1
-0.5887319658043909,58,30,-1,1
-0.8720849180188018,59,30,-1,1
0.14505895225248933,60,30,-1,1
-0.3194844697919576,61,30,-1,1
-0.059709646735711525,62,30,-1,1
0.1345012307824046,63,30,-1,1
0.009364390063700725,0,31,-1,1
0.08659655533862745,1,31,-1,1
0.24053843485258997,2,31,-1,1
-0.617089409287322,3,31,-1,1
-1.9568209615805763,4,31,-1,1
-1.2357679517397362,5,31,-1,1
-0.07753772443767688,6,31,-1,1
-0.1313856291199402,7,31,-1,1
0.10325901083130441,8,31,-1,1
-1.4882912151178374,9,31,-1,1
-0.9083007998868278,10,31,-1,1
0.8552567067557504,11,31,-1,1
1.3630820521704483,12,31,-1,1
1.3986054673803283,13,31,-1,1
0.03649138517953926,14,31,-1,1
0.09109652426345226,15,31,-1,1
-0.5710630905513152,16,31,-1,1
-3.099842026226912,17,31,-1,1
2.4220624235144186,18,31,-1,1
0.34021066107668085,19,31,-1,1
-2.9882327684640053,20,31,-1,1
-3.105062567891906,21,31,-1,1
-2.5557759951623917,22,31,-1,1
1.2163669712425234,23,31,-1,1
-0.6918555316710445,24,31,-1,1
0.7614253037298061,25,31,-1,1
1.3894890953026369,26,31,-1,1
-1.1269164268234073,27,31,-1,1
-2.6910473363880016,28,31,-1,1
-1.140081479543513,29,31,-1,1
0.3461029140335998,30,31,-1,1
0.664829440048242,31,31,-1,1
-0.4141620755453595,32,31,-1,1
-1.27520593599141,33,31,-1,1
0.344887671419904,34,31,-1,1
1.1853809950783332,35,31,-1,1
-2.472900176606669,36,31,-1,1
0.7332813145170383,37,31,-1,1
-0.18224406014676006,38,31,-1,1
0.9684960529648525,39,31,-1,1
-0.6964256264510291,40,31,-1,1
-0.10555667338964592,41,31,-1,1
2.715554734362508,42,31,-1,1
-2.0087676045529643,43,31,-1,1
-1.215311561270213,44,31,-1,1
-0.13052298924593136,45,31,-1,1
0.8468042343650162,46,31,-1,1
1.2325666050342383,47,31,-1,1
-0.05215143500553098,48,31,-1,1
-0.4866301471244359,49,31,-1,1
1.809369886061383,50,31,-1,1
1.2872103551017602,51,31,-1,1
-1.192004627799666,52,31,-1,1
-1.4210192205920553,53,31,-1,1
1.492334134733687,54,31,-1,1
-0.13026394911741832,55,31,-1,1
0.029023117304123162,56,31,-1,1
-1.0000354137851877,57,31,-1,1
-1.2578993989478227,58,31,-1,1
-0.13223738270228616,59,31,-1,1
-0.007757804686791732,60,31,-1,1
-0.4109208213460466,61,31,-1,1
-0.1465294096001624,62,31,-1,1
0.014459283156313696,63,31,-1,1
-0.061778735234173786,0,32,-1,1
-0.4299139464940157,1,32,-1,1
0.13509956598980558,2,32,-1,1
1.3874532761690166,3,32,-1,1
2.0461849680769704,4,32,-1,1
1.6144306270138222,5,32,-1,1
0.478525755373981,6,32,-1,1
-0.21850496301588518,7,32,-1,1
-0.4021576877986999,8,32,-1,1
0.6969848093668274,9,32,-1,1
1.0408875351659692,10,32,-1,1
0.7209192044688155,11,32,-1,1
-0.4150724944598377,12,32,-1,1
0.12587641522067453,13,32,-1,1
-1.096566599921576,14,32,-1,1
-1.031744854795553,15,32,-1,1
-0.09797376480034638,16,32,-1,1
1.2753579118513858,17,32,-1,1
-2.4631914108256696,18,32,-1,1
-2.617469244561179,19,32,-1,1
0.822535309657527,20,32,-1,1
-1.0853639684989123,21,32,-1,1
-1.9779176975066146,22,32,-1,1
-2.2983103643919303,23,32,-1,1
-0.16992913446692404,24,32,-1,1
-2.4840128991909585,25,32,-1,1
-3.361304907838925,26,32,-1,1
-0.6342857601426769,27,32,-1,1
-2.3301123353850097,28,32,-1,1
-0.4012645776466571,29,32,-1,1
0.7769822004049485,30,32,-1,1
0.5895325095346096,31,32,-1,1
-0.11007598495000785,32,32,-1,1
0.9853621719296656,33,32,-1,1
0.23822419037729786,34,32,-1,1
-1.1856323987243618,35,32,-1,1
-3.2417598246392116,36,32,-1,1
0.29010501497580904,37,32,-1,1
1.4290446256112341,38,32,-1,1
1.4911587149228476,39,32,-1,1
0.7851546043536669,40,32,-1,1
1.5443995862552284,41,32,-1,1
1.7306473580477004,42,32,-1,1
3.8546139280971126,43,32,-1,1
1.806030404741369,44,32,-1,1
3.1367757099783726,45,32,-1,1
2.3214792149900974,46,32,-1,1
0.12665490009017383,47,32,-1,1
0.13748228146451738,48,32,-1,1
0.8811692151308391,49,32,-1,1
0.735909330086861,50,32,-1,1
1.3811002006612163,51,32,-1,1
0.4886650950799688,52,32,-1,1
-1.2280490685091894,53,32,-1,1
-0.25678068172010793,54,32,-1,1
-0.14806148765456023,55,32,-1,1
0.2573388322943954,56,32,-1,1
-0.41350375542128526,57,32,-1,1
-1.2629010439075987,58,32,-1,1
-2.83752568859792,59,32,-1,1
-1.672191393363094,60,32,-1,1
-0.690376380966321,61,32,-1,1
-0.2790684669778606,62,32,-1,1
-0.10989379130251639,63,32,-1,1
-0.1630910261289028,0,33,-1,1
0.132234710813272,1,33,-1,1
0.4059401553802758,2,33,-1,1
0.15080224218187765,3,33,-1,1
-0.22310905379656648,4,33,-1,1
-0.6413446453127499,5,33,-1,1
-0.21924665884533873,6,33,-1,1
-0.10518978240413146,7,33,-1,1
0.03154293599327878,8,33,-1,1
-0.6836991104131285,9,33,-1,1
0.022296135547480514,10,33,-1,1
0.48110977580704956,11,33,-1,1
0.6768615478884661,12,33,-1,1
1.8957349571950148,13,33,-1,1
0.45507412213372456,14,33,-1,1
0.3695109373608973,15,33,-1,1
-0.09434723718838774,16,33,-1,1
-0.32950103262793773,17,33,-1,1
1.758051369046687,18,33,-1,1
0.11102401136652723,19,33,-1,1
-1.507425533023096,20,33,-1,1
-2.077690963069685,21,33,-1,1
-2.1097545248195555,22,33,-1,1
0.46577551748485746,23,33,-1,1
0.00833117914219956,24,33,-1,1
-1.7606811800963544,25,33,-1,1
-2.8956151270174124,26,33,-1,1
-2.6173976646922545,27,33,-1,1
-0.8241523668705665,28,33,-1,1
-0.0642296391213214,29,33,-1,1
-2.657969662605016,30,33,-1,1
-0.7655487785671747,31,33,-1,1
0.22250880835734724,32,33,-1,1
-2.022006888836647,33,33,-1,1
-3.698926911713952,34,33,-1,1
-1.6420464670510628,35,33,-1,1
-0.9457872901483766,36,33,-1,1
0.964702749454443,37,33,-1,1
-0.47611501358678066,38,33,-1,1
0.355538812756224,39,33,-1,1
0.07927198021895687,40,33,-1,1
2.9127756290654947,41,33,-1,1
3.5137231071207697,42,33,-1,1
0.79856807947708,43,33,-1,1
1.04483424877933,44,33,-1,1
0.9405837639820781,45,33,-1,1
0.5700665234089364,46,33,-1,1
0.6701381144098124,47,33,-1,1
0.08294360054176088,48,33,-1,1
0.11313019321918541,49,33,-1,1
0.12064282230765717,50,33,-1,1
-1.3322836984135111,51,33,-1,1
-1.8394092112729983,52,33,-1,1
0.2802589895742067,53,33,-1,1
0.9091761565753166,54,33,-1,1
0.07045890722158366,55,33,-1,1
0.014306035623558783,56,33,-1,1
-0.24946204214774798,57,33,-1,1
-1.0863679391057846,58,33,-1,1
-1.5971819399784322,59,33,-1,1
-0.6268642581988718,60,33,-1,1
-0.10251309874648169,61,33,-1,1
-0.11061788249764433,62,33,-1,1
-0.2009525310405299,63,33,-1,1
-0.23584047634304853,0,34,-1,1
0.19296933279166567,1,34,-1,1
0.18491621961221763,2,34,-1,1
1.4318816774062955,3,34,-1,1
1.869805482492364,4,34,-1,1
1.5156657361315646,5,34,-1,1
0.35149203849964866,6,34,-1,1
0.19796004093456612,7,34,-1,1
0.16010611995901858,8,34,-1,1
-0.22598690714505604,9,34,-1,1
1.091982880001345,10,34,-1,1
-1.1582483289304855,11,34,-1,1
-1.6749388370302374,12,34,-1,1
-0.6256576758168816,13,34,-1,1
-0.730501375424506,14,34,-1,1
-0.040467514111910075,15,34,-1,1
0.45671257271428634,16,34,-1,1
0.8026083214274651,17,34,-1,1
-0.09986621544742377,18,34,-1,1
0.6507470239959662,19,34,-1,1
2.1626411262419816,20,34,-1,1
0.679439026585124,21,34,-1,1
-1.746694028596617,22,34,-1,1
-0.8723032699715432,23,34,-1,1
0.5240228273699125,24,34,-1,1
1.7271783611877944,25,34,-1,1
2.1040881752706984,26,34,-1,1
-3.0230046952641185,27,34,-1,1
-4.510738488881619,28,34,-1,1
0.8690801082996193,29,34,-1,1
1.2874114332565543,30,34,-1,1
0.4431915436551669,31,34,-1,1
0.07485159200142304,32,34,-1,1
0.46849820053968516,33,34,-1,1
6.449422445731313,34,34,-1,1
1.0253074088477376,35,34,-1,1
0.8538127261062535,36,34,-1,1
1.9886381855318245,37,34,-1,1
-0.5491191076222098,38,34,-1,1
1.205600699928328,39,34,-1,1
0.11449940295555887,40,34,-1,1
-2.7726358839119367,41,34,-1,1
-1.2702391919442495,42,34,-1,1
2.777611958834866,43,34,-1,1
0.6351654426450987,44,34,-1,1
-0.6028419779501876,45,34,-1,1
0.21311310550853607,46,34,-1,1
0.950723402278984,47,34,-1,1
-0.302902820029608,48,34,-1,1
0.18354574801390572,49,34,-1,1
-1.4880561162171786,50,34,-1,1
-2.0932122927538925,51,34,-1,1
0.6822245720568998,52,34,-1,1
0.05558966898694794,53,34,-1,1
1.3796271155469144,54,34,-1,1
0.28532875136282204,55,34,-1,1
-0.019585499065338845,56,34,-1,1
0.15404604432034585,57,34,-1,1
0.5694826420042931,58,34,-1,1
1.358502302417197,59,34,-1,1
0.41288198024355943,60,34,-1,1
0.9018572678879762,61,34,-1,1
0.0034951712144678836,62,34,-1,1
0.006301840507669263,63,34,-1,1
-0.17881970387795676,0,35,-1,1
-0.43738416016393855,1,35,-1,1
0.3308744518325041,2,35,-1,1
1.4861317186746923,3,35,-1,1
1.6544771485732104,4,35,-1,1
1.3490662488161276,5,35,-1,1
0.20506756879883467,6,35,-1,1
-0.07068996060289369,7,35,-1,1
-0.1532867197560113,8,35,-1,1
0.3287800096732712,9,35,-1,1
1.787953092681239,10,35,-1,1
0.6632606980944687,11,35,-1,1
0.9997378021479735,12,35,-1,1
0.46184769377924767,13,35,-1,1
-1.6728805169741767,14,35,-1,1
-0.05605337594768118,15,35,-1,1
0.040128111246255795,16,35,-1,1
1.5924368804113682,17,35,-1,1
-2.5389432085530133,18,35,-1,1
0.06536438187672279,19,35,-1,1
-0.9632119310079739,20,35,-1,1
-2.4410448782620757,21,35,-1,1
-1.1223196033518985,22,35,-1,1
-1.1098662567895567,23,35,-1,1
0.07102214074188315,24,35,-1,1
-3.3462055289328525,25,35,-1,1
-3.734480961661346,26,35,-1,1
-1.4245260901504402,27,35,-1,1
1.1249320515687622,28,35,-1,1
-0.8631343395093938,29,35,-1,1
-0.7266921475673946,30,35,-1,1
-0.4182199473381266,31,35,-1,1
0.06377074426440037,32,35,-1,1
-0.7882717699830363,33,35,-1,1
-0.49588331563816085,34,35,-1,1
2.1657163404843636,35,35,-1,1
0.481883420390324,36,35,-1,1
0.4492459809621607,37,35,-1,1
1.4845845275000633,38,35,-1,1
0.5276757292122422,39,35,-1,1
0.5116583915709072,40,35,-1,1
2.299597703966963,41,35,-1,1
0.48372289176305816,42,35,-1,1
-1.569564438536498,43,35,-1,1
-0.030842148654178687,44,35,-1,1
2.462085806567941,45,35,-1,1
2.2798080931152045,46,35,-1,1
0.16658830268725314,47,35,-1,1
0.34250520910543064,48,35,-1,1
1.7934586942920987,49,35,-1,1
1.4427059811842577,50,35,-1,1
-0.599249788353924,51,35,-1,1
0.14535193675193006,52,35,-1,1
0.15410745673134055,53,35,-1,1
-0.011485362420179604,54,35,-1,1
-0.10235179696384646,55,35,-1,1
-0.132888230263311,56,35,-1,1
-0.06602524202010995,57,35,-1,1
-0.062023355816621745,58,35,-1,1
-1.0537558735125652,59,35,-1,1
-2.2574965507414197,60,35,-1,1
-1.550871453704151,61,35,-1,1
-0.38936102654556654,62,35,-1,1
-0.2508893957267354,63,35,-1,1
0.036917103949945386,0,36,-1,1
-0.23071393321073025,1,36,-1,1
0.19726726333889022,2,36,-1,1
0.4235909143185905,3,36,-1,1
0.7290636203186989,4,36,-1,1
1.0015136384342032,5,36,-1,1
0.25041739438039096,6,36,-1,1
-0.3254172657034525,7,36,-1,1
-0.18071657517206616,8,36,-1,1
-0.03505306097377611,9,36,-1,1
0.19040952079319703,10,36,-1,1
-2.067109905503166,11,36,-1,1
-4.027325057485679,12,36,-1,1
-3.371724823612296,13,36,-1,1
-1.065901732153828,14,36,-1,1
0.016486531920397115,15,36,-1,1
-0.07583807604384354,16,36,-1,1
-0.045584828603179126,17,36,-1,1
-0.5536713804772191,18,36,-1,1
-0.9619337341628547,19,36,-1,1
0.8414864567033228,20,36,-1,1
1.1211518585267641,21,36,-1,1
1.8047383982919996,22,36,-1,1
1.6312310656502467,23,36,-1,1
0.09424905836685966,24,36,-1,1
-0.12899434725617806,25,36,-1,1
0.5465671945104904,26,36,-1,1
1.0287498200944756,27,36,-1,1
-1.0462571285728706,28,36,-1,1
0.2505257694892035,29,36,-1,1
-0.33003419707395026,30,36,-1,1
0.8182365339901706,31,36,-1,1
-0.13061145939177957,32,36,-1,1
-1.1472395282533543,33,36,-1,1
-0.9657958104216308,34,36,-1,1
-2.6854710519338347,35,36,-1,1
-1.8615297874677574,36,36,-1,1
-2.879987134247846,37,36,-1,1
-1.4404147408441526,38,36,-1,1
0.05887476510939201,39,36,-1,1
-0.47370791477453605,40,36,-1,1
0.7697826723300386,41,36,-1,1
-0.27257941812185654,42,36,-1,1
-0.2923497562458132,43,36,-1,1
0.7461447229618429,44,36,-1,1
-0.9889124531675318,45,36,-1,1
-0.4014003722327611,46,36,-1,1
0.04846437958305696,47,36,-1,1
0.021968925110282193,48,36,-1,1
-0.44794396081362253,49,36,-1,1
0.09145375755557573,50,36,-1,1
0.15163931200391062,51,36,-1,1
-1.2651492605379426,52,36,-1,1
-1.1390271903815534,53,36,-1,1
-0.05369188788050063,54,36,-1,1
-0.13343836398267372,55,36,-1,1
-0.060377496957242205,56,36,-1,1
-0.2558877653658355,57,36,-1,1
0.2270768798977474,58,36,-1,1
0.3570752258008601,59,36,-1,1
-0.12091589021473834,60,36,-1,1
-0.6258620453017479,61,36,-1,1
-0.12047254069318061,62,36,-1,1
-0.21476209203757754,63,36,-1,1
0.055879694296121905,0,37,-1,1
-0.013487355621205042,1,37,-1,1
0.3308375222302693,2,37,-1,1
-0.1528539273318429,3,37,-1,1
-0.2785829244940492,4,37,-1,1
-0.31498089465992424,5,37,-1,1
-0.1709641524463679,6,37,-1,1
-0.12487402672611685,7,37,-1,1
-0.14881978278249403,8,37,-1,1
0.16989681603305767,9,37,-1,1
-0.3116232577179132,10,37,-1,1
-0.38106629278752685,11,37,-1,1
-1.109827345154434,12,37,-1,1
-0.49704288831150295,13,37,-1,1
0.3284247046156726,14,37,-1,1
-0.04924739572204393,15,37,-1,1
-0.22442594394651463,16,37,-1,1
-0.2139938363742922,17,37,-1,1
-0.7171742781446008,18,37,-1,1
-1.8105676831929929,19,37,-1,1
-1.2684282789011456,20,37,-1,1
-0.7253088111596817,21,37,-1,1
0.8918824063745269,22,37,-1,1
0.752422286782082,23,37,-1,1
-0.11647695620235077,24,37,-1,1
-0.23623789510945484,25,37,-1,1
-0.33788423188017214,26,37,-1,1
-0.532283275369823,27,37,-1,1
-0.32184452126624175,28,37,-1,1
-1.5609272097593467,29,37,-1,1
-1.1864372585867868,30,37,-1,1
0.17189039252052743,31,37,-1,1
-0.16222430179979982,32,37,-1,1
-0.33234034006218355,33,37,-1,1
-0.493025262606443,34,37,-1,1
0.8129003265648403,35,37,-1,1
-1.1848834700749917,36,37,-1,1
-2.5703827304739835,37,37,-1,1
-1.091202358266512,38,37,-1,1
-0.05540837156521144,39,37,-1,1
0.0361291137304679,40,37,-1,1
0.43814603906616156,41,37,-1,1
-0.76276579117324,42,37,-1,1
-0.8453119992215309,43,37,-1,1
-0.26974047772045645,44,37,-1,1
-0.633555708745166,45,37,-1,1
0.6138868967768889,46,37,-1,1
0.23037752087795854,47,37,-1,1
0.18657793429207956,48,37,-1,1
-0.07153977923356697,49,37,-1,1
-0.474098735285125,50,37,-1,1
-0.7062027617129477,51,37,-1,1
-0.09875782345039676,52,37,-1,1
0.7600318644118585,53,37,-1,1
0.292571193698558,54,37,-1,1
-0.01747498913688419,55,37,-1,1
0.042705668110440666,56,37,-1,1
-0.4805696857188467,57,37,-1,1
-0.9247435227994578,58,37,-1,1
-0.6339662286409713,59,37,-1,1
-0.6252323976424482,60,37,-1,1
-0.5222950379721208,61,37,-1,1
-0.14868328499728806,62,37,-1,1
-0.14201045986981212,63,37,-1,1
0.10589293661620951,0,38,-1,1
0.22054661691253377,1,38,-1,1
0.047353896332834544,2,38,-1,1
-0.10660505763040538,3,38,-1,1
0.330402631018648,4,38,-1,1
0.26661276721112087,5,38,-1,1
0.19192584326812745,6,38,-1,1
-0.17525727286806586,7,38,-1,1
-0.11591949951205109,8,38,-1,1
-0.06584339802582664,9,38,-1,1
0.08194143155892555,10,38,-1,1
-0.15254283671907826,11,38,-1,1
-0.6779028864839903,12,38,-1,1
-0.7846477587802608,13,38,-1,1
0.8149889477893285,14,38,-1,1
0.5297771668226214,15,38,-1,1
0.14280997727555264,16,38,-1,1
0.11494754095095149,17,38,-1,1
-0.3699470392209917,18,38,-1,1
0.3293949148245131,19,38,-1,1
-0.49552752782032317,20,38,-1,1
-0.8585738539476583,21,38,-1,1
0.7202532952396428,22,38,-1,1
0.3759233982673425,23,38,-1,1
-0.24142102725142256,24,38,-1,1
0.9259701478224094,25,38,-1,1
2.6099718110896317,26,38,-1,1
4.671643297445552,27,38,-1,1
3.614498139478372,28,38,-1,1
2.1326222328036395,29,38,-1,1
-0.08392242990275237,30,38,-1,1
-0.2118637169105128,31,38,-1,1
-0.13702044381702022,32,38,-1,1
0.11114025041104665,33,38,-1,1
1.4394788589814183,34,38,-1,1
0.6462360912282725,35,38,-1,1
2.9086331718602105,36,38,-1,1
4.408106252947769,37,38,-1,1
1.3072061665444956,38,38,-1,1
-1.0372907391301485,39,38,-1,1
0.009818499957679127,40,38,-1,1
-0.17344155243733697,41,38,-1,1
-1.2077191240974863,42,38,-1,1
-3.0514886666931567,43,38,-1,1
1.1546176199644733,44,38,-1,1
-0.6511336219908499,45,38,-1,1
-1.0808269098753092,46,38,-1,1
-0.9513314453405268,47,38,-1,1
-0.08340824905609441,48,38,-1,1
-0.2298432955424429,49,38,-1,1
-0.8709752229147811,50,38,-1,1
-1.2858252878970657,51,38,-1,1
-1.1098514805637378,52,38,-1,1
-2.399901859128829,53,38,-1,1
-1.297043829008899,54,38,-1,1
-0.08550031175391454,55,38,-1,1
-0.06482440595499489,56,38,-1,1
0.44960931476767324,57,38,-1,1
1.8349812026340842,58,38,-1,1
2.059288848466215,59,38,-1,1
0.9337360518017014,60,38,-1,1
0.6858637404224756,61,38,-1,1
0.3967547792551437,62,38,-1,1
-0.26787983041938057,63,38,-1,1
-0.21867638646503612,0,39,-1,1
-0.06450061263175122,1,39,-1,1
-0.33746336328091797,2,39,-1,1
-0.14726979910347063,3,39,-1,1
0.4245879213429654,4,39,-1,1
0.1666359193055007,5,39,-1,1
-0.21948740605857808,6,39,-1,1
-0.035431692649535926,7,39,-1,1
-0.02896537127480472,8,39,-1,1
0.6201574575978834,9,39,-1,1
-0.4436003057803841,10,39,-1,1
-0.5083165523534237,11,39,-1,1
-0.30658691878856237,12,39,-1,1
-0.8710151450982201,13,39,-1,1
-0.8260359309374041,14,39,-1,1
-0.20506882038623078,15,39,-1,1
-0.11224228722158437,16,39,-1,1
0.7215560004440479,17,39,-1,1
-0.7921028566674363,18,39,-1,1
-0.6502964121420732,19,39,-1,1
0.6788937019238731,20,39,-1,1
0.11239550243583066,21,39,-1,1
1.0800773659470122,22,39,-1,1
-0.3850258332587726,23,39,-1,1
0.46598357767039256,24,39,-1,1
-0.6607072522704655,25,39,-1,1
-1.3456139144897425,26,39,-1,1
-0.9524745173963032,27,39,-1,1
-0.06980035832223376,28,39,-1,1
-1.0935490057381096,29,39,-1,1
-1.3696010192018433,30,39,-1,1
0.48134454912749736,31,39,-1,1
0.4535077954126086,32,39,-1,1
0.33601871129292926,33,39,-1,1
1.4333663082054255,34,39,-1,1
2.5185883606957633,35,39,-1,1
1.5215692469036397,36,39,-1,1
0.09812632254833267,37,39,-1,1
-0.03289299882721216,38,39,-1,1
0.3525648377309213,39,39,-1,1
0.76976038574126,40,39,-1,1
0.4782869863057286,41,39,-1,1
-1.41184163179671,42,39,-1,1
-1.8932973125298573,43,39,-1,1
-0.5305775954107519,44,39,-1,1
-1.343281094278279,45,39,-1,1
-0.6139359742857514,46,39,-1,1
0.16223769472563968,47,39,-1,1
0.07648366710686415,48,39,-1,1
0.5167382860621483,49,39,-1,1
-1.522597577268524,50,39,-1,1
-3.3482809637717503,51,39,-1,1
-2.5410053503892125,52,39,-1,1
-1.3689124048740469,53,39,-1,1
-0.9398742403485817,54,39,-1,1
0.34677379786025037,55,39,-1,1
0.08146098877722086,56,39,-1,1
0.3656709361374417,57,39,-1,1
0.2652685309850191,58,39,-1,1
-0.328106294778332,59,39,-1,1
1.1000800243150184,60,39,-1,1
0.4023963997984328,61,39,-1,1
0.21241320292183657,62,39,-1,1
-0.14450080143997504,63,39,-1,1
0.1171003084389359,0,40,-1,1
-0.055973007781068784,1,40,-1,1
0.24577598826614047,2,40,-1,1
-0.34347856209354444,3,40,-1,1
0.06590523397494788,4,40,-1,1
0.8328339638979874,5,40,-1,1
0.5517680608362556,6,40,-1,1
0.2641156159888192,7,40,-1,1
0.08663886292472203,8,40,-1,1
0.20876170222210036,9,40,-1,1
-2.3222134291527734,10,40,-1,1
-4.186007089852876,11,40,-1,1
-2.773344434341532,12,40,-1,1
0.42419875508252647,13,40,-1,1
1.1520323931652552,14,40,-1,1
0.22637318991883879,15,40,-1,1
0.21407443620490907,16,40,-1,1
-0.13057434779176647,17,40,-1,1
-4.940497073322859,18,40,-1,1
-1.7175681860929213,19,40,-1,1
2.2140342375340802,20,40,-1,1
-2.2879998393036938,21,40,-1,1
1.01311995026463,22,40,-1,1
0.8704094974742008,23,40,-1,1
0.25840092422140226,24,40,-1,1
-0.012044100833113637,25,40,-1,1
-3.002674222863485,26,40,-1,1
1.4919370269446282,27,40,-1,1
2.111336891043341,28,40,-1,1
-2.4933824820901735,29,40,-1,1
0.20617212915105207,30,40,-1,1
0.10532940478469163,31,40,-1,1
0.13688625149345077,32,40,-1,1
-0.18851870107314228,33,40,-1,1
-1.3139204991014122,34,40,-1,1
-0.03186769138751983,35,40,-1,1
-0.8734955409215901,36,40,-1,1
-0.5211174404149533,37,40,-1,1
-1.6055411977179375,38,40,-1,1
-0.9362820273036069,39,40,-1,1
-0.5711519095646214,40,40,-1,1
0.06511454718379378,41,40,-1,1
0.17053491382605748,42,40,-1,1
2.0843059514058555,43,40,-1,1
0.9568950107123271,44,40,-1,1
-0.9454419694700331,45,40,-1,1
-2.5731055781066914,46,40,-1,1
-0.1419934841862078,47,40,-1,1
-0.2684892166255805,48,40,-1,1
-0.04276631107216103,49,40,-1,1
0.5079081088354803,50,40,-1,1
-1.0985313409466988,51,40,-1,1
0.06307443617236014,52,40,-1,1
-1.355637096951451,53,40,-1,1
-0.7400502771143724,54,40,-1,1
-0.05547794936790126,55,40,-1,1
0.2810971933545575,56,40,-1,1
0.26214214036760475,57,40,-1,1
-0.16704992799138904,58,40,-1,1
-1.7867195272235916,59,40,-1,1
-1.6776284204101075,60,40,-1,1
-0.005424265991920023,61,40,-1,1
0.27140941305900856,62,40,-1,1
-0.14988609092724978,63,40,-1,1
-0.06695770618048393,0,41,-1,1
0.039345949579093216,1,41,-1,1
-0.9982508088213313,2,41,-1,1
-1.6592957307758889,3,41,-1,1
-1.8717047419096178,4,41,-1,1
-1.364354974418907,5,41,-1,1
-0.5480960095862676,6,41,-1,1
0.10881285179229118,7,41,-1,1
-0.18671870970620474,8,41,-1,1
0.4917458608015088,9,41,-1,1
0.5929316997637518,10,41,-1,1
0.18523872075133202,11,41,-1,1
0.34745090747773255,12,41,-1,1
0.7789389622773091,13,41,-1,1
1.2989674095512305,14,41,-1,1
0.22664457610218644,15,41,-1,1
0.02348624637303719,16,41,-1,1
0.41945643522923476,17,41,-1,1
1.171372751167269,18,41,-1,1
1.3698206483346667,19,41,-1,1
2.7270619496000417,20,41,-1,1
4.584613217025632,21,41,-1,1
2.498977115924429,22,41,-1,1
0.5417683635533599,23,41,-1,1
-0.1307396112379407,24,41,-1,1
1.5568935011194158,25,41,-1,1
1.2274905002213805,26,41,-1,1
-0.5566872665381686,27,41,-1,1
-0.22128517989437338,28,41,-1,1
1.0359535808912872,29,41,-1,1
-0.410960030824363,30,41,-1,1
0.03173346932787797,31,41,-1,1
-0.2726948546652122,32,41,-1,1
-0.5107663540094827,33,41,-1,1
1.320925619884655,34,41,-1,1
-0.31397595688329216,35,41,-1,1
-0.5852957812847775,36,41,-1,1
0.29688002407520625,37,41,-1,1
-1.35622332690284,38,41,-1,1
-1.1267072205219333,39,41,-1,1
-0.11372152751242443,40,41,-1,1
-1.9069125487248313,41,41,-1,1
-2.3861244696948605,42,41,-1,1
-2.0632126896270244,43,41,-1,1
-2.2845647429187874,44,41,-1,1
-1.4461430620951607,45,41,-1,1
-2.138533443367071,46,41,-1,1
-1.3431066728566512,47,41,-1,1
-0.11843054348450303,48,41,-1,1
0.5646042181039288,49,41,-1,1
0.6517432128983756,50,41,-1,1
0.44047646331320967,51,41,-1,1
2.1116521824904106,52,41,-1,1
0.7110675568226463,53,41,-1,1
-0.6291119359757033,54,41,-1,1
0.10153544829820961,55,41,-1,1
-0.2528776245036745,56,41,-1,1
-0.03477796785717603,57,41,-1,1
1.2769780023293398,58,41,-1,1
3.2187576469548054,59,41,-1,1
2.3612111495181263,60,41,-1,1
0.9026908797571287,61,41,-1,1
0.10195255391217647,62,41,-1,1
-0.2651666753236329,63,41,-1,1
-0.11418375026628381,0,42,-1,1
0.0315922586123339,1,42,-1,1
0.36755102158397757,2,42,-1,1
-0.004662441194022756,3,42,-1,1
-1.4125896962614444,4,42,-1,1
-0.5190520645321123,5,42,-1,1
0.3017365561760131,6,42,-1,1
0.20940651321631634,7,42,-1,1
-0.19981486441709517,8,42,-1,1
-0.4353542556623107,9,42,-1,1
-2.05349159925514,10,42,-1,1
-3.508790016621082,11,42,-1,1
0.4218984903305703,12,42,-1,1
1.7974969606933777,13,42,-1,1
0.2431758019989435,14,42,-1,1
-0.555132673000937,15,42,-1,1
0.0877168225382489,16,42,-1,1
-1.3417326292799292,17,42,-1,1
-1.750093240172052,18,42,-1,1
-0.11468819131626767,19,42,-1,1
1.0164411755068419,20,42,-1,1
0.5688191930154443,21,42,-1,1
0.0457462731852917,22,42,-1,1
-0.8968337932963582,23,42,-1,1
-0.5668184035964381,24,42,-1,1
1.5126056381637545,25,42,-1,1
-0.8009856795671397,26,42,-1,1
-0.03095211311853021,27,42,-1,1
-1.420509055462323,28,42,-1,1
-1.135052523939424,29,42,-1,1
5.102592870094222,30,42,-1,1
-0.41932169603553576,31,42,-1,1
-0.3294550769949159,32,42,-1,1
1.5649575571601846,33,42,-1,1
0.8856247989897308,34,42,-1,1
0.8583173515737647,35,42,-1,1
-1.5060025059119513,36,42,-1,1
-2.3091901859389,37,42,-1,1
0.9122222797398408,38,42,-1,1
-0.03325738808190419,39,42,-1,1
-0.3155946336936611,40,42,-1,1
-1.9223198122388874,41,42,-1,1
3.1871360000757343,42,42,-1,1
-0.08666321551170134,43,42,-1,1
-3.4201809581923626,44,42,-1,1
-2.5600529045957288,45,42,-1,1
-0.918383036526178,46,42,-1,1
-0.582686267502415,47,42,-1,1
-0.15055857512802912,48,42,-1,1
-0.2894128474975747,49,42,-1,1
1.0214464992190524,50,42,-1,1
2.2310095280583813,51,42,-1,1
-0.5816698869519406,52,42,-1,1
-3.387364742216787,53,42,-1,1
-1.2756104953724723,54,42,-1,1
-0.277261915360795,55,42,-1,1
-0.14766483840253225,56,42,-1,1
-0.4869179115677644,57,42,-1,1
0.10061290201562509,58,42,-1,1
1.0729473796332047,59,42,-1,1
0.08347275712805217,60,42,-1,1
0.30155428753129626,61,42,-1,1
-0.24182054235374417,62,42,-1,1
-0.17633985178196704,63,42,-1,1
-0.09733911224162753,0,43,-1,1
0.1477037547434284,1,43,-1,1
-0.16058724602518398,2,43,-1,1
0.21192937614465923,3,43,-1,1
0.24518934970826392,4,43,-1,1
-0.16794195338236886,5,43,-1,1
-0.08239714504972388,6,43,-1,1
-0.13198216875142169,7,43,-1,1
-0.0641398022808239,8,43,-1,1
-0.06066451058945092,9,43,-1,1
0.312686903036434,10,43,-1,1
-0.8710570131492302,11,43,-1,1
-1.712341650561927,12,43,-1,1
-1.1991269096481652,13,43,-1,1
-0.06978419066745101,14,43,-1,1
-0.014347383770020865,15,43,-1,1
-0.021053760856318965,16,43,-1,1
0.1948112190277836,17,43,-1,1
-0.20844804929898506,18,43,-1,1
-0.8560560256282482,19,43,-1,1
-1.469192700075459,20,43,-1,1
-0.7793722059566339,21,43,-1,1
0.07832405723001204,22,43,-1,1
-0.25077337818811,23,43,-1,1
-0.06095596972859189,24,43,-1,1
0.3125753278878512,25,43,-1,1
-0.5371017677723808,26,43,-1,1
-0.8445472400734243,27,43,-1,1
-1.3648020047485037,28,43,-1,1
-0.5625948992952131,29,43,-1,1
-0.23944004771031913,30,43,-1,1
-0.24919053816699907,31,43,-1,1
-0.3113188947444832,32,43,-1,1
-0.09171958578468688,33,43,-1,1
-0.4337131290466654,34,43,-1,1
-2.208491631575136,35,43,-1,1
-1.2696731396532497,36,43,-1,1
-0.35266172734200496,37,43,-1,1
-0.21716851448375094,38,43,-1,1
0.26164329484776455,39,43,-1,1
0.024355399426708637,40,43,-1,1
-0.32672670992763736,41,43,-1,1
-0.4871605412277573,42,43,-1,1
-1.3699901680746882,43,43,-1,1
-1.4143561306129648,44,43,-1,1
-1.056876565072682,45,43,-1,1
-0.016399513513855567,46,43,-1,1
0.15293474806078844,47,43,-1,1
0.02772746545933141,48,43,-1,1
-0.11032698444480886,49,43,-1,1
-0.7824848279844204,50,43,-1,1
-0.9384623585930716,51,43,-1,1
-0.4704142004588416,52,43,-1,1
-0.11703184781133799,53,43,-1,1
-0.26210823060300176,54,43,-1,1
-0.009244821758736258,55,43,-1,1
-0.17216206658072597,56,43,-1,1
-0.1926376776716652,57,43,-1,1
0.017940954170376645,58,43,-1,1
0.2511200352346587,59,43,-1,1
0.01845891037408525,60,43,-1,1
0.07085938919721609,61,43,-1,1
-0.17471565486431256,62,43,-1,1
-0.15301967340675698,63,43,-1,1
0.15645533040274154,0,44,-1,1
-0.014695747179998407,1,44,-1,1
0.5250606453399796,2,44,-1,1
0.2579493059472754,3,44,-1,1
-1.247659306767991,4,44,-1,1
-0.4585492676201299,5,44,-1,1
-0.01551159729547101,6,44,-1,1
0.07992389658006037,7,44,-1,1
-0.014517203989160074,8,44,-1,1
-0.2001602431945381,9,44,-1,1
0.4816382364838726,10,44,-1,1
1.286850031670101,11,44,-1,1
0.577194985023949,12,44,-1,1
-1.3618490488140103,13,44,-1,1
-0.18296349655906702,14,44,-1,1
-0.13168758060599886,15,44,-1,1
-0.32139433715821714,16,44,-1,1
-1.5442284477270267,17,44,-1,1
0.018326530806414037,18,44,-1,1
-2.2923749162605347,19,44,-1,1
-3.251166620982372,20,44,-1,1
-1.7787406762848752,21,44,-1,1
-3.267402875596871,22,44,-1,1
-1.4686720173943573,23,44,-1,1
-0.7538805368645803,24,44,-1,1
-0.9839069601710977,25,44,-1,1
1.1650273228937291,26,44,-1,1
-0.2811852558443805,27,44,-1,1
-0.6250524564831188,28,44,-1,1
2.5093945882907716,29,44,-1,1
1.4202049234734424,30,44,-1,1
-0.6029653046087566,31,44,-1,1
-0.6503838679232237,32,44,-1,1
2.225958212278059,33,44,-1,1
0.9800618092758849,34,44,-1,1
1.9618527268085089,35,44,-1,1
3.5983028719048296,36,44,-1,1
-1.2842384262887034,37,44,-1,1
-0.28606344800401556,38,44,-1,1
0.6293726227996344,39,44,-1,1
-0.3739884226037693,40,44,-1,1
-1.0316620008238082,41,44,-1,1
-0.5094478678259827,42,44,-1,1
0.8811125533815486,43,44,-1,1
1.4235876174412747,44,44,-1,1
-0.39773844714206297,45,44,-1,1
0.9218806173443352,46,44,-1,1
0.4618949389347092,47,44,-1,1
0.2946086429349457,48,44,-1,1
-1.4402975802550437,49,44,-1,1
-1.5898264559155293,50,44,-1,1
-1.239377639561499,51,44,-1,1
-1.401791654106141,52,44,-1,1
0.8291568383898834,53,44,-1,1
2.0488162807276495,54,44,-1,1
0.24676385124484898,55,44,-1,1
-0.07853010272505032,56,44,-1,1
-0.029128722266919278,57,44,-1,1
-0.8373746668211758,58,44,-1,1
-0.9404052596924892,59,44,-1,1
-0.7028518352904016,60,44,-1,1
0.1819109455754433,61,44,-1,1
0.3586447216256675,62,44,-1,1
-0.1499408379897563,63,44,-1,1
-0.14074461928671422,0,45,-1,1
-0.016369766870867514,1,45,-1,1
-0.06238556642175437,2,45,-1,1
-0.18304513174341627,3,45,-1,1
-0.19736941987531637,4,45,-1,1
0.8250455178407119,5,45,-1,1
-0.0866775852574324,6,45,-1,1
0.18079856285371346,7,45,-1,1
0.19395317033721435,8,45,-1,1
-0.07447683089374431,9,45,-1,1
0.09785576013004642,10,45,-1,1
0.5283275065066976,11,45,-1,1
1.326486613732581,12,45,-1,1
0.5019459580455488,13,45,-1,1
0.19207092766074546,14,45,-1,1
0.018956171217540993,15,45,-1,1
-0.20032529036274271,16,45,-1,1
-1.3332579670513343,17,45,-1,1
-2.386211391979874,18,45,-1,1
-3.699577302232396,19,45,-1,1
-1.3120172224927285,20,45,-1,1
0.522480651020792,21,45,-1,1
-0.8273830935572407,22,45,-1,1
0.2622769322040007,23,45,-1,1
-0.2544386448970421,24,45,-1,1
1.502149827495034,25,45,-1,1
3.4616422187736746,26,45,-1,1
5.061574134684351,27,45,-1,1
0.6006015138594464,28,45,-1,1
1.3738871473863348,29,45,-1,1
-0.40706879896212017,30,45,-1,1
0.08236495018134037,31,45,-1,1
-0.4403989576454295,32,45,-1,1
3.1173164287913293,33,45,-1,1
4.658695688868363,34,45,-1,1
-0.7604937735853283,35,45,-1,1
-0.06969411251656163,36,45,-1,1
1.203709079195727,37,45,-1,1
-0.2529303303953258,38,45,-1,1
-0.414962607579668,39,45,-1,1
-0.14767380687761233,40,45,-1,1
0.9118025443039084,41,45,-1,1
-1.3696939766868406,42,45,-1,1
-2.2920719645314387,43,45,-1,1
-0.4092491703096127,44,45,-1,1
2.6593093721336767,45,45,-1,1
0.43066088206407865,46,45,-1,1
-1.080857535118237,47,45,-1,1
0.28475716065978124,48,45,-1,1
-0.674665923790922,49,45,-1,1
-0.21360966747947555,50,45,-1,1
-0.47396831834148223,51,45,-1,1
-0.3858824147567142,52,45,-1,1
0.9710957306116486,53,45,-1,1
0.7801890198933424,54,45,-1,1
0.05233770403041983,55,45,-1,1
-0.13209957305619796,56,45,-1,1
0.45468658495969155,57,45,-1,1
0.6853651540453645,58,45,-1,1
-0.44425396509382364,59,45,-1,1
-0.08686773626101017,60,45,-1,1
0.5516201932284979,61,45,-1,1
0.3194132834651979,62,45,-1,1
-0.2110269371755479,63,45,-1,1
0.5032512198780325,0,46,-1,1
0.07066572361216195,1,46,-1,1
0.017161647390048697,2,46,-1,1
0.8427906859254242,3,46,-1,1
1.4125232096653826,4,46,-1,1
1.4945968978754014,5,46,-1,1
0.6383336201359334,6,46,-1,1
0.0674889953194084,7,46,-1,1
0.11775935559853039,8,46,-1,1
0.1385752532516887,9,46,-1,1
-0.7268683120079764,10,46,-1,1
1.5733840055713795,11,46,-1,1
2.2088109957827284,12,46,-1,1
1.0378849552499834,13,46,-1,1
-1.066043656811158,14,46,-1,1
-0.20703451162474468,15,46,-1,1
-0.05104855550372909,16,46,-1,1
-0.7888684891193742,17,46,-1,1
-0.8609437890100513,18,46,-1,1
-0.26570306075178074,19,46,-1,1
-1.361659118522689,20,46,-1,1
-3.9562117637845655,21,46,-1,1
-1.7406387282701203,22,46,-1,1
-0.5586032214067361,23,46,-1,1
-0.07780131883519191,24,46,-1,1
1.0738647244484574,25,46,-1,1
1.4570056198087031,26,46,-1,1
1.7017096106163399,27,46,-1,1
0.7550343965258863,28,46,-1,1
-1.0896679931469848,29,46,-1,1
1.85733730648012,30,46,-1,1
-0.11068842541033176,31,46,-1,1
-0.18602195048725131,32,46,-1,1
0.4479496310665145,33,46,-1,1
-0.8906279490944623,34,46,-1,1
-0.6842326692741204,35,46,-1,1
-2.9727923644769163,36,46,-1,1
-0.4624561409590032,37,46,-1,1
1.393623760246421,38,46,-1,1
-0.25525690546978963,39,46,-1,1
0.21677947042005707,40,46,-1,1
-0.2875537253392739,41,46,-1,1
0.5211352993577788,42,46,-1,1
1.3331685471227697,43,46,-1,1
0.09138441817358135,44,46,-1,1
1.291121352710989,45,46,-1,1
0.05560235997404957,46,46,-1,1
-0.642826937348063,47,46,-1,1
0.2819193841525911,48,46,-1,1
-0.24755331653581925,49,46,-1,1
-1.078203299378778,50,46,-1,1
0.35867015824606513,51,46,-1,1
1.9926031586621433,52,46,-1,1
-0.12358005872368437,53,46,-1,1
-0.6779745239120911,54,46,-1,1
0.08803787470968193,55,46,-1,1
-0.06038078360966344,56,46,-1,1
0.15937631700174854,57,46,-1,1
-0.10085748468778992,58,46,-1,1
-1.1479308062129063,59,46,-1,1
-0.17932956670658104,60,46,-1,1
0.7636912576786347,61,46,-1,1
-0.11001276471604565,62,46,-1,1
-0.04054604998347333,63,46,-1,1
-0.16722786561845723,0,47,-1,1
-0.2627286397019246,1,47,-1,1
-0.07510301637031881,2,47,-1,1
0.11620671209593939,3,47,-1,1
-0.11412635322229615,4,47,-1,1
-0.15536535152441805,5,47,-1,1
-0.19719455302253616,6,47,-1,1
0.05615181626985342,7,47,-1,1
-0.07508981841147368,8,47,-1,1
-0.1778096704751439,9,47,-1,1
-0.42260190855075364,10,47,-1,1
-0.8762833442791581,11,47,-1,1
-0.7690590624648869,12,47,-1,1
-0.41401328789422986,13,47,-1,1
0.11288717498430158,14,47,-1,1
-0.16514729295520364,15,47,-1,1
-0.19340216431688892,16,47,-1,1
-0.12966176391980433,17,47,-1,1
-0.25208432499069927,18,47,-1,1
-0.859186834449543,19,47,-1,1
-1.2924587603368956,20,47,-1,1
-0.9962756372202685,21,47,-1,1
-0.25764451478968775,22,47,-1,1
0.020702457278810038,23,47,-1,1
-0.2752377018993227,24,47,-1,1
0.04939200869099285,25,47,-1,1
-0.25780688108271654,26,47,-1,1
-0.7692060801982971,27,47,-1,1
-1.3619981796961653,28,47,-1,1
-0.6273558265450079,29,47,-1,1
0.12058852817593636,30,47,-1,1
-0.17214473381621706,31,47,-1,1
0.01571440848058173,32,47,-1,1
-0.25801882601388554,33,47,-1,1
-0.76224790483385,34,47,-1,1
-1.0278130113694726,35,47,-1,1
-1.3458708096464094,36,47,-1,1
-1.200365692761561,37,47,-1,1
-0.6160691046307963,38,47,-1,1
-0.13172363861366537,39,47,-1,1
-0.029910155948511073,40,47,-1,1
-0.4127992952651155,41,47,-1,1
-0.6119301386359887,42,47,-1,1
-0.7115242127962911,43,47,-1,1
-1.1735522143228792,44,47,-1,1
-1.1854998442531703,45,47,-1,1
-0.18428179274090323,46,47,-1,1
-0.013629926334166393,47,47,-1,1
-0.13249202807331423,48,47,-1,1
-0.36792332937341127,49,47,-1,1
-0.24182225859445308,50,47,-1,1
-0.8952681835439743,51,47,-1,1
-0.7453089696458132,52,47,-1,1
-0.367321208083168,53,47,-1,1
-0.08188631234413736,54,47,-1,1
-0.0019743726844678694,55,47,-1,1
-0.06783022334016546,56,47,-1,1
-0.07490220328641169,57,47,-1,1
0.1627166284625497,58,47,-1,1
-0.0750573449664409,59,47,-1,1
0.04314321568465943,60,47,-1,1
0.19310621580683196,61,47,-1,1
0.026555846650902205,62,47,-1,1
-0.08422837588389062,63,47,-1,1
-0.1273232058319217,0,48,-1,1
0.1031568113634092,1,48,-1,1
-0.5602295531226856,2,48,-1,1
-1.1533641978258309,3,48,-1,1
-0.5354173926086436,4,48,-1,1
0.014725649805459878,5,48,-1,1
-0.13018583693235503,6,48,-1,1
-0.009695405616630372,7,48,-1,1
-0.20297921472956132,8,48,-1,1
1.0730106880428891,9,48,-1,1
0.26340351021896335,10,48,-1,1
0.5859384982774821,11,48,-1,1
-0.8849529000715664,12,48,-1,1
-0.9237141858963366,13,48,-1,1
0.06014576241081876,14,48,-1,1
-0.1752955031669819,15,48,-1,1
0.017497230044473636,16,48,-1,1
1.0249998772512217,17,48,-1,1
-0.5890331113405823,18,48,-1,1
-1.863072857888619,19,48,-1,1
0.7804305458153612,20,48,-1,1
0.3773989768952684,21,48,-1,1
-0.5961311301809714,22,48,-1,1
-0.41362507433034323,23,48,-1,1
0.23953529410471058,24,48,-1,1
-1.5790946503147485,25,48,-1,1
-1.9617523844943576,26,48,-1,1
-0.4813709316188866,27,48,-1,1
3.194529067402226,28,48,-1,1
0.24693471640980794,29,48,-1,1
-1.1205279225824043,30,48,-1,1
-0.49297192463764555,31,48,-1,1
0.13105633338329364,32,48,-1,1
-0.42974227727686365,33,48,-1,1
-0.2843480695281286,34,48,-1,1
3.0594182929696734,35,48,-1,1
2.9068167159186986,36,48,-1,1
-0.14041171793976417,37,48,-1,1
0.014123288839467847,38,48,-1,1
-0.7106887083106549,39,48,-1,1
0.6116418733712825,40,48,-1,1
-0.5347135766668283,41,48,-1,1
-6.8985858584243696,42,48,-1,1
-3.032889813710028,43,48,-1,1
-2.1363969524572193,44,48,-1,1
-1.5660214390190026,45,48,-1,1
-0.07259928727992357,46,48,-1,1
-0.9065506736718466,47,48,-1,1
0.28085803132094056,48,48,-1,1
1.6253145960657973,49,48,-1,1
1.8953751392952436,50,48,-1,1
-0.13774701860854294,51,48,-1,1
-0.8269015325186424,52,48,-1,1
0.006702196299380854,53,48,-1,1
-0.4055081841917238,54,48,-1,1
0.05431541123174006,55,48,-1,1
0.049043291564424496,56,48,-1,1
0.6163254670296816,57,48,-1,1
0.7447297582944398,58,48,-1,1
-0.20183363335042315,59,48,-1,1
-1.2074626484292184,60,48,-1,1
-1.3995514316456417,61,48,-1,1
-0.1491971337863946,62,48,-1,1
0.32928171582881166,63,48,-1,1
0.0974948210094114,0,49,-1,1
0.04671447213125508,1,49,-1,1
-0.6469909053795982,2,49,-1,1
0.40109019525832534,3,49,-1,1
0.8614157931545454,4,49,-1,1
0.514486977026558,5,49,-1,1
-0.40550309729080164,6,49,-1,1
-0.11311625535785665,7,49,-1,1
-0.276915149169525,8,49,-1,1
0.5836648991504354,9,49,-1,1
4.679303714968789,10,49,-1,1
2.8448894157716436,11,49,-1,1
0.4796046474300083,12,49,-1,1
-1.6593558300201996,13,49,-1,1
-1.1416351867835726,14,49,-1,1
-0.41827065923431495,15,49,-1,1
-0.2567820102004475,16,49,-1,1
3.716168987165019,17,49,-1,1
4.148451252976447,18,49,-1,1
-3.838954253260902,19,49,-1,1
-0.1564282768317892,20,49,-1,1
1.5604008020714941,21,49,-1,1
0.2453642029711719,22,49,-1,1
-1.0629011460823758,23,49,-1,1
0.171874689110482,24,49,-1,1
1.8044273069967847,25,49,-1,1
-0.565545741321378,26,49,-1,1
-0.8021438691093142,27,49,-1,1
-1.4474679203169656,28,49,-1,1
1.6231604821567442,29,49,-1,1
1.8727965855297601,30,49,-1,1
0.0673948960448806,31,49,-1,1
-0.03807761149043215,32,49,-1,1
1.0660156970735077,33,49,-1,1
-0.27293435394605337,34,49,-1,1
-2.361187620495088,35,49,-1,1
0.07932477902588568,36,49,-1,1
-0.05752517730898022,37,49,-1,1
