Weight,Input Node,Hidden Node,Output Node,Layer Index
-0.1398492914109415,0,0,-1,1
0.0670401664942107,1,0,-1,1
0.09662780574709073,2,0,-1,1
0.20089467829282073,3,0,-1,1
1.6243651324489994,4,0,-1,1
0.7103278401666479,5,0,-1,1
0.16960563923069577,6,0,-1,1
0.1606121646294557,7,0,-1,1
0.17581056712657445,8,0,-1,1
-0.2958858092690033,9,0,-1,1
-0.7643152988888022,10,0,-1,1
-2.3449199684006867,11,0,-1,1
-2.476913143681014,12,0,-1,1
0.8263561726202417,13,0,-1,1
1.4172745765366996,14,0,-1,1
0.3984902635516866,15,0,-1,1
0.3079178801657358,16,0,-1,1
0.47988454345811515,17,0,-1,1
0.5960070003587633,18,0,-1,1
0.3572343857465817,19,0,-1,1
-1.8693151636794896,20,0,-1,1
0.5620738041037081,21,0,-1,1
-0.30217358808843836,22,0,-1,1
0.692010643110424,23,0,-1,1
0.4879334518215344,24,0,-1,1
0.08193645306986065,25,0,-1,1
1.0469870066407105,26,0,-1,1
1.9797581231073258,27,0,-1,1
-1.9723533459985192,28,0,-1,1
-1.0373679334490367,29,0,-1,1
-0.33221033559224894,30,0,-1,1
0.832611508722801,31,0,-1,1
-0.2353119612716115,32,0,-1,1
0.3195556501091634,33,0,-1,1
2.156114774627443,34,0,-1,1
-3.1725588901004085,35,0,-1,1
-1.4818023551968942,36,0,-1,1
0.19801314943944656,37,0,-1,1
2.483643051529096,38,0,-1,1
0.157378303417636,39,0,-1,1
-0.12294023589699052,40,0,-1,1
-0.6148288792146095,41,0,-1,1
-0.49020377966243567,42,0,-1,1
-0.028882977462340222,43,0,-1,1
0.20769124403857453,44,0,-1,1
0.7193506154819274,45,0,-1,1
-1.3502466168136962,46,0,-1,1
-0.3474201720776623,47,0,-1,1
0.08129060609010602,48,0,-1,1
-1.1694751242124672,49,0,-1,1
0.5736066563119356,50,0,-1,1
1.7335948365893201,51,0,-1,1
1.7631182450359473,52,0,-1,1
0.520608348011273,53,0,-1,1
-0.7355048137087813,54,0,-1,1
0.19857482484468963,55,0,-1,1
0.08337257840969645,56,0,-1,1
0.34974208699385645,57,0,-1,1
0.2948346599553937,58,0,-1,1
-0.709168951605043,59,0,-1,1
-0.901802996932892,60,0,-1,1
-0.9969776371526686,61,0,-1,1
-0.2700369469978837,62,0,-1,1
0.1848371213949531,63,0,-1,1
0.1168473273129572,0,1,-1,1
-0.27662062702532814,1,1,-1,1
-0.127384196797543,2,1,-1,1
-0.0028237300553315566,3,1,-1,1
-0.2870403263438422,4,1,-1,1
-0.392355978067097,5,1,-1,1
-0.31469551063093165,6,1,-1,1
-0.27530292404239526,7,1,-1,1
0.2831548019898314,8,1,-1,1
0.09912343218016238,9,1,-1,1
0.29117482872245254,10,1,-1,1
-0.25635421706898043,11,1,-1,1
-0.7103072540527342,12,1,-1,1
-0.8530837473465757,13,1,-1,1
0.1517678026789193,14,1,-1,1
0.0003687698332468352,15,1,-1,1
-0.0620419658437358,16,1,-1,1
-0.05426019156883252,17,1,-1,1
0.13980874730884216,18,1,-1,1
-0.8874159068225407,19,1,-1,1
-1.2417919730803986,20,1,-1,1
-0.08118400968634513,21,1,-1,1
0.5390629853730938,22,1,-1,1
0.40277764816202677,23,1,-1,1
-0.2152730279018163,24,1,-1,1
-0.3972701217443537,25,1,-1,1
-0.16208995968127654,26,1,-1,1
-0.14185260233425964,27,1,-1,1
-1.2960132903586352,28,1,-1,1
0.11267365179327522,29,1,-1,1
-0.7420633401434519,30,1,-1,1
-0.059423193764361205,31,1,-1,1
0.16884638920750583,32,1,-1,1
-0.4077590915829074,33,1,-1,1
-0.3740043561170278,34,1,-1,1
-0.6785302723051716,35,1,-1,1
-0.7815193248008373,36,1,-1,1
-0.20366996009171356,37,1,-1,1
-0.9812398733705121,38,1,-1,1
0.05532828040163041,39,1,-1,1
-0.16262469650086722,40,1,-1,1
0.28572340520347156,41,1,-1,1
-0.5510978409580721,42,1,-1,1
-1.6628937196764997,43,1,-1,1
-1.1669895342483576,44,1,-1,1
-0.5513911132005588,45,1,-1,1
0.025431912592248796,46,1,-1,1
-0.01713950047871885,47,1,-1,1
-0.22207158123297718,48,1,-1,1
0.021100268870996936,49,1,-1,1
-0.31091837594349214,50,1,-1,1
-1.3571654177963062,51,1,-1,1
-1.4999983482516885,52,1,-1,1
0.028885161501100345,53,1,-1,1
0.5317220796409797,54,1,-1,1
-0.24104457613466798,55,1,-1,1
0.11736590946299962,56,1,-1,1
0.19095668858392892,57,1,-1,1
0.18997126762207137,58,1,-1,1
0.2186641255049949,59,1,-1,1
0.23796905451807274,60,1,-1,1
-0.03468539797750229,61,1,-1,1
-0.018862550829486496,62,1,-1,1
-0.09092799206745705,63,1,-1,1
0.01293884485810502,0,2,-1,1
0.11715640721373466,1,2,-1,1
-0.2641705354732803,2,2,-1,1
-0.24342799294459277,3,2,-1,1
-1.2511459658467672,4,2,-1,1
-0.9465045332833719,5,2,-1,1
-0.18900332251439833,6,2,-1,1
0.002525490587196286,7,2,-1,1
0.15612294520108957,8,2,-1,1
-0.1597228380082329,9,2,-1,1
-0.6630109040231391,10,2,-1,1
-1.156468724269681,11,2,-1,1
-0.6624593446645007,12,2,-1,1
-0.2427538722622839,13,2,-1,1
0.19215859075560235,14,2,-1,1
0.14863131554954231,15,2,-1,1
-0.5161293497751382,16,2,-1,1
0.319777697778539,17,2,-1,1
1.2134062128816485,18,2,-1,1
1.7120032054075087,19,2,-1,1
-0.34567555899508845,20,2,-1,1
0.18913404338657736,21,2,-1,1
1.656063574135738,22,2,-1,1
0.22874088852281088,23,2,-1,1
-0.04008605727596094,24,2,-1,1
0.8108313121524329,25,2,-1,1
-0.32817861625854494,26,2,-1,1
-1.267064406982516,27,2,-1,1
-1.8129266444793781,28,2,-1,1
-0.2666740589000768,29,2,-1,1
0.14811090332679364,30,2,-1,1
-0.7660169071453492,31,2,-1,1
0.31908888778330696,32,2,-1,1
-0.8366060057700984,33,2,-1,1
-1.3584804888128352,34,2,-1,1
-0.24939534195837923,35,2,-1,1
-0.4171694174100037,36,2,-1,1
0.601411671511355,37,2,-1,1
-2.0454511749164728,38,2,-1,1
-0.46596705611641,39,2,-1,1
-0.02629423755697431,40,2,-1,1
-0.5712146405400965,41,2,-1,1
0.4198495238820956,42,2,-1,1
-0.7587194861957799,43,2,-1,1
-1.0797044210568492,44,2,-1,1
-1.4783967262750397,45,2,-1,1
-0.15945674431738993,46,2,-1,1
-0.1214193538749305,47,2,-1,1
-0.46171551143725026,48,2,-1,1
-0.0824353876879806,49,2,-1,1
-1.0848366193482153,50,2,-1,1
-2.015882179054056,51,2,-1,1
-1.7742752767791952,52,2,-1,1
-0.7157062093239744,53,2,-1,1
0.563196792953326,54,2,-1,1
0.10090742792505177,55,2,-1,1
0.020612977619879486,56,2,-1,1
-0.29802960956100893,57,2,-1,1
0.4859618576928252,58,2,-1,1
1.6346024640572496,59,2,-1,1
0.9965057446639275,60,2,-1,1
0.820108124584313,61,2,-1,1
-0.17726093800139084,62,2,-1,1
-0.17624163490551278,63,2,-1,1
-0.19377860659834473,0,3,-1,1
-0.2073670809701972,1,3,-1,1
-0.1572371125571155,2,3,-1,1
0.0799442213448541,3,3,-1,1
-0.07578831173102256,4,3,-1,1
0.048573319793296994,5,3,-1,1
0.078295308059247,6,3,-1,1
-0.08848656368289025,7,3,-1,1
0.09052319796509073,8,3,-1,1
0.23381070295988549,9,3,-1,1
0.7147422646516037,10,3,-1,1
-0.06943849517149633,11,3,-1,1
-0.9254111322369769,12,3,-1,1
-0.39399508780212655,13,3,-1,1
-0.07118507637800042,14,3,-1,1
-0.022175178901778735,15,3,-1,1
-0.16213991208471124,16,3,-1,1
0.3564819369809733,17,3,-1,1
-0.24605740116184288,18,3,-1,1
-0.8011137569766638,19,3,-1,1
-1.006497208525605,20,3,-1,1
-0.9350683467836166,21,3,-1,1
0.4779668391958939,22,3,-1,1
0.06835792307187474,23,3,-1,1
-0.07310683871388918,24,3,-1,1
-0.27646078300384536,25,3,-1,1
-0.6718584155206895,26,3,-1,1
-0.3152363239318955,27,3,-1,1
0.019583779000721266,28,3,-1,1
-0.3117747165245363,29,3,-1,1
-0.7447597511934158,30,3,-1,1
-0.36766511869641055,31,3,-1,1
0.0874173880336745,32,3,-1,1
-0.3127677656084102,33,3,-1,1
-0.7431241943273869,34,3,-1,1
-0.97801183821822,35,3,-1,1
-0.8773651466725295,36,3,-1,1
-0.05385478799630645,37,3,-1,1
-0.1516581744724616,38,3,-1,1
-0.05621611530933333,39,3,-1,1
0.04518526365270487,40,3,-1,1
-0.08643188279620358,41,3,-1,1
-1.2759931410466439,42,3,-1,1
-1.0731553334973238,43,3,-1,1
-0.5456175263858831,44,3,-1,1
-0.43286050608349763,45,3,-1,1
-0.11906183674775155,46,3,-1,1
-0.08953318195408068,47,3,-1,1
-0.054353101192614245,48,3,-1,1
-0.27933552742753176,49,3,-1,1
-1.0024894272774307,50,3,-1,1
-1.1438258174111742,51,3,-1,1
-0.6249789817575682,52,3,-1,1
0.11418001499220352,53,3,-1,1
-0.2919051662447625,54,3,-1,1
0.06013917258476499,55,3,-1,1
-0.0995669271803341,56,3,-1,1
0.14321081519374412,57,3,-1,1
0.32578977639127793,58,3,-1,1
0.35162499103157047,59,3,-1,1
0.20303750931522574,60,3,-1,1
-0.05519359157564831,61,3,-1,1
0.19509604158411123,62,3,-1,1
0.07242472141670957,63,3,-1,1
-0.03061259979875883,0,4,-1,1
-0.173342917514557,1,4,-1,1
-0.009176435336929203,2,4,-1,1
0.46033861550189537,3,4,-1,1
0.5940096493524535,4,4,-1,1
0.6041666379591095,5,4,-1,1
-0.010678439246726153,6,4,-1,1
0.17357897608898887,7,4,-1,1
-0.04363715070896595,8,4,-1,1
-0.21658157756593893,9,4,-1,1
-0.4891116580539944,10,4,-1,1
0.1269951157122045,11,4,-1,1
1.6741118350550208,12,4,-1,1
0.08071847096093535,13,4,-1,1
-0.09147279132666773,14,4,-1,1
0.1910606695213358,15,4,-1,1
-0.1292048661310018,16,4,-1,1
-0.9809808111676113,17,4,-1,1
-0.3889214228181896,18,4,-1,1
3.682274969497172,19,4,-1,1
0.9252893883621776,20,4,-1,1
-2.2523250838648754,21,4,-1,1
-1.1962762161010883,22,4,-1,1
0.21538626113129908,23,4,-1,1
-0.13573626347715284,24,4,-1,1
0.826452356249302,25,4,-1,1
2.116830397083477,26,4,-1,1
-0.22918129163770035,27,4,-1,1
-1.478529041530125,28,4,-1,1
0.5599220865315632,29,4,-1,1
-1.2650761868013465,30,4,-1,1
-0.21584895571060866,31,4,-1,1
0.25160816360677546,32,4,-1,1
-0.73921176443699,33,4,-1,1
-0.11201361101519265,34,4,-1,1
-2.291100163481012,35,4,-1,1
-1.0928267969080014,36,4,-1,1
1.3752275970626098,37,4,-1,1
-0.4601802527768031,38,4,-1,1
-0.2613298177448742,39,4,-1,1
0.035942201423650184,40,4,-1,1
-0.8359139932992855,41,4,-1,1
-0.988556904242723,42,4,-1,1
-2.0902882688965967,43,4,-1,1
0.5047671795427933,44,4,-1,1
-0.03969818033232741,45,4,-1,1
-0.20544137331969228,46,4,-1,1
-0.28432763171597375,47,4,-1,1
0.132284182018859,48,4,-1,1
-0.41350852433939184,49,4,-1,1
-1.445296476359908,50,4,-1,1
0.41960314349992633,51,4,-1,1
-0.39693544218049764,52,4,-1,1
-0.6961924031982861,53,4,-1,1
-0.06681914734991327,54,4,-1,1
0.4247795620349284,55,4,-1,1
0.09232476437132595,56,4,-1,1
0.3178800876532196,57,4,-1,1
1.419848211083275,58,4,-1,1
1.87992187423659,59,4,-1,1
1.011317917536177,60,4,-1,1
1.1754712428474585,61,4,-1,1
0.0999062668691165,62,4,-1,1
0.011805774822362176,63,4,-1,1
-0.09468961203939855,0,5,-1,1
-0.24655161613167023,1,5,-1,1
-0.19840047171046504,2,5,-1,1
-0.06303731894622633,3,5,-1,1
0.1947211612985438,4,5,-1,1
-0.5285919081507412,5,5,-1,1
-0.17693760914221937,6,5,-1,1
-0.14116303039421044,7,5,-1,1
-0.1731138518712103,8,5,-1,1
-0.07172951825561291,9,5,-1,1
0.5907433081262109,10,5,-1,1
1.5404520808535263,11,5,-1,1
1.2358776305197716,12,5,-1,1
0.20532071958572634,13,5,-1,1
-0.055348878441750494,14,5,-1,1
-0.0337429909404754,15,5,-1,1
-0.1697237516211905,16,5,-1,1
1.543117923389378,17,5,-1,1
1.187770961934571,18,5,-1,1
1.1078264965389129,19,5,-1,1
0.6209712629707036,20,5,-1,1
1.8375931919318587,21,5,-1,1
1.625470586280608,22,5,-1,1
-0.37597505449025287,23,5,-1,1
0.5253496954278633,24,5,-1,1
-0.33079361694554776,25,5,-1,1
-2.6634402313861103,26,5,-1,1
-1.7749912623562638,27,5,-1,1
0.0714708171225834,28,5,-1,1
-1.420953367332749,29,5,-1,1
0.7806137355155494,30,5,-1,1
-0.3932469827601368,31,5,-1,1
0.06860649331990175,32,5,-1,1
-0.13350040586038806,33,5,-1,1
-3.401900207787575,34,5,-1,1
-1.1009332338107303,35,5,-1,1
-0.4365256413064968,36,5,-1,1
-1.448975463676362,37,5,-1,1
0.25305255482928424,38,5,-1,1
0.01052123140388138,39,5,-1,1
-0.30118027480069853,40,5,-1,1
1.0287424913460266,41,5,-1,1
0.7985079338876641,42,5,-1,1
0.30408270820393796,43,5,-1,1
-0.7266788450635417,44,5,-1,1
0.13396172348197585,45,5,-1,1
0.7424052987228159,46,5,-1,1
-0.05444743337270158,47,5,-1,1
-0.09538126316212979,48,5,-1,1
0.6476547898805429,49,5,-1,1
1.7873570770049825,50,5,-1,1
0.5762268321807974,51,5,-1,1
0.998042015588832,52,5,-1,1
0.639985788109945,53,5,-1,1
0.10283531935383017,54,5,-1,1
-0.039249894202693925,55,5,-1,1
0.10326617045235763,56,5,-1,1
-0.35856077448776863,57,5,-1,1
-0.32822578184975615,58,5,-1,1
0.573431956288776,59,5,-1,1
0.4704829513811768,60,5,-1,1
-0.2594866781341183,61,5,-1,1
-0.16221356529372266,62,5,-1,1
-0.3375764691844762,63,5,-1,1
0.032007743908443055,0,6,-1,1
0.1362401104808369,1,6,-1,1
0.0618814077216483,2,6,-1,1
-0.7566162672413426,3,6,-1,1
-1.4972816301691414,4,6,-1,1
-0.5918267451923619,5,6,-1,1
-0.09242182750108695,6,6,-1,1
-0.02021592203572197,7,6,-1,1
-0.0394660271361445,8,6,-1,1
-0.22749229826907638,9,6,-1,1
-0.5977345010525444,10,6,-1,1
-0.2997520273855626,11,6,-1,1
1.0648051656713389,12,6,-1,1
1.582387640632258,13,6,-1,1
0.787220411102526,14,6,-1,1
-0.011244756225247437,15,6,-1,1
-0.25732073051064713,16,6,-1,1
-1.537147975210154,17,6,-1,1
-0.8591643231959274,18,6,-1,1
-0.991241878794865,19,6,-1,1
0.30512838168123996,20,6,-1,1
0.5694278018942496,21,6,-1,1
0.4708764976451382,22,6,-1,1
0.539423083951297,23,6,-1,1
-0.5500254221499365,24,6,-1,1
0.23586825757322202,25,6,-1,1
1.4010782957033021,26,6,-1,1
0.11175025730199474,27,6,-1,1
-0.11990040790214189,28,6,-1,1
-0.2526452335347258,29,6,-1,1
-0.7517405033114254,30,6,-1,1
-0.042142799936670104,31,6,-1,1
-0.1300548743185329,32,6,-1,1
0.932502010019057,33,6,-1,1
1.648759540603796,34,6,-1,1
0.9529125900108044,35,6,-1,1
0.36301995736323106,36,6,-1,1
-0.47679259737253266,37,6,-1,1
-1.5195111689329845,38,6,-1,1
-0.0681627414318853,39,6,-1,1
-0.20513278654016492,40,6,-1,1
1.5134782045973503,41,6,-1,1
1.4042094379542989,42,6,-1,1
-1.658910483136329,43,6,-1,1
-0.10690427293865802,44,6,-1,1
-0.8303895194608816,45,6,-1,1
0.619968487429922,46,6,-1,1
0.1049832485277185,47,6,-1,1
-0.02524979781747468,48,6,-1,1
-0.08152558601187046,49,6,-1,1
0.5545519644199739,50,6,-1,1
-0.8399563173888025,51,6,-1,1
-1.0915864520581195,52,6,-1,1
1.0672664436227928,53,6,-1,1
1.0622977197193124,54,6,-1,1
-0.1351252196584881,55,6,-1,1
-0.03776719530498302,56,6,-1,1
-0.13556349555994857,57,6,-1,1
-0.801690386529778,58,6,-1,1
-0.8670542518158816,59,6,-1,1
-0.3774739471676088,60,6,-1,1
0.22716636855609953,61,6,-1,1
0.29913286282888335,62,6,-1,1
0.13532328571410543,63,6,-1,1
-0.06406585816490479,0,7,-1,1
0.15768636540973086,1,7,-1,1
0.24279645736923147,2,7,-1,1
0.27401241822964,3,7,-1,1
-0.004294284277507155,4,7,-1,1
-0.02690693092797776,5,7,-1,1
-0.020760043067051783,6,7,-1,1
-0.4484271995482713,7,7,-1,1
-0.33385806777626087,8,7,-1,1
0.16305333233525562,9,7,-1,1
0.07354955259751823,10,7,-1,1
-0.027671302277974746,11,7,-1,1
-0.9562723436894123,12,7,-1,1
-0.44901665540599683,13,7,-1,1
-0.02923212573842797,14,7,-1,1
0.05692779151575833,15,7,-1,1
-0.07826975230754776,16,7,-1,1
-0.10669015013020765,17,7,-1,1
-0.38683215088752954,18,7,-1,1
-0.6218999806030112,19,7,-1,1
-0.7886076143107165,20,7,-1,1
-0.5795575093262546,21,7,-1,1
-0.039770281922801895,22,7,-1,1
0.16028041742062152,23,7,-1,1
-0.07461540364387331,24,7,-1,1
-0.5251852210545566,25,7,-1,1
-0.27828408810200894,26,7,-1,1
-0.003270952761548256,27,7,-1,1
-0.487216592799102,28,7,-1,1
-0.5226386089505042,29,7,-1,1
-0.7213923028897806,30,7,-1,1
0.15302123402046802,31,7,-1,1
0.003939675686835362,32,7,-1,1
-0.49178590879374995,33,7,-1,1
-0.3326131420034378,34,7,-1,1
0.04012636745651469,35,7,-1,1
-0.5125154402834077,36,7,-1,1
-0.8942998433855136,37,7,-1,1
-0.7509420225103918,38,7,-1,1
-0.03747764413117656,39,7,-1,1
0.002237961825373396,40,7,-1,1
-0.07455206040641825,41,7,-1,1
-0.5127065190830861,42,7,-1,1
-1.0190956075098283,43,7,-1,1
-0.3629641349717066,44,7,-1,1
-0.2257265600778762,45,7,-1,1
0.11804455582667875,46,7,-1,1
0.08504795074192922,47,7,-1,1
0.08257871824478397,48,7,-1,1
-0.0419577156453591,49,7,-1,1
-0.4744372070618536,50,7,-1,1
-0.9005388473507162,51,7,-1,1
-0.839102691863038,52,7,-1,1
-0.36128529743507737,53,7,-1,1
0.10531577661388149,54,7,-1,1
-0.17843784478344513,55,7,-1,1
-0.07295644723074017,56,7,-1,1
0.00951957862959088,57,7,-1,1
-0.02316942324539612,58,7,-1,1
0.27640527917790747,59,7,-1,1
0.05781763221136738,60,7,-1,1
0.29554487377394245,61,7,-1,1
-0.07529950837182199,62,7,-1,1
-0.11825484363691635,63,7,-1,1
0.13694399092214768,0,8,-1,1
0.007540822468312745,1,8,-1,1
0.16114355250405768,2,8,-1,1
-0.23661581680558355,3,8,-1,1
0.3459302102300293,4,8,-1,1
-0.1179442905580368,5,8,-1,1
0.01945754133494693,6,8,-1,1
-0.03832989788255254,7,8,-1,1
-0.04127672018331595,8,8,-1,1
0.48860771460766617,9,8,-1,1
-0.1744795737924259,10,8,-1,1
-0.5954534574607427,11,8,-1,1
-0.9448593491779738,12,8,-1,1
0.45107998243661207,13,8,-1,1
0.2969639857186653,14,8,-1,1
-0.02589063185839482,15,8,-1,1
0.3007268527037816,16,8,-1,1
0.3862369795923352,17,8,-1,1
-0.6931463671312729,18,8,-1,1
0.13884775036604968,19,8,-1,1
1.934822313797685,20,8,-1,1
2.0654445244543296,21,8,-1,1
0.4842089717247922,22,8,-1,1
-0.4387220477785765,23,8,-1,1
0.30176050676083216,24,8,-1,1
-0.97882893309213,25,8,-1,1
-1.497388795920283,26,8,-1,1
-0.30178582335368903,27,8,-1,1
1.7581883969527987,28,8,-1,1
0.014132984526203589,29,8,-1,1
-1.147652241039686,30,8,-1,1
-0.013901259234978553,31,8,-1,1
0.12456946068269797,32,8,-1,1
-0.10191186096836627,33,8,-1,1
-0.1696359083087358,34,8,-1,1
-0.37725530647971395,35,8,-1,1
1.3193294839173317,36,8,-1,1
0.5167932421902584,37,8,-1,1
-0.3612959897767942,38,8,-1,1
0.1009404859268237,39,8,-1,1
0.08924018683780816,40,8,-1,1
1.0626089577101019,41,8,-1,1
-0.7630852441145872,42,8,-1,1
-0.5466912820194716,43,8,-1,1
1.1519579247957985,44,8,-1,1
-0.8574861594758826,45,8,-1,1
-0.133073114780542,46,8,-1,1
0.3012485964770798,47,8,-1,1
0.10629278781362034,48,8,-1,1
0.24307995638962418,49,8,-1,1
1.0486377808935385,50,8,-1,1
0.03500763412848136,51,8,-1,1
-0.9122711562498695,52,8,-1,1
-0.31025728230921445,53,8,-1,1
0.1319037724795658,54,8,-1,1
0.1288506489643405,55,8,-1,1
0.06294876595822468,56,8,-1,1
-0.0002964847681314652,57,8,-1,1
0.2088432796204188,58,8,-1,1
-0.24248079422966878,59,8,-1,1
-0.30445104610898455,60,8,-1,1
-0.37301762015289525,61,8,-1,1
-0.012094082172224133,62,8,-1,1
0.0793612336525554,63,8,-1,1
-0.11370489176466193,0,9,-1,1
-0.0876225138556988,1,9,-1,1
0.0927680227194485,2,9,-1,1
0.0173293477144431,3,9,-1,1
-0.31994556185251105,4,9,-1,1
0.039174166763660846,5,9,-1,1
-0.23264043883104146,6,9,-1,1
0.2884557465560641,7,9,-1,1
-0.017911422711271455,8,9,-1,1
-0.09454589755413881,9,9,-1,1
0.38116893620951847,10,9,-1,1
-0.0020787359341451215,11,9,-1,1
-0.4318175293635667,12,9,-1,1
-0.4207372572657354,13,9,-1,1
-0.19042987842385414,14,9,-1,1
0.11444672489832008,15,9,-1,1
0.0013348351759600763,16,9,-1,1
-0.21072441538426176,17,9,-1,1
-0.6831969388164898,18,9,-1,1
-0.3312916467378537,19,9,-1,1
-0.48176626094872504,20,9,-1,1
-0.1461045388969903,21,9,-1,1
0.3116011856535208,22,9,-1,1
-0.5371549379940043,23,9,-1,1
0.033456747537248685,24,9,-1,1
-0.22028259739902448,25,9,-1,1
-0.627298491853855,26,9,-1,1
-0.6732470404470126,27,9,-1,1
-0.36807740989811405,28,9,-1,1
-0.8774905259158795,29,9,-1,1
-0.0686592987896328,30,9,-1,1
-0.007634466012440351,31,9,-1,1
-0.2687351068206321,32,9,-1,1
0.014232285435528803,33,9,-1,1
-0.6028038761084875,34,9,-1,1
-0.6062965364058748,35,9,-1,1
-0.1718883671023754,36,9,-1,1
-1.3746550757998937,37,9,-1,1
-0.35820775255936865,38,9,-1,1
0.021127159449250015,39,9,-1,1
0.14209596837914676,40,9,-1,1
-0.14914380981477565,41,9,-1,1
-0.4570704233014203,42,9,-1,1
-1.1699128953480038,43,9,-1,1
-1.14362884241311,44,9,-1,1
-0.7713182591799018,45,9,-1,1
0.03262146906255009,46,9,-1,1
0.10435190307698688,47,9,-1,1
-0.08308276602674244,48,9,-1,1
0.1090481298007501,49,9,-1,1
0.01504622857369808,50,9,-1,1
-0.4713251410272049,51,9,-1,1
-0.37636871808386935,52,9,-1,1
-0.3215776059934578,53,9,-1,1
0.0810294355667386,54,9,-1,1
-0.09211069955186936,55,9,-1,1
-0.1002467820753486,56,9,-1,1
-0.06894620096610343,57,9,-1,1
0.028010715797924114,58,9,-1,1
0.11243698369475835,59,9,-1,1
0.30314680995981363,60,9,-1,1
0.07174397566354437,61,9,-1,1
-0.064665747279149,62,9,-1,1
-0.08758916933799421,63,9,-1,1
0.0465102934680801,0,10,-1,1
0.10946877092347618,1,10,-1,1
0.08413109592636771,2,10,-1,1
0.7745814647546323,3,10,-1,1
0.7804756781777774,4,10,-1,1
0.7570802440232125,5,10,-1,1
0.07320357476396458,6,10,-1,1
-0.020735663800610916,7,10,-1,1
-0.06006033475881183,8,10,-1,1
0.4353459668676719,9,10,-1,1
0.15381295508655263,10,10,-1,1
0.5661443082974926,11,10,-1,1
1.0402475516208916,12,10,-1,1
0.4380084290252264,13,10,-1,1
-0.4013650470773749,14,10,-1,1
-0.38256152222927997,15,10,-1,1
0.44637908295804923,16,10,-1,1
0.3632872218096303,17,10,-1,1
-0.7594042673742276,18,10,-1,1
2.535084860283544,19,10,-1,1
2.3549265035904225,20,10,-1,1
-0.6144420509013079,21,10,-1,1
-0.5098928537376451,22,10,-1,1
-1.0039264401008594,23,10,-1,1
0.36675446523359956,24,10,-1,1
-0.22395263686082956,25,10,-1,1
-1.1619394042204807,26,10,-1,1
-0.4806883118713422,27,10,-1,1
1.8839025383501975,28,10,-1,1
1.4060247155501915,29,10,-1,1
1.544507542372956,30,10,-1,1
-0.07936617963630549,31,10,-1,1
0.08482097235213208,32,10,-1,1
-0.7183066638886922,33,10,-1,1
-1.5973572743275515,34,10,-1,1
-2.206537519800193,35,10,-1,1
-1.0335654507265546,36,10,-1,1
0.22234374897725454,37,10,-1,1
0.6882288038716295,38,10,-1,1
0.18776878495438307,39,10,-1,1
0.2614545932301986,40,10,-1,1
-0.4773304740090375,41,10,-1,1
0.5567861807777424,42,10,-1,1
0.6749687537684786,43,10,-1,1
0.7487409555125981,44,10,-1,1
1.1320948279997094,45,10,-1,1
-0.3756018023090837,46,10,-1,1
-0.12613903338534682,47,10,-1,1
0.10178345613468949,48,10,-1,1
1.1233800737290947,49,10,-1,1
1.519088092277625,50,10,-1,1
0.47586950557117447,51,10,-1,1
-0.40676111867932324,52,10,-1,1
-1.531883403316544,53,10,-1,1
-0.4115731845840925,54,10,-1,1
0.01804508857951252,55,10,-1,1
0.08074063106843045,56,10,-1,1
0.22915987312933542,57,10,-1,1
1.4939271711358717,58,10,-1,1
1.4677883387595363,59,10,-1,1
1.068864395567898,60,10,-1,1
1.2420936949142323,61,10,-1,1
0.08086150812409192,62,10,-1,1
-0.009736809987040981,63,10,-1,1
-0.02451951203253145,0,11,-1,1
0.29135051228984243,1,11,-1,1
0.1558575213156812,2,11,-1,1
-0.301014809647296,3,11,-1,1
0.11745335478328728,4,11,-1,1
-0.34386946902861154,5,11,-1,1
-0.3039361121240519,6,11,-1,1
0.12744754926413798,7,11,-1,1
0.07937756489506566,8,11,-1,1
-0.5424184033485323,9,11,-1,1
-0.9781943806109584,10,11,-1,1
-0.6413603237452721,11,11,-1,1
-0.8022019811590086,12,11,-1,1
-0.01890520043833029,13,11,-1,1
1.363987089084381,14,11,-1,1
0.00030732252410303876,15,11,-1,1
0.31454036725501855,16,11,-1,1
-0.4410091349746005,17,11,-1,1
0.8019561848512242,18,11,-1,1
1.2640945400685608,19,11,-1,1
0.7349658665590977,20,11,-1,1
-0.04392270869353551,21,11,-1,1
1.780508284552817,22,11,-1,1
1.2489226042701,23,11,-1,1
0.17362399306565524,24,11,-1,1
0.08455013104833148,25,11,-1,1
0.04713397809513269,26,11,-1,1
0.009850613236273962,27,11,-1,1
-0.3096180590964328,28,11,-1,1
-1.3368016523889057,29,11,-1,1
-0.5442169149770205,30,11,-1,1
0.7855318944467674,31,11,-1,1
0.33038119038902497,32,11,-1,1
-0.52216281092764,33,11,-1,1
-0.9429267963101585,34,11,-1,1
-0.20449525091583506,35,11,-1,1
-0.9669291072339338,36,11,-1,1
-2.1615879934291424,37,11,-1,1
-0.6937075081070252,38,11,-1,1
-0.125636452719525,39,11,-1,1
-0.3697045279648984,40,11,-1,1
0.12154032892582838,41,11,-1,1
0.37249030786455434,42,11,-1,1
1.7087644538303184,43,11,-1,1
-0.9019510274325778,44,11,-1,1
-1.9174831006086717,45,11,-1,1
-0.03649435766608299,46,11,-1,1
0.4293539469611754,47,11,-1,1
-0.0687326717058305,48,11,-1,1
-0.42284708227331513,49,11,-1,1
0.9001683958870089,50,11,-1,1
1.4345149530299217,51,11,-1,1
0.7030231128678047,52,11,-1,1
-0.15548598884080184,53,11,-1,1
0.483554979911248,54,11,-1,1
-0.025378354157083737,55,11,-1,1
0.27854354873225945,56,11,-1,1
-0.3230043735261902,57,11,-1,1
-1.0675935691438678,58,11,-1,1
-0.3766360619728646,59,11,-1,1
0.1149015276245615,60,11,-1,1
-0.39439106667894447,61,11,-1,1
-0.06186050503759986,62,11,-1,1
0.29057103408735857,63,11,-1,1
0.12267840093474902,0,12,-1,1
-0.13490116905052116,1,12,-1,1
0.06275816955369355,2,12,-1,1
1.1556243434303037,3,12,-1,1
1.0504820204076035,4,12,-1,1
0.8090290572788781,5,12,-1,1
0.42213496715172855,6,12,-1,1
-0.2456292827110648,7,12,-1,1
-0.24443729446699683,8,12,-1,1
-0.35259036814825423,9,12,-1,1
-0.06859752407327539,10,12,-1,1
-1.0517708774025936,11,12,-1,1
-1.170106189416994,12,12,-1,1
-0.45261811024860227,13,12,-1,1
-0.3166035344976212,14,12,-1,1
-0.1461031556255051,15,12,-1,1
0.17219141950397948,16,12,-1,1
0.16676071467270068,17,12,-1,1
1.8832855037216427,18,12,-1,1
1.1707329547749068,19,12,-1,1
-0.25065937928830295,20,12,-1,1
-2.181325405343772,21,12,-1,1
-0.7471356848767768,22,12,-1,1
0.5936695295491113,23,12,-1,1
0.0008423282685923682,24,12,-1,1
0.6159866825358425,25,12,-1,1
-0.6721598549053851,26,12,-1,1
0.19851006801607304,27,12,-1,1
-0.7157943011509287,28,12,-1,1
0.06639329135202146,29,12,-1,1
0.5831254532181239,30,12,-1,1
0.5036172819187278,31,12,-1,1
0.16786494986909736,32,12,-1,1
-1.9248688521454331,33,12,-1,1
-2.155544424837187,34,12,-1,1
-0.583497331878953,35,12,-1,1
-1.2994195619667768,36,12,-1,1
-0.21387004007360544,37,12,-1,1
0.3029072101490035,38,12,-1,1
0.03986545261305248,39,12,-1,1
-0.0677103212076114,40,12,-1,1
-1.9268358492186168,41,12,-1,1
1.5061999081086228,42,12,-1,1
2.5490734979125067,43,12,-1,1
0.23293131626354205,44,12,-1,1
0.02092617149288942,45,12,-1,1
-0.8612628365143862,46,12,-1,1
-0.027750003490757492,47,12,-1,1
-0.21769235686845065,48,12,-1,1
-0.3907774446831436,49,12,-1,1
-0.1510986029361118,50,12,-1,1
0.8388741665273419,51,12,-1,1
0.1938274347282715,52,12,-1,1
-2.4088577471941903,53,12,-1,1
-0.6182195505303192,54,12,-1,1
0.13738386168066913,55,12,-1,1
0.05993515289033491,56,12,-1,1
-0.17665896361322883,57,12,-1,1
0.2547057962659515,58,12,-1,1
0.5055293679152549,59,12,-1,1
0.5716174032171364,60,12,-1,1
-0.06260912473048373,61,12,-1,1
-0.1801211018644366,62,12,-1,1
0.07886668980224666,63,12,-1,1
-0.007813232531746683,0,13,-1,1
0.21598101350809937,1,13,-1,1
0.3856879832065671,2,13,-1,1
0.7585492880325719,3,13,-1,1
1.3670444284741172,4,13,-1,1
1.1261138799429498,5,13,-1,1
0.4208450598488557,6,13,-1,1
-0.19023238155792943,7,13,-1,1
-0.14211981916434924,8,13,-1,1
0.3225788090018341,9,13,-1,1
1.2609838305904448,10,13,-1,1
0.9086320774062315,11,13,-1,1
0.756780946172482,12,13,-1,1
1.0713660571106434,13,13,-1,1
0.19227301099886024,14,13,-1,1
-0.09851008586004242,15,13,-1,1
0.22058875300667108,16,13,-1,1
0.7093337028994238,17,13,-1,1
-0.4389879806190034,18,13,-1,1
0.0010632738040027437,19,13,-1,1
-0.05726766505352553,20,13,-1,1
-1.9540048747815728,21,13,-1,1
-2.098765714838622,22,13,-1,1
-0.7775734207366091,23,13,-1,1
0.46932552214633916,24,13,-1,1
-0.40242304580123406,25,13,-1,1
-2.1098012186564667,26,13,-1,1
-2.285534538618053,27,13,-1,1
2.4289080181395604,28,13,-1,1
-0.7458633537942235,29,13,-1,1
0.055056489299164395,30,13,-1,1
-0.5655724880562395,31,13,-1,1
0.07353703458912109,32,13,-1,1
-0.827058106792331,33,13,-1,1
-0.9368291058604727,34,13,-1,1
0.3919117055604025,35,13,-1,1
1.1723851838870147,36,13,-1,1
-0.4703266466289918,37,13,-1,1
1.5069531542171566,38,13,-1,1
-0.007700927751215281,39,13,-1,1
0.17919270206132645,40,13,-1,1
-0.788323228732743,41,13,-1,1
0.5454836355703809,42,13,-1,1
1.8789531446796603,43,13,-1,1
0.38094915343494723,44,13,-1,1
1.823108374699908,45,13,-1,1
-0.028704478615134282,46,13,-1,1
-0.22878881953266159,47,13,-1,1
-0.13903856915823595,48,13,-1,1
1.031861578529716,49,13,-1,1
1.498445849266358,50,13,-1,1
-0.6936949710880483,51,13,-1,1
1.1154987804768266,52,13,-1,1
0.37903079239941306,53,13,-1,1
-0.38225355091603486,54,13,-1,1
-0.12413387040806474,55,13,-1,1
0.02346704752271694,56,13,-1,1
0.24643009357227616,57,13,-1,1
0.49108315983231055,58,13,-1,1
0.03310368164379302,59,13,-1,1
-0.8094200684283595,60,13,-1,1
-0.05838576281810377,61,13,-1,1
-0.1523111191520435,62,13,-1,1
0.10621717689962455,63,13,-1,1
-0.35623767368699855,0,14,-1,1
-0.03395577055673425,1,14,-1,1
0.15375881346213136,2,14,-1,1
-0.09849827843533297,3,14,-1,1
-0.26016394489161304,4,14,-1,1
-0.02409616900480307,5,14,-1,1
-0.0792600834459913,6,14,-1,1
-0.10754732039591537,7,14,-1,1
-0.02991126492765222,8,14,-1,1
-0.28227268495055474,9,14,-1,1
-0.14370714702072876,10,14,-1,1
-0.5537931155013887,11,14,-1,1
-0.57490681873007,12,14,-1,1
-0.35888401886839394,13,14,-1,1
0.09803320886855847,14,14,-1,1
0.15584355763253382,15,14,-1,1
-0.10336042384874343,16,14,-1,1
-0.2637857832744247,17,14,-1,1
-0.4739164958570933,18,14,-1,1
-0.2129374485055497,19,14,-1,1
-0.2654880014387838,20,14,-1,1
-0.18042071646574626,21,14,-1,1
-0.03506721900282046,22,14,-1,1
0.06350858640828667,23,14,-1,1
0.17065838437241612,24,14,-1,1
-0.1080103895731499,25,14,-1,1
0.039200287526863865,26,14,-1,1
-0.4794097318893118,27,14,-1,1
0.09321404936083635,28,14,-1,1
-0.03953604448265578,29,14,-1,1
-0.7049573527217127,30,14,-1,1
0.29523201745903255,31,14,-1,1
0.0643123079095915,32,14,-1,1
-0.09630638056517503,33,14,-1,1
-0.8002251796338248,34,14,-1,1
-0.08212073963944845,35,14,-1,1
0.457350075692398,36,14,-1,1
-0.7016506633617411,37,14,-1,1
-0.9013961345104058,38,14,-1,1
0.17514918828301,39,14,-1,1
0.03980708312572785,40,14,-1,1
0.023047772684556322,41,14,-1,1
-0.33440363691451336,42,14,-1,1
-0.2686673428854579,43,14,-1,1
-0.1623978404467098,44,14,-1,1
-1.1604508207898125,45,14,-1,1
-0.35268349824748796,46,14,-1,1
0.2918492741603723,47,14,-1,1
-0.07042996939980464,48,14,-1,1
-0.08494703292028173,49,14,-1,1
-0.23250695265089216,50,14,-1,1
-0.4288923598501421,51,14,-1,1
-0.4656103933319976,52,14,-1,1
-0.551927456088615,53,14,-1,1
0.15722137397871502,54,14,-1,1
0.0489054515142611,55,14,-1,1
0.14733387805838982,56,14,-1,1
-0.16513016043409265,57,14,-1,1
0.18135195486080238,58,14,-1,1
0.32070657978848555,59,14,-1,1
0.13558937210007696,60,14,-1,1
0.22577373245236454,61,14,-1,1
-0.15528223694545076,62,14,-1,1
-0.0863375862083623,63,14,-1,1
-0.1079341780801119,0,15,-1,1
-0.12431068815819463,1,15,-1,1
0.1583604757582694,2,15,-1,1
0.1428303108470328,3,15,-1,1
-0.25552876215161757,4,15,-1,1
-0.19936611278906743,5,15,-1,1
-0.03331890512030942,6,15,-1,1
-0.014102410861294023,7,15,-1,1
-0.0745360259366635,8,15,-1,1
-0.1734143256056281,9,15,-1,1
0.3500717368146695,10,15,-1,1
1.417307758343542,11,15,-1,1
1.78263094274012,12,15,-1,1
1.2295752986355082,13,15,-1,1
-0.18757072452121895,14,15,-1,1
-0.33083806946609584,15,15,-1,1
-0.04089296017096292,16,15,-1,1
-0.0698424180023337,17,15,-1,1
1.1549764488909333,18,15,-1,1
-1.2148629943840428,19,15,-1,1
0.11523056989713976,20,15,-1,1
0.6381689873809996,21,15,-1,1
2.0413870277294377,22,15,-1,1
1.2669844025858918,23,15,-1,1
-0.38655122977514866,24,15,-1,1
-0.684072064987945,25,15,-1,1
-0.6181176579834109,26,15,-1,1
0.8985710238945703,27,15,-1,1
-0.7901507415814448,28,15,-1,1
-2.970148227503616,29,15,-1,1
0.3877744075365451,30,15,-1,1
0.7508770739890324,31,15,-1,1
0.1420442639447997,32,15,-1,1
-1.1740012684896421,33,15,-1,1
-0.8363395536004288,34,15,-1,1
1.51451230390295,35,15,-1,1
-3.0987991151139043,36,15,-1,1
-3.0625241382863937,37,15,-1,1
-0.13131511224251882,38,15,-1,1
0.1721640596341946,39,15,-1,1
-0.163303781989351,40,15,-1,1
2.1913590119372754,41,15,-1,1
3.792198429063383,42,15,-1,1
-0.32310616683214,43,15,-1,1
-0.6876966815772558,44,15,-1,1
2.5146995932009046,45,15,-1,1
2.144713876584553,46,15,-1,1
0.27949767894311006,47,15,-1,1
-0.15698049807276496,48,15,-1,1
0.6235701428631425,49,15,-1,1
2.6187668994772344,50,15,-1,1
2.5305598049930604,51,15,-1,1
1.3633895265567182,52,15,-1,1
0.6215391973195986,53,15,-1,1
0.476310214133984,54,15,-1,1
-0.10605597354994054,55,15,-1,1
0.14851363399642414,56,15,-1,1
-0.4638161980106944,57,15,-1,1
-1.5229547362366394,58,15,-1,1
-1.1679517936110149,59,15,-1,1
-0.20182915956224856,60,15,-1,1
-0.7030160786112551,61,15,-1,1
-0.08768844007668085,62,15,-1,1
-0.01116687550768506,63,15,-1,1
0.015840146216233572,0,16,-1,1
0.13131105030488754,1,16,-1,1
-0.09634584334681832,2,16,-1,1
-0.3803515056947963,3,16,-1,1
-0.5020872755010245,4,16,-1,1
-0.478205814689377,5,16,-1,1
-0.27631468490141164,6,16,-1,1
0.015343956765147023,7,16,-1,1
0.1489799622776823,8,16,-1,1
-0.31980998266704785,9,16,-1,1
-0.1086239121890655,10,16,-1,1
-0.3941531325872241,11,16,-1,1
-0.42965768407847027,12,16,-1,1
0.5626745504682856,13,16,-1,1
1.4519005955050481,14,16,-1,1
0.4768912043313066,15,16,-1,1
-0.2944825950380662,16,16,-1,1
-0.2037389795704913,17,16,-1,1
0.18937600180773614,18,16,-1,1
-0.7464566644953208,19,16,-1,1
-2.2404256210922107,20,16,-1,1
-1.2334240365646834,21,16,-1,1
0.8313249549015498,22,16,-1,1
1.5728654475994324,23,16,-1,1
-0.2705544141001326,24,16,-1,1
-0.25980228890528373,25,16,-1,1
-0.2017695239304621,26,16,-1,1
1.2486388840556057,27,16,-1,1
-0.7020403118026481,28,16,-1,1
-1.9913524617061706,29,16,-1,1
-2.457204506985397,30,16,-1,1
0.09661235467184413,31,16,-1,1
-0.24393556545055675,32,16,-1,1
0.08503764727428935,33,16,-1,1
0.2173506774204042,34,16,-1,1
2.332119171658099,35,16,-1,1
1.4956215534362196,36,16,-1,1
-0.5457807136425173,37,16,-1,1
-0.6216250542337608,38,16,-1,1
-0.15588286445446822,39,16,-1,1
-0.05267061325615049,40,16,-1,1
0.4484333703273747,41,16,-1,1
0.6605958831431754,42,16,-1,1
1.8814393665158984,43,16,-1,1
0.7405211273234246,44,16,-1,1
-0.0068851976566131744,45,16,-1,1
0.9670632184584711,46,16,-1,1
0.5299143761420904,47,16,-1,1
0.11977645060309437,48,16,-1,1
-0.5558806900050749,49,16,-1,1
0.0911130963792415,50,16,-1,1
-0.5682795824491135,51,16,-1,1
0.33631973926410075,52,16,-1,1
1.681357298681426,53,16,-1,1
0.8785691789546366,54,16,-1,1
0.0792270759523935,55,16,-1,1
0.14019676766185526,56,16,-1,1
-0.44825551208823305,57,16,-1,1
-1.0477158473507016,58,16,-1,1
-1.3100985189860372,59,16,-1,1
-1.2891901531109988,60,16,-1,1
-1.0008595572061252,61,16,-1,1
-0.03660841795678913,62,16,-1,1
-0.13285696062148755,63,16,-1,1
0.04722659767903509,0,17,-1,1
-0.10965812575656772,1,17,-1,1
0.5135025059560417,2,17,-1,1
0.9739608777101122,3,17,-1,1
0.011907606334325123,4,17,-1,1
-0.08322942180813989,5,17,-1,1
0.28660770739854713,6,17,-1,1
-0.030426253356593214,7,17,-1,1
0.02725964266632528,8,17,-1,1
-0.03775836148177222,9,17,-1,1
-0.13008615724347217,10,17,-1,1
1.1005206593515922,11,17,-1,1
1.799061596491485,12,17,-1,1
-0.45711760316058336,13,17,-1,1
-1.2075066909206245,14,17,-1,1
-0.08960274520071909,15,17,-1,1
0.04668682887337255,16,17,-1,1
-0.49820386328493954,17,17,-1,1
-0.30383838860900053,18,17,-1,1
1.4389292260837483,19,17,-1,1
2.3507668171149922,20,17,-1,1
-1.1746125173325277,21,17,-1,1
0.03253440847604101,22,17,-1,1
0.2114651350811917,23,17,-1,1
-0.024947231685002548,24,17,-1,1
0.8888379299345078,25,17,-1,1
0.6029357841823263,26,17,-1,1
-0.5385278112464695,27,17,-1,1
0.3091668520038707,28,17,-1,1
0.1191772656260086,29,17,-1,1
1.2467995977348816,30,17,-1,1
-0.005083726253899061,31,17,-1,1
-0.007746336583258876,32,17,-1,1
-1.1758740555269838,33,17,-1,1
-1.4945582658074574,34,17,-1,1
-0.09145062527550164,35,17,-1,1
-0.8007212577605473,36,17,-1,1
-1.6884514448261019,37,17,-1,1
-0.49349739465837833,38,17,-1,1
0.2755185410115802,39,17,-1,1
-0.06515304016587618,40,17,-1,1
0.28802614677901056,41,17,-1,1
1.0661578663788374,42,17,-1,1
0.5878350142733408,43,17,-1,1
-0.2850760541058039,44,17,-1,1
0.3009153510347573,45,17,-1,1
0.8322877046087147,46,17,-1,1
0.20171675809269152,47,17,-1,1
-0.0845746456820137,48,17,-1,1
0.18693101222205738,49,17,-1,1
0.7829793182276352,50,17,-1,1
0.934034574936373,51,17,-1,1
-0.011544832558550199,52,17,-1,1
-0.4813295873051457,53,17,-1,1
-0.06927374073348928,54,17,-1,1
-0.1258574112270931,55,17,-1,1
-0.18427414990277644,56,17,-1,1
-0.20931432351231957,57,17,-1,1
0.3358187239309736,58,17,-1,1
0.8935743491090383,59,17,-1,1
0.8708730654717614,60,17,-1,1
1.1176170803854864,61,17,-1,1
0.09493363300397309,62,17,-1,1
-0.01646267181081996,63,17,-1,1
-0.03671890979187056,0,18,-1,1
-0.11022099169613468,1,18,-1,1
-0.030184997559885546,2,18,-1,1
0.37743803944241466,3,18,-1,1
-0.25739436251283276,4,18,-1,1
-0.017473191447644133,5,18,-1,1
-0.14010263158624545,6,18,-1,1
0.12293949607701089,7,18,-1,1
0.011797052791367167,8,18,-1,1
0.05768441841469222,9,18,-1,1
-0.5696898180193619,10,18,-1,1
-0.16626868931432226,11,18,-1,1
-0.9657475399638936,12,18,-1,1
-1.3059074190561486,13,18,-1,1
-0.3170444228261095,14,18,-1,1
0.1249720417486152,15,18,-1,1
-0.09148286031111906,16,18,-1,1
-0.7002386438648315,17,18,-1,1
-0.9183463085671849,18,18,-1,1
-0.4339458290145447,19,18,-1,1
0.464686037187673,20,18,-1,1
-0.2871818456382017,21,18,-1,1
0.23432914010699235,22,18,-1,1
0.3949563416495318,23,18,-1,1
0.04150200439787138,24,18,-1,1
-0.3560728183797833,25,18,-1,1
0.394550958407858,26,18,-1,1
0.10233856203147719,27,18,-1,1
1.3337917346477435,28,18,-1,1
-1.0571760828681125,29,18,-1,1
-0.5353138238898687,30,18,-1,1
0.35015153675054034,31,18,-1,1
0.29185352956798905,32,18,-1,1
-0.2370540693807084,33,18,-1,1
-0.07882117086903652,34,18,-1,1
0.6385655518930853,35,18,-1,1
0.20418185369272338,36,18,-1,1
-1.7526338957844056,37,18,-1,1
-0.033960420971637324,38,18,-1,1
0.3766895747185735,39,18,-1,1
-0.1934671256666374,40,18,-1,1
0.8346386824994653,41,18,-1,1
-0.0833569934386374,42,18,-1,1
0.6709422671840601,43,18,-1,1
-0.2985124936276467,44,18,-1,1
-0.8558303452244818,45,18,-1,1
1.01229125729815,46,18,-1,1
0.32944075254207383,47,18,-1,1
0.10298083128700317,48,18,-1,1
0.20180564345287566,49,18,-1,1
-0.6510023945491309,50,18,-1,1
-1.7766352641869438,51,18,-1,1
-1.7814388510263024,52,18,-1,1
-0.30093255703477484,53,18,-1,1
0.1147681217982679,54,18,-1,1
-0.06744195131913101,55,18,-1,1
-0.011103059189996458,56,18,-1,1
0.0290940757069867,57,18,-1,1
-0.06514904519896678,58,18,-1,1
-0.24957774132926697,59,18,-1,1
0.1475844211319623,60,18,-1,1
0.06252896853244996,61,18,-1,1
0.2276565716867812,62,18,-1,1
0.10591830758120828,63,18,-1,1
0.07562781708380437,0,19,-1,1
0.2646455187708832,1,19,-1,1
-0.029908864382427652,2,19,-1,1
0.035553135859015005,3,19,-1,1
1.0329266887658035,4,19,-1,1
0.36359774212314966,5,19,-1,1
-0.005745896202812091,6,19,-1,1
0.05065681107887596,7,19,-1,1
0.1327918439218843,8,19,-1,1
-0.7635194133930726,9,19,-1,1
-0.6030059426052236,10,19,-1,1
-1.4609138689782326,11,19,-1,1
-1.9222030291765368,12,19,-1,1
0.8520190376264991,13,19,-1,1
1.742541429047698,14,19,-1,1
0.44466441362864595,15,19,-1,1
0.024762977222306765,16,19,-1,1
-0.09081465796080024,17,19,-1,1
1.0609938055808288,18,19,-1,1
1.1633749968276297,19,19,-1,1
-2.0706439979298885,20,19,-1,1
-0.16373023306615955,21,19,-1,1
0.504469450138283,22,19,-1,1
1.4858702488869155,23,19,-1,1
0.05450771128917019,24,19,-1,1
1.1633826753029297,25,19,-1,1
1.9189167578822457,26,19,-1,1
1.525115908791032,27,19,-1,1
-1.1640548946141596,28,19,-1,1
-0.47936596998818093,29,19,-1,1
-3.186097256380849,30,19,-1,1
-0.06414192071663241,31,19,-1,1
0.3213227418982324,32,19,-1,1
-1.1162856302300366,33,19,-1,1
-1.5764935048782358,34,19,-1,1
-2.673642846254202,35,19,-1,1
-1.8145890062293568,36,19,-1,1
0.3642838999224842,37,19,-1,1
-0.5435416953488098,38,19,-1,1
-0.37021756489501034,39,19,-1,1
0.13428942552612108,40,19,-1,1
-0.5627944021030602,41,19,-1,1
-1.4797360514634692,42,19,-1,1
-0.5606519208359958,43,19,-1,1
-0.444912841667369,44,19,-1,1
-0.5643611064213571,45,19,-1,1
0.046646167758024784,46,19,-1,1
0.1520405641919306,47,19,-1,1
-0.04271842147762919,48,19,-1,1
-0.45969808997256967,49,19,-1,1
0.12746781388125855,50,19,-1,1
0.9145360637706847,51,19,-1,1
0.7910040885915673,52,19,-1,1
0.565376947885811,53,19,-1,1
-0.05724586225584545,54,19,-1,1
0.42515784776562277,55,19,-1,1
-0.09773769484081583,56,19,-1,1
0.2972453707632116,57,19,-1,1
0.2450253151896866,58,19,-1,1
0.4662313252342283,59,19,-1,1
0.3789989639267918,60,19,-1,1
-0.37415560274392595,61,19,-1,1
0.05833516410330848,62,19,-1,1
-0.07693746822183554,63,19,-1,1
0.23076575339368274,0,20,-1,1
-0.09463597167590741,1,20,-1,1
-0.11728295964574577,2,20,-1,1
0.16718313291242698,3,20,-1,1
0.2286527496382872,4,20,-1,1
0.13066372379320484,5,20,-1,1
-0.2172264253192524,6,20,-1,1
0.14536014393343222,7,20,-1,1
-0.005626166266013421,8,20,-1,1
0.056813067580720765,9,20,-1,1
0.5591350605902009,10,20,-1,1
0.0044836648861287425,11,20,-1,1
-0.915132311844321,12,20,-1,1
-0.8687660020584065,13,20,-1,1
-0.10484167968575747,14,20,-1,1
0.1080161447517128,15,20,-1,1
0.22869369240361884,16,20,-1,1
0.21993993960851313,17,20,-1,1
0.37277457830826716,18,20,-1,1
-0.29557267917096425,19,20,-1,1
-0.25428790019423814,20,20,-1,1
0.22136362019278272,21,20,-1,1
0.3573612335990098,22,20,-1,1
-0.3855168794108134,23,20,-1,1
0.1443065855270306,24,20,-1,1
0.11308896806947369,25,20,-1,1
-0.5615097642318776,26,20,-1,1
-0.5457562786519614,27,20,-1,1
0.25256832299849696,28,20,-1,1
0.09700357251108797,29,20,-1,1
0.6140034075401185,30,20,-1,1
0.17416818279405993,31,20,-1,1
-0.17955124734646283,32,20,-1,1
0.2854115512042356,33,20,-1,1
-0.26539107300027076,34,20,-1,1
-0.4369924387049634,35,20,-1,1
-0.16398694962602617,36,20,-1,1
-0.2532171653553733,37,20,-1,1
0.08970730072557037,38,20,-1,1
0.44723146019849713,39,20,-1,1
0.1113284168258481,40,20,-1,1
-0.02734078408343117,41,20,-1,1
-0.4523744426448038,42,20,-1,1
-0.9539064288720319,43,20,-1,1
-1.0581311111922589,44,20,-1,1
-0.6494731955385512,45,20,-1,1
0.49149402429621175,46,20,-1,1
0.20530685897685236,47,20,-1,1
-0.07281082956123719,48,20,-1,1
0.16726886837516744,49,20,-1,1
-0.08501064745548596,50,20,-1,1
-1.0517996974169042,51,20,-1,1
-0.722218576474666,52,20,-1,1
-0.09691896747543756,53,20,-1,1
0.16698991251553544,54,20,-1,1
-0.16738901342026322,55,20,-1,1
-0.3420685291052279,56,20,-1,1
0.11163641415810441,57,20,-1,1
0.36534931698082057,58,20,-1,1
0.6678319924654513,59,20,-1,1
0.7128504357603866,60,20,-1,1
0.4678650227813522,61,20,-1,1
-0.07365854372219596,62,20,-1,1
0.03988047697379944,63,20,-1,1
-0.15771449620319872,0,21,-1,1
-0.0864050846023237,1,21,-1,1
-0.10689332922326417,2,21,-1,1
-0.1299753357137054,3,21,-1,1
-0.3386128958949742,4,21,-1,1
-0.43114616837342984,5,21,-1,1
-0.2485189741514857,6,21,-1,1
0.05117868649779107,7,21,-1,1
-0.08525135450593681,8,21,-1,1
0.08680512005078626,9,21,-1,1
0.33726306553903257,10,21,-1,1
1.816126468966043,11,21,-1,1
3.116104192451326,12,21,-1,1
2.1378569184229606,13,21,-1,1
0.4525119354528341,14,21,-1,1
-0.1530022775351595,15,21,-1,1
-0.43126142232765013,16,21,-1,1
-0.27929524318566634,17,21,-1,1
-1.031086210180088,18,21,-1,1
0.06314229191373401,19,21,-1,1
-1.2875619660731517,20,21,-1,1
-1.7754136120851207,21,21,-1,1
-1.5569582564547093,22,21,-1,1
-0.8141556738958142,23,21,-1,1
-0.718239843771994,24,21,-1,1
-0.6576206246206197,25,21,-1,1
-0.14686013752717605,26,21,-1,1
0.9159917262158089,27,21,-1,1
-0.8179746185526481,28,21,-1,1
0.15579094471503024,29,21,-1,1
0.671528676620675,30,21,-1,1
-0.11104236425205077,31,21,-1,1
-0.43827654834499075,32,21,-1,1
0.291753012281595,33,21,-1,1
1.2185704759900082,34,21,-1,1
2.6530141418888764,35,21,-1,1
0.8606199820013735,36,21,-1,1
0.0039002966137150112,37,21,-1,1
0.7247177078085746,38,21,-1,1
0.06352449284552521,39,21,-1,1
0.14220587527335934,40,21,-1,1
-0.34818283574889125,41,21,-1,1
0.799386266682445,42,21,-1,1
-0.7005233522437103,43,21,-1,1
0.19432162189851626,44,21,-1,1
1.7161999453307017,45,21,-1,1
0.6311519870120923,46,21,-1,1
-0.2825072117064332,47,21,-1,1
-0.18552243592573947,48,21,-1,1
0.2726555803645131,49,21,-1,1
0.3219043366939736,50,21,-1,1
1.0625592211592472,51,21,-1,1
1.609738176466207,52,21,-1,1
1.0227162552895641,53,21,-1,1
-0.05003698946465465,54,21,-1,1
-0.11977050111290426,55,21,-1,1
0.032761202508272,56,21,-1,1
0.07332990261381236,57,21,-1,1
-0.26189747639183697,58,21,-1,1
-0.26945120233436415,59,21,-1,1
-0.8993338383003721,60,21,-1,1
-0.21707445739402745,61,21,-1,1
0.09161000089987195,62,21,-1,1
-0.2437755562786907,63,21,-1,1
0.13808561311199133,0,22,-1,1
-0.18594335590791786,1,22,-1,1
-0.2679000409864392,2,22,-1,1
0.09147438810375456,3,22,-1,1
-0.045740260066215024,4,22,-1,1
0.1759404933540993,5,22,-1,1
-0.17613622944421858,6,22,-1,1
0.06287103453379214,7,22,-1,1
-0.27127737396302454,8,22,-1,1
-0.18709383265385626,9,22,-1,1
0.6562547854288036,10,22,-1,1
-0.46446223372057416,11,22,-1,1
-0.34916340777472227,12,22,-1,1
-0.5964872078813312,13,22,-1,1
-0.3925154353352569,14,22,-1,1
-0.15074056541964614,15,22,-1,1
-0.09015295329004831,16,22,-1,1
-0.22671233980518887,17,22,-1,1
-0.2306359283479878,18,22,-1,1
-1.3123495852673654,19,22,-1,1
-1.1888295685685233,20,22,-1,1
-0.6766617402691191,21,22,-1,1
-0.7706494555206624,22,22,-1,1
-0.1734977789823073,23,22,-1,1
-0.062458664566259384,24,22,-1,1
-0.46190239698972235,25,22,-1,1
-0.36088505465761156,26,22,-1,1
0.013392389791408929,27,22,-1,1
-1.881968791045713,28,22,-1,1
0.6716569297691114,29,22,-1,1
-0.9237482454868242,30,22,-1,1
-0.23628136274905728,31,22,-1,1
-0.11543080686092903,32,22,-1,1
-0.7710256809744426,33,22,-1,1
0.15719236377657286,34,22,-1,1
-0.31400239537903846,35,22,-1,1
-0.6859957224365566,36,22,-1,1
1.2685906862969822,37,22,-1,1
-0.9423182230822192,38,22,-1,1
-0.32622283550291375,39,22,-1,1
0.2715660311991794,40,22,-1,1
-0.9452498369767636,41,22,-1,1
-0.8392211075377067,42,22,-1,1
-1.8264698844634757,43,22,-1,1
-1.319089257911808,44,22,-1,1
-0.2518270046864236,45,22,-1,1
-0.5357595780640054,46,22,-1,1
-0.27902680749726455,47,22,-1,1
0.041181765293074,48,22,-1,1
-0.34725429283450276,49,22,-1,1
-1.321055827372949,50,22,-1,1
-0.4894367758073958,51,22,-1,1
-1.2562996273468345,52,22,-1,1
-0.7456405704195523,53,22,-1,1
0.15287282147294848,54,22,-1,1
-0.2051404778783674,55,22,-1,1
-0.06675694304757426,56,22,-1,1
-0.1800563930854782,57,22,-1,1
0.7489169773228139,58,22,-1,1
0.40061982013219744,59,22,-1,1
0.38220705182171333,60,22,-1,1
-0.09427419513498088,61,22,-1,1
0.10550316796481089,62,22,-1,1
-0.16375479279558708,63,22,-1,1
-0.014988061687247043,0,23,-1,1
0.020035097438320774,1,23,-1,1
-0.11279500862356694,2,23,-1,1
0.08841526875967914,3,23,-1,1
-0.10178603146094452,4,23,-1,1
0.014835326976225032,5,23,-1,1
0.01532844447480453,6,23,-1,1
0.10928038270855718,7,23,-1,1
0.08746538709874867,8,23,-1,1
-0.07229774804556273,9,23,-1,1
0.12474632923093328,10,23,-1,1
-0.31566185767374993,11,23,-1,1
0.2095673691403614,12,23,-1,1
0.2503138128049166,13,23,-1,1
0.18504036629124118,14,23,-1,1
-0.007775406673539001,15,23,-1,1
0.041607012754043236,16,23,-1,1
-0.13589015431980386,17,23,-1,1
0.2819403271719584,18,23,-1,1
0.6650121677376535,19,23,-1,1
1.1674662330421723,20,23,-1,1
1.0567220548336103,21,23,-1,1
0.13941560462098487,22,23,-1,1
-0.13156217801728518,23,23,-1,1
0.1908878407220458,24,23,-1,1
0.20238723482635057,25,23,-1,1
0.5160104891281786,26,23,-1,1
0.20292102172286883,27,23,-1,1
1.15830411550743,28,23,-1,1
0.7318093202920958,29,23,-1,1
0.16605671146647574,30,23,-1,1
-0.12790920731310754,31,23,-1,1
0.11007546315844256,32,23,-1,1
0.11713819663327632,33,23,-1,1
0.29484144361920206,34,23,-1,1
0.5158021812777247,35,23,-1,1
1.0022584297639046,36,23,-1,1
0.3143042508693293,37,23,-1,1
0.17439458239420194,38,23,-1,1
-0.01630634826258732,39,23,-1,1
-0.18499094275944,40,23,-1,1
0.07228236765232482,41,23,-1,1
0.03576335089247081,42,23,-1,1
0.5852915477186014,43,23,-1,1
0.7430664742844779,44,23,-1,1
0.2845862665076748,45,23,-1,1
0.16211438020721394,46,23,-1,1
0.05758695088491497,47,23,-1,1
-0.1533914595805705,48,23,-1,1
0.1138852270417849,49,23,-1,1
0.27387126697013564,50,23,-1,1
0.5484936278298593,51,23,-1,1
0.3027924210387725,52,23,-1,1
0.4119390622340291,53,23,-1,1
0.2409307683685296,54,23,-1,1
0.12700916230101308,55,23,-1,1
0.07350931157882654,56,23,-1,1
0.25261840944715186,57,23,-1,1
0.16151985340527983,58,23,-1,1
0.3235040616235629,59,23,-1,1
0.2535728547873121,60,23,-1,1
0.2769043507030829,61,23,-1,1
0.3319858510369786,62,23,-1,1
0.15399667342243797,63,23,-1,1
0.1177443106234272,0,24,-1,1
-0.15621698414463345,1,24,-1,1
-0.3460226569728556,2,24,-1,1
-0.36398965769811603,3,24,-1,1
-0.061165442510443674,4,24,-1,1
-0.296814080315153,5,24,-1,1
-0.043329293082273214,6,24,-1,1
-0.3540872581402292,7,24,-1,1
-0.077122016202478,8,24,-1,1
0.48064660786191477,9,24,-1,1
1.852580586944098,10,24,-1,1
1.759406581282645,11,24,-1,1
0.5639595383188437,12,24,-1,1
1.1905923733035408,13,24,-1,1
1.6573392600418908,14,24,-1,1
0.6016658945502901,15,24,-1,1
-0.2667602308446267,16,24,-1,1
0.12054105170599186,17,24,-1,1
-0.22562511849717284,18,24,-1,1
0.16319120594201422,19,24,-1,1
0.4965109763026431,20,24,-1,1
-1.4456091975385281,21,24,-1,1
-0.2010173132609506,22,24,-1,1
0.6872484489359859,23,24,-1,1
0.04096814323929518,24,24,-1,1
-0.35588070575231334,25,24,-1,1
-0.7397004177122196,26,24,-1,1
-0.3314925486821711,27,24,-1,1
-1.0155129962916898,28,24,-1,1
-1.9640472250739631,29,24,-1,1
-4.88606781551419,30,24,-1,1
-0.6917266951547044,31,24,-1,1
0.6206146585632165,32,24,-1,1
-2.3467090465702607,33,24,-1,1
-2.833484115181226,34,24,-1,1
0.18768410761188423,35,24,-1,1
-1.1401588921257466,36,24,-1,1
1.0630200190624606,37,24,-1,1
0.22695650713579538,38,24,-1,1
-0.35463757887942704,39,24,-1,1
0.8271902210079408,40,24,-1,1
-0.49145515108161925,41,24,-1,1
-4.10271473526553,42,24,-1,1
-4.623854403171161,43,24,-1,1
0.1647855155423307,44,24,-1,1
1.0433138574367564,45,24,-1,1
1.6887315882424252,46,24,-1,1
0.23590073214990298,47,24,-1,1
0.3205934874235223,48,24,-1,1
0.8150334632643866,49,24,-1,1
2.5891596288439414,50,24,-1,1
2.7413984880343025,51,24,-1,1
1.0098572147278249,52,24,-1,1
0.7896547269190636,53,24,-1,1
-0.11155304867619949,54,24,-1,1
-0.2693234720457875,55,24,-1,1
0.09023411321385232,56,24,-1,1
0.13795074602040658,57,24,-1,1
-0.04878831426862647,58,24,-1,1
-0.6084806029901234,59,24,-1,1
-0.06650306084676912,60,24,-1,1
-0.8598680193248357,61,24,-1,1
-0.30461446702365325,62,24,-1,1
-0.005352564487236847,63,24,-1,1
0.05787830745313224,0,25,-1,1
-0.1072052964854579,1,25,-1,1
-0.028280682842679972,2,25,-1,1
0.26145752401558325,3,25,-1,1
0.4191198452396735,4,25,-1,1
0.6753532722775222,5,25,-1,1
0.45319809311342385,6,25,-1,1
-0.12104594679432455,7,25,-1,1
-0.016841760339266338,8,25,-1,1
0.0600074140947598,9,25,-1,1
-0.6153588346566675,10,25,-1,1
-1.6355399896824332,11,25,-1,1
-0.9643768701859896,12,25,-1,1
0.33485921337505553,13,25,-1,1
0.7654842789121581,14,25,-1,1
0.23596962935064042,15,25,-1,1
-0.08754803723143748,16,25,-1,1
0.6488923607680573,17,25,-1,1
-0.01807523063398448,18,25,-1,1
-0.24123398872643853,19,25,-1,1
-2.1195292795143854,20,25,-1,1
-2.3067803146215593,21,25,-1,1
0.16855780633876782,22,25,-1,1
0.01816369105128531,23,25,-1,1
-0.2990156707442833,24,25,-1,1
1.1387393990738046,25,25,-1,1
2.1623391571220707,26,25,-1,1
2.9330956780652406,27,25,-1,1
3.1299116480004603,28,25,-1,1
-0.2511129880419176,29,25,-1,1
0.15005671125506267,30,25,-1,1
-0.3762228119896326,31,25,-1,1
-0.15778719846968473,32,25,-1,1
-0.503247370275096,33,25,-1,1
-1.1581789232534083,34,25,-1,1
1.2857770679546128,35,25,-1,1
1.693254208049037,36,25,-1,1
-0.35133794142647307,37,25,-1,1
1.2865230032417976,38,25,-1,1
-0.49881510988351513,39,25,-1,1
0.07811287569146469,40,25,-1,1
-1.435972636686399,41,25,-1,1
-1.4751367878836714,42,25,-1,1
-0.44903150537250724,43,25,-1,1
-0.035799040724266123,44,25,-1,1
0.14165971662548255,45,25,-1,1
-0.7661094080596524,46,25,-1,1
-0.936899628302995,47,25,-1,1
0.001247499753844094,48,25,-1,1
0.23170678284643556,49,25,-1,1
0.3135085049558316,50,25,-1,1
0.12658098029387643,51,25,-1,1
1.5307358563450402,52,25,-1,1
0.04903049277005538,53,25,-1,1
-1.356766794122227,54,25,-1,1
-0.2638881938852783,55,25,-1,1
0.10616531206125064,56,25,-1,1
-0.009554098014961385,57,25,-1,1
0.7482270480208114,58,25,-1,1
0.6328226555045823,59,25,-1,1
-0.429040950221077,60,25,-1,1
0.2574121748988046,61,25,-1,1
-0.14172540426517277,62,25,-1,1
0.062315183894233024,63,25,-1,1
-0.24786165473300173,0,26,-1,1
-0.30880752050886134,1,26,-1,1
-0.11391652127295776,2,26,-1,1
0.15355926857323918,3,26,-1,1
-0.07068171619728184,4,26,-1,1
0.251051099507421,5,26,-1,1
-0.21308025862909177,6,26,-1,1
0.15978696730207953,7,26,-1,1
-0.29486997021996686,8,26,-1,1
0.05400739328151441,9,26,-1,1
0.9130606334064709,10,26,-1,1
1.3548892353305602,11,26,-1,1
1.1879263426854008,12,26,-1,1
1.041304241642556,13,26,-1,1
0.12905093088400554,14,26,-1,1
-0.16531696836384951,15,26,-1,1
-0.35402930687207035,16,26,-1,1
0.6841342082815698,17,26,-1,1
1.7024900559960627,18,26,-1,1
1.1020895148218615,19,26,-1,1
-1.07292787454235,20,26,-1,1
-0.7442549194217762,21,26,-1,1
-1.3093909433548263,22,26,-1,1
-0.9536682343385146,23,26,-1,1
-0.1545342858161077,24,26,-1,1
0.45940780465212633,25,26,-1,1
0.10654712815415107,26,26,-1,1
-1.4829377873716316,27,26,-1,1
0.3186517699380615,28,26,-1,1
1.89338372984319,29,26,-1,1
0.9566975983115111,30,26,-1,1
-0.3176759188038687,31,26,-1,1
-0.24732038813278204,32,26,-1,1
1.1183125985957558,33,26,-1,1
0.7536064300252803,34,26,-1,1
-0.08628201472486599,35,26,-1,1
-0.11673244326857365,36,26,-1,1
1.032773875279367,37,26,-1,1
2.0036789780190887,38,26,-1,1
0.21986499647237953,39,26,-1,1
-0.03512196082700432,40,26,-1,1
-0.6512745501081894,41,26,-1,1
0.6743755093792535,42,26,-1,1
0.27438346502298566,43,26,-1,1
0.48813307939575806,44,26,-1,1
1.4310983446556205,45,26,-1,1
1.355656069091593,46,26,-1,1
-0.1264722547644282,47,26,-1,1
-0.16854389768252215,48,26,-1,1
0.3985185691034127,49,26,-1,1
0.2016199757382047,50,26,-1,1
0.6977001113790057,51,26,-1,1
1.9924928880605717,52,26,-1,1
0.9567748206465134,53,26,-1,1
0.013008379930750859,54,26,-1,1
-0.20746628044042353,55,26,-1,1
0.1934029224986994,56,26,-1,1
-0.3884912464514685,57,26,-1,1
-0.005357801534358473,58,26,-1,1
0.14401469878090162,59,26,-1,1
-0.45585677245642137,60,26,-1,1
-0.3419591071736907,61,26,-1,1
-0.11052241180554329,62,26,-1,1
-0.1338133754723039,63,26,-1,1
0.038833148794443745,0,27,-1,1
0.22305791488984855,1,27,-1,1
0.006437618548794163,2,27,-1,1
0.135520651367299,3,27,-1,1
0.055207702538463785,4,27,-1,1
0.8885785708927174,5,27,-1,1
0.23049379030385364,6,27,-1,1
-0.022640522540820423,7,27,-1,1
-0.1886506248003894,8,27,-1,1
-0.20276218936965662,9,27,-1,1
-0.08109939230436349,10,27,-1,1
-1.2189772612308574,11,27,-1,1
-0.922675771652501,12,27,-1,1
0.5907609716255598,13,27,-1,1
0.46006220702352296,14,27,-1,1
0.09483750311155947,15,27,-1,1
-0.09316850666367352,16,27,-1,1
-0.4790802808360355,17,27,-1,1
0.24376134520319595,18,27,-1,1
-0.4384833506771125,19,27,-1,1
-1.9777101517498814,20,27,-1,1
-1.7407273734912345,21,27,-1,1
-0.9395964352300142,22,27,-1,1
-0.7306006042992418,23,27,-1,1
-0.21355217461301043,24,27,-1,1
1.3691077408296337,25,27,-1,1
1.5820511855058637,26,27,-1,1
0.4000939030878673,27,27,-1,1
-0.2976416294509288,28,27,-1,1
-0.16131697236048248,29,27,-1,1
1.8426177006099804,30,27,-1,1
-0.2720442483531903,31,27,-1,1
-0.2909228731164633,32,27,-1,1
0.006361878686681103,33,27,-1,1
0.21264567783568117,34,27,-1,1
1.362005431503634,35,27,-1,1
0.7993498989939481,36,27,-1,1
0.29673356829368364,37,27,-1,1
0.48882447075837826,38,27,-1,1
-0.44787945748480334,39,27,-1,1
-0.026624170830166535,40,27,-1,1
-3.3455152413385685,41,27,-1,1
-0.25347924837188296,42,27,-1,1
2.1382576576990404,43,27,-1,1
-0.5299738000000863,44,27,-1,1
-0.4088270248741654,45,27,-1,1
-1.742227855787108,46,27,-1,1
-0.770714732969254,47,27,-1,1
0.041329957006813314,48,27,-1,1
-0.45000505094620624,49,27,-1,1
-0.6882142475025855,50,27,-1,1
-0.33735708198729847,51,27,-1,1
0.03933860536588413,52,27,-1,1
-0.8171362422947965,53,27,-1,1
-0.3902982085071925,54,27,-1,1
0.009141929370955745,55,27,-1,1
-0.16126875120748282,56,27,-1,1
0.1846190043296093,57,27,-1,1
1.135909792762778,58,27,-1,1
0.8016205181314342,59,27,-1,1
-0.19086362374025687,60,27,-1,1
0.5191716642537229,61,27,-1,1
0.19365799833722508,62,27,-1,1
-0.04356462273346025,63,27,-1,1
-0.09759767098968204,0,28,-1,1
0.12200557996027873,1,28,-1,1
-0.2374735083428082,2,28,-1,1
-0.1635104861255412,3,28,-1,1
1.0051692871071982,4,28,-1,1
1.0129091276971067,5,28,-1,1
0.09551698739857988,6,28,-1,1
-0.19020384560810472,7,28,-1,1
-0.0918703656178339,8,28,-1,1
-0.21911450927877818,9,28,-1,1
0.03199191959337803,10,28,-1,1
-1.2186811523822005,11,28,-1,1
-1.4691275145404887,12,28,-1,1
-0.3970008646944604,13,28,-1,1
1.0412362054709237,14,28,-1,1
0.48190429655420536,15,28,-1,1
0.36680460317798946,16,28,-1,1
-0.46585726550091855,17,28,-1,1
-1.7578505982915775,18,28,-1,1
-4.734859069318562,19,28,-1,1
-4.889258746074228,20,28,-1,1
-2.6226463642257647,21,28,-1,1
-0.7212099496273057,22,28,-1,1
0.8520690896952898,23,28,-1,1
0.1716449972674347,24,28,-1,1
-0.4129342037394847,25,28,-1,1
0.16432090445456793,26,28,-1,1
2.31366038666954,27,28,-1,1
1.4672633783843578,28,28,-1,1
-1.8316638043891074,29,28,-1,1
-1.2697319223873487,30,28,-1,1
0.2382144514335573,31,28,-1,1
-0.13946536279497088,32,28,-1,1
1.3056087031262236,33,28,-1,1
2.414872536791293,34,28,-1,1
2.1289377905796325,35,28,-1,1
2.2792106681818924,36,28,-1,1
1.5704018263521446,37,28,-1,1
2.411606290204338,38,28,-1,1
-0.31053782801710283,39,28,-1,1
-0.07978696195854243,40,28,-1,1
-0.20317556236968343,41,28,-1,1
0.13168065329551615,42,28,-1,1
2.5501655263496907,43,28,-1,1
2.2286506407512467,44,28,-1,1
0.1783577194857961,45,28,-1,1
-1.0320484192538733,46,28,-1,1
-0.21656866568821156,47,28,-1,1
0.17410733863331052,48,28,-1,1
-0.8293593353319049,49,28,-1,1
-1.7382173486696828,50,28,-1,1
-2.4768701404918896,51,28,-1,1
-0.970509982084725,52,28,-1,1
-0.7287385304931472,53,28,-1,1
-0.6169603441561367,54,28,-1,1
0.1996320245984742,55,28,-1,1
-0.12504124373556175,56,28,-1,1
-0.002115206635500968,57,28,-1,1
-0.7603817251804177,58,28,-1,1
-2.45334795921323,59,28,-1,1
-2.587845010235897,60,28,-1,1
-1.6383034968813575,61,28,-1,1
0.0959975621331918,62,28,-1,1
-0.0060819084027940885,63,28,-1,1
0.0015077254733125408,0,29,-1,1
0.1530315804246383,1,29,-1,1
0.2499704289989449,2,29,-1,1
0.09963668080086231,3,29,-1,1
0.356557184495051,4,29,-1,1
-0.3378246630840845,5,29,-1,1
0.09599503793326972,6,29,-1,1
0.1559530403262082,7,29,-1,1
0.235221338798442,8,29,-1,1
0.1942342442146166,9,29,-1,1
-1.4007575878452612,10,29,-1,1
0.5233557135412152,11,29,-1,1
-0.504144720455935,12,29,-1,1
-0.3845102161796777,13,29,-1,1
1.1698150673061347,14,29,-1,1
0.005974394257612284,15,29,-1,1
0.007130087949316497,16,29,-1,1
-0.23109520431238598,17,29,-1,1
-1.8773431753783065,18,29,-1,1
-1.281151111959328,19,29,-1,1
-0.02130162663588306,20,29,-1,1
-1.9929804133317672,21,29,-1,1
-0.5418021464435169,22,29,-1,1
-0.18118008544130365,23,29,-1,1
0.03909224553676498,24,29,-1,1
0.2043754700589589,25,29,-1,1
-2.3757583847427277,26,29,-1,1
-2.6309800126772305,27,29,-1,1
3.953815991795646,28,29,-1,1
-3.7043791990394674,29,29,-1,1
0.24715276533031083,30,29,-1,1
-0.14659462660231892,31,29,-1,1
-0.04158745957194254,32,29,-1,1
0.38133088078593563,33,29,-1,1
-3.5510969115267774,34,29,-1,1
0.7718435629088719,35,29,-1,1
0.5844885553135518,36,29,-1,1
-4.571293991341841,37,29,-1,1
0.5991958291987212,38,29,-1,1
-0.2878662116670334,39,29,-1,1
0.2753976115471333,40,29,-1,1
-0.3922098769308275,41,29,-1,1
-1.4140782394852616,42,29,-1,1
2.0363717909777472,43,29,-1,1
-1.0609493502934544,44,29,-1,1
-2.897342040471342,45,29,-1,1
-0.4652682647774148,46,29,-1,1
-0.14803047541699535,47,29,-1,1
-0.08769602121180534,48,29,-1,1
0.8697328595296098,49,29,-1,1
0.02844037690140245,50,29,-1,1
-2.698284453208994,51,29,-1,1
0.899098437165125,52,29,-1,1
0.2074337377183303,53,29,-1,1
-0.7132763215603607,54,29,-1,1
-0.08784156972330262,55,29,-1,1
0.057614994727039466,56,29,-1,1
0.05280034710271175,57,29,-1,1
-0.37953723706168363,58,29,-1,1
-1.6582659801278665,59,29,-1,1
-1.0345277087343436,60,29,-1,1
0.12392433324873271,61,29,-1,1
0.15618505876791358,62,29,-1,1
0.07474261928878571,63,29,-1,1
0.07818669063632906,0,30,-1,1
0.16755297105842998,1,30,-1,1
-0.09772371521737595,2,30,-1,1
-0.28675973317076864,3,30,-1,1
0.0144529531881996,4,30,-1,1
0.13079325747169754,5,30,-1,1
0.09798469258391602,6,30,-1,1
-0.31393020846505204,7,30,-1,1
0.17965364210347806,8,30,-1,1
-0.5851217309024642,9,30,-1,1
-0.17831491895266682,10,30,-1,1
-0.16319525114774924,11,30,-1,1
-0.37515147328084086,12,30,-1,1
-0.5248233874198627,13,30,-1,1
-0.1771921546765975,14,30,-1,1
0.5478438627043938,15,30,-1,1
-0.08236823696367232,16,30,-1,1
-0.2666751431405217,17,30,-1,1
1.135099387044718,18,30,-1,1
-1.9370722637299769,19,30,-1,1
-2.853525905206931,20,30,-1,1
-0.8188892765306484,21,30,-1,1
0.6343048569593298,22,30,-1,1
1.0799083322033918,23,30,-1,1
-0.19511113778445716,24,30,-1,1
0.4109837394055155,25,30,-1,1
1.3178848840736097,26,30,-1,1
1.2634353277693449,27,30,-1,1
-1.2548739789276167,28,30,-1,1
-0.09289525210955728,29,30,-1,1
-0.4707811612550131,30,30,-1,1
0.3032059823909902,31,30,-1,1
0.3836360222898357,32,30,-1,1
-0.46222146354267457,33,30,-1,1
-0.5337100885322569,34,30,-1,1
-0.1968008402950065,35,30,-1,1
-2.3539609505955204,36,30,-1,1
-0.6639140769615315,37,30,-1,1
-0.17379138162231147,38,30,-1,1
-0.017328359884807815,39,30,-1,1
-0.08658252039345402,40,30,-1,1
-0.3938706880307467,41,30,-1,1
0.5329730559588887,42,30,-1,1
-0.4080991989133466,43,30,-1,1
-1.6937329600885134,44,30,-1,1
-0.3114290970504277,45,30,-1,1
0.2985270083560906,46,30,-1,1
-0.11053242620087866,47,30,-1,1
-0.2798031956729508,48,30,-1,1
-0.3521242513613022,49,30,-1,1
-0.6527127056287625,50,30,-1,1
0.26888324717459705,51,30,-1,1
-0.17998635993508355,52,30,-1,1
0.4329634887518865,53,30,-1,1
0.3629884861646057,54,30,-1,1
0.04549859721028474,55,30,-1,1
-0.06357981133509912,56,30,-1,1
0.038362752668548376,57,30,-1,1
-0.5632906179575414,58,30,-1,1
-0.7332131621879882,59,30,-1,1
0.15020610818180163,60,30,-1,1
-0.22434423012988922,61,30,-1,1
-0.08180084601076415,62,30,-1,1
0.1440628831972573,63,30,-1,1
0.06477704400805935,0,31,-1,1
0.07607294312109668,1,31,-1,1
0.23425774046215647,2,31,-1,1
-0.03967043372977619,3,31,-1,1
-0.8632756708185965,4,31,-1,1
-0.43535308623540475,5,31,-1,1
0.05034852407286574,6,31,-1,1
-0.11304264673661754,7,31,-1,1
0.11077938261693501,8,31,-1,1
-0.7238307050631497,9,31,-1,1
-0.969332917772913,10,31,-1,1
-0.6888584062785853,11,31,-1,1
0.9184660828258803,12,31,-1,1
0.8670798874211713,13,31,-1,1
0.3605118592599182,14,31,-1,1
0.11733036839173713,15,31,-1,1
-0.39891400739821986,16,31,-1,1
-1.8458073088262539,17,31,-1,1
0.7521515277609729,18,31,-1,1
0.7852356659508382,19,31,-1,1
-2.127727197238126,20,31,-1,1
-1.7451918341747774,21,31,-1,1
-0.4002218640566927,22,31,-1,1
0.6216035369857088,23,31,-1,1
-0.3717724986578949,24,31,-1,1
-0.2473259164141486,25,31,-1,1
2.223820101053589,26,31,-1,1
0.733025208985201,27,31,-1,1
-4.009490097552944,28,31,-1,1
-0.4966600599667476,29,31,-1,1
0.22453102298558367,30,31,-1,1
0.15719340742947738,31,31,-1,1
-0.390926887471322,32,31,-1,1
-0.28570079658981995,33,31,-1,1
2.807366900721763,34,31,-1,1
2.214500683870696,35,31,-1,1
-0.2238079591189282,36,31,-1,1
0.6195918082881441,37,31,-1,1
-0.65739245386993,38,31,-1,1
0.42015797425454493,39,31,-1,1
-0.5498111517829898,40,31,-1,1
-0.02633100042755323,41,31,-1,1
3.2320687524434146,42,31,-1,1
0.6012739426262822,43,31,-1,1
0.47763027242128103,44,31,-1,1
0.5053002908803134,45,31,-1,1
0.5255372697572334,46,31,-1,1
0.6091134809478083,47,31,-1,1
0.03153589394673318,48,31,-1,1
-1.051849810577409,49,31,-1,1
-0.08413642165923656,50,31,-1,1
0.4664865298373984,51,31,-1,1
-0.7341068553500097,52,31,-1,1
-0.442958173684499,53,31,-1,1
1.1080187603830396,54,31,-1,1
-0.18515933489338438,55,31,-1,1
0.07444736788196192,56,31,-1,1
-0.6432953762373547,57,31,-1,1
-1.2676310984715524,58,31,-1,1
-0.7111829389399646,59,31,-1,1
-0.40975691559434285,60,31,-1,1
-0.25726134092151065,61,31,-1,1
-0.10002632622758922,62,31,-1,1
0.07033240479573624,63,31,-1,1
0.0020728805581803227,0,32,-1,1
-0.3154349489252639,1,32,-1,1
-0.12682229152158075,2,32,-1,1
0.8791799626534338,3,32,-1,1
1.2082188495971196,4,32,-1,1
0.8472556687240727,5,32,-1,1
0.36431050664304937,6,32,-1,1
-0.2140148829125606,7,32,-1,1
-0.3433633972564173,8,32,-1,1
0.4691986803950171,9,32,-1,1
1.3435444228231441,10,32,-1,1
1.5687793691670449,11,32,-1,1
1.512929569490021,12,32,-1,1
0.4859636726974863,13,32,-1,1
-1.2178410168545055,14,32,-1,1
-0.46018939630411837,15,32,-1,1
-0.06803365266783366,16,32,-1,1
0.7170488542542074,17,32,-1,1
-1.2809924135260962,18,32,-1,1
-2.0151843868489974,19,32,-1,1
0.8162628241514996,20,32,-1,1
-1.0356277016058126,21,32,-1,1
-1.4693921130705707,22,32,-1,1
-1.2942413251793903,23,32,-1,1
-0.015026335431210775,24,32,-1,1
-1.8014067625589743,25,32,-1,1
-3.4242457175160945,26,32,-1,1
-0.8174377602843403,27,32,-1,1
-1.1372502118172758,28,32,-1,1
-0.29527420550056704,29,32,-1,1
1.1892881284880257,30,32,-1,1
0.41401842694046564,31,32,-1,1
-0.015402131429285057,32,32,-1,1
0.5398442654790057,33,32,-1,1
0.4849861719990767,34,32,-1,1
-0.565033728882688,35,32,-1,1
-2.0703255482787446,36,32,-1,1
0.1468624473227021,37,32,-1,1
1.433200876858914,38,32,-1,1
0.46065318055218846,39,32,-1,1
0.2979119048406934,40,32,-1,1
1.4330823209894803,41,32,-1,1
1.0814104348191036,42,32,-1,1
1.450924860019013,43,32,-1,1
1.285223608242909,44,32,-1,1
2.9647454599668186,45,32,-1,1
1.5093546223478593,46,32,-1,1
-0.034723958685590965,47,32,-1,1
-0.024836036212539513,48,32,-1,1
1.185532388045068,49,32,-1,1
1.0187680844261737,50,32,-1,1
1.1218730007315307,51,32,-1,1
-0.16693810196539027,52,32,-1,1
-0.8443405120227252,53,32,-1,1
-0.12368280515544772,54,32,-1,1
-0.04152123342294748,55,32,-1,1
0.3154156485745748,56,32,-1,1
-0.25263398106464574,57,32,-1,1
-0.3790152723340524,58,32,-1,1
-1.3677990333974683,59,32,-1,1
-1.1747708542643283,60,32,-1,1
-0.5109926247713721,61,32,-1,1
-0.10701075367571654,62,32,-1,1
-0.09292005026222332,63,32,-1,1
-0.10599273895109566,0,33,-1,1
0.1573754393159338,1,33,-1,1
0.327196038896549,2,33,-1,1
0.4222260625431126,3,33,-1,1
0.7570736299871378,4,33,-1,1
0.10028630911165792,5,33,-1,1
0.05658869100494633,6,33,-1,1
-0.050735425491722955,7,33,-1,1
0.016836266314439904,8,33,-1,1
-0.27156821768945016,9,33,-1,1
0.051511717196483967,10,33,-1,1
0.6641632347234421,11,33,-1,1
0.37909150565351946,12,33,-1,1
0.9566208297671277,13,33,-1,1
0.2625718680089595,14,33,-1,1
0.30559076318581024,15,33,-1,1
-0.0048066882565675935,16,33,-1,1
0.03838072882871583,17,33,-1,1
0.8299871227650285,18,33,-1,1
0.4966729243560275,19,33,-1,1
-1.4178316430394566,20,33,-1,1
-1.9722269833897144,21,33,-1,1
-0.8106117729799787,22,33,-1,1
0.5597988436502815,23,33,-1,1
0.006373044569160228,24,33,-1,1
-1.045131443925204,25,33,-1,1
-1.4935869354836409,26,33,-1,1
-1.4496814953622452,27,33,-1,1
-0.6180744940272088,28,33,-1,1
-0.715749577906522,29,33,-1,1
-2.028312706502745,30,33,-1,1
-0.48068573431226386,31,33,-1,1
0.18661908798760962,32,33,-1,1
-1.3758222569647973,33,33,-1,1
-2.209129533910748,34,33,-1,1
-0.21396769320049763,35,33,-1,1
-0.08303720014311701,36,33,-1,1
0.8650982973257075,37,33,-1,1
-0.2326749444345525,38,33,-1,1
0.1754161989965229,39,33,-1,1
0.18549618190702516,40,33,-1,1
1.9674077349412256,41,33,-1,1
1.5250287234268456,42,33,-1,1
0.5830581815114372,43,33,-1,1
0.43021437232242965,44,33,-1,1
0.8579750174210964,45,33,-1,1
1.3456731264903685,46,33,-1,1
0.29959234283508374,47,33,-1,1
0.06972283949678355,48,33,-1,1
0.45436632742352867,49,33,-1,1
0.5460906703543449,50,33,-1,1
-1.3346533985519187,51,33,-1,1
-1.48296069865861,52,33,-1,1
0.21555045769159875,53,33,-1,1
0.6392959925351378,54,33,-1,1
0.0431890746681992,55,33,-1,1
0.0703359270177215,56,33,-1,1
-0.14007103251970676,57,33,-1,1
-0.5553625705323617,58,33,-1,1
-0.6222641737971835,59,33,-1,1
-0.10427268183346175,60,33,-1,1
-0.12149098546003183,61,33,-1,1
-0.05725540440214385,62,33,-1,1
-0.13021265987161756,63,33,-1,1
-0.19898698924083247,0,34,-1,1
0.22403047101079823,1,34,-1,1
0.1927025497372472,2,34,-1,1
1.102254204435783,3,34,-1,1
1.4663977480184147,4,34,-1,1
0.9594416527756637,5,34,-1,1
0.3157145424519848,6,34,-1,1
0.206903408263273,7,34,-1,1
0.18234164674934603,8,34,-1,1
0.014391146841786379,9,34,-1,1
0.18648033860569044,10,34,-1,1
-1.3752996711443208,11,34,-1,1
-1.3531744945053898,12,34,-1,1
0.09687679809520619,13,34,-1,1
-0.5888390454852683,14,34,-1,1
0.13294213914462422,15,34,-1,1
0.3830510750758344,16,34,-1,1
0.1255570923563193,17,34,-1,1
-0.34861850044981607,18,34,-1,1
0.8626099428151945,19,34,-1,1
1.7325850018427933,20,34,-1,1
0.3607812188684909,21,34,-1,1
-1.3986606964900035,22,34,-1,1
-0.5468903647739284,23,34,-1,1
0.3968446587004319,24,34,-1,1
0.750817104333935,25,34,-1,1
1.6957156205146098,26,34,-1,1
-3.2213460772904394,27,34,-1,1
-2.770344825437492,28,34,-1,1
0.888268185498054,29,34,-1,1
1.460329420249947,30,34,-1,1
0.26968543419078755,31,34,-1,1
0.050746366995846365,32,34,-1,1
0.9475535570021044,33,34,-1,1
4.674571712448751,34,34,-1,1
0.10104031569237461,35,34,-1,1
0.28436061337326185,36,34,-1,1
0.7428875662333256,37,34,-1,1
0.644391206751839,38,34,-1,1
0.6863365509426113,39,34,-1,1
-0.0313174435736949,40,34,-1,1
-1.1397097325292225,41,34,-1,1
-0.45073537056565544,42,34,-1,1
3.1527229332858715,43,34,-1,1
1.595249199609335,44,34,-1,1
-0.11818986087481605,45,34,-1,1
0.0950200091018279,46,34,-1,1
0.6466283043104859,47,34,-1,1
-0.17265451093338643,48,34,-1,1
-0.3670676155039426,49,34,-1,1
-1.2278564554714204,50,34,-1,1
-1.8821428384666123,51,34,-1,1
-0.14705743831713522,52,34,-1,1
-0.2965751368472171,53,34,-1,1
0.48286552008633876,54,34,-1,1
0.23728039089994274,55,34,-1,1
0.030423750113855737,56,34,-1,1
0.13567080679709884,57,34,-1,1
0.6440174662605427,58,34,-1,1
0.5272362053439076,59,34,-1,1
0.20000836378158018,60,34,-1,1
0.4009027689969928,61,34,-1,1
0.05566994240550209,62,34,-1,1
0.048260780895646775,63,34,-1,1
-0.10887794387915183,0,35,-1,1
-0.369130966982238,1,35,-1,1
0.14212770698353228,2,35,-1,1
0.8850924551655693,3,35,-1,1
1.2016310296955346,4,35,-1,1
0.9860450447752057,5,35,-1,1
0.12758033941823888,6,35,-1,1
-0.004674738594207305,7,35,-1,1
-0.11643563998081956,8,35,-1,1
0.38269226907795856,9,35,-1,1
1.401436044734864,10,35,-1,1
0.7185202704551867,11,35,-1,1
0.7358790778846678,12,35,-1,1
0.3569658345856168,13,35,-1,1
-0.8262599865933716,14,35,-1,1
-0.023984589147740317,15,35,-1,1
0.031383533815365995,16,35,-1,1
1.3097029638752986,17,35,-1,1
-1.19715801814413,18,35,-1,1
-0.5755603175994806,19,35,-1,1
-0.38484796254407216,20,35,-1,1
-1.9263534863408724,21,35,-1,1
-0.8301772059655939,22,35,-1,1
-0.49318753622218076,23,35,-1,1
0.12970851945810907,24,35,-1,1
-2.2698788754272243,25,35,-1,1
-2.8706365689140654,26,35,-1,1
-1.6528534202527938,27,35,-1,1
0.7877412034903054,28,35,-1,1
-0.9847561841276403,29,35,-1,1
-0.48458068377116176,30,35,-1,1
-0.026940737995348553,31,35,-1,1
0.1390323345631948,32,35,-1,1
-0.7891542729404551,33,35,-1,1
-0.5977482344979715,34,35,-1,1
2.1630241054339967,35,35,-1,1
1.1593172159382246,36,35,-1,1
-0.3252132425977467,37,35,-1,1
1.0322789796833134,38,35,-1,1
0.33256730477415003,39,35,-1,1
0.24286824314044977,40,35,-1,1
1.1717352910010723,41,35,-1,1
0.1434844566322346,42,35,-1,1
0.7558597678502412,43,35,-1,1
0.7555773424068439,44,35,-1,1
2.232807319098662,45,35,-1,1
1.4525013117893784,46,35,-1,1
-0.06464582406256478,47,35,-1,1
0.20590211961416582,48,35,-1,1
1.3758393018652464,49,35,-1,1
1.2717387369280126,50,35,-1,1
-0.42684535785530425,51,35,-1,1
0.19497341050434122,52,35,-1,1
0.18401453982217642,53,35,-1,1
-0.06305733531515033,54,35,-1,1
-0.055386682240163944,55,35,-1,1
-0.07511416088004177,56,35,-1,1
0.14459505094117933,57,35,-1,1
-0.009114479268472999,58,35,-1,1
-0.7279691820734338,59,35,-1,1
-1.1369084611337676,60,35,-1,1
-0.9938877078584863,61,35,-1,1
-0.10161490246413019,62,35,-1,1
-0.2000550084203502,63,35,-1,1
0.06178967929552276,0,36,-1,1
-0.19373387596866623,1,36,-1,1
0.19786619012080994,2,36,-1,1
0.44035042226364,3,36,-1,1
0.6250886065582344,4,36,-1,1
0.7428355167621081,5,36,-1,1
0.15750103195641932,6,36,-1,1
-0.31527514407707025,7,36,-1,1
-0.14486799066075962,8,36,-1,1
-0.01640487116848595,9,36,-1,1
0.10489536846928155,10,36,-1,1
-1.3801246936467828,11,36,-1,1
-2.0849510058832728,12,36,-1,1
-0.9446432227135917,13,36,-1,1
-0.023150299745528544,14,36,-1,1
0.12163840577169549,15,36,-1,1
-0.02575543672888757,16,36,-1,1
0.035839180022356455,17,36,-1,1
0.1981671890704973,18,36,-1,1
-0.6430235008470638,19,36,-1,1
0.049176753932261966,20,36,-1,1
0.02898069115829922,21,36,-1,1
0.7924654904578796,22,36,-1,1
1.2654711931282414,23,36,-1,1
0.0821720962737721,24,36,-1,1
0.16132192644354496,25,36,-1,1
0.19926116470071514,26,36,-1,1
0.317127273628592,27,36,-1,1
-0.9270492834282313,28,36,-1,1
-0.26133563217401123,29,36,-1,1
-0.4549923810976698,30,36,-1,1
0.4341076086575638,31,36,-1,1
-0.10516972996872301,32,36,-1,1
-1.0773278233727654,33,36,-1,1
-1.318342558869699,34,36,-1,1
-1.4717026388624947,35,36,-1,1
-1.7512348850144475,36,36,-1,1
-1.6083900923190875,37,36,-1,1
-0.21501169217877297,38,36,-1,1
0.051045093097056966,39,36,-1,1
-0.3466023339212044,40,36,-1,1
0.3759076223261102,41,36,-1,1
0.25085870186225195,42,36,-1,1
0.09973848628842147,43,36,-1,1
0.2756236800368857,44,36,-1,1
-0.04062585926927567,45,36,-1,1
0.05799666669218993,46,36,-1,1
0.006974535411679863,47,36,-1,1
0.016442401787408606,48,36,-1,1
-0.06861916040872618,49,36,-1,1
0.6677761286343102,50,36,-1,1
0.761632633458362,51,36,-1,1
-0.29415608058921333,52,36,-1,1
-0.8252774948913799,53,36,-1,1
-0.0075318801184432686,54,36,-1,1
-0.11171417602701936,55,36,-1,1
-0.03472964022127918,56,36,-1,1
-0.17227721009969085,57,36,-1,1
0.20881619240385677,58,36,-1,1
0.3725120976817326,59,36,-1,1
-0.08832167658765706,60,36,-1,1
-0.6926320149627524,61,36,-1,1
-0.07870539861491527,62,36,-1,1
-0.18804396623328665,63,36,-1,1
0.061159632305245876,0,37,-1,1
-0.009885392918209024,1,37,-1,1
0.3183950262932868,2,37,-1,1
-0.1580132074745425,3,37,-1,1
-0.2533425689641,4,37,-1,1
-0.2693023838866053,5,37,-1,1
-0.16113045390792427,6,37,-1,1
-0.11706542916841282,7,37,-1,1
-0.1454905621005463,8,37,-1,1
0.1783921692142642,9,37,-1,1
-0.1280696136681623,10,37,-1,1
0.05681952305351323,11,37,-1,1
-0.7172802127726006,12,37,-1,1
-0.13876084358805657,13,37,-1,1
0.46345003104423854,14,37,-1,1
-0.06833953000569526,15,37,-1,1
-0.21546551404999129,16,37,-1,1
-0.2118563238896247,17,37,-1,1
-0.31816054512398606,18,37,-1,1
-1.4567636861958535,19,37,-1,1
-1.2315282257447608,20,37,-1,1
-0.6414941345487011,21,37,-1,1
0.727339679004752,22,37,-1,1
0.663457427670689,23,37,-1,1
-0.11387256445439743,24,37,-1,1
-0.1499079877044327,25,37,-1,1
-0.13442035561828777,26,37,-1,1
-0.20432155554165993,27,37,-1,1
0.06038830701152129,28,37,-1,1
-1.3974358226097368,29,37,-1,1
-1.2950499208312782,30,37,-1,1
0.19791250138921343,31,37,-1,1
-0.15945350915037074,32,37,-1,1
-0.29856625182850066,33,37,-1,1
-0.6898681166152455,34,37,-1,1
1.2372615539991116,35,37,-1,1
-0.6629053731908826,36,37,-1,1
-2.0734126676693476,37,37,-1,1
-0.9720837407124259,38,37,-1,1
0.00096849173518636,39,37,-1,1
0.04552689857685392,40,37,-1,1
0.4478814144469204,41,37,-1,1
-0.3982947315431147,42,37,-1,1
-0.6999196182280046,43,37,-1,1
-0.20823248410229545,44,37,-1,1
-0.2095179487486927,45,37,-1,1
0.7808068880490731,46,37,-1,1
0.21372305199363156,47,37,-1,1
0.1701289096067904,48,37,-1,1
0.07235465374999425,49,37,-1,1
-0.09553593379458857,50,37,-1,1
-0.6393320751241088,51,37,-1,1
0.2694963710037743,52,37,-1,1
0.986886251671331,53,37,-1,1
0.31957130521192223,54,37,-1,1
-0.0064485698113212475,55,37,-1,1
0.045585466816473956,56,37,-1,1
-0.45188082391681705,57,37,-1,1
-0.965003236497137,58,37,-1,1
-0.6265834247594801,59,37,-1,1
-0.5330584111747091,60,37,-1,1
-0.509044270111223,61,37,-1,1
-0.1492557670577301,62,37,-1,1
-0.1370942699759593,63,37,-1,1
0.10477524974104381,0,38,-1,1
0.2403132175264527,1,38,-1,1
0.17060790805941156,2,38,-1,1
-0.2512443681350226,3,38,-1,1
0.03212030698000801,4,38,-1,1
0.046160396512377515,5,38,-1,1
0.08585976172439842,6,38,-1,1
-0.14234517597102445,7,38,-1,1
-0.10363993567428303,8,38,-1,1
-0.0663848753524803,9,38,-1,1
-0.3402944605040109,10,38,-1,1
-0.7549720539497511,11,38,-1,1
-0.8049620484494736,12,38,-1,1
-0.368362270048769,13,38,-1,1
0.5303203084544024,14,38,-1,1
0.16679352211544266,15,38,-1,1
0.17194100437728954,16,38,-1,1
0.2543426395413582,17,38,-1,1
-0.17926259628644914,18,38,-1,1
0.12199166405489204,19,38,-1,1
-0.5733388048094198,20,38,-1,1
-0.827473499152898,21,38,-1,1
0.7605741479212463,22,38,-1,1
0.09586578338901368,23,38,-1,1
-0.10784067463095302,24,38,-1,1
0.8193998075895519,25,38,-1,1
1.766823880071339,26,38,-1,1
3.4155966973091854,27,38,-1,1
3.3319206910699397,28,38,-1,1
1.5986194973131371,29,38,-1,1
-0.12293758992905189,30,38,-1,1
-0.16939785213312428,31,38,-1,1
-0.05016531551698607,32,38,-1,1
-0.5030885163431084,33,38,-1,1
-0.04889536608595592,34,38,-1,1
0.7084287150934506,35,38,-1,1
2.046868355466936,36,38,-1,1
2.1866900420241797,37,38,-1,1
0.3070003758261828,38,38,-1,1
-0.7507054400470543,39,38,-1,1
0.08701792001997506,40,38,-1,1
-0.6644286793390509,41,38,-1,1
-1.3326201492913556,42,38,-1,1
-1.6750638924979628,43,38,-1,1
0.3262204574377095,44,38,-1,1
-0.4622220512451539,45,38,-1,1
-1.104321530341686,46,38,-1,1
-0.7625188924469597,47,38,-1,1
0.022782873579341934,48,38,-1,1
0.2637051559322589,49,38,-1,1
-0.7963748614655646,50,38,-1,1
-0.8735939186409676,51,38,-1,1
0.274729251893975,52,38,-1,1
-1.196479806502355,53,38,-1,1
-0.8847311067288621,54,38,-1,1
-0.1015173687065955,55,38,-1,1
-0.05696545263239605,56,38,-1,1
0.22888347209386345,57,38,-1,1
1.2000479789695482,58,38,-1,1
1.3837381013114418,59,38,-1,1
0.588149915386772,60,38,-1,1
0.46787415192598,61,38,-1,1
0.2618713933740234,62,38,-1,1
-0.24165934058823033,63,38,-1,1
-0.13912743680742115,0,39,-1,1
0.03135384835950751,1,39,-1,1
-0.16356952795032612,2,39,-1,1
0.2729694951356485,3,39,-1,1
0.517474363430818,4,39,-1,1
-0.0851392574322946,5,39,-1,1
-0.1342213774411447,6,39,-1,1
0.03624329942835082,7,39,-1,1
0.014542812184346972,8,39,-1,1
0.6061746285147187,9,39,-1,1
0.613938704558399,10,39,-1,1
0.23741170803225936,11,39,-1,1
-0.1422348222650268,12,39,-1,1
-0.48523600554468677,13,39,-1,1
-0.26238666545018985,14,39,-1,1
-0.07273405720671891,15,39,-1,1
-0.1666850225209534,16,39,-1,1
0.9733530381605356,17,39,-1,1
-1.2309299544972891,18,39,-1,1
-1.3814217520106256,19,39,-1,1
2.5662711256532678,20,39,-1,1
2.271582930091542,21,39,-1,1
1.3765349907879314,22,39,-1,1
-0.22546161325367509,23,39,-1,1
0.4000110743429012,24,39,-1,1
-0.13954484494934594,25,39,-1,1
-0.9799237952303794,26,39,-1,1
-1.1772666242717638,27,39,-1,1
1.4750814651372266,28,39,-1,1
-0.020274558262662945,29,39,-1,1
-0.45785269649623556,30,39,-1,1
0.4174782939572891,31,39,-1,1
0.29351024590490504,32,39,-1,1
0.866064917405939,33,39,-1,1
1.9334662868730368,34,39,-1,1
0.3765701648198115,35,39,-1,1
-0.2848292989568236,36,39,-1,1
1.2345629823222701,37,39,-1,1
0.6471909349845423,38,39,-1,1
0.10392494393267818,39,39,-1,1
0.4744790449517636,40,39,-1,1
1.3081007925647068,41,39,-1,1
-0.6375550099480253,42,39,-1,1
-1.5968274818504684,43,39,-1,1
-0.33739676323947676,44,39,-1,1
-0.07456812619113237,45,39,-1,1
0.390588026804433,46,39,-1,1
0.25585457971146947,47,39,-1,1
0.09352735530635767,48,39,-1,1
1.0273012170529443,49,39,-1,1
0.05036649769886727,50,39,-1,1
-1.0828365662415047,51,39,-1,1
-1.3490924025651816,52,39,-1,1
-0.7066936008866127,53,39,-1,1
-0.503311149960338,54,39,-1,1
0.3368358615877778,55,39,-1,1
0.17252695509258362,56,39,-1,1
0.26548879598539643,57,39,-1,1
0.3262223096588516,58,39,-1,1
-0.25036836889128034,59,39,-1,1
0.8144650715316878,60,39,-1,1
0.2189252706569854,61,39,-1,1
0.1567648615110133,62,39,-1,1
-0.05711697936829678,63,39,-1,1
0.08977105407870177,0,40,-1,1
-0.0951327990678626,1,40,-1,1
0.25755385577153356,2,40,-1,1
0.06900120068484882,3,40,-1,1
0.09685241652415419,4,40,-1,1
0.48450423239925466,5,40,-1,1
0.18987300211183802,6,40,-1,1
0.2379109343482373,7,40,-1,1
0.0781630666110545,8,40,-1,1
0.045941273526993905,9,40,-1,1
-1.6500973411782447,10,40,-1,1
-2.146142068735847,11,40,-1,1
-1.7002197383171573,12,40,-1,1
0.3107976784194718,13,40,-1,1
0.9756767189535832,14,40,-1,1
0.13480733838892506,15,40,-1,1
0.21870968132549912,16,40,-1,1
-0.16366394921496877,17,40,-1,1
-2.9343831699804506,18,40,-1,1
-1.148424405500917,19,40,-1,1
1.4635475078957776,20,40,-1,1
-1.4261000180843522,21,40,-1,1
1.2936538586125064,22,40,-1,1
0.5604446763751844,23,40,-1,1
0.17914675168129676,24,40,-1,1
0.28245536991708525,25,40,-1,1
-1.795412526503484,26,40,-1,1
0.8143121278478485,27,40,-1,1
1.5547045821105507,28,40,-1,1
-2.3190097105150667,29,40,-1,1
0.1439912310129533,30,40,-1,1
0.053716096905637147,31,40,-1,1
0.1835255256521426,32,40,-1,1
-0.07220245156251658,33,40,-1,1
-1.6301170483308374,34,40,-1,1
-0.33216647470618443,35,40,-1,1
-0.3539912269793388,36,40,-1,1
-1.2089341436781302,37,40,-1,1
-0.8002470181629523,38,40,-1,1
-0.4643496104586913,39,40,-1,1
-0.1911549710371191,40,40,-1,1
0.0775326028947027,41,40,-1,1
-0.011052849008002994,42,40,-1,1
2.139244760132778,43,40,-1,1
0.8299291455806541,44,40,-1,1
-1.5487210928616484,45,40,-1,1
-1.7448246212142795,46,40,-1,1
-0.09829033134032021,47,40,-1,1
-0.19386677410191497,48,40,-1,1
0.1716565169301828,49,40,-1,1
0.38925636440610545,50,40,-1,1
-1.074845335027725,51,40,-1,1
-0.17438584022401307,52,40,-1,1
-0.9686061864511022,53,40,-1,1
-0.49780413295339737,54,40,-1,1
-0.09483520090381196,55,40,-1,1
0.2639372295341222,56,40,-1,1
0.09140620385978944,57,40,-1,1
-0.15449647829381039,58,40,-1,1
-1.113811403460149,59,40,-1,1
-0.9576432805323926,60,40,-1,1
0.01779413192563978,61,40,-1,1
0.2040828690211351,62,40,-1,1
-0.1721539286884749,63,40,-1,1
-0.01968536481857253,0,41,-1,1
0.15062155127438134,1,41,-1,1
-0.4171930366131391,2,41,-1,1
-0.7724197634774984,3,41,-1,1
-0.9885852199300068,4,41,-1,1
-0.9136258340229403,5,41,-1,1
-0.29890731722159253,6,41,-1,1
0.21135257738142946,7,41,-1,1
-0.03834203125958673,8,41,-1,1
0.23164465783267946,9,41,-1,1
-0.2443434179997884,10,41,-1,1
-0.14873485446738738,11,41,-1,1
-0.17114095419101538,12,41,-1,1
0.04006247805451007,13,41,-1,1
0.5478220169600968,14,41,-1,1
0.09937791934394458,15,41,-1,1
0.18506305373553975,16,41,-1,1
0.08854496823780189,17,41,-1,1
0.8056039427328232,18,41,-1,1
1.2560305353162424,19,41,-1,1
1.9821621809057046,20,41,-1,1
3.201920438290609,21,41,-1,1
1.3540328165326943,22,41,-1,1
0.11883031352020863,23,41,-1,1
-0.12123406385919917,24,41,-1,1
1.1762575209254473,25,41,-1,1
1.8666277605719988,26,41,-1,1
0.06941906428511806,27,41,-1,1
0.24326083269608378,28,41,-1,1
0.8819491840924689,29,41,-1,1
0.37691944290350976,30,41,-1,1
0.021478166179060603,31,41,-1,1
-0.3044233369973211,32,41,-1,1
-0.043453304828587544,33,41,-1,1
0.588471302547008,34,41,-1,1
-0.7104947340576582,35,41,-1,1
-0.13516999332848953,36,41,-1,1
0.47428024306554717,37,41,-1,1
-0.8187510850699066,38,41,-1,1
-0.42793577192592264,39,41,-1,1
0.052047076471986295,40,41,-1,1
-1.4916857965192027,41,41,-1,1
-2.5314300807067496,42,41,-1,1
-2.330008769027874,43,41,-1,1
-1.5675023610205363,44,41,-1,1
-1.452462545346848,45,41,-1,1
-1.7409873959825959,46,41,-1,1
-0.6678020086980235,47,41,-1,1
0.08991441299861112,48,41,-1,1
0.13154815964974464,49,41,-1,1
0.06750318026506696,50,41,-1,1
0.8843745112598341,51,41,-1,1
1.5212971972966802,52,41,-1,1
0.4332327217821319,53,41,-1,1
-0.45151451887125327,54,41,-1,1
0.1905895797479514,55,41,-1,1
-0.20478730797023403,56,41,-1,1
0.03508335069922003,57,41,-1,1
0.8384914317690153,58,41,-1,1
1.8201060121655785,59,41,-1,1
1.3939520748298886,60,41,-1,1
0.6237218725400431,61,41,-1,1
0.044358117509585744,62,41,-1,1
-0.20425618990388925,63,41,-1,1
-0.11191810006524072,0,42,-1,1
0.03192951450288849,1,42,-1,1
0.39481217503847377,2,42,-1,1
-0.046019206725922635,3,42,-1,1
-1.1928972957698605,4,42,-1,1
-0.3153600928103766,5,42,-1,1
0.12225772306977971,6,42,-1,1
0.21744425899997166,7,42,-1,1
-0.18975037045972498,8,42,-1,1
-0.4167710284410075,9,42,-1,1
-2.071830781131621,10,42,-1,1
-2.2652184631473893,11,42,-1,1
0.7461016490773325,12,42,-1,1
1.285442457519788,13,42,-1,1
0.09266315682692731,14,42,-1,1
-0.3887091051845245,15,42,-1,1
0.04768201554410617,16,42,-1,1
-1.000280960878001,17,42,-1,1
-1.4092326032323728,18,42,-1,1
0.5647317618783649,19,42,-1,1
-0.2077513392580577,20,42,-1,1
-0.02800976039728794,21,42,-1,1
0.12178082594842388,22,42,-1,1
-0.7490800843845432,23,42,-1,1
-0.42871290797817185,24,42,-1,1
0.9576945294328424,25,42,-1,1
-0.6640641296506152,26,42,-1,1
0.814313583515926,27,42,-1,1
-0.6790190045521363,28,42,-1,1
-0.9113453327590674,29,42,-1,1
4.022831768003072,30,42,-1,1
-0.34889722851808985,31,42,-1,1
-0.17218103239041171,32,42,-1,1
0.9930324609681195,33,42,-1,1
-0.12586591722086074,34,42,-1,1
0.7685775128621245,35,42,-1,1
-1.5508348628961792,36,42,-1,1
-2.4106627749160965,37,42,-1,1
0.43535567371667944,38,42,-1,1
-0.1363688444651637,39,42,-1,1
-0.20453379301784036,40,42,-1,1
-1.5807396119165178,41,42,-1,1
2.611749994190775,42,42,-1,1
0.09667938644835515,43,42,-1,1
-2.491463286314675,44,42,-1,1
-1.589546859302856,45,42,-1,1
-1.9052587739045457,46,42,-1,1
-0.45819115738354194,47,42,-1,1
-0.0023802899900308254,48,42,-1,1
-0.5044086868435469,49,42,-1,1
0.5603436208196529,50,42,-1,1
1.4016530903067708,51,42,-1,1
0.5284233447790642,52,42,-1,1
-2.408552783010557,53,42,-1,1
-1.2568797413448358,54,42,-1,1
-0.19333937233790563,55,42,-1,1
-0.1780642515033252,56,42,-1,1
-0.19674335031825554,57,42,-1,1
-0.0672339291607587,58,42,-1,1
0.2866368153395044,59,42,-1,1
0.09135253900330105,60,42,-1,1
0.4222723397179535,61,42,-1,1
-0.2380513632003638,62,42,-1,1
-0.1870087483448628,63,42,-1,1
-0.03912420734082461,0,43,-1,1
0.2074237722083899,1,43,-1,1
-0.14503354607458416,2,43,-1,1
0.16044380128389912,3,43,-1,1
0.24628118152910766,4,43,-1,1
-0.13493421531454863,5,43,-1,1
-0.008392878559719884,6,43,-1,1
-0.06704111631994818,7,43,-1,1
0.005320788523437732,8,43,-1,1
0.025227077164348494,9,43,-1,1
0.5948418188801805,10,43,-1,1
0.20277978722951717,11,43,-1,1
-0.44207754596744153,12,43,-1,1
-0.34486924463100205,13,43,-1,1
0.17683058733191073,14,43,-1,1
-0.00028146618255728615,15,43,-1,1
0.0030597481263301704,16,43,-1,1
0.36410126357723127,17,43,-1,1
0.949478267590249,18,43,-1,1
0.6876882910562216,19,43,-1,1
-0.26070196058141665,20,43,-1,1
0.11619162855976219,21,43,-1,1
0.40623823890758,22,43,-1,1
-0.28793722548898937,23,43,-1,1
-0.08192047715610144,24,43,-1,1
0.6980688573677364,25,43,-1,1
0.3760802518181394,26,43,-1,1
-0.11095606435760605,27,43,-1,1
-0.2486443663684439,28,43,-1,1
0.474062417659054,29,43,-1,1
0.37647525636001433,30,43,-1,1
-0.19434653955911016,31,43,-1,1
-0.2831085727441256,32,43,-1,1
0.44844922227477174,33,43,-1,1
0.9093979432948898,34,43,-1,1
-0.6125742722795438,35,43,-1,1
0.16033886613713721,36,43,-1,1
0.8033457086618858,37,43,-1,1
0.6404366789281845,38,43,-1,1
0.2803959995796232,39,43,-1,1
0.06741514847584337,40,43,-1,1
0.0608847472819048,41,43,-1,1
0.951448909728078,42,43,-1,1
0.5011557257274469,43,43,-1,1
0.2044902833290885,44,43,-1,1
0.3914880458607813,45,43,-1,1
0.598437013756189,46,43,-1,1
0.12717247035167073,47,43,-1,1
0.09481799966085251,48,43,-1,1
-0.036268929358949833,49,43,-1,1
-0.3193231266074647,50,43,-1,1
-0.05606976004196707,51,43,-1,1
0.8636601486408494,52,43,-1,1
0.6840874083503757,53,43,-1,1
-0.10509372392853533,54,43,-1,1
0.04108002533860633,55,43,-1,1
-0.11734461888590775,56,43,-1,1
-0.07756742009418488,57,43,-1,1
0.05934854618888272,58,43,-1,1
0.25912568908608075,59,43,-1,1
0.1831858847164899,60,43,-1,1
0.09621595616739652,61,43,-1,1
-0.08224439986531643,62,43,-1,1
-0.08935961835235985,63,43,-1,1
0.15619020044765475,0,44,-1,1
-0.05514550990012485,1,44,-1,1
0.3624039323351895,2,44,-1,1
0.043852650254617355,3,44,-1,1
-0.737137293123306,4,44,-1,1
0.04683133790178922,5,44,-1,1
0.1121426324853477,6,44,-1,1
0.06966143955294268,7,44,-1,1
-0.03080589925149196,8,44,-1,1
0.0880443122238828,9,44,-1,1
0.28652409517371474,10,44,-1,1
0.8532198234039157,11,44,-1,1
0.5569560762726098,12,44,-1,1
-0.1639425531386767,13,44,-1,1
-0.08716360994212244,14,44,-1,1
-0.15028433577792263,15,44,-1,1
-0.021469328776727154,16,44,-1,1
-0.945264199802014,17,44,-1,1
-0.40994012993568,18,44,-1,1
-1.0498912186926967,19,44,-1,1
-2.2469557956019868,20,44,-1,1
-1.680696456811614,21,44,-1,1
-2.1797288317817443,22,44,-1,1
-0.9044629209479798,23,44,-1,1
-0.37763870330350435,24,44,-1,1
-0.6952247963972848,25,44,-1,1
0.4259176090853602,26,44,-1,1
-0.9085445224474111,27,44,-1,1
-0.018901101370153217,28,44,-1,1
1.450018601471158,29,44,-1,1
0.757291220467169,30,44,-1,1
-0.2397294525262391,31,44,-1,1
-0.3686068134951546,32,44,-1,1
1.4055511918960457,33,44,-1,1
1.234699323224914,34,44,-1,1
2.873965199450338,35,44,-1,1
3.8481126195964,36,44,-1,1
-1.0661972286292427,37,44,-1,1
-0.3138321963146273,38,44,-1,1
0.45403590609077393,39,44,-1,1
-0.0934616126049246,40,44,-1,1
-1.068482989606541,41,44,-1,1
-0.644656139346423,42,44,-1,1
1.7664341825377394,43,44,-1,1
1.7596669247731112,44,44,-1,1
-0.9212842214887784,45,44,-1,1
0.7450879729647784,46,44,-1,1
0.3331636046063206,47,44,-1,1
0.20345829665615292,48,44,-1,1
-0.9498414307172253,49,44,-1,1
-1.3179759170900394,50,44,-1,1
-1.5408142066719275,51,44,-1,1
-0.5771729773601478,52,44,-1,1
0.6782448244531888,53,44,-1,1
1.2112657666213338,54,44,-1,1
0.21235652434787317,55,44,-1,1
-0.09139492277282861,56,44,-1,1
0.16257227878652508,57,44,-1,1
-0.4703542390023552,58,44,-1,1
-0.9891887906623315,59,44,-1,1
-0.7043595985811181,60,44,-1,1
0.24083322215936181,61,44,-1,1
0.17744051922263765,62,44,-1,1
-0.15254079763102063,63,44,-1,1
-0.15790141345538533,0,45,-1,1
-0.02362615374066233,1,45,-1,1
-0.09332421844877598,2,45,-1,1
-0.15286176857290293,3,45,-1,1
-0.14697077507066622,4,45,-1,1
0.40621870201291066,5,45,-1,1
-0.20179610181288554,6,45,-1,1
0.17955222999153678,7,45,-1,1
0.20011837132175966,8,45,-1,1
-0.0361182323324162,9,45,-1,1
0.10322964976121067,10,45,-1,1
-0.08228543272720282,11,45,-1,1
0.3665318556969579,12,45,-1,1
0.3339732003979358,13,45,-1,1
0.14977222897170814,14,45,-1,1
-0.017553344115583545,15,45,-1,1
-0.10974392060906442,16,45,-1,1
-0.7384120271016745,17,45,-1,1
-1.389085408053891,18,45,-1,1
-2.532296343592045,19,45,-1,1
-0.8650713334508543,20,45,-1,1
0.23566487892672258,21,45,-1,1
-0.73801233296232,22,45,-1,1
-0.026804895042959,23,45,-1,1
-0.17556554672688074,24,45,-1,1
0.9870534934003845,25,45,-1,1
2.5447596929961622,26,45,-1,1
3.5890045786851212,27,45,-1,1
0.9260258136267542,28,45,-1,1
1.4639335111714864,29,45,-1,1
0.03943629143307339,30,45,-1,1
0.03623464955688716,31,45,-1,1
-0.43825729334743985,32,45,-1,1
1.562039688965269,33,45,-1,1
3.109194381032051,34,45,-1,1
-0.6874889419278407,35,45,-1,1
-0.29503822450882966,36,45,-1,1
2.0097488143522573,37,45,-1,1
0.43634711664768183,38,45,-1,1
-0.13418876690142953,39,45,-1,1
-0.17584455086893347,40,45,-1,1
0.12893591685760877,41,45,-1,1
-0.7722670293420767,42,45,-1,1
-2.000247819362432,43,45,-1,1
-0.164646049369374,44,45,-1,1
1.914527259652193,45,45,-1,1
-0.36137043410013464,46,45,-1,1
-0.8494246068633465,47,45,-1,1
0.18102866759349667,48,45,-1,1
-0.09876746634007193,49,45,-1,1
-0.11036022141277331,50,45,-1,1
0.24925869077360172,51,45,-1,1
0.20389400657760137,52,45,-1,1
0.8265945236014638,53,45,-1,1
0.10835109767018132,54,45,-1,1
-0.038782121614182166,55,45,-1,1
-0.12239431479199293,56,45,-1,1
0.26375164977308285,57,45,-1,1
0.3313047036936581,58,45,-1,1
-0.7380407769137354,59,45,-1,1
-0.5626932664108287,60,45,-1,1
0.2685234247141965,61,45,-1,1
0.21357537835919846,62,45,-1,1
-0.2220354526131265,63,45,-1,1
0.49988361470108134,0,46,-1,1
0.08516783022867297,1,46,-1,1
0.025012634188376917,2,46,-1,1
0.5845163156024726,3,46,-1,1
0.8467348537681247,4,46,-1,1
0.6622913861392462,5,46,-1,1
0.26259523415267855,6,46,-1,1
0.09551422274344375,7,46,-1,1
0.09549328575457354,8,46,-1,1
0.08917611221988557,9,46,-1,1
-0.6730453279127149,10,46,-1,1
0.5380025320570875,11,46,-1,1
1.4718265478301567,12,46,-1,1
0.3147642274517621,13,46,-1,1
-0.6358924472980587,14,46,-1,1
-0.018161883507024013,15,46,-1,1
-0.1334773699628542,16,46,-1,1
-0.744770229456659,17,46,-1,1
-0.8636230722410991,18,46,-1,1
-0.1821920543158784,19,46,-1,1
-0.17024131299404854,20,46,-1,1
-2.0668892968516004,21,46,-1,1
-0.8693535538905461,22,46,-1,1
-0.41552092292864135,23,46,-1,1
-0.08305437131308618,24,46,-1,1
0.725260379475896,25,46,-1,1
0.8357593547993266,26,46,-1,1
0.2912485918978676,27,46,-1,1
0.5753527185456039,28,46,-1,1
-0.0664284875196397,29,46,-1,1
1.6648026379236585,30,46,-1,1
-0.20880980760582374,31,46,-1,1
-0.26248111275613806,32,46,-1,1
0.18727091818217162,33,46,-1,1
-0.14389343107298755,34,46,-1,1
-0.5663487537031957,35,46,-1,1
-1.7759925352647923,36,46,-1,1
-0.2929336401991777,37,46,-1,1
1.108251114984223,38,46,-1,1
-0.07213132167277826,39,46,-1,1
0.14060904440417257,40,46,-1,1
-0.675112366697369,41,46,-1,1
0.15345799309913116,42,46,-1,1
0.7414524705167347,43,46,-1,1
-0.2655042038352249,44,46,-1,1
1.0301702198780838,45,46,-1,1
-0.6142392194907195,46,46,-1,1
-0.46566380907266414,47,46,-1,1
0.264804953447112,48,46,-1,1
0.16374368984742585,49,46,-1,1
-0.5975323721751944,50,46,-1,1
-0.012707914011373542,51,46,-1,1
0.5986061504263769,52,46,-1,1
-0.7701200042914762,53,46,-1,1
-0.5481223897224669,54,46,-1,1
0.09006745645484561,55,46,-1,1
-0.05816989686889846,56,46,-1,1
0.1196205778668503,57,46,-1,1
0.38179930051550376,58,46,-1,1
-0.34208084965779234,59,46,-1,1
0.1082273011425173,60,46,-1,1
0.4972063911802997,61,46,-1,1
-0.14457818262948616,62,46,-1,1
-0.05533859451827555,63,46,-1,1
-0.15504949843290453,0,47,-1,1
-0.2512914723798384,1,47,-1,1
-0.06751965691022815,2,47,-1,1
0.11823813049861023,3,47,-1,1
-0.11097029143803092,4,47,-1,1
-0.15276685867049022,5,47,-1,1
-0.18874394416043563,6,47,-1,1
0.06864311627257665,7,47,-1,1
-0.06266228915279166,8,47,-1,1
-0.15910234287247427,9,47,-1,1
-0.37458464568603933,10,47,-1,1
-0.7324688479686026,11,47,-1,1
-0.5723824765424853,12,47,-1,1
-0.29551732245237944,13,47,-1,1
0.1493988539048163,14,47,-1,1
-0.15470360585071766,15,47,-1,1
-0.18162043484503632,16,47,-1,1
-0.08518663719800212,17,47,-1,1
-0.08893489705334211,18,47,-1,1
-0.5653273830569499,19,47,-1,1
-0.9411548952165032,20,47,-1,1
-0.8030949756594485,21,47,-1,1
-0.19655636481083935,22,47,-1,1
0.027533765586935006,23,47,-1,1
-0.2664758969085589,24,47,-1,1
0.08994774998559686,25,47,-1,1
-0.1043068497672176,26,47,-1,1
-0.4927951425056623,27,47,-1,1
-0.9903826761199533,28,47,-1,1
-0.46057665727801195,29,47,-1,1
0.17976886890099786,30,47,-1,1
-0.1550111639130411,31,47,-1,1
0.02423705673572713,32,47,-1,1
-0.2074895006594879,33,47,-1,1
-0.6167795629318239,34,47,-1,1
-0.6420038386549273,35,47,-1,1
-0.9072611710971585,36,47,-1,1
-1.0080689494494037,37,47,-1,1
-0.5310407066438053,38,47,-1,1
-0.10802214588347392,39,47,-1,1
-0.01805530127119371,40,47,-1,1
-0.3741021317059343,41,47,-1,1
-0.4729718197543703,42,47,-1,1
-0.41672663925776093,43,47,-1,1
-0.8821163124965514,44,47,-1,1
-1.0276674958346628,45,47,-1,1
-0.11500335090160399,46,47,-1,1
-0.002884641843259928,47,47,-1,1
-0.11890487711805249,48,47,-1,1
-0.3502890402442689,49,47,-1,1
-0.15115272134437815,50,47,-1,1
-0.6374384687691731,51,47,-1,1
-0.4771618579190202,52,47,-1,1
-0.258414285729971,53,47,-1,1
-0.06591025150580478,54,47,-1,1
0.008842430554370825,55,47,-1,1
-0.05525621628082912,56,47,-1,1
-0.06397429891464412,57,47,-1,1
0.1792974371298163,58,47,-1,1
-0.01804749990305278,59,47,-1,1
0.0992977644562638,60,47,-1,1
0.20733934838768928,61,47,-1,1
0.03544519454626746,62,47,-1,1
-0.07105569244090351,63,47,-1,1
-0.16183130642689708,0,48,-1,1
0.13619175108267825,1,48,-1,1
-0.3600533102090046,2,48,-1,1
-0.5223799791007778,3,48,-1,1
-0.2936546851843362,4,48,-1,1
-0.20551476121264603,5,48,-1,1
-0.19266301871008204,6,48,-1,1
-0.03871297830831051,7,48,-1,1
-0.20940170679505235,8,48,-1,1
0.48599657826772164,9,48,-1,1
0.43100658698178324,10,48,-1,1
0.22377795763733233,11,48,-1,1
-0.5172615335990557,12,48,-1,1
-0.3963780636924419,13,48,-1,1
0.04431271221619451,14,48,-1,1
-0.08055764492584593,15,48,-1,1
-0.07421543881731749,16,48,-1,1
0.36057608165855637,17,48,-1,1
-0.6781755673692427,18,48,-1,1
-2.1847199347143644,19,48,-1,1
-0.008651815903230796,20,48,-1,1
0.6754565705146789,21,48,-1,1
-0.2747650542334258,22,48,-1,1
-0.00418942027534392,23,48,-1,1
0.11280892149065999,24,48,-1,1
-0.833982019643202,25,48,-1,1
-0.8378686520003317,26,48,-1,1
0.01630594498171281,27,48,-1,1
2.58681811443631,28,48,-1,1
-0.427481214242051,29,48,-1,1
-1.0716440323568526,30,48,-1,1
-0.05349109745448947,31,48,-1,1
-0.02837607467613354,32,48,-1,1
0.12130723547522672,33,48,-1,1
-0.1783908680286709,34,48,-1,1
1.4113138285683846,35,48,-1,1
2.454594987654129,36,48,-1,1
-0.18075090631610424,37,48,-1,1
0.3536964590716297,38,48,-1,1
-0.31677419782922717,39,48,-1,1
0.22549538018082463,40,48,-1,1
-0.32879236767773845,41,48,-1,1
-4.499560030969728,42,48,-1,1
-2.248864684713574,43,48,-1,1
-0.8615485583061195,44,48,-1,1
-1.1271383291368717,45,48,-1,1
-0.4175756431751242,46,48,-1,1
-0.3648284746578358,47,48,-1,1
0.13861097985085385,48,48,-1,1
0.8109443804481298,49,48,-1,1
0.7198231277482364,50,48,-1,1
0.1257539074135539,51,48,-1,1
-0.33419433163486706,52,48,-1,1
0.05989335674760506,53,48,-1,1
-0.22078515171082905,54,48,-1,1
0.09772733046002237,55,48,-1,1
0.055884092570798787,56,48,-1,1
0.3219928754442111,57,48,-1,1
0.5360755814666845,58,48,-1,1
-0.02627557288300649,59,48,-1,1
-0.7524780643882789,60,48,-1,1
-0.662585660711802,61,48,-1,1
-0.13039288585900363,62,48,-1,1
0.2757342404347738,63,48,-1,1
0.1380068660272565,0,49,-1,1
0.14420735163742449,1,49,-1,1
-0.4819549854634359,2,49,-1,1
0.1699687637159652,3,49,-1,1
0.6514518268216564,4,49,-1,1
0.2261059458564642,5,49,-1,1
-0.14366772060896799,6,49,-1,1
-0.039720907903733095,7,49,-1,1
-0.22372368848109872,8,49,-1,1
0.4624624576353023,9,49,-1,1
2.9717323522116743,10,49,-1,1
2.074925708230789,11,49,-1,1
-0.045610465675626426,12,49,-1,1
-1.4894304243785226,13,49,-1,1
-1.071309703606429,14,49,-1,1
-0.3409203606275112,15,49,-1,1
-0.08536018282112058,16,49,-1,1
2.015291711757255,17,49,-1,1
3.0221619326227787,18,49,-1,1
-1.570549390183646,19,49,-1,1
-1.2705396853037318,20,49,-1,1
1.4553563846900888,21,49,-1,1
0.49122572109842993,22,49,-1,1
-0.7029418339879915,23,49,-1,1
0.2509510692533025,24,49,-1,1
0.7045730038203387,25,49,-1,1
-0.6996084859945942,26,49,-1,1
-1.3170487006109888,27,49,-1,1
-1.0890763569602042,28,49,-1,1
2.1059345136714986,29,49,-1,1
1.5209666663483106,30,49,-1,1
