Weight,Input Node,Hidden Node,Output Node,Layer Index
-0.13624973888756542,0,0,-1,1
0.0979152649741308,1,0,-1,1
0.015305704938566176,2,0,-1,1
-0.06390145826850191,3,0,-1,1
1.6306808131978365,4,0,-1,1
0.8672640949390666,5,0,-1,1
0.25746304504843953,6,0,-1,1
0.15843885581087191,7,0,-1,1
0.17814952127661424,8,0,-1,1
-0.5941497419768603,9,0,-1,1
-0.889444853186127,10,0,-1,1
-2.7258389047689,11,0,-1,1
-2.948383281506093,12,0,-1,1
0.8962264224243182,13,0,-1,1
1.8697997048279553,14,0,-1,1
0.4668601429549514,15,0,-1,1
0.438619581231907,16,0,-1,1
0.10710073721703395,17,0,-1,1
-0.45611600959594595,18,0,-1,1
0.36262132727324314,19,0,-1,1
-2.849511799561731,20,0,-1,1
0.47107148461681964,21,0,-1,1
-0.644178976912948,22,0,-1,1
1.0501004473564055,23,0,-1,1
0.5747585050286452,24,0,-1,1
-0.12948548942360213,25,0,-1,1
1.004565759325525,26,0,-1,1
3.0397577427891322,27,0,-1,1
-2.545191472584437,28,0,-1,1
-1.1306582614973253,29,0,-1,1
-1.1014988412314206,30,0,-1,1
1.2298741932956256,31,0,-1,1
-0.2478371077593325,32,0,-1,1
0.3840192322854718,33,0,-1,1
3.2383980548190388,34,0,-1,1
-2.4994466097940875,35,0,-1,1
-1.2683289880663142,36,0,-1,1
-0.25622779171149374,37,0,-1,1
2.3753677986204726,38,0,-1,1
-0.002060622411434625,39,0,-1,1
-0.20717092872727924,40,0,-1,1
-0.8634848109836405,41,0,-1,1
-0.3553682142297452,42,0,-1,1
-0.5945992584741259,43,0,-1,1
-0.28077183171892106,44,0,-1,1
1.0972419186377482,45,0,-1,1
-1.781759394412358,46,0,-1,1
-0.35793472754225863,47,0,-1,1
0.0910393224695808,48,0,-1,1
-1.5041763261767551,49,0,-1,1
0.6046046778783635,50,0,-1,1
1.490796648887525,51,0,-1,1
2.114972378223293,52,0,-1,1
1.1607508169135539,53,0,-1,1
-0.7254077581914498,54,0,-1,1
0.23724765070197887,55,0,-1,1
0.09569495667365663,56,0,-1,1
0.25823232762773307,57,0,-1,1
-0.47384212032306583,58,0,-1,1
-2.131019638335102,59,0,-1,1
-1.4546202190529225,60,0,-1,1
-0.8749550034320243,61,0,-1,1
-0.3385673897954423,62,0,-1,1
0.1612646593245148,63,0,-1,1
0.11004607061071128,0,1,-1,1
-0.2818937375356286,1,1,-1,1
-0.1335858448474434,2,1,-1,1
-0.016495135515509844,3,1,-1,1
-0.3011202206264294,4,1,-1,1
-0.38947554855181865,5,1,-1,1
-0.31203387034039154,6,1,-1,1
-0.2823329455542172,7,1,-1,1
0.27744577190206693,8,1,-1,1
0.08259564372455282,9,1,-1,1
0.2515143909168543,10,1,-1,1
-0.37480987591186915,11,1,-1,1
-0.827372867583861,12,1,-1,1
-0.9657181582893698,13,1,-1,1
0.06250296724435031,14,1,-1,1
-0.004306311780005558,15,1,-1,1
-0.0706262490983818,16,1,-1,1
-0.08844181627691404,17,1,-1,1
0.039293412277267806,18,1,-1,1
-1.1273916095691157,19,1,-1,1
-1.422720267639912,20,1,-1,1
-0.23164569666644247,21,1,-1,1
0.5181743363444486,22,1,-1,1
0.41913844854514254,23,1,-1,1
-0.21753371870423135,24,1,-1,1
-0.4201848081475552,25,1,-1,1
-0.2162838181447127,26,1,-1,1
-0.23121238385465576,27,1,-1,1
-1.5112808998738174,28,1,-1,1
0.05629489157939486,29,1,-1,1
-0.6892964241856089,30,1,-1,1
-0.0637260533693038,31,1,-1,1
0.16646129118969927,32,1,-1,1
-0.44163347986173407,33,1,-1,1
-0.3739045494479493,34,1,-1,1
-0.8576151034293925,35,1,-1,1
-1.121062617888635,36,1,-1,1
-0.3555614571303818,37,1,-1,1
-1.0583861403490138,38,1,-1,1
0.021465625563003653,39,1,-1,1
-0.17201175732583568,40,1,-1,1
0.26036713631857855,41,1,-1,1
-0.6185231635951572,42,1,-1,1
-1.7919315487473673,43,1,-1,1
-1.3614528295139556,44,1,-1,1
-0.6291908511272035,45,1,-1,1
-0.043512947844074785,46,1,-1,1
-0.026809821522817627,47,1,-1,1
-0.22436661465476118,48,1,-1,1
-0.03223866136361707,49,1,-1,1
-0.42007926538087603,50,1,-1,1
-1.5443969921231266,51,1,-1,1
-1.6868187721437575,52,1,-1,1
-0.047079478615159674,53,1,-1,1
0.5372005113088397,54,1,-1,1
-0.24534787056946084,55,1,-1,1
0.10905638598808784,56,1,-1,1
0.19787961112486574,57,1,-1,1
0.17737662985559402,58,1,-1,1
0.17352120541356578,59,1,-1,1
0.2180044424096422,60,1,-1,1
-0.042548548492506444,61,1,-1,1
-0.01640193579047341,62,1,-1,1
-0.09937096687809463,63,1,-1,1
-0.0017998844731153022,0,2,-1,1
0.10647890890982048,1,2,-1,1
-0.277706379458111,2,2,-1,1
-0.29655649352151436,3,2,-1,1
-1.3629055028789092,4,2,-1,1
-0.9862297791322795,5,2,-1,1
-0.18981868852718994,6,2,-1,1
-0.017350192143476252,7,2,-1,1
0.14756367517704713,8,2,-1,1
-0.17883893388639535,9,2,-1,1
-0.6547462882936239,10,2,-1,1
-1.1897349467755831,11,2,-1,1
-0.7085652667464354,12,2,-1,1
-0.3484152483470257,13,2,-1,1
0.09524349828616988,14,2,-1,1
0.17471746870006583,15,2,-1,1
-0.5584573212756374,16,2,-1,1
0.22545350169282974,17,2,-1,1
0.9578615360897956,18,2,-1,1
1.3277300716115419,19,2,-1,1
-0.49083825859481206,20,2,-1,1
-0.08567405293180229,21,2,-1,1
1.6217207083760123,22,2,-1,1
0.24912831764136262,23,2,-1,1
-0.09539932318807978,24,2,-1,1
1.1763847616344405,25,2,-1,1
-0.42012089746670866,26,2,-1,1
-1.6356852935714654,27,2,-1,1
-2.8462112730694353,28,2,-1,1
-0.6930713962847292,29,2,-1,1
0.7521481932792876,30,2,-1,1
-0.9491631049500167,31,2,-1,1
0.3075318396001147,32,2,-1,1
-0.5020416610900345,33,2,-1,1
-0.907454737803819,34,2,-1,1
-0.6709605463929494,35,2,-1,1
-1.7845068920282796,36,2,-1,1
1.13960441893165,37,2,-1,1
-1.7657337874357806,38,2,-1,1
-0.6137897103179224,39,2,-1,1
-0.046656400905168004,40,2,-1,1
-0.6119805002638892,41,2,-1,1
0.8529386817118191,42,2,-1,1
-0.5293108590186888,43,2,-1,1
-0.993894293995965,44,2,-1,1
-1.0208317090028025,45,2,-1,1
-0.22352692598976856,46,2,-1,1
-0.15063257231762142,47,2,-1,1
-0.4763476669405564,48,2,-1,1
-0.007610115702217554,49,2,-1,1
-1.3720266869715505,50,2,-1,1
-2.4502864666212982,51,2,-1,1
-1.9964232310641126,52,2,-1,1
-0.652564148237479,53,2,-1,1
0.6494565367271495,54,2,-1,1
0.09456860095788532,55,2,-1,1
0.004824973422778289,56,2,-1,1
-0.29180823282253177,57,2,-1,1
0.33623166120046016,58,2,-1,1
1.300427440688811,59,2,-1,1
0.6710867607775761,60,2,-1,1
0.780163604466224,61,2,-1,1
-0.10931593179011267,62,2,-1,1
-0.19896685297677114,63,2,-1,1
-0.20014957396128602,0,3,-1,1
-0.2169337375290255,1,3,-1,1
-0.17401882290840698,2,3,-1,1
0.06480062884763743,3,3,-1,1
-0.07853264023469142,4,3,-1,1
0.0523006253323541,5,3,-1,1
0.07538755169352812,6,3,-1,1
-0.096618236854549,7,3,-1,1
0.08175295841456597,8,3,-1,1
0.24752587917231436,9,3,-1,1
0.7652012345142001,10,3,-1,1
-0.14339825371697912,11,3,-1,1
-1.1252068091175642,12,3,-1,1
-0.5051552215056897,13,3,-1,1
-0.1007762658187702,14,3,-1,1
-0.02122755650441605,15,3,-1,1
-0.16847302357910612,16,3,-1,1
0.3630146561033135,17,3,-1,1
-0.3142810135589571,18,3,-1,1
-0.8838868248504114,19,3,-1,1
-1.2173593806612826,20,3,-1,1
-1.0701473153348116,21,3,-1,1
0.45297874844887653,22,3,-1,1
0.05930926583992969,23,3,-1,1
-0.0694906895028179,24,3,-1,1
-0.277528264539132,25,3,-1,1
-0.6665614338242754,26,3,-1,1
-0.270566447611041,27,3,-1,1
-0.28852885438556913,28,3,-1,1
-0.4074357113969975,29,3,-1,1
-0.7410588586624051,30,3,-1,1
-0.39350276610849855,31,3,-1,1
0.08319975220392009,32,3,-1,1
-0.3133139153147536,33,3,-1,1
-0.7245705027751944,34,3,-1,1
-1.2430239548240198,35,3,-1,1
-1.3219754583693673,36,3,-1,1
-0.0677286208444313,37,3,-1,1
-0.1467041414184295,38,3,-1,1
-0.09011151351479549,39,3,-1,1
0.04221510813023065,40,3,-1,1
-0.13362752847462253,41,3,-1,1
-1.3380050467338667,42,3,-1,1
-1.319693853325671,43,3,-1,1
-0.9071452670413389,44,3,-1,1
-0.38620551413769766,45,3,-1,1
-0.05927636962598414,46,3,-1,1
-0.11230461596052627,47,3,-1,1
-0.05693810956388194,48,3,-1,1
-0.31649218440217536,49,3,-1,1
-1.0985020567324977,50,3,-1,1
-1.3097824199718646,51,3,-1,1
-0.7451438214401126,52,3,-1,1
0.16549533157353305,53,3,-1,1
-0.2806267801580118,54,3,-1,1
0.04930349191142157,55,3,-1,1
-0.10678559643671466,56,3,-1,1
0.1416781710400173,57,3,-1,1
0.31811948766076836,58,3,-1,1
0.34068394530078117,59,3,-1,1
0.2105192869631528,60,3,-1,1
-0.06722317917233876,61,3,-1,1
0.18354622322618094,62,3,-1,1
0.06644111320999464,63,3,-1,1
-0.02653119166800121,0,4,-1,1
-0.18421082231058528,1,4,-1,1
-0.06240428168485199,2,4,-1,1
0.7561174460816438,3,4,-1,1
0.7943668570910813,4,4,-1,1
0.7196525422703913,5,4,-1,1
0.04865005941396798,6,4,-1,1
0.16885621176710008,7,4,-1,1
-0.060051804938096066,8,4,-1,1
-0.3075891220153346,9,4,-1,1
-0.06129725732027292,10,4,-1,1
0.05362897565982266,11,4,-1,1
2.035639088969641,12,4,-1,1
0.37395681386327784,13,4,-1,1
0.31166342813098136,14,4,-1,1
0.31453541729756923,15,4,-1,1
-0.22273873170619107,16,4,-1,1
-0.9905048359317372,17,4,-1,1
0.2985991643277921,18,4,-1,1
4.930080666854135,19,4,-1,1
0.507054503524576,20,4,-1,1
-2.6193365966560758,21,4,-1,1
-1.0070467237257956,22,4,-1,1
0.07852334037144197,23,4,-1,1
-0.23634561110614852,24,4,-1,1
1.6076738769447838,25,4,-1,1
2.2548507855362487,26,4,-1,1
-1.5289036507879101,27,4,-1,1
-2.2857537486327337,28,4,-1,1
0.7633835764392217,29,4,-1,1
-0.8363659692919181,30,4,-1,1
-0.24300722229825886,31,4,-1,1
0.3336536796774542,32,4,-1,1
-0.6210300063147617,33,4,-1,1
-0.0027780863348982497,34,4,-1,1
-3.018967447616841,35,4,-1,1
-1.5075722059322036,36,4,-1,1
1.0564423106297232,37,4,-1,1
-0.18131945586050524,38,4,-1,1
-0.31992630970434993,39,4,-1,1
0.06948424052209423,40,4,-1,1
-1.0980402176010815,41,4,-1,1
-0.06953050477164695,42,4,-1,1
-0.8405109848774024,43,4,-1,1
2.0134390974145107,44,4,-1,1
0.12470867071818474,45,4,-1,1
-0.1485624837490081,46,4,-1,1
-0.3704752965783568,47,4,-1,1
0.08681879135529891,48,4,-1,1
-0.5146299550745846,49,4,-1,1
-1.6835712489114831,50,4,-1,1
0.44542000537300847,51,4,-1,1
0.01760723667616522,52,4,-1,1
-0.5403421847209233,53,4,-1,1
0.31862612663170026,54,4,-1,1
0.4642241572460624,55,4,-1,1
0.09107417817651735,56,4,-1,1
0.33246188787243025,57,4,-1,1
1.7657438666543133,58,4,-1,1
1.9775855845877242,59,4,-1,1
1.0375094371907922,60,4,-1,1
1.6311950089639975,61,4,-1,1
0.22508316907849807,62,4,-1,1
0.001255184833206034,63,4,-1,1
-0.14127642568674775,0,5,-1,1
-0.29535984249639097,1,5,-1,1
-0.3257761293743885,2,5,-1,1
0.05277267720507613,3,5,-1,1
0.4185761873868658,4,5,-1,1
-0.552560349249742,5,5,-1,1
-0.2026258912978436,6,5,-1,1
-0.20124664969689962,7,5,-1,1
-0.2172218550594396,8,5,-1,1
-0.09238931323862272,9,5,-1,1
0.6165157993365922,10,5,-1,1
2.161694270291136,11,5,-1,1
2.355404284779394,12,5,-1,1
0.061687751980196034,13,5,-1,1
-0.2811332176676077,14,5,-1,1
0.02411336297787877,15,5,-1,1
-0.16791397194948773,16,5,-1,1
1.3264465338290596,17,5,-1,1
0.2151427648348311,18,5,-1,1
0.5063707919978209,19,5,-1,1
-0.11293946974997641,20,5,-1,1
0.8479224463458882,21,5,-1,1
1.3719527630297574,22,5,-1,1
-0.27526524232371,23,5,-1,1
0.6324945247282985,24,5,-1,1
-1.2236664022605268,25,5,-1,1
-3.9273618344763133,26,5,-1,1
-2.531127032175062,27,5,-1,1
-0.6872427518897763,28,5,-1,1
-1.720213373715128,29,5,-1,1
0.55898241108394,30,5,-1,1
-0.6270078605181989,31,5,-1,1
0.14358070650477417,32,5,-1,1
-0.9538733857017958,33,5,-1,1
-3.4653676872048407,34,5,-1,1
-0.5783000988782846,35,5,-1,1
-1.0813056519762971,36,5,-1,1
-2.4335095634608868,37,5,-1,1
-0.26390300002047484,38,5,-1,1
-0.36196440220656906,39,5,-1,1
-0.3949787671594093,40,5,-1,1
1.0745655537246563,41,5,-1,1
1.88071718406891,42,5,-1,1
0.6891045950762741,43,5,-1,1
-1.0554076031914363,44,5,-1,1
-0.30061076319313057,45,5,-1,1
0.6099486663672,46,5,-1,1
-0.13279605796067898,47,5,-1,1
-0.1808958466523427,48,5,-1,1
0.6227399096230607,49,5,-1,1
1.1364592189655798,50,5,-1,1
0.04485327501562143,51,5,-1,1
0.5907007565571157,52,5,-1,1
0.33363995845254346,53,5,-1,1
-0.011581962719335594,54,5,-1,1
-0.07381467872154951,55,5,-1,1
0.07733302253685795,56,5,-1,1
-0.5314952044460657,57,5,-1,1
-0.8475171831042922,58,5,-1,1
0.3171478806133916,59,5,-1,1
0.19089808149870063,60,5,-1,1
-0.4258162202764358,61,5,-1,1
-0.27195103068418963,62,5,-1,1
-0.3876801439161554,63,5,-1,1
0.01248616627625006,0,6,-1,1
0.11914780594137458,1,6,-1,1
0.14782840644725057,2,6,-1,1
-0.7515937352353795,3,6,-1,1
-1.7402869138280392,4,6,-1,1
-0.9036919999997579,5,6,-1,1
-0.23925996111853848,6,6,-1,1
-0.020245039002258058,7,6,-1,1
-0.053071936597094305,8,6,-1,1
-0.2744674136871725,9,6,-1,1
-1.0912010574169864,10,6,-1,1
-1.2698333963778974,11,6,-1,1
-0.22604647688308277,12,6,-1,1
-0.22466234054886328,13,6,-1,1
0.07357189482848134,14,6,-1,1
-0.015214169744935583,15,6,-1,1
-0.3335268410698616,16,6,-1,1
-2.1305522251726283,17,6,-1,1
-1.502305616227427,18,6,-1,1
-1.7647970881459538,19,6,-1,1
0.06457824508788743,20,6,-1,1
0.46016551949936674,21,6,-1,1
0.15220535508540248,22,6,-1,1
0.7636237602697973,23,6,-1,1
-0.7570011773555301,24,6,-1,1
0.33797217605929997,25,6,-1,1
2.6094628480368742,26,6,-1,1
-0.9715900754360114,27,6,-1,1
-0.5215399925774147,28,6,-1,1
0.3884675388951567,29,6,-1,1
-1.5043466453864145,30,6,-1,1
0.0574619317454483,31,6,-1,1
-0.13847603351887217,32,6,-1,1
0.944470006876194,33,6,-1,1
2.64131259217015,34,6,-1,1
1.6356612285844778,35,6,-1,1
2.0317365382031283,36,6,-1,1
-0.3884040130370625,37,6,-1,1
-2.833501857496752,38,6,-1,1
-0.04006096503418023,39,6,-1,1
-0.19863920282867314,40,6,-1,1
0.9940132031535046,41,6,-1,1
-0.38061743431643036,42,6,-1,1
-2.382468379221125,43,6,-1,1
0.3090157831066592,44,6,-1,1
-1.7660049432689184,45,6,-1,1
-0.10633000559948673,46,6,-1,1
0.16464747250060802,47,6,-1,1
0.04715032760329181,48,6,-1,1
-0.7469575962767154,49,6,-1,1
-2.3070905899735785,50,6,-1,1
-2.636696062142526,51,6,-1,1
-1.7292469295879986,52,6,-1,1
0.48363789455954687,53,6,-1,1
1.1494031402661673,54,6,-1,1
-0.08693416198220653,55,6,-1,1
-0.046668887445560234,56,6,-1,1
-0.22472979916832372,57,6,-1,1
-0.46320282992826495,58,6,-1,1
0.0636123807739107,59,6,-1,1
0.23653346537649192,60,6,-1,1
0.5677502934683093,61,6,-1,1
0.3916279831728333,62,6,-1,1
0.0990595475567171,63,6,-1,1
-0.07659333029282826,0,7,-1,1
0.14573224174114352,1,7,-1,1
0.24491649004899615,2,7,-1,1
0.2772699845902723,3,7,-1,1
-0.01108855627952068,4,7,-1,1
-0.027908877574379726,5,7,-1,1
-0.03176174455907743,6,7,-1,1
-0.461728138590319,7,7,-1,1
-0.3460705662807845,8,7,-1,1
0.14581786557272322,9,7,-1,1
0.017736088502101996,10,7,-1,1
-0.2484921710503609,11,7,-1,1
-1.2336943169436747,12,7,-1,1
-0.6362344011219523,13,7,-1,1
-0.08679119351132389,14,7,-1,1
0.051577380499402685,15,7,-1,1
-0.09458684374018146,16,7,-1,1
-0.1372608567787761,17,7,-1,1
-0.5307353552964224,18,7,-1,1
-0.901073380557794,19,7,-1,1
-1.143922323284047,20,7,-1,1
-0.7956512381690339,21,7,-1,1
-0.021179346601245402,22,7,-1,1
0.17719572811345502,23,7,-1,1
-0.08924188535067581,24,7,-1,1
-0.5619782173007531,25,7,-1,1
-0.3567939064644812,26,7,-1,1
-0.16680901335135212,27,7,-1,1
-0.8941320143895957,28,7,-1,1
-0.7221128250042027,29,7,-1,1
-0.7314505127393811,30,7,-1,1
0.1562031901373734,31,7,-1,1
-0.006463554184982356,32,7,-1,1
-0.5274223066378192,33,7,-1,1
-0.3425478455562762,34,7,-1,1
-0.2408260189590364,35,7,-1,1
-1.0245510783920142,36,7,-1,1
-1.057006689227356,37,7,-1,1
-0.7591769354182492,38,7,-1,1
-0.02578318113004401,39,7,-1,1
-0.01357356026605042,40,7,-1,1
-0.08656840800659031,41,7,-1,1
-0.5619011057771526,42,7,-1,1
-1.342861226756573,43,7,-1,1
-0.7628077514489643,44,7,-1,1
-0.40018038115907567,45,7,-1,1
0.11754084555501933,46,7,-1,1
0.09183254474518227,47,7,-1,1
0.07343150178702885,48,7,-1,1
-0.08864153877721474,49,7,-1,1
-0.6127621359124505,50,7,-1,1
-1.1732529695970524,51,7,-1,1
-1.1721224504612127,52,7,-1,1
-0.520676193023772,53,7,-1,1
0.09756452482812239,54,7,-1,1
-0.1907891950467705,55,7,-1,1
-0.08508051903590454,56,7,-1,1
-0.004688291742900173,57,7,-1,1
-0.03593300728481541,58,7,-1,1
0.24502838076508704,59,7,-1,1
0.028881274169351306,60,7,-1,1
0.2796209859274227,61,7,-1,1
-0.08584985589939688,62,7,-1,1
-0.1308461455020447,63,7,-1,1
0.14053456324939853,0,8,-1,1
0.01717195822294007,1,8,-1,1
0.12418308381350644,2,8,-1,1
-0.23373097952641939,3,8,-1,1
0.27837576050538987,4,8,-1,1
-0.3103816370234482,5,8,-1,1
-0.06667923164429213,6,8,-1,1
-0.023473540773451086,7,8,-1,1
-0.027880669451024763,8,8,-1,1
0.5341345690957092,9,8,-1,1
0.043133272588536234,10,8,-1,1
-0.7782556280021777,11,8,-1,1
-1.8774149584910944,12,8,-1,1
0.9118300639950087,13,8,-1,1
0.46426785546629984,14,8,-1,1
-0.009760142896583245,15,8,-1,1
0.34704252538181934,16,8,-1,1
0.42770413134150925,17,8,-1,1
-0.9184666358659453,18,8,-1,1
-0.5288719412315993,19,8,-1,1
1.6483948588603166,20,8,-1,1
2.2582838084149124,21,8,-1,1
0.6645931006402601,22,8,-1,1
-0.4965702671798254,23,8,-1,1
0.35886893083464133,24,8,-1,1
-1.218220670354126,25,8,-1,1
-2.3942572240405817,26,8,-1,1
-0.49940375932987385,27,8,-1,1
2.0615866318371885,28,8,-1,1
-0.7825694134790693,29,8,-1,1
-1.2974883712891607,30,8,-1,1
-0.05246598045382494,31,8,-1,1
0.15906151884670314,32,8,-1,1
-0.3456653773983528,33,8,-1,1
-0.38601519245674515,34,8,-1,1
-1.030534935440791,35,8,-1,1
0.70749952341631,36,8,-1,1
0.3187774660802992,37,8,-1,1
-0.38645856490386077,38,8,-1,1
0.6220424017892066,39,8,-1,1
0.1903989694306684,40,8,-1,1
0.6977032246658993,41,8,-1,1
-0.0010199283186195572,42,8,-1,1
-0.5113285879375019,43,8,-1,1
0.48367103863884386,44,8,-1,1
-1.1223322564469638,45,8,-1,1
0.19095634519895271,46,8,-1,1
0.6749018829419782,47,8,-1,1
0.13630916200563825,48,8,-1,1
0.2458933881146507,49,8,-1,1
1.78599390240997,50,8,-1,1
0.23817520417236643,51,8,-1,1
-1.9963723220140261,52,8,-1,1
-0.5383808828813847,53,8,-1,1
0.3391769753208356,54,8,-1,1
0.1626593288925082,55,8,-1,1
0.06474750528635152,56,8,-1,1
0.019136653492544762,57,8,-1,1
0.16606464029633075,58,8,-1,1
-0.4073803479486243,59,8,-1,1
-0.4102618926622123,60,8,-1,1
-0.5162237717023156,61,8,-1,1
-0.09859850018930637,62,8,-1,1
0.08954903242458964,63,8,-1,1
-0.12369349977059657,0,9,-1,1
-0.098100518825083,1,9,-1,1
0.09316612088067153,2,9,-1,1
0.02825542976401315,3,9,-1,1
-0.3129301176781519,4,9,-1,1
0.03594573998412027,5,9,-1,1
-0.24601297952281953,6,9,-1,1
0.27825167681438895,7,9,-1,1
-0.028858159424440356,8,9,-1,1
-0.10123729248054708,9,9,-1,1
0.3366788991108355,10,9,-1,1
-0.09884783150074361,11,9,-1,1
-0.577759624402399,12,9,-1,1
-0.5269230432526119,13,9,-1,1
-0.1911922372106937,14,9,-1,1
0.10542628432469187,15,9,-1,1
-0.0069214985771968544,16,9,-1,1
-0.23807207855807136,17,9,-1,1
-0.8721966513837685,18,9,-1,1
-0.4965624043751981,19,9,-1,1
-0.8086854020087216,20,9,-1,1
-0.4885653820382335,21,9,-1,1
0.21013419701198402,22,9,-1,1
-0.5570222274084635,23,9,-1,1
0.026582710456136836,24,9,-1,1
-0.25967129772524944,25,9,-1,1
-0.7621789555890952,26,9,-1,1
-0.795994126134398,27,9,-1,1
-0.6270190782775528,28,9,-1,1
-1.1572372098243635,29,9,-1,1
-0.19357813198478765,30,9,-1,1
-0.025218089399645174,31,9,-1,1
-0.2754934136093682,32,9,-1,1
-0.03143411090077704,33,9,-1,1
-0.7357758574114951,34,9,-1,1
-0.9145220249871158,35,9,-1,1
-0.5154203750663541,36,9,-1,1
-1.4878122745675244,37,9,-1,1
-0.36165316749825394,38,9,-1,1
0.020025173129167323,39,9,-1,1
0.13802969781530666,40,9,-1,1
-0.20628924767166726,41,9,-1,1
-0.590288438921381,42,9,-1,1
-1.4241106945259643,43,9,-1,1
-1.3758576186430018,44,9,-1,1
-0.9165004410913958,45,9,-1,1
0.027700943347887585,46,9,-1,1
0.09870242020329555,47,9,-1,1
-0.09422668175508826,48,9,-1,1
0.09428624233295321,49,9,-1,1
-0.125075230391931,50,9,-1,1
-0.7281704638560869,51,9,-1,1
-0.5646531543095759,52,9,-1,1
-0.37970136582054886,53,9,-1,1
0.06571296421792303,54,9,-1,1
-0.10219305227892345,55,9,-1,1
-0.10969995805081698,56,9,-1,1
-0.08539060174310764,57,9,-1,1
-0.004266853877078823,58,9,-1,1
0.03376510951946068,59,9,-1,1
0.24277737502989102,60,9,-1,1
0.06499814703279448,61,9,-1,1
-0.07534399324426622,62,9,-1,1
-0.0974713239844347,63,9,-1,1
0.0245503688641252,0,10,-1,1
0.08758772388220402,1,10,-1,1
0.28499324088114003,2,10,-1,1
1.1688563475708333,3,10,-1,1
1.0129354055414401,4,10,-1,1
1.0176898847575366,5,10,-1,1
0.1696397249157491,6,10,-1,1
-0.03469438413315809,7,10,-1,1
-0.06582556302867137,8,10,-1,1
0.36344538025827944,9,10,-1,1
-0.15406035301048782,10,10,-1,1
0.5578037306468299,11,10,-1,1
1.4992494177742004,12,10,-1,1
0.18778332481296706,13,10,-1,1
-0.5149135323445762,14,10,-1,1
-0.40461627923665433,15,10,-1,1
0.5400574059803804,16,10,-1,1
0.024050432061049863,17,10,-1,1
-0.9131751371020964,18,10,-1,1
3.7834895694407997,19,10,-1,1
2.0639301044144136,20,10,-1,1
-1.058837427874481,21,10,-1,1
0.11061467359396907,22,10,-1,1
-1.2642593234350532,23,10,-1,1
0.41316913806873984,24,10,-1,1
-0.025308982700788588,25,10,-1,1
-1.1394483374415463,26,10,-1,1
0.00120592157834215,27,10,-1,1
2.072297190447562,28,10,-1,1
1.851406669888429,29,10,-1,1
1.5289544527683505,30,10,-1,1
-0.2057014132724768,31,10,-1,1
0.18958241425315764,32,10,-1,1
-1.1407579773539658,33,10,-1,1
-2.302163202248394,34,10,-1,1
-2.562304101364836,35,10,-1,1
-1.374408055201601,36,10,-1,1
-0.01675529018025569,37,10,-1,1
-0.12340229005588625,38,10,-1,1
0.49932089229639604,39,10,-1,1
0.31970607650335936,40,10,-1,1
-0.35876931207095425,41,10,-1,1
1.8146188020789822,42,10,-1,1
0.4371337637644861,43,10,-1,1
0.6320591468531139,44,10,-1,1
1.9503415979247773,45,10,-1,1
-0.3707958308096671,46,10,-1,1
-0.19279796029300392,47,10,-1,1
0.05910220163809579,48,10,-1,1
1.2954932224242444,49,10,-1,1
1.8108169755044596,50,10,-1,1
0.27224545901440816,51,10,-1,1
-0.795020730585031,52,10,-1,1
-1.9490492761965583,53,10,-1,1
-0.4993372002393592,54,10,-1,1
-0.07638148967307717,55,10,-1,1
0.06270087069626161,56,10,-1,1
0.20599992749864676,57,10,-1,1
1.9196989683043595,58,10,-1,1
1.9087346160241063,59,10,-1,1
1.1638549996076732,60,10,-1,1
1.878954575927091,61,10,-1,1
0.25209144709858694,62,10,-1,1
-0.04147385167468285,63,10,-1,1
-0.07128996656145854,0,11,-1,1
0.24751194991059056,1,11,-1,1
0.04676142351307505,2,11,-1,1
-0.49398596918551285,3,11,-1,1
-0.17413364497852502,4,11,-1,1
-0.6635588769705714,5,11,-1,1
-0.3883529469289277,6,11,-1,1
0.07218938574712243,7,11,-1,1
-0.0018000872568896859,8,11,-1,1
-0.6458163668818909,9,11,-1,1
-0.9291557830816516,10,11,-1,1
-1.1836417970173698,11,11,-1,1
-2.000493577733402,12,11,-1,1
-1.1302572599710408,13,11,-1,1
0.9696561842863367,14,11,-1,1
-0.0039671899586449025,15,11,-1,1
0.22227996504375358,16,11,-1,1
-0.8300550303786145,17,11,-1,1
0.5592606427238049,18,11,-1,1
1.4532261843455268,19,11,-1,1
0.7571606674884979,20,11,-1,1
-0.39892689217264976,21,11,-1,1
1.5177687519273952,22,11,-1,1
1.6600830013495378,23,11,-1,1
0.123094777851422,24,11,-1,1
-0.029849154391035426,25,11,-1,1
-0.650649122124075,26,11,-1,1
0.4041161881570606,27,11,-1,1
0.7941933299193111,28,11,-1,1
-1.364452930106984,29,11,-1,1
-0.14657908907102832,30,11,-1,1
0.9726330303964184,31,11,-1,1
0.26082942609704934,32,11,-1,1
-0.6916492543803392,33,11,-1,1
-2.0228688669258896,34,11,-1,1
-0.004394290125246237,35,11,-1,1
-0.33167441727892455,36,11,-1,1
-2.6012243993550204,37,11,-1,1
-0.8482394598967998,38,11,-1,1
-0.05297375345741073,39,11,-1,1
-0.5090957009002618,40,11,-1,1
-0.500567705270572,41,11,-1,1
0.13973119382770374,42,11,-1,1
2.5653567996459197,43,11,-1,1
-1.899042004575918,44,11,-1,1
-2.4593075042979136,45,11,-1,1
-0.5233211678309476,46,11,-1,1
0.5944161166162844,47,11,-1,1
-0.1285090335084223,48,11,-1,1
-0.8451025051832102,49,11,-1,1
0.7131325420092426,50,11,-1,1
1.1616143949327513,51,11,-1,1
-0.08183374801968729,52,11,-1,1
-0.7870584554982112,53,11,-1,1
0.49280336095967214,54,11,-1,1
-0.03057278133426439,55,11,-1,1
0.24446550955163518,56,11,-1,1
-0.5030783880771593,57,11,-1,1
-1.388255413950936,58,11,-1,1
-0.42013125165179305,59,11,-1,1
0.01407457246461123,60,11,-1,1
-0.5382147734175414,61,11,-1,1
-0.12326293985017925,62,11,-1,1
0.2349001393667779,63,11,-1,1
0.07074846511140803,0,12,-1,1
-0.21228854504612082,1,12,-1,1
-0.0036478439992344907,2,12,-1,1
1.352006610028159,3,12,-1,1
1.4128810365028042,4,12,-1,1
1.196506436205122,5,12,-1,1
0.5474459080221463,6,12,-1,1
-0.3022775041825519,7,12,-1,1
-0.3253741933261983,8,12,-1,1
-0.4369988325520732,9,12,-1,1
0.5739144144729126,10,12,-1,1
-0.7691870685276777,11,12,-1,1
-1.764252074644301,12,12,-1,1
-1.2234021282540408,13,12,-1,1
-0.9887644668600796,14,12,-1,1
-0.24637769247241742,15,12,-1,1
0.13520956485247287,16,12,-1,1
0.05167783128006075,17,12,-1,1
2.478197691242756,18,12,-1,1
0.7338434584211764,19,12,-1,1
-1.4721525630887626,20,12,-1,1
-2.987370815173657,21,12,-1,1
-1.848249091948059,22,12,-1,1
0.6053755316606151,23,12,-1,1
-0.03257797875643467,24,12,-1,1
0.235953105140332,25,12,-1,1
-1.5514733032913812,26,12,-1,1
-1.672243778079909,27,12,-1,1
-0.27500449073209565,28,12,-1,1
0.9215236055827347,29,12,-1,1
0.3534206045379527,30,12,-1,1
0.6802065404446366,31,12,-1,1
0.09494114296955772,32,12,-1,1
-2.1844570501307463,33,12,-1,1
-2.2188760042632145,34,12,-1,1
-0.12008239734561758,35,12,-1,1
-0.024676209467071723,36,12,-1,1
0.877563537183638,37,12,-1,1
0.6937493279860479,38,12,-1,1
0.08001510396699595,39,12,-1,1
-0.08895054374454471,40,12,-1,1
-2.1641241646099756,41,12,-1,1
0.3709972334766764,42,12,-1,1
2.33314687237656,43,12,-1,1
0.30732165772709547,44,12,-1,1
-0.789932708426925,45,12,-1,1
-1.1425726039510724,46,12,-1,1
0.05983875628870563,47,12,-1,1
-0.3006828238766016,48,12,-1,1
-0.4758037962961498,49,12,-1,1
-1.0423587768511322,50,12,-1,1
-0.01947279343834315,51,12,-1,1
-0.36391332286094985,52,12,-1,1
-3.572843617469358,53,12,-1,1
-0.9375007780257973,54,12,-1,1
0.13843836207900456,55,12,-1,1
-0.0033823681912827164,56,12,-1,1
-0.2467685216729643,57,12,-1,1
0.27027836772796565,58,12,-1,1
0.6356292455479196,59,12,-1,1
0.5897649005478091,60,12,-1,1
-0.1332961036984987,61,12,-1,1
-0.26264341773855354,62,12,-1,1
0.017425690268506818,63,12,-1,1
-0.005606222625124814,0,13,-1,1
0.20908670774243934,1,13,-1,1
0.40958966310728584,2,13,-1,1
1.1276444121666898,3,13,-1,1
1.6753358565620704,4,13,-1,1
1.4348034929620648,5,13,-1,1
0.626397248000896,6,13,-1,1
-0.21154031097505477,7,13,-1,1
-0.14543841397644994,8,13,-1,1
0.327033028390845,9,13,-1,1
1.7393058019761314,10,13,-1,1
1.219377037009853,11,13,-1,1
1.5353634662818192,12,13,-1,1
1.5999407820984588,13,13,-1,1
0.442821678903948,14,13,-1,1
0.05661299935443701,15,13,-1,1
0.24945034266102822,16,13,-1,1
1.2054412230802318,17,13,-1,1
0.2691624857953831,18,13,-1,1
0.3216861042062576,19,13,-1,1
-0.4476679375467591,20,13,-1,1
-2.1190031852667777,21,13,-1,1
-1.90866923224302,22,13,-1,1
-0.9999573393635464,23,13,-1,1
0.5944834413490613,24,13,-1,1
-0.6187163746717822,25,13,-1,1
-1.9863139603144901,26,13,-1,1
-2.7675152475208167,27,13,-1,1
2.652363505200992,28,13,-1,1
-0.42235580098497416,29,13,-1,1
-0.3004339123253972,30,13,-1,1
-0.8331239202686498,31,13,-1,1
0.019045485502163485,32,13,-1,1
-1.0930687792169171,33,13,-1,1
-1.4002307474844322,34,13,-1,1
-0.3276693530278098,35,13,-1,1
1.3830874286249815,36,13,-1,1
-0.9340539623017705,37,13,-1,1
0.8339040912679231,38,13,-1,1
-0.18492341066900958,39,13,-1,1
0.14396836078996905,40,13,-1,1
-0.7052874171916984,41,13,-1,1
0.6883220759274151,42,13,-1,1
1.5070887987675385,43,13,-1,1
0.18233672447152505,44,13,-1,1
2.0040198931397,45,13,-1,1
0.02278779215714288,46,13,-1,1
-0.30557704040611167,47,13,-1,1
-0.14265375077106046,48,13,-1,1
1.3090919921969058,49,13,-1,1
2.0616896692827944,50,13,-1,1
0.06566271637222326,51,13,-1,1
1.811480955437128,52,13,-1,1
1.2169127730965659,53,13,-1,1
-0.23612547323924846,54,13,-1,1
-0.16990916016219307,55,13,-1,1
0.025537600993877013,56,13,-1,1
0.22537519171466808,57,13,-1,1
0.6110426418059681,58,13,-1,1
0.15386713333867225,59,13,-1,1
-1.1406390648509956,60,13,-1,1
0.021086666642798603,61,13,-1,1
-0.20164080459564285,62,13,-1,1
0.108528554768294,63,13,-1,1
-0.3823255959252021,0,14,-1,1
-0.06224054710490522,1,14,-1,1
0.14956848961279376,2,14,-1,1
-0.07024370985600457,3,14,-1,1
-0.2659170183976915,4,14,-1,1
-0.040021238522239475,5,14,-1,1
-0.10855989615657495,6,14,-1,1
-0.13566545339128996,7,14,-1,1
-0.059227982030373064,8,14,-1,1
-0.30494006209812297,9,14,-1,1
-0.2078833418610706,10,14,-1,1
-0.9246204324967064,11,14,-1,1
-1.0958606698911595,12,14,-1,1
-0.8263810059254101,13,14,-1,1
-0.015210405691862789,14,14,-1,1
0.14991032653789263,15,14,-1,1
-0.13449312936790145,16,14,-1,1
-0.3147801575784338,17,14,-1,1
-0.8053103929966275,18,14,-1,1
-0.7250978175603757,19,14,-1,1
-1.00517030316598,20,14,-1,1
-0.7703683402428629,21,14,-1,1
-0.12482043283862525,22,14,-1,1
0.07933946016810418,23,14,-1,1
0.14563608483072804,24,14,-1,1
-0.18758519581768363,25,14,-1,1
-0.03844899746497064,26,14,-1,1
-0.5854553081334737,27,14,-1,1
-0.6908267412317989,28,14,-1,1
-0.44437317090986345,29,14,-1,1
-0.8138070959475998,30,14,-1,1
0.2785026503144994,31,14,-1,1
0.03655852652179454,32,14,-1,1
-0.19819337343751986,33,14,-1,1
-0.8753956471507247,34,14,-1,1
-0.8519577311128254,35,14,-1,1
-0.49982032196435416,36,14,-1,1
-0.9196438800678766,37,14,-1,1
-0.9337598820457769,38,14,-1,1
0.17782153802760564,39,14,-1,1
-0.0003194701928515262,40,14,-1,1
-0.06836073403503957,41,14,-1,1
-0.6297607120561485,42,14,-1,1
-1.175176672698659,43,14,-1,1
-0.8748869390327566,44,14,-1,1
-1.4475330585010628,45,14,-1,1
-0.3601601177955381,46,14,-1,1
0.28823311071525853,47,14,-1,1
-0.0948235212634373,48,14,-1,1
-0.1759985422688615,49,14,-1,1
-0.6458977598668514,50,14,-1,1
-1.0035838744993928,51,14,-1,1
-0.9363025840861109,52,14,-1,1
-0.6946089376914553,53,14,-1,1
0.14838194867383284,54,14,-1,1
0.023627109220417872,55,14,-1,1
0.12375557400714156,56,14,-1,1
-0.21341096270907117,57,14,-1,1
0.13700302567061393,58,14,-1,1
0.2458342906867297,59,14,-1,1
0.06186149509698802,60,14,-1,1
0.22104472757880805,61,14,-1,1
-0.18233023918499647,62,14,-1,1
-0.11308883586826504,63,14,-1,1
-0.18509310405825946,0,15,-1,1
-0.19448386037741924,1,15,-1,1
0.2284696175931657,2,15,-1,1
-0.060460426563131726,3,15,-1,1
-0.38495946577418605,4,15,-1,1
-0.32285768600157594,5,15,-1,1
-0.07956326593986247,6,15,-1,1
-0.08032622211433317,7,15,-1,1
-0.13666401245730236,8,15,-1,1
-0.35499959265232645,9,15,-1,1
-0.25503984671934243,10,15,-1,1
1.7699613029696728,11,15,-1,1
1.9791332218092557,12,15,-1,1
1.2390705548779086,13,15,-1,1
-0.643830740881902,14,15,-1,1
-0.513892270897669,15,15,-1,1
-0.146353703300888,16,15,-1,1
-0.13118209333920122,17,15,-1,1
1.3639235922574369,18,15,-1,1
-1.3741047863937106,19,15,-1,1
0.007377256555558837,20,15,-1,1
0.9716739168530646,21,15,-1,1
2.76077999469639,22,15,-1,1
1.9910644519558878,23,15,-1,1
-0.5000440810261887,24,15,-1,1
-0.8315957622776706,25,15,-1,1
-0.4631028954977045,26,15,-1,1
0.1447568421817261,27,15,-1,1
-0.9937597834469022,28,15,-1,1
-3.0228444486474633,29,15,-1,1
0.7183931666405206,30,15,-1,1
1.4716672896979146,31,15,-1,1
0.09460833771522831,32,15,-1,1
-1.715681062748552,33,15,-1,1
-1.8160853892898967,34,15,-1,1
1.6073960116440023,35,15,-1,1
-3.4175079132740582,36,15,-1,1
-4.269042365170202,37,15,-1,1
-1.3373999627046906,38,15,-1,1
0.4394498727406868,39,15,-1,1
-0.14035043562591354,40,15,-1,1
2.7984547397630544,41,15,-1,1
4.01273779164248,42,15,-1,1
-0.37743854198476534,43,15,-1,1
-1.1330371535615904,44,15,-1,1
2.8579694481083133,45,15,-1,1
2.4568581896774933,46,15,-1,1
0.5391815948276344,47,15,-1,1
-0.14963016759218475,48,15,-1,1
0.8183064094841659,49,15,-1,1
3.3938865532717037,50,15,-1,1
3.547539559973327,51,15,-1,1
2.4442306056147096,52,15,-1,1
1.455923522108102,53,15,-1,1
0.7202499129163128,54,15,-1,1
-0.15169868122081634,55,15,-1,1
0.13077208372964436,56,15,-1,1
-0.9334948334547208,57,15,-1,1
-2.2512270084820356,58,15,-1,1
-1.350606529462892,59,15,-1,1
0.060232031550853916,60,15,-1,1
-0.9597721442394817,61,15,-1,1
-0.36351117875071376,62,15,-1,1
-0.06649104994122054,63,15,-1,1
-0.013707893337776892,0,16,-1,1
0.1279465784084104,1,16,-1,1
-0.15715289952408884,2,16,-1,1
-0.6505761073266986,3,16,-1,1
-0.825743739731527,4,16,-1,1
-0.792224228470574,5,16,-1,1
-0.4351830930649892,6,16,-1,1
-0.03049656162131555,7,16,-1,1
0.13713269499294609,8,16,-1,1
-0.6037268482583349,9,16,-1,1
-0.4349140540558299,10,16,-1,1
-0.9060268842296548,11,16,-1,1
-0.5592931212666363,12,16,-1,1
0.13525424463456182,13,16,-1,1
1.2239958504076263,14,16,-1,1
0.6832057547444311,15,16,-1,1
-0.41437386868957277,16,16,-1,1
-0.5809246034831451,17,16,-1,1
-0.10358842047616654,18,16,-1,1
-0.13739645254782124,19,16,-1,1
-2.8073989030117663,20,16,-1,1
-1.197311885659583,21,16,-1,1
1.099462845396125,22,16,-1,1
2.29268813815237,23,16,-1,1
-0.34770331453054415,24,16,-1,1
-0.3919586151131196,25,16,-1,1
-0.1259800141390177,26,16,-1,1
2.3621954106863523,27,16,-1,1
-2.1838397897970845,28,16,-1,1
-2.904832255654479,29,16,-1,1
-3.3457301248532714,30,16,-1,1
0.08511487890725411,31,16,-1,1
-0.39442382408201604,32,16,-1,1
0.1836960078540101,33,16,-1,1
-0.1521507162226288,34,16,-1,1
1.5606653025636084,35,16,-1,1
1.0675177573625505,36,16,-1,1
-0.43956483698246906,37,16,-1,1
-0.9358582553742137,38,16,-1,1
-0.3954760725177569,39,16,-1,1
-0.3333136197340867,40,16,-1,1
0.5610619630777224,41,16,-1,1
-0.14199389305271767,42,16,-1,1
1.9977573867926748,43,16,-1,1
1.2273540957826994,44,16,-1,1
0.6359999222419436,45,16,-1,1
1.5140077096627085,46,16,-1,1
0.8065740257968975,47,16,-1,1
0.1422123995164965,48,16,-1,1
-0.9470633607647252,49,16,-1,1
-0.30876927475756294,50,16,-1,1
-0.3871411663507271,51,16,-1,1
0.6112624694520513,52,16,-1,1
2.2436592585376807,53,16,-1,1
1.4545246803231646,54,16,-1,1
0.0813748307561825,55,16,-1,1
0.13305136251373598,56,16,-1,1
-0.7074212733546428,57,16,-1,1
-1.5153988268908902,58,16,-1,1
-1.5599774208543418,59,16,-1,1
-1.9342493843132986,60,16,-1,1
-1.78417857986338,61,16,-1,1
-0.18257596311543217,62,16,-1,1
-0.1722620054093638,63,16,-1,1
-0.0052215336340008705,0,17,-1,1
-0.15811330434598955,1,17,-1,1
0.49464003332074136,2,17,-1,1
1.0690415761217256,3,17,-1,1
0.11259778417903187,4,17,-1,1
-0.08874704008679542,5,17,-1,1
0.24645130215876174,6,17,-1,1
-0.08017075262262344,7,17,-1,1
-0.025876669721612153,8,17,-1,1
-0.14386893665868974,9,17,-1,1
-0.2264293465949198,10,17,-1,1
0.617044265444892,11,17,-1,1
0.324626530665566,12,17,-1,1
-1.1422984112503103,13,17,-1,1
-1.289725658990875,14,17,-1,1
-0.15107622708175605,15,17,-1,1
-0.016040196616407057,16,17,-1,1
-0.6791521283601107,17,17,-1,1
-0.8340871994659231,18,17,-1,1
-0.20433158593115108,19,17,-1,1
-0.21930633980658193,20,17,-1,1
-2.129077540561292,21,17,-1,1
-0.5306956744274075,22,17,-1,1
0.2015808106826955,23,17,-1,1
-0.08841318347042385,24,17,-1,1
0.8136973608355649,25,17,-1,1
0.16845224094591094,26,17,-1,1
-1.9176119765856365,27,17,-1,1
-0.9139866664941529,28,17,-1,1
-0.48793849731028754,29,17,-1,1
0.5071699331724391,30,17,-1,1
-0.01733461358889111,31,17,-1,1
-0.009221918791151622,32,17,-1,1
-1.4948753046425163,33,17,-1,1
-1.7562763719951704,34,17,-1,1
-0.8303933092734884,35,17,-1,1
-1.9743575255514692,36,17,-1,1
-2.332641491842171,37,17,-1,1
-1.022219320030749,38,17,-1,1
0.24343118814396078,39,17,-1,1
-0.08560306809545595,40,17,-1,1
-0.004118817929458079,41,17,-1,1
0.2046114711339038,42,17,-1,1
-0.8348629700988385,43,17,-1,1
-1.5479872434840152,44,17,-1,1
-0.48421854890448374,45,17,-1,1
0.6225428530545791,46,17,-1,1
0.19454621755180862,47,17,-1,1
-0.14059357611758344,48,17,-1,1
0.03234165274067892,49,17,-1,1
-0.42910258253784217,50,17,-1,1
-1.1917970359624435,51,17,-1,1
-1.0908104628087596,52,17,-1,1
-0.7653491869111497,53,17,-1,1
-0.04395593804843372,54,17,-1,1
-0.1794648635556383,55,17,-1,1
-0.2325219613935525,56,17,-1,1
-0.29872390554892,57,17,-1,1
0.165831301758313,58,17,-1,1
0.610752843395534,59,17,-1,1
0.8729119709805973,60,17,-1,1
1.2419482601194263,61,17,-1,1
0.06256468869654726,62,17,-1,1
-0.07146653113416863,63,17,-1,1
-0.008992963200834057,0,18,-1,1
-0.07929477585167083,1,18,-1,1
0.04803857729844946,2,18,-1,1
0.4027951307881436,3,18,-1,1
-0.2646228242233469,4,18,-1,1
-0.17841160640285691,5,18,-1,1
-0.17130335019873436,6,18,-1,1
0.17430768324519977,7,18,-1,1
0.05171960411217252,8,18,-1,1
0.0658125196717027,9,18,-1,1
-0.9008792264799325,10,18,-1,1
-0.6957198180628351,11,18,-1,1
-1.3867142707818916,12,18,-1,1
-2.3188450621248315,13,18,-1,1
-0.9623683365693233,14,18,-1,1
-0.0034219265497592083,15,18,-1,1
-0.055091417100261435,16,18,-1,1
-0.9500484493749075,17,18,-1,1
-0.6164712806794065,18,18,-1,1
-0.27527596811994054,19,18,-1,1
0.5597015522534787,20,18,-1,1
-0.46983348294357613,21,18,-1,1
-0.015309685063128584,22,18,-1,1
0.48107258272741016,23,18,-1,1
0.10170375378372624,24,18,-1,1
-0.47360800713079926,25,18,-1,1
0.572552905297728,26,18,-1,1
0.4277224188171979,27,18,-1,1
2.0212198869733204,28,18,-1,1
-1.6613135211763521,29,18,-1,1
-0.6258683456399636,30,18,-1,1
0.6322875152381512,31,18,-1,1
0.3609453439275431,32,18,-1,1
-0.21146520600442054,33,18,-1,1
-0.0029551433077670544,34,18,-1,1
1.0225509372894528,35,18,-1,1
0.22176584503361604,36,18,-1,1
-2.2279416189151897,37,18,-1,1
0.560250764127749,38,18,-1,1
0.7045618429185959,39,18,-1,1
-0.16760266616928451,40,18,-1,1
1.0163616138508909,41,18,-1,1
0.03170877450581938,42,18,-1,1
0.6095948643294158,43,18,-1,1
-1.0428473848799942,44,18,-1,1
-0.7354848189599137,45,18,-1,1
1.4647597922338447,46,18,-1,1
0.47154939401261264,47,18,-1,1
0.16934747043200446,48,18,-1,1
0.10654386442543663,49,18,-1,1
-1.4736746820927047,50,18,-1,1
-2.849793828070177,51,18,-1,1
-2.774310316907606,52,18,-1,1
-0.908584230441068,53,18,-1,1
0.0652269927088687,54,18,-1,1
0.0030196558555790265,55,18,-1,1
0.008003144742250428,56,18,-1,1
0.1337044028103534,57,18,-1,1
-0.0700448298694347,58,18,-1,1
-0.3322630760096806,59,18,-1,1
0.47250243361896027,60,18,-1,1
0.3083220957631424,61,18,-1,1
0.3367486815646444,62,18,-1,1
0.14059579972317743,63,18,-1,1
0.056851132852959715,0,19,-1,1
0.3089558283553333,1,19,-1,1
-0.03345258435254319,2,19,-1,1
-0.03129338500139573,3,19,-1,1
1.094166944705063,4,19,-1,1
0.34463027520116823,5,19,-1,1
-0.021254933866746827,6,19,-1,1
0.015925330177916936,7,19,-1,1
0.14888285734698564,8,19,-1,1
-1.1853514976624482,9,19,-1,1
-1.2673207574135235,10,19,-1,1
-2.2793886178260796,11,19,-1,1
-2.601692247785961,12,19,-1,1
1.3334430107279884,13,19,-1,1
2.211448966389016,14,19,-1,1
0.5935631821178222,15,19,-1,1
0.08510337408679892,16,19,-1,1
-0.6381848077465548,17,19,-1,1
0.6515513079859847,18,19,-1,1
1.704843807273644,19,19,-1,1
-1.833416127987955,20,19,-1,1
0.43375681158347446,21,19,-1,1
0.11519645202542374,22,19,-1,1
1.6120610784851945,23,19,-1,1
0.15768510801916447,24,19,-1,1
1.7537417098729435,25,19,-1,1
2.199704432692358,26,19,-1,1
2.0803178501644255,27,19,-1,1
-1.7975027407987365,28,19,-1,1
-0.18316783533187328,29,19,-1,1
-3.7483258094474667,30,19,-1,1
-0.2839704872599659,31,19,-1,1
0.43644845706942803,32,19,-1,1
-1.4631100520061817,33,19,-1,1
-1.7727158049445617,34,19,-1,1
-3.9425347626591747,35,19,-1,1
-2.5401612201883,36,19,-1,1
0.01299125495839025,37,19,-1,1
-0.8918242210026276,38,19,-1,1
-0.5232903957956802,39,19,-1,1
0.22770441479154743,40,19,-1,1
-1.0030954114083734,41,19,-1,1
-2.1628423819047056,42,19,-1,1
-0.7791044281663341,43,19,-1,1
-0.6586751115979784,44,19,-1,1
-0.33422373587583426,45,19,-1,1
-0.8874436201904967,46,19,-1,1
0.319521715278118,47,19,-1,1
-0.05586737973725911,48,19,-1,1
-0.448809461526567,49,19,-1,1
0.228621981194773,50,19,-1,1
0.6784127365803757,51,19,-1,1
0.6383608348057068,52,19,-1,1
0.5447145883776303,53,19,-1,1
-0.2135495496489169,54,19,-1,1
0.45756156725365354,55,19,-1,1
-0.1156689400955444,56,19,-1,1
0.26609715021200336,57,19,-1,1
0.189836420781892,58,19,-1,1
0.30693247296619824,59,19,-1,1
0.45475673019087803,60,19,-1,1
-0.1224073377000143,61,19,-1,1
0.07942076347727052,62,19,-1,1
-0.11550556438614996,63,19,-1,1
0.21140986260845177,0,20,-1,1
-0.10915690534041043,1,20,-1,1
-0.10215744910232923,2,20,-1,1
0.19101663414666845,3,20,-1,1
0.2549115693805166,4,20,-1,1
0.14390246210566643,5,20,-1,1
-0.23897076181581306,6,20,-1,1
0.12696056931185123,7,20,-1,1
-0.01890228054818788,8,20,-1,1
0.008628892330546103,9,20,-1,1
0.29841838304928786,10,20,-1,1
-0.4079848024788588,11,20,-1,1
-1.351373175050299,12,20,-1,1
-1.1436083304970601,13,20,-1,1
-0.14060272627172837,14,20,-1,1
0.0907142009400941,15,20,-1,1
0.2576182545745307,16,20,-1,1
0.07848112740131577,17,20,-1,1
-0.12671561295760753,18,20,-1,1
-0.3846379356850738,19,20,-1,1
-0.7437976865255587,20,20,-1,1
-0.4104561961367232,21,20,-1,1
0.1651885723869017,22,20,-1,1
-0.44296921247765386,23,20,-1,1
0.19395914604134487,24,20,-1,1
0.05656749002990776,25,20,-1,1
-0.47162349459304914,26,20,-1,1
-0.22967914087591346,27,20,-1,1
-0.16996106550603501,28,20,-1,1
-0.3788913441043447,29,20,-1,1
0.3943764286753459,30,20,-1,1
0.12908405817836127,31,20,-1,1
-0.17116028040112274,32,20,-1,1
0.152954938998693,33,20,-1,1
-0.5589276283293926,34,20,-1,1
-1.245785289184506,35,20,-1,1
-0.9194170462697994,36,20,-1,1
-0.1393085045055661,37,20,-1,1
0.06340132925758092,38,20,-1,1
0.44500454680023044,39,20,-1,1
0.11709549984558013,40,20,-1,1
-0.1437645843981035,41,20,-1,1
-0.9469412877394767,42,20,-1,1
-1.7702872720887204,43,20,-1,1
-1.5049225856072568,44,20,-1,1
-0.81868754136924,45,20,-1,1
0.2668682048186327,46,20,-1,1
0.19468819931150877,47,20,-1,1
-0.10190678513036462,48,20,-1,1
0.19898322503311758,49,20,-1,1
-0.2944541888499403,50,20,-1,1
-1.5745870500005117,51,20,-1,1
-1.1051786620513202,52,20,-1,1
-0.27873563427571635,53,20,-1,1
0.01300285282461919,54,20,-1,1
-0.181694670698415,55,20,-1,1
-0.3619480016740225,56,20,-1,1
0.10393387362688847,57,20,-1,1
0.33028962971302644,58,20,-1,1
0.5357516557128492,59,20,-1,1
0.6079805653849104,60,20,-1,1
0.5591125801676088,61,20,-1,1
-0.07787932679738022,62,20,-1,1
0.017225053430106625,63,20,-1,1
-0.19079594241767012,0,21,-1,1
-0.1318969184512201,1,21,-1,1
-0.10799065363864686,2,21,-1,1
-0.1850690880838063,3,21,-1,1
-0.5017714107657593,4,21,-1,1
-0.6254412575030246,5,21,-1,1
-0.4298263231247594,6,21,-1,1
0.002160382185817541,7,21,-1,1
-0.12668569316970715,8,21,-1,1
0.11393201699444112,9,21,-1,1
0.16712946267621062,10,21,-1,1
2.0634788672395232,11,21,-1,1
3.321583939289016,12,21,-1,1
2.5502703340099924,13,21,-1,1
1.2375698665997492,14,21,-1,1
-0.055731270708468325,15,21,-1,1
-0.5431950237325857,16,21,-1,1
-0.29881266021110076,17,21,-1,1
-1.8656517856226915,18,21,-1,1
0.4201861559185397,19,21,-1,1
-1.6032231726597503,20,21,-1,1
-2.7635375914670215,21,21,-1,1
-1.6761432230213005,22,21,-1,1
-1.0110592147115367,23,21,-1,1
-0.9161359645502818,24,21,-1,1
-0.536484675045019,25,21,-1,1
-0.18974637187865995,26,21,-1,1
2.393440585177666,27,21,-1,1
-1.207754006886636,28,21,-1,1
0.18779039993896524,29,21,-1,1
0.274003731541602,30,21,-1,1
-0.4380399438977156,31,21,-1,1
-0.4769550177705376,32,21,-1,1
0.3751707286383507,33,21,-1,1
1.3616259598620448,34,21,-1,1
3.13021695188073,35,21,-1,1
1.013880870210335,36,21,-1,1
0.38254917332710076,37,21,-1,1
0.8379583951173143,38,21,-1,1
0.10491139415192491,39,21,-1,1
0.14937636272071356,40,21,-1,1
-0.45208164338380036,41,21,-1,1
1.110285725265407,42,21,-1,1
-1.1501433976604054,43,21,-1,1
0.6612883182372068,44,21,-1,1
1.9976846677433433,45,21,-1,1
0.9698145116723595,46,21,-1,1
-0.29394045831651033,47,21,-1,1
-0.17731371280134078,48,21,-1,1
0.18821279284881748,49,21,-1,1
0.49218800008531827,50,21,-1,1
0.6389289208209546,51,21,-1,1
1.390378203098176,52,21,-1,1
1.637457180556627,53,21,-1,1
0.24304285088772137,54,21,-1,1
-0.2155347600312758,55,21,-1,1
0.008348640215994376,56,21,-1,1
-0.03145669682620346,57,21,-1,1
0.11477857887631421,58,21,-1,1
-0.3075430823860582,59,21,-1,1
-1.125562642611824,60,21,-1,1
-0.10113020095120996,61,21,-1,1
0.061457385986652936,62,21,-1,1
-0.27915931820768697,63,21,-1,1
0.12845821629153506,0,22,-1,1
-0.19486755832982894,1,22,-1,1
-0.28096842300863817,2,22,-1,1
0.07620493694621018,3,22,-1,1
-0.05182986092613216,4,22,-1,1
0.17423116940309924,5,22,-1,1
-0.18316849750441155,6,22,-1,1
0.053266914986577804,7,22,-1,1
-0.2806580671360248,8,22,-1,1
-0.20030313901698565,9,22,-1,1
0.6298803563715303,10,22,-1,1
-0.5470278059397259,11,22,-1,1
-0.5058011126097047,12,22,-1,1
-0.6830974252530806,13,22,-1,1
-0.42203091750729094,14,22,-1,1
-0.1605183744823069,15,22,-1,1
-0.09969051132671687,16,22,-1,1
-0.25900155861159746,17,22,-1,1
-0.31607386016277284,18,22,-1,1
-1.5042830077267855,19,22,-1,1
-1.4659170878624952,20,22,-1,1
-0.8648200060174406,21,22,-1,1
-0.8197558153980187,22,22,-1,1
-0.17980009920857096,23,22,-1,1
-0.06845942816469523,24,22,-1,1
-0.49782274655914005,25,22,-1,1
-0.48929535940226726,26,22,-1,1
-0.19293699308014572,27,22,-1,1
-2.1602759986655995,28,22,-1,1
0.5110311527824798,29,22,-1,1
-0.9683134164788665,30,22,-1,1
-0.25214919257165347,31,22,-1,1
-0.12213732288141858,32,22,-1,1
-0.808413548399547,33,22,-1,1
-0.0017422620341390476,34,22,-1,1
-0.6599439302751682,35,22,-1,1
-1.0789431269205465,36,22,-1,1
1.0865836605245713,37,22,-1,1
-1.0331768657898062,38,22,-1,1
-0.3574137718860432,39,22,-1,1
0.2627842440994204,40,22,-1,1
-0.9753806020040201,41,22,-1,1
-0.946951176807692,42,22,-1,1
-2.0784963979711373,43,22,-1,1
-1.5557614334152023,44,22,-1,1
-0.33569290855495526,45,22,-1,1
-0.5782338885293237,46,22,-1,1
-0.29459098695314667,47,22,-1,1
0.0322891815334336,48,22,-1,1
-0.3696456433148069,49,22,-1,1
-1.3972422743470716,50,22,-1,1
-0.718202754618689,51,22,-1,1
-1.4179876009980787,52,22,-1,1
-0.801131238567432,53,22,-1,1
0.14972433703141136,54,22,-1,1
-0.21476352315636982,55,22,-1,1
-0.0772327005019081,56,22,-1,1
-0.18337981279362472,57,22,-1,1
0.7353632278739008,58,22,-1,1
0.36248118853011674,59,22,-1,1
0.3640384979117452,60,22,-1,1
-0.11228492058225775,61,22,-1,1
0.09727178672477738,62,22,-1,1
-0.17380838670446733,63,22,-1,1
-0.07871719036204357,0,23,-1,1
-0.044465627929069065,1,23,-1,1
-0.1644648903326225,2,23,-1,1
0.09982585886871681,3,23,-1,1
-0.1336260354919208,4,23,-1,1
-0.0027015970862554165,5,23,-1,1
-0.04891487013331126,6,23,-1,1
0.040348523896440086,7,23,-1,1
0.017026102508284846,8,23,-1,1
-0.18324619729201266,9,23,-1,1
0.15836793108573768,10,23,-1,1
-0.7987514080792849,11,23,-1,1
-0.8242377849082876,12,23,-1,1
-0.7099411351498747,13,23,-1,1
-0.13687948251024795,14,23,-1,1
-0.006947452899207449,15,23,-1,1
-0.027860035010509585,16,23,-1,1
-0.34695306166611084,17,23,-1,1
-0.4427706444352093,18,23,-1,1
-1.1139350653142832,19,23,-1,1
-0.8543675912018386,20,23,-1,1
-0.2302735318129381,21,23,-1,1
-0.11330898204505295,22,23,-1,1
-0.09647705092348635,23,23,-1,1
0.16773709629254566,24,23,-1,1
-0.07555067855399543,25,23,-1,1
-0.5083616738701222,26,23,-1,1
-0.9374263442455396,27,23,-1,1
-0.464701346982622,28,23,-1,1
-0.3577360790122487,29,23,-1,1
-0.2485913188150524,30,23,-1,1
-0.22657746496762463,31,23,-1,1
0.11013731530568621,32,23,-1,1
-0.37481739129673847,33,23,-1,1
-0.9536582841499385,34,23,-1,1
-1.003074573605227,35,23,-1,1
-1.0751748842067612,36,23,-1,1
-0.9812834527349455,37,23,-1,1
-0.5361506513240154,38,23,-1,1
-0.10352587945659436,39,23,-1,1
-0.2398723063350839,40,23,-1,1
-0.1688565646594142,41,23,-1,1
-0.6190891245378225,42,23,-1,1
-0.9050324375423805,43,23,-1,1
-1.127259500479467,44,23,-1,1
-0.610095429599902,45,23,-1,1
-0.12225216522999581,46,23,-1,1
0.04346581618366845,47,23,-1,1
-0.24193487908708647,48,23,-1,1
0.0578614382214454,49,23,-1,1
-0.3232571881854505,50,23,-1,1
-1.1987140941378986,51,23,-1,1
-1.13931410044473,52,23,-1,1
-0.030288152297363778,53,23,-1,1
0.3262247996129862,54,23,-1,1
0.08422151370998687,55,23,-1,1
0.007940062926837549,56,23,-1,1
0.18445364223324176,57,23,-1,1
0.05416180607966619,58,23,-1,1
0.05642891898392588,59,23,-1,1
0.05407566283305401,60,23,-1,1
0.293280306203562,61,23,-1,1
0.27964206748082937,62,23,-1,1
0.07985103404398962,63,23,-1,1
0.07292478425821862,0,24,-1,1
-0.23011414107269285,1,24,-1,1
-0.5311019392387074,2,24,-1,1
-0.9141076730386664,3,24,-1,1
-0.45158140955831483,4,24,-1,1
-0.4120129292463802,5,24,-1,1
-0.12080225015228359,6,24,-1,1
-0.4373564384684023,7,24,-1,1
-0.11510776076450195,8,24,-1,1
0.5935062659464982,9,24,-1,1
2.3452059094240587,10,24,-1,1
1.5710785945297383,11,24,-1,1
-0.023419754136932987,12,24,-1,1
1.2387728909161626,13,24,-1,1
2.1822525562308046,14,24,-1,1
0.9019007526943346,15,24,-1,1
-0.3896236862393576,16,24,-1,1
0.24383064860838358,17,24,-1,1
-0.6101786213893962,18,24,-1,1
0.2318571366066854,19,24,-1,1
0.5773921295948002,20,24,-1,1
-1.4960670973113328,21,24,-1,1
0.18940213323614963,22,24,-1,1
0.8675565743904922,23,24,-1,1
-0.1125664686818211,24,24,-1,1
-0.14976961379360598,25,24,-1,1
-0.5861497256044682,26,24,-1,1
-0.09777840063427165,27,24,-1,1
-1.3897291336573414,28,24,-1,1
-2.0226876563504885,29,24,-1,1
-5.844448095473705,30,24,-1,1
-1.2394572924141845,31,24,-1,1
0.7907280848557264,32,24,-1,1
-3.5630827642246476,33,24,-1,1
-3.4197808495704973,34,24,-1,1
0.5633772246261052,35,24,-1,1
-1.400629714180668,36,24,-1,1
1.2102615631714977,37,24,-1,1
0.9195576068317681,38,24,-1,1
-0.41988569464011866,39,24,-1,1
1.1237387716389893,40,24,-1,1
-1.4328015946985768,41,24,-1,1
-5.561807811290065,42,24,-1,1
-6.153197680556264,43,24,-1,1
-0.14475578177181372,44,24,-1,1
1.201700076277005,45,24,-1,1
1.873769594345586,46,24,-1,1
0.32230410434293133,47,24,-1,1
0.4051648879881088,48,24,-1,1
1.2065709833546903,49,24,-1,1
3.486322237127289,50,24,-1,1
3.8248313358082826,51,24,-1,1
1.672072162881899,52,24,-1,1
1.0511146181164812,53,24,-1,1
-0.037020619290491615,54,24,-1,1
-0.3676788179574101,55,24,-1,1
0.00835248353493209,56,24,-1,1
0.2827130381017275,57,24,-1,1
-0.3742662364069575,58,24,-1,1
-1.6970640389585048,59,24,-1,1
0.01663747952393962,60,24,-1,1
-1.0514060310205142,61,24,-1,1
-0.40028192748376923,62,24,-1,1
-0.0450038223043224,63,24,-1,1
0.0683093493051844,0,25,-1,1
-0.099885997152603,1,25,-1,1
0.013571968847262767,2,25,-1,1
0.5757659463453656,3,25,-1,1
0.9228699780651527,4,25,-1,1
1.1286168162350156,5,25,-1,1
0.7080583911300304,6,25,-1,1
-0.1560193227540588,7,25,-1,1
-0.018258348546069367,8,25,-1,1
0.13262952733230343,9,25,-1,1
-0.49413706838398713,10,25,-1,1
-2.5468537229020547,11,25,-1,1
-1.73115952927135,12,25,-1,1
-0.13751366648114985,13,25,-1,1
0.4222792537796698,14,25,-1,1
0.4948979063014821,15,25,-1,1
-0.14106162532135508,16,25,-1,1
0.9723480774062526,17,25,-1,1
0.3448794510540634,18,25,-1,1
0.4064679731950697,19,25,-1,1
-2.6811844628561343,20,25,-1,1
-3.015411616984551,21,25,-1,1
0.11146258074652036,22,25,-1,1
0.3873739076115292,23,25,-1,1
-0.3378385119488692,24,25,-1,1
1.5114994493050042,25,25,-1,1
3.42647551475785,26,25,-1,1
2.879031873495917,27,25,-1,1
2.706610829074238,28,25,-1,1
0.12695966126277694,29,25,-1,1
0.19041658162534397,30,25,-1,1
-0.5814363990174632,31,25,-1,1
-0.16860404396282644,32,25,-1,1
-0.6949311089589773,33,25,-1,1
0.37545889613624917,34,25,-1,1
2.5060698919947355,35,25,-1,1
2.5495378780730222,36,25,-1,1
-0.9514418373932259,37,25,-1,1
1.5769887976061923,38,25,-1,1
-0.883769437756076,39,25,-1,1
-0.004699875133271846,40,25,-1,1
-2.0057675107373165,41,25,-1,1
-1.6156020955892227,42,25,-1,1
0.2785615645422553,43,25,-1,1
0.1452327130087948,44,25,-1,1
-1.1230473531516993,45,25,-1,1
0.06494935615745882,46,25,-1,1
-1.0490865151254538,47,25,-1,1
0.03715047847777598,48,25,-1,1
-0.04606412281490814,49,25,-1,1
-0.4553079432910082,50,25,-1,1
-0.6282151865786363,51,25,-1,1
0.6399464966563644,52,25,-1,1
-0.19120679984870584,53,25,-1,1
-1.356929693472063,54,25,-1,1
-0.2867603472848609,55,25,-1,1
0.1279243011955956,56,25,-1,1
0.0034863602639507926,57,25,-1,1
1.4270510358876907,58,25,-1,1
1.4597120853804952,59,25,-1,1
0.00811192766274818,60,25,-1,1
0.6356965037442998,61,25,-1,1
-0.12700281856768464,62,25,-1,1
0.07472860790636286,63,25,-1,1
-0.28530078818268423,0,26,-1,1
-0.3481758974471914,1,26,-1,1
-0.10293873967998896,2,26,-1,1
0.2573784921216171,3,26,-1,1
0.08131577598193249,4,26,-1,1
0.29087257140633027,5,26,-1,1
-0.37372456824239636,6,26,-1,1
0.09996240676388268,7,26,-1,1
-0.33165299651953534,8,26,-1,1
-0.004104833270087622,9,26,-1,1
0.8829230502023112,10,26,-1,1
1.5350358895704121,11,26,-1,1
0.7136373175572026,12,26,-1,1
1.0712917498907528,13,26,-1,1
0.6157004433094201,14,26,-1,1
-0.0829386929585966,15,26,-1,1
-0.38151640497628664,16,26,-1,1
0.7041230042049836,17,26,-1,1
1.9132828125741281,18,26,-1,1
2.2016367036276643,19,26,-1,1
-1.3850152640204019,20,26,-1,1
-1.5751211587713025,21,26,-1,1
-1.1255897984804621,22,26,-1,1
-1.0212103482584691,23,26,-1,1
-0.2601009728108515,24,26,-1,1
0.8886066159323984,25,26,-1,1
0.8839428843640816,26,26,-1,1
-1.1827448606708433,27,26,-1,1
0.12316989047899925,28,26,-1,1
2.0214970305341913,29,26,-1,1
0.8877943330888598,30,26,-1,1
-0.617765560931606,31,26,-1,1
-0.35057743974473765,32,26,-1,1
1.3470394824043646,33,26,-1,1
0.9106469847010503,34,26,-1,1
-0.5652322833658706,35,26,-1,1
-0.7539405663620466,36,26,-1,1
0.7945104662346895,37,26,-1,1
2.8676239796752814,38,26,-1,1
0.26399766845406103,39,26,-1,1
0.03431372193414605,40,26,-1,1
-1.0275155654286916,41,26,-1,1
0.6927054113403059,42,26,-1,1
-1.0059268994925106,43,26,-1,1
0.046728871523494926,44,26,-1,1
1.501206273480563,45,26,-1,1
1.7865158717208909,46,26,-1,1
-0.14269298156850557,47,26,-1,1
-0.22804553059385665,48,26,-1,1
0.7417597643948287,49,26,-1,1
0.28252928155377266,50,26,-1,1
0.3071186471763701,51,26,-1,1
2.7068801338282147,52,26,-1,1
1.5867806881365312,53,26,-1,1
-0.031183870109728597,54,26,-1,1
-0.26319851526900867,55,26,-1,1
0.1741411042452225,56,26,-1,1
-0.6267572228974312,57,26,-1,1
-0.05534992011194076,58,26,-1,1
0.15590482711892506,59,26,-1,1
-0.6274373660155801,60,26,-1,1
-0.41409352537252675,61,26,-1,1
-0.18540855612669196,62,26,-1,1
-0.17228126671845853,63,26,-1,1
0.040539989072229325,0,27,-1,1
0.2274524631405213,1,27,-1,1
-0.023112681309402718,2,27,-1,1
0.2993732026469132,3,27,-1,1
0.2845854298842075,4,27,-1,1
1.2156683061395142,5,27,-1,1
0.45448343074856823,6,27,-1,1
-0.05428585639821096,7,27,-1,1
-0.21984905199996105,8,27,-1,1
-0.09349115175773798,9,27,-1,1
0.3443920871196184,10,27,-1,1
-0.7848153100078161,11,27,-1,1
-0.6611942921594948,12,27,-1,1
0.6786579625404519,13,27,-1,1
1.0609933619345842,14,27,-1,1
0.27133496891710035,15,27,-1,1
-0.11067555351095845,16,27,-1,1
-0.702854818230197,17,27,-1,1
-0.17188003584407935,18,27,-1,1
-0.8773995353259071,19,27,-1,1
-2.074852924018357,20,27,-1,1
-2.1428784076498655,21,27,-1,1
-0.919036946898702,22,27,-1,1
-0.6951302377852779,23,27,-1,1
-0.22040147322352618,24,27,-1,1
1.5722366010980675,25,27,-1,1
0.6893493220323651,26,27,-1,1
-0.2273869656538512,27,27,-1,1
-1.5737966871825517,28,27,-1,1
-1.4186444989000448,29,27,-1,1
2.0014650016648643,30,27,-1,1
-0.47269440755242137,31,27,-1,1
-0.3881942607206114,32,27,-1,1
0.3264136460965535,33,27,-1,1
0.05450113223234516,34,27,-1,1
1.26464034129309,35,27,-1,1
0.22238953305287082,36,27,-1,1
-0.32256543325240694,37,27,-1,1
0.5148078634589611,38,27,-1,1
-0.9840171647849265,39,27,-1,1
-0.15809296403303255,40,27,-1,1
-3.981529736716816,41,27,-1,1
0.7105197864425669,42,27,-1,1
3.8937153552650443,43,27,-1,1
-0.2963552827221374,44,27,-1,1
-0.00019562647026253346,45,27,-1,1
-1.6854744642325745,46,27,-1,1
-1.1044827610700654,47,27,-1,1
-0.022247173860663706,48,27,-1,1
-0.3959357403096898,49,27,-1,1
-0.2513052408946767,50,27,-1,1
-0.1804354213555197,51,27,-1,1
-0.14172583828374988,52,27,-1,1
-0.8970807327829776,53,27,-1,1
-0.25783305630380465,54,27,-1,1
0.01681229912611058,55,27,-1,1
-0.18868016131149892,56,27,-1,1
0.4088352445514187,57,27,-1,1
1.7459387352572246,58,27,-1,1
1.0174671649962352,59,27,-1,1
-0.6107929885611745,60,27,-1,1
0.568817900193854,61,27,-1,1
0.2897860441899422,62,27,-1,1
-0.054735365094123786,63,27,-1,1
-0.07080811174624797,0,28,-1,1
0.14973632459806308,1,28,-1,1
-0.192221659630584,2,28,-1,1
-0.291499749278037,3,28,-1,1
1.2363715131164954,4,28,-1,1
1.4301372271314479,5,28,-1,1
0.0888699171290128,6,28,-1,1
-0.16545205020967121,7,28,-1,1
-0.07476423553846923,8,28,-1,1
-0.2886964331799478,9,28,-1,1
-0.09004914378526155,10,28,-1,1
-1.264262221645809,11,28,-1,1
-1.924069129513941,12,28,-1,1
-1.1617180422982893,13,28,-1,1
1.2911435455079663,14,28,-1,1
0.5271688199060772,15,28,-1,1
0.41281580850138405,16,28,-1,1
-0.8717970771313933,17,28,-1,1
-2.3191238191641603,18,28,-1,1
-6.408818391685049,19,28,-1,1
-5.98707880203214,20,28,-1,1
-2.6986789760782277,21,28,-1,1
-1.2150055575495173,22,28,-1,1
0.9472677554194834,23,28,-1,1
0.01765031148112646,24,28,-1,1
-0.6913415260882844,25,28,-1,1
0.8796618091630534,26,28,-1,1
2.681395574471844,27,28,-1,1
1.6504873766013684,28,28,-1,1
-1.71269444361673,29,28,-1,1
-1.301183668369888,30,28,-1,1
0.3795725002896512,31,28,-1,1
-0.2934687548818287,32,28,-1,1
2.3659771043758018,33,28,-1,1
2.2257308736346713,34,28,-1,1
2.543121185131514,35,28,-1,1
3.150247089856469,36,28,-1,1
1.7848276780673604,37,28,-1,1
3.65626229736928,38,28,-1,1
-0.31369636652889676,39,28,-1,1
-0.05600825945432942,40,28,-1,1
0.21322997228494142,41,28,-1,1
-0.34160826550345563,42,28,-1,1
2.886952425825083,43,28,-1,1
3.5475334833237775,44,28,-1,1
-0.10312239745624359,45,28,-1,1
-1.765871987321806,46,28,-1,1
-0.10492796307479056,47,28,-1,1
0.2878942182933093,48,28,-1,1
-1.3273565617543834,49,28,-1,1
-2.4248453590031596,50,28,-1,1
-3.0395928042362814,51,28,-1,1
-1.9662405964185963,52,28,-1,1
-1.0601430619828596,53,28,-1,1
-1.2581822103829983,54,28,-1,1
0.2796360364149905,55,28,-1,1
-0.0933291387203464,56,28,-1,1
-0.10477557504903234,57,28,-1,1
-2.006152786397684,58,28,-1,1
-3.83384532887528,59,28,-1,1
-3.546320432763342,60,28,-1,1
-2.4759275262611684,61,28,-1,1
0.03648401220291594,62,28,-1,1
0.005357934354875299,63,28,-1,1
0.026825643798214754,0,29,-1,1
0.18511618313696848,1,29,-1,1
0.23428173393612947,2,29,-1,1
0.15210715839023575,3,29,-1,1
0.5616658805626672,4,29,-1,1
-0.5162116622657352,5,29,-1,1
0.10198029165681585,6,29,-1,1
0.1907013168272434,7,29,-1,1
0.28534430519393217,8,29,-1,1
0.19672192403805572,9,29,-1,1
-1.6011799235507147,10,29,-1,1
1.503965402105876,11,29,-1,1
0.044012939598156484,12,29,-1,1
-0.374595005044071,13,29,-1,1
1.6935178832488766,14,29,-1,1
-0.15567188677438962,15,29,-1,1
0.05366171787792691,16,29,-1,1
-0.3366359564510201,17,29,-1,1
-1.8435293512649331,18,29,-1,1
-1.466471793426379,19,29,-1,1
-0.3940601088976829,20,29,-1,1
-2.360528262924659,21,29,-1,1
-0.8174713297997661,22,29,-1,1
-0.39056840293976985,23,29,-1,1
0.059404626908413985,24,29,-1,1
0.2664385962845611,25,29,-1,1
-2.570140970738358,26,29,-1,1
-3.502422139132304,27,29,-1,1
5.030051192901083,28,29,-1,1
-4.631996564016105,29,29,-1,1
0.23974561475856665,30,29,-1,1
-0.17725275590486053,31,29,-1,1
-0.0025217104220921134,32,29,-1,1
0.40154919192457894,33,29,-1,1
-4.344961065661612,34,29,-1,1
0.5856647879131146,35,29,-1,1
0.6708007238090106,36,29,-1,1
-5.92996358819275,37,29,-1,1
1.062921360536375,38,29,-1,1
-0.2814670293250094,39,29,-1,1
0.2803341341374161,40,29,-1,1
-0.30718029806502584,41,29,-1,1
-1.6307962231347677,42,29,-1,1
2.4371474084718066,43,29,-1,1
-1.133437980856522,44,29,-1,1
-3.18312238613335,45,29,-1,1
-0.2557070146641269,46,29,-1,1
-0.1699145160229492,47,29,-1,1
-0.1399308639947706,48,29,-1,1
1.6884693950131906,49,29,-1,1
0.3705778574425833,50,29,-1,1
-3.375626136495603,51,29,-1,1
1.99303682383574,52,29,-1,1
1.8860654885451738,53,29,-1,1
-0.8953474419988655,54,29,-1,1
-0.07525449271953617,55,29,-1,1
0.08410720596364032,56,29,-1,1
0.05495779242813881,57,29,-1,1
-0.5623270150787154,58,29,-1,1
-2.50823969465702,59,29,-1,1
-2.1072856308650243,60,29,-1,1
0.07802315351831556,61,29,-1,1
0.18327987733272533,62,29,-1,1
0.10803542038719088,63,29,-1,1
0.07675468798007315,0,30,-1,1
0.16415429984410707,1,30,-1,1
-0.19072204557096198,2,30,-1,1
-0.37393453651589187,3,30,-1,1
-0.1618770707719473,4,30,-1,1
0.1205557151844951,5,30,-1,1
0.17968624729062996,6,30,-1,1
-0.31420879105305644,7,30,-1,1
0.1835267243948296,8,30,-1,1
-0.7164407070579547,9,30,-1,1
0.10795571386133603,10,30,-1,1
0.19364392158889174,11,30,-1,1
0.012305011879069327,12,30,-1,1
-0.38862496593295415,13,30,-1,1
-0.5399513737405246,14,30,-1,1
0.5102986004027186,15,30,-1,1
-0.18395201942976536,16,30,-1,1
-0.05852894110620316,17,30,-1,1
2.3648414227369554,18,30,-1,1
-2.672229361294189,19,30,-1,1
-3.082716574602647,20,30,-1,1
-1.198550707971976,21,30,-1,1
0.26597199222883006,22,30,-1,1
1.2311970090033795,23,30,-1,1
-0.3160554530426637,24,30,-1,1
1.2158818216008969,25,30,-1,1
2.033355027314247,26,30,-1,1
0.33054300178088836,27,30,-1,1
-1.0846957918435094,28,30,-1,1
0.9171527830377921,29,30,-1,1
0.5150832152640732,30,30,-1,1
0.43978319337327176,31,30,-1,1
0.33375238590104916,32,30,-1,1
-0.042118573650546325,33,30,-1,1
-0.18843615671297842,34,30,-1,1
-0.05541836369123658,35,30,-1,1
-2.8871426341661595,36,30,-1,1
-1.5535931797559703,37,30,-1,1
0.5991667289732021,38,30,-1,1
-0.025363444559279736,39,30,-1,1
-0.11348516351290198,40,30,-1,1
-0.25952738284440924,41,30,-1,1
0.7882748023719449,42,30,-1,1
0.5606689674670661,43,30,-1,1
-1.919936667297486,44,30,-1,1
-0.3060492777433598,45,30,-1,1
1.3755986921033858,46,30,-1,1
-0.0421657602540293,47,30,-1,1
-0.27518966292641456,48,30,-1,1
-0.44158174644893056,49,30,-1,1
-0.8772237519887547,50,30,-1,1
-0.027837879597374087,51,30,-1,1
-0.3315805847908578,52,30,-1,1
0.8432889515082066,53,30,-1,1
0.8549443391086052,54,30,-1,1
0.08575730197582106,55,30,-1,1
-0.0707605820287401,56,30,-1,1
0.04480322711938848,57,30,-1,1
-0.6014573977222621,58,30,-1,1
-0.887564854883265,59,30,-1,1
0.11245622127074413,60,30,-1,1
-0.31704842932015104,61,30,-1,1
-0.09425097158887313,62,30,-1,1
0.13731690504873675,63,30,-1,1
0.03329612028554459,0,31,-1,1
0.09945707766633931,1,31,-1,1
0.2978227462478299,2,31,-1,1
-0.32417366316537405,3,31,-1,1
-1.479994568230693,4,31,-1,1
-0.7725323876374267,5,31,-1,1
0.044419100025820044,6,31,-1,1
-0.1336541633810662,7,31,-1,1
0.1144146703769988,8,31,-1,1
-1.2524810663872488,9,31,-1,1
-1.2506220204852867,10,31,-1,1
-0.24111854193846124,11,31,-1,1
1.213693918682682,12,31,-1,1
1.173013828474446,13,31,-1,1
0.062067810996854676,14,31,-1,1
0.13944676377541332,15,31,-1,1
-0.5301822983419997,16,31,-1,1
-2.699041975902002,17,31,-1,1
1.730817822784337,18,31,-1,1
0.8893838064764514,19,31,-1,1
-2.0871706822105804,20,31,-1,1
-2.5300341095431356,21,31,-1,1
-1.4377255766407908,22,31,-1,1
1.1812877692699029,23,31,-1,1
-0.6133464111244974,24,31,-1,1
0.36630838181478814,25,31,-1,1
2.5957702271634866,26,31,-1,1
-0.0777525208890667,27,31,-1,1
-3.887457154456615,28,31,-1,1
-0.5816895596903355,29,31,-1,1
0.5242738644072922,30,31,-1,1
0.4850821513646182,31,31,-1,1
-0.45962657553732034,32,31,-1,1
-0.820565428246556,33,31,-1,1
2.72642365455784,34,31,-1,1
1.935535551686367,35,31,-1,1
-1.27274123487091,36,31,-1,1
1.27439221579159,37,31,-1,1
-0.5047918970229207,38,31,-1,1
0.7699280544628576,39,31,-1,1
-0.7820317593867716,40,31,-1,1
-0.0761195313263311,41,31,-1,1
3.7367814866511044,42,31,-1,1
-0.5857410792153743,43,31,-1,1
-0.07972992251127395,44,31,-1,1
0.308780354189245,45,31,-1,1
0.8282330241759188,46,31,-1,1
1.100337787398027,47,31,-1,1
-0.015668294353273604,48,31,-1,1
-0.9578474868486256,49,31,-1,1
1.1031408250712356,50,31,-1,1
0.939566126168713,51,31,-1,1
-1.1694034296582894,52,31,-1,1
-1.085890646104929,53,31,-1,1
1.5210427494787273,54,31,-1,1
-0.15208889789466357,55,31,-1,1
0.05973671453659327,56,31,-1,1
-0.8835472740104349,57,31,-1,1
-1.2867386425537124,58,31,-1,1
-0.3932713493570324,59,31,-1,1
-0.21165932636788465,60,31,-1,1
-0.27010873581147216,61,31,-1,1
-0.10668159646716129,62,31,-1,1
0.03100587809562464,63,31,-1,1
-0.026564813452639266,0,32,-1,1
-0.3866547549888647,1,32,-1,1
0.025590072085026255,2,32,-1,1
1.2664894437240164,3,32,-1,1
1.8703475431618706,4,32,-1,1
1.39581259914968,5,32,-1,1
0.44594320994144365,6,32,-1,1
-0.20571506952588375,7,32,-1,1
-0.37825990404367105,8,32,-1,1
0.6677980477539381,9,32,-1,1
1.3110483421199408,10,32,-1,1
1.3885004198285702,11,32,-1,1
0.5325582968232946,12,32,-1,1
0.40430975991664037,13,32,-1,1
-1.0504371146636828,14,32,-1,1
-0.832847882376119,15,32,-1,1
-0.07425956196587886,16,32,-1,1
1.0975743996420118,17,32,-1,1
-2.1373033263104353,18,32,-1,1
-2.2716504985825003,19,32,-1,1
0.8319385938015468,20,32,-1,1
-1.3262711289206148,21,32,-1,1
-1.8509883964848808,22,32,-1,1
-1.9682420848278634,23,32,-1,1
-0.07060314901323037,24,32,-1,1
-2.492858743062235,25,32,-1,1
-3.723031026956946,26,32,-1,1
-0.7370575330465181,27,32,-1,1
-1.8560608006864088,28,32,-1,1
-0.526026682380428,29,32,-1,1
0.9101889505654963,30,32,-1,1
0.557920446672985,31,32,-1,1
-0.06977080172047158,32,32,-1,1
0.8544151044156857,33,32,-1,1
0.11748120916926069,34,32,-1,1
-1.377959008418003,35,32,-1,1
-3.1165945008668383,36,32,-1,1
0.24522982464437648,37,32,-1,1
1.4882463611609322,38,32,-1,1
1.122859733009689,39,32,-1,1
0.6069515064830449,40,32,-1,1
1.6677740392954323,41,32,-1,1
1.3622192671038063,42,32,-1,1
2.9730779555542957,43,32,-1,1
1.7487948262318698,44,32,-1,1
3.4120441735591958,45,32,-1,1
2.1609287008445923,46,32,-1,1
0.06426682934942866,47,32,-1,1
0.0948174979429887,48,32,-1,1
1.182887223747186,49,32,-1,1
1.1109429759949452,50,32,-1,1
1.3957367533433915,51,32,-1,1
0.3386795608857741,52,32,-1,1
-0.9977529464187908,53,32,-1,1
-0.20863985925584444,54,32,-1,1
-0.0968355083482742,55,32,-1,1
0.28633923323017085,56,32,-1,1
-0.3186698768991031,57,32,-1,1
-0.9380542035399818,58,32,-1,1
-2.3193594781361933,59,32,-1,1
-1.4996730866845405,60,32,-1,1
-0.672459592549269,61,32,-1,1
-0.20449202044255602,62,32,-1,1
-0.09522529139579161,63,32,-1,1
-0.1383362094025058,0,33,-1,1
0.15552699861414077,1,33,-1,1
0.4197462008689688,2,33,-1,1
0.3377545539036431,3,33,-1,1
0.2270449145374804,4,33,-1,1
-0.3669886002297838,5,33,-1,1
-0.09306975763509906,6,33,-1,1
-0.0774794807983022,7,33,-1,1
0.03642864988661903,8,33,-1,1
-0.582306427095464,9,33,-1,1
-0.10200988212258709,10,33,-1,1
0.7333252026562804,11,33,-1,1
0.693482229869947,12,33,-1,1
1.6266506603036195,13,33,-1,1
0.32188955050848256,14,33,-1,1
0.3438195644627295,15,33,-1,1
-0.04453458163932851,16,33,-1,1
-0.2978776939609583,17,33,-1,1
1.5053215374827784,18,33,-1,1
0.26487284488372054,19,33,-1,1
-1.929752370542424,20,33,-1,1
-2.0203103430705456,21,33,-1,1
-1.7765191550757928,22,33,-1,1
0.4894366121409542,23,33,-1,1
-0.0025523710790076623,24,33,-1,1
-1.4257309551302022,25,33,-1,1
-2.274645026415989,26,33,-1,1
-2.4174002399713848,27,33,-1,1
-0.6087784720730113,28,33,-1,1
-0.31390164687597305,29,33,-1,1
-2.470064189919662,30,33,-1,1
-0.653341752193125,31,33,-1,1
0.23755787970172113,32,33,-1,1
-1.8352714856149164,33,33,-1,1
-3.2957622345996223,34,33,-1,1
-1.0798662473027585,35,33,-1,1
-0.570824094533653,36,33,-1,1
0.9391165595173168,37,33,-1,1
-0.26587859296791416,38,33,-1,1
0.3519316034083539,39,33,-1,1
0.13933129678413034,40,33,-1,1
2.58735662415605,41,33,-1,1
2.751229899760367,42,33,-1,1
0.6443235952208078,43,33,-1,1
0.6993172095487031,44,33,-1,1
0.973658808691477,45,33,-1,1
0.9269396697855874,46,33,-1,1
0.6093230810289646,47,33,-1,1
0.07736717618012723,48,33,-1,1
0.3332196867863324,49,33,-1,1
0.5111279512040999,50,33,-1,1
-1.47232446220712,51,33,-1,1
-1.8052339420958803,52,33,-1,1
0.24453436464007366,53,33,-1,1
0.8103663004727284,54,33,-1,1
0.06617861104925002,55,33,-1,1
0.040901035854925806,56,33,-1,1
-0.20426743559662647,57,33,-1,1
-0.9201545504491189,58,33,-1,1
-1.308859340155563,59,33,-1,1
-0.46573119641742133,60,33,-1,1
-0.09474828157151804,61,33,-1,1
-0.09472301749702608,62,33,-1,1
-0.1728538730066437,63,33,-1,1
-0.20610199453213016,0,34,-1,1
0.21694819482841682,1,34,-1,1
0.19756695911352123,2,34,-1,1
1.373449404078961,3,34,-1,1
1.7831700476505172,4,34,-1,1
1.3180980412577716,5,34,-1,1
0.3507186750186629,6,34,-1,1
0.210994186917552,7,34,-1,1
0.17579411744463913,8,34,-1,1
-0.1128527836337262,9,34,-1,1
0.987931043465061,10,34,-1,1
-1.021884219695504,11,34,-1,1
-1.5760079868871637,12,34,-1,1
-0.5596655663893175,13,34,-1,1
-0.7501902371799442,14,34,-1,1
0.040959532137420096,15,34,-1,1
0.4459920286197202,16,34,-1,1
0.5828946444282106,17,34,-1,1
-0.04172509608890261,18,34,-1,1
0.75505535622683,19,34,-1,1
2.074470117889365,20,34,-1,1
0.6167013672678305,21,34,-1,1
-1.622154513038473,22,34,-1,1
-0.7451050010602073,23,34,-1,1
0.5035241182273186,24,34,-1,1
1.4043926960696316,25,34,-1,1
2.2243896170637267,26,34,-1,1
-3.086198437597764,27,34,-1,1
-4.05268304343048,28,34,-1,1
0.8154048591649556,29,34,-1,1
1.4739685286703816,30,34,-1,1
0.4033226758837692,31,34,-1,1
0.06736552000560178,32,34,-1,1
0.5874291267364258,33,34,-1,1
5.95234244830864,34,34,-1,1
0.8821477529816658,35,34,-1,1
0.6348471231943174,36,34,-1,1
1.4522222709235135,37,34,-1,1
-0.12426629732119757,38,34,-1,1
1.0361414891241547,39,34,-1,1
0.054538468232053224,40,34,-1,1
-2.443058230230223,41,34,-1,1
-0.9753411167111034,42,34,-1,1
3.0506093693057528,43,34,-1,1
0.7854379581669562,44,34,-1,1
-0.3476379039200654,45,34,-1,1
0.23488873934791019,46,34,-1,1
0.8756543647452039,47,34,-1,1
-0.23801232219583604,48,34,-1,1
-0.09481224022513118,49,34,-1,1
-1.4183687111365688,50,34,-1,1
-2.029957450966651,51,34,-1,1
0.6006143084936816,52,34,-1,1
0.23054050123240125,53,34,-1,1
1.1314620178262615,54,34,-1,1
0.28445560477653825,55,34,-1,1
0.014968140931037195,56,34,-1,1
0.17699334175222256,57,34,-1,1
0.6010652205353568,58,34,-1,1
1.043526969706769,59,34,-1,1
0.3385150700215874,60,34,-1,1
0.7512914234047747,61,34,-1,1
0.027331617287281642,62,34,-1,1
0.034830705135881664,63,34,-1,1
-0.14144638638290252,0,35,-1,1
-0.41413173034483214,1,35,-1,1
0.2712275320678501,2,35,-1,1
1.3447798219109823,3,35,-1,1
1.6157934117334924,4,35,-1,1
1.2394609659181364,5,35,-1,1
0.1652079045827284,6,35,-1,1
-0.037923528166851316,7,35,-1,1
-0.1443526716513319,8,35,-1,1
0.4420809449196353,9,35,-1,1
1.6509343552347364,10,35,-1,1
0.5690366059994976,11,35,-1,1
0.9752797597665213,12,35,-1,1
0.3190325644226672,13,35,-1,1
-1.396293086480425,14,35,-1,1
0.0006712624384958173,15,35,-1,1
0.04258861851138134,16,35,-1,1
1.5656649971743357,17,35,-1,1
-2.0517647397126435,18,35,-1,1
-0.010872172691195113,19,35,-1,1
-0.9480770843693411,20,35,-1,1
-2.406360332529233,21,35,-1,1
-0.8760514679659852,22,35,-1,1
-0.7958789575990044,23,35,-1,1
0.12256327619716303,24,35,-1,1
-3.0502210338514053,25,35,-1,1
-3.161884126864603,26,35,-1,1
-1.4620289405648506,27,35,-1,1
0.839459721855022,28,35,-1,1
-0.9811530465792716,29,35,-1,1
-0.5808320092146969,30,35,-1,1
-0.2606415083310924,31,35,-1,1
0.10933446309885153,32,35,-1,1
-0.9121883120368471,33,35,-1,1
-0.6552305298121913,34,35,-1,1
2.5974972787252057,35,35,-1,1
1.0135062316285284,36,35,-1,1
-0.17932196396993105,37,35,-1,1
1.3204085537037524,38,35,-1,1
0.42389702510576394,39,35,-1,1
0.4043710281698682,40,35,-1,1
1.7175996889568421,41,35,-1,1
0.3678804876864759,42,35,-1,1
-0.1622082088457156,43,35,-1,1
0.11603993040497465,44,35,-1,1
2.318047330030502,45,35,-1,1
1.961596851121414,46,35,-1,1
0.0871407808300344,47,35,-1,1
0.28725734139125986,48,35,-1,1
1.5734416804986395,49,35,-1,1
1.395902046015623,50,35,-1,1
-0.5430838134164436,51,35,-1,1
0.3021401603471359,52,35,-1,1
0.35493132389023707,53,35,-1,1
0.012244259437104622,54,35,-1,1
-0.07016684151638677,55,35,-1,1
-0.1013943125191032,56,35,-1,1
0.022761005718384957,57,35,-1,1
-0.08221783305851471,58,35,-1,1
-0.9969435306900492,59,35,-1,1
-1.8147882651499916,60,35,-1,1
-1.3254133445925926,61,35,-1,1
-0.28743059207983906,62,35,-1,1
-0.2218044781671043,63,35,-1,1
0.04377131218906975,0,36,-1,1
-0.2186409393877196,1,36,-1,1
0.19897437468434295,2,36,-1,1
0.4345731034370975,3,36,-1,1
0.6945110814340806,4,36,-1,1
0.9040473011627191,5,36,-1,1
0.2070607644303135,6,36,-1,1
-0.32690704083474065,7,36,-1,1
-0.1702667144898355,8,36,-1,1
-0.04189777917378855,9,36,-1,1
0.14494844684194041,10,36,-1,1
-1.9307354688055605,11,36,-1,1
-3.5404816411524895,12,36,-1,1
-2.619262976597715,13,36,-1,1
-0.674278665492709,14,36,-1,1
0.07185740254106113,15,36,-1,1
-0.06253078229078753,16,36,-1,1
-0.026036624993769,17,36,-1,1
-0.3128956706440544,18,36,-1,1
-0.8627625565965725,19,36,-1,1
0.6143576059755136,20,36,-1,1
0.8872034418269698,21,36,-1,1
1.5715999254141493,22,36,-1,1
1.5208885554481197,23,36,-1,1
0.08373574706710882,24,36,-1,1
-0.03315675243970607,25,36,-1,1
0.32497064460294645,26,36,-1,1
0.8153212706748547,27,36,-1,1
-0.8535709469254434,28,36,-1,1
0.1675546150581485,29,36,-1,1
-0.47358107629563206,30,36,-1,1
0.6510509470870763,31,36,-1,1
-0.1194125668125601,32,36,-1,1
-1.1665443382335745,33,36,-1,1
-1.227208381261717,34,36,-1,1
-2.28073573672577,35,36,-1,1
-1.5642576310523568,36,36,-1,1
-2.5017656539225914,37,36,-1,1
-1.0676240806492916,38,36,-1,1
0.06566918790701336,39,36,-1,1
-0.4285217796118285,40,36,-1,1
0.6669667502474175,41,36,-1,1
-0.17683417052958647,42,36,-1,1
-0.21288354631057851,43,36,-1,1
0.6100875029861573,44,36,-1,1
-0.8522025955541764,45,36,-1,1
-0.2853807131164549,46,36,-1,1
0.035320878818148334,47,36,-1,1
0.018141640631353723,48,36,-1,1
-0.29777778877200894,49,36,-1,1
0.3020983810503515,50,36,-1,1
0.3429699317653644,51,36,-1,1
-1.0220629152385727,52,36,-1,1
-1.0854784320087842,53,36,-1,1
-0.039465516166660844,54,36,-1,1
-0.12711891120892213,55,36,-1,1
-0.05461324814127521,56,36,-1,1
-0.21182098190769694,57,36,-1,1
0.30019371142404633,58,36,-1,1
0.38125290859380156,59,36,-1,1
-0.11212424170616973,60,36,-1,1
-0.6428121337089073,61,36,-1,1
-0.11110898869001601,62,36,-1,1
-0.2073336635195481,63,36,-1,1
0.055810664349810815,0,37,-1,1
-0.013866784285551085,1,37,-1,1
0.32832584957291144,2,37,-1,1
-0.15520751974901875,3,37,-1,1
-0.27210881792277536,4,37,-1,1
-0.3035785576433819,5,37,-1,1
-0.16852617768356948,6,37,-1,1
-0.12488669382664776,7,37,-1,1
-0.1492441440588414,8,37,-1,1
0.17000302274910642,9,37,-1,1
-0.2840855827433186,10,37,-1,1
-0.29079305821218737,11,37,-1,1
-1.037594593653714,12,37,-1,1
-0.4175754548963467,13,37,-1,1
0.3441972186676614,14,37,-1,1
-0.05269940580611624,15,37,-1,1
-0.2237490509427039,16,37,-1,1
-0.21449420361486962,17,37,-1,1
-0.6371411560452576,18,37,-1,1
-1.7305167272920445,19,37,-1,1
-1.2829379442476434,20,37,-1,1
-0.74290364731321,21,37,-1,1
0.8369281935872399,22,37,-1,1
0.7367774288080883,23,37,-1,1
-0.11831619247383172,24,37,-1,1
-0.21285598663375838,25,37,-1,1
-0.2822054075136414,26,37,-1,1
-0.44581916792805754,27,37,-1,1
-0.28237726923084594,28,37,-1,1
-1.5686534138724983,29,37,-1,1
-1.233566382284472,30,37,-1,1
0.17218343551060494,31,37,-1,1
-0.16356465268090667,32,37,-1,1
-0.32218862301964024,33,37,-1,1
-0.5700337883039744,34,37,-1,1
0.8684135218214903,35,37,-1,1
-1.073438801500377,36,37,-1,1
-2.4622318377141093,37,37,-1,1
-1.0652004646862046,38,37,-1,1
-0.04133655153438334,39,37,-1,1
0.03743967074452389,40,37,-1,1
0.4405326054640934,41,37,-1,1
-0.7314992084537372,42,37,-1,1
-0.8528868243412233,43,37,-1,1
-0.23646250506643884,44,37,-1,1
-0.5402048912575422,45,37,-1,1
0.6511278561185473,46,37,-1,1
0.22693843037911912,47,37,-1,1
0.1833714918265725,48,37,-1,1
-0.0553203655827309,49,37,-1,1
-0.4069700318361065,50,37,-1,1
-0.7141665330009757,51,37,-1,1
-0.03124167270436754,52,37,-1,1
0.8050800019132857,53,37,-1,1
0.2955123505105373,54,37,-1,1
-0.016436469724472942,55,37,-1,1
0.04209276808813365,56,37,-1,1
-0.47528323935972155,57,37,-1,1
-0.9346461536691225,58,37,-1,1
-0.636181660563035,59,37,-1,1
-0.6080803218827847,60,37,-1,1
-0.5220439400229004,61,37,-1,1
-0.14934434390551693,62,37,-1,1
-0.14223873054088013,63,37,-1,1
0.09728570174840367,0,38,-1,1
0.2255180858741287,1,38,-1,1
0.0625504611785665,2,38,-1,1
-0.18106227686536824,3,38,-1,1
0.2469724152004012,4,38,-1,1
0.21039924083870154,5,38,-1,1
0.13798208115847005,6,38,-1,1
-0.17273735513066965,7,38,-1,1
-0.11689563357847284,8,38,-1,1
-0.08345004134047539,9,38,-1,1
-0.0012877760422397811,10,38,-1,1
-0.3201722063400074,11,38,-1,1
-0.8169648759423958,12,38,-1,1
-0.5836451581462476,13,38,-1,1
0.833256530303466,14,38,-1,1
0.3880478003918329,15,38,-1,1
0.14222145042673356,16,38,-1,1
0.15810899433324385,17,38,-1,1
-0.3212754394065036,18,38,-1,1
0.11877410302679686,19,38,-1,1
-0.6044785452341032,20,38,-1,1
-0.9662672067353527,21,38,-1,1
0.8309286136442282,22,38,-1,1
0.29559659079773504,23,38,-1,1
-0.20108297722975818,24,38,-1,1
0.8800315171877159,25,38,-1,1
2.1216655939635913,26,38,-1,1
4.209539520704521,27,38,-1,1
3.7492936513883883,28,38,-1,1
2.126808521903291,29,38,-1,1
-0.3226111830021565,30,38,-1,1
-0.23870082178562235,31,38,-1,1
-0.07519505526003524,32,38,-1,1
-0.1642296085360634,33,38,-1,1
1.1322006740613728,34,38,-1,1
0.7809399995505186,35,38,-1,1
2.7542993245312717,36,38,-1,1
3.893590549418129,37,38,-1,1
0.8760980849664668,38,38,-1,1
-0.9501906481645765,39,38,-1,1
0.06007266344407601,40,38,-1,1
-0.08247438331194895,41,38,-1,1
-0.9988173148948764,42,38,-1,1
-2.4475761668358955,43,38,-1,1
1.0736269110149002,44,38,-1,1
-0.7623076763698996,45,38,-1,1
-0.9765453321957083,46,38,-1,1
-0.8635314598093026,47,38,-1,1
-0.04632725674377993,48,38,-1,1
0.04070469541605237,49,38,-1,1
-1.0500455887103894,50,38,-1,1
-1.6084484935742995,51,38,-1,1
-0.8699813647394049,52,38,-1,1
-2.0709217438250747,53,38,-1,1
-1.1872717169736238,54,38,-1,1
-0.09546850842808785,55,38,-1,1
-0.06626244482675676,56,38,-1,1
0.3379121183154055,57,38,-1,1
1.6382428585244748,58,38,-1,1
1.9109586841196966,59,38,-1,1
0.8530193117664575,60,38,-1,1
0.648185145749399,61,38,-1,1
0.35507887140772476,62,38,-1,1
-0.26325271346019385,63,38,-1,1
-0.1763112795434264,0,39,-1,1
-0.02034582120014517,1,39,-1,1
-0.2939848335501811,2,39,-1,1
0.1136069622412911,3,39,-1,1
0.5158486868317358,4,39,-1,1
0.057760597872930294,5,39,-1,1
-0.1563071617300783,6,39,-1,1
0.007152444433409134,7,39,-1,1
0.000616326136952657,8,39,-1,1
0.7065255393081328,9,39,-1,1
-0.0801091830113337,10,39,-1,1
-0.46978009297810647,11,39,-1,1
0.03448031016341224,12,39,-1,1
-0.401213046611432,13,39,-1,1
-0.6113820693904514,14,39,-1,1
-0.1468263808962496,15,39,-1,1
-0.12708497945576167,16,39,-1,1
0.9288663361663184,17,39,-1,1
-1.5641028125662155,18,39,-1,1
-1.7281384639698414,19,39,-1,1
2.0470093592312635,20,39,-1,1
0.9780912636754004,21,39,-1,1
1.4165645583575457,22,39,-1,1
-0.3460476127594682,23,39,-1,1
0.45572311377947716,24,39,-1,1
-0.3126557013219639,25,39,-1,1
-1.4804711005496065,26,39,-1,1
-0.7881463311596244,27,39,-1,1
1.2537610217418178,28,39,-1,1
-0.6089434228625474,29,39,-1,1
-1.0521714572369978,30,39,-1,1
0.4834934906433029,31,39,-1,1
0.4206336351184117,32,39,-1,1
0.584935774123428,33,39,-1,1
1.5603396865363992,34,39,-1,1
2.139547987607771,35,39,-1,1
1.3672452968732896,36,39,-1,1
0.5994561010042538,37,39,-1,1
0.16418874828856916,38,39,-1,1
0.30338796503232807,39,39,-1,1
0.6499133623930868,40,39,-1,1
0.8966127015643305,41,39,-1,1
-0.6260178466419392,42,39,-1,1
-1.5021947388924586,43,39,-1,1
-0.0012627926885742235,44,39,-1,1
-0.9242958200277589,45,39,-1,1
-0.3325242802392194,46,39,-1,1
0.20477577810844405,47,39,-1,1
0.06418280388853574,48,39,-1,1
0.7757968293598219,49,39,-1,1
-0.6076234580589408,50,39,-1,1
-2.534937106500404,51,39,-1,1
-2.3428737276900695,52,39,-1,1
-1.3551959944070302,53,39,-1,1
-0.799608066295111,54,39,-1,1
0.3738805622832013,55,39,-1,1
0.12873597159888456,56,39,-1,1
0.3437981688120974,57,39,-1,1
0.26387941345672583,58,39,-1,1
-0.6166162771813951,59,39,-1,1
0.7839068321214805,60,39,-1,1
0.37461040254818007,61,39,-1,1
0.21295731993805214,62,39,-1,1
-0.10286637434916976,63,39,-1,1
0.1063061732915318,0,40,-1,1
-0.06949217973674632,1,40,-1,1
0.24356749073951833,2,40,-1,1
-0.20536727836112542,3,40,-1,1
0.08143619490619951,4,40,-1,1
0.7311769076099162,5,40,-1,1
0.428731424356734,6,40,-1,1
0.25313444444323,7,40,-1,1
0.08336659606418088,8,40,-1,1
0.13594941158235657,9,40,-1,1
-2.1253103775557816,10,40,-1,1
-3.5436462537529194,11,40,-1,1
-2.3832441826389354,12,40,-1,1
0.44075720743600444,13,40,-1,1
1.0677585142492887,14,40,-1,1
0.18556428462086316,15,40,-1,1
0.2200337769088886,16,40,-1,1
-0.16646224457660946,17,40,-1,1
-4.250420660513883,18,40,-1,1
-1.5113337475579651,19,40,-1,1
2.0381612822843835,20,40,-1,1
-1.849607953756607,21,40,-1,1
1.2485274024373236,22,40,-1,1
0.7546020380155015,23,40,-1,1
0.23050555322861355,24,40,-1,1
0.0814164778688545,25,40,-1,1
-2.653847151802305,26,40,-1,1
1.325569728968301,27,40,-1,1
1.9271808515444413,28,40,-1,1
-2.398249250596653,29,40,-1,1
0.18419582880177984,30,40,-1,1
0.07530142029494999,31,40,-1,1
0.16832147088870666,32,40,-1,1
-0.17197286412554325,33,40,-1,1
-1.4630809436860865,34,40,-1,1
-0.2746407640666232,35,40,-1,1
-0.6064190988400603,36,40,-1,1
-0.641504107399349,37,40,-1,1
-1.3679636230546737,38,40,-1,1
-0.7595416215512079,39,40,-1,1
-0.41721155124212145,40,40,-1,1
0.1948676862661956,41,40,-1,1
0.11314130962237409,42,40,-1,1
2.081043363274685,43,40,-1,1
1.1615817993786923,44,40,-1,1
-1.179957031621592,45,40,-1,1
-2.3647804330013993,46,40,-1,1
-0.13863710939264404,47,40,-1,1
-0.2411117041809222,48,40,-1,1
0.11165841670356817,49,40,-1,1
0.5309155338676331,50,40,-1,1
-1.187451299011222,51,40,-1,1
-0.06588760413401822,52,40,-1,1
-1.2400085659921471,53,40,-1,1
-0.6951425927517609,54,40,-1,1
-0.06943313346641103,55,40,-1,1
0.2741478848429037,56,40,-1,1
0.19277433589964596,57,40,-1,1
-0.16471654094055335,58,40,-1,1
-1.5867539213238206,59,40,-1,1
-1.4314246737876177,60,40,-1,1
0.013650224232722424,61,40,-1,1
0.24705981567519944,62,40,-1,1
-0.1580634398798476,63,40,-1,1
-0.056382994045590044,0,41,-1,1
0.07720983990226057,1,41,-1,1
-0.8082856982024329,2,41,-1,1
-1.4057356112089303,3,41,-1,1
-1.6265166501908082,4,41,-1,1
-1.2414044575457905,5,41,-1,1
-0.4536249958299894,6,41,-1,1
0.1423699823424949,7,41,-1,1
-0.1292510376145894,8,41,-1,1
0.3492982633147201,9,41,-1,1
0.23433267579092443,10,41,-1,1
0.07599922483430134,11,41,-1,1
0.1377447172549686,12,41,-1,1
0.4190266605435052,13,41,-1,1
1.0349086711779014,14,41,-1,1
0.17809664413040247,15,41,-1,1
0.08066266945982967,16,41,-1,1
0.32367250808174985,17,41,-1,1
1.4042290006085585,18,41,-1,1
1.6667268402323523,19,41,-1,1
2.316155769137627,20,41,-1,1
4.055753963626978,21,41,-1,1
2.113143838422805,22,41,-1,1
0.352020653966414,23,41,-1,1
-0.14124380984676602,24,41,-1,1
1.5237808780932285,25,41,-1,1
1.6580843663236318,26,41,-1,1
-0.16817200642394578,27,41,-1,1
-0.3124306833881224,28,41,-1,1
1.041522121503989,29,41,-1,1
0.010800174424932652,30,41,-1,1
0.009065887375821273,31,41,-1,1
-0.280118824532135,32,41,-1,1
-0.38282391328416787,33,41,-1,1
1.1258741078189,34,41,-1,1
-0.6992850348069921,35,41,-1,1
-0.5732685196326129,36,41,-1,1
0.5713533520485978,37,41,-1,1
-1.1510414070928559,38,41,-1,1
-0.910150992003134,39,41,-1,1
-0.0337929132169693,40,41,-1,1
-1.9456895542611112,41,41,-1,1
-2.602308071867237,42,41,-1,1
-2.4919773660459112,43,41,-1,1
-2.130299952993782,44,41,-1,1
-1.4524050919930944,45,41,-1,1
-2.153637405942564,46,41,-1,1
-1.1427791819312743,47,41,-1,1
-0.04813724718915798,48,41,-1,1
0.38810756533844537,49,41,-1,1
0.37914268709574295,50,41,-1,1
0.6581576739325464,51,41,-1,1
1.9209277755605971,52,41,-1,1
0.5913470407213559,53,41,-1,1
-0.5687461325436246,54,41,-1,1
0.11647741186824327,55,41,-1,1
-0.2423222460394061,56,41,-1,1
0.0046086009276600295,57,41,-1,1
1.179007724712946,58,41,-1,1
2.786035351443414,59,41,-1,1
2.015120024634965,60,41,-1,1
0.7917789382692649,61,41,-1,1
0.09328664807757778,62,41,-1,1
-0.24839649356936452,63,41,-1,1
-0.119031215763698,0,42,-1,1
0.026401586331357474,1,42,-1,1
0.37678425603045984,2,42,-1,1
-0.04240112452461743,3,42,-1,1
-1.3902237053501012,4,42,-1,1
-0.4221120755213026,5,42,-1,1
0.24506082109293528,6,42,-1,1
0.2049211826412048,7,42,-1,1
-0.201945351327496,8,42,-1,1
-0.4333718154493356,9,42,-1,1
-2.1013266439160514,10,42,-1,1
-3.227631572124292,11,42,-1,1
0.44881561342631454,12,42,-1,1
1.7066573650423058,13,42,-1,1
0.2142323181638681,14,42,-1,1
-0.48611448272365343,15,42,-1,1
0.0702509909674558,16,42,-1,1
-1.2352133508889276,17,42,-1,1
-1.7425671694282567,18,42,-1,1
0.18437600038972699,19,42,-1,1
0.7513166019052098,20,42,-1,1
0.27661774509902587,21,42,-1,1
-0.0201484655802748,22,42,-1,1
-0.8688158982420439,23,42,-1,1
-0.5239872270740175,24,42,-1,1
1.3255552494966545,25,42,-1,1
-0.8526034258032659,26,42,-1,1
0.3384710100413456,27,42,-1,1
-0.962285049192729,28,42,-1,1
-1.020487382185478,29,42,-1,1
4.814479859862775,30,42,-1,1
-0.4556142352894262,31,42,-1,1
-0.29222772701700644,32,42,-1,1
1.410496404497445,33,42,-1,1
0.6853373216982973,34,42,-1,1
0.9750390166834392,35,42,-1,1
-1.499130671857731,36,42,-1,1
-2.3265097822177734,37,42,-1,1
0.6609427945863734,38,42,-1,1
-0.1545472310144913,39,42,-1,1
-0.29997922070780614,40,42,-1,1
-1.887185805872992,41,42,-1,1
3.0371535860564727,42,42,-1,1
0.0029541237694074825,43,42,-1,1
-3.2211192561115416,44,42,-1,1
-2.380770394616847,45,42,-1,1
-1.3727881349070863,46,42,-1,1
-0.5326940837908292,47,42,-1,1
-0.10996040736033588,48,42,-1,1
-0.4702086757573675,49,42,-1,1
0.9737675754684045,50,42,-1,1
1.9954856162534809,51,42,-1,1
-0.3003933536708262,52,42,-1,1
-3.1266431194728415,53,42,-1,1
-1.2545641257897144,54,42,-1,1
-0.2487318155039613,55,42,-1,1
-0.1601213986701654,56,42,-1,1
-0.4025978968468806,57,42,-1,1
0.06512903903182221,58,42,-1,1
0.9223487613861603,59,42,-1,1
0.12197992708014202,60,42,-1,1
0.3496895214719419,61,42,-1,1
-0.2458263148984244,62,42,-1,1
-0.1874255380393508,63,42,-1,1
-0.09056545903965982,0,43,-1,1
0.15379019931351062,1,43,-1,1
-0.1597466949314518,2,43,-1,1
0.2090952657665076,3,43,-1,1
0.24527414133252198,4,43,-1,1
-0.16546796114228843,5,43,-1,1
-0.0765663930229242,6,43,-1,1
-0.125293745271957,7,43,-1,1
-0.057704948282359655,8,43,-1,1
-0.04814438893950521,9,43,-1,1
0.36565465081878196,10,43,-1,1
-0.7499469977231054,11,43,-1,1
-1.6010498279612284,12,43,-1,1
-1.1530166226678265,13,43,-1,1
-0.05259638121796582,14,43,-1,1
-0.007323337876090516,15,43,-1,1
-0.016989404726893306,16,43,-1,1
0.22374483538311274,17,43,-1,1
-0.1094243981001904,18,43,-1,1
-0.7009962856683366,19,43,-1,1
-1.3183122871521071,20,43,-1,1
-0.6724810240685155,21,43,-1,1
0.1272812737978198,22,43,-1,1
-0.24275854415075285,23,43,-1,1
-0.05931139674717802,24,43,-1,1
0.3435460523194202,25,43,-1,1
-0.47109804438574954,26,43,-1,1
-0.6951793454080342,27,43,-1,1
-1.1633651971506354,28,43,-1,1
-0.44536708583300993,29,43,-1,1
-0.17792407435418642,30,43,-1,1
-0.23862877505489194,31,43,-1,1
-0.30771213538964004,32,43,-1,1
-0.048700510427103064,33,43,-1,1
-0.34018135141466804,34,43,-1,1
-2.004948128991249,35,43,-1,1
-1.0372035175367242,36,43,-1,1
-0.2644539992877814,37,43,-1,1
-0.17105668613175182,38,43,-1,1
0.2698499831689723,39,43,-1,1
0.028276248314240422,40,43,-1,1
-0.29630255191143795,41,43,-1,1
-0.376707248967714,42,43,-1,1
-1.1855192362663094,43,43,-1,1
-1.2657628318809444,44,43,-1,1
-0.9760143383803668,45,43,-1,1
0.05248297563363895,46,43,-1,1
0.15580287756926503,47,43,-1,1
0.03441396157099676,48,43,-1,1
-0.09946577512259112,49,43,-1,1
-0.7281033241572905,50,43,-1,1
-0.8055533365427341,51,43,-1,1
-0.32992477766276834,52,43,-1,1
-0.048203549649465924,53,43,-1,1
-0.2321021409634779,54,43,-1,1
-0.0039512497079151245,55,43,-1,1
-0.1655975186671974,56,43,-1,1
-0.18435843930896073,57,43,-1,1
0.027506279054723762,58,43,-1,1
0.27793880496476425,59,43,-1,1
0.04280740074772681,60,43,-1,1
0.06919830041232197,61,43,-1,1
-0.1692108146925454,62,43,-1,1
-0.14553684728073246,63,43,-1,1
0.16002154517285555,0,44,-1,1
-0.037477593287679085,1,44,-1,1
0.4450225215379554,2,44,-1,1
0.13522025969462423,3,44,-1,1
-1.0274617407175235,4,44,-1,1
-0.18459100782165166,5,44,-1,1
0.058273448376326906,6,44,-1,1
0.07526730069529809,7,44,-1,1
-0.021039018139227306,8,44,-1,1
-3.371989882872752e-05,9,44,-1,1
0.4310709962209957,10,44,-1,1
1.3206848292015028,11,44,-1,1
0.6381386142114426,12,44,-1,1
-0.972909736825164,13,44,-1,1
-0.20328224192478467,14,44,-1,1
-0.13218493610174178,15,44,-1,1
-0.18606518424887172,16,44,-1,1
-1.2773359035861804,17,44,-1,1
-0.24458021593683937,18,44,-1,1
-1.711864629649913,19,44,-1,1
-3.108553900437593,20,44,-1,1
-1.8339935448161997,21,44,-1,1
-2.9619812803451357,22,44,-1,1
-1.2682138441993063,23,44,-1,1
-0.6081145888776526,24,44,-1,1
-0.8305139540897979,25,44,-1,1
0.6590692625153561,26,44,-1,1
-0.6272704898906483,27,44,-1,1
-0.2164287849978275,28,44,-1,1
2.3396347301166642,29,44,-1,1
1.2370745880315255,30,44,-1,1
-0.48527364463666167,31,44,-1,1
-0.5288926529310011,32,44,-1,1
1.9690506733666053,33,44,-1,1
0.9803622230288027,34,44,-1,1
2.9511032855783172,35,44,-1,1
4.146119180271589,36,44,-1,1
-1.092531939010866,37,44,-1,1
-0.4117867969855702,38,44,-1,1
0.547319944247497,39,44,-1,1
-0.24293880819129846,40,44,-1,1
-1.3222502600125783,41,44,-1,1
-0.7766501725658995,42,44,-1,1
1.3028555917209401,43,44,-1,1
1.615543348800683,44,44,-1,1
-0.8614711194464634,45,44,-1,1
0.8429768919557192,46,44,-1,1
0.4170148428864181,47,44,-1,1
0.24142678019590452,48,44,-1,1
-1.2103075446894132,49,44,-1,1
-1.3767019601870232,50,44,-1,1
-1.6779871559765107,51,44,-1,1
-0.9163974133435573,52,44,-1,1
0.7970891147761603,53,44,-1,1
1.7568822419855714,54,44,-1,1
0.2381762517206579,55,44,-1,1
-0.0814874760566594,56,44,-1,1
0.08741827863850549,57,44,-1,1
-0.6423940356775663,58,44,-1,1
-0.9113466841562352,59,44,-1,1
-0.5903002295092838,60,44,-1,1
0.2395796154981553,61,44,-1,1
0.28700963788710937,62,44,-1,1
-0.1488847201939682,63,44,-1,1
-0.15237130282400566,0,45,-1,1
-0.02681911966032467,1,45,-1,1
-0.09030505228682795,2,45,-1,1
-0.19815824292566298,3,45,-1,1
-0.20107503946394906,4,45,-1,1
0.6454930403134976,5,45,-1,1
-0.15333944207296044,6,45,-1,1
0.1741160903170297,7,45,-1,1
0.19129605832796856,8,45,-1,1
-0.06988227970658772,9,45,-1,1
0.12438930192376452,10,45,-1,1
0.31800158175908694,11,45,-1,1
1.161536547011085,12,45,-1,1
0.5847994855419878,13,45,-1,1
0.2013041934527693,14,45,-1,1
-0.002815282521873844,15,45,-1,1
-0.17260358672021506,16,45,-1,1
-1.0333790967523975,17,45,-1,1
-2.198487867493255,18,45,-1,1
-3.415866169034734,19,45,-1,1
-1.3872951235853788,20,45,-1,1
0.6024273550878201,21,45,-1,1
-0.5525995123208953,22,45,-1,1
0.09198063767508283,23,45,-1,1
-0.21944161509163407,24,45,-1,1
1.2905843165281363,25,45,-1,1
2.989305566459184,26,45,-1,1
4.787280589909064,27,45,-1,1
0.7763162895992793,28,45,-1,1
1.5613549426388549,29,45,-1,1
-0.20569437741764926,30,45,-1,1
0.01838812259369745,31,45,-1,1
-0.4481862669998487,32,45,-1,1
2.5286491196295207,33,45,-1,1
4.022832895492727,34,45,-1,1
-0.6505723768453445,35,45,-1,1
-0.2387100071721542,36,45,-1,1
1.2332077750172667,37,45,-1,1
-0.16265704089529118,38,45,-1,1
-0.3401997241212768,39,45,-1,1
-0.16554297050104755,40,45,-1,1
0.6978970187225337,41,45,-1,1
-1.067360572544879,42,45,-1,1
-2.2381305458233145,43,45,-1,1
-0.4326000683758988,44,45,-1,1
2.6100285015055573,45,45,-1,1
0.09137896750263771,46,45,-1,1
-1.0155251721428145,47,45,-1,1
0.23228295213744546,48,45,-1,1
-0.3869519254205818,49,45,-1,1
0.004396828714253314,50,45,-1,1
-0.25665477217561794,51,45,-1,1
0.024207707760125145,52,45,-1,1
1.1405938039876993,53,45,-1,1
0.5696860091881935,54,45,-1,1
0.012513968151754392,55,45,-1,1
-0.13232248263623955,56,45,-1,1
0.3696889225291081,57,45,-1,1
0.5066062746371345,58,45,-1,1
-0.6717541774545592,59,45,-1,1
-0.26203260083511204,60,45,-1,1
0.4397568142028295,61,45,-1,1
0.2665806547561622,62,45,-1,1
-0.22242963682999398,63,45,-1,1
0.5022116624640146,0,46,-1,1
0.07240103833019576,1,46,-1,1
0.03507501214671181,2,46,-1,1
0.775441785386606,3,46,-1,1
1.1921604277400972,4,46,-1,1
1.2033077953044415,5,46,-1,1
0.5012317229635611,6,46,-1,1
0.07891679681887101,7,46,-1,1
0.10462416782736074,8,46,-1,1
0.13693057161628414,9,46,-1,1
-0.6941991135500047,10,46,-1,1
1.0584621560346383,11,46,-1,1
1.950251842773984,12,46,-1,1
0.8770861608455497,13,46,-1,1
-0.8495150480157317,14,46,-1,1
-0.14436068699246674,15,46,-1,1
-0.08841984467484082,16,46,-1,1
-0.7814637139755696,17,46,-1,1
-0.9985219113692346,18,46,-1,1
-0.22531697172319914,19,46,-1,1
-0.6916808141396915,20,46,-1,1
-3.357466086682999,21,46,-1,1
-1.3271132026491668,22,46,-1,1
-0.5163776516791483,23,46,-1,1
-0.08680412862918765,24,46,-1,1
0.8933835176425318,25,46,-1,1
1.2495016768682294,26,46,-1,1
1.2922799551812292,27,46,-1,1
0.6880652366513994,28,46,-1,1
-0.7775610785289149,29,46,-1,1
1.8925639960677805,30,46,-1,1
-0.14425565901855417,31,46,-1,1
-0.21663977565126655,32,46,-1,1
0.32478429044527946,33,46,-1,1
-0.5187479937410645,34,46,-1,1
-0.5127290466410455,35,46,-1,1
-2.382409227340236,36,46,-1,1
-0.4952692202701001,37,46,-1,1
1.278518282840483,38,46,-1,1
-0.21663382148165702,39,46,-1,1
0.20727074711580937,40,46,-1,1
-0.5858365247011774,41,46,-1,1
0.532197993429934,42,46,-1,1
1.4403270046157126,43,46,-1,1
0.2515658078226794,44,46,-1,1
1.2305169939105887,45,46,-1,1
-0.37283329035855495,46,46,-1,1
-0.6255739182572424,47,46,-1,1
0.27912157851136044,48,46,-1,1
-0.13979813556292248,49,46,-1,1
-1.0244852703020226,50,46,-1,1
0.28512963593464385,51,46,-1,1
1.6726233507985637,52,46,-1,1
-0.5591646585578152,53,46,-1,1
-0.7209357356098911,54,46,-1,1
0.09606509049228136,55,46,-1,1
-0.0617938429720916,56,46,-1,1
0.16357389872473424,57,46,-1,1
0.12533086399480184,58,46,-1,1
-0.7917053048470679,59,46,-1,1
-0.03885112373285852,60,46,-1,1
0.6647640826541501,61,46,-1,1
-0.11546338514569654,62,46,-1,1
-0.047273430578188724,63,46,-1,1
-0.16435035564386183,0,47,-1,1
-0.2599845947616208,1,47,-1,1
-0.07334171694908391,2,47,-1,1
0.11675464257123232,3,47,-1,1
-0.11310939502464584,4,47,-1,1
-0.15453437889687277,5,47,-1,1
-0.19540718577029653,6,47,-1,1
0.05909416288793627,7,47,-1,1
-0.07216307333894499,8,47,-1,1
-0.1735121782800376,9,47,-1,1
-0.4111499530847506,10,47,-1,1
-0.8425303171202031,11,47,-1,1
-0.7243368505869235,12,47,-1,1
-0.3880545837252144,13,47,-1,1
0.12232177573613746,14,47,-1,1
-0.16251859831620133,15,47,-1,1
-0.19040981605323193,16,47,-1,1
-0.1181677206902233,17,47,-1,1
-0.21308985123623955,18,47,-1,1
-0.786543022523555,19,47,-1,1
-1.2118465043264997,20,47,-1,1
-0.9542387532181961,21,47,-1,1
-0.24050298455987357,22,47,-1,1
0.022949099464468936,23,47,-1,1
-0.27317586312144465,24,47,-1,1
0.059677322712235754,25,47,-1,1
-0.21928091845059738,26,47,-1,1
-0.6976887559387001,27,47,-1,1
-1.2757449792378364,28,47,-1,1
-0.5858563217143263,29,47,-1,1
0.135354440613516,30,47,-1,1
-0.16768459921722942,31,47,-1,1
0.017735785837313625,32,47,-1,1
-0.24603340113772101,33,47,-1,1
-0.7257457339329745,34,47,-1,1
-0.937641397197087,35,47,-1,1
-1.2411684106846341,36,47,-1,1
-1.1480782220218135,37,47,-1,1
-0.59651975970112,38,47,-1,1
-0.12630855525721205,39,47,-1,1
-0.027108264179370446,40,47,-1,1
-0.4026617212499988,41,47,-1,1
-0.5781692080919776,42,47,-1,1
-0.6456590524865885,43,47,-1,1
-1.1016533891384739,44,47,-1,1
-1.147025581043615,45,47,-1,1
-0.16934399379994394,46,47,-1,1
-0.01156803130938745,47,47,-1,1
-0.12939767322502457,48,47,-1,1
-0.36320838264977284,49,47,-1,1
-0.22292592984503273,50,47,-1,1
-0.838041795237781,51,47,-1,1
-0.6805377807244646,52,47,-1,1
-0.3423179935001921,53,47,-1,1
-0.0781741182390527,54,47,-1,1
0.0007152975200221849,55,47,-1,1
-0.06480793187851182,56,47,-1,1
-0.07264580086828316,57,47,-1,1
0.16671424613283012,58,47,-1,1
-0.059999226416094974,59,47,-1,1
0.05806572896918674,60,47,-1,1
0.19730681245203446,61,47,-1,1
0.02850128705137463,62,47,-1,1
-0.0810963228177007,63,47,-1,1
-0.13454917053920157,0,48,-1,1
0.11822940066328652,1,48,-1,1
-0.5045087979193321,2,48,-1,1
-0.9273584662354326,3,48,-1,1
-0.45509062022060226,4,48,-1,1
-0.07720420589339574,5,48,-1,1
-0.15498910381390876,6,48,-1,1
-0.016920579124426224,7,48,-1,1
-0.20219261355261944,8,48,-1,1
0.8643920969964501,9,48,-1,1
0.472019170578336,10,48,-1,1
0.512417816255401,11,48,-1,1
-0.729969041995057,12,48,-1,1
-0.6148715699564731,13,48,-1,1
0.13747207542618223,14,48,-1,1
-0.1353286930629142,15,48,-1,1
-0.03335167394448814,16,48,-1,1
0.7373547981036789,17,48,-1,1
-0.3634397103550982,18,48,-1,1
-2.048795897562401,19,48,-1,1
0.1906129370083394,20,48,-1,1
0.3389999049083911,21,48,-1,1
-0.5695263815348333,22,48,-1,1
-0.2700594031182272,23,48,-1,1
0.1800857151306875,24,48,-1,1
-1.357254895508132,25,48,-1,1
-1.4242683432938246,26,48,-1,1
-0.5009729540804799,27,48,-1,1
2.7286691074260867,28,48,-1,1
0.07103946204222733,29,48,-1,1
-1.1328665166719754,30,48,-1,1
-0.2988204964406548,31,48,-1,1
0.07792446328194329,32,48,-1,1
-0.2588782026296113,33,48,-1,1
-0.18595573391307696,34,48,-1,1
2.6149740402375223,35,48,-1,1
2.989049256961659,36,48,-1,1
-0.026322795017989568,37,48,-1,1
0.1941904013274849,38,48,-1,1
-0.5548247999159694,39,48,-1,1
0.4676767039392785,40,48,-1,1
-0.5821992458950886,41,48,-1,1
-6.171009857819703,42,48,-1,1
-2.9428526748816597,43,48,-1,1
-1.8865831983617862,44,48,-1,1
-1.385828248093603,45,48,-1,1
-0.2076535358952943,46,48,-1,1
-0.7123675624024185,47,48,-1,1
0.2286719421624711,48,48,-1,1
1.2479221127773148,49,48,-1,1
1.5827730183252982,50,48,-1,1
0.06514590331636373,51,48,-1,1
-0.7305324735845551,52,48,-1,1
0.10915568872957356,53,48,-1,1
-0.37785002453070654,54,48,-1,1
0.07787666951324335,55,48,-1,1
0.05531691401340598,56,48,-1,1
0.5138933795986743,57,48,-1,1
0.7953018650773226,58,48,-1,1
0.008745804453147831,59,48,-1,1
-0.9806755374333486,60,48,-1,1
-1.1144047544250872,61,48,-1,1
-0.13350144510881928,62,48,-1,1
0.31485038655121955,63,48,-1,1
0.11890827413274324,0,49,-1,1
0.09697489835476407,1,49,-1,1
-0.5848292323356337,2,49,-1,1
0.41315643263095087,3,49,-1,1
0.8492062036970162,4,49,-1,1
0.373948759781957,5,49,-1,1
-0.3034433116266255,6,49,-1,1
-0.07613038618587695,7,49,-1,1
-0.24454170667539754,8,49,-1,1
0.510331578944023,9,49,-1,1
4.06371051227806,10,49,-1,1
2.963346992516769,11,49,-1,1
0.3703940371065021,12,49,-1,1
-1.8639695918840367,13,49,-1,1
-1.1344092800053414,14,49,-1,1
-0.36997646101060516,15,49,-1,1
-0.17387389666033126,16,49,-1,1
2.9911401450899566,17,49,-1,1
4.190942042719369,18,49,-1,1
-2.889204086058808,19,49,-1,1
-0.7905093503488574,20,49,-1,1
1.1447618274182805,21,49,-1,1
0.344048072495365,22,49,-1,1
-0.9079225749450567,23,49,-1,1
0.18663609190290711,24,49,-1,1
1.524544591388986,25,49,-1,1
-0.24809516918344612,26,49,-1,1
-1.1601696292292083,27,49,-1,1
-1.5261884153384502,28,49,-1,1
1.8729553107255943,29,49,-1,1
2.032389499442314,30,49,-1,1
0.05427857343613139,31,49,-1,1
-0.08783981700931283,32,49,-1,1
1.070805023006074,33,49,-1,1
-0.03550479920938086,34,49,-1,1
